0.000937 0.026763 0.009929 0.007466 0.031296 0.010068 0.020257 0.016334 0.036114 0.009476 0.032331 -0.020192 0.018024 -0.018155 0.007459 -0.030517 0.007387 0.004882 -0.016412 -0.027416 -0.001273 -0.010262 -0.02694 -0.011799 0.008862 -0.00988 -0.023598 0.011109 0.017397 -0.005966 0.006266 -0.016679 -0.005227 0.007909 -0.017831 -0.025597 0.009364 -0.003938 -0.01838 -0.02309 -0.022531 -0.029289 0.011287 0.008196 0.013233 0.018468 -0.018919 -0.022831 -0.0332 0.03475 0.02907 0.004532 -0.008289 0.018255 -0.013922 0.022438 0.027429 0.022838 -0.007028 -0.012864 0.010009 0.011193 0.008231 -0.01918 -0.018517 0.007082 -0.004388 -0.009325 -0.025246 0.017356 -0.024503 0.02499 -0.010029 -0.010455 -0.025831 0.002576 -0.011662 -0.020868 0.000997 -0.032099 -0.0092 -0.02107 -0.018901 0.022867 -0.011792 0.025642 -0.008683 0.019193 -0.011948 0.030807 0.024126 -0.028994 -0.007525 -0.003959 -0.006268 0.006238 0.032338 0.008557 0.015921 -0.004934 -0.039337 0.015318 0.006723 -0.003214 0.016391 0.010345 -0.014138 0.004052 -0.019583 -0.022008 -0.00527 -0.019287 -0.018733 0.013499 -0.014309 0.010794 -0.013912 0.042649 -0.007301 -0.010062 -0.044016 0.004173 0.021434 -0.025075 -0.02253 0.011153 0.022252 -0.004449 -0.045597 0.013519 0.042019 -0.01494 -0.010816 0.020858 0.013049 -0.00216 0.025874 -0.036224 0.00094 0.018378 0.007948 0.029895 -0.029247 0.004003 -0.011479 0.013284 -0.027393 0.006551 -0.013092 0.00254 0.033022 0.002824 0.002215 -0.025364 0.017565 0.020952 0.015884 -0.014647 -0.010096 0.001229 0.016012 -0.008694 -0.018786 -0.008422 0.020761 -0.023873 0.010738 0.010322 0.023771 0.029923 -0.024387 0.002171 -0.038174 -0.026088 -0.000974 0.008398 0.001351 0.025626 -0.027569 0.004073 -0.029777 0.004518 0.026153 -0.010115 -0.040219 0.030351 -0.012938 -0.031361 0.015709 0.019953 -0.023418 0.010089 0.018031 -0.007223 0.039134 -0.010437 -0.002089 0.056528 -0.009244 -0.050032 -0.033565 0.011429 0.037498 0.002636 0.013398 0.035464 0.010815 0.008125 0.014639 -0.020847 0.011579 -0.005296 0.010016 0.007444 0.022115 -0.020922 -0.020722 0.007272 0.032149 -0.032962 -0.015611 -0.028141 0.011503 -0.015407 -0.027557 -0.019918 -0.026205 -0.010021 -0.006797 -0.003761 -0.024408 0.010732 0.016814 -0.023001 -0.021144 0.000892 0.01966 0.023644 0.021221 0.006662 0.026216 0.022932 -0.000611 -0.027747 0.015965 0.030021 -0.023886 -0.035244 0.042523 0.000666 0.019938 -0.021012 -0.013025 0.010597 -0.020819 -0.00976 -0.026671 0.013251 -0.01545 0.029117 -0.005391 -0.033851 0.012705 -0.032909 -0.012299 -0.03536 0.013709 0.011925 -0.005316 0.004689 0.030832 -0.025968 -0.020669 -0.007825 0.021255 -0.016466 0.020346 -0.026371 -0.016962 -0.026533 0.025593 -0.011804 -0.009809 -0.002583 -0.013511 -0.009362 -0.012903 -0.00794 -0.026667 0.027003 -0.002031 -0.018966 0.010823 0.005069 -0.026923 0.031561 0.005348 -0.016329 -0.005618 0.029012 -0.019497 0.003303 0.011452 0.007335 8.7e-05 0.019124 -0.014631 -0.016758 0.030128 -0.005824 0.022959 -0.02626 -0.02019 0.006226 -0.024343 -0.021497 -0.001448 -0.007655 0.028565 0.009613 -0.018172 0.01614 -0.033875 0.029378 0.018414 -0.001189 -0.01189 0.011283 0.013024 -0.000484 -0.014732 0.022844 -0.012423 -0.02542 0.003259 -0.020195 -0.0117 0.026924 -0.009834 0.020414 -0.009146 -0.002935 0.012868 0.025161 -0.015859 0.009816 -0.023598 -0.011504 -0.000508 0.008672 0.004556 0.006447 0.004732 0.018934 -0.010246 0.019074 -0.019813 0.015652 0.008605 -0.022489 -0.027871 -0.021365 -0.017373 -0.016596 -0.009764 -0.01908 -0.023221 0.020324 -0.013927 0.033407 0.027704 0.019258 -0.021761 0.004558 0.018024 0.032451 0.012588 0.025235 0.013493 -0.028537 -0.018567 0.029424 -0.014591 0.01971 -0.019167 0.0006 0.038461 0.009054 0.017195 -0.017266 -0.027276 -0.008267 0.003198 0.04046 0.020994 0.016609 -0.031061 -0.010512 0.024889 0.006026 0.025509 -0.000186 0.025184 0.007306 0.013454 -0.004568 -0.006116 -0.013053 0.024361 -0.031973 -0.002968 -0.000523 0.016682 0.001463 -0.005241 -0.018666 0.023263 -0.005971 0.013616 -0.003362 0.007608 0.024731 -0.009598 0.027779 0.001769 0.008128 -0.012566 -0.007536 -0.003108 0.014931 0.002745 -0.00299 -0.013129 -0.002132 -0.001282 -0.002572 -0.006966 0.022166 -0.018338 -0.01221 0.014051 0.023765 -0.011363 -0.024563 -0.012481 0.004431 0.025532 -0.001688 -0.014497 0.01911 0.033647 -0.006327 -0.013797 0.020954 -0.006169 0.010434 0.017934 0.005281 -0.008197 -0.008334 -0.028951 0.019281 -0.023296 0.012797 -0.011103 0.005741 0.022681 0.014226 0.000234 0.025229 -0.015387 0.013623 -0.021997 0.011084 0.021617 -0.011842 0.0241 -0.02084 0.003147 0.006001 0.023062 0.016984 0.001025 -0.00557 0.022029 0.005744 -0.027893 -0.011241 0.031911 0.016292 0.015189 -0.034407 -0.021479 0.00131 0.005788 0.008921 0.029574 0.025449 0.030166 -0.010333 0.002963 0.016014 -0.021525 0.000439 -0.019202 -0.012921 -0.022468 0.002128 0.032631 -0.001151 -0.015686 -0.002175 -0.019576 -0.004109 0.013178 0.007137 0.010734 0.03749 -0.022136 0.00194 0.000317 -0.022037 0.033732 -0.002035 -0.021939 0.02051 0.009751 -0.013356 0.001721 -0.019663 -0.013809 -0.024771 -0.005438 0.03205 0.026342 -0.013287 0.030616 0.013379 0.024724 -0.005062 -0.038234 -0.027329 0.017732 -0.035987 0.026712 0.017234 0.013688 -0.019899 -0.030296 0.027459 0.002749 -0.023384 0.026302 -0.004114 -0.004412 0.007294 0.006811 -0.013282 0.001473 -0.013995 0.002082 -0.000265 0.034966 0.01867 -0.025235 -0.00223 -0.001868 -0.026581 -0.011106 -0.015818 -0.00809 0.024125 0.022409 0.002276 0.023584 -0.004133 -0.025895 -0.000416 0.021014 0.032192 0.003244 0.015181 0.023433 0.007296 0.031386 0.024572 0.016072 -0.02325 0.005934 -0.030716 -0.008091 -0.017475 0.003186 -0.007021 0.019383 -0.027914 0.003237 -0.031951 -0.012874 0.017784 0.003777 -0.016389 -0.012579 -0.012724 0.001737 -0.02008 -0.027568 0.003044 0.031414 0.001042 0.014154 -0.019935 0.005088 -0.009028 -0.004001 0.015028 -0.007522 -0.010486 -0.006964 -0.012215 0.010913 -0.023984 0.000403 -0.013555 0.023271 -0.003599 0.035008 0.026134 -0.013283 -0.019126 0.002573 -0.003264 0.03413 0.015684 0.019362 0.022147 0.026773 -0.001277 -0.012447 -0.02827 0.018495 -0.021847 -0.02638 -0.020727 0.014542 -0.012104 0.021447 -0.01111 -0.003229 0.030591 0.007964 -0.024347 0.022169 -0.021721 -0.021144 0.020393 0.019555 -0.024488 0.027114 -0.009103 0.021637 -0.027482 -0.018648 0.00133 -0.002337 -0.020921 -0.005379 -0.018233 0.000782 -0.027526 0.004846 0.013317 0.009201 -0.014339 0.028063 -0.005952 -0.026103 0.008709 -0.022765 -0.029833 0.000828 -0.011289 0.030215 0.026192 0.027933 -0.006534 -0.029641 -0.022462 -0.012477 0.0246 0.002013 0.003599 0.02972 0.003804 0.000144 -0.006209 0.000678 -0.000147 -0.019047 -0.02201 0.017701 0.018328 -0.016765 -0.002556 0.000787 0.026558 -0.023971 -0.001879 0.027092 0.020703 -0.021734 0.012449 -0.000192 -0.003103 -0.025433 0.013432 0.015391 0.007165 -0.008708 0.029078 0.005158 0.000623 -0.02215 -0.004888 -0.02129 0.007006 0.000113 0.015189 0.0015 -0.005885 -0.006911 -0.005578 0.022459 -0.000306 -0.01283 0.007438 0.020411 0.025039 0.023624 0.002452 0.025922 0.010176 0.025063 0.024997 -0.008214 0.006963 -0.020968 -0.016174 -0.008053 0.017611 0.015745 0.0248 0.02663 -0.011017 -0.000394 -0.002855 -0.019653 -0.018228 -0.008721 -0.014584 0.020826 -0.017619 -0.021606 -0.014774 -0.014338 -0.025555 0.012564 0.007459 0.014326 0.007965 0.000729 -0.016751 0.011913 -0.01479 0.002863 -0.008863 -0.030283 -0.023649 0.010163 0.017055 0.010168 -0.028476 -0.021135 -0.003929 0.023567 0.008536 -0.018341 0.009882 0.013005 0.014945 -0.003394 -0.025274 0.021553 -0.004142 -0.007601 -0.008622 -0.024957 -0.021147 -0.000839 -0.017794 -0.019422 0.002709 -0.025181 -0.01064 0.012893 -0.016929 0.027667 -0.030283 -0.014896 -0.019771 0.024932 0.009412 0.018415 -0.014429 -0.029801 -0.003531 -0.019899 -0.014115 -0.021667 0.022218 -0.02361 0.018547 0.009459 -0.016286 0.005327 -0.005031 -0.003221 -0.009306 0.011401 0.024388 -0.00093 0.020455 0.004285 0.022565 -0.019545 -0.024789 -0.010474 -0.004331 -0.017081 -0.005534 0.023427 0.017546 -0.016825 0.013786 -0.002002 -0.002879 0.021239 0.031739 0.01763 -0.004113 0.017269 0.014905 0.02872 0.016344 0.008265 -0.016358 -0.026642 -0.00918 0.003315 0.024196 0.015116 0.017004 0.033787 0.023206 0.013956 -0.019909 0.020707 -0.012624 0.010028 0.037072 0.017142 -0.028232 0.029902 0.005952 0.026743 0.000601 0.004219 0.024327 -0.005977 -0.014342 -0.016011 -0.017876 -0.017744 -0.009171 0.018854 0.032059 0.031806 0.002845 -0.005714 -0.023964 -0.020534 0.013371 0.028661 0.017063 0.032885 0.017825 0.007201 -0.003156 -0.00855 0.032201 -0.015226 -0.007109 0.027301 -0.002321 0.022879 -0.010437 0.007367 0.005157 -0.004657 -0.025036 0.020021 -0.016996 0.027691 0.031533 0.015151 0.008178 -0.005713 0.006343 -0.011735 -0.032823 0.002847 0.006818 -0.017197 -0.007448 -0.016898 -0.005744 -0.026834 0.033059 -0.029056 -0.004283 0.009184 0.00051 -0.017108 -0.024611 0.011941 -0.022919 0.006116 0.029108 -0.004065 -0.016137 0.020728 0.003016 -0.001472 -0.029465 0.00974 0.010139 0.014129 0.0069 0.012271 0.020433 -0.023032 -0.025971 -0.015531 -0.024538 0.016232 0.009707 -0.017793 -0.041704 -0.00388 0.013348 -0.017229 0.000749 -0.00741 0.032697 -0.025169 0.041934 0.012967 0.017469 -0.011121 -0.002456 -0.00445 -0.011164 -0.005747 0.004646 -0.006286 -0.023389 0.04113 -0.006579 -0.037235 -0.013151 0.024389 0.014657 0.020297 -0.016858 0.04187 0.006233 0.012872 0.016792 0.038221 -0.014434 -0.023294 -0.00671 0.026785 0.006863 0.022758 0.003468 0.007735 -0.002844 0.014589 -0.023653 0.036596 0.003325 0.008691 -0.002685 0.0149 0.012117 -0.013446 0.039052 0.030691 -0.019317 -0.01003 0.019945 0.001776 -0.031214 0.011564 -0.004566 0.018928 -0.024231 0.000408 -0.006266 0.000154 -0.020566 0.011593 0.023556 -0.024883 -0.001161 -0.019404 -0.008213 -0.025483 -0.006245 -0.024876 -0.020671 0.030515 -0.011593 -0.02266 -0.014303 -0.005082 0.026862 -0.028819 -0.007144 0.022263 -0.011926 0.017041 -0.019056 0.010569 -0.021075 -0.025787 0.015097 -0.00246 0.033893 -0.024741 0.034594 0.018198 -0.009355 0.019852 0.029117 0.019366 0.036907 -0.000148 -0.015375 0.004835 -0.000798 0.016689 -0.009608 0.02911 0.015568 -0.009679 -0.025933 0.019616 0.023753 -0.02314 -0.028832 0.013838 -0.004894 -0.003582 -0.011686 -0.003836 0.004217 0.015065 -0.01742 -0.017938 -0.012508 -0.019733 0.011246 0.004332 -0.003276 -0.002987 0.023523 -0.036361 0.031206 -0.000408 0.005715 -0.017161 -0.026359 -0.034771 -0.018764 0.041722 0.011736 -0.039232 -0.001856 -0.007418 0.01373 -0.030622 -0.017695 0.013829 -0.006663 0.023076 0.007933 -0.01648 0.026091 -0.016669 -0.018636 0.011674 -0.022214 -0.006237 0.000203 -0.005615 0.002711 -0.00195 -0.006659 0.015863 -0.002657 0.021604 -0.028564 -0.029199 0.010885 0.009735 -0.029993 -0.011846 0.017659 0.006116 0.005541 0.005323 -0.010483 -0.024356 -0.00814 -0.041301 -0.033864 -0.030222 -0.019334 -0.016683 0.011461 0.005818 -0.02691 0.00026 0.025372 0.02684 -0.014554 0.005772 -0.031788 -0.01433 0.003235 -0.030566 0.008109 0.003669 0.021166 -0.033961 -0.020407 -0.003805 0.017971 0.018192 -0.000665 0.02944 -0.00422 -0.005653 -0.030816 -0.006356 -0.006024 0.00524 0.010285 -0.007135 -0.017825 0.032016 0.014472 -0.013215 -0.000254 0.026214 -0.02631 0.018091 -0.01858 -0.017339 0.024127 0.009838 -0.006872 -0.005852 -0.017945 -0.028015 -0.024773 0.012818 0.009687 -0.017341 0.003967 0.006239 -0.008631 0.028761 -0.030187 -0.010663 0.030216 0.014974 -0.014125 0.005912 0.01561 0.012884 -0.022876 -0.020979 0.014129 -0.009431 0.02657 -0.027276 0.034862 -0.006155 0.003653 0.028702 -0.013231 -0.018033 -0.0039 0.009893 0.00164 0.016226 0.02332 0.021168 -0.026804 0.020917 -0.001094 -0.028539 0.033088 -0.01215 0.00763 -0.022193 -0.008806 -0.008812 0.002922 0.022517 0.009755 -0.029406 0.015333 0.003817 0.026903 0.00251 0.013244 -0.004311 -0.00665 -0.002517 0.00424 -0.026987 0.027246 -0.037053 0.006459 -0.031477 0.029162 0.021201 -0.027175 0.021402 0.023345 -0.010183 0.000491 -0.000987 -0.022656 -0.035929 0.000788 -0.004414 0.019711 -0.000886 -0.018208 -0.031001 0.005751 -0.020206 0.025901 0.004307 -0.01015 0.006809 -0.024924 0.025357 -0.009093 0.018556 0.028369 0.006927 0.022659 0.038697 -0.019046 0.031772 0.009268 0.013076 -0.000327 0.004922 0.033711 0.016981 0.014083 0.007264 0.005853 0.015375 -0.008939 0.008088 -0.026626 -0.024165 -0.005371 -0.005652 0.014128 0.024473 0.005412 -0.014816 0.01113 -0.018956 -0.008913 -0.008055 0.005977 -0.041763 0.011726 0.003395 0.020639 0.0031 -0.003854 -0.010903 0.008844 0.001253 0.022678 -0.019806 -0.021757 -0.028687 -0.022698 -0.016787 -0.01061 -0.006694 0.010214 -0.002646 -0.023374 0.006933 0.022595 -0.035732 0.020434 -0.021938 -0.018233 0.011409 0.015089 0.026784 0.006926 -0.032807 -0.013733 0.027475 0.013416 -0.001007 0.012455 -0.021235 0.003088 -0.024988 0.025584 0.039236 -0.02792 -0.003327 -0.002966 -0.011994 0.009221 -0.021142 -0.019113 0.006924 -0.015512 -0.0041 -0.028962 0.011956 -0.006117 0.02136 -0.017738 -0.014204 0.013087 -0.007709 -0.004569 -0.024728 -0.008585 0.016235 0.027114 -0.004395 -0.013664 0.02749 -0.03736 0.016446 -0.018112 0.015256 -0.024154 0.010755 0.007657 -0.029349 -0.01535 -0.016514 -0.025619 -0.007626 -0.008976 0.014492 0.006221 0.020514 -0.018174 -0.012421 0.004725 -0.026287 -0.021335 0.027549 -0.01977 -0.025399 0.003525 0.018711 -0.031159 0.006317 0.011523 0.000449 -0.029828 0.019205 0.0224 0.003984 -0.026897 0.004392 0.023144 -0.004354 0.027026 0.012064 -0.012786 -0.023346 0.025633 -0.021051 0.032038 0.008211 -0.006679 0.010937 0.004162 -0.008412 0.001548 0.008276 0.028361 -0.025722 -0.005396 -0.029237 -0.021724 0.030722 0.036177 -0.010261 0.007865 0.008001 -0.016022 -0.000429 0.025062 0.006188 -0.017775 0.011992 0.024743 -0.002142 -0.016715 0.007327 0.008477 -0.00206 0.027011 0.013583 0.004592 -0.008724 -0.006404 -0.004357 -0.00492 0.013322 -0.006344 -0.023932 -0.015025 -0.030421 -0.021529 0.019766 0.025247 -0.013363 0.014152 0.016157 0.016793 0.01716 -0.0112 -0.003082 -0.008138 -0.03261 0.003232 -0.024432 -0.034719 0.026675 -0.031356 0.025942 0.033486 0.027245 -0.018825 -0.017943 -0.006343 -0.00961 0.022687 -0.015736 -0.021059 -0.017013 0.012223 -0.023234 -0.01523 0.041537 0.026284 0.024497 0.003969 0.030187 0.023716 0.009705 -0.016663 0.0211 -0.028089 0.028754 0.019199 -0.01342 -0.007413 0.002199 -0.000295 0.003043 0.017916 0.031091 -0.023234 0.020186 0.023645 -0.024301 -0.031199 -0.035544 -0.01405 -0.010958 0.010199 0.009349 0.034307 -1.5e-05 0.001463 0.018501 -0.018926 -0.008524 -0.000929 0.017108 0.024636 0.02528 -0.009268 -0.012113 -0.016137 0.031684 -0.017619 -0.019649 0.01521 0.030631 -0.005324 -0.007169 0.001448 0.010595 -0.008153 -0.030441 0.028797 -0.016215 -0.009444 0.012857 0.027781 0.000455 0.015502 0.01243 -0.009354 0.018352 -0.013281 -0.021505 0.020612 -0.018435 0.01467 -0.026887 0.023448 -0.024982 -0.013531 -0.010761 0.031649 0.024442 -0.024318 0.012139 -0.004418 0.017937 -0.018812 0.014393 0.009896 -0.020035 0.002499 -0.030153 0.027174 0.013548 0.028219 0.029392 -0.025097 -0.027438 0.011932 -0.03437 -0.021197 0.02181 0.006736 0.022413 -0.022271 0.004264 0.011053 -0.02343 -0.013469 -0.016459 0.01943 0.004286 -0.010885 0.035084 -0.015661 -0.009477 -0.012823 0.011114 -0.021504 0.025902 0.002906 -0.024577 -0.030538 0.025931 0.025322 0.013513 0.028153 -0.031633 0.026397 0.01083 0.001661 -0.00393 0.025005 0.009015 -0.027622 -0.014818 0.001139 0.024764 -0.012151 0.018656 -0.009923 -0.006435 -0.003828 -0.006011 -0.013452 -0.01282 -0.005894 0.002249 -0.029447 -0.023153 0.022361 0.013247 0.005471 0.008824 0.006686 -0.021777 -0.025413 -0.016373 -0.016592 -0.003755 0.016527 -0.021206 -0.014292 -0.024074 0.000851 0.02253 -0.010681 0.025713 0.008996 0.021361 0.02705 -0.013289 -0.018884 0.035738 0.005844 0.017224 -0.022589 -0.022881 -0.009025 0.028555 0.027165 0.01257 0.018637 0.034321 0.001239 0.032063 0.032827 0.026293 0.023502 0.022177 0.010431 0.004641 -0.019267 -0.013626 0.007648 0.02099 0.026004 0.032293 -0.028431 0.026172 0.010145 0.015307 -0.027127 0.016521 -0.025885 0.007275 -0.005406 -0.031531 0.020976 0.028671 -0.0075 0.001687 -0.018673 -0.016028 -0.02118 -0.003123 0.029416 0.00237 0.004789 -0.028834 0.024147 0.012722 0.004082 0.01798 -0.012821 -0.009631 -0.028966 -0.034823 -0.018961 0.005984 -0.014912 0.021494 0.003697 0.038418 -0.016289 -0.01766 -0.015809 -0.021181 0.007162 0.03178 -0.02704 0.035848 -0.029048 -0.007391 -0.017205 -0.035291 0.022402 -0.015775 0.00763 -0.020636 0.01478 -0.009043 0.037307 -0.009599 0.021063 0.020381 0.011584 -0.009663 0.010467 -0.004256 0.0095 -0.0214 -0.029765 -0.009931 -0.010173 0.027301 -0.023386 0.023597 0.0043 -0.00765 0.025295 -0.013602 0.019531 -0.030949 0.008119 0.020121 0.025191 -0.00551 0.014068 -0.01303 0.004436 0.002669 0.012022 0.032504 0.029472 0.024786 -0.005244 0.021577 -0.004583 -0.019339 0.0283 -0.036748 0.000656 -0.017374 -0.006412 0.005234 -0.031689 -0.026452 0.028372 0.028355 0.019641 -0.004927 0.013543 0.00091 0.02117 0.024889 -0.00518 -0.007981 0.009166 -0.000366 0.024741 0.001589 -0.029646 -0.036924 0.004203 -0.017141 -0.008721 -0.003308 0.035701 -0.005773 0.001966 0.005751 0.013251 0.016565 0.001793 0.022895 -0.003318 0.039373 -0.017049 -0.022893 0.038238 -0.035914 -0.006066 -0.006308 -0.016633 -0.007801 -0.024201 -0.052406 0.020116 0.02751 0.008896 -0.013342 0.016015 0.007819 -0.036534 0.003415 0.032163 -0.020181 -0.008478 -0.027612 0.007493 0.014346 -0.005171 -0.001663 0.004669 -0.027577 0.03287 -0.016875 -0.019436 -0.011083 0.003269 -0.005318 -0.026462 0.011332 0.031082 0.005413 0.029384 0.019371 -0.023769 -0.009104 -0.020778 -0.026515 -0.031135 0.00508 -0.033014 0.01146 -0.001107 -0.022194 0.020363 0.02307 -0.023305 0.016135 0.003118 0.022283 0.027216 -0.021459 0.000841 -0.003901 -0.008412 -0.002159 -0.019555 -0.033758 -0.011749 0.02388 0.014627 -0.01371 -0.020605 -0.007533 -0.020757 -0.028241 -0.008497 0.014076 0.02584 0.016078 0.017561 0.009791 -0.030793 0.030816 -0.034767 0.007455 0.01978 0.023825 0.014779 -0.01596 -0.018083 -0.034521 0.017317 0.018131 -0.009594 -0.027796 -0.030162 -0.012075 0.026155 -0.027761 -0.013894 0.011234 0.020406 0.037038 0.020806 0.028799 -0.016534 0.003134 0.010744 -0.015035 0.015246 -0.010819 0.0273 -0.026804 -0.010583 -0.013355 0.006698 0.011062 -0.031936 0.022613 -0.033288 0.012385 -0.002939 0.018185 0.03021 -0.020368 0.012103 -0.025228 -0.01258 -0.00465 -0.013304 -0.014521 -0.031489 -0.007727 -0.005638 0.030217 -0.011013 -0.023726 -0.000595 0.014452 -0.018615 -0.029496 -0.009834 0.038015 0.022717 -0.023646 0.019687 -0.020354 -0.032296 -0.017467 -0.005656 0.02969 -0.031448 0.019941 -0.017729 0.032004 -0.007335 0.011953 0.008055 -0.024342 0.025089 -0.005793 0.036423 -0.009656 -0.019532 -0.014332 -0.030016 -0.019171 0.034851 -0.038355 -0.024686 -0.005815 -0.032138 0.030715 0.000835 -0.00896 -0.02147 -0.018343 0.004932 0.011675 0.020222 0.003422 -0.005579 -0.006404 -0.002446 0.01979 -0.016335 0.038416 0.016824 0.028755 0.014182 -0.001173 0.028644 0.033756 -0.01343 -0.027184 0.008288 0.014068 0.011954 0.023801 0.002653 0.021477 -0.002674 0.032902 -0.005694 -0.010735 -0.017383 0.002755 -0.01062 -0.026958 0.017275 0.019224 0.016835 0.030517 0.024157 -0.020035 -0.006403 0.009872 -0.0113 -0.01638 -0.02691 0.011955 -0.023683 0.005549 0.022266 0.010193 0.024828 0.002857 0.010292 0.018861 -0.012337 -0.020805 -0.02738 0.007585 -0.014172 -0.021827 0.009255 -0.010305 0.027819 0.015206 0.019402 0.018357 0.004012 -0.001005 0.017728 -0.019339 0.003962 -0.013449 -0.001121 -0.017145 0.035578 0.005451 -0.009743 -0.032034 0.019747 -0.032249 0.015577 0.019832 -0.003054 0.009657 -0.011316 0.003603 0.024147 0.022296 0.028962 -0.02821 0.025174 -0.014137 0.008519 0.012698 -0.012929 0.025607 0.000206 0.009553 0.024577 -0.030261 -0.017866 -0.029126 -0.000992 0.001824 0.007235 0.016567 0.010747 -0.01005 -0.020522 -0.013791 0.024979 -0.005548 0.02556 0.013499 0.006544 -0.012887 0.011183 0.023606 0.003116 0.023858 -0.026034 0.018245 0.008609 0.005518 -0.015003 0.024813 -0.003973 -0.022624 -0.002262 -0.017379 0.016333 0.018525 -0.020962 0.021769 -0.025912 0.009848 -0.004682 0.015048 -0.01193 -0.002855 0.005407 -0.006595 0.021587 -0.004678 -0.0059 0.029537 0.022896 0.027425 -0.02208 0.014998 -0.015894 0.020508 0.01468 -0.001137 -0.007603 -0.015558 -0.012187 -0.002597 0.002214 0.009914 0.005924 -0.010821 -0.012516 -0.02591 -0.014127 -0.00182 0.019476 0.0085 0.023907 -0.025968 -0.03212 0.008297 -0.005428 0.002997 0.00861 0.028476 -0.017044 -0.027107 0.020386 0.032768 -0.017046 0.025515 0.009821 -0.015108 -0.013755 0.004953 -0.018081 0.019385 0.011026 0.031695 0.019859 0.031623 -0.02684 -0.000418 -0.007794 -0.008397 -0.004875 0.003429 -0.010269 -0.014854 -0.015895 -0.026126 -0.027041 -0.016296 -0.012768 -0.009915 0.028817 -0.000143 -0.009339 -0.027957 -0.005701 -0.008752 -0.004923 0.0221 -0.021116 0.020621 -0.017246 0.025227 0.012104 0.014174 -0.017519 -0.022539 -0.017116 0.016386 -0.012524 -0.0247 -0.014854 0.026086 0.007861 -0.012769 -0.011749 0.003642 -0.010748 -6.2e-05 0.033363 -0.000478 -0.005915 -0.026519 0.027568 0.025576 -0.000921 0.009936 0.025973 -0.020324 0.013366 -0.009168 -0.0245 0.002796 -0.005862 0.004004 0.023421 -0.020417 0.018811 4.4e-05 -0.006756 0.025231 -0.009297 0.023945 0.009364 -0.005304 0.009433 0.003002 -0.008531 0.018406 -0.014651 -0.007411 0.038963 -0.030229 0.029744 0.031291 0.031281 0.007021 0.004914 0.007097 -0.010687 0.00407 0.028808 -0.004975 -0.032282 -0.004485 0.014169 -0.007734 0.001741 -0.007027 0.003057 0.00296 0.031489 0.025963 0.027053 -0.031671 0.007385 0.02499 0.008369 -0.022038 0.000424 -0.003026 -0.016724 -0.031294 -0.020572 -0.003905 0.031877 -0.022093 0.013935 -0.017141 -0.010227 -0.012484 -0.028816 -0.018505 -0.02807 0.007531 -0.02368 0.033297 0.020024 0.022588 0.026657 0.01225 -0.017382 -0.006791 -0.023363 0.002445 -0.019724 -0.01749 0.00538 -0.008305 -0.031373 -0.009792 0.011491 0.032547 -0.001408 0.004963 0.024634 -0.018129 0.003228 0.018632 -0.017158 0.021102 -0.016138 0.011019 0.031315 -0.022833 -0.021834 -0.022995 0.006723 -0.026797 -0.003655 0.01109 0.02565 -0.011763 0.026115 -0.022438 -0.000869 0.014807 0.027536 -0.021228 -0.00503 0.008914 -0.006543 -0.003093 -0.028207 -0.030279 -0.012662 -0.003032 -0.027693 -0.007673 0.018572 0.022748 -0.000355 -0.019175 0.001787 -0.025809 0.002647 0.017194 -0.029509 0.024017 0.023083 0.002062 0.008847 0.017488 0.016771 -0.002095 -0.01113 -0.015911 -0.011243 0.022237 0.019988 -0.014712 0.01414 0.003349 -0.018444 -0.011412 0.00226 0.009676 -0.004957 0.032878 -0.007765 -0.006993 0.018731 0.005192 0.014476 0.019036 0.006969 -0.024816 0.002488 0.008704 -0.006191 -0.024106 -0.012115 0.02362 0.002189 -0.001486 -0.012124 -0.03063 0.014169 -0.013832 0.034054 -0.006351 -0.012228 -0.003925 -0.026331 0.006936 -0.027805 -0.009537 0.018073 -0.005068 -0.001483 -0.0031 0.027221 -0.019761 0.032929 0.024016 -0.002179 0.022267 0.006455 0.023634 -0.013184 -0.033159 -0.007113 -0.001999 -0.015056 -0.015041 -0.027646 -0.009131 -0.016293 -0.016096 0.024499 -0.018017 -0.01222 -0.017667 0.010392 -0.028202 0.016561 -0.014547 -0.01033 -0.023835 0.016687 0.003056 0.015888 -0.000326 -0.001608 0.029262 -0.006464 0.029486 0.008732 -0.02551 -0.006757 -0.001328 -0.018414 -0.022447 0.011193 0.021584 -0.015697 -0.029994 -0.013441 0.008783 0.01489 -0.026378 -0.013456 0.005296 -0.000177 -0.025894 -0.018475 -4.8e-05 -0.019903 -0.00201 0.000424 0.014072 0.010121 0.005265 -0.000588 0.028632 -0.012163 -0.031766 -0.014274 -0.003306 0.02395 -0.0032 0.002329 0.005001 -0.002524 0.013257 -0.024108 0.025804 0.009317 -0.004193 -0.017503 0.008324 -0.000534 -0.009757 0.039058 -0.018253 0.007053 -0.003643 -0.01044 0.020557 -0.013843 0.023938 -0.003875 -0.007733 -0.028156 0.003519 -0.0099 -0.004803 -0.029342 0.030364 -0.021809 0.006066 0.003895 0.022505 0.024179 -0.003084 -0.013415 -0.003537 -0.01013 0.005882 0.029276 0.016947 0.028861 0.027361 0.016075 0.024701 0.019193 -0.027841 -0.008132 0.031974 0.023214 0.003749 0.021543 -0.007368 -0.007125 0.02235 -0.028111 -0.013243 0.036821 -0.009946 -0.027836 -0.012216 0.023826 0.018563 -0.018835 -0.027731 -0.014355 0.025913 -0.000567 0.008672 0.022217 0.02384 -0.030368 0.002388 -0.006294 0.022229 0.027589 -0.005163 -0.007907 -0.016629 -0.01618 -0.025423 -0.00209 0.00333 0.025865 0.022286 -0.022245 0.026705 -0.013545 -0.005231 0.020196 -0.014307 -0.018938 0.027541 -0.002682 0.016912 0.025489 -0.017373 -0.018111 -0.003362 0.009839 0.001805 -0.029223 0.006173 -0.023065 -0.003674 0.012578 -0.004593 0.008483 0.01395 0.00541 -0.021249 -0.020321 0.020857 0.026396 0.023387 -0.027152 0.008094 0.016732 -0.01863 -0.01099 0.007511 -0.010409 0.013634 -0.016405 -0.029108 0.028674 0.009925 -0.00656 0.011702 0.02612 -0.031192 -0.019179 0.022485 -0.002685 0.017316 0.028697 0.015582 -0.020427 -0.002912 0.016689 0.008222 0.011669 0.007432 0.011971 0.028687 0.007777 -0.023191 0.017752 0.022194 -0.001814 -0.003288 -0.023628 -0.015472 -0.017234 -0.000148 -0.007507 0.020047 -0.011944 0.010957 -0.017977 -0.008241 -0.000123 -0.006541 -0.024341 0.01314 -0.002268 -0.022083 0.022152 0.007258 -0.005398 0.013602 -0.019936 0.002386 0.017269 -0.007998 -0.023511 -0.031229 0.006292 0.019424 -0.016898 0.025972 -0.003663 -0.005661 0.017631 -0.021314 -0.017588 -0.018274 -0.016048 -0.019096 0.024904 0.000436 -0.000198 0.010707 -0.025889 -0.01456 0.003031 0.002243 -0.031409 0.013415 -0.026114 -0.012188 0.020142 -0.021265 0.017954 -0.016175 0.02049 0.000856 -0.017178 -0.025116 -0.013836 -0.00556 -0.007974 0.021433 0.016157 -0.000895 -0.015469 -0.028487 -0.004027 -0.009328 -0.000238 -0.020797 -0.011469 -0.008334 -0.00208 0.015459 0.037601 0.011845 0.025205 -0.024795 -0.015356 -0.002591 -0.016975 -0.011142 -0.025436 -0.023625 0.010807 -0.013643 0.036686 0.017745 -0.03187 -0.005165 -0.025897 -0.009898 0.019598 0.032671 -0.01721 0.029509 0.006145 0.003683 -0.011673 -0.030151 0.038303 -0.015221 -0.026235 -0.009721 -0.003117 -0.027771 -0.015818 -0.035029 0.035243 -0.020329 -0.022702 0.017125 0.000994 0.024037 -0.025733 -0.031201 0.011408 -0.006389 -0.033629 0.019425 0.00666 0.005299 -0.021626 0.018193 0.022579 0.020676 -0.023418 -0.025554 0.031708 -0.008081 0.021911 -0.007917 -0.039093 0.027248 -0.004505 -0.012497 0.00166 -0.002245 0.019375 0.020461 -0.010305 0.010744 0.026856 -0.002551 0.021935 0.030421 0.013063 0.03799 -0.025222 0.004845 -0.006084 0.002129 0.00203 -0.006062 0.024222 0.01938 0.021242 -0.021825 0.025612 0.031225 -0.012255 -0.032197 0.021863 0.02032 -0.009934 0.01934 -0.002284 -0.012645 0.028384 -0.016922 -0.003173 -0.015986 -0.003473 -0.011191 0.011781 0.002216 0.006173 -0.015241 0.027423 -0.002423 -0.019759 -0.004747 0.009964 0.00214 0.011135 0.021867 -0.002585 -0.012968 -0.034718 0.009001 -0.022706 0.025396 0.024676 0.022932 -0.018936 -0.025845 -0.005761 -0.028637 -0.00978 -0.010638 0.010758 0.011837 0.017289 0.020255 -0.015848 -0.004568 0.033069 -0.017942 -0.007069 -0.021534 -0.021406 -0.025814 -0.007829 0.016328 0.000193 0.012335 -0.033808 0.027008 0.004353 -0.006269 -0.023823 -0.038892 -0.014002 -0.006722 -0.02542 -0.031137 0.015174 0.023077 0.027646 -0.015066 -0.014081 -0.022795 0.025613 -0.024349 0.011503 -0.000879 0.008911 0.025688 0.015902 -0.020062 0.006442 -0.022037 -0.017905 -0.032967 0.049766 -0.000249 0.021332 0.009997 -0.017987 -0.01967 -0.030353 0.022582 -0.01124 0.010946 -0.0234 0.011246 0.047525 -0.016769 0.009426 0.014314 0.026681 -0.013332 -0.021594 0.012285 0.020961 -0.009552 0.013854 0.014109 -0.011638 0.016415 -0.018554 -0.024538 0.023448 -0.013741 0.001283 -0.02914 0.024351 0.002063 0.025654 0.033767 -0.025395 -0.0215 0.026312 -0.000281 -0.000144 -0.017913 -0.011589 -0.034952 0.033122 0.011265 0.008899 -0.003495 0.025855 -0.028375 0.039117 -0.003118 0.012554 -0.027422 0.029459 -0.024987 0.008231 0.03071 0.015643 0.014088 -0.007467 -0.028633 -0.009775 0.009285 0.018405 0.017061 -0.007249 -0.017984 0.008426 0.019067 0.029935 -0.008521 -0.002892 0.040553 0.000499 0.004531 -0.032478 -0.015318 0.001338 -0.020113 0.033222 0.033066 -0.003529 -0.008844 0.020812 0.011469 0.004813 -0.017556 -0.005384 0.015734 0.007464 0.016657 -0.018001 -0.018851 0.036945 -0.022788 0.002344 -0.003573 0.03869 -0.017228 0.027396 0.010161 -0.02156 0.030483 -0.007539 0.018665 -0.017748 0.011958 0.021265 0.003175 -0.016202 -0.019333 0.011853 0.000281 -0.013348 0.004785 -0.028924 0.036928 0.005496 0.013165 -0.005142 -0.019822 0.001908 0.051185 -0.025246 0.026443 0.023732 0.026473 -0.004109 0.010797 0.00505 0.01257 3.1e-05 -0.025922 0.009182 0.014573 0.0219 0.024211 -0.010688 0.021967 -0.012727 0.005098 0.011606 -0.005494 0.001858 0.012586 0.019264 -0.021519 0.022355 -0.013406 0.027197 -0.022027 -0.0238 0.014067 0.01217 0.012942 -0.002863 0.022363 0.011361 -0.031625 -0.014033 0.027814 0.021053 -0.036639 0.003957 0.004949 -0.022121 0.008144 -0.001133 0.013661 0.013182 -0.01489 -0.014763 -0.033444 -0.00285 -0.009357 0.007055 0.004761 -0.026588 -0.034401 -0.003137 -0.034623 -0.004151 -0.030028 -0.014328 -0.00126 -0.023966 -0.02287 -0.007246 -0.011199 0.033756 0.005319 -0.029168 -0.009919 -0.023708 0.020801 -0.035621 -0.015875 -0.03569 0.01331 0.011677 0.030884 -0.011091 0.006379 0.010233 -0.006852 0.030184 0.003535 -0.014447 -0.02968 0.004137 0.027611 0.009653 0.001077 -0.013728 -0.016013 0.004794 -0.013918 -0.002167 0.017391 -0.015296 0.025371 0.014333 -0.014075 0.004131 -0.028992 -0.01412 -0.017019 -0.031181 0.028864 -0.020542 0.009672 -0.000365 0.018061 -0.021673 0.001459 0.003866 -0.010866 7.5e-05 0.003533 0.020412 0.024849 0.010324 0.003857 -0.025088 -0.018748 -0.012071 -0.010554 0.021475 -0.017165 -0.014312 -0.014313 -0.027856 -0.019907 -0.011046 -0.001561 0.023627 -0.029514 -0.028646 -0.010224 0.013863 -0.006158 0.017893 0.00676 0.022641 -0.027743 0.00484 0.021738 0.011411 0.029242 0.007984 0.01313 -0.030684 0.020152 -0.003864 0.022277 0.008353 -0.012085 -0.015809 -0.022598 -0.027165 -0.027394 0.023989 -0.014726 0.027445 -0.007438 -0.015405 0.021202 0.023363 -0.030554 0.027638 0.010606 0.022886 0.029353 0.023648 0.013918 -0.009129 -0.027511 -0.009723 -0.000612 0.003976 -0.018517 0.016493 -0.016621 -0.008059 -0.022459 -0.001175 0.017165 -0.012731 -0.010653 0.01423 -0.014168 0.005966 -0.007338 -0.002572 0.025738 0.021285 0.009686 0.024884 0.021409 0.018863 -0.012582 0.00912 -0.014806 0.026206 0.015193 -0.016396 0.030334 0.029266 0.029232 -0.00683 -0.020198 0.016127 -0.008565 0.028962 0.023676 0.016932 0.018003 0.022738 0.018902 -0.022282 0.000561 0.019829 -0.017414 0.019994 0.020493 -0.031126 -0.022513 -0.015307 0.002031 0.001939 0.022953 -0.014864 -0.013116 -0.009935 -0.030255 0.012256 0.015352 0.025428 -0.009334 -0.000732 0.009216 -0.010967 -0.011022 -0.00992 -0.02695 0.014344 -0.005136 0.012143 -0.03063 0.024275 0.00714 -0.004844 0.02766 0.017009 0.018148 0.013795 0.015251 0.024259 -0.011068 0.014821 -0.022587 -0.011794 -0.010903 0.028847 -0.014944 -0.018122 0.001574 0.012576 0.016276 0.0239 -0.01376 -0.017775 0.015583 -0.00014 0.012841 -0.007754 0.013632 0.025223 -0.020806 -0.008264 -0.019263 -0.006438 0.006141 0.010228 -0.025843 0.022131 -0.018917 0.028882 0.004994 0.018573 0.020041 -0.005485 0.01188 0.00042 0.003783 -0.026312 0.028874 0.024719 0.000474 -0.021458 0.013158 0.004484 0.024973 0.017129 -0.001881 0.014628 -0.008601 0.017861 -0.027595 0.004037 0.017405 -0.021007 -0.001633 -0.010749 -0.00398 -0.019574 0.021605 -0.011809 -0.027651 0.029005 -0.026771 -0.021263 0.005936 0.012997 -0.004043 0.001991 -0.012137 -0.027026 0.018018 -0.003826 -0.019245 -0.015219 0.025396 0.00796 -0.02365 0.023204 -0.023702 0.001473 -0.029963 -0.001496 0.031035 -0.023693 0.008103 0.031047 0.026334 -0.011262 -0.022667 -0.01532 0.00784 -0.012403 -0.022343 0.004378 -0.005195 0.016129 0.015144 -0.013457 -0.026605 -0.028193 -0.006566 -0.00114 0.000516 0.027969 -0.011242 0.031119 -0.025069 -0.020191 -0.023437 -0.029865 0.005953 -0.007704 0.025364 0.02995 -0.007009 0.025816 -0.018537 0.004345 0.017807 -0.023825 0.024086 -0.007607 -0.033662 0.027131 -0.009023 0.017531 -0.013325 -0.015033 -0.011536 -0.016314 -0.002459 -0.010832 0.001299 -0.021285 0.022643 -0.023849 0.031136 -0.025735 -0.022756 0.001709 -0.02001 0.025684 -0.008803 0.009694 -0.004936 0.000623 -0.015824 0.018041 -0.001075 -0.003702 0.02195 -0.016096 -0.01424 -0.001217 -0.007557 -0.004307 -0.028787 -0.017306 -0.00095 -0.007322 -0.015911 -0.022366 0.018154 -0.000433 -0.002946 0.022722 0.008519 0.027597 0.00592 -0.020015 0.013372 -0.027782 -0.007997 -0.00627 -0.018668 -0.011782 0.005046 0.010199 -0.024823 -0.000186 -0.009401 -0.012028 0.02149 -0.011155 0.029943 0.010036 -0.006469 0.034218 0.010339 -0.005511 0.000861 -0.024488 -0.02622 0.016981 0.004031 0.008184 0.031442 -0.012221 -0.002269 0.023944 -0.003504 -0.028496 0.011754 0.025379 0.044079 0.01638 0.008237 0.018868 -0.003344 0.019815 0.008538 0.002408 -0.020769 -0.020009 0.040598 0.007136 -0.026386 0.007252 0.019481 0.027874 0.024541 0.02875 0.02161 0.01497 -0.027082 -0.018952 0.025687 0.019858 0.031282 0.024403 0.001367 -0.03648 0.006066 0.004774 0.010176 0.019559 0.018044 0.02153 0.005138 0.011769 -0.018478 0.008544 -0.022235 -0.001756 0.018451 -0.015819 0.023648 0.012895 0.019216 0.031995 0.035743 -0.02424 0.037887 -0.04593 0.03546 0.028395 0.001465 0.003495 -0.023026 -0.035774 -0.005038 -0.025579 -0.000157 0.030215 -0.009897 0.022196 -0.014489 0.002258 0.008475 -0.009516 -0.045158 0.005131 -0.002918 0.022281 0.019275 0.032542 0.029979 -0.034974 -0.027192 -0.011179 -0.00922 -0.037775 0.005078 -0.016916 -0.002823 -0.029464 0.03449 -0.005293 -0.012943 -0.003793 -0.025306 0.038669 0.017202 0.011145 0.002225 -0.020135 -0.027501 0.017518 0.029675 0.024195 0.030373 -0.007333 -0.008898 0.014442 -0.011996 -0.026905 0.008961 0.025968 0.006541 0.008097 -0.009997 0.014379 0.021473 -0.007579 0.038075 -0.00684 0.025955 -0.030173 0.010711 0.001844 -0.028766 -0.008555 0.010559 0.015006 -0.021561 0.028157 -0.000474 -0.020819 -0.01069 0.003536 -0.025604 -0.012558 0.03002 0.006626 0.003925 -0.011857 0.028277 0.016514 -0.030435 -0.018801 0.027265 -0.006003 -0.003726 0.022138 0.022506 0.018537 -0.022918 0.021243 0.01138 0.022804 -0.02373 0.018005 -0.003195 -0.019246 0.015281 0.018185 0.003388 -0.007475 0.003449 0.029074 0.010246 0.030599 -0.045667 -0.000517 -0.029996 -0.001692 0.004664 0.031268 -0.011018 -0.011044 0.028498 -0.009873 0.023704 0.004374 0.023796 -0.025601 -0.013257 -0.022174 0.014152 -0.016866 0.00557 -0.016399 -0.009724 0.002637 0.005147 0.024876 -0.019963 -0.030776 -0.009988 0.030811 -0.037955 0.0513 -0.005073 0.040196 -0.002382 -0.021492 -0.018945 -0.000592 -0.026295 0.001748 -0.012515 -0.025907 0.002344 0.003964 -0.014911 0.014067 -0.021623 -0.013379 0.016161 0.020094 -0.025784 -0.016671 0.015195 0.030816 -0.016673 -0.003849 -0.026857 -0.013902 -0.003116 0.005749 0.007447 0.00877 2.6e-05 0.011588 0.021594 -0.032672 0.007637 -0.019074 0.006524 0.028805 0.007367 0.007796 -0.031208 -0.0164 0.007929 0.021814 -0.027748 0.006086 0.029028 0.022164 0.024862 0.034446 0.033346 0.037119 0.009762 -0.03032 -0.021832 -0.016401 -0.000629 -0.004817 -0.03525 0.008693 -0.017279 -0.010962 0.021401 -0.004784 0.017385 0.022633 0.003045 0.004828 0.025266 0.004157 0.024925 -0.014842 -0.01244 -0.027031 0.008763 -0.014237 0.008086 0.017453 -0.014856 -0.009077 0.014192 -0.025945 -0.007046 -0.010536 -0.020808 0.023858 -0.026434 0.014431 -0.012677 -0.019776 4.9e-05 -0.022108 0.005919 0.01522 -0.000578 -0.016982 0.000523 0.011109 0.030508 -0.01939 -0.027282 0.021175 -0.02835 -0.013748 -0.02015 0.019744 -0.025115 -0.015241 -0.028493 0.008857 -0.002657 -0.030317 -0.014084 0.012716 -0.006824 -0.017096 0.023715 -0.023457 -0.00977 -0.002597 -0.003616 -0.028123 -0.004841 -0.009606 0.022511 -0.030943 0.012946 0.00895 -0.017424 -0.030466 0.028852 0.010094 -0.029869 0.006748 0.000725 0.02751 0.028083 0.017954 -0.029193 0.014068 0.001991 -0.018924 0.026777 0.002422 0.026363 -0.022347 -0.02823 0.023264 -0.007185 -0.025951 -0.028454 0.012822 0.013924 -0.000679 -0.00496 -0.020483 -0.007962 0.024403 -0.028688 0.00185 0.014553 -0.022865 0.020029 -0.006913 -0.022314 0.004993 -0.002067 -0.012977 -0.013927 -0.025248 -0.007744 0.006413 0.019962 -0.030057 -0.024099 -0.020009 -0.002065 -0.009237 0.007578 -0.024286 0.029656 -0.001815 0.003321 0.004193 -0.002646 -0.024954 0.017794 0.005746 -0.002189 -0.006144 -0.002323 0.021489 -0.010037 -0.018543 -0.024216 -0.006162 -0.004294 0.007537 0.017263 -0.016554 -0.015841 0.014891 -0.026222 0.022097 -0.027557 0.02307 0.004894 0.001488 0.005032 -0.025079 0.012067 0.000582 0.012226 0.028077 -0.008958 -0.021762 0.010181 7.2e-05 0.024701 0.002364 -0.005737 0.010284 0.013224 -0.010246 -0.036829 -0.000255 0.011367 -0.008446 0.00487 -0.019166 -0.002618 -0.00218 0.019517 0.028987 -0.014781 0.024506 -0.00122 -0.005426 -0.00254 -0.014133 -0.013955 0.001482 0.030004 0.005082 -0.026673 0.03207 -0.005229 -0.03013 -0.002402 0.022691 -0.006388 0.029754 0.024059 0.023136 0.013936 0.008174 0.002225 0.011729 -0.024663 -0.027043 0.0009 0.02085 -0.021222 0.003842 0.03334 -0.009458 0.019311 -0.030881 -0.012303 0.022808 0.002832 0.010753 -0.017956 0.00107 -0.012235 0.029185 -0.034315 0.007829 0.023185 0.01537 0.013284 -0.008267 -0.000899 -0.040407 -0.005444 -0.028507 0.001205 0.027439 -0.026951 -0.024158 0.028148 -0.014341 0.02408 -0.010007 0.002171 0.012805 0.004703 -0.026645 0.012832 -0.007415 0.01696 0.010007 0.000993 -0.028959 0.032681 0.01547 0.004545 -0.010178 -0.021156 -0.001359 -0.026414 -0.003731 -0.019712 -0.022931 0.025387 0.026869 0.020282 -0.012398 0.026689 -0.026853 -0.011076 -0.01308 -0.024269 -0.029133 -0.014251 -0.024157 0.006057 0.033641 0.008815 0.028464 0.006816 0.026915 -0.014934 -0.015065 -0.002399 -0.020805 0.004256 0.001542 -0.031619 0.000155 -0.01479 0.014865 0.010818 0.018497 0.010527 -0.019584 0.021584 -0.002574 -0.002185 0.025928 0.031405 -0.035019 -0.023157 0.024732 0.031162 0.004513 -0.020722 0.021656 0.005713 -0.023627 0.019263 0.025099 -0.025012 0.018491 0.010728 0.017919 0.024967 0.036445 0.032095 -0.011881 0.016613 0.01913 0.012005 -0.00936 0.033631 0.002577 0.033206 0.04098 -0.036453 0.007424 -0.005619 0.012669 0.003765 -0.005862 0.027927 -0.008024 0.032662 0.004202 -0.015682 0.015049 0.013298 -0.030764 0.006776 -0.007617 0.026987 -0.036871 -0.013936 -0.017656 0.033938 -0.004247 0.01425 0.009378 -0.012761 0.013817 -0.016008 -0.010699 -0.006083 0.021046 0.009635 -0.019317 0.02387 0.02149 0.025699 -0.009844 -0.00723 -0.000781 -0.026981 -0.036756 0.023033 0.034267 0.000244 -0.017382 0.011201 0.016079 -0.025141 0.015187 0.021795 -0.009324 0.031528 -0.025468 -0.013277 0.007923 -0.003573 -0.009279 0.030593 0.013505 0.036748 -0.009301 0.021838 0.016508 -0.004125 -0.023934 0.000931 0.035102 -0.011538 0.022668 -0.010909 -0.031613 -0.01321 -0.015435 -0.001075 0.020951 0.02029 -0.027796 0.020461 0.008129 -0.012935 -0.012233 0.031517 0.010936 -0.00149 -0.025232 0.010782 -0.007145 -0.00923 0.03448 0.005921 0.012377 0.029776 0.039802 -0.015327 -0.005977 0.027761 0.025736 -0.012664 -0.021249 -0.023796 0.020101 0.00439 -0.036709 -0.017204 0.01352 0.003527 -0.028732 0.033272 0.022871 -0.011214 -0.030582 0.027254 0.02365 0.0094 0.000305 -0.013452 0.022452 -0.015452 -0.005385 0.023038 0.032963 0.01045 -0.018078 0.013046 -0.01539 0.002992 -0.00706 0.002235 0.00379 0.028612 -0.003194 0.019092 -0.005167 -0.002069 0.01579 -0.017718 0.005039 0.027192 0.014621 -0.015425 0.014204 -0.011195 0.001645 0.033249 0.024979 -0.011787 0.029928 -0.035611 -0.030561 -0.027835 0.032526 0.015197 0.011008 0.010801 0.028241 -0.001995 0.016969 0.041708 -0.017565 -0.002876 -0.018692 0.016938 0.006853 0.00596 -0.015483 0.020055 0.037261 0.014206 0.002987 -0.009858 -0.028627 -0.018408 -0.031274 -0.030607 0.031828 -0.01343 -0.028148 -0.006803 0.027427 0.022083 -0.013019 0.006455 0.024282 0.005967 0.017593 -4.2e-05 -0.006585 0.025954 0.020409 0.038639 -0.01372 0.015702 -0.012976 -0.026869 0.016505 -0.014244 0.003742 0.002281 -0.002792 -0.008663 -0.036808 -0.024745 0.008214 -0.008242 0.026283 0.026949 0.001871 0.000796 -0.017853 -0.031989 0.003915 -0.031007 0.018495 -0.016307 0.004436 0.014319 0.007154 -0.023771 0.028649 0.012687 0.018042 0.01077 0.00058 0.006342 -0.008145 -0.020346 0.006652 0.029851 0.029226 0.005415 -0.014545 0.022972 -0.020738 -0.01703 0.009692 0.018065 -0.006623 0.019345 0.01778 -0.002565 0.026032 0.022287 0.028886 0.014544 0.011799 0.000706 -0.024465 0.027736 0.01121 0.033162 0.001508 0.00611 -0.008339 0.006582 0.007497 0.021539 0.005015 0.000795 0.004442 0.03727 0.014493 0.028327 0.003789 0.01654 -0.03379 0.024616 -0.009304 0.008371 -0.012094 0.024895 -0.012104 -0.003619 0.004962 -0.011863 0.030975 0.01928 0.016829 0.027536 -0.013231 -0.013702 0.016764 -0.012005 0.009094 -0.003203 0.013084 0.000685 0.004696 0.013141 -0.002739 -0.005145 0.009402 -0.009172 0.006211 -0.029434 0.017471 -0.00948 -0.008277 0.035687 -0.021856 -0.020397 0.018463 -0.007888 0.042018 0.010682 0.025528 -0.013126 0.002845 0.008248 -0.004582 0.029847 -0.018286 -0.008249 0.026038 -0.012643 0.027039 0.005249 -0.023956 0.017296 0.021097 0.025569 -0.011928 0.004286 -0.022848 -0.012752 0.018345 0.01047 -0.013789 0.008175 -0.019421 -0.009273 0.004899 0.018014 0.003261 -0.028724 -0.013492 0.010422 0.000212 0.010943 -0.004071 0.019967 -0.003082 0.002893 0.018877 -0.024288 -0.003994 0.005831 -0.01028 0.014061 -0.015033 -0.008307 0.01707 0.003306 -0.009384 0.02058 -0.030617 -0.003428 0.014966 0.046654 -0.015637 -0.009517 -0.02109 -0.008352 -0.022241 -0.001655 0.021053 -0.012698 -0.005262 0.033401 0.026958 -0.011432 0.000214 -0.019416 0.026823 -0.026713 0.008896 -0.023093 0.001267 0.013779 -0.035345 0.024539 -0.001526 -0.028202 0.007032 -0.025455 0.003671 0.004934 0.002541 -0.034845 0.009456 -0.006888 -0.007612 -0.02335 0.036143 -0.001526 0.016683 0.005183 0.022129 -0.015731 -0.001337 -0.009598 -0.016426 0.016652 -0.001975 -0.033438 0.040867 0.01798 0.026318 -0.002182 -0.011794 0.028562 -0.012895 0.012879 0.023758 0.030342 0.017177 -0.009956 0.020286 -0.026424 0.053932 0.016827 0.018724 -0.013968 -0.007323 -0.031743 0.001906 -0.030766 0.00171 0.016846 0.032335 -0.021563 0.021771 0.001958 -0.012509 -0.022518 0.006415 0.019596 -0.031288 0.041298 -0.004765 -0.018018 0.004547 0.029622 -0.012806 0.006532 -0.002754 0.028044 0.025346 -0.013457 -0.027287 -0.014474 0.029703 0.036207 0.00672 -0.026706 -0.020489 -0.007728 0.035843 -0.011182 0.025935 0.020163 0.00866 -0.002317 0.004147 -0.018428 0.019427 -0.009145 -0.028835 -0.00852 -0.019181 -0.014568 0.010198 -0.009348 0.009399 -0.003074 0.013955 0.006897 -0.019855 -0.015929 -0.002871 0.02509 -0.026724 0.027639 -0.014666 0.013046 0.01283 -0.009253 -0.023976 -0.003087 -0.019205 -0.002378 -0.022373 -0.017516 0.025559 0.011686 -0.028922 -0.0067 0.022604 -0.002723 0.004053 0.027261 0.001563 -0.003211 0.010111 -0.018023 0.00077 -0.006552 -0.015642 0.014699 -0.016589 0.028685 -0.021819 0.022659 0.007293 -0.011392 0.012761 0.017147 0.003187 -0.027029 0.009665 0.010986 0.02942 0.014917 0.001455 0.002221 -0.017455 -0.022405 -0.025794 -0.014244 0.006674 -0.016818 -0.008416 0.028552 -0.016888 -0.030537 -0.00117 -0.028835 -0.006371 -0.021413 -0.02898 0.012664 -0.023005 0.001255 0.018017 0.025985 0.021804 0.031091 -0.010534 0.026245 -0.029107 0.009398 -0.005187 -0.000761 0.029632 -0.01843 -0.019947 -0.006223 0.01484 -0.019078 0.015806 -0.024904 0.007118 0.004642 -0.027746 0.030871 0.00284 -0.028743 0.024795 -0.001622 -0.005533 -0.007516 -0.023529 -0.010569 0.016813 -0.02312 0.022554 -0.00575 0.003923 0.010598 -0.02183 0.007398 -0.013399 0.013083 0.024856 -0.017533 -0.015548 0.010148 -0.025422 0.02597 -0.006114 0.031267 -0.029239 0.023182 0.025565 0.02447 0.020654 0.034401 -0.013619 0.015376 -0.00437 0.013998 -0.015451 -0.014404 -0.026491 0.034784 0.020864 -0.01759 0.030371 -0.012081 0.010029 0.010582 -0.028477 -0.015543 0.001714 -0.047802 -0.017422 0.031687 -0.047087 0.019769 0.046747 -0.035068 0.010667 -0.003676 -0.021 0.018891 0.021036 -0.023835 0.020031 0.027996 0.021004 0.003981 -0.010884 -0.015773 0.011177 0.008803 0.017991 -0.024695 -0.002867 0.017473 -0.019048 -0.040271 0.025375 -0.021618 -0.010946 0.006877 -0.016254 0.003148 0.016984 0.000226 0.014647 0.036241 0.018416 0.016294 0.008527 0.006872 -0.007478 -0.003904 0.002141 -0.015844 0.025004 -0.010588 -0.004245 0.037448 -0.026435 -0.008582 -0.000664 0.019407 0.030611 0.047271 0.007685 -0.028789 -0.013907 0.01314 -0.010625 0.027821 -0.019614 0.001264 0.002789 -0.024836 -0.000124 0.015761 -0.010293 0.00093 0.025584 0.032526 0.027111 -0.029238 0.025941 -0.004818 -0.024699 -0.003841 0.004338 0.045622 -0.012244 -0.00344 -0.014662 0.011345 0.003008 -0.017814 0.021923 -0.011857 0.01728 0.017457 -0.020182 -0.00965 0.013689 0.014077 0.02699 -0.006212 -0.030419 0.030394 -0.001494 0.011535 -0.00516 0.00982 0.02489 -0.016548 -0.016322 -0.017291 0.023442 -0.022983 -0.013076 -0.015751 0.018049 -0.022968 0.009656 -0.016959 -0.002422 -0.016015 -0.012943 0.030259 -0.024613 0.031022 -0.006694 -0.012921 0.019623 0.000278 0.001144 0.005346 -0.004319 -0.006941 -0.013559 -0.032739 -0.01558 -0.039996 0.039684 0.009927 0.024561 0.022177 -0.007359 0.006091 -0.0185 0.036198 -0.00209 -0.006541 0.007198 -0.018811 0.019579 0.039385 0.016305 -0.022258 -0.015125 0.003381 -0.025839 -0.027962 -0.023781 -0.0091 -0.0147 0.004113 0.003484 -0.026367 0.028648 -0.028068 0.029754 -0.012559 -0.00887 0.019818 -0.020226 -0.034487 0.004341 0.020262 -0.025002 0.001122 0.002288 -0.009732 -0.005719 0.014208 -0.042033 -0.003211 -0.0022 0.009102 -0.003454 -0.027287 0.011941 -0.023927 -0.005079 0.008577 0.018419 -0.018264 0.034203 -0.002631 0.006675 -0.027659 0.006728 0.030746 0.027113 0.030438 0.003177 -0.008844 -0.038815 -0.040629 -0.010371 0.008301 0.006768 0.019328 -0.029121 0.007297 0.017284 -0.011228 -0.016357 0.002858 0.021029 0.007609 -0.012224 0.018607 0.011131 -0.021267 0.015671 0.020922 -0.001957 0.037229 0.011059 0.002061 -0.022212 0.020314 -0.007801 0.040108 -0.032733 0.038429 -0.028245 -0.007684 0.02864 -0.008159 -0.012839 0.028523 -0.031951 -0.010113 0.018421 -0.006347 0.036614 0.007044 0.019488 -0.005899 -0.01172 0.036225 -0.029758 0.000366 0.032493 -0.001925 0.037686 0.014792 -0.015745 -0.016723 0.022435 0.0257 0.025966 -0.01608 -0.030087 0.005387 0.027998 0.02002 -0.017457 0.02415 0.028469 -0.019363 0.002376 0.016902 -0.014594 0.026762 -0.019526 0.017199 -0.018671 0.010369 0.003036 -0.02565 -0.020859 0.033393 0.014639 -0.000374 0.035823 -0.013349 0.003801 0.013634 -0.023516 0.027514 -0.008284 -0.005127 0.026585 -0.001659 -0.011698 -0.015949 0.031585 -0.010371 0.042976 0.00239 -0.021992 0.033712 0.034546 0.022288 0.01072 0.013066 -0.002896 0.011111 -0.023819 0.008667 0.002345 0.019608 -0.03187 0.015388 0.025656 -0.012039 0.007553 -0.013207 0.015025 -0.007231 0.003012 -0.007359 0.004445 -0.012815 -0.020474 -0.019513 0.033937 0.010656 0.019544 0.009459 0.007271 0.005137 0.031414 0.018527 0.009231 0.007782 -0.00402 0.021495 -0.006135 0.025698 0.010919 -0.00587 0.012186 -0.018332 -0.024495 0.00353 0.011972 0.01316 0.023478 0.014371 -0.008989 0.016606 0.029343 0.022307 0.024876 0.030406 -0.01269 -0.008054 0.012088 0.021631 0.001919 0.023127 -0.00327 -0.016136 -0.00167 -0.009613 -0.021743 0.011986 -0.026565 0.007683 0.007198 0.023925 0.014698 0.004654 -0.019874 -0.000911 0.022078 -0.015851 -0.003175 0.007214 0.004891 -0.012423 0.004078 -0.009809 -0.022949 -0.001169 0.024488 -0.023096 0.025447 0.029248 0.012189 0.027936 -0.014207 -0.02046 0.026962 0.026231 0.011482 -0.014375 -0.003364 0.010485 0.002973 0.003725 0.032352 0.024218 0.010579 -0.025751 -0.01604 0.001802 0.038459 0.013557 0.003266 -0.026378 -0.017564 -0.025307 -0.006355 -0.029812 -0.033589 -0.001687 0.00618 -0.012625 0.015745 -0.001112 -0.021788 0.00794 0.022102 0.007389 -0.037324 0.021665 -0.00249 0.004946 0.029315 -0.034637 -0.012547 0.033914 0.008148 0.000883 0.011366 0.01686 0.004592 0.00218 0.010826 0.009078 -0.001009 0.002928 0.026853 -0.009347 0.003172 -0.025688 -0.030403 0.010062 0.003124 -0.000328 0.00756 0.026529 0.01763 0.023082 -0.031419 -0.029734 0.004523 0.011061 -0.009544 -0.015507 0.011485 -0.011968 -0.01875 -0.034093 -0.008017 0.023091 -0.025849 3e-06 0.03704 0.036944 -0.010088 -0.017703 -0.002975 -0.031089 -0.008759 -0.01271 -0.003282 0.024576 0.027655 0.013109 0.00736 0.006773 0.017795 -0.00268 0.033801 -0.03177 -0.007804 -0.026397 0.012672 -0.000938 -0.009235 -0.026604 -0.01547 -0.017952 0.006374 -0.008393 -0.014806 -0.012373 -0.005527 -0.001651 0.021085 0.010232 -0.018656 -0.005399 -0.014899 0.0252 -0.019397 0.01917 -0.008693 0.036852 -0.014502 -0.003965 0.026368 -0.022326 0.016625 0.001717 -0.007943 -0.020241 0.00167 -0.030278 -0.020357 -0.022471 -0.02339 -0.024575 0.017456 -0.002037 -0.029934 -0.004223 -0.0299 0.001236 0.008973 0.00401 -0.026945 -0.008899 -0.023034 0.02352 0.034281 -0.00815 -0.020286 -0.030128 0.020977 0.010522 -0.011815 -0.00112 -0.034162 0.018681 0.011387 0.031662 -0.011666 0.021402 0.005441 -0.023541 0.003931 -0.006884 -0.033497 -0.016317 0.018294 0.033296 -0.018669 -0.013489 0.012524 0.008944 0.015701 0.022553 -0.02156 0.032224 0.023308 -0.006035 -0.022923 0.005637 -0.020955 -0.002433 0.033017 -0.001971 -0.011267 0.021906 0.021432 -0.004925 0.004269 0.005331 -0.027345 0.034122 0.005448 0.007478 0.000673 -0.022121 0.002848 0.013682 -0.000234 0.01859 0.010346 0.021511 0.002026 0.030765 -0.024688 0.008743 -0.020496 -0.002309 0.008087 -0.037076 0.029679 0.025433 -0.002328 0.015479 -0.006119 -0.003775 0.007454 -0.001671 0.016244 -0.016033 -0.024322 -0.008072 0.002634 -0.002451 0.010945 -0.017268 -0.018634 -0.028145 0.031223 0.029803 0.029117 0.005912 0.014059 0.024522 -0.014614 0.046361 -0.022961 -0.002414 -0.006795 0.018258 0.007159 0.035736 0.023503 -0.016839 -0.005905 -0.015557 0.000613 0.010964 0.012152 -0.026309 -0.033565 0.01367 -0.018444 0.017464 0.030708 0.016513 0.013048 0.044396 0.016808 0.058863 -0.003306 -0.018898 0.005753 0.032347 -0.020788 -0.026281 0.000642 0.003262 0.003771 -0.003145 0.041314 -0.003095 0.029366 -0.019826 -0.011295 -0.036799 -0.031241 0.026566 -0.022424 -0.032219 0.015336 0.028207 0.020424 0.014484 -0.023351 -0.019871 -0.024579 0.026963 -0.0225 0.016746 0.021651 0.039876 0.051435 0.03442 0.004682 -0.008797 0.004999 -0.004258 -0.001186 0.018986 -0.020314 -0.021556 -0.021424 0.029238 0.011193 -0.019172 0.000352 -0.033814 -0.007889 -0.015436 -0.004211 0.020296 -0.017692 0.057151 0.023543 -0.02126 0.024158 0.016988 0.004484 0.01835 -0.033374 0.020241 -0.00722 -0.009016 0.028279 0.013473 0.002178 -0.017654 -0.029204 0.009323 0.021708 -0.015842 0.007613 0.031977 0.035793 -0.006031 0.016301 0.033978 0.00028 -0.036803 0.001827 0.00929 0.011863 0.0256 0.007216 0.002181 -0.033484 0.035788 0.029675 0.033446 -0.007069 0.027646 -0.022002 0.005184 0.008863 0.002087 0.015598 -0.006376 0.011388 0.003647 -0.003332 -0.002488 -0.005233 0.016013 0.006766 0.003238 -0.006416 -0.034495 0.000215 -0.005356 0.021917 -0.014316 -0.0099 -0.034299 0.024357 0.005194 0.031317 -0.008351 -0.012059 -0.022652 0.026687 -0.009049 0.039946 -0.00385 0.009571 0.026479 0.028492 0.008585 0.013357 0.019061 -0.044647 0.017101 0.009228 0.025935 -0.010697 -0.022947 0.010956 -0.022567 0.005416 -0.011367 0.030223 0.015993 0.012887 -0.026754 -0.018535 0.010536 0.001631 0.001044 -0.016383 -0.009436 0.014535 -0.014558 0.011813 0.036432 0.02189 -0.028226 -0.008267 0.020202 -0.005651 -0.019521 0.00219 -0.004284 -0.000665 -0.03631 -0.016124 -0.023923 -0.030454 0.020861 -0.009647 -0.021595 -0.01893 -0.009806 -0.029198 -0.034222 -0.009668 0.028146 0.023656 0.025442 -0.005529 0.006676 0.015941 0.014731 -0.030966 0.002133 0.023658 0.010249 0.025348 -0.033189 -0.024476 0.008449 0.018112 0.018771 0.031946 0.024297 -0.007428 -0.025281 -0.012094 0.003323 -0.012911 0.000733 0.023714 -0.018211 0.015072 -0.007902 0.00442 0.002094 -0.02282 0.015832 0.000884 -0.016687 -0.005956 0.009239 -0.023742 -0.014652 -0.027954 0.015977 -0.021778 0.021896 0.042148 -0.021196 -0.008769 -0.02057 -0.020625 0.009032 -0.022398 0.003361 0.018386 -0.02804 0.012124 0.034096 -0.009012 -0.022087 -0.042235 0.020964 0.019132 0.029317 0.020556 -0.017139 -0.017966 -0.031012 0.014855 -0.036474 0.002778 -0.000689 -0.010943 0.005753 -0.030605 -0.026509 0.013173 0.034368 0.008576 -0.034751 0.018073 -0.037579 0.013461 0.033351 0.017221 0.030111 0.041996 -0.033759 -0.01397 0.010537 0.005918 -0.028597 -0.030476 0.01813 0.021297 -0.024519 -0.005807 -0.04456 0.007858 0.020792 -0.030376 0.000883 -0.03343 0.004999 0.041099 0.004182 0.011547 -0.019469 0.015899 -0.006432 -0.022776 -0.021142 -0.035721 -0.023897 0.001213 0.001611 0.02775 -0.01327 0.024045 -0.009461 -0.027549 0.042702 -0.007349 0.007349 0.00687 -0.000631 0.014934 -0.013949 -0.013779 0.000513 0.002612 0.019992 0.012637 0.001383 0.010817 0.001353 -0.025292 0.014351 -0.017562 0.018312 0.003267 0.003681 -0.018865 0.031862 -0.005623 0.026682 -0.008163 -0.035055 0.01666 -0.010509 0.020972 -0.034078 -0.006456 0.009839 0.004668 0.034151 0.028426 0.022756 0.003806 -0.023249 0.00768 0.008328 -0.027144 0.022648 0.020177 0.009077 -0.000888 -0.009557 0.016145 -0.031346 0.031354 0.008597 0.011569 -0.009891 0.032631 0.00067 -0.032694 -0.015764 -0.025402 0.024356 0.007561 -0.007048 -0.004723 0.021899 -0.03286 -0.00337 0.005778 -0.003259 -0.016561 0.023722 -0.036391 0.01924 -0.009328 -0.020223 0.017274 0.010803 -0.004927 -0.009988 -0.018024 0.03807 -0.008068 0.016834 0.011721 -0.032248 0.007771 -0.023358 -0.017476 -0.028321 -0.021502 0.018409 0.015271 0.005208 0.001503 0.029752 0.046445 -0.002779 -0.017973 -0.014721 -0.003968 0.010815 -0.02171 -0.009938 -0.017602 0.005128 0.015948 -0.012951 0.035224 -0.016532 0.021083 -0.024598 -0.027861 -0.02892 0.016477 0.016147 -0.000344 -0.023941 0.026599 -0.020372 -0.004215 0.019896 -0.002059 -0.022959 -0.009042 0.028815 -0.007679 0.045341 0.026985 -0.007488 0.019033 0.040241 -0.006763 -0.015459 0.0294 0.028693 -0.006906 -0.005711 -0.000214 0.031443 0.018242 0.000873 -0.012959 0.005902 -0.011761 0.050647 -0.020789 -0.014838 0.012546 -0.03522 0.026091 0.006656 -0.01449 0.039788 -0.023711 -0.029506 0.02024 0.006152 0.018667 -0.029577 0.019628 0.031119 0.044433 -0.023743 0.012204 0.024442 0.029501 0.017038 0.022803 0.000771 -0.010535 0.012167 0.034583 -0.033076 -0.033867 -0.021604 -0.001957 -0.001104 -0.00524 0.023003 0.019956 0.009258 0.013055 0.021366 0.013045 -0.02143 0.020969 0.022927 0.02656 -0.002385 4.5e-05 0.012704 0.011642 -0.024336 0.005404 0.000584 0.019245 0.02673 -0.005139 0.007064 -0.027966 -0.022679 -0.025026 0.006512 -0.007557 0.019794 0.023805 -0.014126 -0.004045 0.002204 -0.01312 0.027791 0.02138 -0.000991 -0.028548 -0.004103 -0.026281 -0.005705 -0.025723 0.015815 0.03185 0.030013 -0.001846 -0.000782 -0.007553 -0.01116 0.026061 -0.005308 -0.021458 0.014724 -0.022937 -0.000477 -0.029153 -0.013478 0.011159 0.017943 0.010498 0.026767 0.013845 -0.032395 0.010159 -0.008762 0.032317 -0.032261 0.01374 -0.03004 -0.020713 0.007127 0.027526 -0.028915 -0.024878 -0.031938 0.019706 -0.018581 -0.018839 -0.013455 -0.022772 -0.000917 -0.005297 0.009873 -0.000818 -0.002017 -0.001327 0.011926 0.002311 0.003837 -0.023103 0.014604 -0.030021 -0.024846 0.021678 0.022557 -0.015707 0.015131 -0.015275 -0.031652 0.024679 0.006983 -0.029877 -0.00624 -0.017398 -0.001885 0.027592 0.024245 0.01639 0.020813 -0.037044 0.016279 0.032144 0.002282 -0.024533 0.021366 0.026021 0.014763 0.019306 -0.024816 0.034412 0.017994 0.017462 0.019191 0.022363 -0.026795 0.031509 0.021285 0.014058 0.028074 0.01111 0.010154 -0.008032 0.024926 -0.022285 -0.033796 -0.001549 0.001529 -0.023505 -0.009646 0.024503 0.009445 0.030558 -0.011414 0.025532 0.006073 -0.004328 -0.026295 0.020928 -0.020131 -0.00503 0.014314 0.025291 0.011871 -0.0254 -0.020687 0.018528 0.012604 0.013716 -0.026493 -0.025031 0.005381 0.001595 0.006362 0.019584 0.030134 -0.030712 0.013088 -0.029509 -0.000657 0.001716 0.033478 0.028948 -0.006913 -0.027377 0.030282 0.009679 0.013582 0.029126 -0.010932 0.005478 -0.011743 0.011595 -0.016933 -0.027006 -0.012124 -0.022211 -0.016977 0.00756 -0.022999 0.002236 0.013111 -0.005249 0.01515 -0.02537 0.014537 -0.01418 0.0278 0.001521 0.018094 -0.022458 0.003067 0.017903 -0.000957 -0.001682 0.0013 -0.023847 -0.008407 0.024203 0.0124 0.030551 -0.016543 -0.011208 0.001913 0.025159 0.022884 -0.024204 -0.000237 0.036373 0.017702 -0.005246 0.024002 0.006486 -0.006594 0.012891 0.008277 0.004717 0.014971 0.016289 0.025153 -0.019798 -0.020227 0.005688 0.016718 -0.014929 0.006411 0.00952 0.008022 0.019949 -0.021883 0.016257 -0.008929 0.010123 -0.000296 0.014542 -0.016054 0.010423 -0.029499 0.000968 0.018301 -0.007853 -0.025076 0.014868 0.026677 0.027497 0.002785 0.015494 0.010867 0.001579 -0.010069 0.006696 -0.024779 0.008946 0.023798 0.023621 -0.000435 -0.01595 0.022339 -0.014002 0.025349 0.012155 -0.007273 -0.005949 -0.017335 0.043269 0.025492 0.007548 0.037644 -0.003138 0.001339 -0.014642 -0.019856 0.040496 -0.019151 0.011595 0.020826 -0.012417 -0.01478 0.015922 0.022386 0.013492 0.006048 -0.010902 -0.010926 -0.006201 -0.023415 0.030741 0.007043 -0.014949 -0.02359 0.024088 -0.000378 0.0297 0.007783 -0.018784 -0.008811 0.02851 0.005499 0.00105 -0.010047 0.033167 0.022607 0.026145 -0.004079 -0.023537 0.003924 0.023144 -0.011957 0.01509 -0.01174 -0.009906 -0.008411 -0.022285 0.023146 0.001718 0.014089 -0.00481 0.011461 -0.026764 0.013235 0.021793 0.026004 0.015328 -0.016593 0.04916 -0.014654 0.029516 -0.01565 -0.013925 0.024061 -0.006341 -0.011499 0.011213 -0.037461 0.000732 0.030476 0.004664 0.014508 -0.001584 -0.008302 0.00774 -0.020497 0.021496 0.012447 -0.02998 0.002394 -0.022906 0.009756 0.028558 0.003095 0.003425 0.031687 -0.010657 -0.023933 -0.018182 0.013598 0.016785 0.023462 -0.02449 -0.002658 -0.022909 -0.016693 0.030615 -0.015708 -0.011201 0.013489 0.010105 0.022791 0.008941 0.033445 0.003429 -0.015798 0.013723 -0.005779 0.008103 -0.03601 0.008389 -0.013678 0.023188 0.029449 0.019597 0.012018 -0.00267 -0.018241 -0.026981 -0.002474 -0.033268 -0.014185 -0.015183 -0.022126 0.014479 0.013971 -0.037395 -0.032933 0.033333 -0.029492 -0.018236 -0.035662 0.009611 -0.027651 -0.024412 -0.027382 -0.028343 -0.022512 0.002739 0.025576 0.019308 0.033326 0.020201 0.014927 -0.001607 -0.010382 -0.006569 0.024627 -0.005714 0.03528 0.020627 0.046396 -0.002189 -0.033253 0.003773 -0.01791 -0.020927 0.018217 -0.029175 -0.019247 -0.013876 0.008531 0.015596 0.015044 -0.031721 0.032642 0.029248 0.006329 -0.010872 -0.017828 -0.021834 -0.015168 0.001394 0.007198 -0.020059 0.005206 0.035725 -0.040278 0.004441 0.023608 -0.017142 -0.026016 0.018008 0.027395 -0.014007 0.034439 0.011418 -0.013274 0.018691 -0.011443 -0.020286 -0.016054 0.018611 -0.012251 0.032731 0.028814 -0.039025 0.013956 0.035755 -0.010746 0.008982 0.009683 0.011832 -0.007919 0.028757 0.006122 0.024748 -0.006081 -0.030673 0.006636 -0.024621 0.010266 0.033301 -0.007184 0.020949 -0.011877 0.007641 -0.01507 -0.007542 0.000284 -0.014954 -0.026549 0.027997 -0.004128 0.029325 0.009379 0.013067 0.02288 0.016849 -0.019529 0.016365 -0.027425 0.012098 0.00399 -0.007718 0.000796 0.010972 0.017407 0.010845 0.031687 0.011926 0.032588 -0.025545 -0.011197 -0.030335 -0.002026 0.005981 -0.011636 -0.001545 0.012692 -0.015923 -0.017896 -0.024281 -0.026934 -0.010977 0.02628 -0.011339 0.024195 0.000234 -0.021724 -0.010226 -0.008819 0.027336 0.026884 0.028574 0.022492 -0.030358 -0.010471 -0.021294 0.003535 -0.008656 -0.029036 0.007364 0.012681 -0.005286 0.008092 -0.025622 -0.012356 -0.020509 -0.001849 -0.023653 -0.007421 -0.008512 0.011072 -0.018882 0.02896 0.006297 -0.024104 0.004248 -0.006036 0.00988 -0.028177 0.028343 -0.012307 0.011075 -0.032242 0.006905 -0.006743 0.016597 -0.012173 0.017121 -0.031533 -0.023527 -0.003161 -0.000808 0.019617 0.021348 -0.004308 -0.004959 -0.027127 -0.021274 -0.004138 -0.007411 -0.011136 -0.032001 -0.014704 -0.008829 0.021944 0.011824 0.030448 -0.029383 -0.020939 -0.023028 -0.024403 -0.011809 -0.006198 -0.003171 -0.019747 0.011519 0.024165 0.01095 0.011079 0.024399 0.01251 -9.5e-05 0.021279 -0.006094 -0.021428 -0.014324 0.028129 0.003284 0.007295 -0.017134 0.021257 -0.005002 -0.020645 -0.012551 -0.020306 0.005782 0.015504 -0.00558 0.006005 0.003711 0.013407 0.010154 -0.02968 0.008482 -0.02991 0.016535 0.003834 -0.02314 0.014858 -0.03186 -0.00186 0.028893 -0.025991 0.000305 -0.012537 0.00548 0.005481 -0.031037 -0.004771 -0.028297 -0.000573 -0.02258 -0.006866 -0.022518 0.024335 0.00196 0.020443 0.007413 -0.008391 0.019865 0.002601 0.017612 -0.006099 0.031738 0.00687 0.004367 -0.0247 0.028179 0.02902 0.009105 0.001159 -0.012748 0.010908 -0.032418 0.013257 -0.032389 -0.039556 -0.030786 -0.033568 0.004448 0.028018 0.022737 0.010606 0.02444 -0.000424 -0.003781 0.00695 -0.020079 0.011332 0.002424 0.0066 -0.024652 0.004073 0.021538 0.005473 -0.027586 -0.01749 0.018735 0.009358 -0.022278 0.001362 0.006667 0.014211 -0.003948 0.011309 0.023937 -0.00382 -0.016757 -0.023038 -0.024307 -0.009632 -0.012171 -0.010404 0.019414 -0.030207 -0.028989 0.004844 0.022229 0.018074 0.013047 0.009139 0.034347 0.004732 0.010335 -0.002754 -0.020634 0.005162 0.018631 0.02212 -0.007835 0.008406 -0.028288 -0.002463 -0.017947 -0.009652 0.017198 0.01433 -0.004105 -0.023738 -0.010314 -0.022368 0.010947 -0.005017 -0.022453 -0.003392 0.014766 -0.011584 0.020379 0.023524 0.024442 -0.009663 -0.004146 0.019228 0.021954 0.007334 -0.022839 -0.024859 0.006349 -0.010334 -0.016795 0.018247 3.2e-05 -0.004705 0.030758 -0.0131 -0.024763 -0.002177 -0.031993 0.028792 0.007106 0.011922 0.015125 -0.034359 -0.023941 0.008042 -0.024418 -0.010042 0.022785 0.014028 0.005244 0.004044 0.013514 0.009622 0.000182 -0.019204 0.001315 0.006604 -0.015605 -0.013778 0.023871 -0.009578 -0.006311 0.003579 0.03093 -0.033942 -0.022852 -0.023389 0.021914 -0.018835 0.02192 -0.010893 0.013932 -0.011581 0.028574 0.018524 -0.024912 -0.010839 0.019556 -0.01834 -0.024511 0.003039 -0.013902 -0.004097 0.017636 -0.019414 -0.007592 0.018199 0.005199 0.030451 -0.027729 -0.017213 -0.022921 0.023819 0.016373 0.01149 -0.011026 -0.012821 0.00592 -0.009178 -0.019638 0.024791 -0.010526 0.029886 0.000361 -0.009119 -0.003805 0.007937 0.018694 0.003064 -0.002928 -0.00032 0.037195 -0.033426 -0.011134 0.015297 0.02085 -0.030895 0.017012 0.022804 -0.028795 -0.016528 -0.015828 -0.008275 0.025274 0.019091 0.011163 0.01889 0.025321 0.02404 0.010368 -0.029136 -0.008258 0.029165 -0.030117 0.00246 0.001083 -0.004525 -0.019905 0.011425 -0.011035 -0.022745 0.018028 -0.017272 -0.008032 -0.040485 -0.008708 -0.018449 -0.026158 -0.005409 0.038175 -0.02465 0.006402 -0.030502 -0.028009 0.018125 0.010829 0.000855 0.005181 -0.01547 0.023814 -0.025739 0.031075 -0.006342 0.014552 -0.016341 0.002657 0.030522 -0.009353 -0.024169 0.022371 -0.015117 0.014181 0.020168 -0.000969 0.031312 0.011644 0.014931 0.016315 -0.021321 -0.007394 -0.025962 -0.028954 -0.023662 -0.003504 -0.022052 -0.010302 0.018739 -0.007156 -0.000642 0.002772 -0.00436 -0.011604 0.009537 -0.001023 -0.017814 0.029421 0.022251 0.004923 0.022181 -0.03732 0.005058 0.008156 0.030836 0.013504 -0.013193 0.020821 -0.012825 0.004268 -0.017533 -0.028231 -0.021815 0.018989 0.011506 -0.025178 0.006427 -0.006962 0.013837 0.008076 -0.007443 0.022791 0.003492 0.012088 -0.014043 -0.022057 0.028879 -0.004223 -0.001835 -0.009069 0.000283 0.000555 -0.022068 0.017146 0.000606 -0.007374 -0.032283 -0.027222 -0.009344 -0.007835 -0.009456 -0.007191 -0.033157 0.019532 0.030376 0.001046 0.016504 0.0185 -0.032604 -0.008703 -0.012675 0.018474 0.018711 0.016287 -0.000951 0.026783 -0.035978 0.011555 -0.008601 -0.01422 0.015374 0.032857 0.006069 0.021136 0.032594 0.019736 -0.005411 -0.006936 -0.009834 -0.006413 -0.003901 -0.017742 -0.009256 -0.026722 0.002298 -0.001522 -0.004517 0.001711 0.023135 0.02304 0.023458 0.020042 -0.025022 -0.01904 0.016778 -0.020081 0.009004 0.017221 0.013415 -0.007469 -0.005412 0.004947 -0.011173 0.036345 0.027188 -0.015784 0.00493 -0.029156 -0.023941 -0.002063 -0.00664 0.000485 0.021044 -0.002475 0.00941 -0.021104 0.028248 -0.029464 0.017975 0.016023 0.007216 0.02054 -0.017221 -0.01901 -0.025854 0.026047 -0.026119 0.014124 -0.007102 -0.012196 7.5e-05 0.009824 0.010096 0.011668 -0.02546 -5.5e-05 -0.019599 0.019693 0.001304 0.023845 -0.013184 -0.025854 0.001399 -0.01793 -0.019532 -0.027159 -0.021612 0.001113 -0.025194 -0.006471 -0.010964 0.014875 0.01343 0.008881 0.025703 0.03517 -0.012151 -0.015647 0.001849 0.001178 -0.015145 -0.02528 0.029848 0.023621 -0.005496 0.022345 -0.015339 -0.013344 -0.011062 0.020962 -0.025243 -0.011955 0.009093 -0.002162 -0.012475 0.015958 0.01862 0.029309 0.030438 0.01116 -0.013705 0.01259 0.002451 -0.021432 0.028846 0.020509 0.015987 0.028079 -0.016634 0.033985 0.006343 -0.033838 -0.010959 0.007105 -0.011131 -0.017509 -0.002496 0.002234 -0.015807 -0.029507 -0.011637 0.024075 0.010072 0.028009 -0.003384 -0.027715 0.039362 -0.019888 -0.035611 -0.002276 -0.012287 -0.020501 -0.014202 -0.017281 -0.001881 -0.024905 -0.021738 0.000693 0.019158 -0.034018 0.017897 -0.000394 -0.042616 0.021128 -0.01533 0.02057 0.00414 0.031685 -0.006674 -0.012751 0.007302 0.013602 -0.017254 -0.028752 0.022833 -0.023958 0.020507 -0.025305 -0.010316 -0.018069 0.024742 0.002538 0.032138 0.007912 -0.000782 -0.017933 -0.002216 0.017195 -0.018793 0.015228 0.018538 -0.001847 0.019906 -0.005852 0.022924 -0.019034 -0.00036 0.001835 0.017837 0.022055 0.003804 -0.023583 -0.016845 0.011843 0.013099 -0.018966 -0.005906 0.016828 0.002632 0.007466 -0.020955 -0.002027 -0.009897 -0.028767 0.022285 -0.014393 0.003846 0.009278 -0.011638 0.010123 -0.00879 -0.032332 0.020476 -0.016347 -0.020235 -0.006628 0.02894 -0.00536 -0.023028 -0.027165 0.018158 0.030021 0.009573 0.006133 -0.003374 -0.018026 0.006053 -0.030993 0.026518 0.006794 0.028886 -0.026137 -0.015742 -0.017424 -0.0011 -0.016417 -0.021861 -0.032274 -0.010408 0.010859 0.0006 -0.019491 0.01496 0.035747 0.032394 0.032305 -0.032034 0.00766 -0.009294 0.024064 -0.023213 -0.028595 -0.021667 0.004015 -0.008977 0.002478 0.008441 0.014391 -0.017738 0.005804 -0.009956 -0.017731 0.025549 -0.02718 -0.007476 0.015737 0.031529 -0.020823 -0.021177 0.035151 0.0048 0.000215 -0.028043 0.025732 0.028523 0.022981 -0.021011 0.025059 0.004733 0.036029 -0.016164 0.026213 0.021873 0.021247 0.01679 -0.004959 0.006476 0.007618 -0.030065 -0.017991 0.003513 -0.009816 -0.015165 -0.008007 0.014217 -0.001631 -0.027895 0.022443 -0.02851 0.021222 -0.004742 -0.014616 -0.019483 0.020041 0.010169 -0.025392 -0.019433 0.02614 -0.026237 -0.034699 0.011769 -0.021056 -0.025222 0.018104 0.030345 0.010374 -0.030745 -0.025566 0.026581 -0.004622 -0.012205 0.012443 -0.011751 -0.027763 0.011316 0.008577 -0.004077 -0.033853 -0.021056 0.029168 -0.022392 -0.017844 -0.008629 -0.012318 0.020414 0.014563 -0.007095 -0.000601 -0.003603 -0.038046 0.001659 -0.007705 0.040197 0.018418 -0.038681 0.026339 0.021359 -0.000646 -0.037537 -0.026795 0.007905 0.034317 -0.008229 -0.031454 -0.004736 0.008136 0.017223 -0.030055 0.037039 0.032454 0.002341 -0.020869 -0.018887 -0.005285 -0.023089 0.026899 -0.016243 -0.001682 -0.031449 -0.003599 0.008283 0.003419 -0.009586 -0.008109 0.023901 0.005096 0.013985 -0.01447 0.024472 0.024547 -0.025598 -0.002272 0.001189 0.013977 0.000228 -0.027571 -0.00457 -0.012933 0.008146 -0.039608 0.005832 0.017366 -0.012614 0.009053 -0.027807 0.018732 0.026463 0.01541 -0.010923 0.0161 0.014981 -0.027957 0.026932 -0.027492 -0.026209 -0.025997 0.000764 0.017755 0.029743 -0.012501 -0.027699 0.002303 -0.02328 -0.006608 0.007348 -0.008229 -0.002735 0.007686 0.003138 -0.029698 0.02486 0.036728 -0.00519 -0.002271 -0.028868 -0.019826 0.002646 0.018756 -0.025319 -0.032106 0.018386 -0.022819 0.036065 -0.020486 0.009954 0.023082 0.009469 0.030327 -0.02154 -0.000665 0.026485 -0.004473 0.002633 -0.001775 0.015318 -0.034597 0.006895 0.009389 0.025093 -0.019324 0.023848 -0.024662 -0.036651 -0.014055 0.00196 0.024318 -0.01644 -0.032399 -0.001602 -0.019387 -0.01236 -0.001649 -0.012232 -0.019694 -0.014001 -0.004537 -0.01176 -0.001951 -0.019894 0.039335 -0.035615 0.000359 0.031919 0.024285 0.025487 -0.00575 0.002237 0.009554 0.006437 0.006453 0.004006 0.005356 0.012283 -0.032671 -0.029959 -0.026566 -0.015764 -0.019137 0.009322 0.009488 0.018681 0.013717 0.015016 -0.011383 -0.005474 -0.036246 0.014859 -0.000482 0.003291 -0.00797 0.019056 0.038738 0.000117 0.015129 0.01097 0.014929 0.006164 0.003303 0.02184 0.02313 -0.00349 0.005863 0.000739 0.018312 0.020901 0.020369 -0.019557 0.015824 0.008339 0.02308 0.004197 -0.023707 -0.019467 0.00752 -0.001346 -0.001382 0.024533 -0.005076 0.019055 -0.026569 0.000399 -0.032946 -0.0169 0.028082 -0.020827 0.017589 -0.019597 0.000752 0.001367 -0.012484 -0.013604 0.014137 -0.012478 0.028167 0.00242 -0.013425 -0.020449 -0.000185 0.020217 0.022395 0.00967 -0.011258 -0.028035 -0.023371 -0.002484 0.019643 -0.022071 0.012672 -0.023267 0.008393 -0.035162 -0.017238 0.017599 -0.015595 -0.033062 -0.029985 0.002371 0.014191 0.006083 -0.011451 -0.031116 -0.026975 -0.026448 -0.019629 -0.030498 0.006446 -0.024429 -0.018829 0.034041 0.006183 -0.009033 0.025873 0.007703 0.029187 -0.023878 0.01182 -0.012469 0.004225 -0.001173 0.007022 0.0182 0.007955 0.042924 -0.015554 -0.027747 -0.013249 0.013743 -0.026435 -0.02109 0.015079 0.011242 -0.018107 0.024683 0.027764 0.015775 -0.033198 -0.018118 -0.001702 0.010282 0.000954 -0.011033 0.000466 -0.006359 -0.010136 -0.009704 -0.000929 -0.032652 0.002434 -0.002491 -0.033544 0.01548 0.00643 -0.019118 0.024941 -0.008146 0.030027 -0.013758 -0.019427 0.017816 0.022082 -0.013144 -0.01498 0.021227 0.030723 0.004788 0.034921 -0.010895 -0.036908 -0.010593 -0.002355 -0.023465 0.032562 -0.011869 0.024003 -0.007931 -0.020994 0.013197 0.005541 -0.005882 0.026313 -0.022911 0.006157 -0.017626 0.031484 0.000205 -0.014433 -0.008026 0.003975 0.021877 -0.025627 0.01844 0.012994 0.016974 -0.023379 0.021597 0.027029 -0.002998 0.002844 0.021666 -0.001238 -0.021965 -0.007413 -0.024872 0.013733 0.012407 0.015694 -0.017445 0.039224 -0.006005 -0.001176 0.038025 0.023492 0.008664 0.008431 0.002636 0.001495 0.039642 -0.013612 0.029765 -0.01947 0.02936 0.016681 -0.017115 -0.022578 -0.01552 0.019862 -0.003647 0.002923 0.003258 0.031666 -0.019277 -0.017816 0.013759 -0.026989 -0.021778 0.013623 0.02546 -0.020856 0.016055 0.008184 0.005631 -0.023491 -0.025964 0.008027 -0.002726 0.023138 -0.015803 -0.013055 -0.021857 0.033344 0.024132 -0.017182 -0.001324 -0.023273 0.003842 -0.000741 -0.028185 -0.005246 0.034758 0.02837 -0.025565 -0.016189 0.00591 -0.005419 -0.015783 -0.007907 0.015979 -0.019617 -0.001419 0.03263 0.024736 -0.00053 -0.011244 -0.011481 -0.012703 0.018826 -0.018553 0.024264 0.028297 -0.018616 0.013091 -0.010443 0.028525 -0.018956 0.025839 0.022575 0.012213 0.024937 -0.023641 0.029098 -0.018081 -0.032308 -0.010778 -0.022995 0.024394 0.012042 -0.031692 -0.010879 0.024449 0.020701 -0.013118 -0.021579 -0.012128 -0.005786 -0.017842 0.029884 -0.018005 -0.017571 -0.002381 -0.028554 -7.7e-05 9.1e-05 -0.009104 -0.019518 -0.018218 -0.011081 0.00017 0.02886 -0.013117 0.022582 -0.014769 0.004574 0.007481 -0.024118 -0.012207 -0.003768 -0.018079 -0.003885 -0.024137 -0.013408 -0.001641 -0.030267 -0.025469 0.014302 0.026002 0.014452 0.030781 -0.006147 0.021273 0.011305 0.009133 -0.0252 0.024695 -0.016006 -0.028661 0.022139 -0.020547 -0.020751 -0.008709 -0.022263 0.025445 -0.027449 -0.004094 -0.015379 0.001146 -0.025496 -0.02598 0.032965 -0.009064 -0.015929 0.019776 0.008203 -0.004716 -0.021039 0.015549 0.025297 0.005409 0.000345 0.019122 -0.030965 -0.013379 0.022829 -0.001047 -0.016207 0.011158 -0.012663 0.026042 -0.01575 0.02749 -0.025543 -0.004915 -0.011691 -0.027943 0.015068 -0.005995 -0.005717 0.027908 -0.01536 -0.01895 -0.018148 0.011093 0.001396 0.013225 0.027537 0.028125 -0.001204 0.02834 0.011061 -0.011371 0.026904 -0.014163 0.000641 -0.018641 -0.013812 -0.001606 -0.027879 0.018213 -0.010844 -0.019878 0.008444 -0.008384 0.022556 -0.016572 -0.007684 0.023205 0.013061 -0.013938 -0.017262 0.00823 0.023788 0.016063 0.013712 0.025009 0.019712 0.030783 -0.00764 -0.021062 0.024397 -0.008508 -0.007952 -0.028426 -0.022995 -0.012151 -0.016971 -0.016619 0.018281 -0.023498 -0.002999 0.020424 -0.007 -0.028713 -0.028699 -0.023472 -0.021311 0.013784 -0.019667 0.027388 -0.007125 0.024018 0.015619 0.014368 0.032821 -0.027366 -0.026707 -0.023392 -0.025248 0.026343 -0.010758 0.005354 0.01811 -0.027721 -0.015341 0.024652 0.007388 -0.024673 -0.024841 0.000663 0.0191 -0.007978 0.019455 0.003296 -0.029287 -0.028676 0.021521 0.027361 -0.001143 -0.001282 -0.028942 -0.030327 0.020599 0.007069 0.024001 -0.005538 0.030897 -0.038837 0.014213 -0.006519 0.036523 0.002865 0.005755 -0.010542 0.015248 0.003061 -0.022718 -0.004778 -0.009672 -0.01333 -0.007624 0.019671 0.021968 -0.013992 0.014538 0.003897 0.002124 -0.004208 -0.020905 -0.03351 -0.021616 -0.037161 0.021827 0.021743 0.028407 0.004315 -0.019573 0.026041 0.026911 0.005453 0.006214 -0.014414 -0.021806 -0.012401 0.012709 -0.010729 -0.025951 0.009857 -0.025977 -0.022086 0.013446 0.001469 0.000472 0.010198 0.011573 0.003249 -0.033194 0.018177 0.03422 0.021477 0.035515 0.024383 -0.049344 -0.027995 -0.019111 -0.03036 -0.032359 0.03075 -0.024058 0.043333 0.025378 0.019621 -0.00849 0.026435 -0.023003 0.014174 -0.00809 -0.003187 -0.015159 0.016093 0.030345 0.029925 -0.024508 0.022715 0.014834 0.011753 0.022849 0.036778 0.036888 0.007039 -0.000565 0.04714 0.02602 -0.019584 0.019616 0.030152 -0.040887 -0.013772 0.037896 -0.02441 -0.017446 0.025059 -0.024047 -0.025085 0.000866 0.021774 -0.019185 0.010123 0.00015 -0.038432 0.023101 -0.005612 0.046333 0.003878 0.019871 0.022914 -0.017257 -0.027957 0.012742 0.00971 -0.000605 -0.01561 0.009144 0.036286 0.020128 0.030748 0.011548 -0.016105 0.019937 0.029395 0.010072 0.029213 0.001924 0.006945 -0.029023 -0.002036 -0.020268 0.002829 -0.009057 -0.020361 -0.001761 0.011413 0.001343 -0.01377 0.00719 0.014277 0.016817 -0.021332 0.010503 0.002974 -0.013533 0.001891 0.028732 0.015742 0.023651 -0.010749 0.010653 -0.014804 0.02989 -0.019315 0.019925 -0.001113 0.02209 0.017967 0.006417 0.018341 -0.025992 0.007601 0.023517 0.016566 0.0144 -0.003223 0.030667 -0.003175 0.030206 0.029154 -0.030728 -0.010718 0.011863 -0.012818 0.008238 0.001033 -0.023773 -0.016045 -0.024368 -0.022939 -0.016332 0.011882 0.012637 0.004938 0.017771 -0.005689 0.018379 0.012997 -0.002619 0.000491 0.013807 0.026053 -0.00132 0.019414 0.006129 0.011579 -0.006691 -0.020348 0.026905 -0.029074 0.012398 -0.014197 -0.030053 0.016265 0.027359 0.027214 0.008364 -0.02728 0.023626 -0.028168 -0.025303 -0.006565 -0.008556 0.013875 0.023247 0.023227 -0.007101 -0.020538 -0.013297 0.013308 -0.016345 -0.007503 -0.014709 0.004936 -0.019033 0.012956 -0.029141 0.03484 0.013974 -0.002713 0.001077 0.017463 -0.027355 -0.027319 0.003997 0.031671 -0.017547 0.00898 0.006906 -0.006865 0.01157 0.008484 0.013409 -0.002645 -0.008233 0.030379 -0.017333 0.005159 0.015226 0.007251 0.012108 -0.022125 -0.014609 -0.010224 -0.03093 -0.017387 -0.009017 0.009587 -0.009882 -0.027004 -0.017036 -0.004883 0.007009 -0.023846 -0.022936 0.016266 0.004244 -0.012726 -0.026949 -0.002597 0.026244 -0.007264 0.024059 0.033742 -0.015446 -0.000555 0.002596 0.026136 -0.027922 0.011449 0.019466 0.002882 0.032534 0.000613 -0.020728 -0.010548 0.021719 0.015736 0.021479 -0.027206 0.003187 0.009484 0.019397 0.027977 0.027055 -0.028388 -0.008391 0.029399 -0.010505 0.019557 0.031939 -0.018892 -0.02052 0.023431 0.013331 -0.005096 0.021622 -0.020733 0.023588 0.01882 0.017946 -0.016316 0.015547 0.004896 -0.030757 -0.001515 -0.007153 -0.019887 -0.02398 -0.020226 -0.002696 -0.015853 0.008186 0.002135 -0.004994 0.020636 -0.02189 0.041696 0.021707 -0.007314 -0.017219 0.022747 0.000907 -0.015593 -0.027221 0.015754 -0.015969 0.041667 -0.008359 -0.025368 0.024953 -0.008379 -0.014333 0.023177 -0.025611 0.004937 0.004878 -0.015405 0.019192 0.011769 -0.007845 0.039559 0.014127 -0.016777 0.035584 -0.016841 0.005507 0.032585 -0.005625 0.030815 -0.008246 -0.003279 0.034112 0.009796 -0.021292 -0.021385 0.023717 0.037102 0.008974 0.006163 0.022402 0.028118 -0.020047 0.034548 0.035051 0.012754 0.027871 0.015976 -0.020434 0.021396 -0.012243 -0.001621 -0.027285 -0.020452 0.021305 0.006338 -0.012945 -0.018267 -0.020811 0.030842 -0.01505 0.009166 0.030209 -0.018006 -0.023554 -0.026543 0.031882 -0.000997 0.008421 -0.009393 -0.013251 -0.004975 -0.029237 -0.0313 -0.006687 0.000108 -0.006522 0.022397 -0.001396 0.027443 -0.017037 0.003802 0.001128 0.017246 0.034364 0.004726 0.009333 0.011473 0.028216 0.022483 0.006362 -0.019913 -0.009493 -0.004877 0.000987 -0.031258 -0.009144 -0.01221 -0.030994 0.00239 0.024356 -0.015602 -0.004142 -0.002063 0.015866 -0.032497 0.012861 0.003024 -0.019512 0.019476 -0.022059 -0.03113 -0.021716 -0.004781 -0.005112 -0.016536 0.001827 -0.009586 0.010856 0.021508 -0.020974 0.006423 0.026437 0.001912 0.01583 -0.018956 0.014877 -0.015937 0.006608 0.005056 0.02095 -0.024986 -0.019869 -0.027012 0.019173 0.017495 -0.006159 0.017266 0.003851 -0.034975 0.024631 -0.032716 0.001421 -0.015454 0.018145 0.010565 0.016078 -0.019315 0.032776 -0.014155 -0.015393 -0.020438 -0.023991 0.034409 -0.01019 0.004739 0.004625 0.027937 0.01903 -0.015848 0.017936 0.022466 -0.026605 0.005489 0.023357 0.013639 -0.015951 0.024671 0.013666 -0.001713 -0.016075 0.020901 -0.023161 0.006203 -0.026516 0.017249 0.019318 -0.021321 0.020887 0.015665 0.001485 -0.002573 0.020766 -0.011617 -0.012575 -0.035833 0.014898 0.004335 -0.034419 -0.024244 0.009735 -0.047562 -0.019578 0.00094 0.01198 0.015008 -0.026428 -0.000443 0.016295 -0.031105 0.027243 0.035801 -0.00372 -0.02457 0.001302 0.031314 0.011267 0.024841 -0.026045 0.022136 0.035233 0.004246 -0.027108 -0.016072 0.017743 0.022638 -0.018867 0.012232 0.032585 -0.027294 0.008138 -0.024606 0.031378 -0.013714 -0.009432 -0.001102 -0.03424 0.01771 0.017822 0.025555 0.020301 0.029007 0.018009 0.033898 0.001734 -0.020585 -0.022563 0.002129 -0.01847 0.020136 0.03204 0.00744 0.005733 -0.005069 0.024166 0.005881 -0.009154 0.008952 -0.000109 -0.026944 -0.04439 -0.035757 -0.019097 0.021391 0.021811 0.028435 -0.025211 0.030332 0.007948 0.008366 -0.030826 0.005884 -0.00481 0.000208 0.006687 0.022277 0.011939 -0.022564 0.003089 0.025871 0.021781 -0.024055 0.018883 0.012657 0.023368 0.011856 0.034349 -0.03251 -0.019793 -0.003189 -0.021332 0.002678 0.020049 -0.016991 0.007851 0.036167 -0.005798 -0.020666 0.001335 -0.020285 0.023326 -0.004466 -0.01459 0.00896 -0.015035 -0.022891 0.027909 -0.014828 -0.012696 0.047552 -0.007312 -0.030118 0.001245 -0.02235 0.010858 0.013598 -0.020001 0.019545 0.002577 0.01213 0.026484 0.01691 -0.014671 0.021812 0.015648 -0.016306 0.003799 -0.002954 -0.02054 0.019864 -0.020715 -0.032402 0.026983 0.001625 -0.00578 0.016083 0.008843 0.020389 -0.002123 0.004837 -0.012226 0.009452 0.026818 -0.01284 0.00612 -0.001513 0.015511 0.01674 0.01251 -0.000283 -0.007353 0.02685 -0.024384 -0.019469 0.016248 -0.021065 -0.020184 0.000604 -0.023776 0.014075 0.013445 -0.011049 -0.018956 0.006639 0.009758 0.001225 -0.014516 0.019621 -0.017911 -0.002858 -0.01981 0.025637 -0.019807 0.026816 -0.023544 0.015507 -0.009895 -0.008775 -0.024739 -0.029154 -0.018769 -0.02814 0.03023 0.016134 0.029343 0.027322 -0.008759 -0.022365 0.014716 -0.004605 -0.019101 -0.030727 0.030397 0.012541 0.005667 0.013345 -0.023796 0.008871 -0.024183 -0.022991 -0.027849 0.020171 0.013799 -0.018244 0.02752 -0.029718 -0.007432 -0.017389 0.01057 -0.020924 -0.026855 -0.015168 -0.00188 -0.003478 -0.027583 -0.005182 0.02916 0.004184 0.002557 0.018425 -0.021041 -0.028397 0.02158 0.023119 -0.029396 -0.01731 -0.007571 -0.026866 -0.000526 0.009887 0.003594 0.018568 0.000982 -0.020512 -0.02547 0.021347 -0.021246 0.008738 0.003105 -0.031279 0.0189 -0.02115 0.008916 0.01067 -0.009648 -0.023493 0.002649 -0.031281 0.032201 -0.012403 -0.029337 0.005267 0.017647 0.025434 0.015726 0.022628 -0.005312 -0.006667 -0.026713 -0.009831 -0.015473 0.006324 -0.020176 0.023351 -0.031566 0.015861 -0.00537 0.01282 -0.033579 0.007199 -0.033299 0.006478 -0.025393 -0.008376 0.018512 -0.003682 0.001247 0.028116 -0.033053 0.006 -0.002663 0.023424 0.005734 -0.004526 -0.001136 -0.022211 -0.020569 -0.018552 0.034975 0.004475 0.004897 -0.016698 -0.023177 -0.017454 -0.008854 -0.023575 0.013828 -0.016706 0.01544 -0.001492 -0.026618 0.016982 -0.020191 -0.018352 0.03047 0.003371 0.001916 -8e-06 0.015487 0.007656 0.011609 -0.001341 0.029274 0.025155 -0.025956 -0.011126 0.015671 -0.007774 -0.011138 -0.004076 -0.006818 -0.014701 0.010649 -0.010495 -0.017612 -0.028267 -0.010531 0.025295 0.000599 0.012699 0.014646 0.027466 0.018573 -0.030425 0.012415 0.006863 0.028434 -0.028873 0.005881 -0.015032 0.013007 -0.010969 -0.021675 0.0218 -0.013499 -0.00501 0.028046 0.006979 0.019657 -0.00314 0.016945 -0.001416 0.029504 0.015351 -0.020183 -0.035881 -0.00647 -0.011407 -0.016439 0.010499 -0.024045 -0.015267 0.024704 -0.010672 -0.038399 -0.011756 -0.030571 0.0228 0.003822 0.004903 -0.012366 -0.019517 -0.001679 -0.001702 -0.030718 0.010254 -0.020565 0.019209 0.010849 0.002651 -0.000336 0.000712 0.007987 -0.021881 -0.003311 -0.007799 -0.015154 0.016095 0.020236 -0.005411 0.002413 -0.007256 0.005261 0.014265 -0.009026 0.027411 -0.005743 0.010444 0.017015 -0.023614 0.028467 -0.015239 -0.013674 0.016807 0.021654 -0.000478 -0.006835 0.01699 -0.01366 0.019758 -0.022383 -0.02723 -0.004245 -0.015025 0.011203 -0.002208 0.019415 -0.015966 0.018936 -0.009342 -0.003264 0.025494 -0.024462 0.012047 -1.7e-05 0.011863 0.024963 -0.02222 0.018259 -0.007977 0.002069 -0.011728 0.02557 -0.019378 -0.002427 0.010289 -0.028591 -0.018552 -0.004785 -0.017439 -0.005271 0.009602 -0.030052 0.022688 -0.015682 -0.022721 -0.004984 -0.025765 -0.003458 0.012095 0.003387 -0.029073 -0.025399 -0.022286 0.002514 -0.022589 0.020047 -0.019282 -0.030468 -0.015071 0.01196 0.026802 -0.03016 -0.006218 0.001734 -0.009365 -0.028186 0.008401 -0.01613 -0.029179 -0.020735 0.03008 0.016429 -0.025337 0.026834 0.009918 -0.01145 0.022389 -0.028761 -0.026389 0.018934 0.006566 -0.002287 0.028356 -0.024838 -0.015677 -0.009018 -0.021001 -0.008383 0.024469 -0.013575 -0.009794 -0.016228 0.009952 -0.025109 -0.013863 0.029978 0.004346 0.013502 -0.027838 0.030305 0.009644 -0.021247 -0.01522 0.021835 0.019728 -0.025739 -0.009903 0.011621 0.000319 0.003138 -0.00459 -0.023961 -0.019477 -0.02945 -0.028959 -0.02494 0.016363 0.01475 -0.030271 -0.028019 0.025599 0.014545 -0.017337 -0.031431 0.002353 -0.017733 0.016037 0.004659 -0.02162 -0.013976 -0.004303 -0.002413 -0.001981 -0.009642 -0.028537 -0.012999 -0.018709 0.01403 0.013345 -0.021125 -0.01998 0.002438 -0.010538 -0.015646 0.001049 0.010468 0.008221 0.010727 -0.007378 0.006311 -0.00506 -0.017658 -0.027566 0.017851 -0.024196 0.012241 -0.012817 0.010207 0.02765 -0.030295 0.011972 0.018303 -0.006436 -0.000374 0.005557 -0.026189 -0.017322 0.018437 -0.027337 0.004326 -0.022138 0.027297 0.026303 -0.012019 -0.004561 0.009274 -0.023661 -0.020259 0.020783 -0.003608 0.028334 0.029528 0.008156 0.01927 0.014627 -0.008676 -0.000399 0.006643 0.006148 0.027534 0.02408 0.014208 0.013396 -0.026406 0.030211 0.012015 -0.005019 -0.021667 -0.014904 -0.007308 0.010827 0.022382 -0.015133 -0.01776 -0.009698 0.011661 -0.015682 0.02048 0.009309 0.006424 0.00228 0.029721 -0.016026 -0.013275 0.000495 0.014056 0.020308 -0.001859 -0.019482 -0.004707 -0.001367 -0.010043 0.006931 -0.028161 0.004206 0.011805 -0.002552 -0.01782 0.022254 0.011572 -0.006975 0.000899 0.006987 0.0205 0.026675 0.007926 -0.005792 0.010436 0.004101 -0.024398 -0.001884 -0.029444 0.027019 0.02279 0.016183 -0.020902 0.010626 -0.012863 0.002027 -0.000776 0.013908 -0.004673 -0.021067 -0.006223 0.022664 -0.008109 0.013082 -0.006152 0.001931 -0.018992 -0.009472 0.031206 -0.017765 -0.004812 0.033859 0.010257 -0.001736 0.000713 0.010303 0.024097 0.00098 0.020038 -0.00684 0.010695 0.028237 -0.022979 -0.003621 0.016414 -0.038937 -0.00416 -0.011942 0.026831 -0.020559 0.023466 0.030078 0.009755 0.011299 0.014348 -0.027944 -0.022686 -0.00598 0.01007 0.023721 -0.022433 0.006087 0.010962 0.026892 0.029032 -0.017759 -0.008025 -0.015139 0.036592 -0.021419 -0.026248 0.010623 -0.028925 -0.010576 0.018791 -0.007426 -0.015801 0.016242 -0.022203 0.034614 0.029383 0.017224 0.005802 0.024424 0.004854 0.02854 -0.024169 -0.018539 -0.026285 -0.006357 -0.018455 -0.019321 -0.028678 0.018554 -0.030142 -0.025861 0.012031 -0.01188 0.000521 0.023886 -0.005083 -0.020928 0.021651 0.004526 -0.009128 -0.021085 0.026419 0.018129 0.031596 -0.007942 0.005162 -0.021178 -0.025872 -0.018107 -0.031722 -0.017921 -0.001718 0.021777 -0.001656 0.035458 0.015174 -0.015005 -0.022802 -0.019386 0.024433 0.04266 -0.001811 0.034133 -0.021819 0.008727 -0.018712 0.010397 -0.010466 -2.7e-05 0.001786 0.007137 0.009823 0.031159 0.027002 -0.014058 0.012975 0.029768 -0.003459 0.026527 0.002834 0.028963 0.011328 -0.026326 0.003741 -0.009154 0.012953 0.036925 -0.012171 0.034875 -0.00825 0.019952 -0.019156 0.034946 0.014493 0.016313 0.028735 0.017882 0.007443 0.028888 -0.008686 0.019783 0.021571 -0.028112 -0.019977 0.020149 0.024755 -0.034004 -0.001102 0.030139 -0.008239 0.02007 0.004376 0.018415 -0.002004 0.015234 -0.038327 0.022763 -0.041238 0.016179 -0.025885 -0.033018 0.012549 -0.01527 0.010584 -0.002862 0.031392 -0.005606 -0.003841 -0.044912 0.030474 0.001294 0.00533 0.021621 0.005149 0.006641 -0.016401 -0.023288 0.014178 -0.026397 -0.012506 0.002182 -0.009482 0.01196 0.029303 0.013412 -0.033926 0.006697 -0.005002 -0.00422 -0.028333 -0.019971 -0.017958 0.009595 0.023076 -0.003502 -0.033632 -0.04283 0.030157 0.021371 0.007829 -0.00818 -0.008506 0.025082 0.005966 0.003224 0.020206 0.016536 -0.004912 -0.032795 -0.022152 0.007329 0.011239 0.018833 -0.024973 0.034923 -0.019317 0.025235 0.032005 -0.022424 0.020711 0.013409 0.016037 0.005428 -0.022317 0.030403 0.036933 -0.016388 0.021384 0.019321 0.001618 0.017655 -0.017364 -0.008267 0.02605 -0.000795 0.036646 0.018704 -0.003343 -0.010313 -0.003305 -0.01667 -0.001964 0.000191 0.013579 -0.01793 0.002751 -0.021989 -0.013506 0.037869 0.016419 0.020403 -0.007661 0.011779 0.024222 0.040412 -0.014561 0.007931 0.015953 -0.018797 0.024354 0.00546 0.007622 0.014174 -0.006679 -0.01723 -0.025042 -0.034082 -0.008064 -0.018256 -0.003705 -0.039062 -0.017833 0.018576 -0.009585 0.003018 -0.021361 0.011661 -0.001945 -0.013646 0.009559 0.024177 0.030356 -0.024979 -0.022265 -0.010626 0.019244 0.024262 -0.025089 0.020894 0.013701 -0.011129 -0.015716 0.022293 -0.010908 0.010306 0.02511 0.030857 0.024194 -0.011136 -0.009097 0.029138 -0.010254 0.012299 -0.020848 -0.027691 -0.013237 0.010362 0.021071 0.016388 -0.005801 0.023576 -0.01586 0.023143 -0.009702 0.037969 -0.016088 0.002265 0.036747 0.02798 -0.002763 0.005024 -0.004885 -0.011488 0.021819 -0.016212 0.032241 0.011682 -0.015169 0.036969 0.028519 -0.002942 0.007825 0.022924 -0.009963 -0.005744 0.001885 -0.029786 0.003209 0.00501 0.00398 0.035152 0.021665 0.032488 -0.020761 -0.010547 -0.013667 -0.005536 0.027225 -0.026023 0.021054 0.015863 0.015025 0.010762 0.000353 -0.027361 -0.008879 -0.00839 -0.008037 0.001511 -0.001792 0.006098 0.025929 -0.014841 -0.015407 -0.0028 -0.018872 0.00126 0.024591 0.032812 0.020983 0.022056 0.005448 -0.000161 0.008297 0.031146 -0.008971 0.028627 -0.024705 0.03723 -0.02754 -0.012278 -0.016759 -0.039326 0.036614 -0.023725 -0.029341 -0.024178 -0.008264 -0.020931 -0.022889 -0.014471 0.004792 0.029674 0.021886 0.016888 -0.024264 -0.003072 -0.019296 0.025199 -0.008943 0.000914 0.032872 0.03119 0.027628 -0.010613 0.020961 0.010705 -0.010575 -0.02477 0.009871 -0.002348 0.004565 -0.004054 -0.014975 -0.026086 -0.019121 0.018209 -0.037682 -0.017073 -0.034147 -0.040766 -0.025845 -0.002097 0.028979 -0.01485 0.028529 0.02326 0.012675 -0.017414 0.038879 0.018124 -0.033153 0.022193 0.018968 -0.007632 -0.005014 -0.038223 0.018631 -0.00848 -0.008314 0.002443 -0.028072 -0.009812 -0.020035 -0.002769 -0.02145 -0.033607 0.001976 8.8e-05 0.017515 0.012031 -0.00923 0.027988 0.029869 0.013932 0.018047 0.002817 -0.004269 0.016522 0.01751 -0.009497 -0.01178 0.024286 -0.024365 0.028804 -0.013302 0.028814 -0.006809 0.023 -0.024454 -0.017071 0.017695 0.021391 -0.010504 0.022438 0.026807 0.001169 0.01727 -0.030382 0.013841 -0.01501 0.019607 -0.025714 -0.019369 -0.002695 -0.007026 0.018044 -0.003274 0.014146 -0.019766 0.027869 -0.004626 0.01273 -0.011346 -0.01753 -0.014244 0.029298 -0.029779 0.026855 -0.002904 0.031631 -0.003412 0.011445 -0.027863 -0.021382 0.017025 0.010953 -0.021492 -0.011315 -0.026675 0.025205 -0.003674 0.020348 0.004252 -0.016118 -0.00896 0.026249 -0.027395 0.00874 -0.023107 0.025467 -0.015515 0.016937 0.01731 0.00724 -0.0163 -0.027651 0.008615 -0.006332 -0.030473 -0.025367 -0.01535 -0.000501 -0.023789 0.026947 -0.017124 -0.001959 -0.008581 -0.008803 -0.031074 0.012208 0.029173 -0.008719 0.025054 -0.025411 -0.027406 0.008884 0.016039 0.018112 -0.020612 0.012208 0.029591 0.009814 -0.021608 0.013155 -0.026537 -0.001027 0.005272 0.01776 -0.025957 -0.029957 0.01085 0.014447 -0.030569 0.026617 0.00613 0.001045 0.023453 -0.025095 0.024352 0.029493 -0.017743 0.025269 -0.012539 -0.023946 -0.025095 -0.00531 -0.012311 0.011091 0.023964 0.01364 0.014165 0.002187 0.020503 -0.012892 -0.020289 -0.015096 0.014042 -0.026282 0.014174 -0.014535 -0.027242 -0.002013 0.021059 -0.01882 0.018674 -0.011073 -0.006263 0.026527 -0.003698 -0.002991 -0.02933 0.015626 0.010153 -0.001416 0.006984 0.000892 0.007697 0.004254 0.030422 0.033682 0.013303 -0.015697 -0.001965 -0.033214 0.038962 -0.025923 -0.003135 -0.008368 -0.024935 -0.017029 0.024996 0.016343 0.000962 -0.021618 0.030244 0.000565 -0.015317 -0.016747 0.01405 -0.035129 -0.003913 -0.006871 0.007701 -0.02183 0.003058 -0.010446 0.004263 -0.000195 -0.002726 0.008094 0.056747 -0.012197 0.015757 -0.011205 -0.001251 -0.011695 -0.012403 0.022853 0.036305 -0.01451 0.019244 -0.011497 -0.022829 -0.016007 -0.008906 -0.022776 -0.003388 -0.00783 -0.028459 -0.018395 0.01876 -0.02306 0.006814 0.002484 0.004428 -0.007755 0.035982 -0.029694 0.040521 0.007794 0.040178 0.025444 0.005092 0.038392 0.028369 -0.01162 0.003029 -0.024669 -0.02534 -0.006569 -0.007028 0.00603 -0.013567 0.003399 0.005143 -0.022165 0.018839 0.021693 0.004395 0.038929 -0.023397 0.030705 -0.005337 -0.021631 -0.013067 -0.026665 0.047056 0.038719 0.033039 -0.005761 -0.02154 0.033385 -0.00093 0.002822 -0.011418 -0.009699 0.039794 -0.010313 -0.02467 0.028222 0.004354 0.01799 -0.012676 0.022702 0.024359 -0.032317 0.020629 -0.020835 -0.007767 -0.006918 0.027654 -0.012815 0.022671 -0.008579 -0.028027 0.007283 0.00744 -0.002942 0.011443 0.026618 -0.034283 0.01405 0.033229 0.001112 -0.006175 -0.02907 -0.009105 -0.019994 0.014836 -0.001126 -0.019632 -0.012788 -0.021323 0.016583 0.022881 -0.030876 0.033258 0.030841 0.029421 -0.012327 0.002872 -0.008731 -0.0053 0.016087 -0.032044 0.00414 -0.005549 0.031649 0.013192 -0.026595 -0.01497 -0.003543 0.007197 0.030759 0.014344 -0.021183 -0.019678 -0.013499 0.026798 -0.032712 -0.015327 -0.009809 0.030507 -0.006649 0.027239 0.014061 0.000352 -0.032523 -0.019185 -0.006095 -0.026913 -0.012022 -0.019915 0.01438 -0.016151 0.020494 -0.000831 0.028498 -0.007703 0.033049 0.01806 -0.012972 -0.014135 0.005565 -0.03497 -0.006297 0.024679 0.000789 -0.004263 -0.020397 0.016236 0.025272 0.024836 0.024944 -0.024845 -0.026147 0.020183 0.0114 0.005143 -0.015161 0.012706 0.035813 0.002917 0.006262 0.012668 -0.016611 -0.022527 0.00957 -0.002582 0.012756 -0.029872 0.004026 -0.007453 0.007169 0.008587 0.002325 0.029909 0.026504 0.010353 -0.007601 -0.03101 0.006152 0.013788 0.021533 0.01679 0.000918 0.008784 -0.019062 0.005404 0.015178 0.014161 0.034061 0.025957 -0.008468 -0.025234 0.025501 0.033758 0.000687 0.024279 0.029384 -0.000497 -0.014453 -0.02826 0.03766 -0.026727 -0.033186 0.016581 0.020426 -0.006103 0.015096 -0.005577 -0.00141 0.019522 -0.017888 -0.012681 -0.003765 0.016322 -0.017463 -0.018849 0.017999 0.037537 0.01937 0.010664 0.024297 0.014451 0.031696 0.004628 0.02569 -0.003732 -0.023159 -0.02519 -0.012919 -0.008244 0.018698 0.022668 0.000444 0.015172 0.011979 0.024752 -0.025317 0.001278 -0.020563 -0.01033 -0.005838 0.031842 0.015266 0.025278 -0.007494 -0.01452 0.006434 -0.030899 -0.018627 -0.024776 -0.024654 -0.015899 0.021562 -0.024826 0.012948 0.00117 0.028543 0.004984 -0.011816 0.01531 -0.002086 0.003268 0.010366 0.009125 0.023117 -0.025131 -0.014397 0.013185 0.007535 -0.002397 -0.01736 0.008644 -0.001719 0.014768 -0.018147 -0.026702 -0.002642 -0.028813 -0.004426 0.030537 0.02713 -0.005514 0.002516 0.007563 0.028817 0.031777 -0.018092 -0.000785 0.022359 -0.002349 -0.008201 -0.030735 0.03139 0.01336 -0.024044 0.023717 0.032272 -0.018404 -0.004215 0.002948 -0.010206 0.014075 0.019978 -0.016701 0.00624 0.018999 -0.005925 -0.014958 -0.025673 0.031916 0.031074 0.007956 0.024017 -0.022018 -0.00945 0.017038 0.029415 0.018916 0.01272 0.036407 0.000335 0.016377 -0.017645 -0.035919 -0.009481 0.01431 -0.020537 -0.001012 -0.010617 -0.001736 0.028183 -0.021805 0.011028 -0.024439 0.025011 -0.02702 -0.01679 0.02312 0.027313 0.000882 0.023677 0.006826 0.008769 -0.01928 -0.008879 0.003611 -0.02492 0.004923 0.019465 -0.023529 0.022176 0.009841 0.030589 0.014273 -0.023169 0.002288 0.013159 -0.013705 -0.011156 -0.015358 0.026568 -0.022247 -0.014215 -0.015553 0.017909 -0.026619 -0.031432 -0.013646 -0.033235 0.004312 -0.008593 -0.028011 -0.022368 0.002848 0.005886 0.028927 0.021192 -0.030977 -0.026079 -0.040985 0.025234 0.022429 0.010461 -0.017807 -0.031301 -0.0068 -0.008635 0.018501 0.010227 0.023503 -0.029183 -0.017632 -0.032559 -0.025176 -0.002714 0.031794 -0.026033 0.041102 -0.001001 -0.003852 0.016066 -0.029361 0.020023 0.020508 0.023525 0.022218 0.027894 0.01048 0.029427 0.031653 -0.005313 -0.008891 -0.013677 0.026734 -0.01193 0.028553 -0.013669 0.008487 0.018061 -0.003697 0.01192 -0.000143 -0.027548 -0.024535 -0.002421 0.020366 0.002786 -0.013544 -0.031515 0.007833 -0.022261 -0.018469 -0.022088 -0.01401 0.017302 -0.012699 -0.026663 0.014449 -0.019427 -0.002063 0.016426 -0.001892 0.011369 -0.023747 -0.02438 -0.010181 0.021182 -0.001407 -0.008375 -0.008503 -0.017322 0.034017 0.020748 -0.010265 0.030922 -0.012921 -0.001115 -0.01084 -0.004214 -0.020813 -0.012551 0.01794 0.01276 0.01787 0.004081 -0.010273 0.005898 -0.017234 -0.016598 0.028902 -0.011524 0.029395 -0.018374 0.019684 0.028439 0.003685 0.003301 -0.020461 -0.003751 0.019021 0.024892 0.011995 0.03619 0.028288 0.017502 -0.026554 0.002836 -0.02566 -0.000645 0.023166 -0.015051 -0.005256 0.029259 -0.021645 0.01615 0.011564 -0.031458 0.016333 -0.00957 -0.019659 0.012538 -0.005239 0.019745 -0.022251 -0.026155 -0.028805 -0.021234 0.033654 0.003974 0.010265 0.033327 0.01014 -0.028122 -0.014972 -0.033863 -0.018589 0.000604 -0.023959 0.001313 0.027521 0.021851 -0.003907 0.003016 -0.021878 -0.006318 -0.020927 -0.018335 -0.023644 0.017619 -0.029701 -0.024187 -0.025345 0.0064 -0.028199 0.028659 0.034468 -0.00769 0.009096 -0.00441 0.026193 0.01389 0.020283 -0.00371 -0.024313 0.01054 -0.010459 -0.005118 0.029522 0.005539 0.010073 0.019583 -0.009081 0.021913 0.00058 0.015139 0.006301 -0.009893 -0.013479 0.02844 0.025106 -0.011446 0.026722 -0.001983 -0.010386 0.024853 -0.026023 -0.004562 -0.010165 0.026606 0.012256 -0.019024 -0.007464 -0.011125 0.031192 0.003727 -0.001188 0.011361 0.018978 0.000299 0.007512 0.01196 0.010808 0.008497 0.021798 0.021998 -0.000365 0.039471 -0.026417 0.006127 -0.008928 0.004369 0.012106 0.003226 0.023712 -0.007154 0.012395 0.005308 0.02405 -0.017867 -0.000709 0.01761 -0.01659 0.031296 0.009468 -0.00332 0.022855 0.002945 -0.011483 -0.029735 -0.020768 0.006994 0.006813 -6e-05 -0.009809 0.023285 0.003502 -0.008284 0.006597 0.017907 0.006053 -0.014128 -0.020443 0.004624 -0.015367 0.026304 0.007036 -0.023647 -0.026625 0.003347 0.009319 0.034349 0.031246 0.012272 -0.031058 -0.019641 0.010472 0.011911 0.021358 -0.000972 -0.012883 -0.016251 0.009045 -0.022001 0.00911 0.008759 -0.028094 -0.011717 -0.024265 0.015647 0.004017 0.014647 -0.029868 0.009067 -0.019676 0.015675 0.004286 0.00871 0.018474 -0.021505 0.015791 0.007564 -0.023738 -0.025015 -0.019296 -0.015617 -0.018144 0.018392 0.029718 0.028605 0.001221 -0.012582 0.021076 -0.018649 -0.028776 -0.002876 -0.020801 -0.029125 0.00432 -0.025507 0.01736 0.02623 -0.02002 -0.011718 -0.030331 0.027104 -0.000707 0.022447 0.011992 -0.010324 0.028032 0.022565 -0.025625 -0.010161 0.001728 -0.005936 -0.010408 -0.00718 -0.009832 -0.017756 0.017587 0.030059 -0.027198 -0.021617 0.008608 0.001122 -0.018851 0.001863 -0.023233 0.029123 0.027773 -0.015655 -0.004122 -0.024398 0.022493 -0.019675 0.013514 0.0161 -0.008699 0.013635 0.006796 0.032788 -0.028773 0.023178 -0.019013 -0.021915 -0.018195 0.034904 -0.004547 0.010426 0.021999 -0.023105 0.015901 -0.026226 0.032082 -0.026631 0.02899 -0.005345 0.023227 0.015187 0.020564 0.02051 -0.019598 0.013829 0.002385 0.007293 0.010291 0.029182 0.011841 0.031166 -0.004712 0.018517 -0.019223 0.026969 -0.038935 0.019919 -0.004247 -0.000518 -0.009089 -0.024601 0.023862 0.005486 -0.031185 -0.010146 -0.023987 -0.024883 0.023686 0.030159 0.021619 0.010522 0.001369 -0.003851 0.021062 0.002031 -0.01912 0.000105 -0.022255 0.003878 -0.003841 -0.007299 -0.016182 0.00158 -0.015123 0.001402 0.009691 0.015714 -0.00315 0.0216 0.023169 -0.027925 0.011448 -0.001839 0.011075 0.028634 0.013953 0.040473 -0.022897 0.007091 -0.010305 0.035822 -0.026373 0.001 -0.00353 0.000726 -0.022662 0.015599 0.006702 0.000604 -0.013392 -0.007074 0.00272 0.017575 0.025372 0.027031 -0.014779 0.023932 0.002147 0.028888 -0.011062 0.015104 0.024698 -0.017625 -0.019994 0.012324 0.02969 0.003287 -0.017472 -0.022939 0.002864 -0.012261 -0.02479 -0.009786 0.019405 0.019019 0.008776 -0.026308 0.036185 0.013761 0.004925 -0.014961 0.019223 0.023877 0.014147 0.020447 -0.008345 0.008361 0.027453 -0.014673 -0.014202 -0.001735 -0.01632 0.001202 0.012561 -0.001247 0.015069 0.020204 -0.014598 -0.016583 -0.006227 0.025209 0.004005 -0.028969 0.008114 0.017846 -0.009461 0.016569 -0.014912 -0.02296 0.022564 -0.028633 -0.016905 0.012012 0.031892 -0.022319 0.019808 0.014509 -0.011003 -0.016125 0.005411 0.012268 0.009908 -0.022423 -0.014817 0.008548 -0.028107 0.003556 -0.023268 0.006177 -0.013676 -0.01943 0.008554 0.021011 -0.020623 -0.018169 0.025975 -0.019323 0.010079 0.021138 -0.022106 0.016742 -0.019165 0.022239 -0.001864 -0.010976 0.009574 0.008276 -0.02033 0.029707 -0.000774 0.001025 -0.017434 0.024821 -0.019315 -0.009049 0.004654 0.024883 -0.017197 0.018142 -0.022865 0.016 -0.025462 -0.005862 -0.001275 0.015486 -0.000929 0.003642 -0.000403 0.004873 0.013748 -0.025001 -0.025118 -0.029717 -0.017947 0.011689 0.025679 0.025491 -0.030381 -0.017322 -0.038032 0.010592 0.032595 -0.011546 -0.027212 -0.019688 -0.0003 -0.01559 0.012043 0.01142 0.003982 -0.033398 -0.026047 0.001571 0.018997 -0.029116 0.033536 -0.03211 0.012661 -0.015003 0.002392 -0.005838 -0.028774 -0.024451 -0.021108 -0.01252 0.013341 -0.003848 -0.009865 -0.003384 0.00726 -0.019921 0.020489 -0.016686 -0.021787 -0.029254 -0.000903 -0.011322 0.02623 -0.015937 -0.017858 -0.024238 -0.016416 0.028126 0.019312 0.029849 -0.010949 0.001357 -0.012997 0.018931 -0.033112 0.019251 0.024281 -0.002622 -0.025494 0.025019 -0.006788 0.02734 0.007282 0.011139 0.002902 -0.016434 -0.005152 -0.024929 0.008949 -0.030841 0.029009 -0.031418 0.00132 -0.008928 0.0336 0.027499 -0.032053 0.029801 -0.011136 0.019609 0.002422 0.03444 0.016221 0.004575 -0.022259 0.025333 -0.00049 0.034812 -0.014205 -0.002146 0.02118 -0.000912 0.010788 0.008385 -0.017749 -0.02103 0.022679 0.02705 -0.007517 0.023791 0.001616 -0.025252 -0.028407 -0.008054 -0.025833 0.018927 0.022956 0.030609 0.006223 0.007953 0.021485 0.009498 -0.017726 0.013326 -0.023823 -0.016144 0.010133 0.01157 0.003462 0.022626 -0.021567 0.018781 -0.0125 0.025851 0.014749 0.02182 0.036072 0.008387 0.013684 0.005896 -0.016525 0.004755 0.003628 -0.01463 -0.010676 0.001823 -0.013069 -0.034668 -0.018147 -0.008744 -0.024994 0.00053 0.012454 -0.01576 0.017462 0.017192 0.024356 -0.004706 0.004388 0.023531 0.004006 0.028348 0.017511 0.020123 -0.009692 -0.015015 0.018884 0.027195 -0.026367 0.003438 0.029348 0.021109 0.010762 0.015946 -0.017669 -0.007736 -0.029122 -0.025788 0.004121 -0.004923 0.016169 0.010234 -0.019019 -0.005031 0.000493 0.021357 0.011925 0.014822 -0.012946 0.007226 -0.019301 0.025081 0.015134 0.017998 0.038166 0.003726 0.020848 0.011885 -0.033757 0.020932 -0.000731 0.038279 0.019718 0.027808 0.011583 0.01896 0.001049 -0.033494 0.025376 -0.008939 0.004508 -0.016531 -0.009944 0.011162 