-0.010765 -0.029562 -0.030565 -0.009372 -0.01662 -0.010142 0.028942 0.035885 -0.012065 0.015773 0.029743 0.018038 -0.000647 0.002448 -0.028146 0.028136 -0.003593 -0.022827 -0.004038 -0.028289 -0.024727 -0.004889 -0.023512 0.032364 -0.01894 -0.018533 -0.011312 -0.020594 -0.009277 0.025723 0.027482 -0.016659 0.01875 0.02493 -0.002007 0.001738 0.017649 0.000741 -0.020992 -0.002965 0.035043 0.034177 0.015144 0.022354 -0.034327 -0.002848 -0.020973 -0.012395 -0.015212 0.023895 0.011372 0.027869 -0.02941 -0.030091 -0.01719 0.016445 -0.007454 0.027567 -0.006216 0.027847 0.034589 -0.003295 0.021919 -0.003019 0.030149 0.035398 0.034061 0.025581 -0.007216 -0.005374 0.029489 -0.00893 0.00835 0.016737 0.030206 0.025464 0.035475 0.004951 0.00551 -0.02937 0.012322 0.002438 0.023986 -0.025347 0.005562 -0.020756 -0.033289 0.019489 0.011963 0.023787 -0.025013 -0.033249 -0.027075 -0.033727 -0.000945 0.015433 0.007002 0.018418 0.022314 -0.023078 -0.012391 0.035874 0.027228 -0.016575 -0.027811 -0.027486 0.023097 0.00249 -0.009825 0.011231 0.003858 0.001577 0.001968 -0.01143 -0.027501 -0.009097 -0.007536 -0.016216 -0.034081 0.033731 0.033133 0.019694 -0.03241 0.033194 -0.005125 0.011044 4.4e-05 0.031867 0.01351 0.022998 0.01922 -0.013277 -0.026567 0.014982 0.012309 0.01988 0.016094 0.01955 0.024341 0.002714 -0.008572 -0.017631 0.003803 -0.018602 0.014559 0.036622 0.028811 -0.02395 -0.026586 -0.028676 0.007109 0.037898 0.021113 -0.000597 0.038276 0.003891 -0.013857 0.033148 -0.003119 -0.024443 0.009558 0.009388 -0.023871 0.007087 -0.012156 -0.019242 0.038709 0.036093 0.003734 0.009782 -0.014813 0.015869 0.030514 0.019474 0.02013 0.016781 0.024378 0.007329 0.003892 -0.001661 0.034283 0.015342 0.029747 0.024025 0.03278 0.019116 0.033832 -0.001049 -0.011444 -0.012122 0.021291 -0.031122 0.006714 0.023392 -0.014203 0.035609 0.007366 0.010027 -0.005788 0.003809 0.015379 -0.023423 0.020853 -0.002039 0.030335 0.019694 0.002352 0.028762 0.012295 -0.004742 0.031301 -0.022394 0.03406 -0.025412 -0.004495 0.023919 -0.030731 0.030874 -0.01852 0.010025 -0.014529 0.001312 -0.023373 -0.020928 -0.018122 0.013656 -0.016767 0.00939 -0.016863 0.02221 -0.004921 0.022927 0.028271 0.021504 0.022011 0.007892 0.020347 0.018772 -0.002366 -0.02974 -0.010051 -0.024353 -0.010679 -0.024516 0.014274 0.015337 0.024046 0.011422 -0.018535 0.038483 0.020007 0.043388 -0.026497 -0.011413 0.015309 0.033771 -0.001055 -0.032942 0.005921 0.021772 0.023029 0.024559 0.033712 -0.001816 -0.022877 0.03446 0.011344 0.013957 -0.012931 -0.017194 -0.011483 0.010511 -0.027525 0.017633 -0.007376 -0.022948 -0.019732 -0.031724 -0.022632 0.027471 0.005803 0.032061 0.027796 0.005253 0.024288 -0.005855 0.031438 0.018618 0.013998 -0.018086 0.023028 0.016241 0.008489 0.008436 0.02367 0.001971 -0.017718 -0.027018 -0.004757 -0.027212 0.010937 0.009619 -0.015112 -0.027968 -0.003343 0.034413 -0.012458 0.027912 0.011976 -0.013686 0.010377 -0.001361 0.018249 -0.026195 0.016172 0.033267 0.034783 -0.014821 -0.02085 0.000803 -0.021923 -0.017188 -0.016761 -0.030864 0.000458 -0.032383 -0.002504 0.034024 -0.011933 -0.010902 0.016035 -0.024912 -0.019803 0.022784 0.00455 -0.033851 -0.00472 -0.002278 0.007887 0.005412 -0.014737 0.008939 0.023221 0.007612 -0.025068 0.034601 -0.011241 0.025353 0.009127 0.00516 -0.035116 -0.028976 0.011984 -0.034038 -0.008519 0.007415 0.004296 -0.002322 -0.004779 0.029381 -0.005632 -0.026133 0.010346 0.031044 -0.033719 0.009522 -0.006599 -0.010849 -0.009819 -0.024736 6.9e-05 0.01071 0.030578 0.00237 -0.027798 0.018349 -0.002855 0.017376 0.014293 0.029712 -0.03151 -0.025544 0.02257 -0.0417 -0.014494 -0.026437 0.010979 -0.032938 0.001151 0.007598 0.017749 0.015653 -0.030697 -0.031953 0.021965 -0.007239 0.027404 -0.025858 0.022567 -0.0356 -0.000327 -0.036191 -0.033932 -0.007854 0.00162 -0.007769 -0.036111 0.007232 0.021936 0.029038 0.023902 0.013338 -0.035249 -0.033724 0.017764 0.006587 0.025489 -0.021738 -0.014298 0.005899 0.004845 -0.030828 0.003963 -0.010104 0.006247 0.002229 -0.007529 -0.003538 -0.001699 0.014172 -0.022445 0.001107 -0.008395 0.001217 0.025259 -0.00479 0.019387 0.002333 0.01694 0.008038 -0.025722 0.031929 -0.00919 0.020504 -0.030303 -0.021645 -0.035165 0.003503 0.031597 -0.019756 0.009301 -0.010352 -0.026042 0.010508 -0.018399 -0.00781 0.005136 0.020269 0.02905 -0.003678 0.001953 0.026756 0.030999 -0.005977 -0.003385 -0.000968 -0.017188 -0.037061 -0.01955 0.00532 -0.006654 -0.016568 -0.0141 -0.011505 0.024249 0.010668 0.026168 -0.011141 0.011647 -0.034221 0.013752 0.036563 4.7e-05 -0.005555 0.001706 0.01079 0.022397 0.026905 -0.015289 -0.01799 -0.017497 0.020708 -0.021772 0.004183 0.00056 0.03338 0.011516 -0.014631 0.004967 0.001012 -0.027494 -0.033172 -0.024925 0.016792 0.022839 0.037897 -0.005579 0.017698 0.001976 -0.000525 -0.001468 0.008571 0.010271 0.022996 0.005628 0.00906 -0.005733 0.032596 -0.006347 0.034536 0.008828 -0.01839 -0.008097 0.019747 0.019492 -0.016234 0.004705 0.004751 -0.018628 -0.029715 0.035603 -0.018802 -0.000802 -0.029646 -0.009927 0.001134 0.005957 0.000795 -0.004287 0.021975 -0.032708 -0.034507 -0.010395 -0.018612 0.00512 0.028562 -0.02141 0.029435 0.016186 -0.017098 0.007312 -0.016243 0.030415 0.009047 0.016119 0.031088 0.010192 -0.005366 -0.001886 -0.026457 0.003195 -0.014344 0.03402 0.024648 0.025558 0.005572 0.03358 -0.009069 -0.003902 0.029032 -0.008697 0.00868 -0.014089 0.017087 -0.000508 -0.022907 0.008879 -0.027047 0.001403 -0.001549 0.012064 0.003603 -0.008971 0.010889 -0.033666 -0.022088 -0.02565 0.012719 -0.005959 0.007254 0.033642 -0.027176 0.001726 -0.002427 0.034624 0.008937 -0.002717 0.01876 0.025478 -0.010495 0.013856 -0.019789 0.012092 0.020234 0.000765 -0.03156 0.028914 -0.019436 0.02563 0.005794 -0.011861 -0.030283 0.013158 -0.001432 -0.00531 -0.034469 -0.028264 -0.021972 -0.032349 0.01512 -0.030029 0.02623 -0.011346 0.003166 -0.028118 -0.007509 -0.006724 0.021615 0.002043 -0.004346 0.009779 -0.031474 -0.001841 -0.019241 0.02995 -0.03543 0.026248 -0.030242 -0.017358 -0.03443 -0.006218 -0.002904 -0.005841 -0.021688 -0.025928 0.021695 0.033509 0.024693 -0.007036 -0.012192 0.008397 0.004015 0.01021 -0.012485 0.019009 0.013345 -0.003537 0.010547 0.020749 0.033864 -0.002897 -0.033378 0.030855 -0.02541 -0.023005 -0.015146 0.026311 0.003978 -0.032832 -0.027444 0.006249 -0.020591 -0.008473 0.033453 0.033467 -0.016277 -0.033643 0.017538 -0.029496 -0.006021 0.019351 -0.0146 -0.035026 -0.025503 -0.004687 0.03088 0.028753 -0.023887 0.030036 -0.018454 0.018085 0.025006 -0.011399 0.031827 -0.012838 -0.001188 0.00288 -0.014681 -0.004636 -0.029399 -0.028794 0.007065 0.005065 0.005267 -0.018606 2.7e-05 0.010326 -0.030305 -0.016692 0.000713 0.005306 -0.029169 -0.036161 0.02235 -0.022205 0.02758 -0.013512 0.014403 0.034526 -0.036091 -0.036422 -0.000448 -0.027337 0.017723 -0.014987 -0.001521 -0.036782 0.015474 -0.005532 0.008062 0.022716 -0.02161 0.030273 -0.011771 -0.013867 0.001028 0.033042 0.011684 -0.02328 -0.028428 -0.014372 0.006557 -0.032847 0.015654 -0.015592 0.02031 0.005008 -0.031167 0.026447 -0.02643 0.014459 0.006989 0.025411 -0.031663 -0.023062 -0.024232 0.013234 0.012571 0.028515 -0.003231 -0.026565 0.011589 0.027353 -0.015957 0.029082 -0.008486 -0.026529 0.027218 -0.031228 0.021526 0.004687 -0.034849 0.022712 -0.034271 0.000198 0.031573 -0.025441 0.011034 0.025277 0.025006 -0.025688 0.034706 0.010364 -0.004659 -0.007961 0.031767 -0.011383 -0.023342 0.028642 -0.015857 -0.002006 -0.018055 0.03233 0.002305 0.035352 -0.001796 0.023156 0.024249 -0.011153 0.023185 -0.027131 0.025122 0.020529 -0.026174 0.022806 0.0297 -0.034369 0.029933 -0.027062 -0.009268 0.032089 -0.017825 0.024005 0.021374 -0.000876 0.024797 -0.009375 -0.021924 0.000366 0.010677 -0.006471 -0.006062 -2.8e-05 0.003132 0.015256 0.014495 0.029201 -0.018445 0.032461 0.024858 -0.021826 0.008322 0.00276 -0.019294 0.019103 -0.035078 -0.0347 0.024824 0.010658 0.001662 0.032402 0.00767 -0.013015 -0.030281 -0.030106 -0.00706 0.032993 0.020568 0.016051 -0.021323 0.023783 0.029231 -0.03564 0.020023 0.026663 -0.021318 -0.016678 -0.010845 -0.032577 0.016173 -0.021985 -0.02789 0.008036 -0.003906 -0.014653 0.031156 0.00668 0.029735 0.017238 -0.009635 -0.003943 0.016597 0.025824 -0.004284 -0.023599 -0.008175 -0.014395 -0.034405 0.004408 0.019066 0.013243 -0.001577 -0.031819 -0.024711 -0.003557 -0.005962 0.026613 0.034513 -0.025932 -0.032223 -0.010077 0.024001 -0.00565 -0.019918 0.006652 -0.004715 -0.020842 -0.004365 -0.028145 -0.02047 -0.033079 0.001438 0.01205 -0.009626 0.032691 -0.012722 0.006046 0.028652 -0.035034 -0.013968 -0.01247 -0.021463 0.030978 0.013435 -0.033118 0.031806 0.035628 0.012819 0.026985 0.009638 -0.025586 0.03041 0.024651 0.005673 0.011942 0.010429 0.033323 0.030394 0.007931 0.028913 0.016592 -0.027583 -0.01764 0.027767 0.01058 0.021768 0.00052 -0.015707 -0.01754 -0.017535 0.000575 -0.02687 -0.011071 -0.007708 0.016842 0.009783 0.035796 0.004455 -0.02834 0.02148 0.032705 0.018726 -0.030886 0.014176 -0.034394 -0.006738 0.036023 -0.033911 -0.012929 0.005745 0.035997 0.005068 -0.012856 0.009873 -0.011771 -0.030718 -0.007525 0.009525 0.0114 0.006826 0.013153 0.032591 0.018861 0.028408 -0.013 -0.011624 0.000512 -0.007108 -0.021375 -0.024956 0.030742 -0.002147 -0.00273 -0.009075 0.010636 0.01473 -0.028536 0.027012 -0.004749 0.013897 -0.03477 0.024964 -0.024266 0.019424 0.016867 -0.003665 -0.001993 -0.023106 -0.03179 -0.003903 0.031027 -0.006888 -0.033962 -0.02566 -0.023803 0.028843 0.01554 0.007712 0.010809 3.8e-05 -0.011786 0.035184 0.001034 0.017412 0.018955 -0.018089 -0.02598 0.033956 -0.031128 -0.000591 0.000122 -0.009279 -0.010952 0.027838 -0.001667 -0.030866 0.005463 0.032584 -0.028977 0.023637 0.029352 -0.013724 0.019492 0.010624 0.002768 0.016112 0.000171 0.021708 0.012387 0.008157 -0.024822 -0.019358 0.022759 0.024981 0.019096 0.022244 0.002141 0.009281 0.018964 -0.025282 0.032424 0.018476 -0.00554 0.012343 -0.022981 0.002449 -0.027622 0.010811 -0.010663 0.031941 -0.03009 0.029561 -0.020436 0.005124 0.003137 -0.01502 0.019809 0.013969 -0.005685 0.003291 0.004974 0.014199 0.011169 0.033479 0.029503 -0.00071 0.017575 -0.017261 -0.001024 0.017138 -0.030528 -0.011275 0.015643 0.027895 -0.018281 0.028725 0.013439 0.00219 -0.034756 -0.008404 -0.025736 -0.020643 -0.026835 -0.016033 -0.031779 0.005485 -0.023668 -0.006942 0.019084 0.028339 0.028008 0.02615 -0.017652 0.009259 0.024815 -0.027404 0.00834 0.001603 0.002338 -0.011235 0.022992 -0.011341 -0.026877 0.021799 -0.009915 -0.000273 0.020774 0.016184 0.033505 -0.007847 -0.004229 -0.00422 -0.025685 -0.016197 0.009201 -0.015157 -4.5e-05 0.004758 0.022214 -0.0206 -0.024417 -0.016902 -0.022789 -0.002777 -0.0126 0.003507 0.013289 -0.023103 0.008475 -0.020905 -0.025743 -0.008411 -0.00956 0.005805 -0.026822 -0.021507 -0.028229 0.003118 0.03112 0.01061 -0.02453 0.004979 0.004716 -0.033202 -0.006316 -0.03465 0.019735 0.013507 -0.009161 -0.024427 -0.018529 0.002131 -0.022922 -0.032992 -0.027631 -0.019143 -0.020581 0.026094 -0.03291 0.005697 0.01859 0.002571 0.002017 -0.026481 -0.024437 0.006386 -0.019762 -0.032671 -0.0088 0.033205 -0.024824 -0.031878 0.030869 -0.027472 -0.015631 0.027744 -0.014364 -0.014663 0.035182 -0.020243 0.032857 -0.015544 0.035378 -0.000616 -0.031726 -0.018161 0.017932 -0.001108 0.033325 0.012516 0.022377 0.03413 0.009465 -0.025774 0.031537 -0.021528 -0.032748 0.036499 0.027538 0.014439 0.029428 -0.00751 -0.00803 -0.001663 -0.003899 0.029531 0.02741 0.02749 -0.027547 0.030947 0.026562 -0.023166 0.022044 0.022689 0.000239 -0.026922 0.033603 -0.034908 -0.020597 0.00368 0.010596 -0.003444 -0.034076 0.034737 -0.013752 0.022862 0.030652 0.016057 0.01945 -0.009752 -0.026649 0.022351 0.008793 0.002891 0.027781 -0.013922 -0.022214 0.019798 0.035303 0.013554 -0.022755 0.002242 0.00365 0.026035 -0.038206 -0.007971 -0.024329 -0.017759 0.017277 0.028527 0.016239 0.019219 0.017182 0.016922 0.012684 0.027684 -0.030098 0.030246 0.001185 0.03646 0.022948 -0.023177 -0.014922 -0.010473 0.01929 -0.007339 0.007047 -0.022417 0.031958 -0.033687 0.018578 0.027854 0.001632 0.027539 -0.016754 -0.019603 0.000969 0.028471 -0.032748 0.02773 0.01459 -0.018128 -0.003144 -0.003115 0.020959 0.028068 0.028391 0.003902 -0.011951 0.002373 -0.021366 -2.3e-05 -0.000836 0.006122 0.001789 -0.032957 0.034561 -0.001322 -0.003629 0.008276 -0.008769 -0.015714 -0.012502 -0.00538 0.002655 0.0162 0.03317 0.018363 -0.026436 0.019402 -0.026829 -0.023322 -0.019334 0.006238 -0.019243 0.035331 -0.031179 0.001327 -0.013627 0.033738 0.03502 0.023802 -0.030305 0.029776 0.027285 -0.023372 0.022577 0.000548 0.007097 -0.031528 -0.008868 -0.031273 0.02469 0.018945 -0.014661 0.006018 0.020288 -0.014596 0.010596 -0.019741 -0.021604 0.006648 0.002622 -0.003577 0.015925 0.002898 0.004498 -0.007075 -0.015693 -0.008514 -0.025055 -0.007164 -0.026 -0.02346 0.007538 0.022706 -0.00892 0.006891 -0.022478 0.012476 0.024318 -0.011998 0.016555 0.004402 -0.023248 -0.005989 -0.017727 0.021681 0.021191 -0.003522 -0.029783 0.004681 -0.00598 -0.02373 0.015983 0.015694 0.010546 0.016028 0.000718 0.026152 0.00338 0.029897 0.029436 -0.017124 0.014701 -0.033744 0.007626 -0.033212 0.007865 0.022833 0.024114 0.007132 -0.00057 0.021214 -0.023507 -0.028662 0.018408 5.6e-05 -0.025191 -0.003724 0.018237 0.005029 -0.016785 -0.011052 0.001216 -0.019368 0.001363 0.020843 -0.002842 0.024234 -0.024012 -0.010833 -0.004035 -0.016483 0.009115 0.009058 0.020149 0.029437 -0.012545 -0.00158 0.036556 0.033602 0.034284 0.005214 -0.023455 -0.012053 -0.020683 0.031913 -0.023337 0.003403 0.03741 -0.010756 0.024981 0.027158 0.013526 -0.008011 -0.01603 0.018714 -0.006245 -0.02784 0.036865 0.012206 -0.012238 0.014359 0.010652 0.02574 -0.016898 0.006939 -0.009626 0.028299 0.005259 0.034035 0.011234 0.022738 0.00815 -0.014622 0.002374 0.025214 -0.028262 0.0209 -0.001438 -0.026907 0.004358 0.028286 0.016626 0.013279 0.01762 -0.005426 0.021978 -0.0331 -0.008798 -0.016169 0.019466 -0.00083 0.013562 -0.028311 0.008718 0.008273 0.029843 0.02262 0.017546 -0.024296 0.014271 0.009623 0.027353 0.004525 0.037584 -0.004314 0.017889 0.00512 0.034021 -0.024685 0.002751 -0.011118 0.030988 0.035533 0.025192 -0.00264 0.005062 0.022537 0.019935 -0.007183 -0.01122 -0.028406 0.036571 0.022514 -0.019484 -0.015519 0.036885 0.01116 0.01267 0.035982 -0.02517 -0.009077 0.014179 0.032228 0.010175 0.010948 -0.024003 -0.009016 0.01542 0.002486 0.033842 0.05394 0.001058 0.0209 0.006461 0.025326 -0.030034 0.008853 -0.001483 -0.006217 0.027233 -0.032828 -0.02058 0.011623 0.013192 0.031272 0.00055 -0.004886 -0.034608 -0.017525 0.024723 0.000273 0.023967 0.014568 -0.025289 0.027133 -0.015216 -0.004061 0.029992 -0.004776 -0.034603 -0.010911 0.010786 0.027031 -0.027751 0.005386 0.015129 -0.001354 0.031717 -0.014234 -0.001649 0.030733 0.032042 0.00843 0.000696 0.024899 0.021731 -0.002796 0.012281 -0.02815 -0.011818 0.009018 0.010315 -0.027 -0.029238 0.008339 -0.007604 -0.028139 -0.01099 -0.031016 0.010241 0.017713 -0.004212 -0.016073 0.013409 0.016812 0.003114 0.00931 -0.006582 -0.021556 -0.013361 -0.0269 0.025989 -0.028899 0.001055 0.037209 -0.027072 0.030859 0.017415 -0.028276 -0.008167 0.026486 0.012953 0.004824 0.016175 0.004308 0.000605 -0.007948 0.018191 0.012071 -0.001693 0.020095 -0.012536 0.033209 0.014977 0.000622 -0.022115 -0.03231 -0.00709 0.028189 0.024883 0.021261 0.016639 -0.01709 0.037743 0.036455 0.036704 0.020206 -0.02698 0.020925 0.009809 -0.025712 0.001847 -0.024618 0.005245 -0.016324 0.032905 0.001595 0.001945 0.008253 -0.028617 -0.015591 -0.012495 0.006865 0.028491 0.028074 -0.002153 -6.2e-05 -0.022688 -0.005408 -0.013116 0.016321 0.010896 0.03282 0.011852 0.015189 0.029955 0.014369 0.020594 0.00775 -0.021088 -0.010374 0.026519 0.01899 0.024337 -0.026894 -0.0228 -0.001922 -0.018887 0.016908 0.026032 0.023615 -0.017297 0.017525 -0.006633 0.034416 -0.021627 -0.019712 -0.034291 0.014675 -0.003426 0.024351 -0.022479 0.005452 0.008196 0.016325 -0.010365 0.016407 0.01052 0.002155 -0.017825 0.002436 -0.022171 0.026345 0.000437 0.025837 0.010213 0.011152 -0.024646 0.020555 -0.024747 -0.019512 0.034362 0.006196 0.01631 0.03267 -0.006771 -0.007492 -0.009185 -0.016529 -0.015469 0.006545 0.026117 0.022296 -0.00722 -0.028838 0.026692 -0.019725 -0.028502 0.012805 0.025411 0.029294 0.002099 0.011511 0.021942 0.026131 -0.013327 -0.022981 -0.016315 0.020046 0.010508 -0.029995 -0.02585 -0.01349 0.024349 0.021492 0.035879 0.004644 -0.02544 -0.019008 0.025399 -0.002336 0.008152 -0.02342 0.008227 0.037166 6.9e-05 0.013268 0.037089 0.014434 0.007389 -0.002218 0.021499 0.015962 -0.025857 0.003155 -0.027797 0.012631 0.017301 -0.015166 0.023153 -0.027599 0.031876 0.007769 -0.017805 0.034223 0.021114 0.015439 -0.032093 0.022945 -0.030492 -0.024497 -0.01167 0.020343 -0.029815 0.015416 0.031858 -0.015038 0.017045 0.005893 0.025193 0.007186 -0.013811 0.021092 -0.023562 0.023526 0.005359 0.013154 -0.032276 0.000745 -0.016138 -0.03501 0.008492 0.002749 -0.021646 0.019504 -0.034056 0.014413 0.017589 0.006428 0.034886 -0.004555 0.025394 0.016784 -0.027781 0.031294 0.013081 -0.016092 -0.018 0.02505 -0.018848 0.002491 0.010211 -0.00449 -0.029033 0.014081 0.00853 0.028072 -0.002243 -0.030547 -0.018924 -0.031551 -0.007598 -0.033478 -0.019891 0.013235 -0.001586 -0.026775 -0.027748 -0.003008 -0.034137 -0.005233 -0.019215 0.027288 0.020398 -0.005063 -0.025805 -0.001343 -0.027996 0.00718 0.003035 -0.027304 -0.00803 -0.016969 0.025192 -0.031434 0.018012 -0.030518 -0.020653 -0.006434 -0.014107 0.009554 -0.009359 -0.005998 0.000111 0.020588 -0.004357 0.022374 0.02985 -0.00262 -0.032248 -0.005073 0.030615 0.03433 0.025101 -0.0197 -0.001624 0.008742 0.028425 0.008961 -0.027453 0.015718 0.022653 0.011934 0.002428 -0.005766 -0.001315 0.038565 -0.015604 -0.004661 0.015858 0.015017 -0.023076 -0.022658 0.023566 0.007291 -0.026875 -0.033262 0.017138 0.013726 -0.032295 0.023313 0.024298 0.012408 0.013491 0.007515 -0.014736 0.0323 0.026802 -0.025343 -0.039212 -0.013467 -0.01174 -0.014125 -0.002322 0.023065 0.033219 0.023981 -0.020898 0.019722 0.002622 0.034302 -0.022351 -0.017322 0.027405 0.029344 0.022801 0.033822 -0.02295 -0.029552 0.004275 -0.016609 -0.008811 0.013603 0.013483 0.02505 0.035844 -0.03417 0.014741 -0.010669 -0.00335 0.020682 -0.025186 -0.001478 -0.009692 0.005365 -0.011754 0.001482 -0.034455 -0.032461 -0.03095 -0.021152 0.019459 0.028194 0.034464 -0.003745 0.030483 0.025411 0.0105 0.019855 0.036165 -0.032817 0.031787 -0.02125 0.031366 0.033182 0.020397 0.006204 0.011914 -0.016557 0.00062 0.001504 0.036775 0.015444 0.025749 0.024049 -0.025361 0.015343 -0.006963 0.026357 0.026785 0.03007 -0.007381 0.018804 -0.013075 -0.010141 0.01872 -0.006927 0.022274 -0.019953 -0.022027 0.019355 -0.003107 -0.024709 0.003408 0.015567 0.016262 -0.01088 0.02244 0.005834 -0.027489 0.018446 -0.026607 -0.02278 0.024427 0.034285 0.019525 -0.007914 -0.002657 0.032601 -0.017434 0.031295 -0.024923 0.032447 -0.021382 0.002349 -0.014533 -0.022566 -0.028543 -0.022259 -0.010622 -0.0292 0.021987 -0.023674 -0.006316 0.006967 0.00061 0.023956 0.013847 0.009766 -0.016725 0.029178 0.004349 -0.017486 -0.021985 -0.005862 0.03402 -0.013046 0.015839 -0.018975 -0.036488 -0.032977 0.024622 0.029732 -0.008878 -0.01016 0.007137 -0.022836 -0.014286 0.014498 0.03314 -0.020251 -0.018994 0.031919 -0.018774 0.001617 0.02906 -0.033884 -0.028101 0.015954 0.013626 0.026987 0.033239 -0.012124 0.035248 -0.01966 -0.033276 -0.031125 0.010861 0.012231 0.026712 -0.018498 -0.002655 0.024982 -0.00758 0.035653 -0.014833 -0.006985 -0.02439 0.021682 -0.008181 -0.000871 -0.02932 0.022236 -0.027234 -0.018877 0.02145 -0.034845 0.001206 -0.003111 -0.032993 -0.03181 0.015703 0.013479 -0.030918 0.033595 0.00302 -0.014008 -0.021363 0.028836 -0.028599 0.009179 -0.020221 -0.003084 -0.007313 -0.017372 0.009017 0.001608 -0.011499 -0.02983 0.015647 -0.026268 0.031436 0.032936 -0.017142 0.009746 -0.028861 0.006704 0.017879 0.001718 -0.031298 -0.017718 -0.012782 -0.012595 -0.031123 0.013858 -0.023899 -0.012396 0.018175 0.03451 0.027146 0.027123 -0.000578 0.025705 -0.028687 -0.015809 0.0178 0.021023 -0.014157 -0.032233 -0.027155 0.014109 0.027484 0.036672 0.02701 0.000402 -0.000938 -0.015256 -0.017179 0.014958 0.033065 0.014768 -0.03145 0.017711 -0.015224 -0.032874 0.016622 -0.019243 -0.019835 -0.003077 -0.002268 -0.024541 0.013004 -0.017078 0.018941 0.006308 -0.010623 -0.023495 -0.020263 -1.1e-05 -0.030308 -0.034688 -0.009487 0.018376 -0.011942 0.009499 -0.001951 -0.029085 0.026206 -0.001088 -0.004119 0.018181 -0.035977 0.015003 0.026536 -0.016888 0.024964 -0.010463 -0.034345 -0.028532 0.014115 0.025722 0.030515 -0.024638 0.031858 -0.02232 -0.033448 -0.014411 -0.015711 -0.029882 -0.010819 -0.00655 0.005442 -0.004602 0.0089 0.030462 0.033282 -0.016199 0.012928 -0.035859 0.002889 0.026071 0.030648 0.020329 0.026394 -0.011791 0.031783 0.028697 -0.027295 -0.025785 -0.036698 0.024617 -0.011819 -0.025521 -0.019543 -0.028869 0.022851 -0.025566 0.03132 -0.01134 0.008914 -0.034335 0.033772 0.020597 -0.002021 -0.035432 -0.026349 0.015849 0.032486 -0.029967 -0.032635 -0.004896 -0.002337 -0.02352 0.030182 0.002014 -0.027907 -0.000235 0.019986 0.027916 -0.019312 -0.007044 -0.010359 -0.035238 -0.018283 -0.035627 0.014353 0.026385 -0.013043 -0.00895 -0.036492 0.020914 -0.012126 -0.034986 0.017325 0.024886 0.027675 -0.001145 0.021706 0.017944 -0.031944 0.007468 0.02295 0.002806 -0.009964 0.016158 0.011648 -0.028261 -0.016165 -0.019676 -0.031876 -0.024752 -0.017583 -0.003077 0.004464 -0.00949 -0.028223 0.017994 -0.00478 -0.018888 -0.001336 0.017316 0.004713 0.031805 0.017443 -0.035718 0.018692 -0.026581 -0.022039 0.003964 0.025777 -0.025333 -0.019833 -0.024964 0.03016 -0.034059 0.017735 0.014505 0.009791 0.010418 0.001625 -0.02655 0.017662 -0.008467 -0.028901 0.034018 -0.03043 -0.005788 -0.021823 0.005754 -0.019789 0.006908 -0.027534 0.018217 0.003797 -0.034179 0.005189 -0.034081 -0.004454 0.001076 -0.032902 -0.017404 -0.032871 -0.030317 -0.021695 -0.004381 0.034148 0.009043 -0.002119 -0.031443 0.018991 0.019403 0.026636 -0.011781 -0.00268 -0.025333 0.006719 0.033771 0.016793 0.018669 -0.015485 0.011942 0.035742 0.023744 -0.02712 -0.024264 -0.025837 0.011222 -0.00053 -0.016577 0.032885 -0.024833 0.023271 -0.026944 -0.005742 0.012185 -0.002767 -0.026913 0.017287 0.016392 0.028197 -0.018284 0.008767 -0.028614 0.030193 -0.003217 0.021298 -0.01324 0.01794 0.03082 0.000941 0.022135 0.004183 -0.022428 0.018929 -0.021149 -0.014762 0.006196 0.012292 -0.032115 -0.006931 0.029161 0.00264 -0.015288 -0.022577 0.001621 0.004873 -0.022253 0.016072 0.027947 -0.019444 -0.021075 -0.009799 -0.011723 0.026588 -0.032405 0.018187 0.032036 -0.032854 -0.008927 0.031473 -0.011694 0.029354 -0.008927 0.030982 0.021068 0.006464 0.014915 -0.030675 0.022282 0.027593 0.013376 -0.00854 -0.030084 0.002676 -0.03477 -0.042636 -0.021331 0.024263 0.023698 -0.024754 0.034267 -0.034877 0.031184 0.004568 0.0015 -0.001756 0.025733 0.033397 0.012084 -0.02197 -0.034514 0.023666 -0.001721 -0.020693 0.00421 -0.006269 0.014651 -0.034032 -0.027885 0.009564 -0.011086 0.022485 -0.027791 0.034847 -0.02117 0.02167 -0.002816 -0.009983 -0.001408 -0.016819 0.004178 0.03232 -0.009499 -0.020166 0.032443 -0.025431 0.024819 0.02861 -0.009358 0.030384 -0.03223 0.015192 0.003222 0.027199 0.004953 0.004649 0.001305 -0.007935 -0.023687 -0.011622 0.009732 0.025316 -0.026503 0.033844 -0.033181 -0.021967 -0.007059 -0.019564 -0.025975 0.018802 0.032069 -0.032825 -0.017695 0.013078 -0.005254 0.031531 -0.035138 -0.006013 0.003132 0.026587 -0.008085 -0.020398 -0.010869 0.013849 0.016103 -0.023424 -0.010126 0.008125 -0.001834 0.003935 0.029235 0.005117 -0.009081 -0.018487 0.008129 0.029296 0.027843 -0.022183 -0.021023 -0.01499 -0.030349 0.011027 0.003772 -0.027507 0.014843 -0.000753 0.022521 0.009821 -0.015508 0.010915 0.023751 -0.014413 -0.015708 0.033338 -0.02078 -0.00305 -0.017857 0.02443 -0.028272 -0.000245 -0.027245 -0.025628 -0.00692 -0.008662 0.013075 0.022236 0.02006 -0.01056 -0.01034 -0.01805 -0.012324 -0.016601 -0.023754 0.035895 0.008644 0.030213 -0.00934 0.022251 0.014907 -0.00602 -0.017623 0.032573 0.025956 0.014134 -0.006139 -0.030445 0.001198 -0.023073 -0.028292 -0.015724 -0.031501 0.012412 -0.023916 -0.028269 0.02984 0.034023 0.011408 -0.017242 -0.017935 0.006927 0.020004 0.034042 -0.030198 -0.034423 0.029 -0.016192 -0.003203 0.017641 0.027331 -0.026137 0.000361 -0.035024 -0.035172 -0.034241 0.031019 -0.010929 0.013549 0.027635 -0.02085 -0.027847 -0.030668 0.019883 -0.003574 0.03017 0.000949 -0.027459 0.009887 0.028454 -0.004567 9.7e-05 0.013303 -0.027707 0.029526 0.010918 0.031145 -0.001708 0.007263 -0.000884 -0.004067 0.026514 0.015262 -0.026409 0.007279 -0.023515 0.01748 0.02934 -0.026035 -0.008832 0.033933 0.03134 -0.015483 0.027306 0.014406 -1.5e-05 0.004779 0.010416 0.029827 -0.001245 -0.016669 0.005726 0.016165 0.024819 -0.02431 0.001267 -0.000878 0.025442 -0.027698 0.026733 -0.033676 -0.007686 -0.032432 0.009682 0.007072 0.01439 0.018312 -0.007437 0.008682 0.033772 -0.012334 0.008374 -0.011905 -0.010492 -0.004993 -0.00229 0.013354 0.019334 0.002749 -0.029836 -0.007081 0.012705 0.013888 -0.010962 -0.030953 -0.004277 -0.01094 0.005274 0.004964 0.005913 0.028391 0.015395 0.020503 -0.000912 -0.014503 -0.01492 0.021026 0.026996 -0.016434 -0.016066 -0.019348 -0.002005 -0.034069 0.007278 0.004462 0.021584 -0.033874 0.025147 -0.015248 -0.015218 0.018164 0.027497 -0.021345 0.01778 0.007405 0.024885 -0.006975 -0.035001 0.026246 -0.006947 0.027917 -0.028437 -0.017431 0.002533 -0.02232 0.015412 -0.020902 -0.012971 0.018754 -0.004533 0.033816 0.023543 0.020251 -0.003994 0.029509 0.011073 -0.021168 -0.036157 -0.007263 0.019054 -0.002816 0.024563 -0.005509 0.006037 -0.029586 0.003172 0.023798 -0.035189 0.023993 -0.015859 -0.030878 -0.015388 0.030713 -0.005936 0.031741 0.016287 0.031989 0.009041 -0.028478 0.018122 -0.035453 -0.009117 0.026466 -0.010209 0.030251 0.012881 0.022532 -0.01037 0.028092 -0.023316 0.002045 0.031073 -0.02666 -0.015937 0.007261 -0.01003 -0.005353 0.008704 -0.014424 -0.034384 -0.011474 -0.015744 -0.032155 0.018326 -0.005027 0.022243 -0.009525 0.010469 -0.031875 0.024787 0.02085 0.022028 -0.019318 -0.019447 -0.000103 0.023124 0.032437 -0.03196 -0.004216 0.019754 -0.029818 -0.001479 0.02959 0.014881 0.000405 -0.010334 0.002787 0.024643 -0.035172 0.031397 -0.032766 -0.01555 0.016432 0.01643 -0.02401 -0.035099 -0.005339 0.027553 -0.030231 -0.016505 0.03165 0.02273 -0.014494 0.011572 0.033656 -0.00745 -0.004932 0.019221 0.019873 -0.017984 -0.007106 -0.021862 0.023467 -0.03036 0.030261 0.029464 0.021015 0.002187 -0.005588 -0.02565 -0.030872 -0.015857 0.005891 0.018862 0.031189 0.005845 -0.007155 -0.004084 -0.000146 -0.001993 -0.002472 0.031301 0.003312 -0.007848 -0.008103 -0.018122 -0.006933 -0.024515 0.033447 -0.032157 -0.028648 0.015319 0.03003 -0.010961 -0.001716 -0.037055 0.007698 0.023012 -0.013611 0.029508 0.015869 -0.02144 -0.025269 0.030958 -0.03395 -0.015702 -0.033267 -0.033822 -0.035035 0.010655 -0.031543 0.000789 -0.02623 0.033368 -0.025929 0.007709 -0.013219 -0.021998 0.01152 -0.02472 0.021626 -0.033329 -0.036172 -0.028347 0.006593 -0.03387 -0.008572 -0.01453 -0.019749 -0.001566 -0.025592 -0.002364 0.031813 0.002859 -0.008742 -0.028058 -0.013434 0.031857 0.019656 -0.018304 -0.021441 -0.015305 0.009799 0.031708 0.021341 0.024848 -0.029073 -0.03214 0.029361 -0.01652 0.024977 -0.014548 0.018329 -0.007264 0.003659 0.010777 0.011612 -0.013244 -0.025253 0.002194 -0.015835 0.007991 0.006775 -0.007858 0.022857 0.014963 -0.029623 -0.03678 -0.006646 -0.021597 -0.018751 -0.013782 0.022154 0.024184 -0.00679 0.006955 -0.040957 0.021384 -0.009679 -0.001203 -0.016259 0.033142 0.000351 -0.036017 -0.018764 -0.013167 0.009327 -0.001323 0.011041 -0.002976 0.009959 -0.001454 -0.00208 -0.004896 0.014079 -0.008279 -0.023912 -0.002789 0.008316 0.030624 -0.009036 -0.00363 -0.03397 0.010804 -0.005753 -0.018968 0.013452 0.030501 -0.003164 0.011406 -0.000817 0.021416 -0.001904 0.006943 0.001069 -0.00178 0.006184 -0.0012 0.011033 -0.030548 -0.026896 0.023868 0.021176 0.029866 -0.009533 0.016705 0.03287 -0.03687 0.011492 0.015288 0.032778 0.000915 -0.002158 0.001901 -0.019634 0.031927 -0.008223 -0.005059 -0.026767 0.016279 -0.000678 -0.005734 0.030864 0.021352 0.024969 0.019956 -0.036711 0.021777 0.017616 -0.016749 0.012244 -0.02536 -0.035287 0.032112 0.008586 -0.002361 -0.00444 -0.007896 -0.008421 -0.03338 0.016545 -0.002781 -0.022598 0.015924 -0.009026 -0.034833 -0.018009 0.024413 0.032909 0.012009 -0.035501 0.004658 0.030929 0.023945 0.028428 -0.006656 -0.03871 -0.00344 -0.034886 0.02068 -0.013772 0.024866 -0.025568 0.005146 -0.02146 0.019585 -0.031148 -0.014332 -0.013463 -0.03374 -0.002117 -0.016911 0.004938 -0.004528 -0.034876 -0.015763 0.000291 -0.012819 -0.01634 -0.031264 0.026388 -0.016827 0.003905 -0.039276 -0.021281 0.000164 -0.020003 -0.006757 0.013393 -0.025082 0.030634 0.013825 -0.030952 -0.029633 0.006568 0.019755 0.028279 0.030534 -0.005817 0.028341 0.024553 0.020175 -0.028663 -0.032821 0.023729 0.029885 0.017742 0.014458 0.007112 0.018246 0.030819 -0.009257 0.000971 0.033248 0.012731 0.027368 0.002288 -0.006 -0.007488 0.001844 -0.022708 0.029674 0.034234 0.020069 0.03558 0.033374 -0.002629 0.021239 -0.028461 0.030211 0.031461 -0.00358 -0.022119 0.033051 -0.018101 -0.017006 0.009232 0.025299 0.001985 -0.027913 -0.007412 -0.032406 -0.008691 -0.007224 -0.03279 0.010508 0.005732 -0.017027 0.006436 0.022815 -0.02436 -0.00016 0.02912 0.003418 -0.030423 0.032226 0.024823 -0.004258 0.013878 -0.024665 -0.028167 -0.019636 0.028784 0.030893 0.007725 -0.014328 0.005495 -0.002316 0.009545 -0.003958 0.026028 0.036028 0.012748 -0.015853 0.022966 0.018136 0.036635 0.010484 -0.012429 -0.01281 0.015025 -0.001105 0.00093 -0.004614 -0.029006 -0.022392 -0.019227 -0.019842 0.027769 0.017219 0.007899 0.011951 -0.022826 0.007559 -0.006376 -0.010791 0.022054 0.01078 0.002858 -0.005787 0.01038 -0.029831 -0.019709 0.01933 -0.018074 0.010906 0.020902 -0.013431 0.016085 0.008099 -0.032486 0.033449 0.017686 0.004081 0.029343 0.031965 0.030001 0.028902 0.011835 -0.0324 -0.000406 0.020448 -0.027145 0.002708 0.014118 0.002956 -0.002534 -0.016616 0.025644 0.03169 0.019457 -0.02397 0.029096 -0.005568 -0.012715 0.005158 -0.016783 -0.022464 0.032964 0.032694 0.018336 -0.025594 -0.020096 -0.023462 0.035394 -0.00117 -0.026505 0.000655 0.014732 -0.008108 -0.026515 0.013904 0.002627 -0.001982 0.027689 -0.0334 -0.005414 -0.01907 0.010633 -0.004164 -0.013559 0.024226 -0.025483 -0.022199 0.034839 -0.015523 -0.031055 0.028423 -0.003605 -0.007421 0.019237 0.019671 0.00109 -0.011158 0.007225 0.010462 0.011861 0.036334 -0.032173 0.036565 -0.002442 0.032829 0.024653 0.023138 0.030366 0.028766 0.036466 0.023615 0.005692 0.014765 0.019932 0.031114 -0.006061 0.012976 -0.011191 -0.016327 0.02902 -0.017467 7.6e-05 0.030705 -0.025617 0.015271 -0.010807 0.030244 -0.012897 -0.02346 0.030664 0.001869 0.02937 0.017138 0.023817 0.008318 0.028217 -0.008878 -0.009071 0.029729 0.026582 -0.002838 -0.010661 0.006774 -0.016298 0.016118 -0.039812 -0.034935 0.022943 0.024136 -0.012835 -0.023272 0.016752 0.01115 -0.01805 0.008741 0.020851 -0.026736 0.004547 0.010356 0.028246 -0.02288 0.036242 -0.01212 0.021876 -0.012019 -0.021561 -0.022598 0.008668 0.04302 0.021955 -0.027518 -0.018456 0.011724 -0.01807 -0.002441 0.035931 -0.00339 -0.020735 -0.008687 -0.017117 -0.002969 -0.014617 0.020212 -0.003364 -0.021549 -0.013595 0.007763 0.016375 -0.030048 0.031107 -0.011755 0.014253 0.012394 0.029724 -0.010927 0.023895 0.013239 -0.025309 0.013777 0.02299 -0.029877 0.007058 -0.005547 0.033773 -0.025152 -0.00199 0.022058 -0.013762 -0.010876 0.025429 0.016361 0.02291 -0.024009 0.028153 -0.018267 -0.03307 -0.008352 0.016903 -0.00695 -0.024893 -0.028258 0.008643 0.036602 0.019298 0.03025 0.022555 -0.023651 0.036667 -0.02535 -0.020351 -0.020165 0.031022 -0.009507 0.010825 0.005702 -0.019099 0.025912 0.017625 0.037199 0.003677 0.006869 0.036176 0.001962 -0.018261 -0.001021 0.033255 -0.030763 0.015122 -0.004628 0.022921 -0.007993 -0.016539 -0.00113 0.027381 -0.029633 0.025574 -0.028151 -0.006744 0.002854 -0.003702 -0.00046 0.034001 0.035172 0.033843 0.028075 0.018412 0.026873 -0.023281 0.016228 -0.001549 0.004484 -0.018005 0.006335 0.008476 0.005923 -0.009079 0.003739 0.003501 -0.029617 -0.003218 0.011151 0.014031 -0.011382 -0.011592 0.02025 -0.007052 -0.031091 0.025003 -0.009116 -0.031727 0.025777 -0.035298 -0.020699 -0.030592 0.014454 0.034513 -0.037059 -0.022106 0.032115 0.024142 0.033968 -0.015029 0.011453 -0.02768 -0.032504 -0.000318 0.010872 0.034247 -0.021072 0.001313 0.01825 -0.010654 0.016047 0.010202 0.032992 0.001432 0.028363 0.032695 0.031063 -0.003889 0.02178 -0.025381 -0.003152 0.026925 -0.005993 -0.003004 -0.002532 -0.02954 -0.030363 0.013321 0.027972 0.017629 -0.019884 -0.030269 0.016014 -0.028504 0.013034 0.014808 0.034773 -0.020451 0.009803 -0.029952 -0.015344 0.011121 0.002981 0.02728 0.004499 -0.024513 0.022877 0.007745 -0.005807 0.026614 -0.015483 -0.021367 0.017053 -0.024612 -0.00922 0.032845 -0.004336 -0.027405 -0.029294 0.021404 0.00072 -0.035705 0.015401 0.001269 -0.026136 -0.035984 0.013507 -0.005546 -0.014299 0.00952 0.033022 -0.008609 0.007484 -0.021804 -0.013842 -0.011676 0.014468 0.019169 -0.019292 0.014192 -0.026843 0.026533 -0.034173 -0.003426 -0.007445 -0.00676 -0.017897 0.009894 -0.031435 -0.023372 0.03294 -0.022479 -0.018375 0.0064 -0.000611 -0.016455 0.002699 -0.025496 -0.01498 -0.006276 0.017895 0.021857 -0.036286 0.026623 -0.026414 0.006531 0.004711 -0.026458 -0.031117 -0.023131 -0.034229 -0.033612 -0.032848 0.020393 0.014133 0.011539 -0.014656 -0.015139 0.026244 -0.033247 -0.002 -0.034151 -0.030587 -0.016668 0.008503 0.012762 -0.010287 0.025435 -0.022471 0.003854 -0.006262 -0.014201 0.02867 -0.028861 -0.020754 -0.015165 0.006508 0.034294 -0.00359 0.01522 -0.028065 -0.028536 0.008422 0.010667 -0.004091 -0.020651 0.011604 -0.012142 -0.029144 -0.016579 -0.007289 0.033744 0.016734 -0.019844 -0.012458 0.02108 -0.021305 0.014162 0.018053 -0.026887 0.002212 0.034797 -0.005141 0.022875 -0.013788 -0.035197 -0.023521 0.015279 -0.015523 -0.023015 0.022493 -0.012237 0.031761 -0.031268 -0.008697 -0.002576 0.000299 0.005859 0.00162 0.019326 -0.011877 -0.021852 -0.031475 -0.035195 -0.011018 0.016176 -0.011614 -0.001037 0.017852 -0.008536 0.010476 0.031643 0.016968 -0.000274 -0.028084 0.009051 -0.020449 0.017876 -0.024633 -0.022484 0.018095 0.033533 0.028196 0.018665 -0.022211 -0.012439 0.02804 -0.00157 -0.031172 -0.029754 0.033181 -0.003212 0.009587 0.015835 -0.035112 0.003851 -0.022711 0.026969 0.005377 -0.031675 0.02728 -0.014929 -0.027752 -0.005721 -0.020441 0.004621 -0.00376 -0.0108 0.028677 0.028846 -0.010083 0.026812 0.031607 0.015791 0.023009 0.024967 -0.001425 0.016705 -0.023302 0.033617 -0.02602 -0.033852 0.032722 0.030209 -0.015078 -0.023619 0.021565 -0.023398 0.025107 -0.00429 -0.009583 -0.026831 -0.002711 0.022769 -0.013774 -0.004576 -0.025222 -0.033744 -0.032703 0.030663 0.020497 0.027095 -0.019733 -0.036197 0.017847 0.009674 0.019881 -0.026835 -0.029311 -0.006106 0.005815 0.034789 0.028889 -0.018243 -0.014532 -0.029364 0.03175 -0.024683 0.001024 -0.021471 0.019343 0.01008 0.023067 0.009118 0.026283 -0.03506 0.016215 0.018868 0.02383 -0.007841 0.029675 0.005846 -0.006691 -0.026796 -0.011319 0.025405 0.020121 0.007373 0.014269 0.021905 -0.002497 0.013564 -0.030112 0.029589 -0.020699 -0.0343 -0.026408 0.025439 0.0238 -0.015267 -0.021438 -0.02515 -0.007833 -0.009392 0.02645 0.003226 0.002645 0.004844 0.006652 -0.018805 0.022571 -0.019433 0.022 -0.023108 -0.021652 0.0019 0.023928 -0.034292 -0.017789 -0.033618 0.008149 -0.018041 0.018162 -0.010207 0.034738 0.012174 0.028961 -0.031829 0.0284 0.014751 -0.014239 -0.009229 -0.034291 -0.022509 0.028904 0.027696 0.020015 -0.026213 0.003183 0.009677 -0.007554 -0.001931 -0.031583 -0.019854 -0.00983 -0.028604 -0.024319 -0.023373 0.00426 0.007933 -0.028524 -0.014322 0.0249 0.031889 -0.024174 0.017055 0.020526 -0.019241 0.019938 -0.029685 -0.022561 0.028154 0.014377 -0.022288 0.009623 -0.002761 0.012457 0.025611 0.011966 0.029079 0.009476 0.031854 -0.010834 -0.024138 0.00675 -0.009306 0.000985 -0.003975 0.011599 -0.028467 -0.013772 0.02444 0.027138 0.017853 -0.025255 0.011782 -0.006645 0.009976 0.009141 -0.010106 -0.03003 0.03396 0.001505 0.031955 0.006315 0.029226 -0.013765 -0.016684 0.007978 0.017101 0.003848 -0.027652 0.019125 -0.01696 0.034008 -0.035505 -0.007724 0.016297 0.031653 0.006418 -0.012365 -0.023211 -0.013227 -0.006011 0.005884 0.013005 -0.005216 -0.030512 0.019382 -0.016732 -0.002504 0.014876 -0.007423 0.026427 -0.00592 -0.028798 0.011571 0.015871 0.019766 0.033914 0.022572 -0.031254 -0.021705 0.014944 0.027132 -0.012479 0.020374 0.034196 -0.007188 0.009056 0.003953 0.031219 0.007371 -0.030016 -0.012991 -0.005241 0.013315 0.032972 0.017258 -0.004775 -0.016756 0.015049 0.002649 -0.035558 0.007954 0.032706 0.017775 -0.002936 0.008201 0.024608 -0.032714 -0.023286 -0.010129 0.018457 -0.022931 0.002807 -0.005261 -0.019873 0.021768 -0.030861 0.002618 -0.01828 0.018448 -0.016259 0.029215 -0.023702 0.004424 -0.019681 -0.024153 0.012979 0.030633 -0.022639 -0.00147 -0.003241 0.012154 -0.018938 -0.002869 0.016823 0.017898 0.008494 -0.011921 0.001998 0.014292 0.025834 -0.028579 0.031811 0.009808 -0.018957 -0.024068 -0.002698 -0.014926 0.007895 0.027048 -0.025272 -0.018142 0.003853 0.027175 0.000108 -0.009289 -0.011037 0.012841 -0.004201 -0.016127 -0.002577 -0.035326 -0.028336 -0.024506 -0.034144 0.03044 -0.021005 0.033871 0.026943 0.032333 0.009945 0.009982 0.03088 0.028964 0.027926 0.035498 0.019361 -0.005595 0.020934 0.018667 -0.029876 0.001644 0.031751 -0.002924 -0.001371 -0.002967 0.00835 0.035281 -0.013018 -0.021687 -0.007431 0.026974 0.015908 0.000771 -0.015627 -0.011302 0.014812 0.002443 -0.031096 0.035088 -0.011414 0.024926 0.026146 -0.025176 0.018325 0.028011 -0.007877 0.02005 0.014944 0.01152 0.033147 0.034868 0.00199 0.026229 -0.019329 -0.032069 -0.000121 -0.005579 0.032732 -0.011374 0.005207 0.030163 0.00249 -0.011846 0.000539 0.026919 -0.010654 0.016554 -0.009524 0.001021 -0.034149 0.032059 -0.030777 -0.01247 -0.004231 -0.020048 0.021707 -0.011724 -0.004245 0.025408 -0.031186 0.020141 0.034367 0.022901 -0.011437 0.018762 -0.015789 0.034176 -0.018248 -0.003841 -0.005421 0.014359 -0.005283 0.006145 0.014316 -0.00696 -0.009203 -0.019222 -0.025343 -0.002098 0.035926 -0.033096 -0.025714 0.00478 0.031221 0.03052 -0.013426 0.024203 -0.020791 0.014523 0.009209 0.032297 0.01162 0.022905 -0.013767 -0.001161 0.003301 -0.002752 0.008762 0.028744 0.010991 -0.0152 0.013642 -0.026177 0.018947 0.022713 0.032948 -0.021431 -0.022645 0.02601 -0.022185 0.015549 -0.024739 -0.00847 -0.011499 -0.035501 0.011366 -0.014197 -0.032277 0.000111 -0.005306 -0.00735 0.01884 0.02587 0.010449 0.025546 -0.011492 0.024895 0.004306 -0.012816 -0.014699 0.004133 0.02285 -0.031768 0.027995 0.012933 0.027015 -0.005845 0.000367 -0.021465 -0.010684 0.00715 0.011261 -0.004233 0.032108 0.01506 0.028193 -0.012149 -0.002 0.022846 -0.027711 0.012116 0.024107 0.016029 0.017077 -0.001836 -0.022629 -0.029501 -0.035835 -0.03809 -0.021625 -0.017843 -0.033899 -0.018506 -0.037445 -0.031564 0.018088 0.008366 -0.002876 0.005992 0.011732 0.013032 -0.034021 -0.027104 -0.034117 0.00512 -0.018199 -0.012682 0.019489 -0.016279 0.030049 -0.017447 0.009971 0.027665 -0.002948 -0.024744 0.029834 -0.029959 -0.016843 -0.031695 0.010281 0.034851 -0.007078 0.01022 -0.002996 0.028678 0.005025 0.001065 0.025798 0.032701 -0.036233 0.008806 -0.032684 0.02837 -0.020221 -0.007883 -0.028062 -0.000694 -0.012598 -0.02406 -0.01981 0.001151 -0.002997 0.009646 0.012552 0.007948 -0.023603 0.03394 -0.017704 -0.014779 0.038926 0.024533 -0.017648 -0.010796 -0.008017 0.010794 0.033915 -0.003824 0.024121 -0.016331 0.001942 0.030635 -0.01245 0.012478 -0.027361 0.007925 -0.013275 -0.028454 0.022613 0.020897 0.010899 0.019415 -0.021954 -0.022804 0.027338 0.021731 -0.030984 0.003809 0.021657 0.002547 -0.024321 -0.025467 -0.004789 -0.017545 0.003381 0.032133 0.031026 0.008311 0.012748 -0.001425 0.012136 0.033509 0.013247 -0.001958 -0.007602 -0.024859 -0.031086 0.023915 0.012543 0.007176 -0.005635 0.008532 -0.026262 -0.031579 0.023422 -0.011636 0.004176 -0.000592 -0.023331 0.022579 -0.016668 0.004748 0.022649 -0.022316 -0.019 0.02848 0.001894 0.014559 -0.005348 0.027401 -0.022004 0.016919 -0.018237 0.018597 0.014741 0.034979 0.002152 -0.002278 0.013108 0.015054 -0.013455 -0.000105 0.031045 0.024965 -0.013837 0.025471 -0.022592 -0.007366 -0.002193 -0.019969 0.022545 0.015222 -0.034488 -0.001482 -0.026366 0.030631 0.00511 -0.023234 0.004152 0.000844 0.004832 -0.010344 -0.017463 0.015564 0.00734 0.033575 0.019734 -0.015062 -0.032312 0.020185 -0.018423 -0.031076 -0.026624 -0.025467 -0.004145 -0.013792 -0.032352 -0.010557 -0.011224 -0.016759 -0.008414 0.009647 0.00768 -0.0238 0.022317 -0.030005 0.014195 -0.010964 0.00971 0.024008 0.00642 -0.000413 0.024649 0.027353 -8.7e-05 -0.005624 -0.011507 -0.013879 0.00632 0.000129 -0.001297 -0.034418 -0.02962 -0.020543 -0.020896 -0.024299 0.001277 -0.003521 -0.019018 0.011065 -0.00899 -0.01113 0.00989 0.022075 0.030027 -0.009738 -0.007185 -0.015352 0.032915 0.006468 -0.030176 0.022356 -0.032856 0.026771 -0.030842 0.019657 0.004156 -0.018593 -0.011083 0.023294 0.013511 0.033193 -0.031585 0.001908 -0.032222 -0.01069 -0.027628 -0.01023 -0.034469 -0.002557 -0.004815 -0.029758 -0.015051 -0.003579 0.020185 0.031201 0.022182 0.022862 -0.016984 -0.027975 0.027418 0.018921 -0.029239 -0.036105 0.000551 -0.033408 -0.018658 -0.036543 0.020965 0.009614 0.030936 0.012892 -0.026761 -0.024056 0.00068 -0.02103 -0.010845 -0.026352 0.021178 0.032146 -0.031428 -0.02707 -0.013755 0.013319 -0.021214 -0.026452 -0.032716 0.031245 0.010658 0.002411 -0.026328 -0.005375 0.028125 -0.013339 -0.037518 -0.033099 0.029712 0.001101 0.027859 0.020258 -0.025969 0.023811 0.035749 -0.003182 -0.008123 0.012485 0.000447 -0.026428 0.008266 -0.015288 0.033965 0.029065 0.003212 0.027716 -0.009144 -0.015492 -0.017312 -0.022465 -0.031377 0.002712 -0.002932 -0.012015 -0.030177 0.018932 -0.021446 -0.01311 0.012227 0.000139 0.00764 0.035644 -0.016363 0.01283 -0.007751 0.029852 0.010329 -0.030614 0.035355 0.031998 0.021647 -0.015303 0.00645 -0.013912 -0.019024 0.027984 0.020774 -0.01197 -0.001615 -0.008332 0.0205 -0.003686 0.008016 0.00844 -0.029734 -0.005044 -0.02968 0.021371 -0.028687 0.027182 0.03223 -0.034543 -0.025374 0.013935 0.022533 -0.026792 0.035728 0.012193 -0.029371 -0.014842 -0.002909 -0.018675 0.034057 -0.033533 -0.029701 0.035195 -0.009693 0.035734 0.018932 -0.00979 -0.01856 -0.021248 0.017143 -0.015254 0.010782 -0.022638 0.008939 -0.005788 -0.002641 0.023918 -0.027159 -0.013826 -0.008774 -0.025939 0.022086 -0.015039 0.002728 0.00329 -0.023958 0.033456 -0.013329 0.019576 -0.008064 -0.006624 -0.003106 0.013296 -0.027227 -0.030359 -0.02933 -0.008149 -0.008162 0.034468 0.013234 -0.012324 -0.004885 -0.018714 0.024226 -0.009769 0.019453 0.002984 0.016282 0.019227 0.012953 -0.000306 -0.018482 -0.002635 -0.001976 0.01075 0.007085 -0.000422 0.009719 -0.025578 -0.006846 0.034232 0.001527 -0.021056 0.003171 0.021837 -0.015424 -0.021048 0.003415 0.014214 0.029323 0.014067 -0.019674 -0.013249 0.012639 -0.013932 -0.018554 -0.014367 -0.015299 0.030365 -0.03613 0.016491 -0.009183 0.033494 -0.002405 -0.020745 -0.031095 0.016477 -0.008767 0.014016 0.036002 0.01359 -0.025625 -0.023006 0.012005 -0.023607 0.033817 -0.020288 -0.025261 -0.006443 -0.018466 0.028816 -0.033914 0.012583 -0.012155 0.002569 -0.012338 0.012655 -0.004941 0.022768 0.013611 -0.011151 0.020971 -0.019258 -0.016293 0.0192 0.027446 0.023578 0.006693 0.006084 -0.022171 0.019266 -0.015029 0.028162 -0.008797 0.02287 -0.021412 0.015943 -0.000277 -0.013975 0.005791 -0.010286 0.024869 -0.014631 0.029942 -0.015043 0.01855 -0.02436 -0.035265 0.00984 0.008629 0.026052 0.002763 -0.018193 -0.026605 -0.006118 -0.029813 -0.007014 0.001488 -0.002609 0.02688 0.022234 0.015427 -0.006352 0.029135 0.010267 0.020048 0.020907 0.026928 -0.028016 -0.034738 -0.022171 -0.005482 0.010105 -0.0298 -0.015346 -0.031586 0.004446 0.026909 0.019484 0.005663 0.023755 0.014008 -0.013355 -0.004779 0.003209 0.027151 -0.022989 0.014807 -0.037732 0.029009 -0.03095 -0.00421 -0.017285 -0.001294 -0.040228 -0.005732 0.020082 -0.02927 0.015754 0.032386 -0.000454 0.033778 0.018062 -0.008146 0.030707 -0.006471 0.035888 0.016425 -0.030196 0.010576 0.009363 0.028005 0.003976 -0.034817 -0.021564 0.027576 0.000952 0.01989 -0.002765 0.005648 -0.022375 -0.009067 -0.007466 0.027781 0.006961 0.031547 -0.003397 0.02375 0.033643 0.020784 0.003961 0.020069 -0.011654 -0.022574 -0.000403 0.031349 0.021079 -0.033347 0.024822 0.033795 0.016173 -0.007506 0.023821 0.015671 0.017676 0.00543 0.027984 0.024175 -0.032361 -0.032768 -0.001244 -0.019016 0.034412 0.02593 -0.022172 -0.007705 0.023768 0.016452 0.004033 -0.018006 0.013072 -0.023041 0.020045 0.021629 0.035555 0.027471 0.012924 0.005528 -0.003237 -0.032873 -0.017953 -0.013986 0.018086 -0.002755 0.028815 0.00618 -0.017361 0.012224 -0.022814 0.035359 -0.029266 0.030074 -0.032278 0.015147 0.005407 0.016144 0.01926 -0.019817 -0.00866 0.003553 0.033206 0.002702 -0.028032 -0.032857 0.019933 0.003603 0.005451 0.003578 0.024648 0.012385 0.035227 0.001536 0.027647 -0.029175 -0.030514 -0.015022 0.011601 -0.034407 -0.00406 0.014178 -0.027802 0.027001 0.021385 0.030748 -0.00512 0.00412 0.01001 -0.012086 -0.001126 -0.006475 0.00621 -0.026707 -0.028567 -0.018139 0.0052 0.007437 0.006745 -0.031025 -0.014352 -0.00537 -0.012898 -0.031864 0.016504 0.021199 -0.030193 0.029174 -0.02405 -0.012353 -0.004074 -0.012447 -0.017156 0.009894 0.033222 0.022734 0.004145 0.030293 0.011484 -0.012578 0.023424 0.017708 0.03329 -0.026888 -0.019576 -0.026625 -0.012616 0.032259 -0.034189 0.004831 -0.013878 -0.01118 0.02985 0.010448 -0.01815 0.015683 0.000552 -0.03194 0.01513 0.006862 -0.021549 0.016863 0.01316 -0.017811 0.026042 0.025339 -0.018489 -0.015369 -0.020662 0.012523 0.021215 -0.000913 0.009236 -0.035851 0.006337 -0.011285 -0.017347 -0.018131 0.006569 -0.035671 0.003321 -0.027382 0.003592 0.028148 0.000748 -0.021142 0.034413 0.030278 -0.01104 0.03078 -0.034965 0.019628 0.008951 -0.030381 -0.018991 0.009056 -0.020123 -0.021419 0.009265 0.016693 -0.02426 0.027006 0.008997 0.030626 -0.025216 0.022371 0.023482 -0.009256 0.007047 0.027574 0.009853 -0.005441 0.008394 0.000375 -0.023298 -0.033499 0.007672 -0.035387 -0.030911 -0.00797 0.021571 0.024557 -0.032873 0.020642 0.027517 -0.024203 -0.01027 -0.021218 -0.026009 -0.025777 0.029796 0.023162 -0.020066 -0.013477 -0.008247 -0.021146 0.021421 0.03144 0.019688 0.031444 -0.017315 0.005841 -0.012456 0.019538 0.024925 0.013602 -0.00172 -0.034428 -0.00301 -0.033634 0.011953 0.019281 -0.026868 -0.019045 -0.022216 0.030137 -0.003227 0.027303 0.022919 -0.021018 0.019717 -0.01999 0.000975 -0.001072 0.03683 0.003021 0.011781 -0.020264 0.009387 -0.014514 0.007606 -0.010652 -0.034354 -0.008776 -0.024362 0.023401 0.006323 0.024486 -0.003338 0.010379 -0.005584 -0.015768 0.02908 -0.0101 0.017827 0.020454 0.011203 0.029627 -0.010862 -0.015743 0.00239 -0.022768 -0.018061 0.019751 -0.006644 -0.030859 -0.0352 0.003759 0.015769 0.016622 0.017967 -0.001694 -0.027051 -0.026518 -0.001365 0.023559 0.002498 0.014014 0.020796 -0.016479 -0.013658 -0.034604 -0.004132 0.002256 -0.004337 0.005218 0.025776 0.002669 -0.028587 -0.010378 0.015941 -0.024025 -0.015412 -0.006869 -0.015873 8.1e-05 0.007551 -0.013333 0.022509 -0.024862 0.022864 0.019276 0.012496 -0.022974 0.007576 -0.011373 -0.003443 -0.011761 0.016514 -0.026273 0.025957 -0.014844 0.017086 -0.017834 0.026495 -0.012512 -0.027401 0.01052 -0.014547 -0.021897 -0.022133 -0.028174 -0.007099 -0.028909 -0.018622 -0.033119 -0.01511 -0.020864 -0.032897 0.020394 -0.019391 -0.031451 -0.009174 0.025741 -0.028757 -0.031801 0.009667 -0.012875 -0.008397 0.004233 0.021347 -0.004593 0.006572 -0.031757 0.025702 -0.038894 -0.019128 -0.02996 -0.012955 -0.028897 0.013149 -0.006108 -0.004255 0.001465 0.025523 0.034182 -0.020845 0.034282 0.035588 0.01567 0.008063 -0.000544 0.014431 -0.01814 -0.003004 -0.0096 0.020379 -0.003662 0.016304 0.021562 -0.008734 0.006868 -0.011988 0.018848 -0.019648 -0.022903 -0.031361 0.003458 0.031693 -0.01865 0.029644 -0.031934 0.026254 0.024333 0.036294 0.024918 -0.012885 0.03484 0.017515 0.028894 -0.003688 0.007749 -0.02003 0.023774 -0.032005 0.036946 -0.007016 -0.024672 0.030412 0.021875 0.03601 0.023657 -0.019543 0.011181 0.024346 0.018854 -0.020805 0.020696 0.000156 0.006454 -0.032184 0.032969 0.029803 0.000879 -0.004746 0.028696 -0.02912 0.012973 0.012453 -0.012433 0.009953 0.013416 -0.011129 -0.01311 0.031376 -0.020333 -0.010996 0.008722 0.025439 0.019986 -0.029028 0.019035 0.010388 -0.010807 0.006411 -0.013189 -0.028982 -0.028246 -0.007301 -0.00277 -0.029274 -0.001403 0.035274 0.041859 0.03504 0.013746 0.038074 -0.00178 0.00486 0.013613 0.00209 -0.025854 -0.010622 -0.023876 -0.014425 0.010491 0.03604 0.002911 -0.00847 0.012175 -0.032684 0.032246 -0.014743 -0.023152 0.003582 -0.012204 0.037352 0.040287 -0.008504 0.037012 0.024291 0.041615 -0.006462 -0.003173 -0.005959 -0.01392 -0.012738 -0.002855 0.034731 0.026725 -0.029882 -0.01348 0.031521 -0.00172 0.030261 -0.022762 0.017324 -0.035237 -0.010472 0.029346 -0.038983 -0.025486 -0.013043 -0.039414 0.008475 0.016641 -0.014713 0.02146 -0.008942 0.020341 0.030248 0.014081 -0.029504 -0.022461 -0.02603 -0.029065 -0.030099 -0.025322 0.010128 -0.009525 -0.010395 0.012652 -0.017619 0.005571 0.004312 0.004363 -0.037389 0.016269 -0.016015 0.01446 -0.03857 -0.008227 -0.020064 0.005477 0.002314 -0.004275 -0.02146 -0.016132 -0.028935 -0.038506 -0.037229 0.028294 -0.033969 -0.018812 0.015946 0.017404 0.003832 -0.016929 0.013885 0.023131 -0.034391 0.011026 0.025822 -0.033113 -0.012333 -0.022346 -0.020773 -0.02132 -0.022237 -0.019911 -0.019681 -0.004851 -0.002701 -0.005032 -0.010236 -0.019296 -0.016033 -0.022709 -0.017815 -0.009747 -0.021105 -0.005884 -0.033126 0.01356 -0.027326 -0.00737 -0.011512 0.01098 -0.006983 0.003968 -0.01326 0.027753 -0.017699 0.007 0.017801 0.011161 0.013608 -0.010007 0.013088 -0.023653 0.013123 0.003307 0.025938 0.025034 -0.004962 0.006222 -0.007857 -0.008146 -0.003124 0.015812 0.00014 -0.003615 -0.00414 0.036571 0.017863 -0.002326 -0.015564 -0.02631 -0.037591 -0.001867 0.003829 -0.030999 -0.001411 0.001443 -0.011765 -0.030435 -0.025961 0.014272 -0.006202 0.005452 -0.004715 -0.017172 -0.003911 -0.023225 0.029877 -0.019862 0.007299 7.6e-05 0.01525 -0.02235 0.001438 -0.001637 -0.010703 -0.020243 -0.030168 0.030692 0.009304 0.027425 0.000129 0.013439 0.002719 0.000525 -0.003312 -0.033214 -0.000401 -0.003535 -0.032804 0.016393 -0.017865 -0.02551 -0.012717 0.003942 0.026389 0.027052 -0.004182 0.022033 0.001427 0.009679 -0.019875 -0.021702 0.01968 -0.02242 -0.031973 0.028487 -0.031276 -0.005486 0.010961 0.032436 0.002652 -0.024828 0.024432 -0.028528 -0.014993 -0.022704 0.023282 0.013456 0.01934 0.004599 -0.012769 -0.023947 -0.030312 -0.010467 -0.032773 0.02531 0.030761 0.00039 -0.017189 -0.018631 0.025341 -0.006599 0.015626 -0.018862 0.00229 0.000631 0.033297 -0.015411 -0.007132 0.017366 0.020302 0.010093 0.031915 -0.025907 -0.009519 -0.035791 -0.032194 -0.021733 0.02179 0.034005 -0.035615 0.027621 -0.004892 -0.034781 0.019386 0.031631 0.03302 -0.02256 -0.012768 0.00813 0.030608 0.021501 0.030441 0.002434 -0.012901 -0.028098 0.002419 -0.028932 -0.010645 0.027995 -0.032878 0.041556 -0.00809 -0.035128 -0.017049 -0.025499 0.019164 0.019755 0.012792 -0.036286 0.012362 -0.004375 0.033441 0.022782 -0.003054 -0.023285 0.016166 -0.015714 -0.013353 -0.030432 0.004833 0.025758 -0.032532 0.030341 0.005589 -0.005049 -0.010581 0.028392 -0.00064 -0.025486 0.014814 0.009186 0.011369 -0.039529 0.022268 0.036328 0.007473 0.016908 0.023156 0.004438 -0.001542 -0.034142 0.026746 -0.013833 -0.01142 -0.002962 0.029027 0.027474 0.02543 -0.003523 -0.017738 0.008517 0.004395 0.02871 -0.021615 -0.004054 0.00073 0.006211 0.001717 -0.015617 -0.033425 -0.027115 0.020393 -0.009003 -0.033834 0.020538 -0.029184 0.025619 -0.025933 -0.010357 0.025389 0.001196 -0.009021 -0.009424 0.021285 0.019528 0.004267 -0.009905 -0.021412 0.015094 -0.011137 0.023049 1.2e-05 0.00815 0.031717 -0.002483 -0.02679 0.010346 0.022457 -0.00638 0.022402 0.008212 0.021316 -0.032318 0.032974 0.000153 0.026145 -0.025166 -0.010871 0.00797 0.003692 -0.010337 0.01838 -0.02199 -0.016829 0.011062 0.016285 -0.009772 -0.000951 -0.006581 0.027666 -0.029871 -0.03181 0.007869 -0.019019 -0.007868 -0.025621 0.031873 -0.011458 0.012893 -0.006466 0.011596 0.017537 -0.00018 0.032611 -0.010787 0.027523 -0.029152 -0.01514 0.020325 0.024278 -0.033894 0.003442 -0.028317 0.016968 0.011675 -0.034191 0.01749 0.004596 -0.00916 0.005823 0.000558 -0.009173 0.012271 -0.031189 0.028713 -0.023421 -0.014486 0.008026 -0.034493 0.023035 0.00811 0.005297 0.002667 -0.006401 -0.040084 -0.016501 -0.013426 0.028264 -0.011398 0.000921 0.009487 0.005927 -0.019677 -0.030805 -0.024178 -0.035043 0.007255 0.03437 -0.009323 -0.023893 -0.006186 -0.029502 -0.002437 0.001247 -0.02662 -0.03284 0.026563 -0.012141 -0.033486 0.034413 0.001494 -0.024046 -0.033885 -0.013322 0.005858 0.032833 -0.025198 0.005691 -0.00538 -0.031563 -0.030923 -0.033828 -0.002438 0.032216 0.001954 -0.003766 0.025606 -0.022544 -0.035623 0.030611 -0.023475 0.018728 -0.033582 -0.020071 0.013373 -0.027179 0.022044 0.016161 -0.022506 -0.00273 0.003709 0.035219 0.017925 -8e-05 0.029346 -0.03226 -0.027163 -0.014784 0.008203 0.01228 -0.02886 0.033409 -0.033166 -0.008353 -0.019283 0.035173 -0.025827 0.010238 0.019617 0.023169 0.006295 -0.027035 0.018443 0.024345 -0.007576 -0.030413 0.005439 -0.001907 -0.004473 -0.024401 -0.00512 0.029398 0.00856 -0.014435 0.006066 0.015442 -0.025126 -0.011255 -0.00085 -0.024887 0.017393 -0.013666 0.025121 -0.016777 0.005062 0.024114 0.028368 0.019795 0.007424 -0.031552 -0.025279 0.007756 -0.000828 -0.024386 0.022793 0.012738 -0.007025 0.026861 0.000564 -0.018243 -0.016177 0.028311 0.018965 -0.006813 0.010233 0.033639 -0.032859 0.026722 0.026727 -0.03537 -0.025099 -0.023428 -0.027126 0.012756 0.005373 -0.026237 -0.030409 -0.032117 0.021887 0.003972 0.003851 0.02611 -0.02453 0.02519 -0.025299 -0.023324 0.015392 0.01358 0.030081 -0.016175 0.002759 0.016626 0.013984 0.029421 -0.034277 0.000278 0.004193 -0.027021 -0.029166 0.020952 -0.025185 -0.013074 -0.003698 -0.002931 0.001853 -0.011621 0.001394 -0.003979 -2.8e-05 0.032428 0.027348 -0.035336 0.004929 -0.024006 0.028847 0.023411 0.03491 -0.006318 -0.020194 -0.02227 -0.002932 0.027759 -0.03299 0.014936 -0.022414 -0.002575 0.002812 0.018252 -0.031966 -0.005708 0.026925 0.006469 -0.031664 -0.034185 0.02099 0.026357 0.020659 0.003238 0.015088 -0.028102 -0.009733 0.008212 -0.031141 0.006078 0.004224 0.008675 -0.023058 -0.014217 -0.009457 -0.011352 0.000661 -0.003475 0.029489 -0.02179 -0.024454 -0.020853 0.021065 0.009153 -0.02217 0.007076 -0.015105 -0.023314 -0.001644 0.009224 -0.002754 0.00475 0.026259 0.021011 -0.012213 0.029619 0.003777 -0.004226 -0.01134 -0.00516 0.00055 -0.027657 0.029262 -0.026955 0.029901 0.033556 -0.034566 -0.003328 -0.021996 -0.026591 -0.013958 -0.001018 0.021057 -0.00269 -0.009857 -0.016798 -0.020883 0.02036 0.004566 0.014478 0.030063 0.006982 -0.030096 0.014381 -0.011075 0.000613 0.01922 0.001753 -0.021262 0.01731 0.035701 0.026234 0.022372 -0.007525 -0.001415 0.002897 -0.025091 -0.021712 -0.020411 0.031988 -0.004648 0.02249 -0.026462 -0.028303 -0.006566 0.023728 0.026293 -0.010449 -0.031461 -0.028167 -0.03571 -0.001511 0.001377 0.012225 0.005428 0.005673 -0.008679 -0.028728 -0.031793 -0.019134 0.004232 0.029021 -0.027809 0.014768 0.018937 -0.033168 0.013803 0.021235 -0.033141 0.018516 -1e-05 -0.018872 0.015718 0.011865 0.014786 -0.002923 -0.006528 0.011291 -0.032277 -0.01269 -0.013707 -0.000969 0.016411 0.010773 -0.008919 0.017062 0.033428 -0.009105 -0.004873 -0.000782 -0.019798 0.017894 0.00053 0.02056 -0.032887 0.011172 0.008918 0.000549 -0.011332 0.01948 0.027274 -0.011691 0.018072 -0.024331 0.011654 -0.002977 0.017713 0.008216 0.005511 -0.006906 -0.020631 -0.031033 0.026422 -0.002386 0.012374 0.027866 -0.025223 0.032405 0.000118 -0.019229 -0.032264 -0.018589 -0.032358 0.022239 -0.014948 0.032277 -0.018176 0.02503 -0.005646 -0.014419 0.010469 0.025584 0.007159 0.033574 -0.009378 -0.022214 0.014278 0.001625 -0.011696 -0.023995 -0.035704 -0.02469 0.033275 -0.011642 0.023612 -0.020574 0.032233 0.004947 0.005677 -0.022872 -0.01899 0.02885 -0.019183 -0.014475 -0.023991 -0.031935 0.01491 0.005707 0.013432 0.03102 -0.00225 -0.023575 0.005992 0.001226 0.032662 -0.029246 0.014476 -0.014101 0.007881 -0.012871 0.005432 -0.03103 -0.028575 -0.0286 -0.010872 -0.005615 -0.018359 -0.009934 -0.020391 -0.019899 -0.024637 -0.008845 -0.02163 0.0218 -0.005886 0.010224 -0.013813 0.00493 -0.000104 0.0288 -0.002462 -0.031938 0.007456 -0.034924 0.004248 -0.003296 0.023237 0.029229 0.01121 -0.010229 0.0302 0.028144 -0.009774 -0.011462 0.018067 -0.005969 -0.028175 0.026938 0.02407 -0.034166 0.011076 -0.015267 0.020326 0.016818 0.007734 -0.000497 -0.004545 -0.028719 -0.033502 -0.005556 0.001835 0.016076 -0.009738 0.024428 0.021069 0.023484 -0.005894 -0.010523 -0.022924 -0.006111 -0.027043 0.026208 0.026618 0.020067 -0.001373 0.013885 0.010176 -0.020464 -0.022944 0.012906 -0.008373 0.023934 -0.029259 0.024902 0.024446 -0.022988 -0.023053 0.032498 0.02818 -0.012183 -0.022673 -0.025801 -0.002817 -0.01365 -0.024345 -0.02471 0.03047 -0.002606 -0.024596 0.000509 0.028764 0.018393 0.012002 -0.025265 0.030278 0.031561 0.012701 -0.032127 0.026155 -0.005864 0.023451 -0.034114 0.029453 -0.010163 -0.03019 0.019618 -0.000975 0.003155 0.013785 -0.03272 0.027518 -0.021253 0.034078 -0.019561 -0.011697 0.034501 -0.020557 -0.029019 -0.019572 -0.018672 0.028945 -0.031693 0.029516 -0.012097 -0.036594 -0.022499 -0.02414 0.010702 -0.015164 -0.035774 -0.029521 0.026718 0.022479 -0.01939 0.013953 -0.008731 -0.006013 0.020756 0.024422 -0.009608 -0.015347 -0.021851 -0.015288 -0.0011 -0.01237 -0.025445 0.027103 -0.008515 0.030041 -0.013301 -0.031472 -0.009297 0.017583 -0.029864 0.00083 0.016494 -0.016037 -0.013678 -0.026223 -0.031654 -0.004684 0.033735 0.008932 -0.019009 -0.024669 -0.018289 0.017634 -0.011007 -0.010453 -0.016144 -0.019313 -0.014213 -0.020872 -0.018327 -0.007839 0.018317 -0.010727 -0.008407 0.018344 0.011069 -0.000513 -0.009164 0.005296 0.020646 -0.030057 -0.014688 -0.000185 0.006521 -0.017911 0.020476 -0.039066 -0.016494 -0.035938 -0.002916 -0.033101 0.009426 -0.031259 -0.032289 -0.030619 -0.002811 -0.029192 -0.016034 -0.001243 -0.015624 0.021231 -0.029517 0.031833 0.024617 0.01105 -0.021301 -0.000367 -0.042058 -0.035282 -0.000434 -0.01863 0.001752 -0.029334 -0.006289 -0.00621 0.004839 0.028896 0.021618 0.010391 -0.027854 -0.030745 0.000967 -0.012415 -0.025299 0.000405 0.018089 -0.016543 0.013532 -0.027769 -0.00504 -0.014152 -0.027065 0.021173 0.000527 -0.03243 0.020842 -0.004637 -0.026462 -0.039289 -0.038545 0.000862 0.032069 -0.022365 -0.016348 0.023419 -0.024279 0.006663 0.005941 -0.001904 -0.003825 -0.007884 0.009236 -0.023981 0.006086 -0.002758 0.031669 -0.001788 0.013855 -0.030484 0.010951 -0.009191 -0.015012 0.00432 0.034556 -0.030761 0.010484 -0.002157 -0.024479 -0.013302 -0.031147 -0.025046 -0.018789 0.015652 -0.031405 -0.014125 -0.005178 0.013933 -0.010194 -0.014442 0.036212 0.003651 0.019278 -0.006797 -0.031408 0.025684 0.018483 0.035261 0.028021 0.024618 0.022327 0.013723 0.005544 0.007453 -0.032801 -0.012216 -0.019761 -0.028026 -0.016841 -0.026649 -0.002849 -0.020313 -0.030813 -0.012619 -0.025181 -0.020256 -0.007308 0.018566 -0.019953 0.021182 0.031054 0.01909 -0.015994 0.001237 -0.000389 0.033969 -0.029613 0.029362 0.034739 0.039012 -0.000237 0.033701 -0.003781 0.033819 -0.006136 -0.024201 -0.01737 -0.032781 -0.0119 0.005688 0.005001 -0.000237 0.001168 -0.006053 -0.024473 -0.006681 -0.035237 -0.024011 -0.030611 -0.017508 -0.026694 -0.006314 -0.011833 -0.020279 -0.010044 -0.016146 -0.025277 -0.00718 0.023324 0.036588 0.017734 0.011988 -0.010739 -0.033076 0.008517 -0.009259 -0.006777 0.02782 0.001612 0.026287 -0.007036 -0.028457 -0.006045 0.028737 0.017649 -0.03568 0.0233 -0.001472 0.011973 0.013106 -0.025536 -0.001967 -0.021318 -0.008173 -0.011778 -0.033708 0.032649 0.027085 -0.028163 -0.030061 -0.008572 -0.023492 0.00079 -0.008167 0.027428 -0.032899 0.013152 0.02299 0.03491 0.031278 0.025729 0.00783 0.035076 0.025649 -0.010109 0.021207 -0.008149 0.028063 0.023354 0.01267 -0.011861 -0.019168 0.012616 0.013061 0.006138 0.031942 0.022248 0.035927 0.032436 0.029393 0.034979 -0.001333 -0.013464 -0.014822 0.027648 0.00298 -0.0063 0.015722 -0.020825 -0.031758 0.034414 -0.023302 0.020867 -0.017509 -0.027065 0.002512 -0.001076 -0.007569 -0.007246 -0.009365 -0.0192 -0.023146 -0.027837 -0.031099 0.034511 0.038123 -0.018593 0.038956 0.01973 0.017741 -0.011531 0.033894 0.0034 0.036738 0.028485 -0.022322 0.001858 0.027165 -0.010076 0.031363 0.015941 -0.010532 0.003788 0.004182 0.026853 -0.018251 -0.032754 -0.020071 0.024275 -0.028037 0.010198 -0.020657 0.026912 0.03874 0.035183 0.010568 0.040757 -0.02105 0.019785 -0.005784 0.022344 -0.011127 -0.009251 0.006377 0.026717 0.023054 0.013453 -0.036044 0.007728 -0.012436 0.023951 0.030338 0.025801 0.010569 0.03024 -0.0167 -0.032591 -0.015357 0.011202 -0.002903 -0.01366 -0.01622 0.016634 0.001414 0.003923 -0.015889 -0.02163 -0.017167 -0.019582 0.033529 -0.032589 0.018784 0.024671 0.028675 -0.033955 -0.005899 -0.028491 0.034066 -0.016006 0.030592 -0.029278 0.01748 -0.006768 0.032229 -0.004434 -0.005069 -0.006402 -0.026067 0.020093 -0.022391 -0.010446 -0.013313 0.021758 0.018084 0.013639 -0.024754 -0.009129 -0.033727 -0.006692 0.02101 0.002735 0.002806 0.022608 0.026578 -0.028663 0.010714 0.013875 -0.003148 -0.030881 -0.024617 0.025354 0.002699 -0.022616 0.029582 0.03217 -0.032452 -0.013385 0.004025 0.02094 -0.008608 -0.012776 -0.033601 -0.006749 -0.000444 0.026983 -0.005465 -0.031963 -0.02859 0.025423 0.009453 0.032493 -0.031794 -0.015475 0.031421 -0.020435 0.029899 0.014307 0.00508 0.005459 0.018893 -0.023282 -0.018619 0.029167 0.010387 0.024029 -0.00119 0.003001 -0.012598 -0.011679 0.026041 0.028132 0.019145 -0.026303 -0.011614 0.033505 0.034323 -0.030547 -0.01621 0.007107 0.018674 -0.014316 -0.034479 -0.012096 -0.015346 -0.023691 0.026339 -0.017676 0.003999 -0.001186 0.025941 -0.033367 0.009685 -0.033316 0.027704 0.031137 0.024222 -0.024984 0.01447 -0.002955 0.009883 0.008338 -0.012508 0.008759 -0.003472 -0.029609 0.027839 -0.02336 -0.02319 -0.009062 0.032926 0.025389 0.031323 0.031185 -0.031601 -0.001283 0.014805 -0.033905 0.014172 0.020792 0.016106 -0.022886 -0.011154 0.00631 0.035318 0.029468 -0.009553 0.004724 0.033816 -0.034215 -0.011118 0.013857 -0.016103 -0.009024 0.006586 -0.013223 0.015287 0.029522 -0.024986 -0.023871 0.023131 -0.027567 0.019275 0.01495 0.026691 -0.01476 0.01205 -0.032966 -0.000845 0.024971 -0.032975 -0.03334 -0.032849 -0.031086 0.023615 0.036112 -0.016217 0.002507 -0.003556 -0.013688 -0.004425 -0.027637 -0.001902 -0.020514 0.0113 0.02548 -0.000935 -0.002518 -0.034214 0.029287 -0.00873 0.019442 -0.026517 -0.016086 -0.001872 0.031098 0.0152 -0.024321 0.034595 -0.03304 -0.003361 0.00989 0.013128 -0.021183 0.023733 0.019105 0.027747 -0.011432 0.004612 0.017974 0.034157 0.015296 0.038254 -0.032542 0.000953 0.035975 -0.017478 -0.031293 -0.004984 -0.010442 0.027837 0.001947 -0.002457 0.011723 0.000223 0.017293 0.010881 0.03193 -0.009187 -0.02628 0.037438 0.007008 0.005943 -0.020187 -0.014212 0.02519 0.009586 -0.001682 -0.02713 0.034401 -0.020388 0.014349 0.001631 -0.004547 0.030366 0.033999 -0.001594 -0.026229 -0.023813 -0.033486 -0.001771 0.02527 0.00447 -0.00682 -0.024257 0.004867 0.035638 0.026132 -0.012038 0.028193 0.024908 0.034823 -0.009627 -0.026701 0.018443 0.006098 0.005343 -0.013622 -0.018593 -0.006567 0.006247 0.014003 0.010837 -0.009685 -0.024297 0.00862 0.015239 -0.002863 -0.019475 0.001687 -0.012346 -0.008447 0.02396 -0.001184 -0.011104 -0.024489 0.015382 0.007272 -0.005297 0.026735 0.033156 -0.004602 0.006468 -0.018005 -0.013836 -0.003012 0.021555 -0.00626 -0.022698 0.001751 0.00864 -0.010007 0.031788 -0.000823 0.002817 0.026174 -0.032934 0.007635 -0.029999 -0.026871 -0.030956 0.00853 0.000656 -0.035423 0.019141 -0.010764 -0.009232 -0.002763 0.034944 0.021575 0.018018 -0.025217 -0.011287 -0.009701 0.034243 0.023091 0.018837 -0.010137 -0.001803 0.009475 -0.017301 0.002497 0.028479 0.034671 0.007235 0.015122 -0.01909 -0.002714 -0.025213 0.000564 0.024102 0.002309 0.025423 -0.02041 -0.035674 0.005297 -0.026326 -0.014954 -0.010425 -0.002822 0.000126 0.01741 0.024268 0.019444 -0.01831 -0.018602 0.001927 0.029143 -0.020256 -0.005374 -0.001598 -0.016418 -0.004937 -0.002884 -0.002856 0.036908 0.015422 -0.015097 -0.010915 0.019146 -0.031969 -0.030452 -0.027193 -0.005808 -0.008477 0.019884 0.019125 0.031098 -0.008181 0.014666 0.001986 -0.017304 0.007129 -0.028204 0.001102 0.017865 -0.023677 0.04069 -0.002722 0.027896 0.019615 0.021028 0.030499 0.026359 0.038344 0.011171 0.032363 -0.027584 -0.030085 -0.020618 -0.019439 -0.035991 0.025845 -0.019102 0.027153 0.000847 0.002431 -0.005015 0.009375 0.001616 0.007333 0.020159 0.02255 -0.019404 0.033922 -0.008386 0.030677 -0.015613 0.010644 -0.025896 -0.029062 0.024513 -0.02729 -0.032026 0.030576 0.022263 0.030264 0.003296 0.025856 0.013845 0.026529 0.033867 -0.008021 0.010636 -0.030697 -0.022398 -0.000519 0.012089 0.002947 0.000113 -0.002058 0.002594 -0.017621 -0.036117 0.007307 0.027887 0.004359 0.023122 0.017173 0.015569 -0.019082 0.015584 0.011056 0.02759 0.006982 -0.00829 0.008673 0.022714 -0.024342 0.010842 -0.032227 -0.002541 0.012239 -0.025635 0.010958 0.02258 -0.020183 -0.00601 -0.020832 -0.036661 0.00172 -0.021812 0.030116 -0.009887 0.025775 0.002001 -0.004183 -0.017632 -0.010596 0.034697 -0.024652 -0.034642 -0.003497 -0.008146 0.014408 0.00355 -0.010832 -0.01397 -0.027203 -0.010528 0.01436 0.019127 -0.036761 0.026529 0.006616 -0.015428 0.015007 0.01511 0.006434 0.03288 -0.01487 -0.030987 0.005033 0.013235 0.019212 0.014686 -0.007787 -0.028916 0.021659 0.028547 0.02807 0.012205 -0.035531 -0.007793 0.020337 -0.019358 0.025334 0.007965 0.019417 -0.029019 0.025848 -0.001266 -0.034244 -0.006473 -0.023187 0.00615 0.025473 -0.032908 -0.017121 0.01415 -0.015053 -0.025332 0.030227 -0.020997 -0.014669 -0.000529 0.016514 -0.028641 -0.021184 -0.014597 0.028344 -0.030724 -0.01516 0.016091 0.027461 -0.017879 -0.0198 -0.032965 -0.02765 0.020702 -0.015354 -0.012012 0.03222 -0.034871 0.034738 0.010508 -0.009429 0.003367 0.035666 0.031154 -0.005613 -0.025923 -0.010846 0.014847 0.01143 -0.027044 0.027789 -0.000868 0.023079 -0.018075 -0.01329 0.030423 -0.003973 -0.004874 0.02217 -0.006552 -0.018518 0.011928 0.003088 -0.030129 -0.035389 0.017029 0.004765 0.022971 -0.03144 0.023988 0.009439 0.033897 0.012711 0.00676 -0.030363 0.031909 -0.027927 -0.013979 0.002484 0.018198 -0.016157 0.017018 0.005339 -0.014237 -0.029559 0.014148 -0.031137 -0.002075 -0.023415 -0.006537 0.01103 -0.013557 -0.016875 0.016635 0.020674 -0.025666 -0.004423 0.033395 0.022189 0.038845 0.036565 -0.022202 -0.013659 0.029885 0.031601 0.008478 0.01248 -0.012192 0.037222 0.008272 -0.025099 -0.026294 0.021659 -0.003117 0.005386 -0.004696 0.022911 -0.013997 0.011906 -0.000227 -0.005686 -0.015564 -0.016942 -0.011083 -0.024589 -0.021535 0.03129 0.006008 0.039778 0.010161 0.005216 -0.027042 -0.015313 0.030035 0.038328 0.025113 0.013562 0.034798 -0.019956 0.030467 0.001106 0.025991 -0.026374 0.023765 -0.033165 -0.025608 -0.004997 -0.013753 0.020534 0.034909 0.004753 -0.029432 -0.006678 0.015986 -0.017632 -0.000189 0.0185 0.02476 0.03463 -0.008146 0.004704 0.004001 0.028828 -0.010591 0.025332 -0.0053 0.03187 -0.029304 0.015576 -0.005252 0.032811 -0.019958 0.002369 0.015834 -0.017471 -0.011771 0.009907 -0.009395 0.016263 0.028599 0.013679 0.011303 -0.025055 0.032764 0.027612 -0.014379 -0.015844 0.01135 -0.025141 -0.01881 0.010233 0.022631 -0.019944 -0.017903 -0.032069 -0.009491 -0.016755 0.030329 0.000471 -0.009704 -0.030044 0.004147 0.02871 -0.013924 -0.031292 -0.009236 -0.002238 -0.005795 -0.026664 0.023887 -0.030406 -0.034409 -0.004449 0.027053 -0.033726 -0.005279 -0.025996 -0.031079 0.022597 -0.033215 0.028112 -0.013769 0.025643 -0.019131 -0.001277 -0.000393 -0.022363 -0.006451 0.000816 -0.026869 -0.019132 0.00016 0.011378 -0.035219 0.014734 0.022669 -0.034511 0.033763 -0.02992 0.017558 0.033119 -0.022003 -0.000576 -0.028611 -0.008152 0.035412 0.023925 -0.025176 0.033806 -0.016623 0.001718 0.009382 0.026395 -0.00887 -0.006028 -0.033239 0.004942 -0.028085 0.012759 0.01223 -0.012213 0.033342 -0.003681 0.013072 0.028594 -0.033599 -0.023913 0.014422 0.029654 -0.003502 -0.00353 -0.028062 -0.005857 -0.011752 0.004324 -0.012538 0.003677 -0.002619 -0.005845 -0.00449 0.0308 0.004242 -0.01134 -0.015736 0.001597 -0.01083 0.00296 0.029148 -0.00912 0.012715 -0.029086 -0.027275 -0.000405 -0.01147 -0.032805 0.015491 -0.019182 0.020635 0.001952 -0.029446 0.018657 0.01252 -0.03049 -0.014747 0.033264 0.016365 -0.000874 0.020296 -0.01928 0.028273 0.029075 0.028523 -0.001357 -0.013172 -0.009495 -0.03027 0.015494 -0.024742 0.032657 -0.014833 0.000927 0.001375 -0.006537 -0.013398 0.002521 0.026615 0.007577 0.011473 -0.00846 -0.032658 -0.015158 0.025392 0.003323 0.032113 0.021263 -0.028783 -0.028821 0.022685 -0.024215 -0.015012 -0.007139 -0.004266 0.016076 0.021701 -0.020347 0.024567 -0.007339 0.023712 -0.027825 -0.010727 0.022759 -0.026363 0.031767 -0.012212 -0.01279 -0.033517 -0.008975 0.035401 -0.000453 0.010732 0.009741 0.016096 0.026498 0.00072 -0.024331 -0.000315 0.011044 0.03255 0.031112 0.005732 0.025765 -0.032063 0.029555 0.026781 0.029409 -0.016028 -0.033967 0.006805 -0.009324 -0.025527 0.03434 0.004097 0.031542 0.03144 0.028452 0.019761 -0.029381 -0.023937 0.008701 0.01546 0.025686 -0.023084 0.016781 0.010649 0.003907 -0.004129 0.023776 0.02013 0.023039 0.006122 0.034303 0.032832 0.015777 -0.005759 -0.005093 -0.012219 0.034328 0.016344 0.015997 0.001398 -0.004003 -0.009781 0.01669 -0.019047 -0.012299 0.013786 -0.023186 0.032081 -0.008243 0.001594 -0.009239 0.008463 0.013257 -0.023002 0.030157 -0.005948 -0.000423 0.026484 0.032224 0.023602 -0.028268 0.020632 0.000417 -0.032361 -0.031069 -0.018686 0.002278 -0.031427 0.028216 -0.015638 0.007656 0.005515 0.026291 -0.029396 -0.022089 0.007348 0.013941 -0.035112 -0.001749 -0.006662 -0.006273 -0.000211 -0.026136 0.019957 0.025203 0.014138 -0.034146 0.025759 -0.013487 0.033099 0.017317 0.000536 0.021712 -0.007573 0.036861 0.01374 0.013416 -0.003381 -0.002979 0.013117 -0.013985 -0.002513 -0.00206 0.008211 -0.008176 0.014731 -0.031502 -0.005715 0.02752 0.0167 -0.026968 0.007085 -0.001719 0.017057 0.000264 0.028662 0.014712 0.009371 0.00013 0.016448 0.003239 0.013527 -0.02605 0.032373 -0.010525 0.019823 0.028257 -0.027596 -0.019273 0.036884 -0.035196 -0.01926 0.031636 -0.000786 -0.029526 0.02533 0.00559 0.003454 0.0099 0.019796 -0.019689 -0.00995 0.032692 0.019553 0.01606 0.00273 -0.019533 0.024872 -0.010167 0.000649 0.022418 -0.015082 0.014219 0.003664 0.004261 0.01777 0.03518 0.033439 0.015608 0.020588 0.032966 -0.015419 -0.001273 -0.007954 -0.022924 -0.031211 -0.011064 0.00577 -0.012328 -0.001595 -0.034779 -0.033172 0.022817 -0.008927 -0.003858 0.019544 -0.014649 0.006702 -0.009288 -0.019209 0.035154 0.014624 -0.018353 0.021281 0.007164 0.012319 -0.025609 0.016416 -0.012967 -0.031747 0.011259 0.000374 0.01533 0.032713 0.02605 0.030344 0.017384 0.025862 0.000867 0.015132 0.010927 0.008142 -0.032886 0.022999 -0.029824 -0.022183 0.018107 -0.000779 0.010923 0.014663 -0.019606 -0.035354 0.02741 0.033184 0.000748 0.004221 0.031216 0.014633 0.019263 -0.02496 -0.012981 -0.001632 -0.009726 -0.001464 0.011625 -0.002055 0.009254 0.001826 -0.021193 0.023785 0.007024 0.007486 0.002885 0.019388 -0.024375 -0.035077 -0.03335 -0.008698 0.027794 -0.005978 -0.035145 0.010433 0.03047 -0.027338 0.008749 -0.029058 -0.026121 0.00073 0.036901 0.007639 -0.023732 -0.010371 -0.033682 -0.012833 0.016302 -0.033313 -0.022521 -0.008888 0.006791 0.01632 -0.010729 -0.002237 0.000408 0.030136 0.020263 -0.011473 -0.020259 0.025241 0.023359 -0.020006 -0.028138 0.00171 0.025277 -0.021438 0.002969 0.00957 -0.030335 -0.012765 0.002823 -0.03232 -0.035547 0.02697 -0.01911 0.009001 0.010677 -0.018797 0.028279 0.028647 0.008392 0.018773 0.029674 -0.013755 -0.016764 -0.031324 0.020241 -0.00951 -0.018923 -0.010866 0.033425 0.002047 -0.019131 -0.012706 0.023687 -0.025772 0.032251 -0.012229 0.021858 -0.030063 -0.005304 -0.027371 0.029129 -0.00743 -0.018927 0.03486 -0.034622 -0.013866 0.028014 0.003224 0.030483 0.010599 0.013311 -0.033025 0.019875 -0.008044 0.023283 -0.008915 -0.016446 0.035456 -0.011114 -0.029439 0.021628 -0.004355 0.009116 -0.01228 -0.03255 -0.013521 -0.009888 -0.025847 -0.005244 -0.021217 0.001485 0.020115 -0.00697 0.001019 -0.005219 0.035696 -0.027883 -0.003397 -0.007026 -0.011868 0.023021 0.018824 0.000477 -0.02933 0.006772 0.029927 0.027267 0.031894 -0.018514 0.007183 0.015859 -0.019932 0.024162 0.005888 -0.019437 -0.03257 0.027993 0.016399 0.024009 0.032681 -0.021843 -0.013048 -0.027239 -0.003834 0.029976 0.021191 -0.021482 0.022952 0.031002 -0.002949 0.014099 -0.028404 -0.025406 0.006992 0.010251 0.005518 -0.030807 -0.007401 -0.034086 -0.00099 0.021913 -0.022715 -0.007288 -0.01847 0.02198 -0.004292 -0.008271 0.026544 -0.019124 -0.03291 -0.01569 0.012214 0.014332 -0.012826 0.033282 -0.010664 0.012421 -0.033092 -0.009578 0.029267 -0.022962 0.013882 -0.009164 0.004808 0.00843 -0.014582 0.014879 0.013702 0.003061 -0.024925 0.006387 0.031875 -0.034074 0.015819 0.016299 0.031325 0.028129 -0.012662 0.025401 -0.021422 0.030682 -0.021248 0.007984 -0.01885 -0.026893 -0.030862 -0.026301 0.002001 0.008139 0.016571 -0.009147 -0.015296 -0.028086 0.00071 0.002129 0.013743 -0.001064 -0.030212 -0.014819 -0.024982 0.022729 0.009512 0.034095 0.028301 0.003967 -0.016497 -0.023057 -0.004542 0.025014 -0.032759 0.025563 -0.020315 0.032392 -0.019607 -0.008894 -0.032829 -0.027526 0.016603 -0.012597 -0.036691 -0.030739 0.004569 -0.015616 -0.01795 -0.01118 0.016307 0.028725 0.01398 0.013207 0.01338 0.003266 0.018643 0.007252 -0.035166 -0.028656 0.011359 0.019618 7.5e-05 -0.00593 -0.033588 0.01523 -0.001036 -0.006717 0.013643 0.023644 0.009622 0.018895 -0.034299 -0.010626 -0.031103 -0.003374 0.032176 -0.000193 0.028081 -0.03763 -0.030635 -0.025017 0.013326 0.029353 -0.004805 0.018092 -0.008835 0.032063 -0.013651 -0.026515 -0.000465 0.018114 0.029859 -0.019688 0.033483 0.026064 -0.031217 -0.021299 -0.001806 0.004276 0.011359 0.033646 0.001285 0.010315 0.009836 0.024839 0.018645 -0.020601 -0.031906 0.007066 -0.005142 0.016849 0.026291 -0.035398 -0.000889 -0.008129 0.011002 -0.00533 -0.001309 0.022256 0.005064 0.016019 0.025786 -0.030711 -0.002436 -0.012374 -0.011703 0.012179 0.027702 0.01676 0.00259 -0.026366 0.013953 0.01191 -0.001458 -0.015176 -0.035476 -0.005363 0.028063 -0.00178 0.030085 -0.002166 0.001413 -0.020677 -0.012899 -0.02689 -0.023844 -0.004575 -0.005319 0.016536 0.03423 0.005892 -0.010405 0.023329 0.020574 -0.030769 0.021039 -0.006893 0.004118 -0.0153 0.013676 -0.035469 0.024505 -0.005774 0.033868 -0.003338 0.013608 -0.021812 0.002048 -0.002456 -0.031838 0.022296 0.027989 0.025925 0.032284 -0.027121 -0.028109 -0.014184 -0.022265 -0.031636 -0.016219 -0.019293 -0.023286 -0.033799 -0.010886 0.013894 -0.017612 0.0178 0.028617 -0.015094 -0.0113 0.019749 -0.034483 0.002511 -0.000858 -0.013733 0.010001 0.031847 0.012645 -0.033189 -0.019079 -0.035221 -0.029415 0.030351 -0.032238 -0.009776 0.03051 -0.010717 0.005762 0.02387 -0.014147 -0.029022 0.035484 -0.030651 -0.030078 -0.016142 0.020722 0.007871 0.031203 -0.012099 0.0343 0.005109 -0.026044 0.023123 0.005071 0.00102 -0.016626 0.03127 -0.008861 0.017964 -0.036526 -0.022356 0.0081 -0.012274 0.029385 -0.019033 -0.00429 -0.013784 0.001385 0.014701 -0.01203 0.003241 0.023299 -0.019799 -0.007167 -0.024081 0.020429 0.008924 0.022209 0.034103 -0.027154 -0.028487 -0.012426 0.031877 -0.01727 -0.018021 -0.002088 0.014975 -0.008165 0.022473 0.022446 -0.014202 0.012167 -0.022349 0.033132 -0.020182 -0.006606 0.001506 -0.004272 0.001387 -0.010063 0.012468 -0.022313 0.010324 -0.022745 0.03345 0.025924 -0.020194 0.018598 0.014844 -0.020627 -0.011662 -0.029905 0.013156 -0.017086 -0.03483 0.009902 0.01636 0.009723 -0.028208 0.011695 0.017282 0.004003 0.027718 0.022642 0.010349 0.015643 -0.009455 0.018054 -0.020766 0.024068 0.023585 0.02535 -0.006866 -0.014585 -0.007857 -0.033309 -0.028359 -0.018487 0.019412 0.017665 0.018161 -0.003672 -0.030598 -0.028498 -0.006638 -0.033163 0.0321 0.002225 -0.032354 0.003778 -0.033719 -0.031686 -0.034721 0.010185 0.033167 -0.00676 -0.028317 0.029121 -0.029794 0.024865 0.034511 0.021301 -5e-05 0.022292 0.001301 -0.018445 0.020607 0.005969 0.005335 -0.01671 0.019765 -0.027386 0.007118 -0.010327 0.020222 -0.01383 -0.032158 -0.03452 0.025886 0.022768 -0.00157 0.016442 -0.035427 0.023049 0.019487 -0.02392 0.023434 0.030716 0.011524 0.020062 -0.026455 -0.009663 0.031905 -0.008367 0.033406 0.020907 0.005751 0.032602 -0.013768 0.030255 0.002967 0.021376 0.007665 -0.012229 0.004882 -0.017295 -0.005081 0.016619 -0.023649 0.035788 0.011646 -0.01675 -0.00554 -0.009363 -0.01002 0.016515 -0.024076 0.004169 -0.00051 0.023107 -0.016302 0.021337 0.001264 -0.001839 -0.023172 0.005879 0.022717 -0.032276 0.028642 0.010666 0.011099 -0.024914 -0.007192 0.010435 0.002537 -0.02644 -0.032225 0.024769 -0.00042 -0.004854 -0.007383 -0.004897 0.03373 0.023795 -0.011932 0.003806 0.017549 0.024628 0.005777 0.009964 0.008646 -0.029993 -0.001 -0.034616 -0.009871 -0.028167 -0.033131 0.017387 0.026596 -0.007999 0.025333 0.021417 -0.008878 -0.005478 -0.003501 -0.017479 0.031357 0.009016 0.010858 0.016968 -0.008797 0.015152 -0.033926 -0.033059 0.000466 -0.032917 -0.032984 0.007855 0.032959 0.007719 0.003732 0.016148 -0.009115 -0.028959 0.033199 0.022132 -0.006235 0.035018 -0.002539 -0.002303 0.019716 0.012217 -0.038569 -0.024663 -0.034668 -0.033406 -0.017245 0.019245 0.004058 0.02368 -0.016152 0.009243 0.016856 -0.020861 -0.025263 -0.018127 0.022216 -0.004557 -0.027688 -0.008292 0.010857 -0.022952 -0.013652 0.001382 0.010281 0.022867 -0.011197 0.040213 0.023301 0.020155 0.02011 -0.019297 0.019125 -0.026947 0.024097 -0.013424 0.034142 -0.014094 0.031376 0.020187 0.024415 0.028876 -0.03492 0.007696 -0.006197 -0.008566 -0.013813 0.027229 -0.010783 -0.021394 0.018004 0.018392 0.027251 0.028718 -0.010895 0.024953 -0.031578 0.029501 -0.01736 0.034737 0.034977 -0.002862 0.006216 -0.002548 -0.010935 0.026548 0.035544 -0.004212 -0.024495 -0.026769 -0.006442 0.005467 -0.00303 -0.034072 0.015571 -0.018888 0.014432 0.018914 0.018849 -0.026321 -0.034172 0.03209 0.022061 -0.005202 -0.012757 -0.014671 -0.017254 0.015885 0.02519 -0.033047 0.008082 -0.016884 0.029322 0.007545 0.011705 0.017178 0.023348 -0.013721 0.010616 -0.028699 -0.021258 0.025247 -0.035229 -0.000929 -0.014438 0.00787 0.002421 0.031729 0.008269 0.018665 -0.008419 0.021232 0.005006 0.007395 -0.002057 -0.012561 0.033252 0.02539 0.000518 0.015589 0.008895 -0.033998 -0.029769 -0.033225 0.007104 0.003812 0.01709 0.022637 0.019997 -0.0033 -0.00228 0.020505 -0.017085 -0.019242 -0.000374 0.018189 0.032387 -0.025369 -0.017387 -0.021408 -0.007747 0.017085 0.015797 -0.033832 -0.030701 -0.020061 -0.032908 0.030384 0.02378 0.019849 -0.018645 0.013005 -0.038278 0.00941 0.012734 -0.006956 -0.006967 -0.015371 0.008902 -0.007609 0.011784 0.013516 -0.026046 0.0187 -0.003981 0.023577 0.003228 -0.021444 -0.031428 -0.023321 -0.034652 0.020415 -0.032453 -0.008592 0.017793 -0.004905 -0.012003 -0.016683 0.002462 -0.010659 -0.000335 0.019843 0.013159 0.031996 -0.023957 -0.018318 0.001031 -0.001405 0.005973 -0.0319 -0.017471 0.010506 -0.016532 -0.032131 0.001273 0.002063 0.033746 0.000571 -0.001058 -0.012033 -0.017676 -0.029386 -0.007548 0.000237 0.014513 0.028144 0.033696 -0.03614 0.00936 0.002323 -0.029882 -0.001544 0.00063 -0.03556 0.020522 -0.004983 -0.035816 -0.006389 0.027855 0.008016 0.011565 0.033835 0.019339 -0.021381 0.022074 0.018452 0.00428 -0.023584 0.03212 -0.004981 0.005074 0.028678 -0.005998 0.005228 -0.017787 -0.032317 -0.017334 0.006419 -0.008538 -0.009884 0.010471 -0.020775 0.005268 0.03053 0.013219 0.030237 -0.011742 0.005523 0.012761 0.016162 -0.014786 -0.01746 0.007703 0.028389 -0.000218 -0.012676 0.004676 -0.031425 -0.023764 -0.030788 -0.03582 0.032259 0.00955 0.005107 -0.001378 0.005434 -0.030407 0.004663 -0.031588 -0.034115 -0.029122 -0.015963 0.001588 -0.017148 0.016665 0.016946 0.013914 -0.014572 0.01284 0.033185 4e-05 -0.024564 -0.012157 -0.000954 0.00209 -0.017803 -0.021017 -0.024577 -0.027892 0.016066 0.024886 -0.026487 -0.008822 0.01359 0.005563 -0.011636 -0.001664 0.035242 -0.035434 -0.033194 -0.028404 0.002337 0.028797 -0.003776 -0.013288 -0.017717 0.001691 0.018564 -0.015854 0.023411 0.021453 0.018601 -0.013831 -0.008311 0.000938 0.030489 0.006952 0.005262 -0.025849 0.013014 0.003218 0.028248 -0.002191 -0.010199 -0.023701 -0.000428 -0.022203 0.020274 -0.028981 -0.001305 -0.030168 0.013322 -0.031907 0.022932 0.014522 -0.023551 0.025409 -0.001885 -0.019113 -0.028483 0.004489 -0.016687 0.029556 -0.026891 -0.01406 0.008369 0.012343 0.019365 -0.012991 -0.011133 0.006617 -0.024549 -0.026674 -0.032289 0.009581 0.033184 -0.018008 0.018404 0.007857 0.00409 -0.039258 -0.021551 -0.001663 0.015143 -0.023015 -0.002747 0.011518 -0.002897 -0.020712 0.020556 -0.02402 0.021724 0.009313 -0.007035 -0.008477 0.012746 -0.017829 0.017251 -0.0193 -0.01191 0.024553 0.024198 -0.001195 0.032186 0.033874 -0.010438 0.027127 0.018532 0.003348 -0.02769 -0.024891 0.020877 0.002043 0.001783 -0.012375 0.006973 0.015408 -0.034127 -0.031542 0.031049 0.032863 0.0278 -0.019939 -0.018868 -0.00641 -0.010829 -0.020034 -0.014163 -0.005153 -0.004851 0.009193 0.03479 0.035948 0.034834 0.039149 0.025212 -0.011053 0.030962 -0.00116 0.028663 -0.022203 -0.019428 0.008384 -0.036035 0.009449 0.011225 -0.010132 -0.035959 -0.015494 0.019544 -0.021671 -0.023204 0.025162 -0.009556 0.01824 -0.035336 0.006397 -0.035604 -0.026145 -0.03253 0.001886 0.01179 -0.000572 0.007931 -0.027245 -0.010238 -0.031903 -0.012388 -0.027819 -0.006604 -0.017094 0.027603 -0.007767 0.003775 -0.020889 0.009521 0.00076 -0.03313 0.020665 -0.031297 -0.030241 0.026224 0.031759 0.015483 0.027062 0.002479 -0.023217 -0.019975 0.014872 -0.02406 -0.029812 0.009514 0.013966 -0.024214 0.027023 0.019791 0.009041 -0.010521 -0.011648 0.029035 -0.022597 -0.025367 0.02923 0.020944 -0.027964 -0.008226 0.025611 -0.005154 -0.001605 -0.009514 -0.025118 0.030327 -0.027862 0.03128 0.034203 -0.034797 0.01424 0.009623 0.005389 0.004234 0.001617 0.000825 0.006293 0.003775 -0.003219 -0.024228 0.022548 -0.033223 -0.029736 -0.033243 0.008515 -0.0198 -0.02235 -0.022905 0.006777 -0.001263 0.019292 0.032278 -0.006224 0.014054 -0.032403 -0.005576 0.005591 0.015528 0.011747 -0.020847 -0.033464 -0.011365 0.010879 -0.003334 0.028246 0.034106 -0.030393 0.001561 0.033754 0.00695 0.009649 -0.018921 -0.021095 0.027355 0.018797 -0.003106 -0.003377 0.000939 -0.014398 -0.003097 0.009273 0.033296 0.033357 -0.014993 0.009548 -0.012806 0.019671 0.009098 0.018529 0.016537 -0.033456 0.019849 -0.007504 0.007141 -0.015812 -0.011491 -0.026934 -0.00324 -0.011745 -0.026805 -0.006743 0.036204 -0.014865 -0.027096 -0.012215 0.0206 -0.025273 -0.030934 0.029786 0.02501 0.031015 0.001741 -0.015268 -0.032419 0.006153 0.002381 0.008891 0.033578 0.022443 -0.006055 -0.020886 -0.00386 -0.016812 0.033077 -0.001103 0.005911 -0.033329 -0.025216 -0.008101 -0.028089 0.016911 0.03069 -0.023326 0.02699 -0.017844 -0.002431 -0.011622 -0.010942 -0.01515 0.024982 -0.021644 0.009283 0.0002 -0.033734 -0.014183 0.033933 -0.025477 -0.002201 -0.029585 0.033887 -0.002858 0.033875 0.029523 -0.002362 0.020362 -0.01144 -0.023011 -0.005921 0.016855 -0.020657 0.005795 0.036239 0.009554 -0.026928 -0.00124 0.007383 0.007725 -0.020802 0.008348 -0.012802 0.030141 0.027907 0.007096 -0.009039 -0.004785 -0.020187 -0.003332 -0.002321 0.00412 0.000208 -0.010437 0.004378 -0.01382 0.024248 0.014221 0.037368 -0.031687 0.014696 0.016479 -0.033299 0.035576 0.02847 -0.02793 -0.00963 -0.000765 -0.01726 0.023597 -0.027369 -0.03996 0.012111 0.02061 -0.035444 0.005777 0.007669 -0.001167 -0.007703 0.009167 0.013279 -0.021011 -0.015963 0.027601 0.000413 0.006858 -0.011317 -0.019626 -0.023208 -0.012596 0.032942 -0.024872 0.024443 0.031869 -0.001693 0.027991 -0.029924 0.024331 0.014428 0.005877 -0.012676 -0.030052 -0.025651 -0.024615 0.035034 -0.00381 0.024548 -0.011099 -0.00454 0.030937 0.00903 0.019835 -5.3e-05 -0.008988 -0.017936 -0.01313 -0.029937 -0.016358 -0.009792 -0.029585 -0.004306 0.002675 0.029253 -0.03258 -0.016809 0.007108 -0.007909 0.022299 0.018729 -0.027818 -0.002224 -0.001516 0.016816 0.01892 -0.002779 -0.029661 0.029539 0.028771 -0.015309 -0.019365 -0.025759 -0.030631 0.020509 0.028918 -0.009642 -0.031985 0.021666 -0.031749 0.014616 0.03715 0.017345 0.039977 -0.000378 -0.009002 -0.020291 0.012289 0.031161 0.015057 0.03205 -0.034382 0.030627 0.007812 0.010633 -0.033138 0.031336 0.015562 0.006462 0.006002 -0.011244 -0.028974 0.014833 -0.007575 0.002203 -0.021029 -0.041021 0.004762 0.011203 0.035961 -0.020815 0.022633 -0.003308 0.03372 0.005071 0.000293 -0.026167 0.013786 0.013457 0.003979 -0.002608 -0.026595 0.025667 -0.007172 0.007778 0.01987 -0.011518 0.035724 0.014686 -0.030048 0.007198 0.013906 -0.028774 -0.024484 0.005117 0.005879 9.1e-05 -0.017134 0.001023 0.003338 0.000375 0.024615 -0.012213 -0.019158 -0.030599 -0.008837 0.032157 -0.021286 0.028679 0.022181 0.006892 0.003828 0.019936 -0.018023 -0.022025 -0.005205 0.000441 0.015236 0.013812 -0.0348 0.033846 -0.028897 0.027366 0.023128 0.011966 -0.02925 0.008265 0.010265 -0.027881 0.014284 -0.035528 -0.007318 -0.008169 0.017563 0.019036 -0.013555 -0.01652 -0.009763 0.034374 0.003819 0.000888 -0.025481 0.018549 -0.034781 -0.012133 0.028332 -0.008959 0.005703 -0.004219 0.030387 -0.012889 -0.024816 -0.016308 0.026102 -0.018775 -0.005354 0.017513 0.009034 0.016889 0.023821 -0.000457 0.002099 0.021691 0.027753 -0.001097 0.029867 -0.00914 4.7e-05 0.021282 -0.011407 -0.033324 -0.005559 0.03058 0.029087 -0.025494 -0.015616 0.00429 0.016112 -0.032236 0.023232 0.012289 0.031971 0.026155 -0.004087 -0.00052 0.02143 0.011447 -0.00273 0.02928 0.012029 0.013858 -0.007936 0.026099 -0.013641 -0.014342 0.015474 -0.029901 -0.000233 -0.018727 0.024653 0.009835 0.023386 0.032035 0.004038 0.015407 -0.028327 0.034847 -0.024723 0.012124 0.011791 0.025388 -0.021717 -0.014499 -0.003897 0.006266 0.004233 -0.031782 -0.022426 0.024529 0.004041 -0.013284 -0.030145 0.001508 -0.02377 0.001361 -0.019993 0.0054 -0.024754 -0.013894 -0.027887 0.01405 0.009969 0.031726 0.023481 -0.027353 -0.009805 -0.035188 -0.029031 -0.02063 0.001868 0.008551 0.003887 -0.022937 0.009129 0.025333 0.012365 -0.026194 -0.02634 0.026171 0.021964 0.001583 -0.002868 0.002742 -0.003319 0.026356 0.032764 -0.029281 -0.018916 -0.026916 -0.016036 -0.009291 -0.021943 0.022054 0.005561 -0.015927 0.002965 0.021691 0.021421 0.010001 0.002069 -0.025578 -0.023088 -0.029067 0.035246 0.0009 0.009228 -0.001048 -0.031555 -0.024745 -0.008296 0.013905 -0.000917 0.018472 0.023467 -0.011676 0.004109 0.02078 -0.001697 -0.01521 -0.017387 -0.004524 -0.003837 0.002114 -0.03474 0.01076 -0.02635 0.023499 -0.023243 0.033233 -0.016343 -0.011078 0.017229 0.003428 0.003426 0.030244 0.005507 0.021933 -0.02383 0.013795 0.028254 -0.035524 -0.028511 0.00872 0.000481 -0.003502 -0.027986 0.022653 -0.020922 -0.019133 -0.031727 0.034146 0.034201 -0.008005 0.031738 0.024702 -0.025548 0.023772 0.037003 -0.015297 -0.015135 -0.033987 -0.037305 -0.031155 -0.027899 -0.0239 0.022883 -0.012972 0.029725 0.035057 -0.03083 0.030508 -0.000937 0.01228 -0.001577 -0.002134 -0.013239 -0.000489 0.014608 -0.013069 -0.027241 0.002046 0.005075 0.020752 -0.026577 0.013552 -0.029947 0.032838 0.005786 0.031235 0.022357 0.016057 -0.002416 -0.033462 -0.031218 0.018946 0.013148 -0.010525 0.009902 -0.000899 -0.015142 0.023495 -0.030547 0.008431 -0.030261 0.013988 0.020728 0.017895 -0.02017 0.008029 0.010465 -0.017049 -0.000815 -0.015589 -0.006107 -0.029781 0.032105 -0.015068 0.011642 -0.00167 -0.034007 -0.007084 0.001852 0.009051 -0.030694 0.023309 -0.010505 0.020874 -0.004255 -0.003505 -0.000397 0.005233 -0.032889 -0.034881 0.014829 0.012393 0.033757 -0.005159 -0.019196 -0.000769 0.034755 0.014528 -0.034156 -0.013524 0.022776 -0.009534 0.003139 0.003074 5.2e-05 0.033903 -0.021915 0.01201 -0.013716 -0.011104 -0.01486 0.004186 -0.029648 -0.034563 -0.010567 0.023575 0.012544 -0.022641 0.015964 0.03258 0.004094 0.011157 -0.01333 0.011311 -0.007855 -0.015245 -0.034135 0.000624 0.034703 0.029126 -0.02294 -0.012236 -0.004705 -0.002097 0.003238 0.020705 0.022642 -0.019631 0.025582 -0.006004 -0.002475 -0.022676 0.026002 0.005289 -0.030422 -0.000479 0.025013 0.00685 0.017252 0.02959 -0.025454 -0.020715 -0.017182 -0.034282 -0.026989 0.006638 -0.013647 -0.020174 0.006266 -0.03212 0.003901 0.020119 0.031278 -0.012981 0.030362 -0.006082 -0.005916 0.020508 0.021243 0.033444 0.016589 0.011645 0.022434 0.028339 0.02074 0.004397 0.005793 0.008052 -0.022831 0.015855 0.009556 -0.033385 0.008022 -0.025525 -0.02815 0.029675 0.008463 -0.031913 0.014489 -0.025955 -0.010689 0.027641 -0.020086 0.006222 -0.019152 -0.017372 -0.010204 0.029378 0.034799 0.035883 0.001841 -0.025836 0.028007 -0.000987 -0.029979 0.012288 0.035305 0.007977 -0.022513 -0.016829 0.003238 0.00232 0.033531 0.014065 0.02538 0.01541 0.008597 0.024782 0.029445 0.017176 0.004201 -0.001578 0.001997 -0.017823 -0.014921 0.031516 0.008556 0.005729 -0.032288 -0.019799 -0.033057 0.017078 -0.014465 0.016619 -0.01183 0.012796 0.013929 0.036393 0.022705 -0.021698 -0.006506 0.012229 0.007144 -0.000234 0.001385 0.026094 -0.032415 -0.034138 -0.006675 -0.030866 0.012113 -0.023475 -2.5e-05 0.024146 -0.009837 -0.0305 -0.002449 -0.022942 -0.003516 -0.013075 -0.027952 -0.009451 -0.019592 0.003607 -0.007311 -0.030269 -0.019939 -0.030461 -0.009842 -0.006592 -0.018948 0.012873 0.012184 -0.019622 0.01916 0.009283 -0.007962 -0.020483 -0.003722 0.033811 0.01834 0.011154 0.017315 0.010185 0.008683 0.00606 0.021671 0.0174 -0.003038 -0.001583 0.004906 -0.00763 0.008515 -0.014152 -0.011815 -0.027008 -0.018003 -0.024536 -0.011281 -0.004539 0.00049 0.034304 0.028168 0.004692 0.036625 0.02891 -0.033856 0.034166 0.016709 0.003706 -0.004636 -0.019352 0.029921 0.032445 0.018328 0.01549 -0.016282 -0.001278 0.025819 0.020996 -0.004503 0.013748 -0.018608 -0.021855 -0.004161 0.03078 0.005209 -0.025386 -0.034164 0.019125 0.002702 0.014696 0.034733 -0.021911 0.002838 0.023676 -0.026274 -0.019729 -0.019775 0.005446 -0.010637 0.025494 0.021574 -0.007647 0.012389 0.018564 -0.001212 -0.009745 -0.032028 0.022126 -0.003899 0.003926 0.032107 -0.028906 -0.02361 0.015586 0.005527 0.006782 0.005267 0.010404 0.029426 0.009976 -0.007093 -0.014549 0.014844 0.0123 0.029454 -0.013099 0.011965 -0.01775 0.014103 -0.024401 -0.001479 0.022184 0.031151 -0.016783 0.016955 -0.019726 0.030098 -0.003633 0.006158 -0.018929 -0.009226 0.024051 -0.00398 0.033434 -0.007009 0.008323 -0.006028 0.025028 -0.021097 0.03058 -0.024901 -0.008553 0.033184 0.032226 0.009728 -0.015777 0.031203 -0.023338 0.026698 -0.032882 0.006163 -0.023193 0.035655 0.019718 0.013535 0.005041 -0.015201 -0.023699 -0.03426 -0.027281 0.008013 -0.028098 -0.015158 0.02257 0.003726 -0.033861 0.026161 -0.006805 -0.024005 -0.01327 0.026307 0.019535 -0.008784 -0.022038 0.022982 0.015572 0.027053 -0.009077 -0.035065 0.013118 -0.00288 -0.015027 -0.004287 -0.003083 -0.022972 0.033986 -0.020927 -0.01237 -0.02994 -0.033832 -0.000546 0.031285 -0.020782 -0.026041 0.003218 0.032569 -0.001702 -0.021354 -0.016264 -0.022206 0.00349 -0.027495 -0.009963 -0.015767 0.025129 0.016813 -0.023632 0.033657 0.019265 -0.017938 0.002212 -0.013363 -0.000156 -0.002225 -0.028132 0.022608 0.021389 0.022685 0.013706 0.004595 0.022462 -0.035287 -0.019286 -0.035842 0.002433 -0.016112 -0.023805 0.008327 -0.008335 0.007416 -0.020705 -0.034361 -0.014735 -0.005591 0.005983 -0.030452 -0.003884 0.027284 0.012437 -0.020979 -0.029118 -0.003816 -0.027854 -0.032034 -0.027874 -0.024412 -0.009504 -0.017013 -0.004867 -0.033497 -0.025666 0.022109 0.034179 0.008915 0.010182 -0.013025 -0.032809 0.024631 0.025243 0.028366 -0.012694 -0.012268 -0.034178 0.008842 -0.008293 0.000303 0.012349 -0.016554 -0.015842 0.007613 -0.025578 0.010268 0.028178 -0.003585 -0.029022 0.00226 0.029757 -0.016065 0.003215 0.001369 -0.032885 0.022432 -0.020159 -0.026053 0.035034 0.027399 -0.027074 -0.014136 -0.005409 0.006892 0.019695 -0.033118 -0.019777 0.006872 0.007207 -0.022685 0.015331 0.023758 -0.01527 -0.039421 -0.027327 0.002427 0.015242 0.006582 0.004037 -0.01273 0.013345 -0.001327 0.0009 -0.009177 -0.028923 -0.033366 -0.012765 0.020274 -0.018401 -0.009836 0.030042 0.014384 0.004087 -0.000179 0.008401 -0.023802 -0.000459 0.027385 0.009742 0.03352 0.02709 -0.035808 -0.00049 0.013549 -0.027069 0.029953 -0.01215 -0.00695 0.021587 0.014147 -0.029051 -0.032352 0.017753 -0.019961 -0.023231 0.006109 0.022614 -0.01424 0.033659 -0.002136 -0.010494 0.009888 -0.008644 0.026421 0.012396 -0.017691 -0.026159 -0.004539 -0.001819 -0 -0.004513 0.02943 -0.032668 -0.02145 -0.005633 -0.007342 0.028594 0.004096 -0.013423 0.000724 0.034075 0.033166 -0.01503 0.005445 0.009562 0.030775 -0.025538 -0.001054 0.003324 -0.025096 -0.019198 -0.026218 0.014691 0.023019 0.010556 0.011062 0.023949 -0.028648 -0.002884 -0.026332 0.007733 -0.00056 -0.000114 -0.024476 0.011416 -0.007303 -0.005217 -0.01167 0.025178 -0.005448 -0.035819 0.032717 -0.012207 -0.005398 0.027036 0.013455 0.02573 0.021184 0.000677 -0.017911 0.022116 -0.036949 0.02471 -0.032556 -0.009359 -0.033163 -0.004098 0.009975 -0.025031 -0.022466 0.015245 -0.012094 0.007641 -0.000675 -0.038068 -0.015726 -0.035196 0.013363 -0.014766 -0.006252 -0.005984 0.00848 0.026801 0.024409 0.033044 0.033987 -0.01964 -0.031448 0.03297 0.022318 -0.027958 0.012526 0.023188 0.034833 0.022646 -0.000862 -0.005688 -0.030071 0.012152 -0.035758 0.002588 0.022919 0.0267 -0.011503 0.012133 0.020922 0.034011 -0.033106 0.027464 -0.016801 0.033257 0.031464 -0.013036 -0.034651 0.018832 0.00472 -0.036114 -0.011492 0.012668 -0.027418 0.028482 -0.02237 -0.003742 0.011544 0.022495 0.014855 0.014112 -0.030989 -0.008239 0.021959 0.030975 -0.034361 0.014608 -0.029387 -0.027419 -0.007819 0.017348 0.018806 0.022009 0.016668 -0.011251 0.002457 0.026771 -0.010419 0.034797 0.004195 -0.012162 0.019826 -0.001167 -0.000191 0.025327 -0.03243 -0.022605 -0.004137 0.025548 0.013831 -0.01312 -0.011674 0.029747 0.028571 0.019656 -0.030662 0.022539 -0.021572 0.034607 -0.01456 0.028495 0.004508 -0.002063 -0.020448 -0.035342 0.013624 0.031676 0.007554 -0.019251 -0.00023 -0.011835 -0.015225 -0.016071 -0.026054 0.022358 -0.009488 0.02015 -0.00922 0.015668 -0.021853 0.004835 0.024818 0.032447 0.022316 0.008083 0.010801 -0.027251 0.013178 0.02535 -0.016979 0.023164 -0.030809 -0.011069 -0.005769 -0.0109 0.016341 -0.018129 0.038054 0.008998 0.009169 -0.014931 -0.029611 0.015475 0.010806 -0.021893 -0.024564 0.006913 0.033955 0.022265 0.00687 0.020707 -0.013977 0.012347 0.012677 0.034789 -0.031404 -0.035339 0.034848 -0.022452 -0.015158 0.030711 0.005932 0.032249 -0.014107 -0.000934 0.004062 0.005751 0.009601 0.006116 -0.027529 -0.017609 -0.02987 0.006148 -0.02207 0.027503 0.018253 -0.012903 -0.003945 -0.018687 0.032349 9e-06 -0.034715 0.011298 0.011558 0.031388 0.034441 -0.012972 0.005229 0.019366 0.003846 -0.02151 -0.017277 0.015058 -0.030385 -0.016 -0.024046 -0.000289 -0.019654 0.021344 -0.023556 -0.007631 -0.008075 0.011748 0.004324 -0.023613 -0.031836 -0.015152 -0.011822 -0.009209 -0.016714 0.021395 0.030541 0.02115 -0.035092 -0.036403 -0.004291 0.014673 0.026916 -0.033215 0.022303 -0.031596 0.021012 0.010292 0.033369 -0.029255 0.020135 0.022462 -0.011744 0.007034 0.015762 0.021195 -0.032701 -0.03179 0.009512 0.033186 -0.028505 -0.008561 0.010726 0.034466 -0.018746 -0.033531 0.028746 -0.035186 0.027525 -0.014787 0.022205 -0.00577 -0.005998 0.02388 -0.007492 -0.034383 -0.001839 -0.03188 0.031506 -0.002012 0.016683 -0.033788 -0.010492 -0.004048 -0.000556 0.022627 -0.008302 0.000726 -0.015955 -0.013828 0.01965 0.004485 0.015012 0.016053 -0.02304 -0.012299 -0.028622 -0.017744 -0.005247 0.033299 0.031382 0.02453 0.01739 -0.009129 -0.0198 0.010413 0.033248 0.00474 -0.011557 0.008139 0.027667 0.00908 -0.025026 0.034674 0.000251 0.016848 0.02546 0.01362 0.036231 -0.02541 0.023399 -0.018434 -0.009608 0.028569 -0.002704 0.03242 0.02061 0.001835 0.032619 0.019621 0.031978 -0.015286 -0.028177 -0.029422 0.011782 -0.001529 -0.017974 -0.000788 -0.028 -0.003511 -0.031216 0.019487 0.018668 0.026725 0.014202 -0.012349 -0.01533 0.010985 -0.004127 0.016674 0.02661 -0.009853 -0.031818 0.002624 -0.021449 0.029178 0.036042 0.003848 0.031986 0.009946 0.022509 -0.006601 -0.01884 -0.00272 -0.011033 0.032728 0.001009 -0.002045 0.006946 -0.008817 0.035347 -0.023485 -0.023228 0.004535 -0.007692 -0.01326 -0.029114 -0.003345 0.03249 0.009949 -0.028563 0.034465 -0.001233 -0.021493 0.03329 -0.032795 -0.001411 0.003924 -0.020221 0.013405 -0.012298 0.006899 0.009179 -0.023963 -0.03486 -0.016277 -0.011107 -0.027769 0.029301 -0.002922 -0.026579 0.021816 0.031073 -0.011865 0.027897 -0.011996 -0.021941 0.032442 -0.014141 -0.01685 0.032328 0.005345 0.026013 0.010008 0.005456 0.010901 0.032908 -0.024429 -0.012964 -0.040318 -0.008998 0.028552 -0.013745 -0.011877 0.01444 -0.017828 0.005218 -0.009809 0.001877 0.022875 -0.032575 -0.003419 -0.034698 -0.031986 -0.028602 0.004661 -0.00956 -0.004388 -0.010782 -0.029126 0.012622 0.013242 0.02401 -0.015581 -0.00054 -0.012032 -0.018569 -0.033681 0.003765 -0.003909 0.033711 -0.03552 -0.003376 0.020848 -0.031182 0.03511 -0.01596 0.029352 -0.015865 0.018031 0.026802 -0.013623 0.004009 0.02375 0.001752 0.024282 -0.032614 -0.031708 0.029866 -0.011428 -0.030003 -0.030368 -0.024625 -0.026506 -0.023987 0.009598 -0.009221 -0.015861 0.026226 0.025827 -0.000671 -0.028834 -0.018426 0.027731 -0.030873 0.018416 -0.035415 0.029686 0.017388 -0.01884 -0.003851 0.014307 0.030089 0.014874 -0.020222 0.004811 0.025947 -0.037934 -0.025994 0.021186 0.006893 -0.010986 -0.030012 0.01451 0.003127 -0.023567 -0.034923 0.005003 0.018995 -0.029771 0.001079 0.024987 -0.019092 -0.035677 0.000492 0.020843 -0.007972 0.012609 0.018291 0.010894 -0.004726 0.009126 -0.010923 0.013865 -0.014518 0.018533 0.017303 0.009888 0.005547 -0.024259 0.027987 -0.020341 0.020734 -0.001786 0.019831 0.01674 -0.033807 0.029567 0.021532 0.018126 0.0099 0.028405 -0.000792 0.028111 0.008392 0.000527 0.034658 0.034407 -0.021388 0.008891 -0.016433 0.007484 0.036956 -0.018178 0.005897 -0.017469 0.017936 0.034081 0.007935 -0.012926 0.028894 0.03003 -0.021578 0.015533 0.036232 0.012462 0.006516 -0.031008 0.03428 0.021325 -0.030214 0.00763 0.037781 0.01698 -0.014947 -0.012834 -0.020756 -0.025531 0.020119 0.024998 0.020173 0.0023 0.019181 0.000455 0.001578 0.03174 -0.02911 0.038385 -0.01809 0.016173 -0.027053 0.02959 0.021185 0.005843 -0.00853 0.012845 0.027381 -0.009611 0.014517 0.017266 -0.01065 -0.000489 -0.011643 -0.000143 -0.001952 0.035325 -0.007945 0.005904 0.001547 -0.00605 -0.027448 0.016395 -0.031454 0.025894 0.035799 0.030373 -0.023945 -0.024398 0.031291 0.031828 0.011388 -0.000757 -0.007065 0.030155 -0.005855 0.00547 -0.028651 -0.008151 -0.002421 -0.019999 0.029823 -0.029861 -0.004784 0.015745 -0.013026 -0.007006 -0.006226 0.000239 0.03559 -0.018718 -0.014107 0.003287 0.03527 0.018645 0.026296 -0.003733 -0.03135 0.003566 -0.024353 0.015825 -0.020182 -0.018262 0.022688 -0.025756 -0.009117 -0.009069 0.006743 -0.005685 -0.016942 0.033057 0.008441 0.024822 -0.016718 0.008094 0.024255 -0.017341 0.033682 -0.018353 0.014804 -0.009001 0.026605 0.009847 0.011033 -0.024752 -0.009241 -0.025324 -0.009201 -0.014528 0.010385 0.020003 -0.023793 0.024977 0.008571 0.032135 0.033401 -0.032469 -0.025379 0.033734 0.023782 -0.002909 0.005305 -0.035716 0.006548 0.032245 -0.01525 0.021429 0.02812 -0.003165 -0.017636 0.019922 -0.011593 -0.015577 -0.032126 0.009738 0.030653 0.028468 -0.02943 -0.0303 -0.022653 0.008664 0.032738 -0.010622 0.030228 0.002827 0.020652 0.025782 -0.022684 0.013923 0.004152 -0.007834 0.002229 0.032927 0.017718 0.004216 