-0.011462 0.020712 -0.017281 -0.025263 0.00884 0.028522 0.028255 -0.002494 0.028031 -0.030043 0.010525 -0.006561 0.012257 0.033092 0.021795 -0.018406 -0.017772 -0.012235 3.5e-05 0.020375 -0.026788 -0.034358 0.005826 -0.019293 -0.034178 0.003269 -0.016141 -0.030478 -0.018283 0.006425 -0.011288 -0.029846 0.026235 0.002756 -0.000422 0.027983 0.024145 -0.015059 0.030215 0.034513 0.020499 -0.0109 0.01106 -0.017838 0.00605 -0.021938 0.025806 0.004983 0.022337 -0.006254 -0.002923 0.018988 -0.005196 0.030306 -0.02044 -0.026083 -0.004273 -0.012543 -0.031208 -0.015864 0.00799 0.013094 0.025761 -0.013904 0.002979 0.002937 -0.021653 -0.006204 -0.022254 -0.013639 0.02206 0.006204 0.0074 -0.028444 0.020215 -0.030935 0.02363 -0.00327 0.017713 -0.02685 -0.0251 -0.011818 -0.034741 -0.032794 -0.03349 -0.02364 0.030486 -0.008386 -0.007446 -0.009076 -0.028344 0.000654 -0.0243 0.019176 -0.014162 0.027828 -0.011982 -0.003631 -0.011628 0.034016 0.017339 -0.02797 -0.018908 -0.001064 -0.030261 0.027493 0.010132 -0.020114 0.034715 0.027159 0.003926 0.020441 0.01215 0.018694 0.009232 -0.011688 0.006847 -0.007018 -0.025501 0.007417 -0.019294 0.024921 0.033126 0.033961 0.018141 -0.009956 -0.03308 -0.019642 0.014165 0.021032 -0.034589 0.016366 -0.023799 -9.7e-05 -0.005951 0.030716 -0.030129 -0.013842 -0.004966 0.021055 -0.00779 0.031739 0.037609 -0.012205 0.013851 0.025824 0.001073 -0.014499 -0.002782 -0.015644 0.012301 -0.006907 -0.008436 -0.009785 -0.030889 -0.024644 0.022775 -0.000409 0.011466 0.034804 0.016226 0.02283 -0.022989 0.022448 0.011311 -0.006963 0.036011 0.036817 -0.001415 0.008959 0.021588 0.017753 -0.023858 0.009247 0.006178 -0.029158 -0.013609 -0.040736 -0.012712 0.004972 0.006663 0.001475 0.017852 -0.021847 -0.030797 0.008654 0.021902 -0.009444 0.0145 0.033081 -0.026424 -0.013286 -0.032038 -0.007172 -0.022641 0.027086 -0.021923 0.017389 0.025098 0.015763 -0.047314 -0.019628 -0.000627 -0.033932 0.022579 0.015598 0.003828 -0.003147 0.020263 -0.006212 -0.02273 -0.024582 -0.025379 0.019284 0.00224 0.022539 -0.018936 -0.021499 0.000899 0.013908 0.022811 0.029356 -0.031491 0.016194 0.028388 -0.018168 0.009926 -0.010299 -0.027712 -0.060241 -0.000806 -0.022777 -0.04564 -0.041072 -0.046212 -0.026891 -0.011958 -0.030878 -0.016021 0.016005 0.025527 0.012583 -0.030027 -0.009225 -0.000548 -0.034163 0.02991 -0.000664 -0.019428 -0.025091 -0.026639 0.013374 -0.029351 0.037623 0.015206 -0.023657 -0.009506 0.023802 -0.00328 -0.023894 0.030237 -0.009964 -0.026958 -0.011175 0.009669 0.015645 0.015287 0.001763 0.004683 -0.015614 -0.020335 -0.010342 0.001467 -0.018155 0.007888 -0.000483 0.017431 -0.020421 0.026103 0.02677 0.017359 0.022346 -0.030369 -0.007646 0.004756 -0.011307 -0.00842 0.033707 -0.036285 0.010816 -0.000368 -0.017634 -0.012764 -0.026397 0.023543 0.033422 0.00871 -0.029912 0.024392 -0.007759 -0.018972 0.034209 -0.016832 -0.025506 0.007967 -0.006853 -0.005929 0.013821 0.011829 0.040914 0.030655 0.039865 -0.007376 -0.016431 0.015257 -0.030674 0.028774 0.023277 -0.027333 -0.02507 -0.031659 -0.035434 0.008513 -0.03053 -0.018563 0.032252 -0.006798 -0.023022 -0.006815 0.028639 0.0351 -0.008341 -0.005805 -0.013933 0.006119 -0.03573 0.007434 0.001235 0.026692 -0.00264 0.014543 0.022434 -0.014296 0.019748 -0.00037 -0.012869 0.011516 0.010275 -0.018479 0.022167 0.027383 -0.02925 -0.022585 -0.034411 0.006817 0.022133 0.023428 0.034389 -0.038448 0.023942 -0.022062 0.029786 0.021371 0.029247 0.018767 0.018315 0.039896 0.028518 -0.032462 0.011398 0.021609 -0.025407 -0.020263 0.030167 -0.031768 0.000687 -0.014606 -0.004533 -0.014545 -0.012697 -0.018686 -0.020657 -0.021976 0.034679 0.003366 0.037948 0.016381 -0.012042 -0.028292 0.015025 -0.033333 0.016546 -0.031432 -0.010097 -0.008056 0.031704 -0.020787 0.002342 -0.017849 0.022419 0.033917 -0.029658 -0.034672 0.022915 -0.011741 0.033745 0.03656 0.044003 0.055788 -0.011284 0.009889 0.01896 0.013481 -0.022054 0.017066 -0.005951 0.009587 0.016395 -0.032503 0.009211 0.02503 -0.014229 0.029271 -0.029725 -0.018482 0.039339 0.025263 -0.005944 0.050832 0.030647 0.020936 -0.005443 0.016252 0.01303 0.067411 0.022305 0.003559 0.002171 -0.024774 -0.000781 -0.013514 -0.002048 -0.03512 0.00533 -0.040274 0.002872 -0.030889 0.01835 -0.019516 -0.014163 -0.028822 0.001243 0.015379 -0.005282 0.011673 0.002698 -0.023734 0.019632 0.024671 0.024685 0.024548 0.014864 0.022415 -0.001242 0.025437 -0.03812 0.042566 0.031531 0.026794 0.020766 -0.022971 -0.012617 -0.013737 0.037806 0.011502 -0.004817 -0.016167 -0.000792 0.00423 0.027332 0.021517 -0.024368 0.008622 0.044932 0.047101 -0.02407 0.004859 0.001814 0.014595 -0.002739 0.022965 -0.01382 0.033528 -0.032878 0.024112 0.017732 -0.015936 -0.020904 0.022172 -0.026831 -0.030234 -0.009899 -0.036498 -0.024582 0.021359 -0.001809 -0.034535 0.00409 -0.008577 0.013911 0.003492 0.041671 -0.019857 -0.020056 -0.017322 -0.021883 -0.020134 0.011102 -0.02162 0.020079 -0.010774 -0.006763 0.0263 -0.018045 -0.028157 0.019302 -0.016672 0.028699 0.022466 0.030391 0.013394 0.036706 -0.010379 0.017137 -0.031672 -0.007986 0.026858 0.032414 0.047148 0.03138 -0.029112 0.007527 -0.028941 -0.009501 -0.03035 -0.030248 -0.025125 -0.030187 0.024808 -0.012854 -0.02784 0.022934 0.03845 0.016569 0.020492 -0.023063 -0.040591 -0.022527 0.029636 0.02518 0.000968 -0.034877 -0.012057 -0.018223 0.0338 -0.000576 0.032392 0.039167 0.030997 -0.006361 0.005465 0.012611 -0.000652 -0.003242 0.029691 0.001065 -0.008488 0.02089 -0.013724 0.010209 0.023015 0.020379 0.03239 0.034656 0.026267 0.007321 -0.030415 0.00918 -0.017164 -0.000743 -0.013671 0.027164 0.015311 0.050057 -0.015568 -0.00462 -0.033218 -0.03079 0.004113 -0.030547 0.001156 0.021079 -0.016449 0.019921 -0.026086 -0.022683 -0.001196 0.020829 -0.026455 0.003962 -0.011742 -0.023063 0.03642 0.005845 0.007698 0.027498 0.032141 -0.008797 0.040273 0.018745 0.014901 0.019068 0.010891 0.023654 0.023006 -0.000737 0.016572 0.006122 0.017278 -0.018176 0.01297 0.008721 0.035822 0.005453 -0.012441 -0.034475 -0.024017 0.010617 0.006076 -0.037195 0.035439 0.034773 0.036507 0.032263 0.030111 -0.007468 -0.024296 0.003027 -0.016006 -0.012152 -0.00475 -0.017533 0.015162 0.030157 0.025176 0.02673 -0.003072 0.024224 0.01724 0.00277 -0.021328 -0.002301 -0.042184 0.017974 -0.004421 0.013098 -0.028157 -0.022007 -0.00788 0.019803 -0.001752 0.022766 0.024213 0.022262 0.023287 0.016177 0.028047 -0.021146 0.028778 0.027193 0.016541 0.027548 0.018599 0.037329 -0.012176 -0.021644 0.020766 0.014407 0.005196 -0.008771 0.006977 -0.040005 -0.036222 -0.025449 -0.015991 -0.021898 0.020959 0.0365 0.028622 0.012236 -0.014095 0.014089 -0.033821 0.032378 0.003279 0.014829 -0.014499 0.024724 -0.026087 0.03898 -0.000474 -0.002157 -0.030105 -0.026837 0.008166 -0.010504 -0.002714 0.026332 -0.014421 0.017747 0.000425 0.027406 0.011431 0.039238 -0.001886 0.018157 -0.019839 0.015802 -0.021101 -0.035945 -0.027621 -0.000161 -0.002863 -0.018473 0.001282 0.021629 0.002363 0.00616 -0.002687 0.035052 0.009411 0.029562 0.01586 0.028809 -0.009107 -0.019541 -0.003431 0.012601 -0.015799 -0.028129 -0.023331 0.015431 0.017415 0.031439 0.037656 0.009061 -0.0378 0.004939 -0.027749 -0.02343 -0.035266 0.003985 0.021669 -0.020527 -0.014501 0.029839 0.003239 0.021279 0.030857 -0.022923 -0.003201 0.002852 -0.024059 0.004656 -0.012741 -0.014049 0.005983 0.012708 -0.022021 -0.034635 -0.031225 -0.017432 0.014378 -0.013168 -0.007438 -0.021069 -0.016217 -0.022013 0.011996 -0.027534 -0.024658 0.018491 0.013749 -0.005519 0.030692 0.01108 -0.027848 0.029803 0.034355 -0.006267 0.020958 -0.02831 -0.009117 -0.034548 -0.008782 0.014707 -0.025056 0.02132 -0.035168 -0.027503 -0.012675 0.026358 -0.012848 0.005068 -0.038878 -0.032485 -0.038827 0.016662 0.00602 0.03672 0.021982 0.032433 -0.004573 -0.030559 0.016145 -0.030979 -0.001419 0.000857 0.019107 0.015777 0.009013 -0.00055 0.019019 0.033744 -0.035395 0.013935 -0.034257 -0.001264 0.015798 -0.032581 -0.009829 -0.03186 -0.039213 0.012307 0.001017 0.005771 -0.007946 -0.022051 0.035548 0.017512 -0.01168 0.007203 -0.006069 -0.034814 -0.02293 -0.026908 -0.002817 -0.003563 0.003265 0.000321 -0.003242 0.033928 0.004414 -0.015343 0.002302 -0.032878 -0.002723 -0.01886 0.021233 -0.030171 0.023974 0.034538 0.033173 -0.007145 0.044053 -0.017715 -0.022417 0.040428 0.035568 -0.030627 -0.041241 -0.040882 0.024244 -0.012639 0.006085 -0.022915 0.019546 0.035213 -0.023827 0.001325 0.005587 0.000536 0.013861 -0.001346 -0.020904 0.015284 -0.043673 -0.024608 0.023578 0.025058 0.016316 -0.015728 -0.00196 -0.025611 0.025196 0.029827 0.024853 -0.023448 -8.3e-05 0.024422 -0.010747 -0.033418 -0.021477 -0.008727 0.004501 -0.010968 -0.026898 0.000331 0.027112 -0.020704 -0.008455 0.0101 -0.015779 -0.024386 0.00026 -0.029918 -0.030285 0.005706 0.002528 0.023503 0.01023 -0.01249 0.013581 -0.013658 -0.024582 0.024183 0.021967 0.023159 -0.032977 -0.026923 0.021196 0.03594 0.025935 0.013954 -0.002307 0.02874 -0.010356 0.013168 -0.037571 -0.015199 -0.018469 -0.019594 -0.024464 -0.005481 0.003538 0.025731 -0.02798 0.015353 0.028257 0.019342 -0.005153 0.00783 -0.000178 -0.032391 0.023359 0.010559 0.00423 -0.024528 -0.014211 -0.021551 -0.006654 0.043169 0.000888 -0.031203 -0.011206 -0.032637 0.014898 -0.020416 -0.00663 0.018083 -0.038128 0.012831 0.010013 -0.029836 -0.006923 -0.02193 0.029217 0.021991 0.007671 0.019411 -0.006649 -0.03194 0.014247 -0.010946 -0.028325 0.0216 0.041418 0.030797 -0.004572 -0.011834 -0.023779 -0.004095 0.020909 -0.033937 0.016721 -0.020312 -0.028028 -0.023765 0.030122 -0.014379 -0.035937 0.029659 0.0006 -0.019484 0.035819 0.005937 0.013274 0.007302 0.001983 -0.008126 -0.033784 -0.023265 0.036483 -0.025059 -0.025104 -0.023358 -0.03723 0.010227 0.026499 -0.030027 0.020917 -0.006459 -0.005636 0.019924 0.00272 0.001 -0.003818 0.017745 0.013316 0.032251 0.000643 0.036531 -0.025994 0.003144 0.042639 0.01976 -0.022704 -0.00859 0.008259 -0.022661 -0.041073 -0.038385 0.013343 0.003255 0.007444 -0.012718 0.03241 0.006929 -0.005928 -0.002944 -0.024301 0.002655 0.000578 -0.022721 -0.000763 0.002474 -0.01781 0.015803 -0.011036 -0.01816 0.037142 -0.012442 0.022583 0.042362 -0.015908 -0.034782 0.004797 -0.030245 -0.030553 -0.024849 -0.030419 -0.015781 0.012684 0.011113 -0.011709 -0.014428 0.027751 0.027712 -0.002558 0.022545 0.034522 -0.032518 -0.031851 0.000324 0.013158 0.039202 0.026589 0.00784 -0.013316 0.009434 -0.018433 -0.02638 0.039615 0.037376 0.0164 0.003872 -0.025706 -0.029842 -0.001121 -0.00949 -0.031233 -0.021758 -0.028917 -0.027807 -0.009255 0.013726 0.031881 -0.017227 -0.011713 -0.000651 -0.031728 0.018353 0.000144 0.014932 -0.030794 0.025314 -0.001585 0.025162 0.041353 -0.008629 -0.028481 -0.019025 0.029363 -0.016021 0.016012 -0.021726 0.027684 0.022745 -0.023599 0.002407 -0.006651 0.019332 0.032884 0.006758 0.019015 0.019521 -0.000461 0.003766 0.001303 0.030671 0.026486 -0.01206 -0.013957 -0.01608 0.019442 -0.036905 0.016055 0.025877 0.017766 -0.017008 0.012619 -0.017425 -0.004072 0.012011 0.00752 -0.009638 -0.048541 -0.036046 -0.030884 -0.026415 -0.036885 -0.006024 0.008893 -0.042248 -0.020718 -0.006394 -0.027427 0.028009 0.043053 0.013215 0.024066 0.000844 0.014918 -0.023682 0.009422 0.027611 -0.023471 0.034284 -0.026482 0.034885 0.032666 -0.003851 -0.049631 -0.039357 -0.053586 -0.053233 -0.036966 -0.031912 -0.013695 -0.018106 0.028689 -0.006445 -0.01389 -0.032609 0.006743 0.016014 0.020384 -0.013222 0.029712 0.018772 -0.027268 -0.017151 0.003057 -0.016728 -0.023602 -0.024601 0.004251 0.031772 -0.012535 0.015485 0.003846 -0.036792 -0.022723 0.023908 -0.037483 0.006692 0.031611 -0.021646 0.014728 0.054815 -0.018809 0.007513 -0.047065 0.013234 -0.024698 -0.035487 -0.04234 0.012954 0.010294 -0.014619 0.040303 -0.025756 -0.010014 0.025358 0.036068 -0.020942 -0.004111 0.023934 -0.00704 -0.028506 0.020421 0.000952 -0.029649 0.022262 -0.022748 0.037238 0.003636 0.002934 0.019517 -0.017708 0.002732 -0.036225 3e-06 0.012536 0.020903 0.023444 0.017996 -0.004646 -0.001401 0.022336 -0.000467 0.006333 -0.034558 0.018833 -0.006467 -0.033544 -0.033827 -0.012847 -0.012643 0.013319 0.033171 0.018319 -0.029786 -0.007626 -0.010877 0.001046 -0.015579 0.001911 0.009045 0.030648 0.03535 0.025573 -0.023493 -0.001998 0.014564 -0.030213 0.011454 0.008918 -0.031587 -0.0238 -0.006216 0.015079 0.034203 -0.02203 -0.009517 -0.027289 0.009328 -0.027673 0.007479 0.030551 -0.021614 0.008618 -0.013575 0.031504 0.019059 0.030638 0.017479 -0.019345 0.007734 0.007748 0.017709 0.010225 -0.011422 -0.022452 0.029085 0.021138 -0.02976 -0.008039 -0.034037 -0.013485 0.034382 -0.01581 0.028142 0.028778 -0.004219 -0.006494 0.030053 0.001115 0.014184 -0.023084 0.003811 0.023658 0.000615 -0.014844 -0.009875 -2.9e-05 -0.008234 0.032059 -0.000354 0.029372 0.000381 0.00855 -0.023921 -0.014793 0.028554 0.02543 -0.013323 0.02968 -0.019799 0.025632 0.006021 0.027967 0.008895 -0.035947 -0.02613 0.008434 -0.011591 -0.025886 -0.03038 -0.028267 -0.012789 0.003964 -0.003634 0.010064 0.015146 0.016297 -0.002485 -0.007164 -0.026514 -0.035527 0.015094 0.013208 0.009068 -0.001616 0.005116 0.002346 -0.02327 -0.002184 0.021629 -0.026747 -0.031901 0.011264 0.013762 -0.020366 0.026467 -0.031729 -0.012826 0.012245 -0.018115 -0.021197 -0.003996 -0.0176 0.02155 -0.03103 -0.016865 0.025858 0.027498 0.011272 -0.002137 -0.045317 0.010948 0.000143 0.013855 0.035512 0.014837 -0.006819 -0.012905 -0.004654 0.02964 -0.027916 0.026678 -0.022458 -0.02715 0.028507 -0.009692 -0.012419 -0.032184 0.024011 0.019269 -0.046722 0.016827 0.046764 0.023503 0.010008 0.002018 0.004505 -0.043577 -0.013375 -0.01714 -0.025773 -0.031458 0.000343 0.027453 0.035035 0.029525 -0.018855 0.027536 -0.017869 -0.023634 0.005132 -0.007202 -0.005101 0.009367 0.02193 0.008726 0.003496 0.022803 0.004597 -0.010776 0.034012 -0.01858 0.033244 0.015415 -0.033173 -0.003342 -0.016864 0.030127 0.013848 0.029544 -0.023602 -0.028422 0.038332 -0.012817 -0.028299 -0.017665 0.027616 0.039535 -0.021293 -0.013458 0.011421 -0.027762 -0.01305 -0.017552 -0.020775 -0.029571 0.008239 -0.043772 0.030612 0.053242 0.028722 0.0078 -0.001297 -0.001043 -0.032152 0.008814 0.025111 -0.025823 -0.032812 0.007983 0.008269 0.016306 0.00277 -0.003738 -0.032458 -0.033538 0.029554 -0.020637 0.03011 0.033357 0.033531 -0.004158 -0.007349 -0.022395 -0.018282 0.033834 0.027694 0.038584 0.013624 0.015234 -0.004849 0.002777 -0.026457 0.018888 0.031236 0.038209 -0.009067 -0.020003 0.002718 -0.015026 0.028858 -0.015173 0.021463 0.000662 0.038298 0.035686 0.014115 0.000687 -0.02588 0.026831 0.028035 -0.02985 -0.018748 0.002256 0.024969 0.030215 -0.018006 0.008905 0.0028 -0.022437 -0.011459 -0.020645 0.02186 0.004689 -0.005468 -0.004697 0.0379 0.031913 -0.005921 0.029301 0.028996 0.03078 -0.031931 0.002827 -0.019093 0.007397 0.038655 0.001285 -0.009164 -0.013542 0.028406 -0.031839 -0.013958 -0.021132 0.008445 0.010132 -0.004578 -0.006871 -0.028539 0.026397 -0.03025 -0.01948 0.000837 -0.009142 -0.021136 0.020176 -0.000162 0.02118 0.012188 -0.03515 0.031717 -0.003172 0.038558 -0.008638 -0.016938 0.027606 0.029617 -0.031821 -0.006869 0.027618 -0.028254 0.017676 -0.02159 0.03329 0.01366 0.008944 0.022044 0.025881 0.008899 -0.007513 -0.005384 0.03847 -0.024229 0.032392 0.016158 -0.020371 -0.008249 0.030234 0.019146 -0.003673 -0.020173 -0.01811 -0.001716 -0.019977 -0.010984 -0.004939 0.020983 0.014201 -0.027296 -0.033012 0.025042 -0.016559 -0.037528 -0.021927 0.015567 -0.006236 0.016578 0.036112 0.014698 0.025085 -0.014818 0.001123 -0.014468 0.025348 0.033453 -0.015342 -0.013249 0.027215 0.031128 0.01236 -0.011157 0.010201 -0.011974 0.013288 -0.024469 0.006572 -0.017119 -0.01737 -0.027817 0.00723 0.003732 -0.021611 -0.013179 -0.022331 -0.005378 -0.020375 -0.021967 -0.033053 -0.019016 -0.017674 -0.001248 -0.013814 -0.000593 0.029906 0.028145 -0.004448 7.2e-05 0.034646 -0.019167 0.001838 0.031201 0.010144 0.028365 -0.00134 0.009625 0.019123 -0.023055 0.027577 -0.036961 0.018598 -0.002525 0.020595 -0.035647 0.02229 0.008558 0.021206 -0.025386 0.034831 0.009057 0.029955 -0.01225 0.024185 0.002352 0.011341 0.013591 -0.01003 -0.006138 -0.007853 0.027444 -0.028084 -0.022712 0.032105 -0.022739 -0.015159 -0.021913 0.012984 -0.028885 -0.028697 0.012875 0.011826 -0.021713 0.017803 0.018561 -0.008475 0.022134 0.008872 0.011662 0.019736 0.021971 0.002065 0.016527 -0.010006 -0.031328 0.034301 -0.003266 0.023619 0.034339 0.023461 -0.025848 -0.0198 0.01908 0.017665 0.024952 -0.015575 0.015192 -0.008475 0.028054 -0.016124 -0.010125 0.001852 0.012013 -0.017072 -0.011317 0.034799 0.026855 0.001634 0.030751 8.6e-05 0.013327 0.011199 -0.025702 -0.034838 0.024228 0.034388 0.023336 -0.022488 0.036595 0.038373 0.005713 0.009305 -0.014823 0.023869 0.005248 -0.0221 -0.033453 -0.026325 -0.025339 0.012924 0.003385 0.028063 -0.033615 -0.011776 0.000835 -0.010401 -0.034276 -0.017045 -0.016531 -0.022809 -0.002455 -0.032039 0.017131 -0.015867 -0.035864 0.003332 -0.008242 -0.01764 0.026516 0.005059 0.004403 -0.013598 0.019511 -0.005498 0.031008 -0.02347 0.003543 0.026413 -0.013802 -0.036295 -0.029364 -0.011215 -0.037566 -0.01416 0.025188 -0.003641 -0.004926 -0.020764 0.019517 0.019432 -0.021414 0.022602 0.011072 -0.035902 -0.016388 0.037188 0.017918 -0.035315 -0.013539 -0.016421 0.000211 0.030385 -0.003161 0.027958 0.032089 -0.03231 -0.013129 -0.000808 -0.006675 -0.004183 -0.00268 -0.012485 0.041763 0.029552 -0.013639 0.020354 -0.04185 0.013905 -0.01027 0.001163 0.009121 0.017549 -0.006166 0.033387 0.020304 0.015092 -0.026526 0.009833 0.031805 -0.016317 -0.020534 0.004775 0.016707 0.025154 -0.004948 -0.040965 -0.031308 0.002923 0.036087 0.020426 0.03883 -0.005339 -0.017514 -0.019749 0.003686 -0.023001 0.009789 -0.010543 -0.006792 0.017964 -0.020185 -0.030116 0.011351 -0.028017 0.021117 -0.00174 0.010719 -0.026967 0.023635 -0.001472 0.011878 -0.040896 0.003787 -0.008319 -0.033503 -0.021202 0.037055 0.029339 0.006075 0.016171 0.009323 -0.044326 0.015539 -0.006487 -0.020253 0.040502 0.018794 0.012079 -0.006037 -0.005214 -0.007269 0.024548 -0.017504 0.026282 0.03113 0.01346 -0.004726 0.003389 -0.004927 0.011232 0.02715 -0.012586 0.027812 -0.010671 0.003765 0.032733 0.032868 -0.016665 0.025176 0.002901 -0.010564 0.033484 0.034284 0.02535 -0.014161 -0.031996 -0.014166 0.006212 0.042546 0.017591 0.01745 0.028138 0.017641 -0.010397 -0.006698 0.02332 -0.011687 0.01143 0.002187 0.019777 -0.035237 0.01462 -0.012467 0.037263 0.000717 -0.024112 -0.018835 0.014957 -0.00801 0.002925 -0.019512 0.02035 0.004535 0.015927 0.026094 0.014422 -0.004744 -0.01932 -0.004781 -0.010766 -0.000223 -0.034997 0.005826 -0.013923 0.028916 -0.029836 0.029723 -0.023341 0.004852 0.00833 -0.007262 0.005653 -0.020351 0.037339 0.009063 0.027241 -0.027118 -0.001624 -0.032896 0.028358 0.023897 -0.022804 0.025904 -0.021713 0.013036 -0.007248 -0.013608 0.006881 0.017114 -0.020861 -0.013052 -0.004683 -0.006616 0.02919 0.018568 0.00808 -0.047953 0.002049 -0.01422 -0.006105 0.022786 0.009723 -0.024065 0.029272 -0.025091 -0.000488 0.007541 0.027894 0.001747 0.018222 -0.010963 0.032448 0.010542 -0.034432 -0.040727 0.00076 -0.034761 -0.000815 0.040022 -0.00895 0.019407 0.020361 0.007893 0.008212 -0.012038 -0.016725 0.017638 0.024349 0.020283 0.018731 0.028767 0.009126 -0.028387 0.010924 -0.01563 0.030192 -0.001366 0.029974 0.023033 0.02599 0.011596 -0.014882 0.014855 0.028489 -0.022669 0.021051 0.028767 -0.025876 -0.001181 -0.01547 0.008602 0.032223 -0.002712 -0.021782 0.00937 0.011461 -0.018052 0.016838 -0.018755 -0.027861 -0.00432 0.033429 -0.011153 -0.016744 0.025809 0.012109 0.017621 -0.019297 0.015159 -0.026188 -0.018334 -0.003983 0.017861 -0.002243 -0.009335 -0.032719 -0.021515 0.008283 0.003015 0.017037 -0.000163 0.006381 0.035641 -0.005224 -0.031632 0.03014 -0.024624 -0.018232 0.024423 0.031942 -0.002473 -0.00469 0.002713 0.008909 0.047294 -0.001465 -0.00952 0.025831 -0.004884 0.01196 -0.009532 0.022623 0.010607 0.008867 -0.016822 -0.002131 0.004008 -0.010973 0.018789 0.008355 0.016617 0.004949 0.033207 0.026312 0.004712 0.012992 0.008517 0.012344 0.021964 -0.019944 0.042456 0.01898 0.022652 0.007604 -0.025757 -0.02702 -0.018484 0.008127 -0.006744 -0.010976 -0.017704 -0.012607 -0.03347 0.01205 -0.00726 -0.018577 0.01034 0.002319 0.035838 0.035104 -0.014421 -0.000748 -0.032851 -0.001853 -0.012772 -0.010086 -0.016862 -0.001837 0.025497 0.026587 -0.001165 -0.022861 -0.027666 -0.009177 0.025861 0.02977 0.000519 -0.027305 -0.028566 0.033497 0.020269 -0.015518 -0.01912 0.014074 0.031668 0.001941 0.022034 0.002205 0.006296 0.0102 -0.006518 0.025054 0.019595 0.007781 -0.01473 0.007591 -0.007138 -0.016543 -0.01128 0.034161 0.005267 0.026785 -0.028949 -0.003405 0.004861 -0.025008 -0.027979 -0.020551 0.005779 -0.020844 0.040134 0.041243 0.02448 -0.004031 0.000198 -0.00594 -0.011636 0.006353 -0.028406 -0.034416 -0.00477 0.02483 -0.013735 -0.012529 -0.021897 -0.006474 0.009204 -0.000125 0.01752 -0.007603 -0.035111 -0.014026 -0.001579 0.020072 0.028062 -0.031645 -0.022859 -0.002228 0.001533 0.03075 -0.017653 0.012856 0.019288 -0.032197 -0.047454 -0.012126 -0.032692 0.016975 -0.038592 0.029533 -0.017552 0.004907 -0.00158 0.024593 0.003713 -0.014007 -0.013272 0.013121 -0.02554 -0.008877 0.00683 0.000617 0.014651 0.010968 0.022715 -0.01571 0.036106 -0.01721 -0.030376 0.027224 0.001199 -0.032422 -0.046937 -0.026096 -0.016513 0.009868 0.003084 -0.03066 0.006115 -0.020758 -0.020288 0.022611 0.033164 -0.00758 0.021698 0.030419 -0.017614 -0.044416 -0.028842 -0.028098 0.015672 -0.016475 0.024754 -0.031252 0.00531 -0.006486 0.020147 -0.013969 0.01096 -0.038757 0.012799 0.009799 -0.017524 -0.000387 0.030143 0.014036 -0.000842 -0.005314 0.023132 0.027263 -0.002986 -0.034817 -0.026299 -0.000116 -0.028927 -0.039992 -0.034714 0.006451 -0.016948 0.012076 -0.016533 -0.005025 -0.011923 -0.009338 -0.016556 0.010779 -0.027002 0.028711 -0.027424 -0.020446 -0.039464 0.007641 -0.033604 -0.025321 -0.015357 0.020106 -0.002191 -0.010475 0.032137 -0.018126 -0.017141 -0.012461 0.001046 0.035298 0.029029 0.019835 -0.017349 0.020043 0.022512 0.02982 0.001437 -0.018068 -0.023217 -0.00109 0.000337 0.031265 -0.002797 -0.013545 0.016447 -0.023703 -0.026248 0.019943 -0.020472 -0.014765 0.024604 0.018129 0.016039 0.017464 0.005416 0.008428 0.011611 -0.011665 -0.000127 0.030065 -0.015344 0.024435 0.020984 -0.031982 0.027099 0.027594 -0.005877 0.023551 0.023466 0.02774 0.01835 0.018205 -0.02999 -0.027851 -0.019541 -0.017656 -0.003816 -0.020882 -0.00925 0.04517 0.035354 0.04442 0.00511 0.026121 -0.018471 0.018584 0.025421 0.027556 -0.021537 0.027778 -0.028921 0.019369 0.029997 -0.006816 0.016272 -0.027924 -0.008539 -0.034896 0.023169 -0.005689 -0.017928 0.02089 -0.02648 -0.009038 -0.010865 -0.01718 -0.023948 0.010728 0.011569 0.045213 0.027091 -0.012949 -0.008174 -0.001583 0.009673 0.018754 0.010707 0.022176 0.031139 0.030696 -0.000607 0.009222 0.015872 0.01249 0.011713 -0.031067 0.027174 -0.007728 0.019718 0.010393 -0.018594 -0.029332 -0.0302 -0.007692 -0.033119 -0.005459 0.024816 -0.030611 0.031755 0.019627 -0.031343 -0.033217 0.003261 0.010375 -0.032538 -0.01578 0.018511 0.003915 -0.015866 -0.048489 0.010021 -0.019725 0.016306 0.003086 0.018288 -0.026277 0.018877 -0.043255 -0.001287 -0.002476 0.020209 -0.008453 -0.010128 -0.002513 -0.002925 -0.027194 0.002763 0.03251 -0.02402 0.029051 -0.006107 0.013672 -0.010713 -0.031492 -0.028494 0.003222 0.024116 0.00965 0.00332 -0.003146 0.017984 0.044039 -0.007192 0.00331 0.021071 -0.032086 -0.018206 -0.048452 -0.029724 -0.023083 -0.033957 0.011872 0.016873 -0.003716 -0.012995 0.035521 -0.022849 -0.007838 -0.009592 -0.035815 -0.035514 -0.028903 -0.027691 -0.027912 0.035409 0.005766 -0.010273 -0.008913 -0.027563 0.000786 0.029418 -0.021366 -0.017364 -0.028213 -0.040238 0.012658 -0.008452 -0.019708 -0.003031 -0.019868 -0.026226 -0.017701 0.013685 0.024343 0.013236 0.003909 -0.023452 -0.021394 -0.016837 0.024374 -0.008793 -0.021821 -0.010578 -0.007921 -0.010376 -0.02321 0.02414 -0.029702 -0.015293 -0.042894 -0.051444 -0.050238 -0.025008 -0.040085 -0.024895 -0.02255 -0.022357 -0.006549 0.029501 0.015552 -0.0153 -0.01405 -0.029338 -0.019536 -0.033323 0.024498 0.031424 -0.027782 -0.017576 0.014292 -0.013908 0.005652 0.009202 -0.000528 -0.03591 -0.007665 0.029518 0.006137 -0.026094 0.023987 -0.006648 -0.019109 0.022392 0.010233 -0.008378 0.009497 0.029943 0.015735 -0.022131 0.004017 -0.011242 0.007331 0.023014 -0.021825 -0.015765 0.031876 -0.003354 -0.006408 -0.011957 -0.012326 -0.009296 0.007378 0.014812 0.028941 -0.0154 0.028091 0.008649 -0.021549 -0.020079 0.012129 0.019741 -0.010384 0.00296 -0.008805 0.008477 -0.024212 -0.028187 0.036339 0.015519 0.006942 -0.026116 -0.009145 -0.031721 -0.015893 0.004456 -0.03348 0.001802 -0.002089 -0.013053 -0.006653 0.033619 -0.015089 0.031992 0.027285 -0.026295 -0.00317 -0.033825 0.009088 0.029347 0.007014 0.037653 -0.00267 -0.028133 0.001162 -0.021408 0.00993 0.021192 0.025745 -0.016224 -0.017254 0.03219 -0.017908 0.010863 0.021296 0.005453 -0.022695 0.013195 -0.003658 -0.019432 -0.022449 -0.009426 -0.01534 -0.028982 0.010823 -0.024309 -0.03006 0.030653 -0.025131 0.006269 0.002887 -0.006285 0.040878 0.034629 -0.012809 -0.018461 -0.012403 0.006209 0.018696 -0.019771 0.02534 -0.005818 -0.007833 -0.012092 0.029007 -0.008444 0.012308 -0.034034 0.014004 0.007995 0.008405 0.015414 0.017332 0.010077 0.023694 0.034029 0.007475 0.021683 0.016401 0.028547 -0.010767 0.005989 0.026274 0.012647 -0.014905 -0.000871 -0.031378 -0.019929 -0.025801 -0.014396 0.028163 -0.024661 -0.031133 -0.028349 -0.010783 -0.029398 0.030725 -0.007204 -0.00071 -0.012081 -0.002954 0.00654 -0.044855 -0.032834 0.030239 -0.015081 0.016421 -0.033532 -0.035905 -0.003441 -0.035757 -0.026291 0.013471 -0.001422 -0.024807 -0.001299 -0.017113 -0.005021 0.032377 0.035337 -0.007027 0.027691 0.031252 0.026457 -0.025204 0.039086 0.032595 -0.037547 0.005343 -0.030385 0.02051 -0.020755 0.020756 0.004156 -0.030049 0.021528 -0.017239 0.024467 -0.016825 -0.030385 -0.023092 0.01116 0.016328 0.032199 0.013686 -0.025869 0.034275 0.025472 -0.026186 -0.010159 0.012507 0.02982 -0.024097 -0.02063 0.013421 -0.020647 -0.017934 -0.023185 0.019038 0.0048 0.024687 -0.017703 0.006443 0.012159 -0.022205 0.034965 -0.007779 -0.018907 0.001735 0.022794 -0.012374 -0.011577 -0.00428 -0.01433 0.028486 -0.006153 -0.014526 -0.036565 -0.017031 -0.009599 -0.029723 -0.013802 -0.000849 -0.014115 0.025612 0.028456 0.031762 -0.017938 0.001266 0.014633 -0.038181 -0.018355 -0.028946 -0.026131 0.018772 0.026274 -0.036196 -0.001083 0.015806 -0.013354 -0.029378 -0.029857 -0.002665 -0.011071 -0.034273 -0.029392 -0.009333 -0.016496 -0.015416 0.00772 0.025221 -0.032169 0.023944 -0.006778 0.019783 -0.023407 0.022935 0.013438 -0.021955 -0.037951 -0.015858 -0.003244 0.002744 -0.035079 0.002057 -0.010257 -0.03217 -0.023201 -0.02648 -0.024895 0.004993 -0.006909 0.017128 0.001335 0.016911 0.008803 -0.026941 0.010239 -0.013523 0.002925 0.021146 -0.026402 0.012419 -0.036559 -0.027384 0.019984 0.020364 -0.00797 0.016977 -0.033823 -2e-06 -0.018484 -0.025862 -0.022527 -0.022554 0.018972 -0.03681 -0.043856 -0.025407 -0.038358 -0.021857 -0.020694 0.01408 0.011816 -0.013476 -0.004139 0.005921 -0.011507 -0.02756 0.011621 0.009219 -0.02192 -0.006453 -0.032682 -0.011924 0.027018 -0.030737 0.002579 -0.009317 -0.001676 -0.000236 -0.021022 0.000383 -0.025102 -0.000105 -0.006403 -0.033276 0.013982 -0.03952 0.005398 -0.000649 0.023399 0.026854 -0.00764 -0.017567 0.00125 0.006202 -0.003681 -0.0336 -0.020079 0.02105 0.015831 0.006513 0.016632 -0.021589 -0.029044 -0.041663 -0.038412 -0.018729 -0.001144 0.040629 -0.009116 -0.007645 -0.044058 -0.034516 -0.001952 0.001008 -0.017052 0.014577 0.017412 -0.024399 -0.023933 -0.016898 -0.030151 -0.031895 0.010157 -0.034904 -0.00281 0.030426 -0.01224 -0.024345 -0.007182 -0.01377 -0.00166 -0.000182 -0.003786 -0.013725 0.022987 0.026264 -0.018568 -0.025603 -0.011775 0.013301 0.004517 -0.035241 0.02904 0.036922 -0.015748 0.021827 0.028442 0.021746 0.035302 -0.003175 -0.039893 -0.041402 -0.038234 0.016823 0.005078 -0.038586 0.026149 0.000882 -0.036364 0.011614 -0.021017 -0.004293 0.016972 -0.022586 -0.006913 -0.013 -0.007168 0.005812 -0.032211 0.021701 0.021207 -0.001621 -0.02752 -0.028971 0.009188 0.040435 0.014832 0.014511 0.023112 -0.039885 -0.041964 -0.009989 0.000995 0.009098 -0.005586 -0.011816 0.013737 -0.020719 0.003245 0.020558 -0.002089 -0.003381 -0.03655 -0.031957 -0.029573 -0.010428 0.022228 0.014756 -0.008334 -0.018363 0.024612 -0.006886 0.041233 -0.007611 0.020926 0.005195 -0.00997 -2.9e-05 -0.003137 0.011799 0.021218 -0.017371 -0.023263 0.002738 0.031573 0.001192 -0.027827 0.010951 0.0233 -0.03059 -0.006422 0.007826 0.002412 0.015278 0.024544 -0.023251 -0.012331 -0.020507 0.000643 -0.021291 -0.017993 0.043049 0.037459 0.037098 0.007384 0.024686 0.034883 0.013831 0.015516 -0.023207 0.006343 0.011764 0.011316 0.02854 0.033154 0.003868 -0.010087 -0.011974 -0.014869 -0.02844 -0.032332 -0.008406 0.028422 0.004036 0.025242 0.01456 -0.007611 -0.003263 -0.004136 -0.001934 0.001436 -0.03112 -9.3e-05 -0.018844 -0.012147 -0.027766 -0.007422 -0.019303 -0.01657 0.002463 0.022687 0.025403 0.021917 -0.01013 -0.023407 0.014502 0.010418 0.023749 0.008723 -0.044708 -0.047593 -0.034345 -0.020648 -0.004827 0.031508 -0.030503 -0.031368 -0.037691 -0.016166 -0.027815 -0.032846 -0.027874 -0.009577 0.003945 -0.005187 0.012793 0.008577 -0.024232 0.009334 -0.006161 0.004155 -0.038659 -0.026817 0.000625 0.027002 0.013794 -0.024668 -0.055418 -0.037491 -0.002359 0.013125 -0.010039 0.015282 -0.025504 0.013446 -0.030008 0.012289 -0.016846 -0.030177 -0.004584 -0.027278 -0.01839 -0.017291 -0.015547 -0.014834 -0.025543 -0.011155 0.021913 -0.001827 0.017743 0.018688 0.007954 0.017252 -0.002016 0.019859 -0.023499 -0.026025 0.006074 -0.019407 0.022605 -0.026307 -0.025599 0.021328 -0.041085 -0.01622 -0.011874 -0.006537 -0.028382 -0.032722 0.028044 0.036083 0.018402 -0.030051 0.036367 -0.032694 0.014068 0.013787 -0.035271 -0.033103 0.006656 -0.018046 -0.009701 -0.023538 -0.05546 0.012173 -0.026372 0.020473 -0.002239 -0.040133 -0.026405 0.025188 -0.027695 -0.016626 -0.028865 0.012858 0.00525 0.006034 0.030404 -0.019951 0.022617 0.004835 -0.029984 0.02911 0.026008 0.017091 -0.039676 0.012211 -0.013127 -0.009233 -0.01678 -0.021403 0.017887 0.015582 -0.021162 -0.005266 -0.003667 -0.010666 -0.007451 -0.022936 -0.009116 0.014072 0.004097 -0.016825 0.006738 0.006133 -0.021726 0.013278 0.02248 0.014288 0.015812 0.028488 -0.015201 0.000664 0.016191 -0.046938 -0.012403 -0.03087 0.01078 -0.006859 0.014805 0.015217 0.005098 -0.030094 0.00568 -0.031547 0.03394 -0.032766 -0.019785 -0.025262 -0.011258 0.021564 -0.02803 0.004979 0.016548 0.01613 0.010116 0.037146 0.01495 0.017559 -0.014121 -0.047423 -0.006105 -0.021318 -0.024995 0.015794 0.000105 0.008728 -0.020914 -0.029854 0.022962 0.015958 0.01283 0.014049 -0.018391 0.033303 0.008949 -0.038749 0.017989 0.020145 0.00357 -0.002187 0.005979 -0.010863 0.003496 -0.030107 -0.029225 -0.030339 -0.002392 -0.000623 -0.041202 -0.034932 0.001307 0.021546 0.033619 0.029048 -0.00358 0.027256 0.01947 -0.032865 0.004538 0.023177 0.037438 0.017165 -0.027192 0.010335 0.00927 0.014899 -0.017792 0.007221 -0.021542 -0.005914 -0.044525 -0.001317 -0.016687 -0.05263 -0.016976 0.006739 0.005305 -0.032749 -0.027787 -0.012354 -0.023031 -0.001533 0.034152 0.013433 -0.016896 0.010132 -0.010496 -0.029331 0.019397 0.021603 -0.009054 -0.009416 -0.020694 -0.007876 -0.018513 0.024533 0.017253 -0.034687 -0.027613 -0.022659 -0.0318 -0.032257 -0.024699 0.007301 -0.012304 -0.024737 0.013551 -0.017061 0.036131 -0.002631 0.010703 0.041082 -0.004998 0.003133 -0.029506 0.027805 -0.00075 0.031587 -0.003856 -9.8e-05 -0.006834 0.013045 0.001559 -0.01351 -0.003246 -0.01983 -0.024646 0.007431 -0.001441 0.007683 0.025256 -0.029028 -0.004162 -0.010618 0.037184 -0.033791 0.037155 0.03599 0.022776 0.036139 0.030624 -0.014113 0.030843 0.035477 -0.000653 0.018861 0.025724 -0.003254 -0.031406 -0.030878 -0.023506 -0.010952 0.008947 -0.001803 -0.015042 -0.002001 0.029537 -0.008194 -0.023383 -0.032787 0.005901 0.025646 0.001117 -0.010407 -0.017841 0.014758 0.036493 -0.014448 -0.004779 0.008599 -0.024155 0.004431 0.033635 -0.007486 -0.007129 -0.033189 -0.010676 -0.023203 -0.01238 0.000948 0.016586 0.000848 0.009324 0.025443 -0.008572 0.014933 -0.025595 -0.033361 -0.016339 0.01352 -0.031608 0.002393 0.007585 -0.029289 -0.012937 0.010933 0.030646 0.020867 -0.028583 -0.016021 0.017559 0.006906 0.020107 0.006791 0.01592 -0.032764 0.024947 -0.021577 -0.014959 -0.011726 0.017409 0.002563 0.012254 0.009135 0.009188 -0.001508 0.01441 -0.006166 0.016703 0.001258 -0.029085 0.021739 0.033466 -0.014903 -0.015304 0.039403 -0.01384 0.016682 0.016177 -0.021931 -0.011171 -0.002331 -0.027498 -0.000405 -0.021002 -0.024631 0.027843 0.041936 0.005685 -0.011333 0.04315 -0.024927 -0.001672 -0.012524 -0.01656 0.019219 -0.02193 -0.002464 0.007072 0.035863 6.4e-05 0.034491 -0.009819 -0.000744 -0.010302 -0.014939 0.000687 0.005921 -0.003242 0.011523 -0.035833 -0.001659 0.006935 0.02599 0.001543 0.035927 -0.013875 0.039351 0.023102 0.012408 0.000251 -0.036417 0.008612 -0.010672 -0.019917 0.01012 0.017814 -0.019199 -0.016893 0.015118 -0.006991 0.003626 -0.019653 0.005156 -0.019086 0.00507 0.03161 0.006552 0.027726 0.029081 -0.003519 0.025153 -0.007084 0.034328 0.000578 -0.016078 0.03716 -0.006315 0.033258 -0.008212 0.019691 -0.021371 -0.019554 -0.01169 0.024913 0.020925 0.010418 0.018118 0.023 -0.035939 0.011903 -0.002073 -0.010044 -0.013967 -0.029823 -0.01998 -0.002353 0.031355 -0.018146 -0.037501 0.020965 -0.026696 0.035383 0.00877 -0.016126 -0.007151 0.034735 0.021753 0.032898 0.007364 -0.024646 0.004037 0.012339 0.001648 -0.012171 -0.031691 0.02758 -0.034239 -0.000824 -0.001537 -0.005772 0.033375 -0.000814 -0.023865 -0.016308 0.032266 -0.032423 0.001584 0.00375 -0.033802 -0.004934 -0.018561 -0.01698 -0.00854 0.00868 0.030577 -0.032764 -0.002238 -0.007641 0.013097 -0.001316 0.011642 0.003582 -0.008498 -0.015148 -0.019002 -0.007091 -0.022378 0.036689 0.029485 0.010288 -0.000826 -0.007296 -0.014532 -0.004085 -0.026778 0.040821 -0.00741 0.020046 -0.008499 -0.027195 0.034507 -0.024458 -0.025155 -0.030344 -0.033489 0.00413 -0.013352 0.03528 -0.014771 0.020739 0.010231 0.001361 -0.019853 0.000238 -0.032115 -0.010155 0.031096 0.027963 -0.002223 -0.033689 0.016335 -0.024471 -0.00722 -0.016868 -0.031845 -0.033612 0.025254 -0.017141 0.001161 0.016869 0.01543 0.034397 0.004766 0.012042 -0.018017 0.016635 -0.002354 -0.017853 0.030404 -0.013793 -0.023077 0.02134 0.022003 -0.028761 -0.033876 -0.012328 0.019552 -0.023225 0.009101 -0.005278 0.04224 0.000845 5.3e-05 -0.014075 -0.021636 -0.027105 -0.026514 -0.003451 -0.011875 -0.026994 0.015174 0.021096 0.003066 -0.017682 0.007163 -0.001788 -0.023204 -0.026734 -0.006815 -0.01506 -0.027455 -0.017324 -0.038206 -0.006596 -0.045265 -0.018832 -0.026919 0.041106 0.039543 0.020979 -0.021362 0.015024 0.00608 -0.004425 -0.000692 0.019667 0.023332 -0.031305 -0.009218 -0.024297 -0.005737 4.8e-05 -0.025533 -0.001981 0.029107 0.021663 0.015912 0.030982 0.010119 0.003824 0.01953 0.003234 -0.008539 0.028294 -0.013902 0.007984 0.015228 -0.01678 -0.020754 0.018439 0.018257 0.037811 -0.013101 0.000278 0.022838 -0.001058 -0.012225 0.004586 -0.02714 -0.026066 0.023603 0.034736 0.00018 0.008127 0.011402 -0.019128 -0.003983 0.031525 0.004552 0.029438 -0.027509 0.00875 0.000701 0.009256 -0.025777 0.002514 0.027075 -0.030265 -0.014111 -0.002224 0.031099 0.040879 0.030414 -0.036638 -0.037033 0.019748 -0.016036 -0.019745 0.031525 0.037503 0.036284 -0.011096 -0.020574 -0.009154 0.019582 0.014473 -0.00729 -0.027604 -0.027185 0.029085 0.02321 -0.034647 0.001611 0.029667 -0.022667 0.010547 -0.000779 0.011958 0.004584 -0.022471 -0.014791 -0.011361 -0.008308 -0.009613 -0.027848 -0.002614 0.035533 0.039156 0.033388 0.005955 -0.010622 -0.016087 0.045336 0.035413 -0.020858 -0.000385 0.031607 -0.012207 0.005137 -0.022336 0.026056 -0.014156 -0.012674 0.009772 -0.029081 0.03711 -0.00601 0.031838 -0.029613 -0.038804 0.024588 0.002353 -0.004011 -0.016018 0.009871 0.039805 0.027969 0.009304 0.017735 0.023491 0.005404 -0.019067 0.026907 -0.009515 0.014588 -0.010896 0.012508 -0.004761 0.016396 0.016378 -0.019143 0.01499 0.002186 -0.025076 0.017756 -0.014696 -0.011166 -0.028641 -0.018558 -0.005215 0.022647 -0.032809 0.023597 0.008432 -0.013584 0.005194 0.022934 -0.038074 -0.019092 0.014739 0.000154 0.027533 -0.025523 -0.008194 -0.011343 -0.025574 -0.000234 0.001247 -0.019698 0.006675 -0.034141 -0.008368 0.030643 -0.037699 -0.025067 -0.014925 -0.034103 0.001845 0.000265 -0.006341 0.002199 -0.001861 0.013291 -0.017879 -0.034974 -0.015415 0.018323 0.014183 -0.021626 0.000563 -0.002916 -0.023991 0.024353 -0.013103 -0.009439 -0.040344 0.012279 -0.003756 0.004273 0.010765 -0.039574 -0.046169 0.006945 -0.010205 -0.030735 0.010718 -0.034736 0.033818 -0.018325 0.016428 -0.000511 0.032333 0.009089 0.021939 0.024676 -0.010306 0.009162 0.021486 0.00763 -0.043571 0.027359 -0.032904 -0.009563 0.000915 -0.024277 0.015342 0.025338 -0.026729 0.028859 -0.016964 0.021806 0.024167 -0.002669 -0.016906 0.009213 -0.007971 -0.034782 -0.030841 -0.006777 0.004574 0.019201 -0.030268 0.010024 0.013212 -0.027792 0.032674 -0.018271 0.004396 -0.026737 0.041889 0.010751 0.021001 0.014309 -0.010699 -0.023728 -0.029477 0.017546 -7.3e-05 0.003509 -0.011298 0.019269 -0.009511 0.011013 -0.011852 0.027542 0.024545 0.026934 -0.025034 0.002213 0.020057 0.014512 -0.00529 0.016333 -0.040265 0.000171 0.013633 0.007279 0.011188 0.020443 0.002345 0.017983 -0.018175 0.025995 0.015659 0.008017 -0.022801 0.015861 0.012812 0.035472 -0.036227 0.034071 0.006016 -0.011773 0.024294 0.001821 -0.0257 0.008194 0.004553 0.003077 -0.031968 -0.010793 0.005085 -0.019336 0.02316 0.004728 -0.019921 -0.00956 -0.029994 0.00474 0.009854 -0.014873 0.034642 -0.015169 -0.033432 0.038995 -0.021238 0.021806 -0.028131 -0.003669 -0.016049 -0.03322 0.024307 0.018745 -0.031416 -0.021995 -0.039111 0.010241 -0.001521 -0.005726 -0.037979 0.00218 -0.006732 0.038248 0.033851 0.018322 0.032282 -0.012728 0.006913 0.028515 -0.002466 0.025853 0.025597 0.011742 0.001617 -0.011882 -0.004506 -0.035567 0.004768 0.027302 0.014212 0.006131 -0.024776 0.002589 -0.004576 0.010135 0.001705 -0.005492 -0.035037 0.016742 0.028394 -0.016624 -0.015348 -0.028854 -0.014054 -0.001725 0.025649 -0.033236 0.00403 0.008902 -0.016574 0.026848 0.008079 0.021516 -0.03822 0.01815 0.029971 0.029905 0.026914 -0.012401 -0.021757 -0.034657 -0.009523 -0.017643 -0.018414 0.006402 0.014568 -0.020366 -0.013902 0.021777 -0.004536 0.029225 -0.001458 -0.006568 -0.002766 0.009526 -0.027429 -0.007862 -0.023493 0.032885 -0.015702 0.009448 0.010022 0.022808 -0.001302 -0.011963 0.019267 0.027093 -0.033639 -0.026881 -0.016483 -0.008475 -0.008011 0.017258 -0.024603 0.020751 0.029206 -0.003884 0.013127 -0.007631 0.012088 -0.02503 -0.011993 -0.039477 -0.033681 -0.027298 0.01172 0.023622 0.01355 0.02055 -0.018554 -0.016063 0.000742 -0.010848 0.019286 0.004168 0.007137 0.022933 0.026694 -0.030664 -0.02923 0.019611 0.020089 -0.029247 -0.014974 0.01744 0.005742 -0.020202 -0.022724 -0.012129 -0.056499 -0.058533 -0.042041 -0.001637 -0.020161 -0.020897 0.024723 -0.032611 -0.016607 0.013376 0.014831 0.016831 -0.014125 0.026705 0.022545 -0.036212 -0.030104 0.022264 0.020512 -0.026073 -0.024909 -0.006565 -0.034172 -1.7e-05 -0.003382 -0.02718 -0.031745 -0.042337 -0.03582 -0.054624 -0.02108 0.004328 -0.043391 0.03042 0.023364 0.010856 0.022505 -0.012136 -0.002812 -0.033857 0.027914 -0.001007 -0.033539 -0.015543 -0.002915 0.019459 0.024345 0.01838 -0.011623 -0.025286 -0.007229 -0.030165 -0.025352 -0.000724 0.016588 0.032484 -0.018471 -0.043122 -0.048953 -0.002891 -0.019252 0.026411 -0.016276 -0.019586 -0.008724 -0.010062 0.003121 0.014655 -0.009888 -0.02521 0.008465 -0.00637 0.008311 -0.002157 -0.02598 -0.023904 0.0131 -0.00682 0.022673 0.013058 0.01249 -0.025302 0.027421 0.010518 -0.012065 0.017516 0.002946 -0.002887 -0.036116 0.005646 -0.008347 0.031195 -0.02433 -0.027087 0.006092 -0.009516 -0.022233 0.02161 -0.041362 0.021221 0.010491 -0.020246 0.018047 0.013104 0.016719 -0.023808 -0.025604 -0.031316 -0.02937 0.033314 -0.005008 -0.001861 -0.026795 0.016169 0.03179 0.022559 0.010594 0.021922 -0.03094 0.011186 0.00014 0.031493 -0.027486 -0.009117 0.016505 -0.006592 -0.023176 -0.015595 0.008384 0.040941 -0.00644 0.029682 -0.028654 0.003366 0.010794 0.009132 -0.001546 -0.009477 -0.035941 0.024183 -0.022456 0.018652 -0.00434 -0.030039 0.017323 -0.022025 -0.025233 0.011078 -0.010114 0.020683 0.030375 0.009455 0.036126 0.037263 0.02611 -0.020937 -0.018817 -0.013303 0.013599 0.035587 0.031801 0.009874 0.022965 -0.025252 -0.016449 0.022738 0.026059 0.025324 -0.02912 0.019123 -0.035029 -0.003724 -0.02706 -0.012158 -0.011679 -0.005734 -0.01105 0.016018 -0.018578 0.035513 0.000956 0.035642 0.037428 0.02467 0.049623 0.002369 0.030331 0.024029 -0.012523 0.029324 0.007338 -0.019742 0.012498 0.023469 0.011181 0.004719 -0.011513 0.000907 0.023337 0.010598 -0.030182 -0.031775 -0.019555 0.002807 -0.007619 0.004563 0.029426 -0.018464 -0.024438 0.009953 -0.014449 0.019723 -0.037456 -0.011457 -0.003591 -0.014546 0.018897 -0.030029 -0.02771 0.003076 -0.030057 0.008659 -0.0152 0.03631 -0.015937 -0.021128 0.012633 -0.036664 -0.035942 -0.020373 0.027365 -0.015068 -0.006122 -0.004874 -0.01262 0.017285 -0.024901 -0.032381 0.000695 -0.000673 -0.01038 0.004728 -0.021464 -0.00768 0.010813 -0.008388 0.007535 0.029579 0.000539 -0.021537 0.027992 0.01552 0.012213 -0.020234 -0.007549 -0.014246 -0.033322 0.018115 0.022036 -0.023816 0.01648 -0.006129 0.011587 -0.022238 0.017829 0.013658 -0.034112 -0.02586 0.019112 -0.033873 0.003138 -0.00473 0.027551 0.00651 -0.014794 0.013307 -0.014152 -0.013929 0.012259 -0.038999 -0.013672 -0.046198 0.0253 -0.04363 -0.003852 0.023063 -0.023242 -0.000721 -0.021924 -0.01444 0.000286 -0.013732 -0.025707 0.019131 0.036748 -0.009419 -0.006129 0.005872 0.029217 -0.002143 -0.023153 0.005456 -0.023611 0.033128 -0.007605 -0.00914 -0.040299 0.018799 -0.017191 -0.046336 -0.028048 -0.03061 -0.010492 -0.032692 0.037644 -0.016649 0.009265 0.014633 0.013676 -0.001676 0.013139 0.020393 -0.015337 0.006687 0.023151 0.023425 -0.010414 0.034469 -0.015075 0.021962 -0.03015 0.00753 0.030209 -0.029147 0.010918 0.01667 -0.013657 -0.01162 -0.030805 -0.016092 0.022712 -0.023374 -0.009325 0.004462 0.001484 -0.004906 -0.033552 0.029048 0.01167 -0.023893 0.022856 0.011746 -0.021426 0.036842 -0.005197 -0.005095 0.002766 0.02272 -0.002098 -0.028772 0.035906 -0.012628 -0.031401 -0.026152 0.020679 -0.004417 -0.014468 0.004595 -0.036103 -0.021554 0.01499 -0.018052 -0.012123 0.020778 -0.02729 -0.019444 0.032226 -0.019318 0.00167 -0.029739 0.013959 -0.014293 0.019446 -0.006232 0.010377 0.005216 0.03088 -0.02343 0.025656 0.020673 0.030369 -0.032268 0.019879 0.00928 0.009282 -0.020434 -0.015813 -0.012757 0.020403 0.023281 -0.02372 -0.012568 0.017866 -0.011434 -0.017747 -0.016744 -0.017717 -0.014167 -0.02504 -0.028247 -0.037888 -0.041685 0.009764 0.013804 -0.010398 -0.01289 -0.032693 0.016885 -0.016469 -0.038678 -0.03944 -0.002124 1.1e-05 0.033012 0.029291 -0.025932 -0.001933 0.023029 0.030191 -0.01364 0.013176 0.032346 -0.010117 -0.005848 0.025189 -0.032492 -0.020721 0.016024 -0.0327 0.003745 0.010007 0.017868 -0.004963 0.005521 -0.01595 -0.013866 0.006105 -0.023399 -0.019513 0.003345 -0.027206 -0.020011 0.009125 0.009055 -0.004162 0.020994 0.019768 0.011936 -0.03076 -0.007627 0.027655 0.003637 0.012896 -0.016204 -0.003463 0.020123 -0.005338 0.013794 -0.026753 0.021831 0.009873 0.014327 -0.033862 -0.000113 -0.027424 -0.01508 0.009941 0.029942 -0.013816 -0.00761 -0.028423 0.038108 3.2e-05 0.034482 -0.004153 0.031837 -0.00722 0.034073 0.01879 -0.017743 0.01213 0.001244 0.006117 -0.008787 -0.027841 -0.024951 -0.033807 0.000657 -0.007151 -0.021061 0.034109 0.034747 -0.001969 -0.011768 -0.033271 -0.039122 -0.031971 0.015658 0.004124 -0.009041 -0.02725 0.003663 -0.007468 0.025996 0.056053 -0.001865 -0.037867 0.005143 -0.025173 -0.021004 -0.012016 -0.008412 -0.017369 0.002801 -0.015322 0.014683 -0.013247 -0.02069 -0.000222 0.005181 0.021257 0.03202 -0.016133 0.015258 -0.026319 0.007789 -0.038294 -0.043554 -0.036506 0.032483 0.016196 0.000286 0.027236 0.026469 -0.021873 -0.052351 -0.028355 -0.012246 -0.014701 -0.012062 0.001713 -0.037471 0.024059 -0.006133 -0.028195 -0.026982 -0.025208 0.002668 -0.03041 -0.019841 0.02976 -0.005912 -0.01884 -0.003176 -0.014894 -0.024987 -0.027182 -0.01409 -0.020498 -0.01675 0.019545 -0.021654 0.000511 -0.01077 0.003993 -0.042259 -0.009642 -0.033859 0.013197 0.011443 0.005058 0.032359 -0.010891 -0.014016 -0.005226 -0.000611 0.002157 -0.001162 0.00246 0.016494 -0.01014 -0.01016 0.02461 0.02427 0.02914 0.005971 -0.029268 0.008279 -0.016093 0.026286 0.027411 -0.029083 0.019163 -0.02111 -0.010572 -0.016078 0.002519 0.010558 0.031983 0.016897 -0.01289 0.004399 -0.001456 -0.013278 0.020407 -0.0178 0.014364 -0.020359 0.032427 -0.004601 -0.005538 0.013788 -0.001097 -0.032108 0.024959 0.016772 -0.025401 -2e-06 -0.018744 -0.011066 0.012592 0.032814 -0.017221 -0.004298 0.01021 -0.001024 -0.030872 0.029947 -0.026986 0.013064 -0.017668 -0.003468 0.018166 -0.009361 0.031641 0.032783 -0.026727 0.021157 0.034045 0.007125 0.021388 -0.033819 0.019184 0.029912 -0.011529 0.004867 0.012182 0.005485 0.011133 -0.028618 0.008597 -0.032443 0.00767 -0.01309 0.026723 -0.027805 0.00792 -0.012583 -0.025405 0.02252 -0.036415 0.020291 -0.005667 -0.008532 0.001876 -0.016175 -0.00647 0.021507 0.014262 0.02709 0.026672 -0.024872 -0.015711 0.010698 0.012164 0.007286 0.017467 0.029085 0.019317 -0.030621 -0.023812 -0.015134 -0.020047 0.014334 0.006272 0.017481 0.021474 -0.011091 0.006447 0.000512 -0.028235 -0.024095 0.035965 -0.030459 0.002297 0.009882 0.032637 -0.025166 0.020835 0.018879 0.008539 0.012261 -0.005616 -0.001368 -0.003834 -0.030084 -0.032889 -0.025816 0.015814 0.036541 -0.022485 -0.004047 0.03137 0.018407 -0.033237 0.015944 -0.023561 0.005396 -0.034188 -0.026137 0.009826 0.002764 0.015541 0.012895 -0.015664 -0.023827 -0.022627 -0.029703 -0.021608 0.030107 -0.015547 0.008426 0.016153 -0.009554 0.006117 0.031008 0.003305 -0.016964 0.012151 0.031597 -0.020596 -0.0278 -0.021802 0.030316 -0.013581 0.029344 0.021394 0.005319 0.028268 0.025329 0.01606 0.006844 -0.003248 0.005803 0.032296 0.020948 -0.003555 0.003762 -0.032325 -0.011372 -0.033964 0.005883 -0.030747 -0.025887 0.014413 0.025939 0.02231 0.034817 0.030141 -0.023917 -0.02601 -0.030042 0.008456 -0.011617 -0.022586 -0.022823 0.010252 0.025986 0.009944 -0.002888 -0.013871 0.006367 0.018499 -0.00946 0.035036 0.023321 0.026712 -0.028037 0.01121 0.001181 0.021404 0.014047 0.016541 -0.010511 0.029188 -0.00933 0.008342 0.002796 -0.007088 -0.001726 0.010775 0.000723 0.017288 0.031466 -0.016656 0.007997 -0.02778 -0.009093 0.017198 0.005464 0.031643 -0.008978 0.026174 0.027787 0.002695 -0.002636 -0.001702 0.025848 -0.007268 0.027753 0.026395 0.016627 -0.000984 0.015152 0.033372 0.011754 -0.016293 -0.027369 -0.011533 -0.007274 -0.012059 0.001063 -0.010649 0.021868 0.016717 -0.009858 0.002288 -0.017294 -0.002673 -0.022433 -0.024324 0.001032 -0.029757 -0.012755 0.030232 0.02405 0.020228 -0.034902 -0.036212 -0.026946 -0.027019 0.004814 -0.002831 -0.000474 0.025441 -0.028104 0.011558 -0.016001 -0.003628 0.019363 0.010119 0.011577 0.026294 -0.004212 0.034743 -0.013204 -0.004346 0.027141 0.02043 -0.014149 -0.025626 0.014085 -0.010366 0.004197 -0.017437 0.014773 0.026656 -0.030456 0.018691 -0.03004 0.004615 -0.006765 0.037211 -0.017327 0.004231 -0.00527 -0.018979 0.030964 0.043806 -0.015036 0.029236 -0.002484 0.026921 0.008698 -0.032144 0.033267 -0.00899 -0.011287 -0.013069 -0.005852 0.025515 -0.008422 0.020921 -0.008663 -0.013408 -0.030493 0.011004 0.03182 0.013905 -0.025435 -0.004328 0.037446 0.023125 0.005602 0.01679 0.031517 0.027932 0.036045 -0.01359 0.016299 0.042384 0.024973 0.032591 0.02704 -0.018286 0.003433 -0.017595 0.024044 0.017881 0.028121 0.017948 0.002195 0.017733 0.018782 -0.002348 0.033098 0.019039 0.001625 0.004261 -0.00023 -0.025869 0.024591 0.013326 0.018845 -0.011235 0.022002 -0.011668 -0.003929 -0.02208 -0.028873 0.005295 -0.021382 0.009033 0.021278 -0.002149 0.006193 0.009928 0.011084 0.008816 -0.000802 -0.01009 0.030179 0.03572 0.007201 0.024719 -0.023682 -0.042763 -0.036356 0.012099 -0.037193 -0.036359 -0.024589 0.003929 0.0209 0.034052 0.020364 -0.008497 -0.011113 -0.014261 -0.02283 -0.003061 0.002508 -0.03598 -0.006788 -0.010057 0.03892 0.018017 0.042882 0.033927 -0.005432 -0.008895 0.000384 0.043476 -0.014364 0.015953 0.017249 -0.043356 -0.04184 0.019236 0.009093 0.010875 0.002914 0.017629 -0.024768 -0.009819 0.002953 0.030193 -0.02574 0.000124 -0.005349 -0.003014 0.01008 -0.011709 -0.023514 -0.011383 0.028665 -0.023891 -0.027526 -0.00513 0.049068 0.012855 0.04544 0.006608 -0.008824 0.015393 -0.004237 -0.022896 -0.009213 -0.032048 0.027391 0.034675 0.011757 0.032865 0.018745 0.026718 0.025587 0.00833 -0.013405 -0.031803 0.001364 0.022664 0.027754 -0.016754 -0.008841 -0.040011 0.023509 0.026766 0.011008 0.008462 -0.004135 0.018642 -0.007772 0.018522 0.005157 -0.026959 -0.008757 -0.018139 -0.029276 -0.025872 0.004704 0.006538 0.033364 -0.028817 -0.0165 -0.037631 0.021276 0.006691 -0.038522 0.026609 0.00154 -0.006072 -0.008632 0.002624 0.002757 0.00997 0.040367 0.025017 0.046907 0.001072 0.036781 -0.036926 -0.036753 -0.020154 -0.036083 -0.00657 0.00025 -0.014712 0.033498 -0.030917 -0.017108 0.011309 0.0054 -0.00722 -0.017316 0.021987 -0.011593 -0.019376 -0.033627 -0.029018 -0.029616 0.016849 -0.006699 -0.02189 0.024949 0.011542 -0.040962 -0.042328 -0.000221 -0.05529 -0.052097 -0.032366 0.013824 -0.024321 0.007674 0.032035 0.027458 -0.012462 -0.02356 0.021639 -0.017683 -0.044498 -0.011067 0.002663 -0.023965 -0.036177 -0.023332 0.034484 -0.000292 0.019287 0.005606 -0.024261 0.009683 -0.034139 0.02375 -0.011838 -0.017375 -0.028926 0.015992 -0.018756 0.022798 -0.006966 0.028471 0.00819 0.032104 0.014132 -0.00063 -0.02885 0.019816 0.016642 0.012705 0.031932 0.019458 -0.021273 -0.009605 0.00566 -0.027013 -0.014802 -0.002075 0.025216 0.016037 0.028952 0.016621 0.008707 -0.005499 -0.012462 0.034604 0.017456 0.022718 0.036152 0.023934 -0.024395 -0.015885 -0.001041 -0.023544 -0.027759 -0.032252 -0.038876 0.021775 -0.007521 0.020876 0.000711 0.00877 -0.026017 -0.001927 0.003359 -0.026982 -0.007373 -0.028465 0.015277 0.032757 0.017583 0.01647 -0.008495 -0.016867 -0.013228 0.017763 0.002154 -0.022421 -0.022837 -0.002177 -0.013198 -0.053985 -0.048813 0.011485 -0.007296 -0.037577 0.001782 0.01212 0.00648 -0.012569 0.033173 0.022115 -0.023723 -0.0049 0.027603 0.025039 0.015733 0.03356 -0.035133 0.004573 -0.036864 0.030884 0.019327 -0.004244 -0.007392 -0.019849 0.024462 -0.024118 -0.001326 -0.023562 -0.01966 0.014797 -0.027819 0.018386 -0.001147 0.039577 0.011211 -0.017391 0.000988 0.032285 0.008254 0.027528 0.029716 0.015298 0.008339 0.018648 0.033613 0.0166 -0.026591 0.032788 0.011094 0.000562 0.00808 0.032635 -0.01808 -0.034707 0.00179 0.000523 -0.000937 0.025072 0.02666 -0.012954 -0.013087 0.042609 0.008979 -0.01381 0.031036 -0.002826 0.00833 -0.032088 0.026346 0.012607 0.043026 0.002982 0.024895 0.027767 -0.037032 -0.003835 0.017534 -0.001323 -0.001135 -0.01472 -0.026287 0.019787 0.013035 -0.015365 -0.002226 0.009107 -0.010626 -0.028284 0.004496 0.00051 0.004198 0.016461 -0.002517 0.032568 -0.032401 0.030549 -0.026445 -0.005134 0.031144 0.010163 0.022916 0.020594 -0.005407 0.006917 0.014919 -0.010112 0.024191 0.000375 -0.022107 0.015018 -0.02371 -0.026042 -0.036305 0.012032 -0.034213 -0.025174 0.02176 -0.010105 0.023924 0.032116 0.027438 -0.028226 0.022084 0.013335 0.02326 0.011274 -0.028988 0.000472 -0.015014 -0.001316 0.035717 0.027202 0.020188 -0.020082 -0.021534 -0.010431 0.024053 0.022537 -0.004794 -0.034953 -0.016873 0.006003 -0.001549 0.015581 -0.024788 0.027148 -0.011575 -0.037009 0.022669 -0.016791 0.014904 0.032961 0.015729 -0.031597 -0.0361 -0.022173 0.007793 0.008064 -0.034323 0.028338 -0.014033 0.030427 -0.006148 -0.038409 -0.015004 -0.023301 0.024603 0.036208 0.020579 -0.032919 -0.028329 0.029922 0.037414 -0.013399 -0.011603 0.046166 0.005822 -0.019535 0.036815 -0.026052 -0.034907 -0.02474 0.024096 0.000851 0.009417 -0.017579 0.029001 -0.006665 -0.01459 -0.005971 0.017321 0.000792 0.014808 0.017355 -0.020336 -0.026622 -0.015644 -0.007684 0.016732 0.018161 0.035146 0.027296 0.022412 0.036842 0.039857 -0.01886 0.036006 -0.024374 -0.030756 -0.027301 0.030777 -0.006987 -0.003138 -0.029821 0.028402 0.002022 -0.018629 0.026256 0.021678 -0.015289 0.004676 0.006505 0.009944 -0.035175 0.01906 -0.023479 0.026464 0.021535 -0.024841 -0.03089 -0.015112 0.028337 0.035308 0.031354 -0.008725 -0.017251 -0.03513 -0.007568 -0.030582 0.019561 0.027851 0.006272 -0.003517 -0.036572 0.003803 -0.035185 -0.036075 0.008495 0.00455 -0.023675 -0.029326 -0.035986 -0.04551 -0.053322 -0.013031 0.024888 -0.010971 -0.027265 -0.021531 -0.004713 -0.016936 -0.003666 -0.028995 -0.009129 0.013604 -0.021341 -0.019199 0.030851 -0.002732 0.004023 0.010884 -0.024677 0.023085 -0.021755 -0.018992 0.011746 0.002072 0.019462 -0.001723 -0.029624 0.008791 0.010438 0.017909 0.032743 0.018123 -0.013229 0.015199 0.013259 -0.008867 -0.025627 -0.01467 0.016131 0.009921 -0.014339 0.004601 -0.027354 -0.03906 0.03308 0.03822 0.053057 0.028853 0.027706 -0.02879 -0.007426 0.013312 -0.024273 -0.023149 -0.022948 -0.012055 0.015674 0.023511 -0.014795 -0.032949 -0.034148 0.018006 0.030471 0.003226 0.015857 0.005307 -0.027404 -0.029141 -0.005386 -0.022317 0.039973 0.01917 -0.008155 -0.006875 -0.005959 9.2e-05 -0.005323 0.017357 0.002179 -0.040334 -0.014649 0.025154 -0.03754 -0.001768 -0.000188 -0.004263 -0.005459 -0.017674 -0.0227 -0.001109 -0.03314 -0.026578 -0.00496 0.009258 0.016388 0.024131 -0.019509 -0.000749 -0.009682 0.032045 -0.014109 0.013392 0.03403 0.038418 -0.016435 0.022818 -0.004455 -0.026853 -0.012019 -0.007297 -0.022722 0.019973 0.004287 0.006222 0.009174 -0.013307 -0.000944 -0.020537 -0.031334 0.012752 0.003464 0.018267 -0.002202 -0.023749 -0.029644 0.010068 -0.024616 0.032992 0.002381 0.022165 0.008937 0.032585 -0.006323 0.000573 0.002143 -0.034013 -0.001287 -0.024653 0.005592 -0.035096 -0.011684 -0.031402 -0.010642 0.000292 0.03156 -0.005377 0.005477 -0.026884 -0.013335 0.019743 -0.028065 0.020782 0.002216 -0.025148 0.007456 -0.001316 -0.01136 0.010395 0.012862 -0.029294 -0.003891 -0.017915 0.021588 -0.01165 -0.018676 -0.001042 0.032675 0.013278 0.003608 0.018343 0.029424 0.025489 -0.015333 0.00618 -0.01902 -0.018833 0.000655 -0.010041 -0.019155 -0.007781 -0.022679 -0.001237 0.029968 0.015535 -0.037209 -0.006498 0.006984 0.002786 -0.021128 0.029076 0.000882 0.005417 0.010987 -0.037861 -0.017072 -0.023495 0.022525 0.024434 0.009387 0.01232 0.038584 -0.016093 0.030992 -0.014459 0.02523 -0.01986 -0.029864 0.017651 -0.025647 -0.031431 -0.033478 -0.021774 -0.027739 -0.013606 -0.032746 -0.001363 0.025403 0.015737 0.027003 -0.022325 -0.011791 -0.034644 0.011044 -0.00024 -0.035345 -0.034802 -0.01003 -0.013532 -0.010769 -0.030269 0.023566 0.015241 -0.03678 -0.015944 -0.046261 -0.024979 -0.01039 0.008629 -0.014789 -0.015753 0.016338 0.004969 0.006769 -0.026802 -0.022166 0.022236 -0.015612 0.006985 -0.03329 -0.000885 0.027713 -0.011517 0.029734 0.009633 0.011913 -0.009214 -0.000485 -0.015436 0.028743 0.009597 -0.032812 -0.022002 0.004029 0.010599 0.013096 -0.008875 -0.033531 -0.000133 -0.022789 0.033358 0.003106 -0.004079 0.025182 -0.00142 -0.035081 0.010121 0.019529 -0.034201 0.019104 -0.002263 -0.033801 0.029642 0.019478 0.031165 0.005071 0.02679 -0.000262 -0.027317 0.007425 0.004999 0.028209 -0.005672 -0.006177 -0.027668 -0.024453 0.011504 0.014208 0.016165 -0.027669 -0.038457 0.00156 -0.021867 -0.017069 -0.014981 0.003585 -0.034186 0.001865 -0.028597 -0.015548 -0.008457 -0.03256 -0.024358 -0.034508 0.031863 0.033296 0.016563 0.022607 0.002562 0.003092 -0.030286 -0.010896 0.008496 0.011696 0.006921 -0.0262 -0.021627 -0.023627 0.023548 -0.01581 -0.007586 0.032306 -0.025353 0.027413 -0.024561 -0.015869 0.004984 -0.000329 0.007155 -0.002664 0.014014 0.031794 -0.012 -0.024612 -0.029628 -0.014728 0.009591 0.032193 -0.034865 0.008146 0.011754 0.030638 -0.014232 0.024111 -0.003278 0.033985 0.000209 -0.009139 0.016501 -0.005134 -0.008466 -0.027492 0.022753 -0.029227 -0.028284 0.012795 -0.01964 -0.007256 -0.025703 0.021778 0.012074 -0.035422 -0.008972 0.027033 -0.01714 0.013928 -0.027708 0.025605 0.020449 0.001928 0.00439 0.006126 0.035931 -0.015969 -0.019434 0.020291 -0.026135 -0.014472 -0.03237 0.026323 -0.028133 -0.026684 -0.023277 -0.013526 -0.035418 0.032639 0.007724 0.016164 0.01628 0.00537 -0.002836 0.029115 0.002307 0.026143 -0.033723 0.018851 -0.008046 -0.019794 0.007599 -0.024043 0.025395 -0.010174 -0.001822 -0.003886 0.018751 0.011611 0.007824 -0.009195 -0.013986 0.00065 -0.001876 0.008833 -0.012613 0.025695 0.02302 -0.024886 0.029275 0.015898 -0.018163 0.012714 -0.029249 0.014005 -0.002956 0.01489 -0.028633 -0.017871 -0.018895 0.011546 0.004978 0.017413 0.032979 0.019789 0.012515 0.011682 -0.007017 0.002722 0.016064 0.026877 0.012043 0.032437 0.023166 0.010315 0.02063 -0.020622 0.015405 -0.022081 0.032809 -0.022144 0.002509 0.016054 0.013243 -0.007328 0.004867 0.032246 -0.009426 -0.000866 -0.014263 -0.018833 0.011571 -0.033363 -0.0065 0.006779 0.014525 -0.02903 0.017149 0.019414 -0.029131 -0.00106 0.009169 0.022591 0.011466 -0.027043 0.00982 -0.036692 -0.030667 0.024777 0.001283 -0.025633 0.018032 -0.00556 0.018025 -0.001125 0.037465 0.00748 0.027553 -0.017203 -0.013791 0.021448 0.023661 0.005803 -0.019283 -0.03473 -0.005449 -0.010486 -0.024105 -0.005587 0.034809 0.011274 -0.014698 -0.008922 -0.015933 -0.031167 0.014589 0.01048 -0.036542 -0.006402 0.000448 -0.022981 0.032692 0.023924 -0.025037 -0.013991 0.015209 -0.024936 0.018179 0.033713 0.005369 -0.033692 0.014562 -0.020159 0.027261 0.021706 -0.020545 0.009876 0.013837 0.012011 0.021674 0.019556 0.020468 -0.011477 0.020564 -0.017435 -0.008843 0.031656 0.03363 0.017432 0.027461 0.015267 -0.02883 0.03708 0.000776 0.025745 0.056191 0.041531 -0.020651 -0.016153 -0.043049 -0.001286 -0.055714 -0.033664 -0.035589 0.021999 0.019173 -0.000508 4e-06 0.003241 0.019984 -0.004841 -0.011429 0.012705 -0.004931 0.002446 0.020379 0.00296 -0.023499 0.00906 0.025673 -0.022253 0.014205 0.033466 0.031416 -0.014901 0.035919 -0.005177 -0.016831 -0.043089 -0.059571 -0.056492 -0.014467 -0.028823 0.042851 0.044393 0.012352 0.02127 -0.003231 0.012297 -0.008507 -0.020155 0.017437 -0.001044 0.006638 -0.013316 0.011722 -0.014364 0.021862 -0.024963 -0.020819 0.036139 0.037488 0.007062 -0.00344 0.015205 -0.021959 -0.010901 -0.018437 -0.035314 -0.014773 0.01404 0.010534 -0.007839 0.014793 0.032496 -0.006747 -0.017301 -0.012683 0.004476 -0.017187 0.012173 -0.035057 0.002046 -0.01911 -0.012659 0.021406 -0.014445 0.006491 0.01945 0.026087 0.039047 -0.005094 0.00212 -0.054717 -0.022041 0.027529 -0.042421 -0.0152 0.028593 0.016449 0.047428 -0.008905 0.012954 -0.019191 -0.01905 0.030177 0.011966 -0.029805 0.027792 0.030597 -0.014156 -0.010011 -0.017513 -0.034866 0.034052 -0.020594 -0.029077 0.025516 -0.001463 -0.042444 0.003433 -0.036296 0.000514 -0.013825 0.008625 -0.010183 -0.021424 0.013914 -0.009536 -0.021118 0.018126 -0.043772 -0.045621 0.016438 -0.007217 0.019389 -0.034983 -0.01601 -0.004035 -0.01364 0.022362 0.02663 -0.045008 0.014477 -0.022557 -0.016378 -0.007027 -0.006831 0.007522 -0.04206 0.022035 -0.015657 -0.010169 0.031867 0.011262 0.018199 0.030065 0.005033 -0.00435 -0.015037 -0.007757 -0.013868 0.011347 -0.023461 0.026093 0.020833 0.023012 0.030774 0.016235 0.0018 -0.023486 0.021214 0.010495 -0.033231 0.008346 -0.020134 -0.040216 0.018237 -0.017999 -0.00366 0.013842 -0.015591 0.021851 -0.009367 -0.019155 0.035359 0.029763 -0.035002 0.007895 -0.007107 0.028475 -0.007939 -0.012424 -0.026968 -0.029548 -0.037327 -0.011203 0.038041 -0.023892 -0.010236 -0.02039 -0.029462 -0.027316 -0.046525 0.007851 0.017365 0.02631 0.032245 -0.024741 0.023708 -0.031678 -0.011568 -0.034977 7.7e-05 -0.024692 -0.010426 0.027312 -0.002039 -0.003516 -0.002881 0.026388 0.002362 -0.003404 0.033176 -0.024755 0.019806 0.004197 -0.011893 0.008452 -0.025879 -0.029729 0.011093 -0.024597 0.011465 -0.019418 -0.015411 0.030537 -0.009168 0.013258 -0.024645 -0.016245 0.030632 0.032502 -0.003479 0.014679 0.003736 0.032771 -0.019846 -0.002311 0.004786 -0.027581 0.009685 -0.033316 0.027317 -0.022991 -0.001186 0.002573 0.005163 -0.033145 -0.013857 0.008404 0.033249 0.007536 0.006253 0.020481 0.036576 -0.010949 -0.012388 0.003627 0.024241 0.009527 0.0063 -0.023835 0.025492 0.014729 0.035624 -0.018461 0.016918 0.008506 -0.007522 -0.018785 -0.018846 0.033502 -0.005044 -0.035047 -0.002951 -0.02707 -0.030419 -0.028105 0.000131 -0.017346 0.040998 0.006076 0.012405 -0.004073 0.011342 0.028506 0.001594 -0.005358 -0.014951 0.027931 0.007485 0.034209 0.009021 0.022067 0.03557 -0.017555 -0.022418 -0.026539 -0.023438 0.02797 -0.009198 -0.035241 0.010899 0.008032 -0.025626 -0.004812 0.027518 -0.022977 0.009139 0.018192 0.005116 0.014594 -0.017524 -0.035712 -0.025433 -0.007895 0.016846 -0.004456 -0.030289 -0.029974 0.017207 -0.02762 0.03745 0.036523 0.013134 0.003237 0.026086 -0.009867 -0.002293 0.024365 0.029968 0.024212 0.003263 -0.018594 0.005543 0.02014 0.020695 0.034427 -0.016357 0.025989 -0.033935 -0.010428 0.018071 -0.01827 0.027402 -0.002619 -0.000222 0.01449 -0.027801 -0.002305 0.00342 0.021786 0.009801 0.028473 0.026276 -0.004765 -0.027269 0.003592 0.009303 -0.030083 -0.016527 0.009972 -0.033811 -0.021919 0.005346 0.010882 0.016965 0.014728 0.019849 -0.000212 0.013469 -0.009764 -0.0314 0.019504 0.008568 -0.007851 -0.025194 -0.02741 -0.051321 -0.011366 0.018906 -0.039876 -0.006668 -0.013915 0.024533 -0.002919 0.011257 -0.016084 -0.005963 -0.014737 -0.018204 0.003157 -0.037232 -0.007203 -0.025746 0.033118 0.008573 0.024338 -0.014868 -0.020816 0.029851 0.010691 0.018963 -0.042693 -0.008231 0.02558 0.023642 -0.028826 0.02714 0.002703 0.003383 0.033601 -0.010202 0.020644 -0.022202 0.009238 -0.027168 -0.007226 -0.026118 0.018056 -0.008515 -0.03267 -0.012496 -0.01889 -0.033968 0.021486 0.018569 -0.003964 0.030999 -0.026436 0.025112 -0.038497 -0.032904 -0.036486 -0.027943 -0.034111 0.016389 0.057248 0.047485 0.01506 -0.006813 0.000363 -0.018412 -0.00087 0.008388 -0.019898 -0.037681 0.01572 -0.006107 -0.029768 0.009706 0.021325 0.010477 -0.015482 -0.006535 -0.023446 -0.021958 -0.033518 -0.012063 -0.016608 -0.030256 0.017302 -0.023834 -0.002427 0.013456 0.017214 0.0078 0.035032 0.026114 0.009371 -0.006266 -0.013731 0.027648 -0.021977 -0.007472 -0.031911 -0.039273 -0.038438 -0.009097 -0.028574 0.028394 0.03017 -0.017389 0.029447 0.032664 0.024057 -0.020686 -0.02645 0.027811 -0.014686 0.032532 -0.011123 0.005271 -0.028308 0.025757 0.034614 0.018817 0.006521 0.028042 -0.028295 0.003711 -0.028984 -0.008505 -0.036773 -0.014959 -0.031338 0.020754 -0.017237 -0.022753 -0.02941 -0.037084 -0.009492 0.009454 0.035581 0.029369 -0.035137 0.016387 0.032739 0.024254 -0.016507 0.006389 -0.022974 0.033161 0.026844 0.013109 -0.008425 0.022124 -0.029975 -0.02094 0.018955 -0.014107 0.004211 -0.014625 -0.021623 -0.026149 -0.018126 -0.04005 -0.004865 0.007242 0.032788 -0.011406 -0.01458 -0.028844 0.004685 0.023229 -0.019341 -0.035721 -0.000936 0.000811 -0.011296 -0.021377 -0.032848 -0.011402 -0.000498 0.03174 -0.022438 0.028441 0.016935 0.021378 -0.004433 -0.012459 -0.021286 -0.028785 -0.039431 0.033553 0.043557 -0.021854 0.021054 0.022599 0.011776 0.026001 0.005815 0.015318 -0.04094 -0.001028 -0.025962 -0.02241 0.010743 -0.033495 -0.008209 0.024072 -0.022435 0.003398 0.026152 0.005072 0.002095 -0.015345 -0.016858 -0.034699 -0.023875 0.00567 -0.013079 -0.008871 0.028296 0.011759 0.020951 -0.007088 -0.019442 0.025617 -0.001712 -0.027045 -0.010954 -0.008845 0.016723 0.023419 -0.004327 -0.027288 0.002485 0.026973 0.019408 -0.017741 0.01516 -0.012674 -0.001608 -0.033725 -0.024523 0.008318 -0.028283 0.02976 0.011569 0.029376 0.013125 -0.011932 0.013858 -0.030067 -0.009537 0.001574 0.010202 0.014352 0.028021 -0.029225 -0.035462 -0.018057 -0.023891 0.0102 0.006138 -0.036082 -0.024061 0.013439 -0.028239 -0.021868 -0.018722 0.033194 0.026859 0.036556 0.010923 -0.00534 0.031633 0.003652 -0.014582 -0.031686 -0.03074 -0.013139 1e-06 0.025712 0.020063 0.02387 0.008634 -0.003716 0.008388 -0.030679 -0.005932 -0.004605 -0.017621 0.004259 0.0041 0.033139 0.016317 -0.023837 0.03658 -0.009391 0.019376 0.005276 0.003048 0.005636 -0.00722 0.010792 0.013826 -0.006079 -0.03663 0.007048 -0.029404 0.009798 -0.018983 -0.015125 -0.005057 0.038156 -0.012518 -0.036681 -0.012551 -0.016418 0.02025 -0.010182 -0.037485 -0.000725 -0.017127 0.01711 0.004125 0.038819 0.016492 -0.019268 0.025037 0.0058 0.011805 0.025632 -0.023227 0.006753 -0.000988 -0.021833 -0.012829 -0.000617 0.015613 -0.000506 0.037164 0.01556 -0.027032 -0.001506 -0.037219 -0.019334 -0.029943 -0.027592 0.008288 0.023212 -0.007217 -0.007404 0.012558 0.012968 -0.007063 0.006993 -0.012308 -0.014832 0.007467 0.017182 -0.010777 0.010918 -0.014054 -0.002431 -0.018114 0.024188 0.014708 -0.004294 -0.011194 -0.000274 -0.00506 -0.038551 0.02118 -0.0029 0.025374 -0.037525 -0.012058 0.022483 -0.035266 0.002042 -0.002357 0.002968 0.018298 -0.004913 0.015351 0.020704 0.02781 -0.004866 -0.008003 -0.034999 0.022707 -0.036752 0.018673 -0.014155 -0.01435 0.007125 0.008043 -0.030277 -0.031815 0.015376 -0.030121 -0.034589 -0.041756 0.000543 -0.023834 0.027112 0.01627 0.028751 0.012023 0.030341 0.014902 0.026016 -0.020337 0.016466 -0.0268 0.031737 -0.029364 0.029308 0.006545 0.00993 0.040698 0.02018 0.007911 0.022811 0.021564 0.005673 -0.03084 0.021344 -0.001754 0.017403 0.027172 -0.002513 0.015882 -0.000447 -0.022105 0.025043 -0.005312 0.022596 -0.032542 0.012984 0.034014 -0.007883 0.014273 0.01078 -0.00465 -0.012268 0.031787 -0.023177 -0.014609 2.8e-05 -0.00278 0.006463 -0.007134 -0.023345 0.041969 0.039972 0.028706 0.009601 -0.008582 0.026237 -0.000848 0.015045 -0.014688 0.031488 -0.014813 0.021161 -0.019004 -0.02621 0.034036 0.017161 -0.020402 -0.012441 0.026242 0.026577 -0.031706 0.028038 0.016732 0.024864 0.007427 -0.001189 0.019303 0.020847 -0.026801 0.039005 0.039137 -0.020821 0.035767 -0.001287 -0.028606 0.025191 -0.006464 -0.00666 0.010789 -0.008881 0.019696 -0.014624 0.039009 -0.009296 0.024335 0.00458 0.037764 -0.025196 0.030716 0.029133 0.024613 -0.009797 -0.032709 -0.034132 0.003219 -0.033952 -0.025323 -0.008549 0.015293 0.031899 0.021326 -0.031168 -0.032459 -0.047145 -0.03183 -0.047146 -0.013508 0.000365 -0.011339 0.008752 0.029506 -0.00383 0.018593 0.008943 -0.011001 0.021233 -0.02584 -0.023806 0.025656 0.010404 -0.03089 -0.008785 -0.026053 0.034054 0.001258 0.003691 0.011733 0.000634 0.012661 0.014921 -0.040822 -0.054609 -0.042922 -0.0457 -0.058916 -0.061861 -0.014337 -0.036245 0.016463 0.024018 0.00189 0.009439 0.043758 0.014865 0.01604 0.019816 -0.011071 0.009962 -0.02679 0.034408 0.013507 -0.00557 0.018184 0.028387 0.028911 0.03734 0.014868 0.011863 0.027065 -0.041436 -0.035235 -0.056329 -0.075525 -0.084557 -0.024649 -0.052551 -0.033637 -0.038822 0.033352 0.027174 0.051456 0.043567 -0.006574 0.004047 0.01976 -0.013425 0.013987 -0.020268 -0.033873 -0.013027 -0.002754 0.01647 -0.016486 0.033344 -0.004336 0.003263 0.044291 0.037612 0.025661 0.002131 -0.025533 -0.002327 -0.055667 -0.026438 -0.039143 -0.02615 0.018476 0.01995 -0.002765 -0.002468 -0.011793 0.011261 0.015701 0.031436 0.01095 0.016909 -0.010484 0.015706 -0.017082 0.005884 0.016974 -0.019418 -0.011556 -0.004314 0.04109 -0.000769 -0.011632 -0.026928 0.004723 0.024949 -0.015352 0.022388 0.031784 0.033222 0.00465 0.034568 0.019556 -0.00885 -0.03745 -0.003565 0.024905 0.027934 -0.001628 0.01672 0.05646 0.026931 0.016775 -0.008259 0.017748 -0.017812 0.037557 -0.001754 -0.000758 0.018529 0.014959 0.00742 -0.009172 0.015331 0.009386 -0.006962 0.034908 -0.00201 0.01116 0.025056 0.018915 -0.026864 -0.013894 -0.036209 -0.014507 0.018357 0.031416 -0.008433 0.009916 0.029421 0.016475 -0.002813 -0.003397 0.018654 0.038346 -0.009973 0.016501 0.028242 0.021724 -0.027893 0.012501 -0.034824 0.001318 -0.012621 0.022224 -0.023189 -0.019397 0.030875 0.01547 0.019249 -0.032376 -0.018629 0.004126 0.023891 -0.025649 -0.022754 0.038973 0.032632 -0.001137 0.010212 0.008262 -0.027123 0.038472 -0.018294 -0.009894 -0.011503 -0.030045 -0.01412 -0.039673 -0.00835 -0.003728 -0.013396 0.000689 -0.018539 -0.003546 0.030722 -0.007218 -0.041061 -0.027195 0.001721 0.018335 -0.011205 0.026437 0.028509 0.035652 0.033683 0.005761 0.027851 -0.015405 0.043861 0.045899 0.013626 0.000197 0.018489 -0.021143 -0.00471 0.027819 -0.038594 0.016484 -0.02878 0.02594 -0.023019 -0.028903 -0.019484 0.014209 -0.007838 -0.032044 0.021507 -0.023262 0.020817 -0.040443 0.002256 0.015372 0.029307 0.015037 -0.029304 0.023078 0.012752 -0.015642 0.027286 0.031303 -0.028223 -0.021248 -0.005932 -0.027493 0.013122 0.01889 -0.041696 0.01571 -0.016478 -0.021313 0.029416 0.029334 0.021786 -0.019627 0.025467 0.006462 -0.033328 -0.033425 0.006231 0.012118 0.012739 0.004311 0.027788 -0.013354 -0.01004 -0.027196 0.024625 -0.033446 0.0219 0.006463 0.005614 -0.02757 -0.031626 -0.033492 -0.007972 -0.033248 -0.007639 0.02151 0.025401 0.029882 -0.014923 -0.023088 -0.026324 -0.013014 0.017797 -0.014241 -0.005934 0.019951 -0.023621 -0.003875 0.010531 -0.017749 0.005942 -0.030547 -0.001668 0.030225 0.027948 0.023985 0.014818 -0.034958 -0.011288 0.009491 -0.006469 0.036962 0.000863 0.008581 0.011842 -0.017205 -0.01112 -0.029668 -0.025118 0.016484 -0.0512 0.010567 0.025453 0.032874 -0.024138 0.018222 -0.01176 -0.026262 0.010859 0.017617 0.021153 -0.003466 0.007969 -0.033667 0.020202 -0.002241 -0.001922 -0.011949 0.023319 -0.011167 0.007613 0.040465 0.032478 -0.017596 -0.02621 -0.031969 0.019816 0.010129 -0.038438 -0.007912 0.009941 0.002275 0.024449 0.020326 -0.012996 0.021942 -0.034395 0.016312 0.002776 -0.030005 0.014246 0.027087 -0.020423 -0.005163 -0.006258 0.005424 0.022708 -0.027905 -0.006877 -0.022532 0.010391 0.028695 -0.02113 -0.001646 0.029981 8.3e-05 0.033779 0.026262 0.026331 -0.014729 -0.014357 0.017461 0.012677 0.02241 -0.007163 0.022819 0.003832 0.023491 0.007456 0.012659 -0.017287 0.021027 -0.021766 0.020932 0.036739 -0.025419 0.001818 0.025907 -0.034124 -0.009362 -0.020061 0.01685 0.009549 0.035783 -0.036679 -0.016985 -0.01345 0.013647 0.018828 0.031649 -0.007892 0.024088 0.009413 0.02218 -0.000636 -0.034686 0.020319 0.002878 0.012385 0.034486 0.024698 -0.005739 0.029312 0.028453 0.008646 -0.021191 -0.004157 0.01437 0.014129 0.016189 -0.008554 -0.02648 0.004597 0.003616 0.021129 0.024787 0.022884 -0.012862 0.007931 -0.000387 0.017132 -0.005058 0.003964 -0.016215 0.039411 -0.006918 -0.021019 0.025176 -0.010601 0.008558 0.011347 -0.000871 -0.004084 -0.017904 0.02948 0.009603 0.02779 0.028031 -0.030118 0.018388 0.008489 -0.014056 0.010901 -0.031031 0.001876 0.003947 -0.002774 -0.004926 0.026324 -0.009152 0.013144 -0.021678 0.016295 -0.020189 -0.029669 -0.030921 -0.016611 0.024612 0.012921 -0.026548 -0.037125 -0.003504 0.018144 -0.028434 0.030452 0.005604 0.008402 0.031251 0.02451 -0.004895 0.026232 -0.020388 0.040006 0.040833 0.019793 0.009831 -0.030329 -0.021867 -0.017886 0.032519 -0.008349 -0.035212 -0.002529 -0.017265 0.016348 0.025814 0.007794 0.031383 0.035758 0.03996 0.034355 -0.028643 0.024077 0.017557 0.0163 -0.001393 -0.002641 -0.015562 -0.002718 -0.01821 0.040975 0.039629 -0.02816 0.006596 0.02945 -0.026841 0.033089 -0.007908 -0.017786 -0.032312 0.013163 -0.025129 -0.032863 -0.03311 0.005311 -0.013741 0.005887 0.030675 -0.02794 -0.015162 0.024513 -0.035503 0.016829 0.022448 -0.037957 0.024791 -0.028705 0.043512 0.002973 -0.017872 0.031348 0.00114 -0.003914 -0.015241 -0.030087 0.010534 0.023902 -0.020769 -0.015059 -0.02873 0.027601 0.019101 0.010362 0.047425 0.005545 0.031258 -0.03237 -0.024425 0.020029 -0.001533 0.001596 0.01417 -0.021449 -0.002971 -0.020348 -0.005219 -0.00401 -0.030855 0.025081 0.027725 -0.011892 0.028714 -0.030607 0.035536 0.003407 -0.030595 0.018075 -0.032048 0.009408 0.020488 0.003636 0.018654 -0.027413 0.013067 0.003188 -0.01122 -0.016169 -0.029476 -0.018189 -0.007646 -0.019081 0.02435 0.003772 0.002133 -0.008917 -0.011322 0.03398 -0.01971 -0.002231 -0.033924 0.035297 0.002875 0.01508 -0.029494 -0.013325 0.001106 0.003495 0.032465 0.008099 0.009988 0.009331 0.029381 0.005973 0.006589 0.014863 0.025963 0.025078 -0.000151 -0.025331 -0.016981 -0.02313 0.03408 -0.024462 0.027754 -0.028466 -0.014282 0.023846 -0.037511 0.000619 0.030096 0.021115 0.00182 0.021582 -0.006199 -0.040067 0.032299 -0.011236 0.002791 -0.004339 0.008806 0.033947 0.013066 0.002776 -0.010578 0.022749 -0.003181 0.000175 0.03268 0.025536 0.023921 -0.015427 0.020444 -0.007238 0.022521 0.027665 0.001991 -0.001765 0.006127 -0.025056 -0.006435 0.011534 -0.01685 0.001001 0.007894 -0.001233 -0.024298 -0.005211 -0.000532 0.037686 -0.019574 -0.012663 0.011435 0.014025 0.034924 -0.008072 0.019952 -0.003031 -0.006297 0.008325 0.022564 0.039151 0.021148 0.024909 0.018701 0.015997 -0.034687 0.021005 0.00853 -0.029051 -0.035674 0.012866 0.014715 -0.030682 -0.030853 -0.017252 0.034342 0.017463 -0.017725 -0.035188 -0.030537 0.026297 0.026867 -0.00583 0.004086 0.014992 0.006715 0.009096 0.002899 -0.015636 0.039308 0.032118 -0.012712 -0.026099 0.003113 -0.015875 -0.018736 -0.002959 -0.013081 0.003387 0.005404 -0.027222 0.003589 0.022118 -0.014942 0.023485 -0.019832 -0.011231 -0.023891 -0.018096 0.002465 -0.03056 -0.022286 0.020332 -0.020116 0.004338 0.010443 0.041323 0.026852 0.030055 0.008414 -0.020447 0.001496 0.011373 -0.019469 -0.028656 0.011002 -0.036726 -0.006355 0.007645 -0.016311 -0.025033 -0.028358 -0.010345 -0.01227 0.009511 -0.044592 -0.017193 -0.025691 0.016616 0.013332 -0.044882 -0.023822 -0.02833 0.010713 0.038283 -0.035114 -0.018065 -0.038704 0.021069 0.012435 -0.0301 -0.011555 0.023218 0.028033 -0.012768 -0.012386 -0.011219 0.009542 0.006245 0.003913 0.012258 -0.034507 -0.032677 0.021044 -0.039808 -0.015951 -0.029009 -0.032234 -0.022055 -0.001045 -0.022256 0.000475 -0.021331 -0.02363 0.034651 -0.012379 -0.030257 0.009499 0.015754 -0.011137 -0.03305 -0.005807 0.002534 -0.026012 0.02279 0.015541 0.022844 0.026443 0.013273 -0.001504 0.011718 0.011486 0.037463 0.018136 0.010563 0.014335 -0.011971 0.040722 -0.019763 -0.028448 0.019816 -0.006811 0.014765 -0.010928 -0.031395 -0.02501 -0.013092 0.008112 0.015174 0.028846 -0.007658 -0.021292 -0.017329 -0.025864 0.009682 -0.027027 0.014297 -0.005671 -0.000136 -0.013224 -0.012427 0.007271 -0.004423 -0.019749 -0.021684 -0.008011 0.0207 0.034432 -0.012035 0.020302 0.03293 -0.028066 -0.024687 0.005759 -0.027232 -0.028529 -0.032587 -0.001737 -0.035382 0.027731 0.03029 -0.002912 0.018093 0.00721 -0.037177 0.02956 0.037682 0.012718 0.021501 0.035259 -0.014679 -0.011316 0.03252 0.030597 0.021256 0.015387 -0.031141 -0.022885 0.032087 -0.007096 -0.033566 -0.031654 0.030351 0.015516 -0.014782 -0.013589 0.025772 -0.014813 -0.005558 0.005375 -0.012562 -0.019928 0.037001 -0.008642 -0.029703 0.01667 -0.002225 0.024072 0.023084 -0.013013 -0.011398 -0.017311 0.03532 -0.002029 0.00564 -0.028747 -0.008749 -0.023554 -0.008332 0.029561 0.03052 0.033841 0.012861 0.028534 -0.034136 -0.038938 0.001979 -0.023443 0.023962 -0.018356 0.028382 -0.0032 -0.016653 -0.022694 0.038286 -0.008074 -0.026702 -0.003746 0.001189 0.026206 -0.01904 0.032533 0.022176 0.00065 -0.028518 0.015966 -0.004359 0.029151 -0.013458 -0.013483 -0.016372 -0.039767 -0.034522 0.025942 0.01042 -0.026839 -0.011629 -0.029098 0.006395 -0.029043 0.007242 -0.021788 -0.024155 0.007271 -0.032958 -0.020005 0.020904 -0.012336 -0.027707 -0.006291 0.0321 0.012954 0.023873 0.016016 -0.003173 -0.028897 -0.027817 -0.021937 0.026231 -0.005692 -0.035282 0.024289 0.024459 0.001208 -0.022222 0.041029 -0.02421 -0.000212 0.022399 -0.011296 0.009761 0.012275 -0.003576 0.01818 -0.026663 0.011692 0.006845 -0.024769 -0.027117 -0.024054 0.021066 0.033422 -0.008187 -0.000454 -0.026597 -0.027626 -0.01496 0.022894 -0.013903 0.012237 -0.000141 0.005157 0.014983 -0.027651 -0.017816 0.00082 0.01421 0.021506 0.015308 0.01082 -0.021175 0.012625 -0.005243 0.006501 -0.016202 -0.018416 0.023291 0.009955 0.01713 -0.014324 0.016598 -0.024479 0.016211 0.032897 0.006684 0.03716 0.03318 0.014759 0.033846 0.0237 -0.016203 0.006765 0.02175 0.025429 0.027899 0.033526 -0.000504 0.027153 -0.023823 -0.018328 0.018591 -0.007487 -0.017384 -0.008547 0.013466 -0.010141 -0.030838 0.029543 -0.01646 -0.031017 0.035246 -0.007158 -0.026326 0.001516 0.00635 -0.030879 -0.002093 -0.017473 0.014049 0.001417 -0.007761 -0.023262 0.012481 -0.033496 0.028832 -0.011584 0.038444 -0.026805 -0.030287 0.007518 -0.030116 0.000363 0.018324 0.008066 0.018273 0.029021 0.013523 -0.005691 -0.023427 0.02386 0.015655 -0.00202 -0.026403 -0.023272 -0.025712 0.022349 -0.008931 -0.005893 0.028333 -0.020895 0.028396 0.023416 -0.004236 0.002651 -0.028902 -0.013086 -0.029268 -0.025353 0.001936 0.010148 0.015978 -0.03154 0.038825 0.014444 0.019147 0.014436 0.023064 0.006213 -0.007205 0.004116 0.015467 -0.030694 -0.004791 -0.036152 -0.002238 0.001872 0.027484 0.00229 -0.032947 -0.000389 -0.016415 -0.028898 0.010052 0.015377 0.016633 0.002349 0.017346 -0.007293 -0.025923 0.003789 0.013075 0.032763 -0.011065 0.017981 -0.007869 -0.040108 0.011989 -0.02853 0.033683 -0.011963 -0.016252 -0.021971 -0.028574 -0.012415 0.020912 -0.027395 -0.008185 -0.028143 -0.034435 0.023565 0.005797 -0.027469 -0.007819 0.017562 0.003897 0.022815 0.024609 0.024172 0.017985 -0.016833 0.017043 0.01167 0.022636 -0.002748 -0.025616 -0.016665 -0.018371 0.00809 -0.011992 0.0323 -0.003312 0.015034 -0.013549 -0.025197 0.020371 0.02211 -0.000598 0.000796 0.027081 0.024047 0.017669 -0.002254 -0.013626 -0.024492 0.009391 0.009362 0.013458 0.01823 0.026673 -0.012989 0.02576 0.019837 -0.021722 0.024373 -0.012019 0.029099 0.043257 0.032327 -0.024701 0.003535 -0.008476 -0.01571 0.022836 0.009551 0.002167 -0.000706 0.037745 0.02257 -0.01919 0.022119 0.030783 0.039566 0.019973 0.030241 -0.013792 0.005664 -0.011576 0.037332 0.025031 0.03058 0.048581 0.0274 0.036759 0.045537 0.020323 0.017938 -0.008949 0.00882 0.045134 0.02298 -0.009886 0.038382 0.02319 -0.028479 0.037382 -0.022077 0.011243 0.016129 -0.028173 -0.018449 -0.000329 -0.004339 -0.011398 -0.014169 0.01028 0.014142 0.011803 0.038452 -0.018464 0.000175 0.001069 -0.010244 0.003617 -0.008257 -0.000532 -0.028326 0.01582 -0.033353 0.007176 0.035316 0.023931 0.00426 -0.007498 -0.012547 0.003506 -0.003499 0.027749 0.035052 0.023985 0.056664 0.052365 0.0338 0.017088 -0.005152 -0.018461 0.020619 -0.036349 -0.006913 0.035126 -0.020304 0.011384 0.024017 0.0037 -0.009073 0.003338 -0.011791 0.007051 -0.000863 -0.015125 0.018662 -0.00176 0.010555 -0.010872 0.009191 -0.011996 0.034582 0.015527 0.024523 0.06146 0.001187 0.027589 0.003718 -0.022436 0.023237 -0.030839 -0.029356 -0.029184 0.034514 0.009344 -0.035314 -0.03653 -0.016234 -0.002784 0.033283 0.019333 -0.025167 -0.02399 0.005858 0.022878 0.002956 -0.049878 -0.003008 -0.031026 0.006911 0.02278 0.002936 0.048715 0.015087 -0.004098 0.011854 -0.001843 -0.018714 0.01313 -0.0198 0.024485 0.007275 0.030012 0.009438 0.021178 -0.022163 -0.008523 0.033967 0.002758 -0.029104 -0.027404 0.032241 -0.010488 -0.050058 -0.005411 -0.065896 -0.069363 -0.030556 -0.070757 -0.040336 0.018738 -0.022631 -9.4e-05 0.004834 -0.008439 -0.034431 -0.011311 -0.04455 0.004705 -0.007767 0.022781 -0.018533 -0.004594 -0.03212 -0.002868 -0.027508 0.029218 0.005806 -0.018967 0.004637 0.017589 -0.047517 -0.049586 -0.038131 0.007803 0.026107 -0.024638 0.036656 0.008799 -0.016341 0.018864 0.021767 -0.012434 0.00134 0.034519 0.035609 -0.014264 0.008422 0.001651 -0.035518 0.028607 -0.008094 -0.018605 -0.020797 -0.010609 -0.040923 -0.027226 0.028327 0.037009 0.014494 -0.006687 0.00462 0.005227 -0.000696 -0.016179 0.018904 -0.035146 -0.01374 0.004957 0.002631 0.027996 0.024414 0.030374 0.016779 -0.014136 0.01016 -0.01131 0.009037 -0.012622 0.012255 0.021746 0.008289 0.013523 0.022114 0.003961 0.029598 -0.018368 -0.020215 0.021309 0.03791 -0.025383 0.022395 0.017773 -0.00706 0.015433 0.011583 -0.019703 0.014139 0.024239 -0.014959 0.00682 0.016495 -0.026297 -0.026336 0.016599 -0.012702 0.027337 0.027356 -0.012478 -0.027883 -0.028844 -0.000704 -0.010149 -0.007012 0.018254 -0.036655 -0.000115 0.010973 -0.030646 -2.7e-05 0.037125 0.014024 0.032029 0.008371 0.009167 -0.028425 -0.026454 -0.023236 0.001564 0.023271 0.004008 -0.001732 0.031024 0.039322 0.03039 -0.007871 -0.011798 -0.038802 -0.025855 -0.002709 -0.008921 0.032196 0.028366 0.012502 0.006123 0.004441 0.018371 0.023623 0.013671 -0.004992 0.000245 -0.019291 0.013329 -0.007899 -0.026458 -0.019365 -0.016809 0.016129 0.031791 0.00862 0.011761 0.029107 -0.036268 -0.007207 -0.014735 -0.003274 -0.013387 0.022857 0.011852 -0.035381 -0.016973 0.017964 0.020136 -0.010162 -0.036291 0.025909 -0.004986 0.007938 0.036182 -0.00712 -0.007909 0.004631 0.036385 0.03281 0.003509 -0.03336 -0.019821 -0.000705 0.005131 -0.018516 -0.010141 0.026968 -0.02611 0.028668 0.00482 0.036231 -0.033289 0.00096 -0.001601 0.003178 -0.01242 0.007588 0.018306 -0.005581 -0.010023 -0.007289 -0.026504 -0.035959 0.011922 -0.024678 -0.028028 -0.037231 0.011025 1.3e-05 0.004478 -0.030442 -0.024937 0.02044 -0.027693 0.033451 0.037887 -0.013776 -0.013201 -0.01275 0.030794 0.030605 8.7e-05 -0.004814 -0.034097 0.014908 -0.026293 0.011909 -0.035184 0.014717 -0.02594 -0.00053 -0.012468 -0.064028 -0.043546 -0.031071 -0.005569 -0.043337 0.025041 -0.019676 -0.027196 -0.017477 0.023428 0.039461 0.009204 -0.003447 -0.004907 0.004055 0.021693 0.028364 0.012699 -0.031417 -0.006181 -0.029783 0.010462 0.016006 0.006378 0.013951 -0.002651 -0.020797 -0.047002 -0.031006 -0.056505 -0.03429 -0.045147 -0.048225 0.011972 -0.006064 0.031111 -0.00069 0.006076 0.008758 0.027249 -0.00236 0.013017 0.011997 -0.028124 0.028394 -0.034334 -0.004029 0.010812 -0.030526 0.001325 -0.016942 -0.019742 -0.023889 0.026605 0.030458 0.025452 -0.034015 -0.016215 -0.019886 0.035057 0.02681 -0.022961 0.018265 -0.014038 0.009517 0.027612 0.008182 -0.024699 0.023325 -0.017377 -0.025959 -0.038759 -0.036009 -0.002032 -0.02686 -0.002427 -0.022257 -0.026261 -0.0266 0.03275 -0.036824 0.014077 -0.032454 0.007827 0.019657 -0.032172 0.002255 -0.032022 -0.024359 0.024994 -0.021146 -0.033218 0.028836 -0.010515 0.013826 -0.003973 0.014173 -0.008216 -0.031763 0.028762 -0.004725 0.018738 -0.023204 0.005504 -0.034426 -0.001111 -0.028756 0.011696 0.018075 0.001713 -0.02613 -0.031996 -0.001132 -0.006997 -0.004775 0.024962 -0.035057 0.015374 -0.034165 0.017269 0.018977 -0.037728 -0.038129 -0.0349 -0.000643 0.015086 0.008674 0.027649 -0.032805 0.03666 -0.00412 -0.012415 -0.026442 -0.028272 -0.018341 -0.038108 0.017169 -0.006426 0.015731 -0.007643 0.007888 -0.023918 -0.032921 -0.028906 0.009513 0.006851 -0.002788 -0.015756 -0.016091 -0.028618 -0.02834 0.030079 -0.007703 -0.00637 -0.012696 0.013139 -0.019004 -0.015222 0.024418 -0.027682 -0.033653 -0.04205 0.022862 -0.036587 -0.017018 0.035177 -0.026746 0.006387 -0.003154 -0.034477 0.00814 -0.029558 -0.006739 -0.024696 -0.008058 -0.008639 -0.029256 0.010859 0.002363 0.016079 -0.005937 0.034015 -0.022106 -0.016557 -0.032812 -0.013472 -0.020278 0.000845 -0.027687 -0.004017 0.029073 -0.013459 0.024073 -0.031969 0.018707 -0.02737 -0.036897 -0.006832 -0.02052 0.012487 -0.010752 0.005254 0.016089 0.020576 -0.030059 0.00795 -0.024398 -0.016224 0.013268 0.015643 0.027901 0.012274 0.009988 -0.016429 -0.021897 0.012803 -0.011031 -0.022686 -0.02934 -0.020294 -0.024786 0.0236 0.026214 -0.024583 0.009331 0.005643 0.019735 0.011665 0.013578 0.034447 0.029471 0.014418 0.012529 -0.023479 0.023716 0.018565 0.040184 -0.018588 -0.010309 -0.006548 0.002585 0.02728 0.029894 0.010349 0.034043 0.024909 -0.016779 -0.026347 0.001257 0.035863 -0.005386 -0.012975 0.048361 0.035041 -0.014363 0.012605 -0.002046 0.026202 -0.002522 -0.012835 0.020381 -0.028205 0.041571 0.038637 -0.001851 0.016427 0.024205 0.02484 0.026479 0.025304 0.006483 -0.030713 -0.003317 0.019779 0.017095 0.015362 -0.011028 0.028831 -0.030025 -0.003336 -0.013122 0.017508 0.015325 -0.020433 0.021567 0.001248 0.037206 0.019767 0.017553 -0.018063 0.029242 -0.002804 0.018305 -0.017017 0.039768 -0.003374 -0.019563 0.034481 0.026739 0.034192 0.023108 -0.017014 -0.001171 -0.019673 0.009274 0.025958 -0.032002 0.02742 -0.005579 -0.012006 0.034764 -0.010712 0.02104 0.023687 0.000768 0.035989 0.028292 -0.003321 0.020178 -0.000388 0.013361 0.026964 -0.00251 -0.009142 0.024424 -0.01139 0.034985 0.026886 0.016117 0.00429 0.003253 -0.0293 -0.0332 -0.001628 -0.009442 0.013893 0.017539 0.003596 5.7e-05 -0.013743 -0.012218 -0.000343 -0.021555 0.021846 -0.031042 0.022599 0.023629 -0.027336 0.028872 -0.022492 -0.012282 -0.011986 -0.035391 -0.015909 0.035072 -0.000732 -0.035471 0.031936 0.001581 -0.030444 -0.007774 0.025758 -0.031061 -0.014065 0.031452 -0.025949 -0.038852 4.8e-05 0.013285 -0.036804 -0.031553 -0.026648 0.033533 -0.026589 0.021194 -0.011429 -0.033763 0.021714 -0.014222 -0.010666 -0.03612 0.028294 -0.005758 0.003993 -0.014684 0.021279 0.03179 -0.010516 0.01827 0.01978 -0.030401 -0.013562 -0.012947 0.012472 -0.036159 -0.038476 0.018213 -0.017121 0.004954 0.023301 -0.034448 0.032741 -0.023891 0.007439 -0.000607 -0.019029 -0.024225 0.012547 0.016212 0.000755 -0.019873 0.003793 0.029951 -0.017234 0.02981 -0.020887 -0.028123 0.016112 0.015579 0.016485 0.010785 0.013467 -0.033816 -0.024724 -0.011903 0.01998 -0.003491 -0.019029 -0.026396 -0.026544 0.006188 -0.00311 -0.018761 0.001532 -0.012826 0.013001 -0.013832 0.02481 -0.029675 0.00395 -0.019227 -0.003806 -0.01357 0.02967 0.0277 -0.033592 -0.000554 -0.032863 -0.024793 0.00811 0.007285 -0.02689 -0.015736 -0.01187 -0.026092 -0.007476 -0.017509 0.009482 0.016515 0.022255 -0.000857 0.006535 -0.007926 -0.022367 -0.007285 -0.012433 0.038158 -0.007573 -0.017239 -0.015108 -0.035496 0.002554 -0.002876 0.020516 0.013415 -0.034584 -0.004053 0.004238 0.003318 0.018884 0.020699 -0.01678 0.0345 -0.031874 -0.027614 0.023107 0.019689 0.005865 0.01713 -0.025468 0.009895 0.013186 0.023107 -0.029265 -0.009169 -0.022617 0.005967 0.027875 0.025429 0.024648 -0.02754 0.010232 0.0075 0.003595 -0.000247 -0.034329 0.022891 -0.022924 0.00639 -0.005635 -0.03436 0.023465 -0.015369 0.017662 -0.005129 0.020229 -0.026252 0.028191 -0.02123 -0.024294 -0.000508 -0.003992 -0.016393 0.023351 -0.025765 -0.007001 0.028275 0.007603 0.023391 0.021407 0.007096 -0.000792 -0.008063 0.034489 -0.016518 -0.02503 0.035915 0.013552 -0.010203 0.002437 0.003809 -0.01256 -0.034415 0.011601 -0.014485 -0.039747 -0.027798 -0.002586 0.032255 0.036864 0.020818 -0.006158 0.034879 -0.002724 -0.014582 -0.029399 -0.001169 -0.01445 -0.02832 0.028848 -0.0085 0.01269 -0.028355 0.007091 0.033275 -0.034541 -0.014814 -0.002224 -0.012117 -0.027727 0.033893 0.019256 0.00893 0.016898 -0.019499 -0.034464 -0.00966 -0.014974 0.011176 0.033397 0.020683 0.005246 0.006556 0.018205 -0.029166 -0.041362 -0.036453 0.036009 -0.018241 -0.020104 -0.046845 0.000562 -0.00729 -0.055474 -0.029191 -0.044932 0.016673 -0.02624 0.006159 -0.000523 -0.014024 0.006814 0.021559 -0.033247 0.026946 0.023408 -0.006562 -0.014271 0.011378 0.002249 -0.014301 -0.003293 0.026405 -0.014266 0.024589 0.040094 0.015073 0.006865 -0.016268 -0.023649 0.002472 -0.052245 -0.020677 -0.048957 2.1e-05 0.00487 0.0121 0.019814 0.028252 -0.03098 0.015989 0.024844 -0.033128 -0.013677 -0.022618 -0.029178 -0.003487 -0.018965 -0.018266 0.003788 -0.021922 -0.022684 0.025753 -0.017067 0.03214 -0.002564 0.004744 -0.040639 -0.057957 -0.006667 -0.003022 -0.039177 -0.033312 -0.022055 0.015662 -0.00836 0.014483 -0.007063 0.018792 -0.001217 0.029491 -0.007076 -0.013475 0.001658 -0.020832 -0.023962 0.010491 -0.015229 0.00101 0.031008 -0.01075 -0.014077 -0.013466 0.017676 -0.037746 -0.015279 -0.00062 -0.046579 -0.009917 -0.021689 -0.020628 -0.019338 -0.014111 0.027575 -0.033558 0.014598 -0.026749 0.001724 -0.005187 0.013744 -0.018386 -0.036227 0.012206 0.039448 -0.020217 -0.004782 0.018069 -0.007918 -0.026319 -0.019895 -0.012529 -0.009045 9.3e-05 -0.029025 -0.001863 8.9e-05 -0.027486 -0.01566 -0.015798 -0.005621 0.013435 -0.021263 -0.000172 0.002174 -0.031578 -0.021619 0.025744 0.012264 -0.010156 0.008377 -0.015024 -0.01604 -0.00021 0.003642 -0.00647 0.020007 -0.034294 0.011896 0.035391 -0.033875 -0.024481 -0.01332 0.009775 0.029415 -0.031772 0.023716 0.033713 -0.031206 -0.032611 -0.000606 -0.006454 -0.038627 -0.018163 0.030943 -0.009551 -0.005575 -0.024637 -0.013369 0.035471 -0.024313 0.002126 -0.025036 0.008238 -0.014697 -0.001293 0.029643 0.002806 0.030358 -0.014706 0.035338 0.00963 0.029154 -0.015776 0.034647 0.016093 -0.000905 0.012599 0.01467 0.026205 0.028256 -0.02199 0.001175 0.03539 -0.014973 -0.006633 0.002274 0.030599 -0.019594 -0.028287 0.027299 -0.014496 0.020168 0.009787 0.008539 0.030988 -0.00877 -0.026519 -0.030349 -0.018115 -0.030349 -0.006079 -0.018125 0.035709 0.00253 0.022814 0.007965 -0.01222 -0.009563 -0.020599 -0.041146 -0.014052 0.02489 -0.003185 0.038927 0.00997 0.03148 0.030133 -0.004501 -0.034134 0.022934 0.032587 -0.008855 -0.029756 -0.030977 0.014973 -0.020844 -0.007428 0.038496 -0.010686 -0.008991 -0.026182 -0.034307 0.021327 -0.020691 -0.033154 0.021112 -0.021999 0.035544 0.005743 -0.033487 -0.011135 0.005877 -0.012511 -0.034534 0.009904 0.038197 0.017419 -0.03461 -0.025011 -0.014063 -0.010364 -0.006223 -0.027123 -0.004368 0.025565 -0.011543 -0.027878 0.010416 -0.037402 -0.02511 0.001989 -0.004097 0.010169 -0.016383 0.015088 0.00942 -0.030354 0.027587 0.033687 0.026408 0.022781 -0.022321 -0.007895 -0.020271 -0.029556 0.024678 -0.005049 -0.039544 -0.002584 0.015562 0.03669 0.007774 0.006162 -0.009411 -0.004451 -0.019437 -0.027413 0.011894 -0.001498 0.031668 0.021213 0.035657 -0.015492 0.02049 0.028188 -0.0171 0.022803 0.016603 0.010494 -0.019526 0.022403 0.019808 -0.019378 -0.027138 -0.002568 -0.009755 -0.022164 0.040578 -0.007452 0.030081 -0.014948 0.019749 -0.004066 0.024434 0.025702 0.004343 0.017536 0.015388 -0.031985 -0.010106 -0.009763 -0.005078 -0.009763 0.024368 -0.025012 0.0332 -0.033587 0.032976 -0.019279 0.020523 0.024127 -0.002149 -0.001307 0.029161 0.034562 -0.024445 0.026679 0.022821 0.019038 -0.03556 -0.03139 -0.009492 0.020357 0.010678 0.006106 0.038351 0.023492 0.035518 0.031443 -0.029041 -0.00067 -0.028616 -0.028964 -0.029447 -0.025903 -0.033242 0.010499 0.012689 -0.009739 -0.010999 0.00034 0.021469 0.009519 0.015489 0.006496 0.022193 -0.004468 0.012949 0.01896 -0.030305 0.011869 -0.015828 -0.01613 -0.005647 -0.019599 -0.016278 0.019081 0.005848 0.010437 -0.02431 -0.009016 0.021928 0.00236 0.036448 0.016188 -0.000834 0.036702 0.014009 0.000988 -0.012141 -0.026349 -0.016063 0.004005 -0.007568 -0.031814 0.012811 0.027784 -0.027031 0.011975 -0.027849 0.000301 -0.010675 -0.002986 -0.013779 0.021769 0.031438 0.015954 0.014924 0.020942 0.019862 -0.012896 0.030955 -0.015154 -0.016588 0.018603 -0.030641 -0.000222 0.009497 0.022986 0.019052 0.027733 0.030838 0.001145 -0.031831 -0.033245 0.019637 -0.034922 -0.024885 -0.034363 -0.014584 -0.017319 0.006099 0.016103 -0.014728 0.013295 -0.028884 0.005751 0.032939 -0.016843 -0.017136 -0.009166 -0.010581 0.011832 -0.008153 -0.034139 0.023096 0.013168 -0.026887 -0.012293 0.02209 -0.003 0.014079 0.03137 0.015849 -0.007017 0.022645 0.018203 0.021558 -0.025111 -0.015566 0.005986 -0.007968 -0.022299 0.028352 0.009195 -0.023004 -0.007633 -0.040095 -0.046954 -0.006999 -0.034584 -0.001144 -0.03957 -0.031135 -0.005518 -0.021592 -0.017745 -0.022412 -0.021847 0.023621 0.036241 -0.007641 -0.027933 -0.023414 -0.036404 0.028602 -0.021677 -0.005172 0.031548 -0.02415 0.022774 -0.009106 0.016556 0.03545 -0.008222 -0.030759 0.033904 -0.022547 0.008029 -0.019714 0.031112 0.008615 0.034288 0.039897 0.013969 -0.037336 0.014485 0.00918 -0.014991 0.014108 0.02904 -0.025672 -0.043157 -0.022565 -0.035733 0.013265 0.028306 -0.021625 -0.012421 -0.023398 0.017944 -0.022489 0.005901 0.027764 -0.025335 -0.004669 -0.001804 0.030855 0.021307 0.001635 0.014243 -0.002107 0.014662 0.013 -0.034108 0.007209 -0.029981 0.028781 -0.002769 -0.034215 -0.039587 -0.015244 -0.006203 -0.01141 -0.023802 -0.003893 0.00248 0.001934 0.021607 -0.021191 -0.024978 -0.012139 -0.020015 -0.003343 -0.019637 0.031419 0.035374 0.023774 -0.011476 -0.012529 -0.028325 0.010548 0.01981 -0.008069 0.025883 0.019958 -0.008269 -0.015991 -0.010268 0.023635 -0.012735 0.02084 -0.017238 0.019162 0.043338 -0.028033 -0.011294 0.009759 -0.020345 0.024932 -0.01953 -0.033591 0.018156 -0.001209 0.027715 -0.004799 0.032519 0.028029 0.015786 -0.02922 -0.003205 0.000441 0.033774 0.020583 -0.017161 0.019695 0.02918 0.017462 0.031773 -0.026131 0.009353 0.009186 0.00346 -0.004022 0.008014 -0.018895 -0.01571 -0.015187 0.001479 -0.03417 0.018264 0.002128 0.031588 -0.003572 0.039149 0.023023 0.024596 0.019362 0.015687 0.028495 -0.026953 0.021848 0.006538 0.000784 -0.006444 0.02686 -0.032237 -0.016818 0.018996 -0.01374 0.010737 -0.018144 -0.007292 -0.000758 -0.004616 -0.023757 -0.01911 -0.033289 -0.033909 -0.03839 0.023428 -0.003238 -0.015716 -0.032043 -0.038473 0.006043 0.014867 0.031791 -0.020919 -0.003902 0.033595 0.02697 -0.023291 -0.031303 -0.008117 0.018059 -0.017767 0.009687 -0.018599 -0.029101 0.032246 0.026849 -0.032997 -0.0306 -0.003875 -0.006113 -0.008854 0.021809 0.010605 0.001718 0.028287 -0.026187 -0.000829 0.013459 0.003755 -0.004065 0.006304 0.026975 0.031196 -0.03073 -0.012506 0.01446 -0.033017 0.0101 0.003625 -0.020889 0.035958 0.01459 -0.009557 -0.035164 -0.000872 0.002106 0.032257 -0.038614 0.000461 0.023829 -0.022586 -0.020697 -0.014514 -0.023306 -0.008713 0.032607 -0.001123 0.027389 0.012777 0.015392 0.0312 -0.021002 -0.023103 0.011773 0.009378 0.011688 -8e-06 0.01657 0.02315 -0.037639 -0.033789 -0.027428 0.016698 -0.01691 -0.016309 -0.02087 0.01252 0.003622 0.000648 0.021535 -0.024322 -0.018496 -0.010466 -0.032837 0.008862 -0.006848 0.005321 -0.025432 0.011696 0.019928 0.024775 0.027143 -0.028862 0.021114 -0.030175 0.028718 -0.033282 0.000999 0.019795 -0.017927 -0.018114 -0.00018 0.032338 -0.021502 0.02951 -0.026379 -0.026641 -0.013069 0.009421 0.024118 -0.013205 0.022583 -0.043103 -0.003013 -0.038156 -0.030087 -0.028131 0.015172 0.012146 0.026608 -0.014462 -0.021557 0.037808 0.03111 0.032625 -0.002155 -0.003567 -0.02793 -0.032766 -0.027131 -0.016178 0.0298 0.014459 0.033334 -0.012958 -0.007402 -0.018355 -0.028861 0.008333 -0.00207 0.020057 -0.007488 -0.015261 -0.030716 -0.014493 -0.021668 -0.002536 0.026583 -0.038446 0.00507 0.018881 -0.007531 0.02484 -0.019986 -0.031509 -0.03255 -0.000738 0.011887 -0.025387 0.030095 0.024533 -0.035429 -0.029488 0.010687 0.01304 0.010225 -0.005491 -0.011445 0.007136 0.019783 0.037402 -0.04059 -0.033362 -0.002143 -0.042058 -0.009242 -0.011732 -0.011306 0.035655 -0.009709 0.001015 0.03642 -0.01483 0.004963 0.000294 -0.038792 0.016257 -0.007183 0.002051 -0.01588 -0.009327 0.028235 -0.032376 -0.020703 -0.022263 -0.020203 -0.004493 0.007809 0.030828 0.018676 0.001329 -0.020419 0.001575 -0.009365 -0.018258 -0.023937 -0.018154 -0.001855 0.042276 0.002118 -0.027 -0.019433 -0.025439 0.007915 -0.038284 0.001381 -0.02851 -0.019477 -0.006881 0.003858 0.005056 -0.03132 0.010212 -0.024636 -0.01187 -0.031732 0.00868 0.026067 -0.030406 0.002632 -0.019598 -0.003471 -0.013898 -0.014262 -0.015685 0.012126 -0.016902 -0.026875 -0.007999 -0.035011 0.009401 -0.008391 -0.013002 0.011968 0.014719 0.030723 -0.001237 -0.00156 -0.019747 -0.00684 -0.034316 -0.00173 -0.020134 -0.003861 -0.023262 0.027581 -0.030924 -0.012893 0.029941 -0.005637 0.027585 -0.028034 0.011579 0.033234 0.027092 -0.026858 0.020289 0.029173 -0.0153 0.000996 0.028617 -0.018089 0.03766 0.020673 -0.002234 -0.040023 -0.005031 -0.021891 -0.029732 0.01969 0.004252 0.027868 0.032896 0.005003 0.019961 0.011568 0.018382 0.018708 -0.01415 -0.023475 0.030229 0.031584 0.01784 0.004769 -0.032876 0.021447 0.014241 0.032761 0.032883 0.013639 0.017287 -0.008293 -0.003606 -0.019541 -0.006283 -0.005023 0.006334 -0.032953 0.003284 0.012003 0.022374 -0.01393 -0.008959 0.011767 -0.02179 -0.028942 -0.019419 -0.031327 -0.027116 0.017534 0.031292 -0.02228 0.011871 -0.035236 -0.026864 -0.021318 -0.014579 -0.011207 0.018999 0.003271 0.014884 -0.030381 -0.010713 0.023672 -0.025216 -0.008025 -0.026189 0.010125 0.016236 0.022341 0.032734 0.032196 -0.02853 0.026358 -0.014159 0.032662 0.031961 0.015356 -0.010485 -0.012889 0.019558 0.023844 -0.025536 0.0017 -3.9e-05 0.022085 0.030103 -0.029703 0.019425 -0.00056 -0.029313 -0.017996 0.029688 -0.02917 -0.018943 -0.018697 -0.001486 -0.001112 0.028503 -0.01149 0.020213 -0.010841 -0.01421 -0.013878 -0.02466 0.01087 0.040786 0.028313 -0.028002 0.01492 3e-05 -0.022572 0.019205 -0.034253 -0.020473 0.022428 0.030775 -0.029064 0.003866 0.015169 -0.002831 -0.022509 -0.022946 0.022763 -0.018168 0.018995 -0.033496 -0.001095 -0.024381 0.028434 -0.025917 -0.035934 0.00157 -0.029237 0.015287 0.04737 0.028692 0.007224 -0.00881 -0.038792 -0.018173 0.031739 -0.001946 0.020513 0.005114 0.007584 0.021688 0.021224 0.011446 -0.01522 0.017706 0.003573 0.006939 0.026034 -0.013334 -0.017525 0.016639 -0.009792 -0.030431 -0.012857 0.008168 0.026243 -0.006821 0.012988 -0.007851 0.002465 0.008122 0.019662 0.028829 0.007063 -0.034423 -0.030957 0.022829 -0.025445 0.026432 0.020549 -0.015809 0.028794 -0.029058 -0.016295 -0.006744 -0.009679 -0.013104 -0.007013 0.02479 -0.011151 0.013985 -0.01349 0.014827 0.01325 0.031124 -0.005766 0.027984 -0.019248 0.02269 -0.017891 -0.032717 -0.030525 0.019328 -0.012039 0.02344 -0.016293 0.004204 0.01524 2.2e-05 0.035839 0.007549 0.02976 0.018233 0.009953 0.029478 0.035668 -0.016879 0.021596 -0.015752 -0.014939 0.008893 0.014034 -0.027235 -0.007408 -0.033625 -0.023269 0.019939 0.02284 -0.020555 -0.014294 0.020231 -0.014026 -0.032783 0.002328 -0.026912 0.003079 0.019494 0.003288 0.004656 0.01356 -0.006403 0.027516 0.00637 -0.009572 0.024066 -0.003836 -0.034921 -0.005001 0.024785 -0.020175 -0.029954 -0.001145 0.031322 -0.016721 0.00309 0.022381 -0.025821 -0.028084 0.009308 -0.006763 -0.031911 0.001859 -0.015049 -0.004222 -0.014024 -0.032981 -0.035655 2.3e-05 0.003656 0.032413 0.045769 0.017983 -0.001655 -0.017523 0.00926 0.01973 0.015931 -0.002572 0.011093 -0.003202 0.008006 -0.035344 0.014404 -0.005942 0.021077 0.038892 0.012335 -0.009395 0.021216 -0.041532 -0.04024 -0.0379 0.012147 -0.040581 -0.042059 0.01774 -0.029873 0.004739 0.00838 0.013705 0.031388 0.001448 -0.035652 0.029741 -0.025229 -0.03204 0.026113 -0.008824 0.015857 -0.026812 -0.025373 -0.016071 0.014678 -0.00115 -0.026178 -0.014854 -0.02034 0.001301 -0.010388 -0.044946 -0.010426 0.015361 0.025238 -0.031008 0.026313 0.020186 0.014722 -0.016182 -0.014574 -0.020713 -0.009909 0.029452 0.001867 0.027951 -0.016486 -0.007919 -0.028764 0.026064 -0.02863 0.031707 -0.014726 -0.02588 0.018126 -0.010655 -0.026345 0.006571 0.020379 -0.010099 0.004729 0.035389 -0.032428 -0.031873 0.022363 0.015984 -0.013887 0.006636 -0.012924 0.012498 -0.008008 -0.000892 0.015434 0.011078 0.033562 -5.5e-05 0.029735 0.037602 -0.010456 -0.037459 -0.015845 -0.003012 -0.004577 0.013649 -0.015998 0.033863 -0.023499 0.025481 0.001306 0.003811 -0.029275 0.027311 -0.00226 0.037299 0.029261 -0.031997 0.016677 -0.049561 0.005005 -0.050203 -0.014585 -0.025091 -0.008825 0.049265 0.031202 -0.008789 -0.019352 -0.010583 -0.002535 -0.022615 -0.041917 -0.020559 0.011412 -0.003578 0.011324 0.033564 -0.016892 -0.01401 -0.030218 0.000345 -0.003568 0.019326 0.014242 -0.002979 -0.047709 -0.017878 -0.00176 -0.038856 -0.00412 -0.02262 0.022692 0.023317 -0.017757 -0.013244 -0.008834 0.021998 0.005492 -0.015101 0.013605 0.025029 0.006096 0.017343 0.019376 0.030083 -0.018755 -0.01273 -0.010513 -0.025627 -0.028651 0.007472 -0.00658 0.017052 0.001455 0.005253 -0.045988 -0.008976 -0.018286 -0.057407 -0.020922 -0.054762 -0.009492 -0.023429 0.003714 -0.023023 0.000896 0.015066 -0.016941 0.016941 -0.020651 0.014998 0.000334 -0.000936 0.02374 0.003826 0.031479 0.008038 0.030667 0.022322 0.034719 -0.001812 0.025103 -0.025187 -0.035089 0.025643 -0.016577 0.000961 -0.019873 0.018083 -0.000546 -0.020885 -0.028032 0.001741 -0.00698 0.008296 0.020543 0.002568 0.0258 0.000577 0.001473 0.015862 