0.073099 -0.00618 0.018638 -0.039103 0.058898 -0.052059 0.018527 -0.048928 0.018216 -0.015017 0.033739 -0.013957 0.0215 0.026953 -0.035204 0.035109 -0.025627 -0.014031 0.038772 0.027384 -0.016262 0.009029 -0.032158 -0.023769 0.04322 -0.005231 -0.000908 -0.02237 0.038733 0.010905 -0.013597 -0.030589 -0.024313 0.020734 -0.026136 0.052908 -0.052104 -0.031139 -0.014627 -0.045923 -0.018399 -0.043664 -0.001405 -0.037524 -0.019335 0.007301 -0.020911 -0.024762 -0.021298 0.018259 0.026698 -0.015142 0.019362 -0.049422 -0.052228 0.040558 0.063009 -0.028641 -0.010288 -0.027228 0.041558 0.023807 -0.025406 -0.020738 0.038815 0.005621 0.011821 -0.004581 -0.027031 0.030429 0.021245 -0.028202 0.006105 0.007576 0.01695 -0.032384 0.063333 -0.032491 -0.001909 0.049416 0.004081 -0.03847 -0.021779 -0.045434 0.042664 -0.027654 0.032594 0.061697 0.035399 0.000552 -0.014257 0.052201 0.013866 0.023764 -0.05344 -0.010922 0.057078 0.008972 -0.001801 -0.004356 0.018793 -0.034918 0.011184 0.017024 -0.022446 -0.039719 -0.016733 0.018412 -0.013079 0.007234 -0.021512 -0.024417 -0.015487 -0.033736 0.022563 -0.006615 0.004383 0.036481 -0.018692 -0.031456 -0.027633 -0.036984 0.01426 0.009058 0.048238 -0.030402 0.033682 -0.021256 -0.013946 0.057067 0.013936 0.022238 0.018886 0.055187 -0.019516 -0.017307 -0.023729 0.016759 0.000658 -0.022323 0.006761 0.014007 -0.009514 0.003503 0.02821 -0.011957 0.028476 0.014485 -0.038199 -0.059472 0.023013 0.035977 0.016046 0.054454 0.010119 -0.038714 0.034792 0.005566 0.041883 -0.030444 -0.029846 0.004808 -0.043632 0.038919 -0.042432 0.01617 -0.023003 0.005795 0.008233 0.047227 0.032899 0.044262 0.0275 0.04543 0.007404 -0.034006 0.034438 0.033007 -0.040731 0.036352 -0.018692 0.025801 0.000365 -0.00757 0.006026 -0.005203 0.059309 -0.026251 -0.022645 -0.064915 -0.020561 0.040813 0.048 0.029207 -0.014323 0.004809 0.014248 -0.012888 0.04536 0.024477 0.012416 0.009885 -0.005329 0.02849 0.039444 -0.017383 0.03861 0.035306 -0.021454 0.042915 0.051852 -0.001132 0.001686 0.007474 -0.030669 0.04609 -0.028844 0.048074 0.053479 0.045666 -0.017592 -0.0301 -0.032697 0.005084 0.044226 -0.009645 -0.014959 -0.012539 0.026783 0.008374 0.003993 -0.043299 -0.029018 -0.04086 -0.004342 -0.019703 -0.019497 0.007609 -0.04144 -0.003178 -0.032624 -0.012336 0.018474 -0.044104 0.052682 -0.007562 0.009479 -0.063801 0.007303 -0.061623 -0.012284 -0.004571 -0.030929 0.006113 -0.022682 0.042782 -0.052968 -0.030553 -0.03372 -0.027443 0.069854 -0.024111 0.011468 0.035326 0.01922 0.025336 -0.036364 0.013009 -0.00778 -0.018667 -0.015716 -0.005697 0.049992 0.005326 -0.031456 0.034691 -0.001398 0.061603 -0.017303 -0.038859 0.024547 0.075595 -0.009337 0.011443 0.003446 -0.01921 0.049467 0.01263 0.040139 0.02624 0.033129 0.060926 0.002174 -0.037317 -0.007746 0.004558 0.010351 -0.041288 -0.032284 -0.018515 0.016416 -0.013035 -0.00306 -0.006864 -0.016524 0.031832 0.006722 -0.022787 0.0103 -0.027051 -0.028583 -0.048356 0.049706 -0.029419 0.061366 0.011023 0.001371 0.009859 0.01373 -0.009293 0.039398 0.023913 0.013518 -0.004287 0.007304 -0.008881 0.015017 -0.022645 -0.004873 -0.031259 -0.003758 0.024361 -0.02508 0.037852 0.010325 0.043124 0.007771 -0.014164 0.028722 0.031496 0.033465 -0.042977 -0.025543 0.005656 0.025145 -0.004193 0.007417 -0.046268 0.016903 0.01125 0.047088 -0.042826 -0.034602 0.011628 -0.042033 -0.003461 0.043606 -0.006388 -0.017467 -0.03853 -0.026237 0.001109 -0.031793 -0.033336 0.024446 -0.008755 -0.026342 0.026547 0.04721 -0.040212 0.067487 0.000255 0.029124 0.043188 -0.040116 0.036953 -0.014154 -0.033866 0.027082 0.068384 -0.036329 -0.00623 -0.034012 -0.008164 0.040092 0.040321 -0.002222 -0.023433 -0.01163 0.011492 0.037346 -0.026323 0.020341 0.006679 -0.042243 0.038565 0.015867 -0.02467 0.006461 0.015568 -0.034362 -0.044624 -0.006056 0.028525 0.015321 -0.03167 0.009909 0.003507 -0.045164 0.029665 0.024017 -0.011136 0.036917 0.064789 0.003195 0.003059 -0.032954 -0.008887 0.010477 0.043579 -0.006383 0.012109 0.06368 0.029714 -0.040554 -0.019249 -0.00783 -0.042961 0.038717 0.002894 -0.00746 -0.025226 -0.005773 -0.026947 0.042479 0.039535 0.029156 0.042232 0.02532 0.032674 0.010584 0.017243 0.05208 -0.013107 -0.032717 -0.02316 0.042714 0.00514 0.020275 0.040347 0.005401 0.005714 -0.019142 0.015128 -0.003527 0.024022 0.0262 -0.019847 0.049061 0.047367 0.021423 -0.007305 -0.002806 0.024558 0.02281 -0.021225 -0.019566 0.064953 0.013085 -0.01613 -0.005111 0.027745 0.030764 -0.003169 -0.018542 0.001811 -0.004852 -0.008206 -0.009542 0.023355 0.027479 0.007609 0.015483 0.024933 0.035307 -0.020405 -0.000371 0.030334 0.041867 0.036423 -0.003296 0.025712 0.011154 -0.040699 -0.030568 -0.032501 0.01167 0.032076 -0.015956 0.037165 -0.028884 0.0204 -0.018875 -0.012293 0.038368 0.000411 -0.019007 -0.024875 -0.014034 0.026066 0.021146 -0.020164 -0.009817 -0.002181 0.003244 -0.015938 0.066997 0.043251 -0.040276 -0.007084 0.013727 0.030139 -0.00669 -0.04545 -0.015309 -0.036707 -0.024275 0.009975 0.017833 -0.018119 0.033754 0.010779 0.032913 -0.011458 -0.027316 0.029606 -0.023523 0.019798 -0.038343 0.015782 0.035991 -0.046655 0.013262 -0.0501 0.007886 0.027471 0.023851 0.065173 0.025287 0.003393 -0.005817 0.021171 -0.050801 0.024464 0.027672 0.050871 -0.031418 -0.018825 0.034586 -0.020284 -0.024781 -0.021102 -0.037616 0.022667 -0.009731 0.00498 -0.038041 -0.006721 -0.00374 -0.009901 0.052059 -0.013852 0.010753 0.036052 -0.028274 0.049994 -0.011688 0.008895 0.046867 -0.004313 -0.021996 -0.004238 -0.022517 0.002246 -0.016918 0.006721 -0.00247 -0.050166 0.02458 0.00394 -0.02789 0.032562 0.00663 -0.000728 -0.01451 -0.007425 0.015949 -0.019641 0.015127 0.000745 0.029669 -0.014416 -0.000467 -0.051903 -0.031468 0.017399 0.037436 0.015598 -0.014728 -0.040642 -0.027053 0.00741 -0.011457 0.001681 0.029912 0.011907 -0.012682 -0.011468 -0.016345 0.030708 0.044849 -0.01019 0.025898 0.029776 0.011028 -0.047409 -0.027512 -0.00289 0.010587 -0.022088 -0.027354 -0.055297 0.014268 -0.019861 0.03569 0.048574 -0.025146 -0.035866 -0.023233 -0.041562 0.014365 -0.011853 0.005971 -0.012398 0.027712 -0.018935 -0.02353 -0.001567 -0.035449 0.039525 0.004972 -0.00355 -0.0106 -0.030785 0.029081 0.008727 0.029121 0.00591 -0.033734 0.03225 0.006458 0.012708 -0.036135 0.004497 -0.0064 0.03203 0.048909 -0.026073 0.021787 -0.024976 0.051249 -0.017607 0.022211 -0.019285 -0.026364 -0.010669 -0.038611 -0.031274 -0.023088 0.012447 0.019123 -0.006743 -0.018305 0.017095 -0.002583 -0.025388 0.010824 0.017827 -0.032062 0.012995 -0.02797 0.036544 -0.042258 -0.001138 -0.030523 -0.012857 -0.02348 0.00538 0.047951 -0.013883 0.007622 -0.032524 0.03937 0.026553 -0.02026 -0.029482 -0.008631 0.01056 0.024961 -0.018906 -0.031399 -0.027985 -0.029338 -0.015431 0.00704 0.017396 0.000702 0.032029 -0.034172 -0.002297 0.023479 -0.028185 -0.035672 0.00482 0.017604 -0.036351 0.018531 -0.044965 -0.00986 0.002213 -0.015055 0.019102 0.002309 -0.02121 0.02086 0.027375 -0.038577 -0.042114 -0.006424 0.027153 0.028749 -0.021858 0.019514 0.015452 -0.04464 -0.01125 0.051421 -0.031807 0.026691 -0.043634 0.031478 0.023379 -0.029277 -0.00384 -0.022853 0.024648 0.024373 0.047274 0.020511 -0.035868 0.005393 -0.011719 0.005169 -0.010461 -0.019775 0.014807 0.016631 -0.034356 0.012389 0.001117 -0.032282 0.022604 -0.01818 -0.015004 -0.041726 0.003211 0.010453 0.005025 -0.013381 0.015158 0.003867 -0.035782 0.02804 -0.005502 0.036665 0.044292 -0.00104 -0.00285 -0.030235 0.038176 0.006826 0.029606 -0.024034 -0.037868 0.016443 0.027939 -0.025324 0.020807 -0.025086 -0.007641 0.032263 -0.003676 0.029646 -0.019485 0.012354 0.005453 0.033916 0.006083 0.001902 0.036 0.031153 -0.044039 -0.009912 0.030989 -0.02713 -0.014429 -0.030894 0.001262 -0.009831 0.021979 -0.000748 -0.040377 0.003676 -0.006781 0.03275 -0.042334 0.037186 -0.012741 0.015046 -0.027544 -0.043629 -0.034541 -0.036057 -0.032843 -0.016913 -0.034277 -0.039946 0.007847 0.016406 0.010201 0.017869 -0.019359 0.0018 -0.042945 -0.020181 0.004746 -0.00884 0.036789 0.04077 0.031814 0.023764 -0.024509 0.035915 0.025877 0.033399 0.010489 0.007422 0.014478 0.001729 0.001564 -0.043774 0.02074 0.0221 -0.019334 -0.037364 -0.002977 -0.029596 0.036154 0.024867 -0.019073 -0.008159 0.003822 0.036613 -0.024555 0.027451 0.008954 -0.014456 0.028432 0.031076 0.004608 -0.031701 -0.025046 -0.020099 0.011312 -0.03824 0.030523 -0.002902 -0.029411 -0.026482 0.017251 -0.038999 0.024622 -0.018242 -0.020908 -0.04381 0.037352 -0.006633 -0.013055 0.030945 -0.002738 -0.025985 0.02193 -0.007108 -0.01014 -0.052744 0.049597 0.061575 0.019596 0.005957 0.009076 -0.003149 0.027941 0.026071 -0.028685 -0.03263 -0.032268 -0.007218 0.001016 0.01962 -0.029138 -0.009922 0.029652 0.038975 -0.010897 -0.024434 0.043325 -0.015948 0.046023 -0.023291 0.050673 0.03933 -0.0367 0.073484 0.008648 0.007117 0.041592 -0.032588 -0.04549 -0.036559 0.02661 -0.044612 -0.002934 0.035359 0.040274 -0.024163 0.007998 0.044681 -0.039282 0.024541 0.00664 0.028865 0.0056 0.002248 0.036064 -0.045758 0.045957 -0.019111 -0.02919 0.041167 0.017664 0.028908 -0.018001 0.061922 -0.055596 0.069562 -0.010092 -0.003149 -0.011782 -0.0131 -0.018175 0.025651 -0.043721 -0.051635 0.004853 0.021661 0.007926 -0.012782 0.034709 -0.031665 0.010221 0.023127 -0.021478 -0.00693 0.012574 0.019087 -0.009553 -0.006242 0.041733 0.029375 -0.038136 0.00886 -0.006526 0.01266 -0.036266 -0.027865 -0.059516 0.03935 0.045546 0.011874 -0.042458 -0.00976 0.016192 0.013306 0.020044 -0.021362 -0.003642 0.026281 -0.039255 0.021135 0.028121 0.002285 0.051453 -0.010037 -0.009835 0.03595 -0.005577 0.000462 -0.026031 0.013568 -0.028055 0.02515 -0.00774 -0.005067 0.012673 -0.000465 0.023021 0.042192 0.009872 0.039947 0.026954 -0.015267 0.025821 0.057789 0.016477 0.029862 -0.044556 -0.005939 0.039188 -0.016693 -0.075663 -0.011706 0.057282 0.008375 -0.042387 -0.00047 0.041069 -0.022358 -0.0358 -0.017639 0.029558 -0.033388 0.047985 -0.014125 -0.003257 -0.02846 -0.082607 -0.004326 0.01987 0.034671 0.041366 0.008987 -0.005477 0.014078 0.001238 -0.044517 0.016998 -0.078913 0.026433 0.009339 -0.039868 -0.049354 0.030241 -0.030175 0.035637 0.023147 -0.00053 0.023985 -0.018411 0.011895 -0.052641 0.011111 -0.03612 -0.016352 0.031154 -0.018199 0.046842 -0.005315 0.017234 0.034252 -0.005073 -0.053209 0.013031 0.036632 -0.042854 0.01864 0.00868 0.04898 0.004605 0.013546 0.001031 -0.001683 0.005759 -0.003049 0.035467 -0.022041 -0.037426 -0.027698 0.047997 -0.029957 0.019129 0.003029 -0.040117 0.058238 0.014114 -0.024847 0.065733 0.064481 -0.004744 0.029529 -0.028349 -0.026789 -0.005782 -0.027048 -0.06393 -0.006384 -0.001327 -0.041541 -0.029305 0.068665 0.001953 0.032486 -0.04457 -0.004233 0.048034 -0.021601 -0.029624 -0.016493 -0.003884 0.047653 -0.020627 0.01093 0.020292 0.048013 0.005718 0.037888 0.049858 -0.031581 0.015053 -0.039137 -0.012699 -0.037387 -0.011334 0.022141 0.016449 0.035409 -0.021248 -0.022908 -0.008253 0.02503 2.1e-05 -0.007747 -0.019368 -0.014834 0.032424 0.046994 -0.002934 0.015509 -0.037213 0.034017 -0.027304 0.042107 -0.00716 0.023849 0.003623 0.042044 0.031193 -0.021908 0.017117 0.015314 -0.045417 0.034521 -0.034003 0.014919 0.045341 0.005969 0.024495 0.005355 0.047414 0.024493 0.036799 0.009826 -0.001466 -0.033749 0.008678 -0.033315 -0.014346 -0.005463 0.011547 0.007222 -0.034096 0.00062 0.011493 0.040059 0.042657 0.006806 -0.002379 -0.011494 -0.019549 0.001318 0.042842 -0.030729 0.027942 0.036089 0.021283 0.012503 0.022926 0.042194 0.023979 0.018214 -0.01329 -0.015331 -0.04494 -0.025989 -0.009032 -0.017366 -0.024404 -0.022228 0.033182 0.002371 0.002522 0.045075 0.034723 -0.04184 -0.022021 -0.019804 -0.011646 0.015618 -0.022767 -0.021551 -0.03167 -0.007903 -0.034605 -0.012219 0.052281 0.028521 0.012765 0.025422 0.030454 0.034442 -0.026577 -0.016966 0.031902 -0.0354 -0.023156 -0.003696 -0.028584 0.035307 0.011736 -0.024342 0.00253 0.01289 0.001252 -0.007372 -0.003258 0.013086 -0.000182 -0.046325 -0.050806 -0.019023 -0.002295 -0.006299 -0.029321 0.010775 0.015772 0.028901 -0.013869 0.013206 -0.028992 0.019837 0.016298 -0.043644 -0.010566 0.022227 0.012862 -0.029268 0.008329 0.009614 -0.021646 -0.020027 -0.007124 0.056226 0.002667 -0.043079 0.021723 -0.031352 0.021221 -0.013819 -0.040946 -0.017773 0.02606 -0.003687 -0.026071 0.035227 -0.013757 0.008904 -0.027785 0.007416 -0.007134 -0.05329 0.04016 0.045359 -0.009308 0.00077 0.034411 0.035362 -0.000575 0.020628 0.008258 0.007211 -0.025196 -0.01667 0.017426 -0.031262 -0.017568 -0.003989 -0.046205 -0.000111 -0.034622 0.006835 0.044829 0.047113 -0.018206 0.033184 -0.018171 0.007364 -0.03318 -0.027455 0.001049 -0.00113 0.054093 -0.028762 0.041489 0.006533 0.044254 0.000553 -0.010109 -0.004381 -0.026934 0.019274 -0.025792 -0.021256 -0.013877 0.035661 0.028386 -0.020943 -0.008202 -0.045376 0.024634 -0.028566 0.020046 -0.042324 0.025867 -0.037043 0.001773 0.005401 0.021049 0.03335 0.001397 0.005908 0.019573 0.002517 -0.012965 -0.012488 -0.028012 0.027956 -0.00971 -0.020641 -0.048724 -0.018655 -0.001997 0.005257 0.021299 0.037407 0.013618 -0.026322 0.029146 -0.039617 0.035672 -0.018869 -0.022364 -0.034492 0.025902 0.038674 0.047461 0.01038 0.068995 0.008449 0.002119 0.015867 0.002713 -0.00411 0.034464 -0.016844 0.009649 -0.002425 0.034502 -0.001861 -0.033079 -0.013769 0.040667 -0.007252 0.010086 0.054002 0.073978 0.031666 -0.037286 0.045523 -0.007802 0.043252 0.000955 -0.055735 0.006101 -0.002437 0.030436 0.044586 -0.025296 -0.001668 -0.040217 0.038893 0.022884 0.041007 0.033012 -0.007641 0.022313 0.051524 0.00764 0.003972 0.016213 0.073507 -0.070468 0.022378 -0.040956 0.008167 0.02629 0.059274 -0.033495 0.022758 -0.031422 0.06081 0.035754 0.021333 -0.019172 -0.044597 -0.054577 -0.017765 0.042274 -0.027469 0.018531 0.02893 -0.03749 -0.048598 0.02343 0.030902 0.031103 0.039141 -0.041662 0.000738 -0.032249 -0.042328 -0.050972 0.006267 -0.014481 0.041367 -0.02775 -0.050014 -0.043224 -0.011568 0.007999 0.02463 -0.002834 0.076767 0.017976 0.014444 -0.053887 0.037418 0.007096 0.028678 -0.020821 0.055401 0.020725 -0.000399 -0.045003 0.002296 -0.010469 -0.00274 0.003929 -0.007642 -0.017115 -0.025554 -0.001788 0.039798 0.004258 0.056901 0.00879 0.009847 0.009178 -0.034188 -0.061024 0.019968 0.011053 0.003684 -0.013209 0.054014 0.01723 -0.017814 0.043368 -0.058583 -0.053313 -0.016438 -0.00036 -0.038954 0.014349 0.025771 0.009797 0.043565 0.020248 0.004499 0.025779 -0.023081 0.038253 0.015045 0.077512 0.014107 -0.021961 0.043711 0.041364 0.046255 0.059553 0.033811 0.021382 0.012039 0.036987 -0.07507 -0.009692 -0.022811 -0.059208 -0.011198 -0.047531 -0.019339 -0.01822 0.02862 0.03074 0.039132 -0.048352 0.009336 -0.010786 -0.023484 -0.053072 -0.041179 0.023175 0.019353 0.014381 0.002668 -0.061022 0.009528 0.021745 0.027367 -0.011675 0.010552 -0.012636 -0.035299 0.048203 -0.038029 -0.003996 0.01591 -0.001048 -0.023593 -0.007524 -0.004144 0.033847 0.033185 -0.033735 -0.023974 -0.021266 -0.022517 -0.024714 -0.00651 0.033222 -0.009275 0.016671 -0.076194 -0.012813 0.085924 0.005348 0.009243 -0.034468 -0.021976 0.012903 -0.044936 0.034009 0.044687 0.014741 -0.026387 0.037221 0.007813 0.003131 0.031439 -0.044005 0.038029 -0.004669 0.012265 -0.006327 0.009486 0.023907 -0.036833 -0.027368 -0.015249 -0.039368 -0.038644 -0.011824 -0.000551 0.011629 0.019085 0.00302 0.030595 0.024576 0.05691 0.041289 0.046815 -0.015473 0.014543 -0.020948 0.039928 0.048686 -0.012034 0.014947 0.039737 -0.070643 0.036542 -0.032069 -0.003994 -0.044968 0.037608 -0.006742 -0.015279 -0.020713 -0.017554 -0.000824 0.011422 -0.014522 -0.026304 -0.067066 0.046791 0.033392 0.018841 -0.068014 0.007809 0.025871 0.017892 -0.027275 0.016038 0.017042 -0.017411 -0.019689 -0.045526 -0.017637 0.034196 -0.027271 0.047733 -0.033095 0.054942 -0.029849 0.023904 0.03228 -0.052128 0.014149 -0.029089 -0.018552 0.003196 0.028253 0.027644 -0.010035 0.021149 0.019011 -0.028721 -0.01088 0.0233 0.019206 0.007651 0.063515 0.021783 0.012937 0.027769 -0.044711 0.035746 -0.053142 0.026587 0.006584 -0.026446 0.03725 0.021826 0.034891 0.047953 -0.018553 -0.021915 0.036949 0.038503 0.04444 0.032697 -0.039574 -0.032696 0.031146 -0.025543 -0.001444 0.007585 0.021318 -0.031098 0.050073 0.024366 -0.015065 0.0114 0.004414 0.011901 -0.021219 0.03995 0.012633 0.003716 -0.007908 0.049794 0.013494 -0.009362 0.04652 -0.02185 0.003971 0.040162 0.048845 0.004164 0.000162 0.02102 -0.018518 0.020352 0.007692 0.015553 0.037588 0.069191 0.04223 -0.027292 0.043189 0.013131 -0.012396 0.024629 -0.026284 -0.002586 -0.031472 0.020526 -0.029522 -0.027345 -0.00503 0.029332 0.0378 0.00097 -0.030215 -0.02557 -0.034182 -0.008501 0.020125 -0.044218 0.041981 -0.006384 0.048983 -0.014892 -0.009838 0.005961 -0.033928 0.001232 0.012478 -0.016659 -0.028946 0.003491 -0.02972 0.003848 0.048791 0.009518 0.044495 -0.022911 -0.026034 0.013083 0.070189 -0.040518 0.037941 0.011521 -0.005225 -0.034614 0.004513 0.040929 -0.001035 -0.02665 0.01882 0.02156 0.015462 -0.018884 0.001475 -0.019091 0.035203 -0.043376 0.030872 0.02077 0.015543 -0.004381 -0.01993 0.004504 -0.026942 0.032901 -0.02983 0.022283 0.021368 0.010345 -0.003176 0.020064 0.020858 0.023388 0.024406 -0.045283 0.017678 0.002846 -0.036413 -0.003682 0.005719 0.032283 0.039314 0.026973 0.007858 0.039292 0.032604 0.004317 0.038693 0.016699 0.020132 0.015676 -0.042248 -0.029885 0.009607 0.01429 -0.028921 0.018947 0.005852 0.007581 0.014363 0.039062 0.031854 -0.01463 -0.036664 -0.038744 -0.00533 -0.04144 0.040685 0.038613 0.007068 0.035919 -0.005878 0.033938 -0.003023 -0.028952 0.029158 0.031013 0.026048 -0.029849 0.03133 0.028233 0.006544 -0.020733 0.034246 -0.02436 -0.016941 -0.019234 0.004326 0.035003 0.015769 -0.009817 -0.03529 0.006823 -0.030513 0.012866 -0.034712 -0.043357 0.012173 -0.024672 -0.040394 -0.026792 -0.003696 0.003813 -0.003838 0.036517 -0.044197 -0.011047 0.042368 -0.018807 -0.02255 -0.016726 -0.0293 0.011158 0.035684 -0.003898 0.001012 -0.029424 0.041246 0.034115 0.017817 -0.030866 0.026337 -0.043049 -0.036529 -0.032555 -0.002742 0.006021 -0.004124 -0.039768 0.023902 0.00289 0.02238 -0.001211 0.006184 -0.028633 0.02922 -0.047364 0.03965 -0.019605 0.030693 0.01546 -0.001995 0.037225 0.067027 0.021594 -0.027007 0.05257 0.043014 -0.035076 -0.018505 -0.011846 -0.048752 -0.001969 0.001226 -0.021118 0.033009 0.024768 -0.005472 0.008904 -0.007772 -0.010519 0.060311 0.046609 0.025209 0.025598 0.000295 0.0089 -0.04922 0.015202 0.027901 0.042653 0.032416 0.036094 -0.053132 0.036034 0.002345 0.022956 -0.022114 0.040169 0.017134 0.012434 -0.008558 0.028987 0.018367 -0.028663 0.053042 0.022103 0.035235 0.004701 0.031107 -0.014427 -0.019683 -0.044471 0.041502 -0.009727 -0.019665 -0.011497 -0.026745 0.016703 0.033128 0.042554 0.043795 -0.031641 0.006124 -0.042487 0.020927 0.047778 0.046519 -0.038916 0.007895 0.014403 -0.028019 0.041721 -0.014823 -0.033339 0.043118 0.011919 -0.040728 -0.02207 0.022175 -0.036993 -0.034995 -0.021718 -6e-06 0.000984 0.01601 -0.037325 0.027505 0.016905 -0.045463 0.031749 0.057314 0.022257 -0.000111 0.015267 0.067278 -0.020344 0.011649 0.020652 -0.00253 0.015699 -0.014837 -0.038852 -0.005385 0.0377 0.086095 0.029466 0.080275 -0.015489 0.011773 -0.014632 0.015411 0.025832 -0.008694 0.020462 0.015681 -0.001337 -0.005831 0.023476 0.030727 0.032078 0.05637 -0.016458 0.012702 -0.010804 0.030468 -0.030304 0.04085 0.002922 -0.052746 0.021164 -0.029567 -0.010422 0.01417 0.018123 0.009035 0.024075 -0.009453 0.017051 0.039599 -0.005231 0.027728 0.011577 -0.030157 0.054465 0.007322 0.050315 -0.020229 0.040821 -0.021454 0.011874 0.023947 -0.031141 0.028655 -0.00021 -0.030291 -0.048593 0.031202 -0.016599 0.031985 0.03249 0.029692 0.054434 -0.012872 0.017113 0.030338 0.001345 -0.002045 -0.007557 0.03416 -0.041906 -0.029373 -0.008047 0.010632 0.02565 0.011666 -0.009853 0.049504 -0.024723 -0.027638 -0.031605 -0.045769 0.026803 0.003058 0.021703 -0.013077 -0.04929 0.026768 -0.032623 0.006026 -0.031888 0.031116 0.019161 -0.010374 -0.01515 -0.017356 0.007322 -0.026386 -0.033877 -0.003447 -0.043623 0.038139 0.051753 -0.044265 0.017561 -0.019896 0.02774 -0.022591 0.007386 0.005848 0.019741 0.011268 0.041075 0.028349 0.00982 -0.024307 -0.006697 0.021855 -0.025929 -0.043634 -0.030254 0.047808 0.005563 0.02144 -0.00949 -0.001126 0.008106 -0.045849 -0.041685 -0.001805 0.005562 -0.015736 0.033884 -0.036157 -0.036573 0.006515 0.023179 -0.026256 0.016857 -0.036101 0.043488 0.037058 -0.031299 -0.029432 -0.01869 -0.019858 -0.017652 0.018142 0.014263 -0.037893 -0.037139 0.022431 -0.028101 0.04101 0.009216 -0.018129 0.027093 -0.061372 0.004349 0.033002 -0.023407 -0.035162 -0.027998 0.001919 -0.018301 -0.004492 0.022584 0.036465 -0.000942 0.008019 0.021219 0.025114 -0.046828 0.003332 -0.007824 0.052658 0.04269 0.073263 0.03186 0.012913 0.041017 0.011335 -0.045688 -0.040749 0.020165 0.004584 0.008381 0.046494 0.031598 -0.015932 -0.041847 -0.040051 -0.022611 0.022848 -0.032774 -0.031136 0.02862 0.029339 -0.01764 0.028581 0.02125 0.034141 -0.005652 0.022004 0.001533 -0.039012 -0.000564 0.03414 0.039494 0.016338 -0.01728 -0.005017 0.034882 0.020603 0.002952 -0.042958 0.009689 0.023957 0.006125 -0.046519 0.024881 0.035551 0.065643 0.01207 0.038378 -0.034844 -0.003068 0.0389 0.035634 -0.056607 -0.00644 0.026639 -0.033543 -0.047815 -0.009715 0.04828 0.025727 -0.012224 -0.034794 -0.027852 0.005626 -0.016824 -0.017716 -0.038188 -0.031886 0.050767 -0.028304 0.03298 0.007728 0.014182 0.0078 0.053196 -0.000216 -0.002597 -0.046627 0.02692 0.048728 -0.026893 0.026413 0.020642 -0.045563 -0.01208 -0.043311 -0.001791 0.029407 -0.039136 -0.002212 -0.054244 -0.013608 -0.029609 0.031109 -0.056516 -0.008258 0.035301 0.004551 0.022803 -0.043231 0.030039 -0.027144 0.020899 -0.037489 -0.047627 0.04611 0.012274 -0.026305 -0.003773 -0.036556 -0.013304 0.051546 -0.04083 0.004477 0.046139 0.020838 -0.010223 -0.04645 0.056763 0.020267 0.032078 0.037556 -0.022691 0.029566 -0.016185 -0.014126 0.015882 0.011239 0.00492 0.039055 0.029754 0.042538 -0.006511 -0.010463 0.030084 -0.00834 0.019664 0.036719 -0.028989 0.023267 -0.034657 0.080122 0.044596 -0.001383 -0.021764 0.017876 0.007799 0.031066 0.00264 -0.005205 0.051975 -0.014086 -0.000421 -0.028282 0.020646 0.039206 -0.020634 -0.004986 -0.03552 0.041271 0.04263 -0.004325 0.004055 0.011592 -0.032627 0.016594 0.0124 0.032235 0.012543 0.025813 0.03253 0.01816 -0.023976 -0.008029 0.035303 -0.050993 -0.030873 0.030354 0.038734 -0.015034 -0.015274 -0.004647 0.039668 0.039111 0.022253 -0.038924 -0.022296 -0.014659 -0.046089 -0.011321 -0.024473 -0.023701 -0.022323 0.012784 -0.009014 -0.0006 -0.022273 0.045064 0.020987 -0.005056 0.027957 0.049077 0.028633 -0.007463 0.003015 -0.010804 -0.04503 0.058205 -0.020475 -0.001894 -0.032188 0.06443 0.023655 -0.052497 0.042474 -0.000445 0.044002 0.001942 -0.003808 0.017853 0.016875 0.010341 -0.018845 0.036321 -0.0053 -0.038534 0.056968 0.046198 -0.000402 0.018693 0.020503 -0.017634 0.04496 -0.046588 0.043028 0.027442 0.036866 0.010667 -0.013692 0.062458 -0.022616 -0.0485 -0.006992 0.038796 0.008032 -0.024345 0.000949 0.031234 0.01331 -0.024132 0.022115 -0.001348 -0.037143 0.049885 -0.025581 0.043861 -0.035607 -0.016391 -0.009012 -0.010833 0.005118 -0.019068 0.001508 0.038667 -0.044387 0.020237 0.0024 0.022831 0.003207 0.004192 -0.019478 0.024937 0.032031 0.030884 0.011258 -0.045104 -0.047592 0.02648 0.003834 -0.022263 -0.000196 -0.015582 -0.058333 -0.030062 0.026068 0.006767 0.039965 -0.042703 0.018239 0.031608 0.018338 0.026556 0.02774 0.016371 0.006812 0.053253 -0.028545 -0.020522 -0.028101 0.018846 -0.02663 -0.01192 -0.047485 -0.029561 -0.043766 0.021947 -0.042584 0.001656 -0.04556 -0.061099 -0.004764 0.037648 -0.015742 -0.006082 -0.039458 0.000583 0.024398 0.045732 0.013193 0.018167 0.031053 0.002049 0.001903 0.026957 -0.038714 0.016527 -0.025076 -0.022381 -0.022938 0.042832 0.028682 -0.008201 -0.032688 0.00364 -0.039858 -0.023459 -0.014591 0.012043 -0.007342 0.024335 0.049421 -0.040835 0.005984 0.051487 0.059143 -0.004608 0.018482 -0.005444 0.043708 -6.1e-05 0.007495 -0.011919 -0.024761 0.019101 0.017215 0.010681 0.04417 -0.000111 -0.018928 -0.039897 0.074767 0.033588 -0.034526 0.034368 0.010436 -0.014273 -0.028044 0.017341 -0.01325 0.015923 -0.014566 -0.021482 0.05605 0.059407 0.002459 -0.02635 -0.011633 0.014421 0.006457 -0.03001 0.022196 -0.010851 -0.012887 0.025543 -0.006608 0.072715 -0.039869 0.037041 -0.035652 -0.03492 -0.0081 0.05612 -0.011323 0.027598 0.043197 0.068524 0.040925 -0.03229 0.017934 -0.034828 0.010155 0.052101 0.004582 0.005697 -0.032016 0.033264 -0.024471 0.001378 0.031026 -2.5e-05 0.009075 0.019145 -0.042596 -0.036399 0.03099 -0.033865 -0.012152 0.021698 0.046398 -0.029326 0.018711 0.025016 -0.04676 0.054823 -0.042189 0.025231 -0.003167 0.032867 0.025653 -0.046443 -0.008285 0.034837 0.021999 0.020498 -0.017375 0.040105 0.017583 0.005249 -0.041014 -0.036112 0.014021 -0.043763 0.021167 -0.014798 0.007068 -0.009626 0.019679 0.038418 0.027515 0.03195 0.005417 -0.04125 -0.03831 -0.025461 -0.022712 -0.036975 -0.002659 0.03679 -0.051578 0.021582 0.037043 -0.048337 0.001627 -0.040457 -0.024915 0.046126 -0.002022 0.013437 0.008216 0.038802 0.042529 0.040472 0.00535 0.055061 -0.001194 -0.020687 -0.026678 -0.038363 0.044057 0.030329 0.005726 -0.041585 0.019799 0.014179 -0.036319 0.028507 0.011544 0.027283 0.013283 0.015526 -0.010863 -0.004954 -0.017063 -0.051612 -0.032387 -0.025656 -0.043835 0.027742 -0.024666 0.042835 0.031202 -0.011255 -0.014503 -0.018564 0.040631 -0.023736 0.029394 0.02332 0.008622 -0.004697 -0.040716 -0.012029 -0.044076 0.011984 0.030106 2e-06 0.019582 0.010806 0.054849 0.006518 0.008689 -0.004412 0.009426 0.001786 0.017902 0.038997 0.013707 0.03081 0.013551 -0.036205 0.012012 0.019179 0.008925 0.0315 0.003622 -0.030962 0.04133 -0.045385 -0.00562 -0.023357 0.010849 0.034198 -0.014544 0.005838 -0.040187 0.03232 0.023294 0.008581 -0.030028 -0.036522 -0.032801 -0.038388 0.00879 0.004708 0.037793 0.016137 0.024366 -0.043537 0.019523 0.050534 -0.014051 -0.004751 -0.014315 0.043013 0.032554 -0.009208 -0.032919 0.031532 -0.004775 0.019082 -0.026037 0.006967 -0.026439 -0.018007 0.017437 0.048778 0.023772 0.027571 0.0091 -0.013752 0.009047 -0.030265 -0.011129 0.002929 -0.024594 -0.039973 -0.013805 -0.009944 0.039838 -0.029077 -0.045587 0.01151 0.00481 -0.024612 0.015345 -0.027504 -0.060148 -0.032105 0.001358 0.004419 0.002076 0.02021 -0.039802 0.010857 -0.036917 0.029659 -0.030815 -0.040105 -0.03196 0.04 -0.000918 -0.013367 -0.027083 -0.023099 -0.022828 0.04244 0.02631 0.026864 -0.044347 -0.034358 0.028373 0.011976 0.01895 0.020012 -0.042912 0.036044 -0.038337 0.031353 -0.0343 -0.026254 -0.032316 -0.005361 0.035409 -0.030585 0.016513 0.045058 -0.014094 -0.023238 -0.035863 0.024657 0.019123 0.025549 0.013806 -0.037202 -0.028187 -0.035372 0.015778 -0.028501 -0.023145 0.017902 0.021194 -0.034841 -0.028417 0.006608 0.0227 -0.040361 0.003052 -0.038809 0.024825 0.009661 -0.005395 -0.042258 0.038285 -0.031555 -0.033267 0.023692 -0.03705 0.043397 0.021156 0.028803 -0.006267 0.012097 0.002515 -0.039991 0.037332 0.041493 -0.005897 2.9e-05 0.010539 0.010144 -0.000764 -0.016678 0.000172 -0.00855 -0.036518 0.032822 -0.017035 0.035414 -0.004005 0.008298 0.036672 0.033871 0.03576 -0.001001 0.026588 0.030431 0.036387 -7.7e-05 -0.032308 0.049883 -0.015175 -0.00615 0.03006 -0.024754 -0.014975 0.011832 0.04233 -0.014505 0.018391 0.030365 -0.029868 -0.000525 -0.00627 0.026972 -0.022726 0.008836 0.044354 -0.038904 -0.000582 -0.039422 -0.04073 -0.006265 -0.032658 0.021961 0.013575 0.016719 -0.03382 0.040663 -0.03355 -0.044973 0.016203 -0.00927 -0.004483 0.028955 0.011626 0.021057 0.025354 -0.021996 0.031802 -0.004898 0.027178 -0.057654 -0.021379 -0.048015 -0.031848 0.028297 -0.032721 -0.010138 -0.016678 0.043059 -0.027097 -0.010043 0.016146 -0.026005 0.048548 0.010949 0.03848 0.046889 0.003387 0.016156 0.015374 -0.03306 -0.019663 -0.037764 -0.03238 0.009383 -0.007564 0.039115 0.036125 0.034897 0.07849 -0.008421 0.014491 0.022941 -0.040144 -0.02784 0.021777 -0.044254 0.000998 0.013043 -0.005362 -0.014742 -0.037643 0.027913 0.006826 -0.001648 0.044104 0.038991 -0.03955 -0.039465 -0.037511 0.029594 0.065176 0.04676 0.015984 -0.021829 0.036933 -0.00514 0.039278 -0.009447 0.010997 0.039375 -0.03356 0.042157 0.005035 -0.013922 0.041291 0.002649 0.043662 0.009776 -0.018669 -0.051258 0.048876 0.007399 0.032076 -0.047277 0.001277 -0.017534 0.041402 -0.007054 0.034634 0.036812 0.037579 0.002894 0.034358 -0.014421 -0.006366 -0.006377 0.007397 -0.03278 0.005968 -0.015985 0.005531 -0.00017 -0.041115 -0.026172 -0.047995 0.034121 0.006954 -0.006594 0.042859 0.002407 0.017672 -0.035383 -0.027949 0.005015 0.006827 -0.013 -0.050702 0.021242 0.011538 0.041807 0.058736 0.025298 0.057051 -0.037878 -0.029093 0.047785 0.050277 -0.021964 -0.046929 -0.03736 -0.034418 -0.023028 0.032099 -0.005539 0.049286 -0.010265 0.043803 -0.013169 -0.022345 -0.049547 0.028969 -0.011793 -0.010735 -0.016509 0.020243 -0.02422 -0.045688 -0.028551 0.032863 0.021122 0.030347 0.017072 0.027996 -0.014734 0.056863 0.037431 0.023052 -0.002132 -0.016497 0.032049 -0.023766 0.03755 0.001952 -0.014611 0.005464 -0.006572 0.016708 -0.00516 -0.047192 -0.018329 0.028795 -0.031601 -0.031212 0.04375 -0.025492 -0.01579 0.064595 -0.013788 -0.010419 -0.025001 0.005604 0.034156 -0.002 0.016189 -0.034597 0.029448 -0.006594 0.000678 -0.03873 -0.005174 0.004985 -0.00787 -0.029621 -0.004766 -0.028319 0.036476 -0.02879 -0.019538 0.025961 -0.038663 -0.025872 -0.01478 0.033454 0.051495 -0.025087 0.020289 -0.014109 -0.010093 -0.027674 -0.014294 0.045213 0.014889 -0.03772 0.045464 -0.036993 -0.01484 -0.006843 -0.029408 -0.011339 0.01863 0.007329 0.007226 -0.035243 -0.013865 0.001817 0.054038 0.017558 -0.018849 0.00696 0.054576 -0.043587 -0.010608 0.01028 -0.007271 0.024772 -0.043497 -0.005937 -0.014403 0.031604 -0.020922 -0.017076 -0.00455 0.02441 -0.010072 -0.020461 -0.029043 0.030818 -0.000194 -0.031411 -0.019246 0.040197 -0.035447 -0.02679 -0.02036 -0.030479 -0.042468 0.015147 -0.011689 -0.049389 0.021994 -0.039586 -0.036374 0.000612 -0.005311 -0.032638 0.029283 0.034981 0.004473 0.036131 -0.025075 -0.042915 -0.044671 0.036012 -0.02654 0.018495 -0.029791 0.034766 0.011632 0.036411 -0.026409 0.018254 -0.009923 -0.00978 0.004533 -0.00029 0.030148 0.042081 -0.024867 -0.023804 0.013643 -0.024298 -0.029009 -0.041749 -0.008875 0.006338 0.005184 -0.026109 -0.003355 0.007229 0.016851 0.028117 -0.012343 0.043134 0.002577 -0.00867 -0.044136 0.042536 -0.031194 -0.003041 0.003707 -0.024939 0.007318 -0.00419 -0.021232 -0.041618 -0.032965 0.022818 0.025106 -0.027741 0.012951 -0.041283 0.008358 0.041427 0.035886 0.032117 -0.00908 -0.019532 -0.042101 -0.040751 -0.020414 -0.02424 -0.03787 -0.039789 0.042071 -0.001546 0.040821 -0.009448 0.020769 -0.027957 0.027696 0.002433 0.023885 -0.030997 -0.003028 -0.025218 0.030756 0.005093 0.024183 -0.001848 -0.020268 0.017816 0.016403 0.010733 -0.017619 0.000818 0.007874 -0.0278 0.031095 -0.02461 -0.001064 -0.014816 0.031075 0.035552 -0.014337 0.033326 0.038245 -0.043357 0.025871 -0.038791 -0.021207 0.002325 0.039611 -0.037598 -0.038713 -0.001353 -0.021272 -0.027874 0.042616 -0.031251 0.039113 -0.025271 -0.042827 -0.030452 0.027822 -0.012833 -0.004445 -0.026415 -0.039293 -0.042573 -0.017899 -0.001157 -0.028877 0.040923 0.050513 -0.042081 0.024452 -0.051399 -0.027917 0.055439 0.006629 0.006673 -0.045871 -0.053947 0.021966 0.024411 -0.033645 0.044455 -0.03091 0.056463 0.005361 -0.036224 0.006858 -0.030835 -0.028288 -0.038012 0.011412 0.024355 -0.022218 0.010501 0.020731 -0.01742 0.04245 0.028959 0.029984 -0.053015 0.044421 0.045537 0.03379 0.036761 0.007824 0.012984 -0.046276 0.000936 0.029355 -0.017648 0.023282 0.019167 -0.020061 0.027963 0.030936 0.022658 0.009744 0.045981 -0.029655 0.009432 -0.051193 0.050273 0.038338 -0.007377 -0.015384 0.026834 0.018339 -0.034697 0.019115 -0.03817 -0.002428 -0.014896 -0.033147 -0.012005 -0.009845 -0.005801 0.054863 0.032063 0.014037 -0.001486 -0.00565 -0.007268 0.059004 -0.005336 -0.029083 -0.039334 0.003374 -0.016978 0.040818 0.013686 0.039362 0.052073 -0.035838 0.012736 -0.01021 -0.024551 0.032501 -0.02389 0.002242 0.035269 -0.017712 -0.018888 0.056617 -0.02416 0.043385 0.027662 -0.039722 -0.002102 0.010579 0.020272 -0.000355 0.036447 0.023909 0.030522 -0.020714 0.005877 -0.040131 -0.001154 0.041561 -0.055677 -0.01566 -0.037137 -0.05064 0.03046 0.004635 -0.0013 -0.03257 0.045389 -0.01606 0.0072 -0.026007 -0.034083 -0.052204 0.002723 -0.022833 0.035148 0.05183 -0.018247 -0.023921 -0.019092 0.036875 0.005537 -0.01266 0.043943 -0.028159 -0.002434 0.030553 0.04562 -0.018095 0.019714 0.031373 0.039454 0.022353 0.029158 0.014712 -0.014381 -0.007578 0.028688 -0.003924 0.025209 -0.022645 -0.023286 0.029333 -0.023807 0.047966 -0.025821 -0.041245 -0.045409 -0.030083 -0.014261 0.035286 0.03136 -0.014833 0.003659 0.025607 0.02225 -0.006261 -0.029225 0.006996 -0.0141 -0.019505 -0.026922 -0.012425 0.052861 0.022375 0.025342 0.053504 -4.3e-05 0.030239 0.059095 0.040632 -0.010762 0.053481 -0.026544 -0.013964 0.023114 -0.005532 -0.032129 -0.013071 -0.007055 0.040895 -0.015538 -0.021664 0.033369 0.024589 -0.015006 -0.028374 -0.021721 -0.008808 0.061642 -0.015687 0.02062 -0.032654 0.027261 0.045832 -0.006335 0.055417 0.038651 -0.02016 -0.011694 -0.017221 -0.032685 0.046088 0.004045 0.007949 0.030148 -0.028967 0.003893 0.014318 0.03506 -0.03881 0.011644 -0.040427 0.039918 -0.031189 0.050134 -0.018117 -0.009966 -0.043055 0.009924 0.01043 0.003112 0.035206 -0.011625 -0.014133 0.015857 -0.024977 -0.060409 0.02381 0.029512 -0.053147 0.002864 0.057583 -0.000518 -0.007426 0.027279 -0.01052 0.003535 -0.020974 0.016003 -0.023184 -0.003872 -0.019592 -0.015717 0.037281 0.042281 0.027704 0.008588 -0.01421 0.036013 -0.028179 -0.005613 0.024791 -0.038953 0.022216 -0.02062 0.01015 0.060577 0.056892 0.012905 -0.030896 0.049544 0.009481 -0.048766 -0.034885 0.02414 0.010311 0.009754 -0.041194 -0.003828 -0.026008 -0.032839 -0.030529 0.06556 -0.042608 -0.026629 -0.016704 -0.00214 -0.004583 0.005024 0.01294 -0.007681 0.000436 -0.020307 0.069287 0.004675 0.01946 -0.03192 0.026015 -0.002854 -0.021995 -0.053465 -0.022456 -0.033828 -0.015317 0.026351 -0.017358 0.037454 0.002729 0.011378 0.048031 -0.002957 -0.007828 0.020321 -0.036743 -0.007421 0.042856 -0.037994 0.038688 -0.004027 0.039733 -0.03334 0.027926 0.007176 -0.027535 0.029653 -0.008451 0.036743 0.031963 -0.021968 0.007947 0.021783 -0.027491 -0.036744 0.043809 -0.019619 -0.014443 -0.010266 -0.036269 -0.044691 -0.009287 0.008846 -0.023913 0.01871 -0.016056 0.048965 0.048481 0.00104 -0.0075 -0.014503 0.045355 0.004408 -0.018708 0.027871 0.030451 -0.041878 -0.001775 -0.044508 0.020674 -0.008565 -0.038336 0.050808 0.010722 0.003774 -0.024022 -0.025424 -0.00873 0.021578 0.015192 0.043035 0.0146 -0.00878 0.022566 -0.009861 0.017932 -0.043299 -0.010556 0.030893 0.038953 -0.008482 -0.070555 -0.025327 0.040444 0.021354 -0.026703 0.05896 0.047215 0.027773 0.054851 0.1013 0.007332 0.005119 3.5e-05 0.000302 -0.033331 0.028344 -0.034701 0.005849 0.013039 -0.031765 -0.016221 0.02401 -0.028035 0.025415 -0.032463 0.023361 0.007403 0.051953 -0.021557 0.040288 0.065861 0.015159 -0.011459 -0.004007 0.042021 -0.029033 0.035443 -0.0121 -0.006696 0.039379 -0.001262 -0.031429 -0.014305 -0.02705 0.02303 0.039965 0.033263 0.029832 0.003775 0.076656 0.012299 0.003928 -0.01508 0.083641 0.051883 0.044333 -0.001213 -0.025995 -0.000424 0.023197 0.012923 0.012928 -0.05227 -0.016937 -0.02148 0.013677 -0.053908 0.028155 0.047553 -0.028549 0.014641 0.055916 -0.036815 0.003538 -0.010563 -0.002326 0.024941 0.033144 -0.004316 -0.032645 0.023991 0.047492 0.046482 0.009999 -0.038306 -0.03618 0.024877 0.02152 0.045729 -0.001577 -0.007163 -0.002706 -0.036063 0.012616 0.025528 0.036604 -0.024158 -0.036945 0.037065 0.03381 0.004977 0.050115 -0.045617 0.000366 0.04136 0.059752 0.01586 -0.043465 0.024099 -0.004968 0.02372 -0.006682 0.045652 0.020014 0.05539 0.016821 -0.024501 -0.0088 0.072578 0.064804 -0.012329 0.011776 -0.025907 0.022931 -0.041041 0.041177 -0.030437 0.023833 0.034526 -0.044096 0.024792 0.04448 -0.003727 -0.02367 -0.033067 0.019861 0.033068 -0.013442 0.047065 -0.013476 -0.011585 0.027978 -0.012498 0.042852 0.00315 0.019524 -0.047315 0.009247 -0.039222 -0.027381 -0.038588 -0.004451 0.039532 -0.0043 -0.017202 0.003056 -0.027084 0.014081 0.027926 0.024993 -0.041456 0.014071 -0.045992 0.022319 -0.010803 -0.016235 0.002382 0.036217 -0.012429 -0.031001 0.005215 0.014043 -0.030697 -0.012778 -0.000955 0.020308 0.017536 0.043986 0.023803 0.022375 0.011169 -0.032094 -0.030956 0.038634 0.031233 -0.008506 0.003559 -0.034402 0.050496 0.015397 -0.017557 -0.040989 0.034067 -0.009057 0.038203 0.013976 0.027314 0.012294 0.018458 0.020229 0.005563 -0.003417 -0.042142 0.013962 -0.033088 0.007857 0.034839 -0.024768 -0.001118 -0.011019 -0.031228 -0.01353 -0.034577 -0.02279 -0.021888 -0.017334 0.008006 -0.037365 -0.009258 -0.003134 -0.007009 0.001686 -0.033679 -0.005967 -0.007299 0.032793 0.039966 0.017072 0.056903 0.054478 0.020502 -0.045379 -0.031093 0.001473 -0.009842 0.049923 0.0109 0.003993 0.029405 0.009311 0.013407 0.004248 0.005445 0.030522 0.047576 -0.024492 -0.029282 0.016679 0.043471 0.03035 0.038073 0.044677 0.048888 0.01573 -0.005209 0.017211 0.035869 0.035058 0.019424 0.009934 -0.008037 -0.023366 0.003282 0.039086 -0.005695 0.014292 0.041892 -0.003091 0.028442 -0.025527 -0.026 -0.022864 -0.015838 -0.008041 -0.037706 0.017896 0.013849 -0.038242 -0.009076 0.000397 0.032183 0.0415 0.007912 -0.025393 -0.001519 -0.004368 -0.034108 -0.038361 -0.013978 0.002014 -0.010264 0.017237 -0.02969 0.039349 0.039251 -0.043241 0.007599 0.043723 0.002508 -0.038823 -0.007741 -0.024773 -0.027518 -0.020344 -0.012772 0.039152 0.004198 -0.027256 -0.029885 0.038973 0.028255 0.039518 -0.026322 -0.005947 -0.043615 -0.039238 -0.040909 -0.004093 0.001413 0.006428 -0.038922 -0.043923 -0.040067 0.017364 -0.0197 -0.013803 -0.006733 -0.032994 -0.029773 -0.018969 -0.031741 -0.020386 0.012578 0.024049 -0.016972 0.009297 0.027841 0.030982 -0.011623 0.012808 -0.032885 -0.039249 0.004844 0.024423 0.013428 0.030417 -0.019589 0.025363 0.013481 -0.001955 0.032775 0.037371 -0.014931 0.009623 -0.015484 -0.010048 0.008214 0.028603 0.012954 -0.008867 -0.013871 -0.002513 -0.004123 0.010535 0.025726 -0.027308 -0.042443 -0.002694 0.007054 -0.018355 -0.035619 -0.023569 0.035146 0.033993 0.005803 0.026418 -0.022512 -0.004796 0.024661 0.015605 0.040955 -0.019989 0.025126 0.007774 -0.0343 -0.0245 0.036431 -0.040741 -0.019381 0.053049 0.019799 0.02374 0.044836 0.003097 0.019965 -0.001355 0.013981 -0.0321 -0.009045 -0.004144 0.026828 -0.018782 0.021971 0.015071 0.02942 -0.031492 0.010387 0.018424 0.04408 0.069581 -0.057277 0.036553 0.009157 -0.032436 0.011179 -0.04023 0.019429 -0.005961 0.026276 -0.001159 0.030823 0.044146 0.009715 -0.031335 0.010549 0.068321 0.033257 0.022217 0.042474 -0.009586 0.021325 -0.025919 0.072483 0.01285 0.029732 0.020354 0.026761 -0.036287 0.033877 -0.042229 -0.011046 0.030023 0.027163 -0.072283 0.03037 -0.024265 -0.011014 0.026744 -0.009206 0.038066 -0.042372 -0.001715 -0.016485 -0.038847 0.027389 0.041528 0.025002 0.049613 -0.049103 -0.018287 -0.024943 0.043444 0.030008 0.047222 0.030496 0.047178 0.033251 0.019127 -0.040937 -0.013354 -0.035018 -0.001086 -0.033365 0.053666 -0.023292 -0.004944 -0.026129 -0.008681 -0.005212 0.0204 -0.038829 -0.029565 0.008735 0.022399 -0.014899 -0.039622 -0.001937 0.034661 -0.025912 0.00276 -0.021268 0.065845 0.034138 0.013482 -0.029322 0.049668 -0.006119 -0.042591 0.033972 -0.01822 0.048513 0.014574 0.045564 0.004158 -0.042854 0.006869 -0.007939 0.071312 -0.043259 0.043127 0.05204 0.002996 0.041559 -0.010713 -0.043295 -0.022125 0.059787 0.05494 -0.024238 -0.024566 -0.014037 -0.034985 0.025386 -0.007882 -0.005559 0.001736 -0.018063 -0.047851 -0.004945 0.005741 -0.010204 0.014038 0.030966 -0.029558 0.017355 0.01211 0.006216 0.002568 0.034898 -0.039598 -0.031506 -0.048743 0.041251 0.010453 -0.040655 -0.003152 -0.014318 0.017981 -0.007489 0.027388 -0.005463 -0.02692 -0.030205 -0.040165 -0.012327 0.004118 -0.001821 -0.039558 -0.041216 -0.027564 -0.003093 0.017922 0.038373 -0.045103 -0.022852 -0.017988 0.010536 0.030816 0.005927 0.001223 0.016336 0.029285 -0.020613 -0.002251 -0.003632 -0.020866 0.063009 0.013577 -0.040909 -0.035861 0.018175 -0.012926 -0.049535 -0.04092 0.035813 -0.04831 0.05135 -0.081524 -0.017312 0.027725 0.011269 0.020714 -0.034607 0.026995 0.016347 -0.070334 -0.029399 0.052606 -0.022639 0.010557 -0.012324 0.015317 -0.002398 0.060144 0.020441 -0.029409 0.028028 -0.023971 0.044114 0.007984 0.019007 -0.017131 0.054749 -0.042231 0.00911 -0.057229 -0.016691 -0.015919 -0.029959 -0.00519 -0.004164 -0.001892 0.043364 0.015605 0.037329 -0.030612 0.053469 -0.008779 0.047369 7e-05 -0.025792 -0.037086 0.028144 0.032153 0.008921 0.007182 -0.006005 -0.044962 0.020715 0.034838 -0.026922 -0.033744 0.026917 0.030634 -0.019443 0.04735 0.03928 0.012505 0.045886 0.047114 -0.026741 0.000354 0.013627 -0.024377 -0.009687 0.027424 0.004424 0.01687 -0.031268 -0.037983 -0.036721 -0.003103 0.023941 0.006875 -0.008597 -0.030855 0.013916 0.005259 0.007161 0.04082 0.01771 -0.023225 -0.020147 -0.029013 -0.009597 -0.019209 -0.035123 -0.030919 -0.033853 0.044576 0.039932 -0.017038 0.007045 0.001061 0.020582 -0.009796 -0.026584 0.000144 0.040283 -0.01678 -0.040691 -0.004592 -0.004779 0.045188 -0.00467 0.032464 -0.005481 -0.020578 0.003666 -0.02928 -0.023155 0.029292 -0.032605 -0.017782 0.042663 0.028363 0.012643 -0.025088 -0.026006 -0.016143 -0.022276 -0.011526 -0.000402 0.023148 -0.041997 -0.043129 0.001479 -0.022988 0.01411 0.033899 0.058617 0.005661 -0.028995 0.020746 -0.029683 -0.034622 0.006361 -0.020689 0.022578 0.024037 0.008221 -0.00036 0.027883 -0.027607 0.008541 -0.037818 -0.044696 0.00039 -0.038348 -0.005848 -0.015274 -0.004513 -0.015559 -0.024712 0.027934 -0.020288 -0.011367 -0.023271 -0.011237 -0.011677 -0.034663 0.024937 0.004017 0.025356 0.001645 0.020199 0.024436 -0.037393 -0.004006 -0.009722 0.005723 0.005722 0.041024 0.003707 -0.021647 0.007645 -0.005744 0.013483 0.011214 -0.032966 0.022665 0.032644 0.029608 0.029285 0.037427 -0.024767 0.010888 -0.028992 0.050927 0.014887 0.008208 -0.039311 0.047278 0.023753 -0.005699 0.00679 0.006576 -0.019024 -0.021567 -0.067137 -0.003352 0.018034 0.001147 0.054162 -0.015744 0.019747 0.014305 0.003807 0.058911 -0.026192 0.00308 0.03779 0.014689 -0.028662 0.043869 0.032424 -0.006751 0.044585 0.016829 -0.029949 -0.016924 0.017492 -0.024049 -0.026811 -0.005045 0.007814 0.01247 -0.024359 -0.007169 -0.038787 0.019016 -0.020919 0.005719 0.015569 0.010887 0.030265 -0.027653 0.049505 -0.021204 0.023031 -0.036349 0.032803 0.017143 0.003115 -0.030256 0.010262 0.009671 0.059748 0.038214 -0.013514 -0.025292 0.058641 -0.056471 -0.045328 -0.031871 -0.040828 0.042866 0.044511 -0.022556 0.028688 -0.037742 -0.0529 -0.032818 0.011453 0.029643 0.034439 -0.005818 -0.017112 0.038465 0.001242 -0.034682 -0.002024 0.032416 -0.043612 -0.004161 -0.056749 0.04026 0.023518 0.027304 -0.054862 0.03649 -0.022779 -0.048054 -0.017575 0.033687 0.006551 -0.021336 -0.028713 0.031111 0.040746 0.029651 0.002725 -0.026997 0.034355 0.026459 -0.01471 0.036781 -0.049757 0.041527 -0.043576 0.014912 0.037813 -0.023787 -0.031551 0.019483 0.04114 -0.019951 0.002621 0.037128 -0.038003 0.039237 -0.029558 -0.041622 0.03078 -0.038758 0.003658 0.011035 -0.013129 -0.013371 -0.010975 -0.037378 -0.000173 0.031425 0.019161 -0.021341 0.011673 -0.037962 0.01195 -0.033212 -0.039366 -0.036913 -0.003984 -0.009011 -0.01318 -0.004563 0.025048 -0.022415 -0.033828 -0.01984 0.006157 0.042375 -0.016087 -0.029041 0.040027 0.040379 0.038159 -0.040198 -0.038373 -0.039773 0.018592 0.045747 -0.039626 0.018983 -0.008009 -0.01061 0.01217 -0.014652 0.035953 -0.009959 -0.024031 -0.036243 0.00968 0.030471 -0.006245 0.051819 -0.031808 -0.027942 0.006769 -0.004233 -0.014743 0.011323 -0.00081 -0.022429 0.031619 0.001278 0.006523 0.028946 0.013512 -0.004319 0.007966 0.009684 -0.021265 -0.00152 0.032935 0.035556 0.029234 -0.012627 0.012056 -0.02266 0.001589 0.013179 0.032416 2.4e-05 0.019685 -0.023663 0.042053 0.009482 -0.039582 0.00927 0.008891 0.034615 -0.041286 -0.008711 0.047456 0.000844 0.005338 0.013898 -0.04351 -0.009887 0.029866 -0.03774 0.001358 -0.012102 0.023578 -0.018571 -0.020144 0.005246 0.018264 -0.000247 -0.004135 0.049523 -0.033652 -0.007574 0.041993 -0.042265 -0.017826 0.029641 0.029778 -0.040793 0.05056 0.025551 -0.032104 0.008295 0.035971 -0.036757 0.042227 -0.040671 0.023859 -0.042966 -0.034657 0.005018 -0.037341 -0.007173 -0.021244 -0.032604 -0.008819 0.0444 0.023986 -0.004108 -0.023993 -0.040674 0.02316 -0.041895 -0.040135 0.02 -0.041933 -0.026576 0.00422 0.03984 0.023841 0.0027 -0.034892 0.037467 -0.03861 0.003784 0.027151 -0.005261 0.000888 0.036967 -0.015103 0.009562 -0.026256 0.015594 -0.000849 0.00955 -0.01644 -0.01957 0.012285 0.022175 0.00943 -0.034245 -0.01593 0.006794 0.011782 -0.03007 0.040515 0.005103 -0.004347 -0.011544 -0.007032 -0.016276 -0.036873 -0.023705 -0.037312 -0.024801 -0.03792 -0.027179 0.044502 -0.015449 0.014543 0.043522 -0.01498 -0.022749 -0.019339 -0.013456 0.006331 0.044986 -0.037974 0.000161 -0.015857 0.00682 0.013873 -0.008742 0.003363 0.00785 0.001041 0.042932 0.00269 0.032689 0.032041 0.030168 -0.019922 0.023609 0.028123 -0.020796 -0.019066 0.040191 -0.031464 0.04452 -0.043884 -0.023471 -0.031165 -0.038684 0.040827 -0.007537 0.005268 -0.009703 -0.014771 0.00298 0.026687 0.04154 0.036659 0.006037 0.02771 -0.03473 -0.000727 -0.009955 0.008211 0.002165 -0.004334 -0.0073 -0.037621 0.022913 -0.043804 -0.011895 -0.021356 0.041629 0.036775 -0.021665 0.004711 -0.014056 0.03938 0.026731 0.046463 -0.051033 -0.028876 -0.054014 0.047059 -0.01421 -0.045046 0.030683 -0.021662 0.052057 0.041626 0.012113 0.04061 0.04424 0.031364 0.006975 0.023043 0.064447 -0.03668 -0.024305 -0.051418 -0.036788 -0.0033 0.005204 -0.046792 -0.022708 -0.004893 -0.037231 -0.040786 0.067793 0.068972 -0.038565 0.029361 -0.016131 0.011552 0.064505 -0.016285 -0.018154 -0.021984 0.038475 -0.029396 0.032817 0.044089 0.006052 0.002038 -0.000941 0.033225 -0.022274 0.014263 -0.039553 -0.055892 0.019274 0.032289 0.045612 0.023802 -0.012239 0.033547 -0.047653 0.068479 -0.023368 -0.028703 -0.056642 -0.022823 -0.001999 0.005773 -0.004859 -0.02271 0.081445 -0.030438 -0.001174 -0.045958 0.037573 -0.012669 0.034911 -0.065241 0.039018 0.020259 -0.006908 0.014949 -0.00622 -0.006351 -0.028994 -0.027794 0.035458 0.057509 0.035263 0.000689 -0.025009 0.032025 0.043409 0.023381 -0.044279 -0.032382 0.026709 -0.01317 0.044243 0.000507 0.016148 0.029163 0.027461 -0.024934 0.018168 -0.030492 0.020944 -0.045676 0.041337 0.07479 -0.038228 0.032177 -0.017737 0.041602 -0.03244 0.016801 0.014274 -0.009454 0.019731 0.015272 0.07765 -0.026876 0.028773 -0.001826 0.026159 -0.041468 -0.02439 -0.006184 0.012391 0.069762 0.013726 0.000224 0.033556 -0.02509 -0.030041 0.019963 0.052697 -0.035213 -0.001029 -0.048993 0.036883 0.030814 0.02686 0.005872 -0.009085 0.023666 -0.01377 0.008213 -0.029068 0.0517 -0.033416 0.014731 0.012906 -0.001575 0.006014 0.049742 0.041836 0.028266 0.011026 -0.019856 0.038375 0.067836 0.035021 0.004076 -0.029268 0.038168 0.026381 -0.026301 -0.043734 -0.000506 0.044058 -0.021663 0.08253 -0.015034 0.025241 0.033532 0.018533 0.037396 0.042208 -0.01878 0.011704 -0.017639 0.016562 0.046656 -0.032158 0.038127 -0.034188 -0.008326 0.027767 -0.016011 -0.041179 -0.050027 -0.016044 -0.02149 -0.031468 0.039441 0.016335 0.036877 0.027605 -0.013452 -0.034211 0.018691 0.017704 0.037517 -0.018375 0.020906 0.003107 0.007402 -0.00475 -0.026073 -0.009349 0.036994 0.043028 -0.005744 -0.013308 0.054012 -0.000879 -0.017371 -0.066076 -0.024577 0.001146 0.006671 -0.03941 -0.035173 0.027573 0.035066 0.030601 -0.015462 -0.031221 0.022827 0.032598 0.05519 -0.016734 -0.001685 -0.019699 0.005617 0.057128 0.010013 -0.03689 -0.008917 -0.035684 0.034663 -0.004262 -0.030684 -0.006697 0.029993 0.013099 0.027561 0.046644 0.04308 -0.001021 -0.037407 0.014579 -0.04399 -0.022793 0.046739 0.014411 0.037707 0.008836 -0.002929 0.039504 -0.035154 -0.003361 0.028464 0.007642 0.047785 -0.024792 0.071822 0.020357 -0.011073 -0.047957 -0.027799 -0.017889 0.043579 0.038664 0.039878 -0.04853 0.014308 -0.052194 -0.039558 0.041587 0.035549 0.027069 0.051511 0.001857 0.029621 0.012259 0.009394 0.035443 -0.053989 -0.01104 0.000756 -0.020495 -0.019163 0.021049 -0.023038 -0.035932 -0.017735 -0.024306 0.050796 0.020123 0.030349 -0.01068 0.03382 0.003505 -0.029176 0.016186 0.057577 -0.023351 0.027862 -0.040784 -0.032966 -0.02509 -0.013603 0.025474 0.018292 0.064806 -0.049283 0.037074 -0.042871 0.016582 0.006351 0.022472 -0.008704 -0.011077 -0.009621 -0.028875 -0.01025 0.024042 0.036776 -0.00596 -0.013646 -0.054576 0.042388 -0.012686 -0.01097 -0.0336 -0.022436 0.035374 0.038261 0.059338 -0.002122 -0.016298 0.010973 0.030656 -0.027012 0.024637 0.029504 -0.021771 -0.009208 -0.026005 -0.026896 0.019881 -0.037455 0.035949 -0.039251 0.008654 0.005723 0.058077 -0.042527 -0.070193 0.013118 -0.008076 0.031792 -0.03045 -0.01297 -0.013619 -0.003228 0.014582 -0.009715 0.005492 -0.032933 0.064099 0.003619 0.042615 0.005208 0.026216 0.020698 -0.031152 -0.003372 0.021191 0.07586 -0.004114 -0.001954 0.022964 -0.004667 0.018955 0.018415 0.022544 -0.023774 0.03977 -0.012448 0.050935 -0.008501 -0.047084 0.043146 0.011754 -0.007311 -0.02963 -0.018071 0.039991 0.064174 0.010851 0.032192 -0.045787 0.054584 -0.03673 -0.051986 0.000136 0.012735 0.001815 0.017127 0.013146 0.029327 0.042782 0.048742 -0.024083 0.068293 0.036827 0.018549 0.019201 -0.008221 0.013122 -0.006477 -0.008689 0.006934 -0.026954 -0.00269 0.068431 0.004796 0.037464 -0.016998 0.031753 -0.001952 0.011785 -0.041178 -0.014008 -0.002944 -0.001358 0.042845 -0.048349 0.074578 0.027359 -0.015789 0.071053 0.027799 0.028138 -0.000967 0.049644 -0.036445 0.018725 0.039086 0.064036 0.003601 0.024919 -0.036517 -0.03561 -0.021402 -0.011134 0.038798 -0.035098 0.053754 0.016884 -0.035465 -0.050364 0.01152 -0.000775 0.006772 0.033594 -0.027757 0.019598 0.036107 -0.027468 0.005421 -0.000233 0.00335 -0.020674 -0.012003 -0.000232 0.012864 -0.016154 0.02094 0.038196 0.001655 -0.036532 0.013206 0.037008 -0.023206 0.006897 0.047385 -0.025697 0.011879 -0.017494 0.031793 0.036865 -0.022797 0.012356 0.017858 -0.013158 -0.053388 0.034383 0.033854 -0.037864 -0.012029 -0.039734 0.03812 0.036607 -0.017124 -0.023434 -0.025169 0.030801 0.021179 0.038385 -0.032101 0.021116 0.041962 -0.012385 -0.036586 0.027908 0.01457 -0.025788 0.044008 0.01771 -0.00131 0.010111 -0.042791 -0.061082 0.023707 -0.001217 0.036242 0.044993 -0.019828 0.009789 0.036584 -0.017284 0.014774 0.025055 0.004412 -0.013958 0.056917 -0.003478 0.028708 -0.046671 0.0097 0.033166 -0.061847 0.012894 -0.070175 -0.020821 0.045542 0.015837 0.012626 0.01254 -0.012349 -0.021691 0.003218 -0.049855 0.007586 0.000262 0.027753 -0.004218 -0.002439 0.02215 0.019656 -0.030215 0.037079 0.032128 -0.004602 -0.031381 0.002168 0.015287 -0.018343 0.027839 -0.037573 0.017596 0.019824 0.038649 0.039711 -0.007766 0.041309 -0.028655 -0.025753 -0.013478 0.034471 -0.022738 0.024824 0.045415 0.034612 0.015733 -0.017027 -0.002705 0.040998 -0.037444 0.00682 0.040004 -0.003991 0.022209 0.023067 -0.044116 -0.026667 0.030078 0.015089 0.030565 -0.008392 0.015581 0.03745 0.029891 -0.028586 -0.05024 -0.023749 -0.014218 -0.029324 0.015316 -0.020109 0.075768 -0.004468 -0.042751 -0.005955 0.024664 0.006252 -0.032937 0.059001 0.026154 0.026607 -0.018963 -0.012325 0.021435 -0.011754 0.046134 -0.029235 0.044625 0.007418 0.037485 -0.052257 -0.030767 0.032391 -0.002322 0.081301 0.030396 0.018658 0.046773 -0.015609 -0.040044 -0.025163 -0.012265 0.007893 -0.049511 -0.0337 0.056444 -0.004257 0.039058 0.026428 0.021079 -0.008165 -0.03213 -0.026106 0.03739 -0.027389 0.05894 -0.010087 0.010896 0.043789 -0.00821 0.026103 -0.034464 0.0147 -0.040219 0.049583 -0.035064 0.035874 0.017258 -0.020794 0.01314 0.048043 0.01173 0.002325 -0.042089 0.013044 -0.009854 -0.037786 -0.009806 0.001623 -0.003943 0.025196 0.039531 -0.018563 -0.032346 0.021906 0.049016 -0.029126 0.015241 0.024377 0.015581 -0.00398 -0.015916 0.040357 0.053847 0.029891 0.016499 0.014791 -0.006506 0.013122 0.001117 -0.009071 -0.032646 0.042682 -0.001415 -8.4e-05 -0.01347 0.041816 0.034589 0.000796 -0.021844 0.056351 -0.005411 0.053431 -0.033436 0.006794 -0.019097 0.019551 -0.047408 0.046671 0.018811 -0.028982 0.012552 0.043383 0.034113 0.012415 0.01564 0.031732 0.05042 0.050059 0.009225 -0.025267 0.002584 0.040044 0.032704 -0.038487 -0.015297 -0.037485 -0.007332 -0.01017 -0.014881 -0.014277 0.015383 -0.024353 -0.019423 0.042055 -0.014925 0.01234 0.019675 -0.031498 -0.000978 -0.031374 0.003076 0.039459 -0.025381 -0.021518 0.027993 0.013855 0.042522 -0.023598 -0.025601 0.003506 0.01121 0.055043 -0.008578 -0.000179 0.032664 -0.019603 0.054043 0.025687 -0.018563 0.012042 0.00978 -0.014893 -0.00747 0.000251 -0.016946 -0.016616 0.031487 -0.017537 0.031535 -0.027538 0.028675 -0.046695 -0.007769 -0.016769 0.020873 0.004181 -0.024981 0.038763 -0.00308 0.040272 -0.001556 -0.01448 0.0241 0.039353 0.030655 -0.018096 -0.047463 -0.037712 -0.01309 0.047972 -0.024762 0.0088 -0.042559 0.002138 0.043442 -0.015706 0.041081 0.001726 -0.044346 -0.019347 -0.011761 -0.026674 0.017516 0.009346 -0.011788 -0.005544 -0.007181 0.006589 -0.012384 -0.039943 -0.033467 -0.016565 -0.011094 -0.005536 -0.001002 0.022011 0.044869 -0.028929 0.042802 0.022001 0.014718 -0.042137 -0.028607 -0.022504 0.02219 0.034751 -0.000548 0.020353 0.022692 -0.04339 0.007298 0.027028 0.038852 0.023161 0.000842 -0.011375 -0.005564 -0.044561 -0.029433 -0.031026 -0.036011 0.034362 -0.011803 0.00421 0.018384 -0.017005 0.01727 0.029834 -0.027916 -0.008496 -0.003842 -0.001758 0.04598 0.036617 -0.001412 -0.019656 -0.005449 0.009189 0.009754 0.017479 -0.01147 -0.00165 0.019706 -0.021603 0.04339 -0.015811 -0.003433 -0.003223 0.029727 -0.031092 -0.033387 0.015522 -0.029156 -0.006944 0.014083 0.010515 -0.01213 -0.015049 0.010432 0.000417 -0.031819 -0.031418 -0.014978 -0.039553 0.008773 -0.00356 -0.020714 0.017603 0.039582 -0.033243 0.031674 0.02541 -0.002342 0.048014 0.006725 -0.009061 0.006099 0.026514 0.02159 0.045726 0.056858 0.028207 0.010525 0.049599 -0.01049 0.029059 -0.043039 0.014038 -0.016762 0.041728 -0.021849 -0.013105 -0.004716 0.048076 0.018855 0.012863 -0.008396 0.033135 -0.026268 0.046461 -0.017446 0.001872 0.015353 -0.034199 0.00015 -0.034891 0.026809 0.041836 -0.02118 0.009194 -0.026299 0.016614 0.024011 -0.00876 -0.0358 0.030112 -0.021635 0.017826 -0.045902 -0.009756 -0.002409 0.01819 0.013269 -0.063451 0.050761 -0.025928 0.018389 0.028692 0.016185 0.007727 0.007376 -0.016379 -0.019032 0.018786 -0.023227 0.000566 0.045028 -0.038711 -0.011706 0.055238 -0.028796 -0.028491 0.035626 0.010024 0.037434 -0.008267 0.040981 0.070199 0.014424 0.029009 -0.006642 -0.0119 0.012651 -0.025189 0.031152 -0.051313 -0.007115 0.016365 -0.006074 0.019167 0.031525 -0.023698 0.028084 -0.024382 0.036913 -0.034877 0.004708 -0.016648 -0.002742 -0.021835 -0.001332 -0.051735 0.019111 0.034796 -0.005829 0.023379 -0.029513 0.005264 -0.021333 0.002919 -0.031427 0.00089 0.023268 0.039445 -0.015946 -0.035281 0.016927 0.019284 -0.031761 -0.002877 -0.001686 -0.027684 0.038548 -0.006424 0.003363 -0.010184 -0.007458 0.020735 0.001117 0.032362 0.055758 0.012081 -0.026591 -0.00598 -0.031856 0.023633 -0.008317 -0.000829 -0.025808 0.010775 -0.0089 -0.024139 -0.01473 0.033506 0.037824 0.03572 0.059917 -0.009759 -0.024708 -0.036712 -0.011839 -0.014339 -0.004966 -0.058856 -0.023857 -0.005975 0.01288 0.032066 -0.04257 -0.037957 -0.058525 0.000243 -0.001353 0.019167 0.048614 -0.027753 -0.019177 0.012358 -0.039596 -0.009234 0.025581 0.039761 0.045745 -0.015285 0.021736 0.026616 -0.021291 0.043696 0.04505 0.02576 0.04069 -0.026793 -0.003357 -0.045231 -0.034148 -0.027406 0.00024 0.009271 -0.030504 0.034787 -0.042122 0.03018 0.033219 0.000987 -0.044484 0.043092 -0.020557 0.02299 0.010012 -0.00731 -0.009841 0.0289 0.044731 -0.007732 0.036278 -0.026929 -0.016327 -0.013882 0.012782 0.057063 0.038714 0.053754 -0.008983 0.078256 0.033177 0.058381 0.006 -0.038157 0.034409 -0.006962 -0.033742 0.046368 -0.009244 0.034892 -0.008244 -0.016754 -0.012865 0.000892 -0.051 0.020037 0.018406 0.017071 0.004973 0.061221 0.023956 0.004376 0.03627 -0.024206 0.019318 0.036312 -0.004495 0.058637 0.016348 -0.018663 -0.040757 0.006596 -0.028679 -0.023148 -0.02567 0.017233 -0.033041 -0.011988 0.01105 -0.001917 0.056643 0.007125 -0.028579 0.006553 0.024002 -0.026314 0.012503 -0.006133 -0.00546 -0.001378 0.024308 -0.052139 0.014275 0.01517 -0.017768 0.007581 0.000623 0.005119 -0.00348 -0.001088 0.010371 -0.012363 0.026688 0.015815 -0.018199 -3e-06 -0.012813 0.0295 0.040373 -0.016422 0.054588 0.023874 0.029385 -0.007087 0.039031 0.015373 0.052646 0.006351 -0.006626 -0.028634 -0.001935 -0.025778 -0.053437 0.02374 -0.001702 0.009906 -0.036674 0.004107 -0.062174 0.009267 -0.029114 -0.04112 0.026881 -0.023613 0.011628 0.018327 0.036366 -0.019708 -0.017573 -0.005214 0.029428 0.035782 -0.049824 -0.038002 0.010395 -0.017116 0.024816 -0.014631 0.068583 -0.045962 -0.007209 -0.029255 0.032484 0.043681 0.017988 0.004677 0.036382 -0.01671 -0.050091 -0.03309 0.008454 0.033094 0.004504 -0.022519 -0.060526 0.024952 0.026114 -0.027299 -0.015649 0.038315 0.047403 -0.039696 0.009802 -0.003298 -0.03816 -0.017127 0.027597 -0.029398 -0.017618 0.002794 -0.018647 0.032017 0.036807 -0.010096 0.025319 -0.036801 -0.02631 0.036581 0.026118 0.038388 -0.007187 -0.045913 -0.018222 0.072834 0.04375 -0.035465 0.023298 0.017678 0.027565 0.005521 -0.038721 0.014522 0.026784 0.032543 0.018928 -0.004828 -0.026227 0.024215 -0.04785 0.05918 -0.026275 -0.051355 0.020257 -0.05608 0.012935 -0.027181 -0.025186 0.022033 0.049123 0.014573 0.007895 -0.013747 0.046825 -0.024786 -0.032135 -0.052369 -0.020409 0.054912 0.005024 0.013029 0.04227 -0.035258 -0.036017 0.014902 0.04928 0.034964 -0.031244 0.00992 -0.005877 0.023142 0.007092 0.043099 0.023697 -0.011897 0.008079 -0.051357 0.037458 -0.041619 0.024606 -0.004628 0.02262 0.016716 -0.000787 0.012028 0.019609 -0.05073 0.036831 0.053386 -0.003569 -0.006765 -0.053492 0.042829 -0.00381 0.063284 -0.045411 -0.003823 -0.004306 -0.036042 -0.013905 -0.007492 -0.001589 -0.052037 0.023602 0.034268 -0.026571 0.028621 0.024003 0.035143 -0.020019 -0.074739 0.047964 -0.014923 -0.026604 -0.015318 -0.024473 0.001075 -0.051974 -0.05923 -0.025425 0.012235 -0.009032 0.038112 -0.019061 0.046336 0.017184 0.045675 -0.026304 -0.006561 0.052765 0.037005 -0.01586 -0.054561 0.007539 -0.027597 0.061451 -0.001527 0.047376 0.031398 0.034282 0.000987 0.018532 0.052848 -0.008114 -0.057846 -0.022469 -0.002687 0.027631 0.091949 -0.023937 0.008059 0.013206 0.033952 0.043741 -0.065131 -0.010684 -0.003547 0.018414 -0.012062 -0.02645 0.012972 -0.023537 -0.017055 -0.038298 -0.034229 -0.0278 0.021206 0.017815 -0.029949 0.005686 -0.008429 0.057215 -0.010458 -0.003469 0.030556 -0.045212 -0.017284 -0.042379 0.022226 -0.017025 0.021892 -0.031024 0.012907 0.02938 -0.035131 -0.021545 0.004337 -0.040743 0.045665 -0.020036 0.037764 -0.049092 -0.011224 -0.013953 -0.006359 0.023388 -0.063702 -0.012937 -0.015351 -0.006427 -0.000603 -0.01172 0.019124 -0.056467 0.038602 0.012802 0.034962 -0.012328 -0.035735 0.035584 0.011931 -0.008395 0.018378 0.019458 -0.018064 0.017777 0.025499 0.022298 -0.026919 0.047384 0.021218 0.031659 -0.02414 0.049624 0.011976 0.03833 -0.001593 0.033987 -0.01939 -0.01717 0.03532 -0.046171 -0.019185 0.026008 0.039172 0.005784 0.025326 -0.007871 0.014367 0.036363 -0.023996 -0.018699 0.052033 0.040228 0.025895 -0.033541 0.001275 -0.001903 0.035299 -0.013231 0.052555 -0.01974 0.031836 0.015782 0.014816 0.025124 -0.038813 -0.040017 0.035593 -0.017465 -0.0155 -0.025861 -0.043939 0.057549 -0.006908 -0.009967 0.010765 0.036768 -0.019288 0.020221 0.0449 0.038356 -0.000941 -0.007039 0.0143 -0.006394 0.008188 0.011752 8e-05 0.047583 0.028411 -0.020876 -0.047386 -0.024545 -0.001721 0.029363 -0.021614 0.028935 -0.001531 -0.03027 0.027325 -0.015405 -0.008929 -0.020336 -0.022829 -0.042271 -0.035311 -0.0409 0.027896 -0.037284 0.003263 -0.013153 0.035829 0.023758 0.018823 -0.042736 -0.020982 0.030279 0.032881 0.007633 0.035143 0.005943 -0.003548 0.013519 -0.039124 -0.003167 0.006844 0.024924 -0.016176 0.011761 0.011645 -0.009787 -0.024719 -0.017923 -0.00606 -0.027745 0.027601 -0.029901 0.02955 0.039181 0.012759 -0.012698 -0.039102 0.028652 0.033775 -0.042901 0.001254 -0.001144 0.038136 0.041202 0.016703 0.016077 0.018861 -0.014325 0.003469 -0.026798 -0.020238 -0.035753 -0.017031 0.016315 -0.030325 0.003745 -0.013094 0.021849 -0.01512 -0.011367 -0.034574 -0.027553 0.038375 -0.028466 -0.025043 0.030153 0.011283 0.028058 -0.03762 0.008495 -0.011126 -0.01003 -0.006613 0.036323 0.008947 -0.032459 0.024316 -0.014435 -0.010914 0.011895 -0.016478 -0.004435 -0.030874 0.000946 -0.015832 0.017773 0.001547 -0.028667 0.010254 0.029124 -0.040688 0.002605 0.016379 -0.025055 0.017068 -0.043783 0.042275 -0.021352 0.042867 -0.041947 0.00259 0.000798 -0.013973 0.003565 -0.009041 -0.033182 0.016224 0.024032 0.010507 -0.011564 0.003549 -0.011268 -0.009386 -0.032136 0.007463 0.039357 -0.034219 0.036464 -0.033467 -0.024591 -0.011111 -0.025625 0.025564 -0.001968 0.007973 0.025126 0.012026 0.041873 -0.055307 0.015218 0.02795 0.027296 -0.02976 -0.026056 -0.009319 0.032338 -0.001214 -0.020792 0.049619 0.043222 -0.053766 0.013735 0.014761 -0.000113 -0.019792 -0.023192 0.034805 -0.019215 0.040781 -0.009707 -0.014257 0.044857 0.02579 -0.009786 0.020373 0.014179 0.0406 -0.010932 0.057978 -0.023409 0.030581 0.027227 0.02085 -0.054649 0.02698 0.024287 0.001508 0.048214 0.015355 -0.025079 -0.042418 -0.008058 0.003946 -0.008864 0.026069 0.012395 0.01325 -0.04197 0.00674 0.06261 -0.013592 0.031902 -0.020417 0.016758 0.002789 -0.01528 0.039222 0.002822 -0.028944 -0.000169 0.009746 -0.047606 -0.04283 0.023584 0.01835 -0.02489 0.005395 0.01106 0.016654 -0.023812 -0.052378 -0.035075 0.016052 0.03641 0.014504 0.008884 0.06341 0.032045 -0.026299 -0.017179 -0.036504 0.050338 -0.014794 -0.042985 -0.054501 0.01662 -0.027296 0.002113 0.010464 -0.030436 0.049364 0.021119 0.012958 -0.015834 -0.04581 -0.011547 0.047394 -0.007605 0.012343 -0.021396 -0.064791 0.066284 -0.022621 -0.034843 0.02141 0.053237 -0.021894 0.035257 0.002449 0.016448 -0.020227 0.006668 -0.003125 0.01518 -0.038862 0.036427 0.028764 -0.008742 0.041335 -0.027574 0.010677 0.047942 -0.010671 0.048423 0.020232 -0.05405 -0.052439 -0.019592 -0.032555 0.028698 -0.069671 0.054391 -0.022846 -0.012166 0.037425 0.036644 0.070005 -0.016112 -0.033214 -0.016441 0.059848 0.02088 -0.046474 0.014242 -0.021282 -0.002807 -0.046375 -0.021489 0.048201 0.061153 0.069471 -0.004565 -0.009684 -0.01076 0.056126 -0.029708 0.025456 -0.016809 0.017413 0.001917 -0.000228 0.050493 0.021226 0.049563 0.015623 0.026234 0.018415 0.04329 0.002749 0.037058 -0.010755 0.007923 -0.010625 0.035252 -0.041644 -0.052389 0.083788 0.041737 0.055114 0.023549 -0.010635 -0.028125 -0.029774 0.041389 -0.034844 -0.043361 -0.036297 0.08865 0.052577 0.027106 -0.021539 -0.010619 -0.043982 -0.02913 0.050488 -0.010644 0.047165 -0.006425 -0.039022 0.01352 0.012923 0.012703 -0.017763 0.036296 -0.04889 0.030079 0.000413 0.041259 0.007182 0.003175 0.01097 0.046557 0.020818 -0.048116 -0.007628 0.01524 -0.016306 0.005731 -0.011529 0.048625 0.077975 0.030152 -0.021035 0.022903 0.033767 0.036616 -0.043754 -0.02853 -0.004982 0.054102 -0.000892 0.030289 0.035963 0.0517 0.002425 -0.035406 0.049644 0.003336 0.044487 -0.037709 0.010567 -0.036407 -0.016935 -0.021129 -0.025541 0.000547 -0.025285 0.042214 0.045272 0.039301 0.027284 -0.008937 -0.008299 0.017801 0.051631 0.003735 0.02371 0.027994 -0.015304 -0.011617 0.02756 -0.015938 0.033025 -0.04869 -0.001818 0.010659 0.04244 0.041446 -0.003082 -0.023814 0.054219 -0.007165 -0.004794 -0.049517 0.007516 0.034668 0.016048 0.039499 -0.037999 -0.049755 -0.046735 0.018062 -0.004512 -0.006415 0.05898 -0.033077 0.007981 0.040013 -0.008656 -0.000254 -0.01683 -0.026155 0.029024 -0.022803 -0.048572 -0.011555 0.036553 -0.000315 -0.036116 -0.021136 0.052942 -0.017653 0.003163 0.029896 0.003069 -0.000229 -0.043769 0.016233 -0.015111 0.05049 0.051451 -0.031984 0.038125 0.047895 -0.035926 -0.016746 0.02193 0.004416 0.000181 0.054617 0.004211 -0.019613 -0.04841 0.062351 0.022123 -0.028109 -0.04021 -0.01282 -0.018311 0.049119 0.009527 -0.043357 0.055109 -0.033435 -0.0166 -0.014093 0.01341 -0.026418 -0.034041 0.015334 -0.021662 0.001021 -0.020014 0.034774 0.021902 0.032889 -0.03007 0.043385 0.014404 -0.014504 0.012091 -0.009865 0.032013 0.022974 0.032339 0.047489 -0.010026 0.045797 0.011805 -0.026874 0.029913 0.045348 -0.032961 -0.051454 0.015492 -0.031232 0.052792 0.00046 0.026747 -0.030859 0.048433 0.036532 -0.030653 0.035946 -0.032125 -0.026013 0.034886 -0.001486 0.021768 0.004891 4.9e-05 0.038074 -0.079537 0.032593 -0.025201 0.029212 -0.006609 0.022895 0.030884 -0.052165 0.034814 0.001225 0.003667 0.040859 -0.021675 0.026446 0.022051 -0.052291 -0.032219 0.019696 0.040533 0.018784 0.051157 -0.042654 -0.008561 0.006896 0.053783 0.041713 0.015541 -0.042174 0.036465 -0.015284 -0.025035 -0.050823 -0.018692 0.004181 0.011391 -0.013137 -0.012697 0.087576 0.061486 -0.017012 0.015764 0.022101 -0.023946 -0.007018 0.055908 -0.020147 0.008208 -0.026707 0.011932 -0.048304 0.071948 0.068728 0.056773 0.104451 -0.048997 -0.023394 -0.061196 -0.015772 0.006082 0.029271 0.020126 0.054733 0.059497 -0.075887 -0.028422 0.05285 -0.001789 -0.053687 0.063181 -0.043429 0.044187 -0.002248 -0.034772 -0.000832 -0.025341 -0.012842 0.021218 0.091322 0.040164 -0.03724 0.008594 -0.023803 0.058 0.052284 0.024285 0.003413 0.02232 -0.020502 0.03262 -0.060379 -0.034048 0.02987 -0.019876 0.025532 0.001409 -0.039454 -0.027306 0.021411 0.02629 -0.0353 0.011829 0.0105 -0.00326 0.025492 0.045442 -0.018406 0.009731 0.034015 -0.050643 0.030997 -0.047909 -0.023838 0.022429 -0.018717 0.039222 -0.009402 -0.005077 -0.03682 0.010779 -0.013474 0.007335 0.014462 0.038917 -0.024625 -0.018378 -0.010474 0.00863 -0.004521 0.04206 -0.031149 0.00951 -0.046873 -0.010071 0.041424 -0.025553 -0.0483 0.046344 0.037726 0.023431 -0.019975 -0.03039 0.008946 -0.043448 0.017862 -0.014953 -0.017224 -0.019875 -0.032819 0.021496 -0.014185 -0.018788 -0.005339 0.049777 0.032602 -0.04544 -0.027941 -0.022616 0.031186 -0.024497 0.046352 0.041969 0.029791 0.026554 0.050804 -0.039175 0.014786 -0.025938 0.000388 -0.048888 0.003222 -0.00652 -0.015882 0.049489 -0.030834 -0.019112 0.03456 0.012796 0.013846 -0.015753 -0.051381 -0.039719 -0.019946 0.048367 -0.002221 -0.038249 0.045722 -0.032871 -0.020077 -0.039661 -0.039979 -0.031178 0.016407 0.034592 -0.010129 0.020046 0.036337 0.043144 0.00376 -0.043121 0.003458 -0.000609 -0.020488 0.022336 -0.02332 -0.041259 -0.011033 -0.017896 -0.041872 -0.020233 0.012886 -0.002129 0.048772 -0.006452 0.028138 0.016242 0.009533 -0.039174 -0.021878 -0.029033 -0.021769 -0.022203 0.002266 -0.013433 -0.025699 -0.006059 0.011012 0.041267 0.018369 0.04475 -0.015406 -0.006713 -0.01578 -0.007133 -0.020136 0.03761 0.030871 0.054877 0.060871 0.043137 -0.008002 -0.022115 -0.013579 0.030131 -0.043142 -0.016175 0.02887 0.001745 -0.043729 0.022973 0.050103 -0.005841 0.030901 0.012663 0.021653 -0.015631 0.023039 -0.023382 0.027331 0.023705 -0.02791 0.064576 0.017532 0.005624 -0.018225 -0.022528 -0.016101 0.02564 0.037083 -0.025161 0.010264 -0.037303 0.01407 0.011394 -0.000727 -0.010387 -0.040866 0.04442 0.027239 -0.031203 0.012264 0.007208 -0.012033 0.034653 0.015787 -0.029557 0.019097 0.050843 -0.027143 0.011053 -0.005354 0.009981 0.030379 -0.037802 0.043766 0.049353 -0.044447 0.038187 0.032502 -0.022356 0.013895 0.017092 -0.035104 0.053382 0.019613 0.0359 -0.007879 0.053925 0.060365 -0.007282 0.017921 -0.043143 0.051874 0.051402 0.025352 -0.014829 0.055604 -0.043327 -0.007565 0.023074 -0.022238 0.029789 -0.004706 0.022785 -0.021688 0.034783 0.007399 0.00317 0.004875 0.022992 0.00032 0.01876 0.006145 0.031262 0.009472 0.026807 -0.033865 -0.03426 0.005128 0.022715 0.050129 0.03063 0.019201 -0.010065 0.041078 0.015283 -0.011657 -0.022058 -0.032395 0.025072 0.034483 0.007795 -0.026268 0.044108 -0.039539 0.023335 -0.013187 0.045486 0.044724 -0.012648 0.0342 0.026282 -0.038387 0.015815 -0.018233 0.025923 -0.015227 -0.031134 -3e-06 -0.012348 -0.032053 0.041819 0.029812 -0.028186 0.040183 0.014772 -0.011675 -0.013184 0.042876 0.022217 -0.006275 0.00738 0.04837 0.001505 -0.014706 0.026818 0.002507 0.038969 0.045769 0.001063 0.043698 0.025146 0.042071 0.004971 -0.024721 0.016899 -0.000205 6.6e-05 0.063958 -0.001758 0.0525 -0.039159 -0.031889 0.020551 0.009686 0.016323 0.004665 -0.030677 -0.029218 -0.065615 0.018956 -0.021102 0.012809 -0.021307 -0.012027 0.031162 0.043876 -0.026548 -0.017241 -0.033571 0.058656 0.018596 0.053909 -0.017612 0.054528 -0.004172 -0.027424 0.037812 -0.009149 -0.055401 -0.002495 0.032932 -0.017397 -0.040248 -0.008022 0.025462 -0.037451 -0.000426 0.006992 0.002732 -0.023787 0.050982 0.02436 -0.041807 -0.025103 -0.036336 0.033578 0.023805 0.00672 0.007954 -0.016155 -0.031681 0.042324 0.026341 0.028916 -0.0472 -0.023854 0.000332 0.051082 0.018103 -0.014415 0.039155 0.02734 -0.025524 0.048762 0.043136 -0.000653 -0.007395 -0.027347 0.008829 0.030554 0.009024 0.003409 0.046336 0.016594 0.030036 0.050742 -0.040292 0.000997 -0.000175 -0.031871 0.028584 0.006097 -0.00376 0.00146 -0.032652 0.046429 0.03874 -0.015203 -0.003189 -0.010219 0.045279 -0.031864 0.042945 -0.014821 -0.040316 -0.004789 0.046838 0.030696 0.007175 0.043273 -0.015684 -0.03843 0.019765 -0.008792 0.02174 -0.028187 0.054366 -0.011085 0.034435 -0.0203 0.038249 -0.004924 -0.029375 0.043635 0.040599 0.022908 0.018189 0.002901 -0.013829 -0.013795 -0.019025 -0.040694 0.014618 -0.031789 -0.018379 -0.023885 -0.032996 -0.040905 -0.03195 -0.013359 -0.042044 0.012746 0.029806 -0.037437 0.013657 -0.003784 0.033028 -0.016173 0.032404 -0.028647 -0.009453 -0.033303 -0.016572 0.027907 -0.002874 -0.012431 0.03494 -0.030081 0.037561 -0.042405 0.026635 -0.002012 -0.024641 -0.013788 -0.000712 -0.038166 -0.009719 -0.01649 -0.040388 0.022181 0.0273 -0.014409 0.003849 -0.038659 0.000143 0.004221 -0.001559 0.028003 -0.028281 -0.007149 0.029042 -0.012298 0.042411 -0.00134 0.039889 -0.026509 -0.017966 0.042819 -0.002802 0.046205 -0.030799 0.02759 -0.019262 0.007152 0.008204 -0.031045 -0.025302 0.033924 -0.030616 -0.044635 0.039118 0.003885 -0.016628 0.011575 -0.005454 0.040514 -0.002716 -0.032598 0.019564 -0.024732 -0.00253 -0.021494 -0.026866 0.011512 -0.045231 -0.012103 0.032259 0.001594 -0.031504 -0.036432 0.039016 0.007163 0.040727 -0.026244 -0.041031 -0.03949 0.0273 0.02117 -0.040053 -0.033982 0.022164 -0.023423 -0.010772 0.003385 -0.002493 0.022126 -0.029703 -0.025799 -0.004382 0.041536 -0.009088 0.012881 -0.037013 -0.014179 0.017166 -0.050975 0.007914 -0.028143 -0.012644 0.024551 0.046999 0.011595 0.01585 0.012133 0.04846 -0.005774 0.00312 -0.023189 -0.030153 -0.037812 0.010645 0.054519 0.033029 0.032551 -0.017029 -0.035904 -0.004151 0.012092 0.043284 0.017484 0.032645 0.011501 0.042224 0.004592 -0.03235 0.080714 0.045477 -0.034352 -0.001921 0.053494 -0.042208 0.028794 -0.03508 0.014752 0.03294 -0.009246 -0.011923 0.049639 0.038583 -0.016292 -0.029461 0.026293 -0.012947 0.002204 0.008324 0.014836 0.022539 0.035257 0.075888 0.006759 -0.039564 -0.033741 0.018091 -0.005319 0.029799 0.002613 -0.035368 -0.039706 -0.018749 -0.037619 0.025746 0.040496 -0.005058 0.081717 0.020363 0.044908 0.015264 0.016365 0.044572 0.033955 -0.00873 -0.055481 -0.013128 0.0067 -0.03923 -0.007398 0.019895 -0.023781 -0.015242 0.042559 0.02893 0.005194 -0.043087 -0.00975 -0.038215 0.020065 -0.02528 0.008505 -0.039968 0.051217 0.002895 -0.002215 -0.060243 -0.007624 -0.000196 -0.015061 0.033272 0.032265 0.006084 -0.054652 -0.026535 0.059448 0.070321 -0.025455 0.006566 -0.004004 -0.015072 -0.02766 0.061538 0.017865 0.058053 0.029781 0.037133 0.038641 0.06415 0.002698 0.000159 0.036028 0.055159 -0.006099 -0.008031 0.039995 0.04381 0.046182 -0.025396 0.03198 0.03921 -0.027201 -0.018141 0.033746 -0.038045 -0.01865 -0.050578 -0.00562 0.029818 -0.021152 0.034361 -0.014002 0.015023 -0.032168 -0.005145 0.038606 0.036121 0.011431 -0.025895 -0.017241 -0.028901 -0.009812 0.00665 -0.007943 0.009182 -0.006759 0.04933 -0.029186 -0.021952 -0.01296 0.003322 0.007605 -0.015591 0.046152 0.021073 0.040925 -0.021551 0.022287 0.022618 0.031258 0.015804 0.027369 -0.03487 -0.034828 -0.035967 -0.017883 0.015598 -0.042825 -0.03463 0.027269 -0.040211 0.001085 0.050286 -0.024726 0.047558 0.003954 0.058725 -0.001752 -0.002444 -0.037518 -0.030665 -0.008772 0.042686 -0.007202 -0.031603 -0.024039 -0.023914 -0.008338 -0.019964 -0.036993 -0.000521 0.048505 -0.045898 0.038216 -0.034396 -0.030547 -0.036278 0.029177 0.010225 -0.012126 0.00341 0.022403 0.028499 -0.001998 -0.018418 -0.03169 0.009154 0.03883 0.038159 0.000432 0.043979 -0.010235 -0.029585 0.01787 0.039737 -0.007098 0.034146 0.0386 -0.020148 -0.01132 0.033358 -0.007188 0.006203 0.006764 -0.036347 -0.002768 0.022127 0.039135 0.002369 -0.044893 0.019307 0.01969 -0.001903 -0.022185 0.004621 0.046876 -0.034029 -0.003474 0.02323 -0.021111 0.018735 -0.013284 -0.033051 0.029785 0.004886 -0.053701 -0.021027 -0.008578 -0.004077 0.044119 0.038666 0.00812 -0.019069 -0.035321 0.104392 -0.040361 0.01085 -0.016042 0.040285 -0.019739 0.005735 -0.00971 0.05493 0.019762 -0.069206 -0.017869 0.039241 0.011344 0.024127 0.007251 -0.007508 -0.008092 -0.013903 -0.041055 -0.000772 0.04948 0.009264 0.014459 0.013772 0.021189 0.012969 0.097915 0.041642 -0.020327 0.000717 -0.037214 -0.067394 -0.029239 -0.041012 -0.060282 -0.053773 0.065603 -0.030175 -0.041161 0.024266 0.040862 -0.035284 0.053175 0.059279 0.046806 0.027176 -0.053151 -0.029396 -0.036343 0.061457 0.036009 0.000907 -0.046637 -0.002005 0.044398 -0.027512 -0.028766 -0.010816 0.031122 0.017373 0.015828 -0.032907 -0.039895 0.000385 0.068171 -0.013485 -0.023791 0.053276 -0.006862 0.019 0.003853 -0.050249 0.001393 0.038321 -0.017185 0.009443 0.017677 0.023155 0.037774 -0.055281 -0.045639 -0.016068 0.051065 -0.055491 0.025923 0.040144 0.025355 -0.000744 -0.010088 -0.027962 -0.035209 0.004054 0.01137 -0.051828 0.012295 0.061988 -0.007118 0.007231 -0.028786 -0.046315 0.038489 0.003108 0.031441 0.049388 0.073618 0.065681 -0.053849 -0.016119 0.007554 0.013968 -0.006559 0.049024 -0.010653 0.056304 -0.020456 -0.041981 0.02857 -0.027129 -0.035928 0.016302 0.024706 -0.010892 0.030586 -0.018237 -0.023602 0.002007 0.008305 -0.013258 0.016647 0.018781 -0.034073 -0.032063 0.001486 0.018131 0.008729 0.020405 -0.020076 -0.013138 -0.011917 -0.003597 -0.020884 -0.017359 0.020898 -0.021355 0.005482 -0.038713 0.00979 0.005752 -0.034644 -0.000406 0.005313 0.011279 -0.032711 -0.000156 -0.003964 0.03918 -0.009491 0.02826 -0.020798 -0.017611 0.012063 -0.011178 0.018644 -0.000842 0.044097 0.010863 -0.00255 -0.011819 -0.02206 0.012772 0.013381 0.010111 -0.028902 0.03365 0.01177 0.008904 0.031111 0.019683 0.026129 -0.021377 -0.002882 -0.025316 -0.029778 0.043285 -0.042604 -0.009065 -0.033313 -0.010975 -0.044004 0.02338 0.03811 -0.0027 -0.009573 0.005426 0.001129 -0.006062 0.003843 0.014924 0.024866 -0.019994 -0.035542 0.013411 0.033261 -0.012918 0.023362 -0.028508 -0.005888 0.012815 0.006075 -0.020902 -0.027287 -0.044057 -0.002698 0.01117 -0.044103 0.01965 0.038377 -0.023399 -0.00235 -0.040336 0.005837 -0.027525 -0.006851 0.033792 -0.015472 0.019639 0.007782 0.038342 -0.01005 0.006187 0.012916 -0.019852 -0.043855 0.016452 -0.005105 0.044117 -0.004637 0.032993 -0.03468 0.038203 -0.004938 -0.030808 -0.026777 -0.043445 -0.02889 -0.023806 -0.026951 -0.005665 -0.003698 0.022951 0.060077 0.017885 0.019096 -0.013453 0.001766 0.028959 0.036006 -0.020626 -0.017821 -0.028505 -0.017915 -0.049451 0.050579 0.015279 0.00653 -0.022621 -0.013132 0.018837 -0.011219 0.020536 0.016652 -0.042427 0.011497 0.026086 -0.011876 -0.049283 -0.072497 0.036442 0.020725 0.036559 0.016458 -0.02142 0.034632 0.042714 0.05067 -0.022028 -0.005275 -0.003213 -0.002957 0.028432 0.043361 0.028849 0.033028 0.012585 0.012876 0.029188 -0.006766 -0.043619 -0.00503 0.013966 -0.048707 0.036876 0.010647 -0.042671 0.028737 0.040414 0.023264 0.060842 0.006812 0.033232 0.057925 0.007827 0.049077 -0.031709 0.020498 0.026779 0.030363 -0.041213 0.077162 0.0111 0.010126 -0.033848 -0.033828 0.035238 0.016927 -0.009494 -8e-05 0.013462 -0.072987 -0.018831 0.039798 -0.005349 0.02597 0.033542 0.014668 -0.061519 -0.035042 0.055342 -0.008076 -0.02282 0.039366 -0.038499 0.050074 0.003782 -0.002337 -0.055242 0.033366 0.022399 0.006871 -0.044887 -0.006669 0.033584 0.036822 0.045519 -0.022088 0.04713 0.007713 -0.030776 0.027839 0.014694 -0.020315 0.008032 0.054957 0.017613 0.036741 -0.046235 -0.016691 0.0152 0.031037 0.010232 -0.010509 0.032717 -0.006532 0.051747 0.032063 -0.01195 0.020168 -0.016812 0.011787 -0.044069 -0.004394 -0.0274 0.03195 -0.015762 -0.021225 -0.002515 0.000707 0.044611 -0.006782 -0.008687 0.019745 0.020805 -0.030151 0.048921 0.023274 0.005586 -0.018783 0.012992 0.042486 -0.010982 -0.016255 -0.037277 0.043815 -0.033894 0.005619 0.0217 -0.001637 0.011691 0.013279 0.042572 0.022978 -0.03258 0.020522 0.01646 0.008194 0.014862 0.027993 0.051756 -0.006664 0.028476 0.024026 -0.036497 -0.000992 0.022286 -0.013769 0.005968 0.052232 -0.026737 -0.031074 0.051734 0.038624 0.01793 0.041686 0.033957 0.036812 0.035493 -0.006482 -0.025958 0.034413 0.029102 0.071919 0.059357 -0.01526 -0.019018 0.001787 -0.007621 -0.011222 0.04103 -0.031757 -0.034629 0.004952 0.041174 -0.030639 0.045983 -0.015927 0.005154 0.045729 -0.039711 0.021611 0.048313 -0.025185 0.011935 0.026078 -0.040137 -0.041645 0.028548 -0.042949 0.024395 0.029784 0.035465 -0.001785 0.00716 -0.008703 0.019439 -0.025684 0.014088 0.037605 -0.005923 0.033448 0.011739 0.025905 -0.028003 0.028794 0.013817 0.009062 -0.013661 0.053911 0.008301 -0.054152 -0.005559 0.031323 -0.011769 -0.051845 0.039708 -0.019295 -0.008539 -0.040756 -0.007023 -0.000422 -0.037756 -0.023927 0.027517 -0.026142 0.011847 0.009767 -0.014636 0.064633 0.032172 -0.000647 -0.027608 0.039892 0.074689 -0.028349 -0.030787 -0.015178 0.021586 -0.000125 0.001814 0.045343 -0.025246 0.020583 0.020639 -0.000715 0.065934 0.022447 -0.027579 -0.00872 0.046977 0.037453 -0.022873 0.016566 -0.055647 -0.00605 -0.003016 -0.029647 -0.035054 0.051653 -0.015084 -0.010729 0.002592 0.049916 0.02615 0.006958 0.011123 0.017345 0.02778 0.030582 -0.019112 -0.014137 0.002341 0.038038 -0.010793 0.030659 0.026451 -0.014263 0.036417 0.04911 0.018344 -0.002487 0.010607 0.026584 -0.014961 -0.024515 -0.016466 -0.043903 0.035507 -0.004479 -0.008239 -0.062752 -0.014464 0.032367 0.017395 -0.021136 0.003738 0.008874 -0.041263 -0.014431 -0.05209 0.019526 -0.029002 -0.017417 -0.026043 0.004287 0.012052 -0.008874 0.016294 0.029031 0.003526 -0.029575 -0.008495 -0.011556 -0.038047 -0.016352 -0.030041 0.026304 0.043036 0.061159 -0.018622 -0.002364 0.012206 -0.011742 -0.036264 0.023924 0.02925 -0.025439 -0.00053 0.020456 0.014228 0.048604 0.008105 -0.011262 0.010441 0.033436 -0.032862 0.005812 -0.052162 -0.035736 -0.066941 0.026854 0.029871 0.051598 0.033258 -0.031835 -0.01204 -0.03187 0.046196 -0.022058 0.039415 -0.043047 0.048579 0.024713 0.017084 -0.031237 0.006198 0.006283 -0.037657 0.00078 0.005424 0.025165 -0.013721 -0.039393 -0.001836 0.063339 0.025006 -0.015482 0.033023 -0.03361 -0.004997 -6.1e-05 -0.013841 0.046873 -0.010223 0.031303 -0.011313 -0.002286 -0.017885 0.039263 0.031628 0.038766 0.016717 -0.044643 -0.033679 0.024488 0.044611 -0.011309 0.035854 -0.051359 -0.043007 0.049846 0.015301 0.04113 0.02613 -0.021653 0.031592 -0.010389 0.031952 0.041059 -0.017467 -0.034667 0.003591 -0.026341 0.050056 0.03254 -0.026634 0.011745 0.007241 -0.014724 -0.00245 -0.006881 0.026939 0.038696 0.03331 0.02157 -0.026484 -0.049872 -0.014496 0.026743 -0.032766 -0.004997 0.041235 -0.033572 -0.030326 0.046374 -0.001224 -0.022008 0.048221 0.013477 0.03052 0.009243 -0.037418 -0.009837 -0.037708 0.006747 -0.02163 0.032561 0.018902 -0.039189 -0.003731 -0.044859 -0.020889 0.028367 -0.022904 0.03165 -0.01346 -0.012507 0.012835 0.038146 0.037435 0.028256 0.028632 -0.024912 0.012739 0.029644 0.058062 0.040479 -0.047459 -0.013585 -0.0281 -0.014459 -0.036823 -0.045314 0.047012 0.036322 0.014453 -0.037881 0.027428 0.027124 0.037364 -0.02701 0.028016 -0.000486 0.015883 0.019093 -0.030049 0.003639 0.049166 -0.003344 0.027877 -0.037779 -0.014343 -0.014105 0.037362 0.022254 0.035917 -0.015388 -0.018129 0.014287 0.004279 -0.04148 -0.034514 0.010738 0.000698 -0.026087 0.042533 -3.2e-05 0.024241 0.034762 -0.007458 -0.017257 0.024282 -0.041057 0.006942 0.015191 0.043332 -0.019019 0.033507 -0.016643 0.03813 0.030253 -0.035856 0.002653 -0.032551 0.018839 0.04438 -0.03431 0.03654 0.012435 -0.001958 0.034063 -0.0255 0.002994 -0.002499 0.040859 0.005844 -0.009173 0.000632 0.023007 0.019606 -0.000294 0.04484 0.014333 0.01193 0.000636 -0.040248 0.015152 0.035611 0.026841 -0.03334 0.029149 0.037186 -0.022311 0.034335 0.019718 0.031019 -0.006406 0.011704 0.00712 -0.03505 0.022513 -0.035604 0.025954 0.019398 0.042192 0.040841 0.016094 -0.013843 -0.000883 -0.024671 -0.026901 0.016137 0.023744 0.042085 -0.01431 0.034317 0.031798 0.040972 -0.033298 0.041476 0.020653 0.018413 -0.016886 -0.013613 -0.038071 -0.013294 -0.036248 0.046507 0.001705 -8.8e-05 -0.007793 -0.035707 0.021251 0.010511 0.043014 -0.006338 -0.012569 -0.006406 0.025731 0.023442 0.023782 0.014862 0.028042 -0.038758 0.00108 -0.019724 0.02532 -0.007813 0.039995 0.039014 0.015704 -0.036664 0.013392 -0.025669 -0.028709 -0.03698 -0.007791 -0.024996 0.032052 0.04095 0.003496 -0.029267 -0.013493 0.000268 0.004233 0.032032 0.024064 -0.024918 0.035046 -0.018066 -0.03163 0.009797 0.03928 0.034371 0.004798 -0.048292 -0.03429 0.009634 -0.003711 0.01379 -0.008852 -0.039639 0.015143 -0.035057 0.041004 0.01613 -0.0306 0.050486 -0.040113 -0.037002 0.029063 -0.003474 -0.004967 -0.020402 0.033626 -0.013017 0.046227 0.005365 -0.02915 -0.027584 -0.02686 -0.015333 0.034052 -0.013681 -0.011729 -0.008132 -0.006575 -0.001145 0.010719 0.050693 0.004814 -0.014643 -0.03846 0.022921 0.007809 -0.024814 0.046997 0.019645 -0.03682 0.043344 -0.030085 -0.016512 0.027366 0.027661 -0.001929 0.000557 0.017713 -0.008915 -0.001785 -0.001166 0.017614 0.023192 0.028866 -0.010124 0.004947 0.023776 -0.016851 -0.03528 0.004938 -0.011059 0.024971 0.040963 -0.001372 0.017388 0.038003 -0.041577 -0.011016 -0.011606 -0.006272 -0.025775 0.023993 0.033961 -0.006957 0.030336 0.002435 0.043138 -0.04095 0.039648 -0.020016 0.010496 0.022254 0.024393 0.049275 0.009926 -0.044143 -0.021317 0.032192 0.018852 0.043278 -0.015082 0.038572 -0.018748 -0.021815 -0.027021 -0.008932 -0.031685 -0.008631 0.005242 0.041365 0.015703 -0.028682 -0.016412 -0.005221 -0.035436 -0.033319 0.020871 0.022313 -0.034361 -0.017171 0.040409 0.003757 -0.043862 0.01762 -0.00488 -0.010121 -0.030514 -0.012434 -0.027398 -0.002067 -0.021642 0.021274 -0.027208 -0.009151 0.023224 -0.017385 0.045853 -0.002901 0.045623 -0.015852 -0.006589 0.015899 -0.053673 0.023812 -0.035677 0.005316 -0.035629 -0.017204 0.014229 -0.001227 0.040276 -0.039633 0.011042 0.040766 -0.043804 0.047058 0.030391 0.016409 0.019546 -0.007302 -0.019903 0.014455 0.005686 -0.045419 0.009271 0.028575 -0.035747 0.017771 0.020343 0.054459 -0.050458 0.01094 0.007226 -0.031275 -0.020163 0.037564 -0.030285 0.002823 0.055761 -0.007987 -0.051204 0.007562 -0.014512 -0.026521 -0.036816 -0.020928 -0.042043 0.015298 0.028966 -0.032381 0.021817 0.058482 0.025086 -0.045931 -0.014862 -0.007124 0.034305 -0.038284 -0.020993 0.035263 -0.032139 -0.025611 -0.010658 0.011652 -0.007257 -0.003597 -0.007004 -0.024371 0.063148 -0.006401 0.054992 0.025115 -0.027727 -0.004481 0.04376 -0.030769 -0.00369 -0.048267 0.049189 -0.006719 -0.037984 0.052616 -0.009858 0.001373 0.009473 0.01455 0.032879 0.031725 -0.019961 0.048632 -0.012176 -0.040778 0.012419 -0.021147 -0.023237 -0.043443 0.012623 0.036193 -0.009108 0.008234 -0.031858 -0.021942 0.008552 -0.047303 0.051553 -0.015581 0.023582 0.034768 0.020034 0.02734 -0.056124 0.019578 0.02964 0.018269 -0.031122 0.019974 -0.02604 0.055205 -0.024913 0.048854 0.017619 -0.035458 -0.036354 -0.009649 0.011241 -0.038772 -0.000875 -0.029606 0.030602 0.037043 0.002878 0.006263 -0.031499 -0.031487 0.061311 0.040606 0.06316 -0.037797 -0.010222 0.034106 -0.039092 -0.024814 -0.023947 -0.007884 -0.035087 0.008828 0.021854 -0.018798 0.034702 -0.02561 0.043733 0.025628 -0.018093 -0.012032 -0.005934 -0.010874 0.00266 0.024402 -0.015698 0.021914 0.041719 0.016075 0.0666 -0.007947 0.004675 -0.014197 0.044708 -0.000212 -0.02765 -0.014819 -0.006093 -0.030968 0.01733 -0.057007 0.01969 -0.048219 0.0494 -0.029327 -0.038215 0.03478 0.037545 0.002057 0.000656 -0.002398 0.012983 -0.012617 -0.028824 0.040181 0.049697 0.033502 -0.016685 0.029492 0.014749 0.061869 -0.019959 -0.021545 0.036634 -0.040899 -0.036445 -0.020987 0.017827 0.041273 0.031658 -0.026386 0.045222 1.4e-05 0.023477 0.036677 -0.015825 -0.040079 0.010826 -0.02376 -0.004055 0.039155 0.013365 -0.009973 0.036253 0.01132 0.03989 -0.027252 -0.010331 -0.007232 0.03492 -0.023487 0.01673 0.03333 0.014581 -0.025941 -0.037274 -0.010658 0.027657 0.010028 0.049065 0.002244 0.013732 0.001586 0.04232 0.005395 -0.019515 0.025972 -0.007754 -0.037647 0.000693 0.037669 0.016025 0.04706 -0.012184 0.044909 0.016645 0.01744 -0.044874 0.019215 -0.028346 0.01597 0.040999 -0.020206 -0.033941 0.010595 -0.025646 0.037773 -0.041961 -0.014777 0.039501 -0.001339 -0.028157 -0.005792 -0.011716 -0.042811 -0.030032 -0.038383 0.037287 -0.027814 0.025186 0.009661 -0.01241 0.034485 0.010114 -0.011361 0.038937 0.00353 0.03285 0.039896 -0.014573 0.004071 0.027846 -0.007166 0.01865 -0.0432 -0.050307 0.039363 0.045407 0.031482 -0.028448 -0.047374 0.026639 0.013257 0.039048 -0.017867 -0.026987 -0.047801 -0.030267 -0.053128 0.036668 0.035862 -0.005709 0.040174 -0.046137 0.027036 -0.034022 -0.025944 -0.001422 0.00621 0.020614 -0.018871 0.030311 0.014459 0.033192 -0.03122 0.00025 -0.019179 0.046277 0.027955 0.011706 0.039138 0.027691 -0.038938 0.030474 0.018145 0.03633 -0.001737 0.041184 0.031592 0.003806 -0.015116 -0.046231 -0.003931 -0.016602 -0.017681 0.013325 -0.011733 -0.060523 -0.008716 0.014714 0.011771 0.029981 -0.032308 0.029281 -0.047869 -0.033348 0.046946 -0.028435 0.020727 -0.042777 0.012631 0.016682 -0.00837 0.001533 -0.033636 -0.034769 0.038992 -0.023026 0.0 0.0 0.0 0.0 0.0 0.0 0.0 0.0 0.0 0.0 0.0 0.0 0.0 0.0 0.0 0.0 0.0 0.0 0.0 0.0 0.0 0.0 0.0 0.0 0.0 0.0 0.0 0.0 0.0 0.0 0.0 0.0 0.0 0.0 0.0 0.0 0.0 0.0 0.0 0.0 0.0 0.0 0.0 0.0 0.0 0.0 0.0 0.0 0.0 0.0 0.0 0.0 0.0 0.0 0.0 0.0 0.0 0.0 0.0 0.0 0.0 0.0 0.0 0.0 0.0 0.0 0.0 0.0 0.0 0.0 0.0 0.0 0.0 0.0 0.0 0.0 0.0 0.0 0.0 0.0 0.0 0.0 0.0 0.0 0.0 0.0 0.0 0.0 0.0 0.0 0.0 0.0 0.0 0.0 0.0 0.0 0.0 0.0 0.0 0.0 0.0 0.0 0.0 0.0 0.0 0.0 0.0 0.0 0.0 0.0 0.0 0.0 0.0 0.0 0.0 0.0 0.0 0.0 0.0 0.0 0.0 0.0 0.0 0.0 0.0 0.0 0.0 0.0 0.0 0.0 0.0 0.0 0.0 0.0 0.0 0.0 0.0 0.0 0.0 0.0 0.0 0.0 0.0 0.0 0.0 0.0 0.0 0.0 0.0 0.0 0.0 0.0 0.0 0.0 0.0 0.0 0.0 0.0 0.0 0.0 0.0 0.0 0.0 0.0 0.0 0.0 0.0 0.0 0.0 0.0 0.0 0.0 0.0 0.0 0.0 0.0 0.0 0.0 0.0 0.0 0.0 0.0 0.0 0.0 0.0 0.0 0.0 0.0 0.0 0.0 0.0 0.0 0.0 0.0 0.0 0.0 0.0 0.0 0.0 0.0 0.0 0.0 0.0 0.0 0.0 0.0 0.0 0.0 0.0 0.0 0.0 0.0 0.0 0.0 0.0 0.0 0.0 0.0 0.0 0.0 0.0 0.0 0.0 0.0 0.0 0.0 0.0 0.0 0.0 0.0 0.0 0.0 0.0 0.0 0.0 0.0 0.0 0.0 0.0 0.0 0.0 0.0 0.0 0.0 0.0 0.0 0.0 0.0 0.0 0.0 0.0 0.0 0.0 0.0 0.0 0.0 0.0 0.0 0.0 0.0 0.0 0.0 0.0 0.0 0.0 0.0 0.0 0.0 0.0 0.0 0.0 0.0 0.0 0.0 0.0 0.0 0.0 0.0 0.0 0.0 0.0 0.0 0.0 0.0 0.0 0.0 0.0 0.0 0.0 0.0 0.0 0.0 0.0 0.0 0.0 0.0 0.0 0.0 0.0 0.0 0.0 0.0 0.0 0.0 0.0 0.0 0.0 0.0 0.0 0.0 0.0 0.0 0.0 0.0 0.0 0.0 0.0 0.0 0.0 0.0 0.0 0.0 0.0 0.0 0.0 0.0 0.0 0.0 0.0 0.0 0.0 0.0 0.0 0.0 0.0 0.0 0.0 0.0 0.0 0.0 0.0 0.0 0.0 0.0 0.0 0.0 0.0 0.0 0.0 0.0 0.0 0.0 0.0 0.0 0.0 0.0 0.0 0.0 0.0 0.0 0.0 0.0 0.0 0.0 0.0 0.0 0.0 0.0 0.0 0.0 0.0 0.0 0.0 0.0 0.0 0.0 0.0 0.0 0.0 0.0 0.0 0.0 0.0 0.0 0.0 0.0 0.0 0.0 0.0 0.0 0.0 0.0 0.0 0.0 0.0 0.0 0.0 0.0 0.0 0.0 0.0 0.0 0.0 0.0 0.0 0.0 0.0 0.0 0.0 0.0 0.0 0.0 0.0 0.0 0.0 0.0 0.0 0.0 0.0 0.0 0.0 0.0 0.0 0.0 0.0 0.0 0.0 0.0 0.0 0.0 0.0 0.0 0.0 0.0 0.0 0.0 0.0 0.0 0.0 0.0 0.0 0.0 0.0 0.0 0.0 0.0 0.0 0.0 0.0 0.0 0.0 0.0 0.0 0.0 0.0 0.0 0.0 0.0 0.0 0.0 0.0 0.0 0.0 0.0 0.0 0.0 0.0 0.0 0.0 0.0 0.0 0.0 0.0 0.0 0.0 0.0 0.0 0.0 0.0 0.0 0.0 0.0 0.0 0.0 0.0 0.0 0.0 0.0 0.0 0.0 0.0 0.0 0.0 0.0 0.0 0.0 0.0 0.0 0.0 0.0 0.0 0.0 0.0 0.0 0.0 0.0 0.0 0.0 0.0 0.0 0.0 0.0 0.0 0.0 0.0 0.0 0.0 0.0 0.0 0.0 0.0 0.0 0.0 0.0 0.0 0.0 0.0 0.0 0.0 0.0 0.0 0.0 0.0 0.0 0.0 0.0 0.0 0.0 0.0 0.0 0.0 0.0 0.0 0.0 0.0 0.0 0.0 0.0 0.0 0.0 0.0 0.0 0.0 0.0 0.0 0.0 0.0 0.0 0.0 0.0 0.0 0.0 0.0 0.0 0.0 0.0 0.0 0.0 0.0 0.0 0.0 0.0 0.0 0.0 0.0 0.0 0.0 0.0 0.0 0.0 0.0 0.0 0.0 0.0 0.0 0.0 0.0 0.0 0.0 0.0 0.0 0.0 0.0 0.0 0.0 0.0 0.0 0.0 0.0 0.0 0.0 0.0 0.0 0.0 0.0 0.0 0.0 0.0 0.0 0.0 0.0 0.0 0.0 0.0 0.0 0.0 0.0 0.0 0.0 0.0 0.0 0.0 0.0 0.0 0.0 0.0 0.0 0.0 0.0 0.0 0.0 0.0 0.0 0.0 0.0 0.0 0.0 0.0 0.0 0.0 0.0 0.0 0.0 0.0 0.0 0.0 0.0 0.0 0.0 0.0 0.0 0.0 0.0 0.0 0.0 0.0 0.0 0.0 0.0 0.0 0.0 0.0 0.0 0.0 0.0 0.0 0.0 0.0 0.0 0.0 0.0 0.0 0.0 0.0 0.0 0.0 0.0 0.0 0.0 0.0 0.0 0.0 0.0 0.0 0.0 0.0 0.0 0.0 0.0 0.0 0.0 0.0 0.0 0.0 0.0 0.0 0.0 0.0 0.0 0.0 0.0 0.0 0.0 0.0 0.0 0.0 0.0 0.0 0.0 0.0 0.0 0.0 0.0 0.0 0.0 0.0 0.0 0.0 0.0 0.0 0.0 0.0 0.0 0.0 0.0 0.0 0.0 0.0 0.0 0.0 0.0 0.0 0.0 0.0 0.0 0.0 0.0 0.0 0.0 0.0 0.0 0.0 0.0 0.0 0.0 0.0 0.0 0.0 0.0 0.0 0.0 0.0 0.0 0.0 0.0 0.0 0.0 0.0 0.0 0.0 0.0 0.0 0.0 0.0 0.0 0.0 0.0 0.0 0.0 0.0 0.0 0.0 0.0 0.0 0.0 0.0 0.0 0.0 0.0 0.0 0.0 0.0 0.0 0.0 0.0 0.0 0.0 0.0 0.0 0.0 0.0 0.0 0.0 0.0 0.0 0.0 0.0 0.0 0.0 0.0 0.0 0.0 0.0 0.0 0.0 0.0 0.0 0.0 0.0 0.0 0.0 0.0 0.0 0.0 0.0 0.0 0.0 0.0 0.0 0.0 0.0 0.0 0.0 0.0 0.0 0.0 0.0 0.0 0.0 0.0 0.0 0.0 0.0 0.0 0.0 0.0 0.0 0.0 0.0 0.0 0.0 0.0 0.0 0.0 0.0 0.0 0.0 0.0 0.0 0.0 0.0 0.0 0.0 0.0 0.0 0.0 0.0 0.0 0.0 0.0 0.0 0.0 0.0 0.0 0.0 0.0 0.0 0.0 0.0 0.0 0.0 0.0 0.0 0.0 0.0 0.0 0.0 0.0 0.0 0.0 0.0 0.0 0.0 0.0 0.0 0.0 0.0 0.0 0.0 0.0 0.0 0.0 0.0 0.0 0.0 0.0 0.0 0.0 0.0 0.0 0.0 0.0 0.0 0.0 0.0 0.0 0.0 0.0 0.0 0.0 0.0 0.0 0.0 0.0 0.0 0.0 0.0 0.0 0.0 0.0 0.0 0.0 0.0 0.0 0.0 0.0 0.0 0.0 0.0 0.0 0.0 0.0 0.0 0.0 0.0 0.0 0.0 0.0 0.0 0.0 0.0 0.0 0.0 0.0 0.0 0.0 0.0 0.0 0.0 0.0 0.0 0.0 0.0 0.0 0.0 0.0 0.0 0.0 0.0 0.0 0.0 0.0 0.0 0.0 0.0 0.0 0.0 0.0 0.0 0.0 0.0 0.0 0.0 0.0 0.0 0.0 0.0 0.0 0.0 0.0 0.0 0.0 0.0 0.0 0.0 0.0 0.0 0.0 0.0 0.0 0.0 0.0 0.0 0.0 0.0 0.0 0.0 0.0 0.0 0.0 0.0 0.0 0.0 0.0 0.0 0.0 0.0 0.0 0.0 0.0 0.0 0.0 0.0 0.0 0.0 0.0 0.0 0.0 0.0 0.0 0.0 0.0 0.0 0.0 0.0 0.0 0.0 0.0 0.0 0.0 0.0 0.0 0.0 0.0 0.0 0.0 0.0 0.0 0.0 0.0 0.0 0.0 0.0 0.0 0.0 0.0 0.0 0.0 0.0 0.0 0.0 0.0 0.0 0.0 0.0 0.0 0.0 0.0 0.0 0.0 0.0 0.0 0.0 0.0 0.0 0.0 0.0 0.0 0.0 0.0 0.0 0.0 0.0 0.0 0.0 0.0 0.0 0.0 0.0 0.0 0.0 0.0 0.0 0.0 0.0 0.0 0.0 0.0 0.0 0.0 0.0 0.0 0.0 0.0 0.0 0.0 0.0 0.0 0.0 0.0 0.0 0.0 0.0 0.0 0.0 0.0 0.0 0.0 0.0 0.0 0.0 0.0 0.0 0.0 0.0 0.0 0.0 0.0 0.0 0.0 0.0 0.0 0.0 0.0 0.0 0.0 0.0 0.0 0.0 0.0 0.0 0.0 0.0 0.0 0.0 0.0 0.0 0.0 0.0 0.0 0.0 0.0 0.0 0.0 0.0 0.0 0.0 0.0 0.0 0.0 0.0 0.0 0.0 0.0 0.0 0.0 0.0 0.0 0.0 0.0 0.0 0.0 0.0 0.0 0.0 0.0 0.0 0.0 0.0 0.0 0.0 0.0 0.0 0.0 0.0 0.0 0.0 0.0 0.0 0.0 0.0 0.0 0.0 0.0 0.0 0.0 0.0 0.0 0.0 0.0 0.0 0.0 0.0 0.0 0.0 0.0 0.0 0.0 0.0 0.0 0.0 0.0 0.0 0.0 0.0 0.0 0.0 0.0 0.0 0.0 0.0 0.0 0.0 0.0 0.0 0.0 0.0 0.0 0.0 0.0 0.0 0.0 0.0 0.0 0.0 0.0 0.0 0.0 0.0 0.0 0.0 0.0 0.0 0.0 0.0 0.0 0.0 0.0 0.0 0.0 0.0 0.0 0.0 0.0 0.0 0.0 0.0 0.0 0.0 0.0 0.0 0.0 0.0 0.0 0.0 0.0 0.0 0.0 0.0 0.0 0.0 0.0 0.0 0.0 0.0 0.0 0.0 0.0 0.0 0.0 0.0 0.0 0.0 0.0 0.0 0.0 0.0 0.0 0.0 0.0 0.0 0.0 0.0 0.0 0.0 0.0 0.0 0.0 0.0 0.0 0.0 0.0 0.0 0.0 0.0 0.0 0.0 0.0 0.0 0.0 0.0 0.0 0.0 0.0 0.0 0.0 0.0 0.0 0.0 0.0 0.0 0.0 0.0 0.0 0.0 0.0 0.0 0.0 0.0 0.0 0.0 0.0 0.0 0.0 0.0 0.0 0.0 0.0 0.0 0.0 0.0 0.0 0.0 0.0 0.0 0.0 0.0 0.0 0.0 0.0 0.0 0.0 0.0 0.0 0.0 0.0 0.0 0.0 0.0 0.0 0.0 0.0 0.0 0.0 0.0 0.0 0.0 0.0 0.0 0.0 0.0 0.0 0.0 0.0 0.0 0.0 0.0 0.0 0.0 0.0 0.0 0.0 0.0 0.0 0.0 0.0 0.0 0.0 0.0 0.0 0.0 0.0 0.0 0.0 0.0 0.0 0.0 0.0 0.0 0.0 0.0 0.0 0.0 0.0 0.0 0.0 0.0 0.0 0.0 0.0 0.0 0.0 0.0 0.0 0.0 0.0 0.0 0.0 0.0 0.0 0.0 0.0 0.0 0.0 0.0 0.0 0.0 0.0 0.0 0.0 0.0 0.0 0.0 0.0 0.0 0.0 0.0 0.0 0.0 0.0 0.0 0.0 0.0 0.0 0.0 0.0 0.0 0.0 0.0 0.0 0.0 0.0 0.0 0.0 0.0 0.0 0.0 0.0 0.0 0.0 0.0 0.0 0.0 0.0 0.0 0.0 0.0 0.0 0.0 0.0 0.0 0.0 0.0 0.0 0.0 0.0 0.0 0.0 0.0 0.0 0.0 0.0 0.0 0.0 0.0 0.0 0.0 0.0 0.0 0.0 0.0 0.0 0.0 0.0 0.0 0.0 0.0 0.0 0.0 0.0 0.0 0.0 0.0 0.0 0.0 0.0 0.0 0.0 0.0 0.0 0.0 0.0 0.0 0.0 0.0 0.0 0.0 0.0 0.0 0.0 0.0 0.0 0.0 0.0 0.0 0.0 0.0 0.0 0.0 0.0 0.0 0.0 0.0 0.0 0.0 0.0 0.0 0.0 0.0 0.0 0.0 0.0 0.0 0.0 0.0 0.0 0.0 0.0 0.0 0.0 0.0 0.0 0.0 0.0 0.0 0.0 0.0 0.0 0.0 0.0 0.0 0.0 0.0 0.0 0.0 0.0 0.0 0.0 0.0 0.0 0.0 0.0 0.0 0.0 0.0 0.0 0.0 0.0 0.0 0.0 0.0 0.0 0.0 0.0 0.0 0.0 0.0 0.0 0.0 0.0 0.0 0.0 0.0 0.0 0.0 0.0 0.0 0.0 0.0 0.0 0.0 0.0 0.0 0.0 0.0 0.0 0.0 0.0 0.0 0.0 0.0 0.0 0.0 0.0 0.0 0.0 0.0 0.0 0.0 0.0 0.0 0.0 0.0 0.0 0.0 0.0 0.0 0.0 0.0 0.0 0.0 0.0 0.0 0.0 0.0 0.0 0.0 0.0 0.0 0.0 0.0 0.0 0.0 0.0 0.0 0.0 0.0 0.0 0.0 0.0 0.0 0.0 0.0 0.0 0.0 0.0 0.0 0.0 0.0 0.0 0.0 0.0 0.0 0.0 0.0 0.0 0.0 0.0 0.0 0.0 0.0 0.0 0.0 0.0 0.0 0.0 0.0 0.0 0.0 0.0 0.0 0.0 0.0 0.0 0.0 0.0 0.0 0.0 0.0 0.0 0.0 0.0 0.0 0.0 0.0 0.0 0.0 0.0 0.0 0.0 0.0 0.0 0.0 0.0 0.0 0.0 0.0 0.0 0.0 0.0 0.0 0.0 0.0 0.0 0.0 0.0 0.0 0.0 0.0 0.0 0.0 0.0 0.0 0.0 0.0 0.0 0.0 0.0 0.0 0.0 0.0 0.0 0.0 0.0 0.0 0.0 0.0 0.0 0.0 0.0 0.0 0.0 0.0 0.0 0.0 0.0 0.0 0.0 0.0 0.0 0.0 0.0 0.0 0.0 0.0 0.0 0.0 0.0 0.0 0.0 0.0 0.0 0.0 0.0 0.0 0.0 0.0 0.0 0.0 0.0 0.0 0.0 0.0 0.0 0.0 0.0 0.0 0.0 0.0 0.0 0.0 0.0 0.0 0.0 0.0 0.0 0.0 0.0 0.0 0.0 0.0 0.0 0.0 0.0 0.0 0.0 0.0 0.0 0.0 0.0 0.0 0.0 0.0 0.0 0.0 0.0 0.0 0.0 0.0 0.0 0.0 0.0 0.0 0.0 0.0 0.0 0.0 0.0 0.0 0.0 0.0 0.0 0.0 0.0 0.0 0.0 0.0 0.0 0.0 0.0 0.0 0.0 0.0 0.0 0.0 0.0 0.0 0.0 0.0 0.0 0.0 0.0 0.0 0.0 0.0 0.0 0.0 0.0 0.0 0.0 0.0 0.0 0.0 0.0 0.0 0.0 0.0 0.0 0.0 0.0 0.0 0.0 0.0 0.0 0.0 0.0 0.0 0.0 0.0 0.0 0.0 0.0 0.0 0.0 0.0 0.0 0.0 0.0 0.0 0.0 0.0 0.0 0.0 0.0 0.0 0.0 0.0 0.0 0.0 0.0 0.0 0.0 0.0 0.0 0.0 0.0 0.0 0.0 0.0 0.0 0.0 0.0 0.0 0.0 0.0 0.0 0.0 0.0 0.0 0.0 0.0 0.0 0.0 0.0 0.0 0.0 0.0 0.0 0.0 0.0 0.0 0.0 0.0 0.0 0.0 0.0 0.0 0.0 0.0 0.0 0.0 0.0 0.0 0.0 0.0 0.0 0.0 0.0 0.0 0.0 0.0 0.0 0.0 0.0 0.0 0.0 0.0 0.0 0.0 0.0 0.0 0.0 0.0 0.0 0.0 0.0 0.0 0.0 0.0 0.0 0.0 0.0 0.0 0.0 0.0 0.0 0.0 0.0 0.0 0.0 0.0 0.0 0.0 0.0 0.0 0.0 0.0 0.0 0.0 0.0 0.0 0.0 0.0 0.0 0.0 0.0 0.0 0.0 0.0 0.0 0.0 0.0 0.0 0.0 0.0 0.0 0.0 0.0 0.0 0.0 0.0 0.0 0.0 0.0 0.0 0.0 0.0 0.0 0.0 0.0 0.0 0.0 0.0 0.0 0.0 0.0 0.0 0.0 0.0 0.0 0.0 0.0 0.0 0.0 0.0 0.0 0.0 0.0 0.0 0.0 0.0 0.0 0.0 0.0 0.0 0.0 0.0 0.0 0.0 0.0 0.0 0.0 0.0 0.0 0.0 0.0 0.0 0.0 0.0 0.0 0.0 0.0 0.0 0.0 0.0 0.0 0.0 0.0 0.0 0.0 0.0 0.0 0.0 0.0 0.0 0.0 0.0 0.0 0.0 0.0 0.0 0.0 0.0 0.0 0.0 0.0 0.0 0.0 0.0 0.0 0.0 0.0 0.0 0.0 0.0 0.0 0.0 0.0 0.0 0.0 0.0 0.0 0.0 0.0 0.0 0.0 0.0 0.0 0.0 0.0 0.0 0.0 0.0 0.0 0.0 0.0 0.0 0.0 0.0 0.0 0.0 0.0 0.0 0.0 0.0 0.0 0.0 0.0 0.0 0.0 0.0 0.0 0.0 0.0 0.0 0.0 0.0 0.0 0.0 0.0 0.0 0.0 0.0 0.0 0.0 0.0 0.0 0.0 0.0 0.0 0.0 0.0 0.0 0.0 0.0 0.0 0.0 0.0 0.0 0.0 0.0 0.0 0.0 0.0 0.0 0.0 0.0 0.0 0.0 0.0 0.0 0.0 0.0 0.0 0.0 0.0 0.0 0.0 0.0 0.0 0.0 0.0 0.0 0.0 0.0 0.0 0.0 0.0 0.0 0.0 0.0 0.0 0.0 0.0 0.0 0.0 0.0 0.0 0.0 0.0 0.0 0.0 0.0 0.0 0.0 0.0 0.0 0.0 0.0 0.0 0.0 0.0 0.0 0.0 0.0 0.0 0.0 0.0 0.0 0.0 0.0 0.0 0.0 0.0 0.0 0.0 0.0 0.0 0.0 0.0 0.0 0.0 0.0 0.0 0.0 0.0 0.0 0.0 0.0 0.0 0.0 0.0 0.0 0.0 0.0 0.0 0.0 0.0 0.0 0.0 0.0 0.0 0.0 0.0 0.0 0.0 0.0 0.0 0.0 0.0 0.0 0.0 0.0 0.0 0.0 0.0 0.0 0.0 0.0 0.0 0.0 0.0 0.0 0.0 0.0 0.0 0.0 0.0 0.0 0.0 0.0 0.0 0.0 0.0 0.0 0.0 0.0 0.0 0.0 0.0 0.0 0.0 0.0 0.0 0.0 0.0 0.0 0.0 0.0 0.0 0.0 0.0 0.0 0.0 0.0 0.0 0.0 0.0 0.0 0.0 0.0 0.0 0.0 0.0 0.0 0.0 0.0 0.0 0.0 0.0 0.0 0.0 0.0 0.0 0.0 0.0 0.0 0.0 0.0 0.0 0.0 0.0 0.0 0.0 0.0 0.0 0.0 0.0 0.0 0.0 0.0 0.0 0.0 0.0 0.0 0.0 0.0 0.0 0.0 0.0 0.0 0.0 0.0 0.0 0.0 0.0 0.0 0.0 0.0 0.0 0.0 0.0 0.0 0.0 0.0 0.0 0.0 0.0 0.0 0.0 0.0 0.0 0.0 0.0 0.0 0.0 0.0 0.0 0.0 0.0 0.0 0.0 0.0 0.0 0.0 0.0 0.0 0.0 0.0 0.0 0.0 0.0 0.0 0.0 0.0 0.0 0.0 0.0 0.0 0.0 0.0 0.0 0.0 0.0 0.0 0.0 0.0 0.0 0.0 0.0 0.0 0.0 0.0 0.0 0.0 0.0 0.0 0.0 0.0 0.0 0.0 0.0 0.0 0.0 0.0 0.0 0.0 0.0 0.0 0.0 0.0 0.0 0.0 0.0 0.0 0.0 0.0 0.0 0.0 0.0 0.0 0.0 0.0 0.0 0.0 0.0 0.0 0.0 0.0 0.0 0.0 0.0 0.0 0.0 0.0 0.0 0.0 0.0 0.0 0.0 0.0 0.0 0.0 0.0 0.0 0.0 0.0 0.0 0.0 0.0 0.0 0.0 0.0 0.0 0.0 0.0 0.0 0.0 0.0 0.0 0.0 0.0 0.0 0.0 0.0 0.0 0.0 0.0 0.0 0.0 0.0 0.0 0.0 0.0 0.0 0.0 0.0 0.0 0.0 0.0 0.0 0.0 0.0 0.0 0.0 0.0 0.0 0.0 0.0 0.0 0.0 0.0 0.0 0.0 0.0 0.0 0.0 0.0 0.0 0.0 0.0 0.0 0.0 0.0 0.0 0.0 0.0 0.0 0.0 0.0 0.0 0.0 0.0 0.0 0.0 0.0 0.0 0.0 0.0 0.0 0.0 0.0 0.0 0.0 0.0 0.0 0.0 0.0 0.0 0.0 0.0 0.0 0.0 0.0 0.0 0.0 0.0 0.0 0.0 0.0 0.0 0.0 0.0 0.0 0.0 0.0 0.0 0.0 0.0 0.0 0.0 0.0 0.0 0.0 0.0 0.0 0.0 0.0 0.0 0.0 0.0 0.0 0.0 0.0 0.0 0.0 0.0 0.0 0.0 0.0 0.0 0.0 0.0 0.0 0.0 0.0 0.0 0.0 0.0 0.0 0.0 0.0 0.0 0.0 0.0 0.0 0.0 0.0 0.0 0.0 0.0 0.0 0.0 0.0 0.0 0.0 0.0 0.0 0.0 0.0 0.0 0.0 0.0 0.0 0.0 0.0 0.0 0.0 0.0 0.0 0.0 0.0 0.0 0.0 0.0 0.0 0.0 0.0 0.0 0.0 0.0 0.0 0.0 0.0 0.0 0.0 0.0 0.0 0.0 0.0 0.0 0.0 0.0 0.0 0.0 0.0 0.0 0.0 0.0 0.0 0.0 0.0 0.0 0.0 0.0 0.0 0.0 0.0 0.0 0.0 0.0 0.0 0.0 0.0 0.0 0.0 0.0 0.0 0.0 0.0 0.0 0.0 0.0 0.0 0.0 0.0 0.0 0.0 0.0 0.0 0.0 0.0 0.0 0.0 0.0 0.0 0.0 0.0 0.0 0.0 0.0 0.0 0.0 0.0 0.0 0.0 0.0 0.0 0.0 0.0 0.0 0.0 0.0 0.0 0.0 0.0 0.0 0.0 0.0 0.0 0.0 0.0 0.0 0.0 0.0 0.0 0.0 0.0 0.0 0.0 0.0 0.0 0.0 0.0 0.0 0.0 0.0 0.0 0.0 0.0 0.0 0.0 0.0 0.0 0.0 0.0 0.0 0.0 0.0 0.0 0.0 0.0 0.0 0.0 0.0 0.0 0.0 0.0 0.0 0.0 0.0 0.0 0.0 0.0 0.0 0.0 0.0 0.0 0.0 0.0 0.0 0.0 0.0 0.0 0.0 0.0 0.0 0.0 0.0 0.0 0.0 0.0 0.0 0.0 0.0 0.0 0.0 0.0 0.0 0.0 0.0 0.0 0.0 0.0 0.0 0.0 0.0 0.0 0.0 0.0 0.0 0.0 0.0 0.0 0.0 0.0 0.0 0.0 0.0 0.0 0.0 0.0 0.0 0.0 0.0 0.0 0.0 0.0 0.0 0.0 0.0 0.0 0.0 0.0 0.0 0.0 0.0 0.0 0.0 0.0 0.0 0.0 0.0 0.0 0.0 0.0 0.0 0.0 0.0 0.0 0.0 0.0 0.0 0.0 0.0 0.0 0.0 0.0 0.0 0.0 0.0 0.0 0.0 0.0 0.0 0.0 0.0 0.0 0.0 0.0 0.0 0.0 0.0 0.0 0.0 0.0 0.0 0.0 0.0 0.0 0.0 0.0 0.0 0.0 0.0 0.0 0.0 0.0 0.0 0.0 0.0 0.0 0.0 0.0 0.0 0.0 0.0 0.0 0.0 0.0 0.0 0.0 0.0 0.0 0.0 0.0 0.0 0.0 0.0 0.0 0.0 0.0 0.0 0.0 0.0 0.0 0.0 0.0 0.0 0.0 0.0 0.0 0.0 0.0 0.0 0.0 0.0 0.0 0.0 0.0 0.0 0.0 0.0 0.0 0.0 0.0 0.0 0.0 0.0 0.0 0.0 0.0 0.0 0.0 0.0 0.0 0.0 0.0 0.0 0.0 0.0 0.0 0.0 0.0 0.0 0.0 0.0 0.0 0.0 0.0 0.0 0.0 0.0 0.0 0.0 0.0 0.0 0.0 0.0 0.0 0.0 0.0 0.0 0.0 0.0 0.0 0.0 0.0 0.0 0.0 0.0 0.0 0.0 0.0 0.0 0.0 0.0 0.0 0.0 0.0 0.0 0.0 0.0 0.0 0.0 0.0 0.0 0.0 0.0 0.0 0.0 0.0 0.0 0.0 0.0 0.0 0.0 0.0 0.0 0.0 0.0 0.0 0.0 0.0 0.0 0.0 0.0 0.0 0.0 0.0 0.0 0.0 0.0 0.0 0.0 0.0 0.0 0.0 0.0 0.0 0.0 0.0 0.0 0.0 0.0 0.0 0.0 0.0 0.0 0.0 0.0 0.0 0.0 0.0 0.0 0.0 0.0 0.0 0.0 0.0 0.0 0.0 0.0 0.0 0.0 0.0 0.0 0.0 0.0 0.0 0.0 0.0 0.0 0.0 0.0 0.0 0.0 0.0 0.0 0.0 0.0 0.0 0.0 0.0 0.0 0.0 0.0 0.0 0.0 0.0 0.0 0.0 0.0 0.0 0.0 0.0 0.0 0.0 0.0 0.0 0.0 0.0 0.0 0.0 0.0 0.0 0.0 0.0 0.0 0.0 0.0 0.0 0.0 0.0 0.0 0.0 0.0 0.0 0.0 0.0 0.0 0.0 0.0 0.0 0.0 0.0 0.0 0.0 0.0 0.0 0.0 0.0 0.0 0.0 0.0 0.0 0.0 0.0 0.0 0.0 0.0 0.0 0.0 0.0 0.0 0.0 0.0 0.0 0.0 0.0 0.0 0.0 0.0 0.0 0.0 0.0 0.0 0.0 0.0 0.0 0.0 0.0 0.0 0.0 0.0 0.0 0.0 0.0 0.0 0.0 0.0 0.0 0.0 0.0 0.0 0.0 0.0 0.0 0.0 0.0 0.0 0.0 0.0 0.0 0.0 0.0 0.0 0.0 0.0 0.0 0.0 0.0 0.0 0.0 0.0 0.0 0.0 0.0 0.0 0.0 0.0 0.0 0.0 0.0 0.0 0.0 0.0 0.0 0.0 0.0 0.0 0.0 0.0 0.0 0.0 0.0 0.0 0.0 0.0 0.0 0.0 0.0 0.0 0.0 0.0 0.0 0.0 0.0 0.0 0.0 0.0 0.0 0.0 0.0 0.0 0.0 0.0 0.0 0.0 0.0 0.0 0.0 0.0 0.0 0.0 0.0 0.0 0.0 0.0 0.0 0.0 0.0 0.0 0.0 0.0 0.0 0.0 0.0 0.0 0.0 0.0 0.0 0.0 0.0 0.0 0.0 0.0 0.0 0.0 0.0 0.0 0.0 0.0 0.0 0.0 0.0 0.0 0.0 0.0 0.0 0.0 0.0 0.0 0.0 0.0 0.0 0.0 0.0 0.0 0.0 0.0 0.0 0.0 0.0 0.0 0.0 0.0 0.0 0.0 0.0 0.0 0.0 0.0 0.0 0.0 0.0 0.0 0.0 0.0 0.0 0.0 0.0 0.0 0.0 0.0 0.0 0.0 0.0 0.0 0.0 0.0 0.0 0.0 0.0 0.0 0.0 0.0 0.0 0.0 0.0 0.0 0.0 0.0 0.0 0.0 0.0 0.0 0.0 0.0 0.0 0.0 0.0 0.0 0.0 0.0 0.0 0.0 0.0 0.0 0.0 0.0 0.0 0.0 0.0 0.0 0.0 0.0 0.0 0.0 0.0 0.0 0.0 0.0 0.0 0.0 0.0 0.0 0.0 0.0 0.0 0.0 0.0 0.0 0.0 0.0 0.0 0.0 0.0 0.0 0.0 0.0 0.0 0.0 0.0 0.0 0.0 0.0 0.0 0.0 0.0 0.0 0.0 0.0 0.0 0.0 0.0 0.0 0.0 0.0 0.0 0.0 0.0 0.0 0.0 0.0 0.0 0.0 0.0 0.0 0.0 0.0 0.0 0.0 0.0 0.0 0.0 0.0 0.0 0.0 0.0 0.0 0.0 0.0 0.0 0.0 0.0 0.0 0.0 0.0 0.0 0.0 0.0 0.0 0.0 0.0 0.0 0.0 0.0 0.0 0.0 0.0 0.0 0.0 0.0 0.0 0.0 0.0 0.0 0.0 0.0 0.0 0.0 0.0 0.0 0.0 0.0 0.0 0.0 0.0 0.0 0.0 0.0 0.0 0.0 0.0 0.0 0.0 0.0 0.0 0.0 0.0 0.0 0.0 0.0 0.0 0.0 0.0 0.0 