-0.036502 0.030556 0.020599 0.004917 0.035483 0.034752 -0.001119 -0.0382 -0.049273 0.030068 -0.01706 -0.00269 -0.030954 -0.003934 -0.027775 -0.011485 0.032785 0.009115 -0.009311 -0.03034 0.005391 -0.002532 -0.024539 -0.025611 -0.027736 0.020496 0.020025 0.024519 -0.001685 0.009661 0.014397 0.03537 0.001744 0.001146 0.024259 -0.019684 -0.026107 -0.046393 0.012163 -0.034516 -0.051858 -0.01744 0.014128 0.006397 -0.005755 0.020014 0.02319 -0.018351 -0.012114 0.015126 -0.015037 -0.026066 -0.035694 -0.024309 -0.035689 0.01588 0.022603 -0.014761 0.017455 -0.027577 -0.007822 0.034047 0.04995 0.007574 -0.00439 -0.013839 0.004478 0.001726 -0.043794 0.01979 0.021429 -0.02493 -0.019697 -0.026484 0.006309 -0.017353 -0.021616 0.013611 -0.029749 0.00145 0.0287 0.004376 -0.010237 -0.020619 0.033198 0.004357 0.03006 0.010922 0.051645 0.0409 0.000277 0.03881 -0.02131 -0.002418 -0.018611 0.019055 -0.043799 -0.039515 0.00294 0.03864 0.002719 0.000137 -0.011378 0.017177 -0.016917 -0.025237 -0.007408 0.001301 0.014704 -0.031056 -0.016183 0.002424 -0.009177 -0.002354 0.019754 0.008077 0.000794 -0.006743 0.000243 0.004567 0.001077 0.041108 0.037987 -0.025823 -0.010077 0.015635 0.044463 0.009375 0.033989 0.004106 -0.011497 -0.00561 0.033616 0.011798 -0.029684 -0.005162 -0.031738 0.016209 -0.013652 -0.018388 -0.007761 0.009223 0.020783 -0.017819 0.022227 -0.011685 -0.031946 -0.012492 0.035938 -0.010007 -0.008007 0.022229 0.000788 -0.035379 -0.034999 0.028338 -0.020449 -0.017656 0.02193 0.038301 0.015748 0.012437 0.027837 -0.021897 0.006661 -0.008293 -0.010585 -0.028847 0.030516 -0.024028 -0.001256 0.032556 -0.038838 -0.009736 -0.026105 0.033693 -0.009324 0.011215 -0.024356 0.030917 -0.029841 0.007143 0.019673 -0.014748 -0.023742 0.022105 0.010475 0.015757 0.0369 -0.01364 0.006972 -0.041621 0.014899 -0.029422 0.00291 -0.015687 -0.0253 0.030228 -0.02538 -0.016458 0.009817 -0.031345 0.026256 0.039925 -0.023929 0.010493 0.028931 0.000282 0.021034 0.033504 -0.03171 0.016025 -0.021178 0.019249 0.000699 0.029912 0.019608 0.040966 -0.015255 -0.006404 -0.049262 0.00224 -0.008977 0.002539 -0.005436 -0.013029 0.030038 -0.018068 0.009353 -0.019677 0.018042 0.020303 -0.017233 0.019289 -0.015697 -0.025405 0.024939 -0.014909 0.000476 0.010791 0.008076 -0.004939 0.039246 0.031359 0.043256 0.001564 0.020804 -0.008626 0.017367 -0.041763 -0.029048 -0.029484 -0.026777 0.0025 0.003324 0.016326 0.00163 -0.020683 -0.00347 -0.00016 -0.02761 -0.004296 0.008579 -0.025451 0.002189 -0.010217 0.028673 0.000499 -0.022054 0.014417 0.005504 -0.018453 0.006711 0.009896 0.02491 0.02322 -0.032215 -0.006876 -0.028348 -0.036321 0.026345 -0.00721 -0.018915 -0.014531 0.012326 -0.026006 -0.034532 0.004215 0.028004 0.013121 -0.014155 -0.012362 -0.036718 -0.010014 -0.026387 -0.008584 -0.015593 -0.004056 0.003929 -0.006733 -0.016602 0.024342 -0.024098 -0.019859 0.025093 0.032357 -0.026668 0.007832 -0.035193 -0.01325 -0.011045 -0.017785 -0.017128 -0.036239 0.027714 -0.010676 0.034861 0.016177 -0.001448 -0.012592 -0.017705 0.0059 -0.029565 -0.006207 -0.016672 -0.042969 -0.023895 -0.000699 -0.018872 0.009691 -0.010436 0.035565 0.01884 -0.023582 0.024745 -0.015137 -0.026683 -0.031665 0.021604 0.018422 0.021814 0.030012 -0.014724 0.008024 0.038107 -0.029424 0.008767 -0.022994 0.021629 7.5e-05 -0.038814 0.015135 0.005506 -0.034651 -0.007766 -0.028562 -0.027832 -0.001077 -0.03378 0.025659 -0.020967 -0.028457 0.002372 -0.017447 -0.026532 0.015022 -0.004784 -0.014341 0.019157 -0.002494 -0.004497 -0.027102 0.00601 0.023449 -0.010292 -0.034268 -0.024106 0.033975 -0.028324 0.021432 -0.028487 -0.023098 -0.012741 -0.005009 -0.02831 -0.014706 0.034775 0.010898 0.017172 0.014229 0.005802 -0.001631 0.066575 0.048372 0.03742 0.040094 0.027181 0.017127 -0.034012 0.007368 0.001195 0.020092 0.03561 0.024375 -0.004131 -0.004078 0.021743 -0.018715 0.001275 0.029732 -0.033592 0.004696 0.001862 0.008324 -0.033095 0.022767 -0.00631 0.033154 0.026695 -0.006314 -0.028588 -0.001015 0.032881 -0.019917 -0.006383 0.009999 0.016483 0.006116 -0.029919 -0.036603 0.033809 0.012128 -0.024592 -0.008098 0.033717 -0.008354 0.017011 0.006763 0.002499 0.035199 -0.018335 -0.021332 -0.021705 -0.031149 0.018391 3.9e-05 -0.041585 0.017248 -0.01985 -0.017705 0.018557 0.020741 -0.051935 -0.021973 0.002287 -0.045576 -0.02276 0.022858 -0.031584 0.016474 -0.025437 -0.00808 0.028027 -0.006689 -0.00748 0.034718 0.023053 -0.032253 0.014895 0.006628 0.011693 -0.024993 -0.02448 -0.03786 -0.023072 -0.004722 -0.061598 -0.014042 0.017831 -0.030613 -0.026532 -0.014241 -0.008422 0.002589 0.020762 -0.012935 -0.021894 -0.013886 -0.01791 0.036323 0.013327 -0.007714 -0.015291 0.031856 -0.027012 -0.005082 -0.017087 0.004663 -0.040755 -0.044327 0.012523 -0.018774 -0.010667 0.016368 -0.039861 -0.022607 0.027246 -0.038407 0.018102 -0.006866 -0.028946 0.008289 -0.000154 0.031357 -0.007337 -0.015002 0.032636 -0.019942 -0.03175 -0.003989 -0.032103 0.009128 -0.001155 -0.03082 0.010422 -0.023411 0.011971 -0.003091 0.026786 -0.036073 -0.011719 0.016724 0.035954 0.034097 0.026978 0.003551 -0.009648 -0.021251 0.011154 -0.030577 0.003685 0.022708 -0.018625 -0.023828 -0.021927 -0.021365 -0.031189 -0.033368 0.005572 0.008156 -0.030155 -0.005542 -0.003636 -0.044769 -0.038656 0.011311 -0.024627 0.002521 -0.004683 0.027123 0.027525 0.037286 -0.030594 -0.01533 0.005474 -0.009801 0.016547 -0.014622 -0.00041 -0.036308 -0.0328 -0.032084 -0.037034 -0.023376 -0.027173 0.017237 -0.00599 -0.016015 -0.028446 0.007632 0.003684 0.019432 0.034849 0.014388 0.034103 -0.026281 -0.027919 0.026513 0.030866 -0.019612 0.020354 -0.008582 -0.033577 0.027289 0.002505 0.002588 -0.020804 0.002437 0.02324 0.011668 0.024035 -0.040604 -0.023449 0.008399 0.015006 0.013482 0.02974 0.025995 -0.001518 0.025277 0.027954 -0.012306 0.029351 -0.00701 0.026033 0.008525 0.011669 0.000766 0.028698 -0.007359 -0.018785 -0.014397 -0.02355 0.011148 0.018434 -0.012758 0.035153 -0.022545 0.031715 0.022014 -0.002855 0.0062 0.012066 0.036386 -0.000583 0.009213 -0.020282 -0.001574 -0.035359 0.010505 -0.02276 -0.031253 0.023144 -0.006055 -0.033643 -0.036684 0.011373 0.013316 -0.027888 -0.011104 -0.020658 -0.027581 -0.005441 -0.001235 -0.005692 -0.033826 0.035508 0.012486 0.021658 0.031605 0.01163 0.033338 -0.002361 0.010752 0.034089 0.0145 0.009798 0.021349 -0.019388 0.008911 0.011897 -0.036049 -0.032126 -0.044484 -0.026447 -0.024768 -0.01968 -0.017504 0.023241 -0.016865 0.008806 -0.020474 0.001614 -0.018939 0.045979 -0.007982 0.022929 0.030602 0.003619 -0.024421 -0.017581 0.033412 0.009322 0.001921 -0.007014 -0.016967 -0.018899 -0.01961 -0.025013 -0.000364 -0.036398 -0.008736 -0.023629 0.034195 0.036288 -0.009931 0.031182 -0.038468 -0.007906 -0.026454 -0.025092 0.001947 0.02185 -0.012758 0.013406 0.023314 -0.032435 0.016554 0.006037 -0.031287 0.009419 0.009095 0.03545 0.02732 -0.030649 0.012268 0.021762 0.022654 -0.025042 0.001207 0.027004 0.002027 0.046966 0.002553 -0.00203 0.014477 -0.005143 0.013503 -0.013212 0.001969 -0.015201 -0.021672 -0.02896 -0.02076 -0.034766 -0.020669 -0.027842 -0.021613 -0.005776 0.018991 0.016006 0.003729 -0.019168 0.032928 0.009327 -0.008602 -0.020332 0.040463 0.039197 0.027866 0.008518 -0.006364 0.030035 -0.016998 -0.011783 -0.002949 -0.000974 0.021933 0.019758 -0.006137 0.015987 -0.027762 0.02157 0.007345 0.007372 0.021487 0.00484 -0.044634 0.002375 0.018561 -0.012112 0.035189 -0.016531 0.01176 -0.023823 0.023372 0.001747 -0.016842 -0.014258 -0.019907 0.005638 0.013516 -0.030966 -0.031015 0.012564 -0.01187 -0.035734 -0.004481 -0.026531 0.00285 0.032813 0.003514 0.025895 -0.041372 0.013122 -0.001846 0.010815 0.032459 0.026737 -0.013146 0.038138 0.043359 0.03656 0.023807 -0.014142 0.039252 0.017147 -0.010219 -0.005992 0.033353 -0.007454 0.011873 -0.013853 -0.032552 -0.032403 -0.004232 -0.020941 0.022135 -0.017374 -0.010273 0.0004 0.003346 -0.004557 0.044977 0.021833 -0.014917 -0.015124 0.046329 0.034296 0.002847 0.008279 0.032374 -0.025276 -0.008012 0.030598 -0.012014 0.01826 0.004552 -0.036087 -0.001875 0.004483 -0.00091 0.020936 0.03311 0.006143 -0.00061 0.039382 -0.006393 0.019559 -0.013149 0.037127 0.020979 0.031681 0.028112 0.009921 0.022213 -0.006021 0.004493 0.01916 0.017592 0.039589 0.039961 -0.029406 -0.033894 -0.027961 -0.00867 -0.022939 0.013781 0.014506 -0.036613 0.026279 -0.00408 -0.014979 -0.022455 -0.027997 0.03492 0.034974 0.037667 0.001149 0.002343 -0.007917 0.003615 -0.025019 0.008072 0.010743 0.001718 0.026494 -0.015112 0.030111 0.040569 0.020492 0.008175 0.042596 0.027958 -0.0067 0.003172 0.019157 -0.040137 0.024464 0.015432 0.005892 -0.035041 -0.033972 -0.002666 -0.031606 -0.02678 0.021958 0.030196 0.019182 -0.025963 0.005461 0.01544 0.027436 -0.030203 -0.015638 0.009138 0.00567 0.047907 -0.006704 -0.01011 -0.003918 0.033621 -0.006881 -0.027366 0.023683 0.004706 -0.002989 0.00194 -0.006214 0.007434 -0.025475 -0.01376 0.023012 -0.0037 -0.010826 0.012111 -0.018557 0.006357 -0.012994 0.032108 -0.030365 -0.021529 -0.001266 0.040334 0.040899 -0.013234 0.018971 0.005919 -0.01641 -0.013147 -0.016295 -0.010777 -0.022429 -0.000566 -0.012013 0.002566 0.009803 -0.041336 0.027321 0.007634 -0.004267 0.007599 -0.037314 -0.022194 0.023272 0.020315 -0.014669 -0.0069 -0.017845 0.013855 -0.019496 0.026326 0.003044 -0.007732 -0.025825 -0.004038 -0.045842 -0.026627 -0.025748 0.018276 0.018073 0.006583 -0.028141 -0.018624 0.028458 0.02358 -0.009948 0.031503 0.011055 -0.024219 -0.030637 0.032572 0.00224 0.01195 0.021696 -0.026381 0.016537 0.009182 -0.001353 0.021279 0.016749 -0.034063 -0.030326 -0.033685 -0.035595 -0.013751 0.02525 0.021897 -0.026061 0.027659 0.00582 0.007643 -0.017281 0.01437 0.026591 -0.004372 0.016922 0.031864 0.012248 -0.01747 -0.016704 0.008336 -0.029361 -0.032866 -0.042987 -0.012405 0.020271 0.025544 0.055411 0.020195 -0.01323 -0.038817 -0.022176 -0.013786 0.007871 -0.022868 0.017864 -0.010736 0.029483 0.031015 -0.002957 -0.024402 -0.033699 -0.016274 -0.008618 -0.001229 0.006735 0.0115 -0.019074 0.01414 -0.02928 -0.006568 -0.029953 -0.004761 -0.009007 0.006833 0.003771 -0.008873 -0.031203 0.014138 0.022755 -0.036305 -0.001379 0.024381 0.034791 -0.021155 -0.000776 0.026251 -0.016338 -0.001674 -0.009715 -0.035522 0.014664 -0.032212 0.033035 0.001287 0.006453 -0.005644 0.032566 -0.030114 -0.008696 0.01644 0.046961 0.041539 0.024935 0.001828 0.018615 0.011083 0.019992 -0.03493 0.011018 -0.00471 -0.034613 0.005597 -0.027906 0.029359 0.024029 -0.02794 0.030878 -0.013472 0.034189 -0.004613 0.005882 -0.022249 -0.021564 -0.014928 -0.023972 -0.031673 -0.013398 -0.012686 -0.018925 -0.01571 0.026848 -0.027382 0.006687 0.022318 -0.026186 0.003421 0.021331 0.02021 0.027542 -0.012529 -0.003098 0.029819 0.021755 -0.021667 0.012725 0.011706 0.003473 -0.041716 -0.029546 -0.020804 0.023114 0.020374 0.010765 -0.014976 0.013645 -0.024256 0.018252 0.025546 -0.023916 -0.02171 -0.024745 -0.037225 0.028249 -0.02094 -0.030617 -0.028948 -0.017755 0.00842 0.009624 -0.020588 -0.043085 0.00472 0.022557 -0.003552 -0.021443 -0.011716 -0.019688 0.021062 -0.002699 -0.012813 0.030689 -0.010765 0.024913 0.010541 -0.030998 0.005406 0.019004 0.00942 -0.022548 -0.035653 -0.036027 -0.002267 -0.018373 0.002118 -0.011396 -0.032105 0.00377 -0.03519 -0.029633 -0.030967 -0.031851 0.025408 0.000477 -0.011888 0.010244 -0.016458 0.037676 -0.028938 0.00806 0.009801 0.033569 -0.001202 0.000907 -0.010348 0.019019 -0.022399 -0.025491 0.017821 0.014952 0.006709 -0.020828 -0.039237 -0.034502 -0.016809 0.001644 0.007404 0.016457 0.014283 0.012239 0.035343 0.032155 -0.019798 -0.001918 0.020838 -0.004321 0.01426 0.011934 0.030191 0.030683 0.008564 0.005128 -0.02621 -0.033281 -0.006788 0.016137 -0.017253 -0.026409 -0.007779 0.011659 0.014101 -0.030046 -0.017899 -0.034944 0.01332 -0.000893 0.008128 0.005286 0.028777 -0.019454 -0.02814 0.027875 -0.012821 -0.021409 0.023 0.033451 -0.023509 -0.031477 -0.029322 0.01657 0.011343 0.01641 -0.016762 0.006487 -0.027045 0.02045 -0.020361 0.027748 -0.02382 -0.021765 -0.015742 0.03421 0.007284 -0.011737 0.022633 0.028735 -0.029565 0.012817 0.02911 -0.032906 -0.024233 0.040648 0.033822 0.028846 -0.008895 0.009106 -0.016267 0.005002 -0.021434 0.001057 0.023804 -0.000439 0.009014 -0.004759 0.004435 -0.01974 -0.022115 0.002876 -0.009679 0.01277 -0.01615 0.015301 0.027085 0.010643 -0.026813 -0.011747 0.038093 0.017921 0.030678 0.040622 -0.000363 -0.00664 0.017346 -0.013349 -0.039827 -0.021351 0.004366 -0.000262 -0.03579 0.009575 -0.00421 0.024664 0.03031 -0.008856 0.00046 0.023669 -0.024277 -0.020599 0.013533 0.025519 -0.023787 0.000928 -0.003633 0.001845 0.020259 -0.002445 0.019609 -0.007674 0.030504 0.003944 -0.034 0.00086 -0.01655 -0.030938 0.017092 0.010939 0.002338 0.023033 0.02166 -0.032929 -0.026602 0.001895 -0.036905 -0.027903 0.01977 0.00756 -0.019809 -0.018657 0.004093 -0.034002 -0.020897 0.023432 -0.003491 0.006949 -0.021936 -0.02702 -0.020911 -0.029186 -0.02074 -0.025588 0.014358 -0.003884 0.014353 -0.005935 -0.005921 0.006017 -0.034531 -0.008312 0.019862 0.02968 -0.000773 0.007267 -0.008871 0.005247 0.027371 0.000387 0.015914 0.036394 0.018797 -0.013642 -0.010658 0.030337 -0.030129 -0.0238 -0.017967 -0.001386 0.00835 0.005736 0.032412 -0.004919 0.028639 0.023383 -0.006673 -0.002985 0.005226 0.020395 -0.003297 -0.001581 0.031175 -0.00473 -0.013268 -0.009712 0.014573 -0.03372 -0.036651 -0.013043 0.031683 -0.000769 0.027423 0.025726 0.016008 -0.035694 0.005026 0.019198 -0.003625 -0.02364 -0.008542 -0.021751 0.00807 0.024855 -0.003082 0.017625 -0.035395 -0.00403 -0.007805 0.009915 -0.004701 0.009541 -0.025769 -0.026344 -0.020899 -0.040348 0.024563 -0.005389 0.014632 0.01642 0.019606 -0.022162 0.022624 -0.0361 0.030663 -0.016064 0.015721 -0.006435 0.021757 0.032028 0.023981 -0.009259 0.008242 0.013412 -0.010883 -0.007662 -0.02732 0.003984 -0.007236 0.008467 -0.025378 -0.032935 -0.004076 -0.034073 -0.024333 0.035104 0.031248 0.029741 -0.041031 0.008285 -0.029947 0.003282 0.011742 0.00324 -0.021618 -0.008874 -0.014097 -0.007195 0.020198 0.019968 0.012626 -0.007909 -0.026383 0.012245 -0.029557 0.007783 -0.0168 -0.000729 0.00886 0.021327 -0.023315 0.020334 -0.008765 -0.042399 -0.022912 0.026419 0.022159 0.031877 0.023491 -0.01677 0.016901 0.030145 -0.011463 -0.017767 -0.022023 -0.003752 0.013907 0.021445 -0.022155 -0.026904 -0.035919 -0.013744 0.016692 -0.025785 0.003476 0.020069 -0.016722 0.005389 0.006534 -0.006668 -0.033947 0.02296 0.009767 0.016958 -0.003743 -0.003419 -0.011565 -0.031394 0.002678 -0.025778 0.029329 0.01462 0.006675 -0.033933 -0.007343 -0.004439 0.023539 -0.027835 -0.02417 0.006269 -0.001355 0.043528 0.015322 0.032806 0.011261 -0.011813 0.032376 -0.033213 -0.037599 -0.039754 0.006582 0.034797 0.024904 -0.027804 0.004591 -0.012343 0.013313 0.028443 0.009817 0.014022 0.034065 -0.036426 -0.030945 0.010447 -0.022387 -0.031903 0.012769 -0.002157 0.043544 0.008637 0.024844 0.002751 0.039582 -0.007411 0.00927 -0.007391 0.0258 -0.008229 0.027585 0.024171 0.000775 0.016335 0.00504 -0.019405 -0.010091 0.013519 0.022447 0.006653 0.035299 -0.010449 -0.021396 -0.014993 0.0202 -0.010057 0.041745 0.038175 0.008495 0.006631 0.016313 -0.004351 -0.016654 0.017336 -0.000312 -0.025499 -0.033371 0.000647 -0.036699 -4e-06 0.017749 0.014207 -0.030178 0.001971 -0.021943 -0.003439 -0.010914 0.024111 -0.02181 0.021019 -0.049045 0.005165 -0.021345 0.040232 0.035917 -0.01687 -0.008459 -0.01879 -0.026025 -0.019306 -0.003628 0.015786 0.022368 -0.010161 0.00097 -0.008753 0.000817 -0.015464 -0.026297 -0.005679 0.005736 -0.031501 -0.004756 0.010518 0.005359 -0.010686 0.020217 -0.021105 -0.01681 -0.02804 0.003003 0.030721 0.01565 0.035716 -0.013229 0.015392 0.02373 0.039307 0.000453 0.007092 0.021696 -0.028127 -0.016471 -0.023927 -0.004165 0.01146 -0.020147 0.007345 0.004759 0.019486 -0.030134 0.039204 0.010967 0.024251 -0.036174 0.001785 -0.04579 0.007491 -0.020563 0.017059 -0.003188 0.034807 0.002092 0.024086 0.024493 -0.025944 -0.003493 -0.017315 -0.020847 -0.002179 -0.028147 0.021593 0.027267 -0.002839 -0.005086 0.015348 -0.021226 -0.041175 0.019505 -0.011288 0.01319 0.003247 -0.019347 -0.048483 -0.034362 0.018305 -0.003757 0.013245 0.022135 -0.011131 0.032153 0.034385 -0.025836 0.005793 0.025356 -0.010736 0.009279 -0.005295 -0.018632 0.031506 0.035482 -0.007715 0.01778 0.020471 -0.001416 -0.028158 0.00978 0.041308 0.044366 -0.005706 -0.017504 -0.041739 -0.005152 0.023059 -0.019932 -0.020542 -0.031723 -0.022026 -0.013033 0.013544 -0.010632 0.02008 -0.017128 0.019434 -0.001358 -0.005975 0.011805 -0.00934 -0.021841 0.031263 -0.014085 0.013486 -0.017954 0.029739 0.019627 -0.000206 0.045825 0.022363 -0.006989 -0.037894 -0.001452 0.018419 -0.018777 0.009187 0.004967 -0.01065 0.000971 -0.031154 -0.02214 0.036734 -0.026508 0.000748 -0.022886 -0.019845 -0.019091 0.000864 -0.003515 -0.000148 -0.030956 -0.027648 0.009196 -0.013078 0.047953 0.046447 -0.002541 0.012931 0.004089 0.02948 0.00177 -0.019302 -0.009882 -0.042431 0.006845 0.028514 -0.005827 -0.008785 0.012135 0.003232 -0.006927 0.012322 -0.01541 0.031167 0.010394 -0.028976 0.029203 -0.017433 -0.029942 -0.011296 -0.010865 0.006356 -0.006494 -0.03606 -0.033594 -0.02071 -0.035102 0.026675 -0.014466 0.002376 0.000941 -0.015259 0.001321 -0.007097 0.017632 -0.009368 0.008243 -0.031596 0.027002 -0.039458 -0.017511 0.015098 -0.003556 -0.037537 0.02916 0.00036 0.013995 -0.032231 -0.011812 0.003651 -0.032051 -0.016026 -0.008946 0.007903 -0.028054 -0.032458 -0.025921 0.008697 0.012569 -0.011079 -0.002237 0.011567 0.028346 -0.036663 -0.014112 -0.008724 0.012766 0.018348 -0.01938 -0.000694 0.015274 0.034264 0.008071 0.01602 -0.03628 0.013241 0.019434 -0.024305 -0.008351 0.012842 0.023892 -0.018423 -0.037528 -0.004121 -0.019679 0.004546 -0.027874 0.014117 0.005089 0.014006 -0.025055 0.014119 -0.020663 -0.008403 -0.027544 -0.005116 -0.005281 -0.009346 0.028284 -0.034603 -0.037039 0.028811 -0.014681 0.031868 -0.024324 0.027753 0.007222 -0.000209 0.019092 -0.029776 -0.032432 0.005018 -0.004623 -0.023951 -0.017258 0.008769 -4.3e-05 -0.034601 -0.004211 0.020488 -0.013987 0.039671 -0.017118 0.007783 -0.006326 -0.002378 -0.004198 -0.002266 -0.026623 -0.023612 -0.027923 0.021575 -0.037062 -0.023687 0.002029 -0.022457 -0.022934 -0.00949 0.023242 -0.0251 -0.00963 0.031934 0.022786 -0.025699 0.004357 -0.025411 -0.018332 -0.035722 0.022827 0.008046 0.011317 -0.03394 -0.008945 0.018604 0.023655 -0.029531 0.019567 -0.032865 -0.028484 -0.043089 0.004099 -0.033836 -0.008162 -0.01841 0.015318 -0.013934 0.016798 0.00875 3.7e-05 -0.015831 -0.029562 -0.003107 -0.018673 -0.039296 -0.02756 0.001709 -0.009934 -0.010781 0.02126 -0.012151 -0.009789 -0.015897 -0.008535 -0.022833 0.022475 -0.032831 -0.017777 -0.037257 -0.027592 -0.008191 0.003716 -0.006109 -0.017086 -0.029787 -0.016098 0.004121 0.035429 0.005694 -0.03632 -0.00715 -0.030151 -0.007808 0.009136 0.030699 -0.021575 0.034769 -0.008314 -0.009215 0.032663 0.03464 -0.021197 -0.013018 -0.029682 -0.03081 -0.011858 0.022195 0.012851 0.013973 -0.018092 -0.013709 -0.02257 0.029081 0.00151 0.001067 -0.019087 -0.00993 -0.023452 0.019781 -0.004299 -0.029036 0.028999 0.025792 -0.008856 -0.013495 0.027154 -0.020849 -0.029563 -0.013906 -0.000389 0.003275 -0.018758 0.006504 0.033662 -0.031362 0.005683 0.030917 0.009268 -0.028166 -0.013481 -0.000564 0.004984 -0.006077 0.015886 -0.02386 -0.037643 -0.032885 0.002061 0.03998 0.036135 -0.029164 0.010092 -0.002929 0.02807 -0.022699 -0.023483 -0.022441 -0.001563 0.033891 0.006021 0.022958 0.002583 0.00364 -0.01651 0.035164 0.001338 0.026004 0.007527 -0.029619 -0.005692 -0.035539 0.03219 0.015829 0.03437 0.033956 0.012971 0.010303 -0.032411 -0.006709 -0.024698 0.012064 -0.029638 -0.022458 0.025451 -0.005409 -0.01541 -0.023704 -0.001458 0.020112 0.032862 0.011693 0.002005 0.028442 -0.033382 -0.004904 0.027359 -0.000654 0.031123 0.013326 0.028194 -0.009584 -0.01051 0.033979 0.038945 0.035445 0.002281 -0.005408 0.002059 -0.019665 0.032688 -0.030455 0.018823 0.022294 -0.001489 -0.018137 -0.015557 -0.020696 -0.03211 0.01372 0.01376 -0.003663 0.000672 0.023403 -0.032438 -0.027576 -0.023841 -0.010555 0.028205 0.003199 0.027191 0.014967 -0.000891 -0.018011 0.027006 -0.01779 0.002964 -0.003336 -0.001629 -0.018569 0.014197 0.013105 -0.009181 0.03597 0.007936 0.000573 -0.01971 0.018431 -0.030459 0.005634 -0.018785 -0.010172 0.008666 0.022531 0.001987 -0.020547 0.010968 -0.025059 -0.002328 0.020878 -0.002657 0.029289 -0.023416 0.026802 -0.021883 -0.026328 -0.024251 -0.015222 0.023046 -0.005856 0.001297 -0.02103 0.036763 -0.029637 -0.02823 -0.007738 -0.014111 0.006432 -0.011173 -0.034849 0.007849 0.017476 -0.00702 -0.014258 -0.033639 0.012008 0.028897 -0.019508 -0.018062 0.025141 0.041249 -0.00046 0.019306 0.03231 -0.02889 0.011692 0.023549 0.021786 0.006791 -0.023463 -0.02154 -0.002402 -0.028583 0.007626 0.003102 -0.015965 0.008095 0.004063 0.000749 -0.03132 -0.051917 -0.01668 -0.028686 0.026717 0.025569 -0.015413 -0.027135 -0.018831 -0.023786 -0.003528 -0.036418 -0.003998 -0.020954 -0.020226 -0.026394 -0.010324 0.031877 0.016665 -0.032368 0.010842 0.017936 -0.036724 -0.009727 -0.037277 -0.004398 -0.00131 -0.016459 -0.001675 -0.041584 -0.033303 -0.030076 0.035157 0.025567 -0.022645 -0.048669 0.01994 0.034959 -0.023825 0.010767 0.018461 -0.008429 -0.029219 -0.00787 -0.019916 -0.035627 -0.033872 -0.011341 0.012211 -0.000395 -0.033673 -0.045671 -0.01639 -0.016764 -0.018798 0.027017 0.011815 -0.015558 0.004929 -0.006593 0.033141 0.016393 -0.029686 -0.021129 -0.012711 -0.013602 -0.015349 0.008108 0.002021 -0.000463 0.036833 0.017831 -0.032911 0.006492 -0.010497 -0.016554 -0.019448 0.022449 -0.000883 -0.039677 0.015238 -0.030857 -0.005 -0.031977 0.019457 0.033131 0.04174 0.017832 -0.018481 0.015879 0.012813 -0.034226 -0.019593 -0.02237 -0.007207 -0.004615 0.007364 -0.024278 0.015581 0.029219 -0.009712 -0.005286 -0.025546 0.011149 0.001932 0.039467 0.004943 -0.007072 -0.016602 -0.020726 0.032535 0.010899 -0.002858 -0.031733 -0.032278 0.024746 0.032507 -0.005072 0.000943 -0.002309 0.011578 9.4e-05 -0.040959 -0.025246 -0.028658 -0.021719 0.01534 -0.019285 -0.01794 0.024583 -0.02459 -0.003725 -0.016087 -0.018733 0.039065 -0.005531 0.01491 -0.041214 -0.015284 0.034274 -0.028739 -0.031772 0.033071 0.016094 -0.032584 -0.025088 -0.020383 0.018663 0.018286 0.023318 -0.03194 0.009077 0.016928 -0.004256 0.009804 -0.01518 -0.010817 -0.026148 -0.040107 0.010664 -0.026439 0.003884 -0.000962 0.018734 0.007046 0.02696 -0.040853 0.023322 -0.004114 0.023977 -0.026389 -0.015899 0.023053 -0.009494 -0.008119 0.034868 -0.012059 -0.014444 -0.012472 -0.006467 0.026709 -0.031361 -0.039242 -0.004474 0.012581 -0.02407 -0.004483 -0.011127 0.00846 0.003355 -0.017334 -0.008187 0.005766 -0.049431 0.001545 -0.000389 0.015986 -0.034097 -0.017467 -0.025367 0.004381 -0.00332 -0.031892 0.001318 -0.012048 0.019489 0.002691 0.007928 0.011294 0.004623 -0.026134 0.001402 0.004094 -0.012703 -0.016208 0.0266 0.007788 -0.03251 0.009802 -0.009881 0.013926 -0.045215 0.017497 0.010036 0.020995 0.006004 -0.020625 -0.025652 0.005775 0.024936 -0.015246 0.001392 0.040007 -0.021135 -0.017073 0.021383 -0.023807 -0.028342 0.036166 0.02509 0.027013 -0.003368 -0.000339 0.033824 -0.013514 0.016021 0.033008 -0.004508 0.030702 -0.022724 0.0272 0.027271 -0.011729 0.013212 0.011005 -0.005797 0.009539 -0.008323 0.014475 -0.000907 0.027918 0.029127 0.041392 0.034665 0.00076 -0.00367 0.032938 0.002378 -0.025451 -0.006576 -0.018486 0.039414 0.017455 0.009783 -0.00996 -0.000998 -0.004561 0.034897 -0.023863 0.022755 0.007215 -0.017019 0.027696 -0.022227 -0.002814 0.011662 -0.023197 0.000139 -0.0145 0.02673 0.028552 0.034541 0.027334 0.025201 0.004961 0.023613 0.004951 -0.024186 0.015151 0.025766 0.012712 -0.008398 -0.034962 0.023447 -0.01614 0.014313 0.035214 0.002096 -0.003645 -0.026967 -0.024612 0.013778 0.020354 -0.012804 -0.010128 0.004952 -0.025323 -0.052234 0.015337 -0.009985 0.009478 -0.003694 -0.022891 -0.014688 -0.006345 -0.017531 0.006917 0.035978 -0.014425 0.011317 0.017223 0.011568 -0.021323 0.023115 -0.019699 -0.014612 -0.01216 0.017381 -0.003211 0.025387 -0.013014 -0.040088 -0.030171 -0.012993 -0.009538 -0.034974 -0.037128 -0.037091 -0.022995 0.028543 0.028963 -0.009769 -0.031264 0.025834 0.013605 0.011682 0.015011 0.017781 -0.029693 0.011543 -0.017631 0.002292 0.014818 -0.012927 0.008522 0.004489 0.035288 0.03125 -0.012818 -0.016606 -0.032422 -0.001099 -0.013753 0.001404 -0.024993 0.00656 -0.030468 -0.020638 0.007454 0.033266 -0.008807 0.00948 -0.006642 0.0048 0.036208 -0.021854 -0.018792 -0.027851 -0.003689 -0.017258 -0.019811 0.032535 -0.021363 0.026591 -0.005575 -0.014299 -0.006555 -0.00226 0.003721 0.029119 -0.011314 0.019912 0.004858 0.031484 -0.00476 0.004309 -0.019326 -0.020273 0.030796 -0.023006 0.001033 0.012706 0.038372 -0.031957 -0.023287 -0.021091 0.014058 -0.013065 -0.007425 0.036468 -0.005732 0.031173 0.009498 0.004177 0.026146 0.012924 -0.01848 -0.004882 0.016675 0.002244 -0.034979 -0.030652 -0.001863 -0.011206 0.006766 -0.02216 -0.020851 0.031502 -0.00561 0.018774 -0.00401 0.002483 -0.003791 0.020604 -0.02725 -0.001272 -0.013287 0.015726 -0.023834 -0.022509 0.031679 0.026974 -0.027131 -0.010873 0.013561 0.014894 0.032292 -0.006123 0.025678 -0.014093 0.013747 -0.006769 -0.02977 -0.018757 0.018542 -0.017587 -0.013905 0.000712 0.023061 0.005899 -0.032372 -0.004203 -0.029523 0.025842 -0.018104 -0.005289 -0.027281 0.000521 -0.018275 -0.002811 0.016439 -0.003658 -0.031561 0.014515 0.00018 0.029825 -0.016648 -0.017255 -0.018332 0.030878 -0.023167 -0.014708 -0.023651 0.013811 -0.028793 -0.011671 0.021949 -0.021473 -0.021948 0.030763 -0.024824 0.001714 -0.00258 0.025696 0.032511 0.001896 0.031217 -0.015728 -0.007237 -0.009369 0.022003 0.019023 -0.016488 0.002662 -0.024547 -0.014062 -0.031877 -0.025285 0.024184 -0.002998 -0.031451 0.008932 0.017795 -0.011958 0.001772 0.021501 0.019714 0.002081 -0.008326 0.024813 0.027411 0.026862 -0.029459 -0.024856 0.030667 0.012116 -0.010814 0.012273 -0.024942 0.041737 0.017182 0.016973 -0.026763 -0.030607 0.016736 0.021197 0.038121 -0.000462 -0.024336 -0.013626 -0.011674 -0.016492 0.027262 -0.020435 0.010497 0.020185 0.020102 0.010388 0.014025 0.010122 -0.034144 -0.01469 0.033494 -0.02267 -0.001737 0.036128 0.011562 0.00218 0.012578 -0.029788 0.022825 -0.000566 0.021559 -0.033278 -0.011559 0.025928 -0.025656 0.018439 0.032582 -0.013457 -0.00959 0.030532 -0.028964 -0.000552 0.022576 -0.018587 0.03454 -0.031936 -0.00558 0.022143 0.01674 0.00983 0.039674 0.036397 0.030252 0.000125 0.006015 -0.013627 -0.016383 -0.024819 -0.017724 -0.046943 0.028979 0.022319 0.021887 -2e-06 -0.013464 0.01269 -0.007202 -0.031039 0.017962 0.029768 -0.030841 0.009641 0.006613 0.018846 -0.033091 0.000372 -0.015777 0.008273 -0.035755 0.01737 0.045469 0.014193 0.019294 0.014032 -0.002342 0.003031 -0.003643 0.026271 0.014045 -0.010218 0.037209 0.030372 -0.007079 0.030736 0.030342 0.002026 -0.00128 0.02808 0.028886 0.035757 0.001479 -0.022019 0.0259 -0.010604 0.002938 0.039262 0.037673 0.02706 -0.012495 0.028597 0.029287 0.001938 -0.01954 0.016963 0.002305 -0.001398 0.020843 0.031623 0.027308 -0.012891 0.005122 0.031171 -0.006778 -0.032461 0.016055 -0.023446 0.02829 -0.028822 0.014061 0.011385 0.017024 0.028699 0.037089 0.037795 0.024794 -0.018776 -0.00085 0.016558 0.032705 -0.031885 -0.005218 0.012618 0.015815 -0.0148 -0.020763 -0.013581 -0.022768 -0.016743 0.014899 -0.002251 0.008994 0.016855 -0.020456 -0.003298 -0.017504 -0.027333 0.024215 -0.004865 0.032192 0.046832 0.038739 0.002111 0.013392 0.014419 0.036807 0.02359 0.039708 -0.015343 -0.02822 -0.006303 -0.00145 0.018797 -0.005653 0.025704 0.002216 0.034128 -0.024556 6.8e-05 -0.013201 0.019515 0.014892 -0.006526 -0.002981 -0.022678 0.023664 0.022422 0.014154 -0.017395 -0.008062 0.024851 -0.002655 0.036284 -0.019893 0.033259 0.025517 0.019142 0.013775 -0.016369 0.002854 0.021148 0.007252 -0.015922 0.017714 -0.00361 -0.021821 -0.025192 -0.020194 0.018766 0.007748 -0.015556 0.03156 0.014082 -0.007408 -0.00761 0.025163 0.032649 0.012003 -0.007321 -0.021485 -0.019078 -0.031 0.020772 -0.008088 0.010508 -0.032073 0.002305 -0.026063 0.008348 0.033016 0.010351 -0.02791 -5.7e-05 -0.028399 -0.011484 0.007084 -0.018983 0.02164 0.022521 -0.034445 0.018915 -0.021174 -0.005571 0.032157 -0.031065 -0.005958 0.022097 0.000555 -0.002697 0.009107 -0.025294 0.029802 0.020755 -0.009988 0.021909 -0.021618 -0.021085 -0.014842 0.009484 -0.028531 0.021548 -0.029603 -0.026594 -0.030085 0.000508 -0.029444 0.016054 -0.025897 0.003588 0.027313 -0.020293 0.012525 0.00855 0.017448 -0.015825 -0.022774 0.008985 0.03308 0.002242 -0.004392 0.022436 -0.033668 -0.03928 -0.024386 0.030468 0.015558 -0.01905 0.01922 -0.019103 0.013028 0.014204 -0.021803 0.007783 -0.023672 0.001376 0.026142 -0.012173 0.00874 0.012229 0.03597 -0.005868 0.004574 0.001123 0.005527 -0.028764 -0.01007 0.01698 -0.015234 -0.033485 -0.006593 -0.037443 0.016218 -0.011053 -0.007139 0.026466 0.017566 0.014867 0.024739 0.032652 0.016725 -0.00935 0.03221 -0.000626 0.014167 0.022013 -0.035179 -0.022191 0.007098 0.000772 -0.000111 0.008592 0.001676 -0.016536 0.034956 -0.005889 -0.013006 0.025718 -0.01591 0.029092 0.018398 -0.032688 0.035149 -0.026454 -0.018525 -0.013229 -0.027197 0.026563 0.034037 -0.0134 0.008885 0.026388 0.000595 -0.011418 0.022224 -0.032365 0.020783 0.006317 0.026496 0.027324 0.01371 0.044111 0.041055 0.018089 0.028388 0.014717 0.022725 -0.027948 -0.036029 0.016073 0.021355 0.04119 0.038168 -0.000596 -0.001752 -0.030129 0.001572 -0.001375 -0.01175 -0.0298 -0.03844 0.031343 -0.017658 0.02479 -0.039592 -0.021884 -0.012051 0.022888 0.01825 0.030289 0.019236 0.03143 -0.025293 -0.008411 -0.022068 -0.018657 0.029879 -0.02697 -0.033757 0.022521 -0.029396 -0.028125 0.01566 -0.016294 -0.026378 0.026875 -0.003449 -0.000398 -0.022263 -0.018278 -0.008609 0.035832 0.026135 -0.02541 0.026035 -0.003103 0.026007 -0.004792 -0.011725 -0.019264 0.024057 0.021768 -0.038816 -0.026575 -0.006755 -0.03352 -0.032053 0.032964 0.018864 -0.024479 -0.006959 -0.010286 -0.020306 0.009742 0.009771 0.027357 0.028032 -0.01663 -0.017732 -0.017414 -0.032877 -0.007042 0.006192 -0.008402 -0.027021 0.026304 0.022099 -0.007247 -0.027548 0.009413 -0.007894 -0.002368 0.030654 -0.009189 -0.02582 -0.011145 -0.017254 -0.026675 0.002354 -0.017617 0.023392 -0.027013 0.000956 0.034429 0.014146 0.003526 0.004911 0.001914 -0.007646 -0.02483 -0.014587 -0.005521 0.035269 0.005232 -0.00736 -0.032283 0.00462 0.004552 0.036924 -0.019076 0.006411 0.037591 -0.012467 -0.007023 0.012002 -0.034608 -0.0442 -0.00736 -0.004486 -0.023571 -0.02029 0.017652 -0.017841 -0.021767 0.025094 0.006465 -0.021091 0.020446 0.019818 0.024444 -0.005231 -0.002923 0.024582 0.023253 0.023811 0.01227 0.011878 0.024036 0.029212 -0.024048 0.000944 0.030747 -0.002064 0.001283 -0.00994 -0.026109 -0.030946 -0.008787 0.03314 0.019199 0.009166 -0.023268 -0.015289 -0.012025 -0.00877 -0.018312 -0.036301 0.015344 0.020144 -0.017363 0.019328 0.016503 0.014615 -0.006225 -0.007204 -0.018727 0.000916 -0.004288 -0.012335 -0.031103 0.018953 0.010708 -0.002428 -0.01553 0.043328 -0.02169 0.006809 -0.002465 -0.02682 -0.012836 0.011615 0.001931 0.007655 -0.028775 -0.012097 -0.03146 0.007631 -0.03299 -0.026991 -0.019561 -0.027773 0.012548 0.025268 -0.038548 -0.038358 0.031835 -0.003443 0.032447 -0.004222 -0.005338 0.028193 0.041457 -0.015463 0.002941 -0.039846 0.007611 0.032233 0.022896 0.032908 0.006341 0.004186 -0.007977 0.033093 -0.010608 -0.033781 0.020174 0.028983 -0.026476 -0.005698 0.026569 -0.021759 -0.035063 -0.008187 -0.030324 0.037338 0.002046 -0.022598 -0.015925 -0.027072 0.00797 -0.021859 -0.0187 0.031771 0.003064 -0.007946 0.031408 0.009492 -0.002502 -0.007237 0.012815 -0.026479 -0.007399 0.017343 0.006957 -0.011137 0.026778 0.029711 0.002426 -0.031223 0.018256 -0.024521 0.012332 0.000777 0.017739 0.005836 -0.013404 0.015208 0.035424 -0.034936 -0.027017 0.02833 0.013902 -0.033993 0.031111 -0.012459 0.019881 -0.002921 -0.018811 0.012038 -0.013417 -0.024871 -0.026322 0.009927 -0.017331 -0.009127 0.017772 -0.029688 -0.020541 -0.026413 0.037471 -0.017573 -0.030331 0.0299 0.02902 0.01695 -0.024371 -0.032715 -0.025135 -0.033083 0.024642 -0.019609 0.026377 -0.011565 -0.022778 -0.023313 -0.025663 -0.019043 -0.017547 -0.003922 -0.022979 0.016562 0.035708 -0.022807 0.03504 -0.030772 -0.010261 -0.030428 0.00723 0.01778 0.012259 0.022406 0.032606 -0.01216 0.026019 -0.025662 -0.023222 -0.031268 -0.02145 -0.010701 0.024952 0.03489 0.018971 0.01483 0.025967 -0.026693 -0.013368 0.000689 0.022063 -0.008395 0.030418 -0.03368 0.033762 -0.018334 0.001309 0.003407 -0.014786 -0.019688 0.001107 -0.002505 -0.029655 -0.008263 -0.027048 0.010338 -0.050533 -0.02115 -0.050572 -0.03703 -0.03363 0.005373 0.013901 0.008618 0.022555 -0.015756 0.030988 -0.035115 0.024372 0.005128 -0.030236 0.032233 -0.029074 -0.018443 0.028193 -0.005747 0.034226 -0.023339 -0.000197 0.020854 -0.035684 -0.01587 -0.034097 -0.01531 0.016379 -0.027259 -0.003468 -0.016941 -0.031585 -0.015577 0.013442 -0.019061 0.03012 0.007177 -0.033948 0.03049 -0.016398 -0.01172 -0.028089 -0.01257 -0.015291 0.027792 -0.028293 -0.021655 0.006788 -0.02881 -0.022237 -0.019228 -0.018021 0.014877 0.00747 0.028696 -0.016033 0.009167 0.003 -0.046844 -0.032165 0.005614 0.001115 -0.006475 -0.01717 0.016869 0.006045 -0.033017 0.029433 -0.001098 0.025989 -0.034823 -0.022643 -0.008526 0.014358 0.004764 -0.027514 -0.000195 0.005398 0.031584 -0.009942 -0.011327 0.015052 -0.001095 -0.008131 0.002117 -0.020805 -0.035426 -0.000315 -0.035295 -0.017919 0.018887 0.005271 -0.022573 -0.033321 -0.02015 -0.014435 -0.020375 0.02086 -0.024281 -0.009901 0.028202 -0.014932 0.019276 -0.020606 -0.034679 -0.003873 0.028237 -0.013999 -0.028023 0.029779 -0.023803 -0.027992 -0.011219 -0.012554 -0.012516 -0.043241 -0.029848 -0.013872 -0.006798 0.003862 0.018787 -0.006817 -0.007567 -0.014792 -0.015925 0.03367 -0.018395 -0.035823 -0.02452 -0.040026 -0.019462 -0.034655 -0.010197 0.03291 0.016806 -0.024914 -0.004684 0.033169 0.005125 0.020279 -0.006239 -0.004017 0.034158 -0.006119 -0.01935 0.00865 -0.016079 -0.01599 0.030476 0.032585 1.4e-05 -0.020584 0.015384 -0.000888 -0.02127 0.015515 0.020307 -0.031167 -0.022861 -0.018033 0.009898 -0.032568 0.023387 0.015428 -0.006144 -0.019396 0.03388 0.003351 0.018423 0.023971 0.019614 -0.004451 -0.017964 0.000218 0.004902 -0.026548 0.022719 0.00046 -0.01544 0.008199 0.03235 0.027479 -0.025754 -0.015158 0.013331 0.02727 -0.02552 -0.045739 0.000706 -0.018658 -0.022693 0.043773 0.018805 -0.020241 -0.037287 -0.00052 0.021082 0.000973 -0.000951 -0.015301 -0.031588 -0.030652 -0.022739 -0.001348 0.001774 0.021099 -0.013917 0.003873 0.000383 -0.014631 0.020704 0.003764 0.031764 0.053849 0.038707 -0.006482 0.021453 0.001416 -0.034099 0.030361 -0.009172 -0.026129 -0.037928 0.000577 0.006547 0.012578 -0.035601 0.008473 0.013155 0.020998 -0.033432 0.019841 0.027353 -0.034039 -0.013283 -0.020561 -0.026721 0.008394 -0.000887 0.019906 -0.016456 0.028917 0.020164 0.001764 -0.028322 -0.004896 -0.029549 -0.035699 0.008041 0.03476 0.034385 0.02664 -0.019229 0.036201 -0.018208 -0.002667 -0.006027 0.012787 -0.016582 -0.016424 0.022373 -0.023995 -0.002619 -0.030715 0.005229 -0.012571 0.022913 0.033205 0.023739 0.017129 -0.026291 -0.020246 -0.031826 0.004106 -0.026918 -0.026112 -0.001685 0.022438 -0.023004 -0.020532 -0.034697 0.009725 0.020583 -0.011675 0.021437 0.001412 0.01301 0.028524 -0.014417 0.017893 0.031584 -0.010012 0.005782 0.016636 0.007352 -0.032592 0.008827 -0.025263 0.025237 -0.010908 0.016172 -0.000187 -0.03288 -0.01373 -0.036382 -0.008874 0.002829 0.011558 -0.016616 -0.021589 0.027341 0.035851 -0.005314 -0.006812 0.004159 -0.013927 -0.013206 0.018797 -0.002339 0.021694 0.025921 0.018592 -0.001077 -0.003129 -0.02793 0.004154 -0.010301 -0.022744 0.003136 0.009717 0.033836 0.004308 0.014031 0.018533 0.023912 0.003802 0.001357 -0.024052 -0.034106 -0.022245 -0.015658 0.000281 -0.029194 0.010576 -0.029479 -0.018715 -0.013194 0.012316 -0.011431 -0.020586 -0.006443 0.003864 -0.021463 0.026243 0.005082 0.019914 0.022782 -0.018464 0.017955 -0.032774 0.007818 -0.002698 0.018336 0.0203 -0.030187 -0.027175 0.020748 -0.009405 -0.025516 0.020905 0.022872 -0.021854 -0.001466 -0.000474 -0.02138 0.023423 -0.005142 0.008524 -0.000335 0.033698 0.013755 -0.016894 -0.001457 0.028364 -0.009496 0.041431 -0.024992 0.0166 0.024511 -0.008147 0.013662 -0.024727 -0.003734 -0.038781 0.009471 0.017678 0.016692 -0.013903 0.034663 -0.03192 -0.025568 0.031978 0.032894 0.021414 0.027033 0.029474 -0.027694 0.019925 0.016662 0.00745 0.01473 0.011708 -0.026029 0.019178 0.002506 -0.005818 0.022365 0.035713 0.032439 -0.016594 0.012133 0.018074 0.007057 0.006503 -0.002284 -0.020692 0.018628 0.03416 -0.005842 -0.010351 0.028727 0.016927 0.03022 0.01486 0.024122 -0.016146 -0.026903 -0.01837 -0.025566 -0.031207 -0.031527 -0.023263 -0.011202 0.000478 -0.031215 -0.017831 -0.001669 0.005835 -0.007876 0.018017 0.011305 -0.005848 0.021538 -0.019856 -0.028607 -0.029825 0.021893 -0.002726 0.012517 0.025723 0.028992 -0.023937 0.028132 0.014104 0.010897 0.014832 0.036995 -0.030955 0.026742 0.007752 0.004075 -0.002244 0.023139 0.020702 -0.005786 0.010819 -0.011504 0.036281 -0.020368 0.022577 -0.026472 0.033658 -0.023042 -0.027672 -0.033292 0.024789 0.016889 0.030689 0.018587 0.031234 -0.008748 -0.028812 -0.006901 -0.004943 -0.017197 0.001307 0.028442 -0.001813 -0.023362 -0.037171 0.022776 -0.010391 0.012311 -0.007511 0.003225 0.001696 -0.008482 0.004019 0.005855 -0.024445 0.038918 -0.019673 -0.002204 -0.040644 0.026219 -0.030838 -0.025577 -0.030932 -0.007332 -0.012678 -0.021133 0.036382 0.020651 -0.030438 -0.008115 0.013623 0.022572 -0.004178 0.033789 -0.03561 -0.008447 -0.005411 0.019364 0.000571 -0.000305 -0.002969 0.004138 -0.006918 -0.017164 -0.031407 0.00073 0.012986 0.001936 -0.021384 -0.031654 0.029301 -0.020756 0.03693 0.026637 -0.002745 -0.016424 -0.001067 -0.01441 -0.015971 0.002418 -0.002308 0.003996 0.016633 -0.019533 -0.029155 -0.017204 0.01421 -0.033819 0.016868 0.032612 0.021343 0.022642 -0.027293 -0.005579 -0.044758 -0.011712 -0.0089 -0.021368 -0.025603 0.036906 0.033302 0.020283 -0.004365 0.001818 0.024645 0.021533 -0.011115 0.019501 -0.014891 -0.014501 0.023281 0.004222 0.023011 0.005238 -0.020339 0.018936 -0.000952 -0.007657 -0.00701 0.023001 -0.006756 -0.000978 -0.040216 0.023159 0.022258 0.010916 0.03653 0.032983 0.017851 -0.027963 0.024973 0.005523 0.017236 -0.018553 -0.002427 0.016016 0.032418 0.029958 0.012066 -0.029143 -0.009226 0.007898 -0.028386 -0.011071 0.018495 0.005923 0.025197 -0.000917 -0.014962 -0.017829 -0.0292 0.002214 0.003455 -0.026993 0.020581 -0.012324 0.026324 -0.019716 -0.027569 -0.014007 0.006087 0.015082 -0.018578 0.024252 0.037372 0.020389 0.057944 0.039516 -0.023144 0.002257 0.005649 -0.027074 -0.038308 -0.00738 -0.024798 0.006025 -0.026127 0.023568 0.017332 0.001694 -0.01998 -0.022913 -0.022114 -0.008791 0.027673 -0.028446 -0.010017 0.009209 0.026956 0.016919 0.005007 0.025305 0.015449 0.014636 0.039412 0.04042 -0.006832 -0.006463 0.008089 -0.035009 -0.016642 -0.040589 0.010704 0.025151 0.020305 0.002625 -0.027633 -0.014233 0.009214 0.015376 0.01033 -0.015215 -0.03308 -0.01122 -0.002846 -0.015676 0.033019 0.005721 -0.01061 0.039182 0.02355 0.014871 0.029904 -0.02699 -0.029027 0.008171 0.025966 -0.036921 -0.015809 -0.043654 -0.006587 0.007402 -0.012252 -0.032695 0.016854 0.004549 0.009048 0.030148 0.025785 -0.026946 0.000685 -0.004004 -0.011618 -0.00942 -0.030696 -0.023879 0.007388 0.000962 -0.022805 0.013288 -0.004273 -0.005791 0.011503 0.000864 -0.011636 -0.020937 -0.043137 -0.010755 -0.01158 0.031127 0.016355 -0.012231 0.023614 0.01331 -0.004617 0.016171 0.012005 0.012978 -0.032224 -0.020994 0.032279 0.004859 -0.03029 0.013476 0.004458 -0.007334 0.007092 0.018925 -0.021404 0.020326 0.029325 -0.031887 0.024014 0.020422 0.005187 -0.008665 0.014211 -0.003538 -0.002489 -0.013962 0.041461 -0.00956 -0.019992 -0.048382 -0.017712 -0.018018 0.030445 -0.009446 0.008291 0.035304 -0.016091 0.03558 0.035726 0.0143 -0.001844 -0.002362 0.024771 -0.017593 -0.009357 -0.030163 0.024976 0.029707 0.030981 -0.016572 -0.016651 -0.004236 0.030195 0.000852 0.01843 0.011146 0.024416 -0.010469 -0.024061 -0.009413 -0.029309 -0.022685 -0.026045 -0.012737 0.039073 0.029619 0.022924 -0.030386 -0.002434 -0.025622 -0.024512 -0.024563 -0.003753 0.013621 -0.020816 0.032056 0.004292 -0.037257 0.025023 0.003891 0.033343 0.039511 0.003069 0.028122 0.005476 -0.041749 -0.049305 -0.006821 0.01955 -0.031864 -0.028061 -0.021819 0.035886 -0.034516 0.024484 0.005008 0.011114 0.011063 0.000871 0.019708 0.013718 0.02201 0.010134 -0.004984 -0.012046 -0.025088 -0.027387 -0.004554 0.004352 -0.02148 -0.003809 0.047152 0.005104 -0.00425 0.016676 -0.04404 0.015345 0.009432 0.02758 0.035443 0.00724 0.016232 -0.019322 0.001085 -0.028759 0.033064 0.027773 0.008992 -0.016577 0.02166 0.031463 -0.014077 0.01507 -0.036801 0.010836 -0.014574 -0.022948 -0.0139 0.040812 0.030649 0.048343 0.045097 -0.000148 -0.032614 0.006616 0.035148 0.015092 0.02281 0.037026 -0.009021 0.035827 -0.012559 0.006107 0.025322 -0.009745 0.018671 -0.014638 0.00061 -0.025325 0.002469 0.007765 -0.040509 -0.048248 0.021474 -0.024411 0.033705 -0.004447 0.011859 0.038312 -0.022867 0.030056 0.018076 -0.004021 -0.009561 0.034471 -0.029059 0.033263 0.033751 -0.034838 -0.014159 0.022991 0.017708 0.032706 -0.011472 -0.032714 -0.023081 -0.016448 -0.001519 0.029025 -0.013029 0.006096 0.021945 -0.009984 0.011199 0.001723 -0.01446 0.007148 -0.020621 -0.015763 0.026723 0.021721 0.023803 -0.009013 0.034861 -0.034551 0.004989 -0.017938 0.00662 -0.02738 -0.006577 0.060594 0.027072 0.039543 0.014339 -0.02804 0.014795 0.018904 0.002835 0.020041 -0.034503 0.006182 -0.029258 -0.036132 0.022569 0.035079 0.03646 -0.00661 0.00139 -0.029723 0.001286 -0.025948 -0.011063 -0.005448 -0.011701 0.016301 -0.007794 -0.030318 0.034457 0.029144 0.042652 -0.008074 -0.017199 0.000308 -0.032364 0.021457 -0.027527 -0.017098 -0.017058 0.017447 0.002062 0.025122 -0.017818 -0.028815 -0.005951 -0.035052 0.004918 -0.015999 0.007879 -0.003541 0.031724 -0.029766 0.015133 0.034007 -0.016672 -0.019074 0.026211 -0.01533 0.021213 -0.013136 -0.041694 -0.008592 -0.029823 0.007007 -0.014695 0.014463 -0.016401 0.018231 0.013763 -0.015229 -0.021268 -0.007396 -0.005991 -0.004875 0.00788 -0.010234 0.042415 0.041271 0.041904 -0.010096 0.000723 0.035424 0.027916 0.033164 0.016662 0.041179 0.012276 0.018405 0.02966 0.008407 0.015368 0.023601 0.035324 0.026064 0.022022 -0.004823 0.030978 -0.012939 -0.016653 -0.014419 -0.019037 0.01872 -0.018234 -0.025036 0.043408 0.009179 0.035575 -0.032519 -0.024813 -0.019761 0.013339 0.009358 -0.034309 -0.030321 -0.017631 0.000326 0.00218 -0.003426 -0.020221 -0.00467 -0.025812 -0.02755 0.008556 0.036791 6.1e-05 0.017312 -0.025457 -0.036614 0.023615 -0.019489 -0.012506 -0.034911 -0.027143 0.021477 -0.010771 -0.044564 -0.018161 -0.013397 -0.034649 -0.042515 -0.013691 -0.037273 -0.023347 -0.004206 0.028639 0.027674 0.036118 -0.010355 -0.011061 -0.031355 0.035694 -0.014644 0.010052 -0.037611 -0.035394 -0.014967 -0.043259 0.009178 -0.019063 0.009252 0.016674 0.011676 -0.008549 -0.011334 0.011084 -0.049594 -0.002522 -0.028596 -0.041505 -0.019299 -0.03981 0.022468 0.004691 -0.031808 -0.03104 0.014133 0.000193 -0.016968 -0.006701 0.015336 -0.020497 -0.003979 -0.039715 -0.002365 -0.010402 -0.013727 -0.004435 -0.04134 0.019706 0.002347 0.045073 0.041265 0.013531 -0.005582 -0.011649 0.025378 -0.033882 -0.015406 -0.015863 -0.032998 -0.04129 0.02657 0.009249 -0.009154 -0.030497 -0.033087 0.023385 -0.036291 0.009018 -0.0406 0.000692 0.027226 -0.002923 0.031225 0.037945 0.006043 0.011395 0.034788 0.025971 0.023375 -0.010703 0.031796 0.008367 -0.01891 -0.029967 0.014323 -0.036784 0.031738 0.034606 -0.012986 0.000876 0.000582 -0.017488 0.012481 -0.051571 -0.051949 -0.053665 -0.07574 -0.041868 -0.027942 -0.037723 -0.042938 -0.016316 0.016476 0.021779 -0.0177 -0.000844 -0.018271 0.000417 -0.015641 0.031232 -0.035414 -0.015598 0.021729 0.005945 0.002137 -0.012009 0.009874 0.023296 -0.028462 0.004748 -0.016207 0.020781 -0.054283 -0.050262 -0.066626 -0.084216 -0.047734 -0.049968 -0.030908 -0.046365 0.017911 0.024892 -0.024967 -0.006612 -0.023143 0.000845 0.015082 0.005891 0.019936 0.03007 -0.017765 0.03076 -0.030187 0.012576 -0.0271 -0.019969 0.003667 -0.008506 -0.016019 0.048336 0.009408 -0.053788 -0.027163 -0.028886 -0.086574 -0.056399 -0.019905 -0.055604 -0.023662 -0.027508 -0.003172 0.013868 -0.019583 0.017986 -0.017781 0.018939 0.024725 -0.019796 -0.008368 -0.030138 0.010971 0.012519 -0.005087 0.013158 -0.011033 0.012614 0.006112 0.018602 0.015393 0.020536 0.016174 0.000231 -0.019158 0.021788 -0.000419 -0.03453 -0.010886 -0.014956 -0.030747 -0.01771 0.018249 -0.029335 0.026471 0.01138 -0.042105 -0.017415 -0.033896 -0.045666 -0.041121 0.008751 -0.022946 0.00192 0.010974 -0.005 -0.01185 -0.029167 -0.019184 -0.025181 -0.019169 0.017371 -0.000789 0.000398 -0.035903 -0.02654 -0.022194 0.01686 0.01871 -0.022087 -0.001495 0.03026 0.001069 -0.000626 -0.026395 -0.018396 -0.050101 -0.000283 -0.029726 -0.029363 -0.019551 -0.044843 -0.027532 0.017083 -0.040502 -0.00336 0.005717 0.013909 0.019327 0.019273 0.013249 0.024177 0.011153 -0.002264 -0.008226 0.034502 -0.017296 -0.01738 -0.004672 0.003592 0.021538 -0.017056 -0.017368 -0.031422 -0.007473 -0.033913 -0.032203 0.010935 0.034861 -0.027228 0.018811 -0.02913 0.011015 0.00437 -0.018325 -0.007109 0.031628 0.021837 0.026183 0.008315 -0.002118 0.007773 0.042246 -0.011433 0.007411 0.030538 0.003055 0.006357 0.019403 0.014036 0.019817 0.001438 -0.014074 0.019573 0.022344 0.007182 0.012986 0.037471 0.009951 -0.00729 -0.039529 0.017022 0.024254 -0.035813 0.024455 0.031791 0.024805 0.014084 -0.0256 -0.025413 -0.011977 0.01535 0.006519 -0.008862 -0.032847 -0.018467 -0.044238 0.022475 0.013597 0.04299 -0.013503 -0.006091 -0.035953 -0.002822 0.004546 -0.010061 -0.021065 0.010671 -0.024882 -0.018185 -0.009246 -0.023553 0.007329 0.020608 -0.017484 -0.015029 -0.038117 0.003177 -0.022906 -0.028899 -0.010347 -0.029763 0.020558 -0.02047 -0.008487 0.025385 0.025471 -0.015813 0.027707 -0.018804 0.011013 0.002635 0.005209 0.026537 0.027805 0.021917 -0.026948 0.026981 0.014028 -0.013748 -0.039374 -0.038086 -0.022208 -0.006993 0.022328 -0.01171 0.004503 0.034414 0.006512 0.018921 0.009537 -0.040116 0.018684 -0.027616 -0.031309 0.000937 -0.029251 0.002515 -0.020872 0.029832 -0.037483 0.014272 0.002912 -0.015082 0.026619 0.04018 -0.019305 0.022844 -0.032018 0.016747 -0.004814 0.008914 0.049822 0.010451 0.033727 0.019665 0.014493 -0.008134 0.023391 0.018168 0.011518 -0.00598 0.001056 0.022462 0.000127 -0.025521 0.018137 -0.002961 -0.019291 0.038082 -0.031822 -0.014332 -0.008688 -0.029006 -0.006192 0.019038 -0.01788 -0.029482 0.026682 0.00299 0.042768 0.053584 0.003905 0.022989 -0.013946 -0.0137 0.0429 -0.002654 0.021224 -0.017711 0.031915 -0.014269 -0.03463 -0.024641 -0.023386 -0.013522 0.023996 -0.001965 0.005815 0.01582 0.014584 0.016097 -0.028465 0.01409 -0.009537 0.022948 -0.024433 0.036128 0.023507 -0.017944 0.031234 -0.008062 -0.008503 -0.034194 0.031769 0.017052 0.027543 -0.027222 -0.024026 -0.03313 -0.016144 -0.004871 0.040019 -0.025018 0.029546 0.023881 0.030501 -0.022316 0.009371 -0.025422 -0.017511 0.025969 0.015924 -0.024703 0.02894 0.034287 0.033439 -0.014439 0.007766 0.001718 -0.020663 -0.006854 -0.007424 -0.008149 -0.028398 0.007069 -0.012271 -0.004596 -0.008939 -0.006447 0.026159 0.013834 0.001615 -0.010391 0.023188 0.005844 0.033513 0.02431 -0.010112 -0.007488 8.7e-05 -0.025651 -0.015261 0.02347 0.035 -0.032777 -0.025962 -0.001049 -0.022259 0.002433 -0.016258 -0.033323 0.023754 -0.02664 -0.020989 -0.019723 -0.006069 0.014806 0.017463 0.028483 -0.024377 0.007153 0.020849 0.007964 0.038821 0.026779 0.003171 -0.008589 0.011207 -0.030909 0.004404 0.00127 0.009643 0.036852 0.009632 -0.00495 0.009107 -0.011878 -0.0136 -0.008807 -0.042497 0.023927 -0.008337 0.01899 -0.005722 -0.011371 -0.001324 0.003246 -0.012647 0.025985 0.022719 -0.01727 -0.014047 0.018929 -0.029875 -0.025333 -0.005022 0.032371 0.020186 -0.023533 0.03128 0.01976 0.033194 0.021167 -0.025449 -0.007766 0.027768 -0.021242 0.000689 -0.016382 0.004515 0.027706 0.031366 -0.006977 -0.024762 0.025602 0.011455 0.009643 0.033089 -0.028524 -0.033932 0.009474 -0.018749 -0.029956 0.010293 -0.01771 0.012846 0.020263 0.009248 0.003887 -0.013311 -0.013657 -0.000625 0.019238 0.022659 0.024555 0.025822 -0.011282 0.040555 0.042081 -0.023046 -0.008554 0.007579 -0.007025 0.024195 0.016995 -0.033928 0.0224 -0.007887 0.030827 -0.027488 -0.013136 -0.010726 0.029044 0.004263 0.000787 0.008663 0.007641 0.035265 -0.022235 0.015199 0.022413 0.039487 0.026943 -0.030726 -0.003963 0.025496 0.033122 0.013373 0.030812 0.014846 -0.024703 -0.01982 0.008569 0.006078 0.007423 0.032878 0.013766 0.021747 -0.019678 0.026836 -0.033976 -0.012698 -0.014467 0.027575 0.019055 -0.021433 0.014566 0.010863 -0.025228 0.018608 0.018891 0.020928 0.031457 -0.024694 0.029845 -0.027723 0.033549 0.001982 0.002256 0.030825 0.002938 0.008031 0.034098 -0.020312 0.019426 -0.013926 0.017948 0.006825 -0.03843 0.004605 0.006923 0.042339 -0.012672 -0.028212 -0.040873 -0.026475 0.029334 0.015152 0.008401 0.021811 -0.013233 0.011884 0.026612 -0.026583 -0.034922 -0.032874 -0.031251 -0.024962 0.030165 -0.014198 -0.001376 -0.009156 -0.03139 0.036586 0.030741 0.027774 -0.022056 0.003703 -0.007752 0.011838 0.023406 0.002806 0.026302 0.018603 0.011904 0.000464 -0.031521 -0.027098 -0.035036 0.002437 -0.021477 -0.021593 0.026159 -0.00897 0.017507 -0.027764 -0.051695 0.016463 0.00536 0.039935 0.042685 0.027058 0.019003 0.022021 0.023128 0.029081 0.028374 0.020365 -0.031839 0.021679 0.012122 0.003634 -0.009728 0.013473 0.030976 -0.027243 -0.020601 0.015221 -0.036007 0.004822 0.006158 -0.000811 -0.03968 -0.043713 -0.037711 0.023273 -0.000922 0.027464 0.016658 0.005927 -0.013759 -0.006006 0.008151 -0.030326 -0.000125 -0.036353 0.013603 -0.00138 0.000729 0.002995 0.011539 -0.003079 0.017309 -0.005047 0.026323 0.021306 -0.022636 -0.010284 -0.0016 -0.034253 0.020879 -0.028772 0.014959 0.032091 0.018628 0.035151 0.003661 -0.005647 -0.024489 -0.025494 -0.004069 0.026782 -0.033773 -0.013346 -0.031624 0.009349 0.033245 0.032703 0.034294 -0.035278 0.031142 0.010341 -0.002099 0.028261 -0.014193 -0.013021 -0.008118 -0.014358 -0.017843 0.017122 -0.000292 0.044319 -0.003695 0.008242 -0.020254 -0.003115 -0.02054 -0.039759 -0.014826 -0.028834 -0.027543 0.033183 -0.010402 -0.033139 -0.000906 -0.007595 0.030859 -0.001875 0.027221 -0.009515 -0.032967 -0.008914 -0.003874 0.032201 0.004385 0.019189 0.001717 -0.017024 0.02691 0.031091 -0.008502 0.032814 0.021714 -0.015749 -0.016821 -0.030332 -0.019942 -0.026954 -0.018027 0.006168 0.0195 -0.002897 0.020116 -0.039893 0.00645 0.008539 0.000559 -0.015616 0.013818 -0.001003 -0.029629 -0.003337 -0.04662 -0.034613 0.009332 -0.031469 -0.018667 0.004467 -0.005888 -0.015969 0.018986 -0.013165 -0.024575 0.003387 -0.023609 0.015851 0.027551 0.008151 -0.002132 0.00311 0.025182 -0.0061 0.016393 -0.017546 -0.032789 -0.040487 0.004745 -0.017161 -0.037144 0.003981 0.012542 0.029597 -0.005153 0.016301 -0.024299 0.002044 -0.023405 -0.011889 0.006949 0.013126 0.015816 0.03134 -0.003212 0.016419 0.027411 0.003232 -0.015333 -0.014633 -0.00869 0.009724 0.00994 0.006986 -0.016165 -0.055055 0.005284 0.011728 -0.007651 -0.028956 0.034523 0.048231 0.036654 -0.025538 -0.001258 -0.018882 -0.03211 -0.017869 -0.003448 0.027186 -0.011302 0.031766 0.030486 -0.003143 0.029968 0.044818 0.02721 0.008669 0.023388 -0.021186 -0.024634 -0.041797 -0.057115 0.00599 -0.017486 -0.001951 0.015931 0.042737 -0.001751 0.056326 -0.015486 -0.026336 0.008219 -0.00112 0.011029 0.000575 -0.023345 0.03628 -0.003205 -0.01143 0.032751 0.005547 -0.03093 0.052625 0.032371 -0.004881 0.005147 -0.040293 -0.013515 -0.039969 -0.021874 0.00781 0.013389 0.001858 0.004048 -0.02874 -0.045281 -0.027317 -0.016944 -0.043338 0.030308 0.019978 -0.001216 0.038329 0.005673 -0.008035 0.022472 0.024921 0.027066 0.035622 -0.016281 -0.000671 0.018852 -0.028117 -0.032287 -0.032817 -0.007546 0.029575 -0.036006 -0.017153 -0.034125 -0.034911 0.010263 0.006457 -0.041622 -0.004871 0.032532 0.0003 0.013338 -0.010985 0.043605 -0.012744 -0.037353 -0.001459 -0.017679 -0.008044 0.020293 -0.028705 0.028511 0.006207 0.006695 0.004184 0.00845 -0.004007 0.017979 -0.01057 0.011385 -0.005925 -0.022197 0.018909 0.027929 -0.018979 0.03804 0.021275 -0.011018 0.000799 -0.028562 0.035417 -0.038681 -0.052093 -0.02553 0.028358 -0.006706 -0.009777 -0.02051 0.018801 -0.004093 -0.022953 -0.000244 0.022487 -0.010879 0.017273 -0.015428 0.019403 0.021698 0.009796 0.012144 -0.006792 0.010495 0.036443 0.017932 -0.022801 -0.029883 0.0185 0.009252 -0.029356 -0.027704 0.006798 -0.007344 -0.010703 0.02557 0.021981 0.001288 -0.015669 -0.011503 -0.005406 -0.034699 0.009425 -0.020867 -0.02818 0.019003 -0.032906 -0.002797 -0.032114 -0.021018 -0.018257 -0.030144 0.017834 0.022972 0.022503 0.026063 0.007458 -0.033284 -0.012327 0.010234 0.051721 0.008768 0.017107 -0.031551 -0.026871 -0.005311 -0.024918 -0.036372 -0.024486 0.034369 -0.011708 0.002866 0.001664 0.017537 -0.023153 0.00857 0.010421 -0.036718 -0.052484 -0.037216 -0.035705 0.007258 -0.037747 -0.026089 0.006122 0.003014 0.031246 0.01809 0.013454 0.02295 0.002918 -0.031783 0.021809 0.01903 -0.013044 -0.019673 -0.008624 0.001631 -0.022095 -0.002539 0.0458 0.001819 -0.004737 0.030255 -0.012356 -0.040811 -0.051165 -0.025191 -0.006182 0.015166 0.032448 -0.009301 -0.006997 -0.021864 -0.033486 -0.00714 -0.02841 0.030548 -0.028707 0.001229 -0.004946 0.023552 -0.001891 0.002774 -0.01797 -0.001796 0.019029 0.011699 0.047289 -0.012029 0.036127 0.041315 -0.018764 0.005108 0.016594 0.003143 0.019371 -0.00018 0.038215 -0.016949 0.020687 0.021346 -0.016333 0.033419 0.010556 -0.02779 0.023592 0.032543 0.030016 0.027192 0.00267 -0.021703 0.005751 -0.033274 -0.008826 0.019553 0.011353 0.007453 0.007658 0.0211 0.038735 0.027811 -0.031822 -0.02232 -0.005314 0.015087 -0.023851 -0.000745 -0.026091 -0.024694 0.025737 0.016748 -0.002702 -0.033072 0.028152 -0.006452 0.005498 -0.025323 -0.008632 0.011955 -0.042179 0.010321 0.011573 0.002636 0.010373 0.004142 0.03731 0.032779 0.02594 -0.026016 0.000994 0.005874 -0.010721 -0.014827 0.022701 -0.036393 -0.031717 0.022898 -0.02781 0.032037 -0.017587 0.035117 -0.00441 -0.001379 -0.018395 -0.038533 -0.04166 -0.008812 0.026459 -0.026504 0.010861 0.000905 -0.001623 0.016227 -0.020858 -0.026053 0.025182 -0.030409 -0.020454 0.001019 0.029986 0.019674 0.031989 -0.017483 0.016158 0.021909 0.019271 -0.02988 0.0003 0.019945 -0.041624 -0.039519 -0.05013 -0.048958 0.006644 -0.028231 -0.01619 -0.023036 0.014164 0.014172 0.015473 -0.007721 -0.019069 0.01695 0.018312 -0.030239 0.024247 0.033563 0.027781 -0.001403 -0.018526 -0.003616 -0.03494 -0.031878 0.003962 -0.033945 -0.017027 -0.034487 -0.056658 -0.059719 -0.019332 0.009561 0.016118 0.01248 0.02794 -0.025183 -0.032039 -0.016438 0.00256 0.028182 -0.002577 0.012926 0.007097 0.012686 0.024487 0.018394 0.005975 0.010396 -0.034269 -0.016862 0.000414 -0.00278 0.017162 -0.012677 -0.044009 -0.03792 -0.035257 -0.052021 -0.041665 -0.049263 0.007324 0.001678 0.008876 -0.022439 -0.03677 0.021904 -0.033413 -0.003462 0.006647 0.000733 -0.018969 0.023841 0.020722 -0.018912 0.031664 0.017325 -0.008781 -0.009282 -0.00804 -0.033669 -0.038636 -0.009578 -0.042788 -0.026608 -0.026503 -0.030578 -0.002483 -0.013035 -0.012302 0.022451 0.004319 0.004639 -0.018421 0.002743 -0.006244 -0.034477 0.011573 0.030573 0.010962 -0.012622 -0.014437 -0.008517 0.022564 -0.037331 0.00896 -0.017252 -0.018624 0.029782 0.003682 0.005213 -0.012732 -0.029444 -0.005687 -0.014744 0.03266 -0.025271 0.011859 -0.016661 0.021893 0.005864 -0.002743 0.032089 -0.005015 0.010582 -0.001705 0.027171 0.020561 0.032504 -0.028123 -0.006368 -0.014335 0.035542 0.016091 0.014362 0.046011 -0.000829 -0.014955 -0.00387 -0.004288 0.013726 0.002357 0.004401 -0.010719 -0.034757 -0.008569 -0.011378 -0.029599 0.017901 0.021373 0.027879 0.02646 -0.008067 0.001558 0.019914 0.014828 -0.023079 -0.025677 0.013823 -0.006609 -0.019526 0.040828 0.024494 0.029844 0.043256 0.041246 0.024442 -0.006421 -0.011579 -0.017628 0.018226 0.034572 0.019238 -0.02942 -0.013494 -0.025802 0.014297 0.011564 -0.007644 0.024059 -0.020441 -0.024334 -0.034391 0.025941 -0.038058 0.00475 -0.024957 0.006467 -0.000874 -0.012522 -0.001714 0.017049 -0.00364 0.034994 -0.027079 -0.032483 0.018498 -0.022944 -0.020355 -0.014112 -0.031586 -0.014603 0.003874 -0.017482 -0.016409 -0.023505 0.026411 -0.027655 -0.032411 0.020963 -0.009054 0.031792 -0.014367 -0.032731 0.027122 0.007665 -0.000212 0.011292 0.024685 0.024059 0.031809 -0.004155 -0.010521 0.010083 0.02416 -0.018304 -0.010506 0.01948 -0.015058 0.007159 0.00245 0.043145 0.009566 0.034757 -0.028335 0.015983 -0.006739 0.030456 0.015982 0.011355 -0.022479 -0.006774 0.022021 0.024619 0.025546 0.010893 -0.016809 0.023951 0.005548 -0.002021 -0.033966 -0.009646 0.020304 -0.010852 0.012764 0.027547 0.003942 -0.00098 -0.012576 0.028429 0.017727 0.029759 0.005724 0.043078 0.017067 0.021722 0.004291 -0.016871 -0.030489 -0.038487 -0.041229 0.008205 -0.01108 0.013996 0.007259 -0.036452 0.02389 0.025199 -0.01999 -0.012219 -0.011179 -0.003419 -0.012225 -0.025452 -0.034352 -0.025412 0.01414 0.020991 0.030526 -0.002668 0.047375 0.026094 0.009188 0.029929 -0.023199 -0.01036 -0.023537 0.015257 0.026588 -0.037835 0.006203 -0.023831 0.011666 0.029353 -0.026129 0.003876 0.009289 0.02242 -0.023761 -0.037636 -0.04199 0.016244 -0.023504 0.018405 0.012845 0.031901 0.039174 0.040627 0.026737 0.052777 0.023496 -0.031221 0.002148 -0.055005 -0.013741 -0.027701 0.007317 -0.022309 -0.00267 0.03247 -0.03074 -0.001617 0.031669 -0.02018 0.024369 -0.004164 -0.010855 0.027648 -0.037172 0.011979 -0.03638 -0.027157 -0.024617 0.003413 0.036207 0.019651 0.011084 0.015113 -0.017179 -0.049154 -0.016807 -0.017987 -0.034953 0.016131 -0.041976 -0.062993 -0.056587 -0.061738 -0.007091 0.038729 0.038275 0.035422 0.025804 -0.012005 0.011262 -0.042528 -0.036436 -0.006701 -0.003174 0.00792 0.01504 -0.013777 -0.024115 0.000555 -0.010757 0.021464 0.022564 0.027065 0.012948 -0.003744 0.01103 -0.017811 -0.014667 -0.002913 -0.04446 0.003695 0.013565 0.025594 0.014192 0.017285 -0.039307 -0.003627 -0.04622 -0.042611 -0.026516 -0.005231 -0.028343 0.026528 -0.034544 -0.019445 0.012723 -0.020863 0.000209 0.014552 -0.004206 0.029341 -0.018531 -0.02312 -0.030776 0.00493 -0.050488 -0.023609 0.036837 0.015229 0.052993 0.032532 -0.006425 -0.058053 -0.07807 -0.050197 -0.021728 -0.04597 -0.004614 -0.013817 -0.016586 -0.025671 -0.003799 0.005867 -0.009334 0.025147 -0.006624 -0.013975 0.012082 -0.012835 0.004839 0.002492 -0.038719 0.023388 0.009692 0.001191 0.027757 0.008495 -0.00756 0.022813 -0.004781 -0.046182 -0.016928 0.003719 -0.005221 -0.004762 -0.03845 0.004512 0.00485 0.016021 0.000464 -0.022961 0.028527 -0.004295 -0.0109 0.018173 -0.01972 0.030609 0.014085 -0.003248 -0.00504 -0.028399 -0.01113 -0.008726 -0.009938 0.037395 -0.029067 -0.017678 0.023887 -0.024319 -0.038489 -0.027822 0.026106 -0.02707 -0.032757 0.001368 -0.028564 -0.037296 -0.026752 0.016349 -0.004517 -0.013254 0.013817 -0.029077 -0.025412 -0.027697 0.013071 0.034359 -0.032998 0.028625 0.023514 -0.015865 0.028092 0.050699 -0.021821 0.010521 0.006592 0.024227 0.008167 0.005438 -0.021197 -0.03427 0.022298 -0.016253 -0.028747 0.010884 0.032564 -0.034161 -0.010949 -0.028408 0.016339 0.023672 0.04655 -0.016553 0.01522 0.012185 -0.011913 0.027594 0.01818 0.037253 0.029731 0.021928 -0.006551 -0.005335 0.004506 -0.004288 -0.013239 -0.025934 -0.015897 -0.03357 0.016423 -0.038727 0.003913 -0.018988 0.029588 -0.006939 -0.002278 0.024797 0.010937 0.042217 0.037842 0.0256 -0.027002 -0.038153 0.026553 -0.026114 0.018871 0.034801 -0.007262 -0.012061 -0.001038 -0.013367 -0.027681 -0.023467 0.019686 -0.025696 -0.018312 -0.006993 -0.033152 0.00139 0.029558 -0.010752 0.004754 -0.034835 0.00684 -0.004803 0.002686 0.019017 0.000168 -0.028699 -0.025676 -0.004221 -0.034304 0.006811 -0.04752 -0.006493 0.026594 -0.006758 -0.024424 -0.012209 0.01562 0.003399 -0.019006 0.018279 -0.015969 -0.018778 -0.010214 -0.020623 -0.015834 0.020145 0.020416 -0.023863 -0.021044 -0.015798 0.00197 0.011329 0.013176 -0.014347 0.012851 0.010632 -0.010856 0.01905 -0.038834 -0.009068 -0.006805 0.001219 0.014029 0.007895 0.045466 -0.011511 -0.021725 -0.002188 0.014245 0.035121 0.035252 0.004042 0.017155 -0.016242 0.000327 0.02724 0.012906 -0.015849 0.040525 -0.000641 0.034868 0.006886 -0.032197 -0.001712 0.007196 0.011085 0.013925 0.000408 -0.02347 -0.015728 -0.035468 -0.023662 -0.026331 0.039343 -0.001617 0.008085 0.031409 0.033319 0.00107 0.022405 -0.025221 -0.013912 0.001919 -0.027777 0.001257 0.028354 0.038182 0.030399 -0.005934 -0.005008 -0.030358 0.016328 -0.002783 -0.005582 0.004344 0.009476 -0.020398 -0.016213 -0.020731 -0.030961 0.030172 -0.034218 -0.018256 0.019181 -0.001929 0.006327 -0.010846 -0.021824 0.031111 0.03163 0.027726 0.024438 0.021084 0.031856 0.000774 -0.000397 -0.024689 0.021673 -0.013934 -0.016908 -0.001022 0.025621 0.01752 0.024962 0.00713 -0.025221 -0.02376 -0.016136 0.010989 0.007706 0.010083 0.021619 -0.008215 0.023394 0.033151 -0.013045 -0.036594 -0.044498 -0.020745 -0.02211 0.005329 0.018584 0.011012 -0.036546 -0.014079 -0.009109 0.00686 -0.035487 0.001592 -0.034087 -0.016798 0.012727 -0.020054 -0.025084 0.030525 0.005148 -0.016631 0.010902 0.039309 0.018223 0.013543 0.030383 -0.00908 -0.040473 -0.031469 0.019474 0.016989 -0.021787 -0.017032 0.01377 0.001407 -0.036047 -0.015253 -0.028685 0.033365 -0.030772 -0.028008 -0.014368 -5.5e-05 0.015024 0.023745 0.017181 0.009279 0.012945 0.022351 0.016634 0.01115 -0.033442 -0.009022 0.00717 -0.004158 -0.031367 0.001886 0.009012 -0.007152 -0.007855 -0.036202 0.010934 -0.03542 0.023027 0.016666 0.02578 0.010136 -0.001138 0.021424 -0.001456 -0.032714 -0.024082 -0.020645 -0.00361 -0.014813 0.00152 -0.023225 0.009979 0.004082 -0.02298 -0.000998 0.006925 -0.033692 -0.033134 0.02805 -0.017071 0.022592 -0.01465 0.03275 0.014838 0.010233 0.035051 0.011299 -0.018986 -0.006384 0.001272 -0.05954 -0.041092 -0.021749 0.010239 -0.035652 0.006595 0.009186 0.029417 -0.017056 0.017706 -0.010373 0.015112 -0.032888 -0.026056 0.022743 -0.028631 -0.006715 -0.019688 0.031929 -0.019113 -0.013152 0.006693 0.018533 -0.018996 -0.014629 0.003773 -0.019331 -0.037844 -0.019607 0.000382 -0.005006 -0.0228 0.01838 -0.006941 -0.021704 0.013093 0.002929 0.019979 -0.017785 0.013917 -0.004605 -0.03583 -0.013456 -0.011702 -0.021523 0.009951 -0.010756 -0.008948 0.031535 0.001194 -0.002662 0.003944 -0.013495 0.016809 -0.027545 0.031091 0.008299 0.037167 0.0101 0.007333 0.023859 0.001162 0.034325 0.008306 0.03113 -0.009964 0.002064 -0.034969 -0.033668 -0.002762 -0.003286 -0.044501 0.011662 0.013596 -0.02356 0.040258 0.030778 0.026291 -0.038372 -0.038152 0.007218 -0.01605 0.025376 0.026873 0.019065 0.020479 0.006521 0.026071 0.01513 0.022548 -0.030919 0.030598 -0.026254 0.009325 -0.001724 -0.018826 0.010791 -0.004732 0.002669 -0.004539 0.028177 -0.024458 0.034407 0.042412 0.038686 -0.032123 -0.021584 -0.04326 -0.015894 0.013057 -0.029296 0.000743 0.009311 -0.033052 -0.021518 -0.034853 0.000205 0.000381 0.024608 0.001283 0.003721 0.003881 -0.024341 -0.025878 -0.000306 -0.022329 -0.030718 0.02468 0.042173 -0.009271 0.03893 0.039846 -0.007013 -0.034523 -0.033752 -0.028502 -0.020385 0.025201 -0.010795 -0.00557 -0.036009 0.001624 0.006858 -0.021357 0.033012 -0.008231 0.021709 0.022244 0.028503 -0.032614 0.021851 -0.030135 0.027019 -0.017325 -0.011256 -0.00083 0.025004 -0.001352 -0.02475 -0.029746 0.023446 0.021349 -0.031087 0.000468 0.019614 -0.018049 0.021594 0.022426 0.01107 0.005788 -0.004072 0.021296 0.031072 0.013771 -0.032388 -0.0251 0.013399 0.023535 0.016403 -0.004525 0.025008 0.009289 0.002966 0.028331 -0.005015 -0.012329 0.014899 0.009415 -0.026644 -0.023407 0.02257 -0.032688 0.017829 -0.03024 -0.023629 0.023763 -0.000796 0.041872 0.041872 -0.005217 -0.027424 -0.003935 -0.035298 0.007554 0.035227 -0.017239 0.037766 0.01221 0.029533 0.002716 -0.003324 0.020578 0.023049 0.014887 -0.019071 0.018318 0.00967 -0.009378 0.008705 0.010368 0.002552 -0.022503 0.00457 -0.006553 -0.010979 0.009991 0.018116 -0.026632 -0.033439 0.007763 -0.031002 -0.01413 -0.004978 0.017987 0.033733 0.009695 -0.005427 -0.020837 0.014353 0.024877 2.9e-05 0.025663 -0.009689 -1.6e-05 0.023995 -0.019731 0.011214 0.020123 0.016508 0.000213 -0.008673 0.009372 0.048022 0.042043 0.022807 -0.045726 0.002201 -0.014544 0.032967 0.049412 -0.006531 0.035644 -0.008012 0.001616 0.003176 -0.001046 0.025118 0.017723 -0.034998 0.024846 -0.029857 0.016024 0.01513 0.033003 -0.018427 -0.025831 0.007881 -0.013452 -0.022487 -0.004465 0.030696 0.055612 -0.011515 -0.01469 0.000344 -0.037355 -0.006614 0.033869 0.019886 0.00033 0.020834 0.0119 -0.014877 -0.012061 -0.034272 0.019231 0.025101 0.018177 0.012858 0.010549 0.009954 0.00498 0.020846 -0.006462 0.031074 0.017934 -0.009489 0.023688 0.038855 -0.0151 -0.020803 -0.020505 -0.045255 -0.015205 0.000926 0.03783 -0.012587 0.016539 0.016178 0.020425 0.024914 -0.021821 -0.008871 0.001727 -0.024233 -0.015451 0.018346 0.004048 -0.002346 0.00998 -0.016384 -0.021583 -0.00542 0.030447 0.040557 0.000864 -0.011361 -0.002327 0.021767 0.023674 0.003285 0.015243 0.02279 0.012504 0.001545 -0.016318 -0.016176 0.020894 -0.031565 0.010735 0.024115 -0.007258 -0.005164 0.008514 0.014753 0.001538 0.01771 -0.03314 -0.040105 -0.00481 0.027488 -0.001673 0.006339 0.006197 0.010029 -0.039555 0.018437 -0.000681 0.014442 0.004131 0.026199 0.008069 0.016233 -0.021732 -0.007347 -0.005467 -0.012919 0.008765 0.006376 0.009618 -0.008452 0.025004 0.010002 0.033601 -0.001822 -0.010508 -0.036821 -0.007028 0.040531 0.024667 0.011969 0.008293 0.006252 0.008308 -0.003699 0.015707 -0.015229 -0.017756 -0.026608 -0.010396 -0.03091 0.018474 0.020038 -0.018876 0.017236 0.009196 0.008865 -0.018906 0.024998 0.037955 0.002967 0.004427 -0.024536 -0.004024 -0.006639 0.020497 0.039397 -0.01215 -0.014819 0.019462 -0.036522 -0.04052 -0.029159 -0.001297 0.031456 0.031135 -0.008153 -0.023357 0.001299 -0.034028 -0.010316 -0.036665 0.000741 0.041941 0.032147 -0.016339 -0.015208 0.003344 -0.016112 0.007647 -0.026382 0.0053 0.024672 -0.00502 -0.002274 0.00128 -0.025557 0.022208 -0.00441 0.025607 0.025782 -0.021138 -0.02236 0.000309 -0.014875 0.036559 0.02186 -0.025504 -0.011231 0.02307 0.032941 0.031557 -0.00832 -0.026642 -0.005506 0.031892 -0.001684 -0.002247 -0.006923 0.023038 0.001217 -0.030132 -0.010601 0.006509 -0.035511 0.02907 0.016505 0.014887 -0.029792 -0.012229 0.009197 0.01803 -0.033188 -0.000587 0.031593 0.02697 -0.02292 0.004386 -0.006885 0.024895 0.012538 0.030646 0.007393 -0.015672 0.033423 -0.001759 -0.030994 0.003935 0.027179 0.027708 0.013177 -0.013821 0.02214 -0.020715 0.024225 -0.0034 0.002246 0.020467 -0.010279 0.02299 0.025793 0.030735 -0.020217 -0.008677 -0.007619 -0.008253 -0.00527 0.035383 -0.010053 -0.023959 0.029269 -0.032091 -0.013091 0.005037 0.001931 -0.004318 0.007959 -0.009328 0.030146 -0.030486 0.025233 0.004595 -0.026526 -0.016655 0.026027 0.007678 -0.000605 0.000673 0.025422 0.011738 -0.012824 -0.025496 -0.015863 0.031703 0.010809 0.031814 0.005434 -0.01934 -0.032937 -0.033415 -0.008459 0.004685 0.035091 -0.027114 0.032143 0.034056 0.006448 -0.025303 0.01303 0.024369 0.025779 0.002621 -0.00333 0.017336 -0.021434 -0.012422 -0.020636 -0.006756 -0.014055 -0.009878 0.017671 -0.030851 0.008806 0.028025 0.001226 0.02009 0.023297 0.027957 0.002674 0.026873 0.037782 0.038291 -0.041608 -0.025423 -0.042399 0.027218 0.031211 -0.00582 0.019356 -0.010898 0.02078 -0.023401 -0.035013 0.014752 0.030585 -0.020121 0.003537 0.005361 0.027369 -0.031639 0.033696 -0.023789 0.026109 0.020234 0.019016 -0.012465 0.016812 0.016449 0.019681 -0.002128 -0.028923 0.006229 -0.037319 0.015234 -0.002231 -0.005925 0.026035 -0.0015 -0.020088 0.025431 -0.00741 0.031871 0.003553 -0.019455 -0.033319 0.024931 -0.003387 -0.034884 0.026684 -0.023732 -0.015984 0.019489 0.005988 -0.042405 -0.021768 0.024024 0.057765 0.018261 -0.035437 -0.020022 -0.027738 -0.024254 -0.017593 -0.014203 0.028165 0.038401 -0.019036 -0.023046 0.017397 -0.024496 -0.018097 -0.015808 -0.028139 0.012646 0.028526 0.015052 0.029711 0.032052 0.007315 -0.02234 -0.013308 0.023077 -0.026229 -0.018286 0.006657 0.032477 -0.01406 -0.015615 -0.038464 -0.004287 0.015413 0.011554 0.004502 -0.003326 -0.045258 0.016907 -0.002765 -0.025341 -0.023527 -0.027391 0.032049 -0.025988 0.018406 0.025249 0.033371 0.02577 0.021289 -0.00995 0.035667 0.009223 -0.01843 -0.032725 -0.021905 0.033435 -0.035542 0.019754 -0.027838 0.001725 0.010761 -0.039235 -0.021791 0.026126 0.037213 0.003157 -0.02023 0.000428 0.020349 0.021061 -0.048178 -0.026668 -0.008608 0.050762 0.046018 0.022983 -0.021412 -0.003861 -0.035051 0.03244 0.011361 -0.018756 -0.019668 0.029785 0.019508 -0.02746 0.015975 0.033337 -0.013875 0.005601 0.008969 -0.013654 0.01981 0.017681 0.034682 -0.011947 0.026654 -0.022858 -0.017804 -0.029805 -0.003505 0.012965 0.0421 0.037334 -0.045362 -0.048103 -0.041925 -0.00357 -0.033036 0.003544 -0.006641 0.00282 -0.012822 0.023304 0.000628 -0.011517 -0.033832 0.013469 -0.010637 -0.033471 0.005068 -0.001293 0.002692 -0.028777 0.022046 -0.028464 -0.016624 0.008075 -0.019502 0.005904 0.034825 0.018471 -0.046965 0.00636 -0.038331 -0.04118 0.026434 0.029635 0.032282 0.001792 -0.007405 0.012877 0.031665 0.000427 0.02511 -0.007286 -0.032609 0.029059 0.002471 -0.004668 0.01507 0.011415 -0.034434 0.002032 -0.01623 0.009633 -0.000409 0.021616 -0.005826 0.02006 -0.008892 -0.031303 -0.013661 -0.007012 -0.015487 -0.004575 0.00132 0.001791 -0.015031 0.018463 -0.001709 -0.005849 -0.03665 -0.028131 -0.011094 0.023242 -0.017942 0.025284 0.010594 0.034771 -0.004859 0.037447 -0.023925 -0.013005 0.027597 -0.023006 -0.030954 -0.009199 -0.018769 -0.027593 -0.010966 -0.027211 -0.002931 -0.029544 0.01925 0.02754 -0.011023 -0.010183 -0.033853 -0.019521 -0.033511 -0.03287 -0.015701 -0.033487 0.027457 -0.017959 -0.000247 -0.000729 -0.017154 -0.020645 0.031873 -0.013029 0.014015 -0.022718 0.008214 0.010176 0.000451 -0.015993 -0.017214 -0.010474 0.014642 -0.041564 -0.026708 -0.009616 -0.047681 -0.035422 0.011393 -0.019358 0.018428 -0.02393 0.022473 -0.030571 0.000739 0.0351 0.021271 -0.018295 0.023935 0.015987 0.006442 0.011035 0.019192 -0.029298 -0.019072 0.007703 -0.002126 -0.005094 0.021629 -0.021863 -0.032919 -0.017315 -0.00945 -0.028998 -0.034714 0.015182 0.011296 -0.015759 -0.035326 0.023617 -0.01782 0.027621 -0.01833 -0.026105 -0.005694 0.004659 0.014247 0.031456 0.028361 -0.035369 -0.00263 -0.022249 -0.008134 0.030034 0.012398 0.008097 -0.018905 -0.002423 0.0222 -0.000273 -0.00094 -0.027347 0.029017 -0.008098 0.040996 -0.022499 0.003279 -0.011624 0.023013 0.030037 0.012437 0.011401 0.020337 0.034966 -0.022526 -0.016846 0.0098 -0.020601 0.028211 -0.005985 -0.02579 -0.005488 -0.02447 -0.02158 0.031872 0.006838 -0.002756 -0.012109 -0.012778 0.039756 0.040611 -0.002337 -0.032814 0.023113 -0.014647 -0.00546 -0.001833 -0.00635 0.025217 0.037974 0.04966 0.020154 0.009437 0.01815 -0.030646 -0.013934 -0.018647 0.032904 -0.022626 -0.001504 0.014969 -0.028358 0.000279 0.0229 0.000929 -0.00783 0.015548 0.026402 0.01407 0.008892 0.000698 -0.026131 -0.008811 -0.025783 0.007616 0.012811 0.010724 -0.012629 0.019736 0.004674 0.015365 0.03533 -0.011588 0.036024 -0.030695 0.021273 0.035131 -0.015372 -0.003382 -0.018208 -0.024559 -0.001797 -0.023201 0.023503 -0.035139 -0.008791 -0.006599 -0.022239 -0.019744 -0.027122 0.018007 0.011608 0.011385 -0.010758 0.008913 0.026199 0.007144 0.015295 0.013275 0.02469 0.039687 0.002662 0.030172 0.03094 -0.024632 -0.024913 -0.030074 -0.027083 -0.045591 -0.041899 -0.050534 -0.044792 -0.008269 -0.01515 -0.013577 -0.026317 -0.036934 0.032356 0.021535 -0.024508 -0.003634 -0.007076 -0.03024 0.033434 -0.011375 0.004856 0.010053 -0.014589 -0.019528 0.026807 -0.01477 -0.023218 0.043757 -0.020843 -0.012391 -0.023058 0.013158 0.008564 -0.028212 -0.035292 -0.024458 0.013797 0.014417 -0.036752 -0.027513 0.029325 0.030118 -0.01622 -0.024964 0.021541 -0.002602 0.016975 0.02477 -0.022582 0.031837 0.022396 0.04716 0.039714 0.036373 0.003443 0.051624 -0.005012 -0.021235 0.0012 -0.018975 -0.009353 0.006131 0.02633 -0.022624 -0.03287 -0.0196 0.018538 -0.033673 0.002243 0.014717 -0.001831 0.01749 0.005301 0.043398 -0.006523 0.037746 -0.015262 -0.003316 0.007158 -0.005572 -0.027473 -0.034962 0.011452 -0.015332 0.018066 -0.011006 -0.030051 0.00397 0.000476 -0.002077 -0.020133 0.012032 -0.023877 0.012114 0.028966 -0.030977 -0.017214 -0.030907 0.020609 -0.013973 -0.006789 0.016237 0.004223 0.04419 0.03602 0.013965 -0.012434 -0.053883 -0.043865 -0.037901 -0.027007 -0.037611 0.017302 -0.01477 0.017336 0.020953 -0.019562 -0.002436 -0.024817 -0.033362 0.013697 -0.007217 -6.9e-05 0.003069 -0.022417 -0.03114 -0.035771 0.004875 -0.001907 0.03266 0.000364 0.006562 0.042796 -0.006895 -0.039028 0.003406 -0.005697 -0.012646 -0.00665 0.017178 0.020624 -0.030294 -0.013124 0.028976 -0.011664 -0.008364 -0.026617 0.017839 0.021233 -0.012713 0.023939 0.001318 -0.016095 -0.016182 -0.007808 0.002834 0.018604 -0.021304 -0.014316 0.008863 -0.000937 0.026504 -0.000902 0.020768 -0.035663 -0.044885 -0.007767 -0.0278 -0.033886 -0.013486 0.015549 0.022062 0.010842 0.0323 -0.013745 -0.00749 -0.025143 0.011136 -0.015872 -0.036794 0.001621 0.0088 0.03148 0.039044 -0.020393 0.003962 -0.005866 0.006325 0.00045 -0.012284 0.006056 -0.01683 0.019828 -0.013944 -7.3e-05 5e-05 0.014715 0.032547 0.016167 -0.019458 0.005737 -0.018574 0.015714 -0.032377 -0.018441 0.040587 0.012668 0.001797 0.033432 0.003122 0.018049 -0.017749 0.029572 0.006011 -0.014051 0.021449 -0.034435 0.021211 0.015533 0.021967 -0.010063 0.03266 0.022268 0.001018 0.022376 -0.027771 -0.034333 0.015127 -0.024722 0.0334 0.034287 -0.037512 -0.027911 0.025886 0.010607 -0.012099 -0.019197 0.00045 0.028723 -0.00292 -0.003701 -0.006535 0.002582 0.029265 -0.017314 -0.033929 -0.010285 0.005203 0.027068 0.019442 0.011822 -0.014682 0.029643 -0.004212 -0.036714 -0.019789 -0.003929 0.026241 -0.022317 -0.008511 -0.044217 0.012583 -0.02174 -0.018309 0.02859 0.023042 -0.018154 0.006181 -0.007267 0.009871 0.018028 -0.00146 -0.025946 0.007015 -0.015526 0.032345 0.027783 -0.026686 0.024658 0.002647 -0.013769 0.027266 0.018917 0.024586 0.019042 -0.026048 0.011132 -0.047607 -0.021919 0.022295 -0.01428 0.007123 -0.011917 0.001356 -0.020503 -0.023317 0.000817 0.031045 0.001892 0.021455 0.004861 0.028556 0.0203 0.019846 0.018068 -0.00135 -0.000366 -0.011613 -0.017482 -0.020532 0.02862 -0.014393 0.023569 -0.013185 -0.015343 0.004254 -0.032303 -0.04509 -0.044959 -0.040078 -0.031139 -0.024574 0.033227 0.013941 0.005695 0.020521 0.009075 -0.022051 -0.035603 -0.032852 -0.026888 -0.025021 -0.023689 -0.043576 -0.021789 0.026198 -0.006105 0.00182 -0.003252 -0.009038 0.028019 -0.018546 -0.03254 0.004018 0.001079 0.008673 0.02135 0.016298 -0.031149 -0.011982 -0.016425 -0.024149 0.024797 -0.014891 -0.011208 0.034608 0.00797 0.018132 -0.004559 0.00418 0.018783 -0.024521 -0.001397 0.006154 -0.011704 0.015266 0.02819 -0.023029 0.026222 0.007653 0.029272 0.011914 -0.030399 -0.018211 -0.03595 0.014314 0.011289 0.013774 -0.012988 -0.025736 0.01803 -0.007948 0.010264 0.007445 -0.000889 -0.009969 -0.027456 0.015777 0.001887 -0.013261 -0.026906 0.030283 0.002335 0.007071 -0.012963 0.017014 0.008139 0.024751 -0.008381 -0.030859 -0.034264 -0.021755 -0.020993 -0.034534 0.034682 -0.008366 -0.015218 0.029028 -0.003377 -0.021786 0.031589 -0.009731 -0.03471 -0.024626 -0.025756 0.032637 -0.034327 0.009628 0.023873 0.020863 -0.029372 -0.042682 -0.037902 0.022091 -0.023876 0.027823 -0.020686 0.033439 0.022921 0.032217 0.016867 -0.033884 0.017108 -0.031584 -0.002648 0.0284 -0.027638 0.009065 0.032176 -0.035292 0.015293 0.002694 -0.007358 0.003772 0.002155 -0.040148 -0.003918 -0.006529 0.006198 -0.008239 0.009911 -0.022573 -0.009872 -0.02167 -0.038186 0.025636 -0.015566 0.014999 -0.013148 0.019995 0.032859 -0.003791 -0.043254 -0.000156 0.016041 -0.023471 -0.015066 0.013395 -0.01114 -0.019531 -0.011728 0.016541 -0.030493 -0.01201 -0.01754 -0.019531 -0.02663 -0.000154 -0.031645 -0.025605 0.007706 -0.036309 0.004961 -0.020271 0.038455 0.018944 -0.022433 0.016622 0.01261 -0.014893 -0.015591 -0.02902 0.000952 -0.012461 -0.041023 -0.029687 0.013026 -0.03405 -0.035028 0.027809 -0.026367 -0.004579 -0.016023 0.0046 -0.026178 -0.03299 0.025257 5e-05 0.024877 0.029886 -0.008151 0.000559 -0.017176 0.00826 0.042953 0.021161 0.026363 -0.003219 -0.027803 0.01861 0.022916 -0.013086 0.016263 -0.043312 0.023254 -0.033635 -0.014779 0.028053 0.010252 -0.008189 -0.017163 0.013282 0.015965 -0.032274 -0.027852 -0.007601 -0.039029 -0.005035 0.007013 0.031721 0.030669 0.010382 0.013333 -0.005427 0.046796 0.055649 0.020872 -0.018327 0.015007 -0.038905 0.006411 -0.009892 0.000225 -0.031573 -0.000513 0.009459 -0.032298 -0.015541 -0.028314 -0.018142 -0.0239 0.018467 0.022255 0.003757 0.014159 -0.039261 -0.001966 -0.01427 0.023259 0.028188 -0.014971 0.000215 0.055978 0.042106 -0.0235 -0.013749 0.014963 -0.015552 0.033552 -0.008241 -0.010697 -0.016774 0.022428 -0.02541 -0.00781 -0.038506 -0.038776 -0.037598 0.015285 0.018356 0.005962 -0.036909 -0.006028 -0.027642 -0.011155 -0.011888 -0.007762 -0.015555 0.03386 -0.020321 -0.033542 -0.016591 0.009705 -0.02819 0.02383 -0.026961 0.031028 0.02926 0.019961 -0.026256 0.013692 -0.02757 -0.014912 0.002734 -0.009438 0.019957 0.018381 0.013379 0.032181 0.01976 -0.012729 -0.017559 0.043196 0.034365 -0.006592 0.006415 -0.027789 -0.016639 -0.026568 0.031934 -0.028362 -0.012813 -0.030193 -0.012275 -0.025482 -0.024656 -0.036401 0.003276 -0.012701 -0.021292 -0.032231 -0.039041 0.009503 0.001338 0.025487 -0.024401 -0.036956 0.02293 -0.012386 0.032688 0.038343 0.042993 0.016323 -0.0063 -0.00338 0.011266 0.003893 -0.034946 -0.008143 0.016945 -0.035102 -0.011497 0.000877 0.015538 0.005962 -0.002549 -0.035295 -0.032959 -0.0513 -0.039298 -0.020382 -0.002671 -0.023003 -0.046772 -0.038189 -0.041183 0.020267 0.006687 0.011003 0.004465 0.02282 -0.017998 -0.027283 -0.013474 -0.018318 -0.009215 -0.023344 -0.012617 -0.01854 0.017127 -0.015807 -0.006716 -0.010439 -0.018608 -0.008582 -0.043156 -0.0006 0.0352 -0.004497 0.009821 -0.025567 -0.016929 -0.006214 0.008161 0.012653 0.002427 -0.008321 -0.018655 -0.031929 -0.021124 0.027044 0.020057 -0.004038 -0.017035 -0.03944 0.001295 0.013077 -0.014594 0.018626 0.001698 0.01058 0.037408 0.004431 -0.027514 0.00545 -0.027443 -0.03344 0.027374 0.005715 0.015929 -0.030753 0.035657 0.011252 -0.007287 -0.028648 -0.02189 0.027121 0.021998 -0.001908 0.024717 -0.01474 -0.010474 0.01533 -0.044982 -0.026349 0.023508 0.028587 0.00891 -0.008056 0.003185 0.018203 0.023727 -0.019809 0.004411 -0.019305 -0.00636 -0.007044 -0.021751 0.003531 0.035155 0.021311 0.017329 0.014419 0.00124 0.000798 0.01958 0.024259 -0.00666 0.036214 -0.0091 0.003471 -0.02269 -0.002726 0.000542 -0.016416 -0.020536 -0.028321 -0.030849 -0.004906 0.021583 -0.014506 -0.034404 -0.030075 0.01923 0.02214 -0.020191 -0.000317 -0.004665 -0.011332 0.027593 0.011377 -0.02882 0.021298 0.004844 0.012616 0.053762 0.004796 -0.023284 -0.015741 -0.038969 0.030959 0.041351 0.046155 0.032199 -0.039142 -0.024263 -0.002021 0.003433 0.007949 0.00201 0.018097 0.032274 -0.008835 0.006817 -0.010431 -0.029567 -0.022362 -0.006483 0.011958 0.006891 0.04865 -0.002439 0.035599 0.018945 -0.024036 -0.034088 -0.03639 0.002896 -0.008108 0.053494 0.017208 0.02 0.009705 -0.013981 -0.035562 0.014855 0.007689 0.021689 0.006354 -0.007458 0.028605 0.01592 0.005389 -0.010441 -0.012527 -0.039914 -0.031677 0.007232 -0.010843 -0.013126 0.013786 0.005356 -0.021999 0.013056 0.003432 0.026715 -0.023663 -0.012623 -0.027906 -0.032302 0.011975 0.013132 -0.01504 -0.030292 -0.012488 0.034743 0.033797 0.011807 0.009769 0.026037 -0.03938 -0.027726 -0.005066 0.008127 0.035363 -0.015072 -0.016051 -0.017858 -0.013574 0.020602 -0.009053 0.019131 0.007618 0.013677 -0.026695 -0.006841 0.002008 0.010295 -0.025517 -0.038766 0.025837 -0.038225 0.031835 0.01319 -0.029131 0.010492 0.007053 0.016911 -0.023716 0.024744 -0.007925 -0.016292 -0.020927 -0.024253 -0.010602 -0.009722 0.001798 0.017656 0.002613 -0.004161 0.011087 -0.030581 0.03058 -0.024315 0.031732 -0.017528 -0.033563 -0.025662 -0.000581 -0.023762 -0.018741 -0.009075 0.020862 -0.003133 0.005813 -0.016527 -0.002372 0.005874 0.025477 0.027624 -0.015815 -9.5e-05 -0.018437 -0.002423 0.028354 -0.003795 0.031764 0.040778 0.003782 0.013172 0.018645 -0.019137 -0.028891 -0.001826 -0.014746 -0.035119 -0.002994 -0.026899 0.016509 -0.019299 -0.034154 -0.035226 -0.026301 0.036917 0.031709 0.01328 0.040523 -0.028693 0.003953 -0.011402 0.025302 0.033179 -0.024325 8e-05 0.005254 0.027458 0.015597 0.017005 0.031317 0.018168 0.009097 0.008137 0.044255 -0.00079 0.021469 -0.009963 0.003099 0.010922 -0.015182 -0.001858 0.011355 0.037961 0.030703 -0.030171 -0.024961 0.014023 0.007329 -0.035846 0.014925 0.032847 0.03246 0.003816 -0.024538 0.003337 0.033048 -0.009311 -0.0294 0.019776 -0.005615 0.004251 0.028377 0.040757 0.012395 0.054445 0.017534 0.048141 -0.003073 0.04498 0.030553 -0.005641 -0.013561 0.023758 0.019275 -0.028103 -0.028657 0.026387 -0.008271 0.001038 0.018687 -0.029073 0.008843 0.028593 0.003834 0.038383 -0.015068 0.00623 -0.018858 0.000108 -0.008197 0.032919 -0.022985 0.010966 0.018203 0.014136 0.006086 0.020265 0.039712 0.038825 -0.007246 -0.003879 0.009092 0.029292 0.010532 -0.000461 0.007299 0.011087 0.037637 -0.011857 0.025313 0.01916 0.02626 0.008862 -0.035422 0.01448 -0.045887 -0.024438 -0.006039 -0.047478 -0.033105 -0.018488 -0.033759 0.014336 -0.004582 -0.026673 -0.026493 -0.020959 -0.021674 0.035918 -0.026562 -0.026251 0.021844 0.007676 -0.004842 -0.035021 0.009514 -0.021228 0.014814 -0.006067 0.014169 0.0036 0.009933 -0.027494 -0.05229 -0.024724 -0.015176 -0.04625 -0.009774 -0.017297 0.032281 -0.02207 -0.02496 0.006121 0.022684 -0.007711 0.039376 -0.000538 0.035656 -0.022198 0.00017 0.011591 -0.001072 -0.013138 0.003112 0.004094 0.028433 -0.019615 0.023076 0.023781 0.006636 -0.00398 0.029071 0.003793 -0.00885 0.007757 -0.010392 -0.018292 0.024614 -0.017554 0.007537 -0.022832 0.024418 -0.02882 0.02503 0.001013 0.001701 -0.043623 0.007563 0.033133 0.007696 0.021095 0.022561 -0.025695 -0.016274 -0.010625 0.008271 0.021562 -0.01355 -0.030234 0.023417 -0.010202 -0.003143 0.011202 -0.020764 -0.024462 0.004728 -0.005966 -0.001812 0.014341 -0.03647 0.004743 -0.008761 -0.019343 -0.04189 -0.032474 -0.03405 0.037161 0.005177 -0.022569 0.023866 -0.007394 -0.02888 -0.007036 -0.033675 -0.020203 0.030172 -0.006219 -0.027757 -0.00163 0.013687 0.029163 -0.003268 0.000731 0.024088 -0.013086 -0.017707 -0.02502 -0.019375 -0.052252 -0.006921 -0.030845 -0.031904 -0.044511 0.023472 0.039985 0.034429 -0.012303 -0.013896 -0.035818 0.005374 -0.02119 -0.003585 0.032684 -0.022189 0.0076 -0.011869 -0.015753 0.001106 0.016589 -0.016497 0.016643 -0.015335 -0.00374 -0.03221 0.014272 0.013984 0.012186 -0.049511 -0.042211 0.024515 -0.025651 -0.022335 0.04383 0.024106 0.000192 -0.007295 0.004698 -0.025098 -0.015718 -0.018714 -0.001938 0.032773 0.000563 0.007291 0.032725 0.029683 0.021211 -0.005247 -0.00372 -0.023195 -0.002512 -0.02486 -0.012043 0.036813 0.0218 0.005828 -0.007807 0.012259 0.016744 8.2e-05 -0.0272 0.019845 0.030548 0.022883 -0.029205 -0.00643 -0.003672 0.029537 -0.011408 0.018186 0.015126 -0.022015 0.000805 0.00036 -0.037193 0.019056 0.015974 0.019039 0.011064 0.006945 -0.003418 0.005063 0.017591 0.025814 -0.009709 0.02868 -0.035824 0.007049 -0.026187 -0.016516 0.024035 0.027894 0.000537 -0.031433 0.020482 -0.022218 -0.000281 -0.022099 0.001983 0.033988 0.009064 -0.00713 -0.028786 0.001252 0.034569 -0.023757 0.014459 0.054361 -0.010848 0.036251 0.031297 0.007162 -0.031114 -0.000917 0.014453 0.019324 -0.008259 -0.022951 -0.013178 0.005708 0.008728 0.03481 -0.005653 0.005185 0.017614 0.009002 -0.01056 -0.00389 -0.005328 0.009896 -0.0376 0.001402 0.02778 -0.012081 0.001613 -0.020764 0.026604 0.027145 0.015805 0.006527 0.014438 -0.002478 -0.007878 -0.037613 -0.003268 -0.006617 0.030758 0.032668 -0.032132 -0.001972 -0.02719 -0.019493 0.00094 0.000725 0.011873 0.033807 -0.031689 -0.022161 -0.034706 -0.002052 0.017376 0.027081 -0.021629 -0.008759 -0.014239 0.031605 0.032363 0.018236 0.031458 0.036698 -0.000543 -0.003123 0.029513 0.019469 -0.008693 -0.005158 -0.045227 -0.007229 -0.026641 -0.016166 -0.007271 -0.021041 0.013895 0.008022 -0.048207 -0.006218 0.015234 -0.013506 0.029789 0.010974 0.032595 -0.019347 -0.010553 -0.008024 -0.025539 -0.016553 0.044247 0.040119 0.004989 0.009309 0.002803 -0.044183 -0.045986 -0.017276 0.01942 0.001962 0.036124 0.007214 0.035816 0.016512 -0.038644 -0.013032 -0.016573 -0.036891 0.006179 0.032574 0.011277 0.025589 -0.003417 -0.027718 0.032396 0.024966 0.026513 -0.015487 0.000798 0.029085 0.036844 -0.014748 0.005262 0.013107 -0.009569 -0.006908 -0.028611 -0.029058 0.056179 0.033375 -0.011511 -0.004277 0.009291 -0.027995 0.027951 0.004882 -0.003203 -0.003244 0.018077 -0.001017 0.011535 -0.028521 0.026303 -0.018637 0.027921 0.006392 -0.033393 0.008863 0.024017 -0.009072 -0.018823 0.00372 -0.023552 -0.021293 -0.018515 0.003975 -0.011689 0.012303 0.013897 0.01513 0.018542 -0.007817 0.030615 -0.031878 0.026579 -0.007636 -0.02498 0.027581 -0.027989 0.022582 0.005366 -0.006571 -0.005392 0.023462 0.017656 0.012609 -0.018823 -0.033416 -0.012586 -0.041327 -0.035351 -0.021512 -0.024403 -0.027101 -0.010686 0.030794 0.001694 0.001019 -0.007963 -0.004784 -0.0058 -0.024688 0.005335 -0.006527 0.003054 0.035119 0.040868 -0.006072 0.005266 0.036945 0.066105 0.037723 0.002709 0.019857 -0.036797 -0.037062 0.023218 -0.017633 0.012052 0.006039 0.024449 0.009043 -0.007755 -0.030637 -0.029226 -0.016174 0.004671 -0.007635 0.014561 0.036584 0.016739 0.024777 -0.014758 -0.007657 0.014658 0.045176 0.052705 0.052118 0.011076 0.013726 0.013956 -0.020249 0.005474 0.007355 0.026452 0.016108 -0.020891 0.026611 0.001213 -0.028566 -0.013047 0.030773 0.032497 -0.022858 -0.003303 -0.018887 0.008799 -0.018198 0.008567 0.015844 -0.0342 0.026041 -0.013392 0.015588 0.006066 0.020459 0.033088 0.033351 -0.021458 -0.017135 -0.002218 -0.014881 0.004734 -0.040943 -0.039294 0.000957 0.006949 0.028674 0.026971 -0.004798 0.034954 -0.033394 0.03214 0.023805 0.019798 0.007661 -0.022938 -0.001766 -0.028297 -0.001002 -0.002312 -0.002638 -0.01677 -0.002045 0.027583 0.011199 0.005879 0.029015 -0.040527 0.000108 0.028269 -0.015296 0.018858 0.003644 -0.01296 0.020692 -0.006267 -0.018612 -0.001734 -0.017807 -0.0054 0.016559 -0.015766 0.011003 -0.003094 -0.018131 0.014038 -0.002829 -0.036166 -0.027587 -0.036542 -0.020892 0.018382 0.01723 0.02812 -0.010381 -0.03264 -0.026462 -0.015179 0.019797 -0.036935 -0.009019 -0.003139 0.005979 0.01683 0.044159 -0.036716 -0.045279 0.014324 0.031623 -0.021564 0.007532 0.003591 0.008387 -0.042992 -0.010702 0.026436 9.5e-05 0.008575 0.031962 0.011499 -0.033437 0.000578 0.029218 0.008937 -0.032217 0.024584 -0.010771 -0.04109 -0.024022 -0.003442 0.000141 0.044687 0.028086 -0.041227 -0.01354 -0.033751 0.025479 0.010436 -0.03426 -0.000589 0.016971 0.001888 0.01417 0.035308 -0.022848 -0.020677 -0.008947 -0.006154 -0.007895 0.008481 0.020459 0.011303 0.00706 -0.016795 0.026366 -0.032999 0.013487 0.020387 0.013643 0.031542 0.006166 0.010089 0.004303 0.01568 -0.033188 0.033507 -0.031073 0.02319 0.029269 -0.037196 -0.003797 0.016919 0.0039 0.032687 -0.025054 -0.026826 0.006992 -0.013896 -0.033815 0.014872 0.009935 0.02539 -0.026743 -0.029732 -0.027242 0.007599 0.011853 0.002035 0.024039 -0.02276 -0.019823 0.011944 0.019161 -0.008015 0.022024 0.009005 0.030476 -0.008109 -0.033543 -0.032478 0.009668 -0.016542 -0.035323 -0.014715 0.031406 0.034857 -0.010955 0.005874 0.029543 0.015479 -0.028069 -0.020598 -0.003269 -0.007886 0.009012 0.025705 -0.027215 0.006276 -0.018862 -0.009664 -0.019671 0.02072 0.024129 0.029262 -0.023181 0.010598 -0.002522 0.040292 -0.005387 0.010608 -0.002438 -0.002889 0.012092 0.028699 0.039725 0.002311 0.034252 -0.01561 0.019954 -0.034997 0.010352 -0.000491 0.037579 -0.029395 -0.02328 -0.010061 0.019458 0.006697 0.024241 -0.018825 -0.026074 0.010471 -0.026382 0.022281 0.026005 -0.018638 -0.022423 0.016015 -0.004005 0.003979 0.029857 0.01915 0.00078 -0.00705 0.00039 0.016384 -0.00608 0.033252 -0.020445 0.001029 0.003526 -0.01883 -0.022564 -0.03143 0.007955 -0.002422 -0.028252 -0.020027 -0.016317 -0.016132 0.008992 0.040394 0.024849 0.029506 0.008876 0.011813 -0.021125 0.041364 0.012567 0.006645 0.03944 -0.020549 -0.020146 0.027712 -0.016986 0.037885 0.034776 0.008026 -0.003283 -0.017911 -0.001405 0.006456 0.018615 -0.012612 -0.001055 -0.027074 0.035175 0.009867 -0.020604 0.002327 0.021076 0.018879 0.023784 0.03543 -0.0146 -0.006668 -0.038312 -0.03506 0.037452 0.011498 0.010191 -0.000668 -0.02541 0.013806 -0.028336 0.035034 -0.021232 -0.039781 0.029444 -0.012726 -0.013087 -0.015504 -0.033906 0.012559 0.01219 -0.018217 0.017769 0.012827 0.017733 -0.020447 0.00419 0.007973 -0.015816 -0.006286 -0.005469 -0.011492 0.002276 0.023078 0.031912 0.031606 -0.013326 -0.018736 -0.000466 -0.031848 0.012938 -0.009492 -0.036735 0.018508 -0.012612 -0.007883 0.040053 -0.005837 -0.045164 -0.05783 -0.040959 -0.047734 -0.021178 -0.01015 0.008671 -0.028491 0.003367 0.030927 -0.02198 0.01702 0.015086 0.019866 0.030058 -0.030766 0.021235 -0.008921 0.006877 0.004371 0.016486 0.008245 0.016284 -0.030252 -0.000328 0.036301 -0.010878 -0.031675 -0.007031 -0.029495 -0.083409 -0.052048 -0.055752 -0.031134 -0.064906 -0.060305 -0.037303 -0.002074 0.023268 -0.028206 -0.019223 -0.014743 -0.018571 0.024481 -0.016454 -0.007601 -0.000993 -0.03085 -0.008055 -0.03823 -0.003239 0.032909 0.037128 0.047646 0.025836 -0.038784 -0.029075 -0.035925 -0.030163 -0.063199 -0.078467 -0.078947 -0.026788 -0.056503 0.010092 -0.003213 0.021021 -0.023049 -0.008845 0.007306 0.008739 -0.023581 0.001714 -0.013806 0.022855 0.015306 -0.003931 0.019283 -0.021495 0.015996 0.054825 0.015784 -0.012239 0.021593 -0.018293 0.03099 0.02647 -0.034674 -0.036071 -0.033019 -0.008903 -0.036777 0.003149 -0.033921 0.018281 -0.000179 -0.025331 -0.020946 0.016828 0.03643 -0.010996 -0.023264 -0.000758 -0.030859 0.035925 0.002795 -0.015905 -0.028929 0.035521 0.053383 -0.008821 0.012425 0.002458 0.005084 0.020825 0.020874 0.025037 0.003937 0.027098 0.013697 0.008182 0.005386 0.01117 0.015732 0.0233 0.031221 -0.017511 -0.003402 0.009067 0.017361 -0.032774 0.000393 -0.002219 -0.008496 -0.000313 0.000253 0.039082 -0.023016 0.014773 0.015164 -0.006141 0.019421 0.007184 -0.033006 -0.023167 -0.016122 0.000569 -0.02431 -0.018654 0.025464 0.001849 -0.007019 0.033996 0.005962 0.025126 -0.00993 0.006797 0.039541 0.029739 0.038186 -0.007688 0.002431 0.040038 -0.0026 0.038019 0.035145 -0.007131 -0.037305 0.02769 -0.032129 -0.022104 0.022567 0.014202 -0.006945 -0.004684 -0.004167 0.016818 -0.006457 -0.014127 -0.024791 0.011391 -0.013059 0.040053 -0.024021 -0.031062 0.014033 0.01832 0.006429 -0.031262 0.041863 -0.005064 0.006657 -0.004036 0.003493 0.008589 0.030518 -0.013698 0.034391 0.032997 -0.027377 0.025459 -0.028317 -0.003388 0.021626 0.012715 0.022719 -0.011131 0.004687 -0.035473 -0.026978 0.012931 -0.012131 -0.018947 -0.011465 -0.004984 0.024866 -0.019147 0.00561 0.031452 0.02528 0.01951 0.000684 0.015753 0.025156 -0.003739 -0.024813 0.025666 -0.027143 -0.031358 -0.005616 0.011003 -0.009363 -0.019441 -0.035201 0.025892 -0.01309 0.00595 0.028078 0.031853 0.018317 0.012591 0.03321 -0.013029 0.034418 -0.003472 -0.015736 0.011301 -0.024097 -0.043804 -0.044144 0.00453 -0.019379 -0.012538 -0.005706 0.032906 0.041577 -0.019679 -0.017561 -0.007495 -0.009865 -0.011765 0.025213 0.025335 0.019619 -0.011558 -0.022539 -0.015091 -0.039248 0.032057 -0.013059 -0.006385 -0.014013 0.028373 0.017301 0.022636 -0.038964 -0.002412 0.013389 -0.027844 -0.003174 0.003225 0.032139 -0.02087 -0.006797 -0.02809 -0.042205 -0.014062 0.002133 0.023864 -0.01992 0.03125 -0.023521 -0.019287 -0.030866 -0.031117 -0.025803 -0.006363 -0.03335 -0.02076 -7.4e-05 -0.033121 0.033817 -0.041482 -0.044369 -0.009701 0.005902 0.044559 0.006725 -0.00529 0.012509 -0.008979 0.013528 -0.02119 -0.005875 -0.020234 -0.01938 0.023029 -0.024213 -0.012727 0.013612 0.018161 -0.023485 -0.026824 -0.009417 0.009737 -0.005565 0.029112 0.011609 0.030561 0.02965 -0.038204 0.018273 0.025673 0.013744 0.013203 -0.005857 0.002917 -0.010383 0.006876 -0.024052 -0.035465 0.003991 -0.021973 0.031657 -0.003732 0.016223 0.012807 -0.02903 0.012735 0.030975 0.031172 0.005897 -0.033831 0.028039 0.010415 -0.021558 0.033722 -0.014196 -0.006489 0.014326 -0.003724 0.031819 0.011354 0.010264 -0.027263 -0.019853 0.026586 0.005513 0.010916 0.019098 0.027381 -0.011153 0.032974 0.031838 -0.017142 -0.018143 0.012813 0.026468 0.003554 0.040047 0.038296 0.029794 -0.018188 -0.02264 0.011884 0.034241 0.007447 0.012518 -0.011045 0.012466 -0.026698 0.029219 -0.026849 0.030566 0.027658 0.01582 -0.008555 -0.020362 -0.012292 0.014372 0.012217 0.023194 0.029122 -0.016552 -0.003335 0.012193 -0.029687 -0.001826 -0.017326 -0.02149 -0.034892 0.02221 0.037982 0.042515 0.023539 0.007681 -0.016433 0.006143 0.002011 -0.018755 -0.003163 0.024852 0.005837 0.035314 -0.01965 0.010744 0.032294 -0.030063 -0.023756 0.014266 0.020901 -0.02232 -0.017232 -0.006952 -0.016333 -0.019809 -0.01972 0.015543 -0.021412 -0.041106 -0.002495 0.034492 0.00541 -0.014614 0.028417 -0.020287 -0.007082 -0.003698 0.026888 0.015751 -0.009508 0.002239 0.029634 0.005433 -0.032464 -0.001176 0.020589 -0.016262 -0.035255 -0.027378 0.006693 0.004707 -0.012363 -0.026318 -0.015336 0.004425 0.007755 -0.041768 0.001862 0.032537 0.001425 -0.01421 -0.011229 0.001735 -0.022896 -0.002771 -0.00459 -0.012857 0.032657 0.029269 0.029798 -0.011791 -0.022904 -0.030964 -0.03122 -0.016693 0.01924 -0.010736 0.000402 -0.01411 -0.006175 0.036304 -0.021537 0.009018 0.005635 -0.008048 0.015975 0.031234 -0.004632 -0.0117 0.015952 -0.037434 0.000232 -0.012717 -0.004773 -0.034249 0.005105 0.013524 -0.035084 -0.037896 -0.021078 -0.041127 -0.012311 -0.0111 0.027565 0.012208 0.040694 0.057853 0.023405 0.038452 0.004398 -0.009538 0.017213 -0.02502 0.027869 0.016719 0.021141 0.033574 0.035797 0.008018 -0.012221 -0.030285 -0.011114 -0.032218 -0.008472 -0.019586 0.024917 -0.011562 -0.027806 0.02053 -0.009254 -0.007946 -0.001435 -0.01444 0.044794 0.050932 0.002551 0.011808 0.012494 0.001538 -0.045782 0.022465 -0.018598 0.020988 -0.008272 0.007881 0.013031 -0.00557 0.007039 -0.016565 -0.004988 0.014464 -0.044655 0.009766 0.001777 0.002998 0.003625 0.00521 -0.052635 0.011966 -0.012448 -0.01233 0.022148 0.03235 -0.004752 0.002879 0.016437 0.007041 0.01244 -0.023171 0.004237 -0.014265 -0.007133 0.034945 0.024076 -0.018281 -0.021288 0.009475 -0.037414 0.002456 0.021525 0.01442 0.011557 -0.022463 -0.022744 -0.007547 0.007199 -0.016197 -0.012501 -0.010863 0.03113 0.041797 0.009988 0.033641 0.029081 -0.007509 -0.001121 -0.028203 0.010047 0.006052 0.018872 -0.021562 0.005355 -0.004377 -0.030848 0.001503 0.021887 -0.005993 0.01667 0.008117 0.026705 -0.017382 -0.019094 0.015576 -0.021849 0.014465 -0.037687 0.022968 0.04007 -0.005706 0.003057 -0.010797 -0.001691 -0.004356 -0.043458 0.036285 0.033462 -0.021054 -0.017934 7e-06 0.011959 -0.026499 0.008257 0.026601 -0.013088 0.028423 -0.005503 -0.030438 -0.032608 -0.037977 -0.017788 -0.030588 -0.020615 0.023685 -0.00866 0.003459 0.027798 0.020061 0.036608 0.034836 0.031793 -0.017454 0.026063 -0.019726 -0.016492 0.019359 -0.024032 -0.008993 -0.036273 -0.00407 0.013488 0.009541 0.032413 0.021308 -0.017601 -0.024165 0.018081 -0.010152 -0.015865 -0.008392 0.022014 -0.035699 -0.002428 0.026561 -0.030925 -0.0242 -0.012016 0.043773 0.005037 0.032238 0.022714 -0.004464 -0.017428 -0.047275 -0.004024 0.021705 0.03056 0.026453 0.004254 0.018077 0.002085 0.01556 -0.010188 0.013996 0.034151 -0.034684 0.027245 -0.002323 0.030121 0.02294 -0.011319 0.032566 -0.027056 0.016996 -0.026252 0.02368 0.016467 -0.0008 -0.041416 -0.024671 -0.052815 -0.024988 -0.024129 -0.001481 -0.009964 0.014609 0.041099 -0.021651 -0.009715 0.042496 0.010071 0.005192 0.009282 -0.013709 0.012108 0.022083 -0.00067 0.026233 -0.015782 -0.034112 0.014214 -0.006381 0.024676 -0.044779 -0.04462 0.002259 -0.010741 -0.026738 -0.035698 -0.006091 -0.012677 0.033894 0.017969 0.021183 0.009066 0.036208 -0.011599 -0.030394 0.027602 0.004905 0.00335 -0.016549 -0.001529 -0.018036 -0.024619 0.01918 -0.018104 0.01054 0.012853 0.03674 0.055971 0.038175 -0.015684 -0.017119 0.017646 0.025362 0.000713 -0.013891 0.015724 -0.030959 -0.002304 -0.017203 0.010656 0.032121 -0.016075 -0.026396 0.023333 -0.035223 -0.02227 0.023054 -0.009617 0.003834 -0.018644 0.014391 0.026128 -0.024378 -0.009639 0.034022 -0.009782 0.036116 0.012225 0.004052 0.024522 0.028406 0.025785 0.003831 0.020903 0.026341 0.018283 -0.017373 -0.024754 -0.035498 0.017603 0.027187 -0.008191 0.020895 -0.03343 0.020344 0.002473 -0.01332 -0.008214 -0.02464 -0.018706 -0.045789 0.001697 -0.045574 -0.001865 0.03111 0.034277 0.003482 0.037521 -0.021326 0.029601 0.01819 -0.020988 -0.034318 0.004428 -0.029879 -0.007733 -0.030642 -0.004264 0.021894 0.01392 0.012625 0.005408 -0.030637 0.017328 0.02731 0.009728 -0.035676 -0.037393 -0.00583 0.003887 -0.046449 -0.01172 0.007439 -0.000603 -0.019871 0.016025 0.015656 -0.005059 -0.011379 0.024302 -0.020157 0.026408 0.011518 -0.027436 -0.02355 0.005494 -0.001124 -0.034271 -0.021407 -0.0315 -0.038515 -0.004895 -0.016618 -0.02215 -0.027035 -0.001654 -0.035378 0.015986 -0.024839 -0.007289 -0.026299 -0.012697 0.003533 -0.026053 -0.003115 0.012669 -0.002456 -0.015127 -0.008624 0.003871 -0.015621 -0.015285 -0.035703 -0.003203 0.028811 -0.024654 -0.030112 0.000607 0.014959 0.012513 -0.023595 -0.034143 0.023379 0.015576 0.005026 0.009841 -0.033224 -0.010729 -0.011356 -0.030754 0.009573 -0.010748 -0.020004 -0.03018 0.035166 -0.013583 0.040018 -0.021562 0.023949 -0.026755 0.024727 0.031549 -0.006847 -0.034089 0.015125 -0.010192 -0.028093 -0.020418 0.026331 -0.004075 -0.0108 0.01462 -0.002598 -0.008778 -0.00831 -0.010346 -0.007304 0.007678 -0.023737 -0.013633 -0.0235 0.033017 0.002495 0.005396 -0.004821 -0.008926 -0.006439 -0.022617 -0.041437 0.002972 -0.030806 -0.028931 -0.031153 0.032317 -0.009465 -0.034531 -0.017757 -0.021528 0.032432 0.023943 0.021183 0.021508 0.02342 0.023688 -0.023446 0.033399 0.025238 0.023847 0.018689 0.000984 -0.019273 -0.020287 0.042904 0.014613 -0.00934 -0.024621 -0.034811 0.030641 0.01384 -0.007674 0.001981 0.012905 -0.011606 0.007969 0.032859 0.016706 -0.025253 0.022591 -0.011488 0.029245 0.004407 0.030036 0.003853 -0.02487 -0.008986 0.012394 -0.017125 -0.029408 -0.01214 0.03467 0.023797 0.001051 -0.013381 0.004014 -0.023313 -0.018391 -0.025786 0.008977 -0.014055 -0.021634 -0.034012 -0.001414 0.030818 0.043825 0.035697 0.008987 0.022642 -0.041206 -0.045273 -0.005196 0.036682 0.004054 -0.020325 -0.020965 0.002425 0.002459 -0.021133 -0.017304 0.001873 -0.034305 0.021732 -0.025162 0.012104 0.027602 -0.022285 -0.033887 -0.028738 0.029556 0.015478 0.010494 0.017227 0.023645 0.016217 -0.008943 -0.031769 -0.013905 -0.020257 -0.026486 0.048539 0.046603 -0.028719 -0.02428 0.028739 0.024083 -0.014787 -0.022916 0.033898 -0.015395 0.022809 0.008211 0.017013 -0.027898 0.011189 0.002431 0.019504 0.031048 -0.037936 -0.01421 -0.014974 -0.021914 0.012331 0.015032 0.015464 -0.042013 0.007698 -0.019965 0.025715 0.029158 0.025788 -0.016485 -0.031831 -0.005297 0.014278 0.038683 0.02764 -0.01576 0.028692 -0.022836 -0.004755 -0.019593 0.028946 0.01344 0.023062 0.024278 0.006906 0.018533 -0.029474 0.027313 0.010418 -0.036519 -0.017206 -0.046313 0.009176 0.002161 0.018508 0.043734 0.010808 -0.000393 -0.003797 -0.037501 -0.002349 -0.010291 -0.011174 0.031602 0.018509 0.025749 -0.02214 0.025738 -0.002693 0.019925 -0.02066 0.034691 -0.005449 0.001015 -0.020303 -0.02506 0.028789 0.028971 -0.011162 -0.025554 -0.039986 0.027347 0.022658 -0.024118 -0.024357 0.002373 -0.01872 0.005615 -0.030058 0.002 0.019221 0.033781 0.000195 -0.031044 0.033516 0.017049 -0.030002 0.002443 -0.001967 0.000371 -0.026735 -0.035439 -0.019284 -0.012239 -0.014005 -0.03131 -0.030023 0.010917 0.009467 0.007443 