-0.031696 0.012337 0.010791 0.02218 -0.029967 -0.013221 -0.018867 -0.030554 0.013248 0.024614 -0.002073 -0.021403 0.029948 -0.007818 0.017004 -0.013194 0.000646 -0.034974 -0.018454 0.030808 -0.026147 -0.031129 0.028082 0.023309 0.009207 0.022964 -0.009237 -0.014831 -0.004601 -0.031437 0.023965 0.001339 -0.012315 0.001121 -0.026654 0.031584 -0.025688 -0.032312 0.017113 -0.007146 0.021547 -0.017008 0.013957 -0.036457 -0.005544 -0.000636 -0.005642 -0.004966 0.016992 -0.035302 0.034101 -0.024703 0.0308 0.012442 0.012222 -0.014934 -0.002591 -0.001004 0.030401 -0.000899 -0.013863 0.00683 0.020736 0.028596 -0.020449 0.021915 0.03525 -0.006176 0.019372 -0.015486 0.006607 -0.000307 -0.005086 -0.01776 -0.019333 -0.025356 -0.014708 -0.003946 0.009002 -0.02651 0.020953 0.004335 -0.006475 0.008842 0.034347 0.027982 -0.026537 -0.036139 0.004601 0.00613 -0.029188 0.014059 -0.022866 0.014195 -0.022523 -0.02298 -0.028378 -0.032084 -0.010315 -0.013407 -0.00234 -0.027099 0.028454 -0.012405 0.030201 -0.024242 0.030662 0.010242 0.033769 0.031147 -0.026141 0.011276 -0.020144 -0.013613 0.008874 -0.010554 0.023199 0.030126 -0.020245 0.011351 -0.004757 0.013586 0.033575 -0.030386 0.000611 0.013163 -0.014706 0.027146 -0.023657 0.009823 -0.034686 0.012775 -0.027843 -0.002982 0.029569 -0.017789 -0.028222 -0.021539 0.002519 -0.021097 -0.012187 0.010691 -0.000675 -0.023612 -0.013662 0.012415 -0.036506 -0.011954 -0.018245 0.008903 -0.029345 0.025494 7.8e-05 -0.012411 -0.031374 -0.027896 -0.010955 -0.035026 0.008531 0.030518 0.008278 -0.004931 0.017226 0.031168 0.030578 -0.033915 0.019185 0.004276 -0.025496 0.025606 -0.003127 -0.020163 0.02429 0.0109 0.035486 0.008803 -0.028781 -0.01232 0.02814 -0.029542 0.006434 -0.022187 0.020996 -0.023044 0.002041 -0.004895 -0.016321 0.023932 -0.01532 -0.026669 0.027125 0.002198 0.002463 0.007301 -0.015365 -0.027744 -0.022527 0.021086 0.015293 -0.023001 0.021734 -0.036111 0.017609 0.032044 0.022358 0.009679 0.009126 0.027606 -0.024069 0.025955 0.013673 0.030686 -0.029891 0.012279 0.013779 -0.007544 -0.029159 -0.020742 0.012901 0.021143 -0.027857 -0.013373 -0.037956 0.008016 0.002668 0.01253 -0.024464 -0.017624 0.020102 -0.002512 0.00926 -0.027986 0.030823 -0.024611 0.007589 -0.018048 0.03205 0.000434 -0.018451 -0.019501 -0.015693 -0.030675 0.00542 -0.011274 -0.025594 -0.035 -0.02984 -0.028697 -0.015251 0.025759 0.027222 -0.022433 -0.027312 0.024838 0.006995 0.020649 0.02683 -0.011594 0.030899 -0.015925 -0.003914 0.00245 -0.006613 -0.042491 0.028168 -0.006597 -0.014035 0.015279 0.007795 -0.019492 0.019114 -0.025519 0.037215 0.015829 -0.009938 0.030062 0.017454 -0.011587 0.01172 -0.027616 -0.030367 -0.008213 -0.009618 -0.002927 -0.019904 0.016009 0.033938 -0.027559 -0.033767 -0.010143 0.015648 -0.034322 0.017787 -0.017447 -0.012526 -0.00924 0.026783 -0.008602 -0.031315 0.002039 -0.034156 0.024049 0.029865 0.032676 0.009987 0.023514 -0.029427 -0.021888 -0.023412 0.014036 -0.033872 0.002444 0.021979 0.010475 0.013996 -0.002571 -0.02425 0.03443 -0.039454 -0.020155 0.005108 0.009366 0.028354 -0.016765 0.014767 -0.015611 -0.028833 0.023635 -0.005517 0.014869 -0.007978 0.02692 -0.018677 -0.033564 -0.018605 0.011687 -0.008725 -0.008974 -0.026504 -0.023428 -0.035536 -0.021351 0.029013 0.005886 0.021508 -0.021613 -0.005436 0.015279 -0.025814 0.00335 0.009802 0.028866 0.010637 0.011958 0.00641 0.014784 0.010748 -0.004602 -0.013502 0.031282 0.030412 0.031485 0.007243 0.002135 -0.035398 0.016462 0.001484 0.019895 0.013739 0.018134 -0.03147 0.02486 -0.01847 0.006533 0.007695 0.025844 0.034228 0.042806 0.010534 0.015382 0.019584 0.025845 0.028477 0.035417 -0.017179 0.033694 0.023524 0.011576 -0.002064 0.004741 -0.033906 0.034034 0.031658 -0.020627 0.040308 0.033979 0.043368 0.011586 -0.047966 -0.067947 -0.046474 0.011396 -0.004364 -0.026443 -0.038974 0.020464 0.002543 0.012387 -0.032727 -0.033389 0.019845 0.00081 0.006821 0.019023 0.017338 0.013254 -0.024536 -0.02842 0.033588 0.01037 0.001567 0.051409 0.059586 0.082524 0.057274 0.03585 -0.047838 -0.075876 -0.056974 -0.012522 0.015901 -0.032559 -0.005254 -0.028887 0.014841 -0.001315 0.026047 -0.025885 -0.031841 0.005005 -0.032284 0.026922 -0.010312 -0.028128 0.01283 0.009041 0.009797 0.038721 0.016347 0.052217 0.062743 0.062834 0.02194 -0.00109 -0.046155 -0.016892 -0.036278 -0.030794 0.01111 0.020307 0.02059 -0.032265 -0.007559 0.028269 0.016073 -0.025155 0.033629 -0.018547 -0.023173 -0.023391 0.011193 -0.001363 -0.032 0.008711 0.005983 0.045112 0.040259 0.023788 0.056266 -0.002559 -0.004514 -0.052621 -0.044222 -0.02529 0.009769 -0.027947 -0.02931 0.014186 0.008684 -0.01629 0.011528 0.013942 0.006317 0.013217 0.007536 0.033691 -0.025928 -0.029003 -0.036827 0.024269 -0.001537 -0.018009 0.012311 -0.006123 -0.027028 -0.010428 0.010882 -0.003255 -0.008927 -0.026876 -0.033238 -0.036378 0.014597 -0.017303 0.041836 0.028868 0.0221 0.033168 0.021027 -0.001556 0.00698 0.007491 -0.067028 -0.076129 -0.027907 -0.061709 -0.036492 -0.048127 -0.03271 -0.00848 -0.011113 0.012127 0.028582 0.004077 0.015386 -0.011889 0.021906 -0.036978 0.000399 0.020969 -0.028707 0.017602 -0.010251 -0.009434 0.038579 -0.014 -0.044792 -0.043289 0.004686 0.006112 0.009689 -0.001596 -0.045255 0.004138 -0.009924 -0.023408 -0.028232 0.011176 -0.00847 0.018004 0.011834 0.02491 -0.017479 -0.01565 0.014098 -0.021644 -0.020831 0.03358 -0.008168 0.008559 -0.012177 0.016718 0.001468 0.022838 -0.027366 0.01012 0.030347 0.028373 0.045884 0.03086 0.037852 0.019777 0.037726 -0.008681 0.018413 -0.03125 0.011921 0.032535 0.011467 0.03202 0.02478 -0.002438 0.030183 0.00173 -0.033559 -0.032138 0.005561 0.007126 -0.027805 0.016076 0.025182 0.023692 0.006977 0.001352 -0.033333 -0.020254 -0.016561 -0.009844 0.013738 0.044343 -0.010105 0.009299 0.01801 0.028527 -0.030299 -0.027854 0.016426 -0.008744 -0.006704 -0.001519 -0.028447 -0.01007 0.017021 -0.033192 0.005213 0.001164 0.017942 -0.024902 -0.022257 0.013773 -0.015993 0.023554 0.018411 0.026017 -0.016592 0.001951 -0.031645 -0.016889 -0.014005 0.031578 0.020361 -0.02931 -0.03028 -0.004332 -0.005877 0.027801 0.016531 -0.013585 -0.032431 -0.020704 -0.025121 -0.01344 -0.021086 0.014559 0.021427 0.020943 -0.01547 -0.021839 -0.029415 -0.030158 -0.017086 -0.029349 -0.005052 0.026856 -0.007483 0.00377 -0.023996 -0.005629 -0.016974 0.022331 -0.001436 -0.005632 0.009594 -0.011866 0.009098 -0.04216 -0.028199 0.006218 -0.001299 -0.017883 0.025001 -0.002692 -0.017901 -0.033155 -0.033441 0.02002 -0.009185 -0.02609 0.020235 0.026032 -0.01547 0.022279 -0.034878 0.004253 0.017143 -0.020318 -0.002805 0.029047 -0.007636 -0.005483 0.024548 -0.035308 -0.005447 -0.016781 0.008168 0.017745 -0.031071 0.016446 -0.001375 0.024801 -0.002409 -5e-06 -0.011245 -0.006309 -0.031479 0.022557 -0.002177 -0.025142 -0.020815 0.033276 0.012154 0.033117 -0.014823 -0.023292 0.029826 -0.022423 0.002102 0.03046 -0.004723 0.015012 -0.001105 -0.007246 -0.031379 0.027384 -0.022305 -0.017701 -0.024556 0.000115 0.003286 -0.036402 -0.007624 0.01655 0.003015 -0.002315 0.024388 -0.022974 -0.028919 0.0177 0.032985 0.016041 -0.000102 0.017637 -0.032972 -0.0247 -0.023453 -0.012257 0.009231 0.016463 -0.014816 -0.025833 -0.008878 -0.01444 0.035454 0.025844 -0.024287 0.013954 -0.002487 -0.027483 0.022634 -0.018075 0.006265 0.027969 0.003716 0.034288 0.003914 -0.020502 -0.014477 0.031441 0.015552 0.005705 -0.010871 -0.017593 -0.002824 0.026309 -0.046046 -0.049337 -0.036701 0.027311 -0.013304 -0.00396 -0.004253 0.026021 0.028896 -0.017907 -0.01041 -0.000957 0.016065 -0.035927 -0.009154 -0.013778 0.025583 -0.036375 -0.042444 -0.011353 -0.059894 -0.058144 -0.05788 -0.059189 0.021817 0.001891 0.037705 0.002557 -0.008112 -0.018966 -0.01141 0.027302 -0.032694 0.006037 -0.000281 -0.016957 0.017943 -0.002861 -0.021272 -0.012493 -0.010824 -0.016438 -0.033445 0.019079 0.012062 -0.022344 -0.015974 -0.002578 -0.058475 -0.050272 -0.042887 0.012565 0.009763 -0.001758 0.024002 -0.007768 0.014386 -0.018683 -0.030849 -0.033999 0.030134 0.025791 -0.0358 -0.024143 -0.002394 -0.02012 -0.018973 0.030677 -0.043321 0.019192 -0.021873 -0.046429 -0.022005 -0.047126 -0.052627 -0.032716 0.016863 -0.010444 -0.004618 0.000746 -0.003355 0.03098 0.018726 -0.032157 0.012993 -0.017295 -0.040175 -0.026264 0.01059 -0.012573 -0.025574 0.034207 0.008848 0.026055 -0.025568 -0.00709 0.02191 -0.021422 0.008416 0.007293 -0.029911 -0.034369 0.0032 -0.014572 -0.000151 0.035171 0.030355 -0.035904 -1.8e-05 0.017891 0.028975 -0.026755 -0.023494 -0.028576 0.010467 -0.031618 0.019563 0.008587 0.010602 -0.007962 -0.002516 0.002642 -0.041697 0.017517 0.012877 0.002181 0.027563 0.037281 -0.028479 0.019289 1e-06 -0.029257 -0.008626 0.026459 0.018753 -0.03272 -0.026939 -0.02943 -0.012993 -0.036042 -0.022393 -0.031007 0.026122 -0.028165 0.015564 -0.024468 0.031787 0.010551 0.011004 0.016454 -0.024255 -0.04637 -0.035727 -0.009269 -0.00975 0.020977 0.010413 -0.026829 0.029674 -0.022888 -0.024728 -0.025799 0.002881 0.022538 0.021857 -0.025655 -0.024696 0.012867 0.00494 -0.020807 0.031098 -0.010056 0.001227 0.011781 0.036468 0.019839 0.030357 -0.037669 -0.057319 -0.059972 -0.007872 -0.032574 -0.032156 0.025122 -0.033675 0.015933 -0.027491 0.017879 -0.03075 0.031916 0.010273 -0.02717 -0.022651 -0.022413 0.014298 -0.035158 0.019066 -0.028407 0.034633 -0.002354 0.020367 -0.018956 0.006826 0.028833 0.013808 -0.014824 -0.017699 -0.001943 -0.016531 -0.019729 -0.008151 0.032162 -0.011415 -0.007588 0.020853 0.031367 -0.009617 0.004505 0.018861 -0.010359 0.010768 -0.017458 0.000986 -0.018132 0.005734 0.021607 -0.007296 0.02566 0.034812 0.030603 0.01693 0.026734 -0.002551 0.023759 -0.008747 -0.049813 -0.004068 -0.01138 0.015012 -0.017403 0.022927 -0.025568 0.00117 -0.014856 -0.024716 -0.008965 0.027443 0.018182 0.007572 0.012525 0.000297 -0.000362 -0.032813 -0.034277 -0.016881 -0.022116 -0.029815 -0.015092 0.017312 0.04479 0.025539 0.017772 -0.024725 0.034718 -0.033772 0.014979 0.023208 0.009324 -0.001825 0.024533 0.003872 -0.005279 -0.005285 0.022679 -0.001563 0.004939 0.031902 0.02954 -0.018208 0.024212 0.023113 -0.04043 -0.002382 -0.030431 0.00343 0.015787 0.041645 0.015461 0.007291 0.011109 0.011549 0.008257 0.034378 0.033447 -0.015358 0.018208 0.008761 -0.02634 -0.012909 0.029005 0.023057 0.019301 -0.013487 -0.008514 0.025981 -0.006514 -0.027294 0.028605 -0.032566 0.021001 0.006629 -0.038806 -0.026891 0.006789 0.018928 0.001979 0.010006 -0.031071 0.02011 0.027986 -0.027536 -0.024673 0.017998 0.033166 0.005937 -0.039462 -0.015511 -0.031049 -0.025967 -0.022796 0.012197 0.010968 0.02164 0.020208 -0.02116 0.025811 -0.039186 -0.009023 -0.019948 -0.00331 -0.007521 0.022223 0.022925 -0.004938 0.030292 0.029092 -0.032992 -0.027511 0.004105 0.01228 0.012275 -0.032142 -0.0242 -0.011924 0.008637 -0.01972 -0.023498 0.017303 -0.003516 0.010819 -0.007291 0.012182 -0.014367 0.008167 -0.03366 -0.038876 0.010156 -0.030777 0.009546 0.025532 -0.024651 -0.002841 -0.00908 -0.002117 -0.052487 0.009243 -0.021849 -0.027571 0.031216 0.030103 0.038036 -0.011563 -0.012435 -0.01407 -0.032206 -0.021213 -0.009598 -0.026624 0.026178 -0.026434 -0.017763 0.025543 -0.02541 0.019092 -0.024462 -0.006209 0.025689 0.0051 0.036225 0.002514 -0.024436 -0.042958 0.016879 -0.024614 -0.017374 0.057752 -0.001795 0.012041 0.022614 -0.043681 -0.026535 -0.044331 -0.005981 -0.029632 -0.044494 0.021605 -0.004904 -0.004616 0.001438 -0.011173 0.016575 0.009468 0.031724 0.000379 -0.021964 -0.012169 -0.032155 0.005773 0.026824 -0.033595 0.047359 0.0663 0.062029 0.048759 0.04214 -0.013491 -0.058295 0.009038 -0.044065 -0.007471 0.019325 -0.015478 0.012288 0.015168 0.0169 -0.034678 -0.024666 -0.021659 -0.026373 0.023573 0.014108 0.004964 0.002474 -0.019426 0.024543 -0.016963 0.043362 -0.005431 0.031598 0.054229 0.047077 -0.000655 0.016442 -0.063932 -0.014965 -0.007369 -0.021831 -0.009553 0.023235 -0.016574 0.027786 -0.029472 7.5e-05 -0.02556 0.011984 -0.009372 -0.002655 -0.006318 0.007286 -0.030808 -0.000471 -0.016061 0.002591 -0.02389 0.028652 -0.008878 0.020243 0.027768 -0.019283 0.003846 -0.0165 0.004303 -0.036579 -0.012789 0.005923 0.019345 -0.026795 -0.014915 -0.014393 0.018742 -0.033456 -0.0085 0.005786 0.020864 -0.010947 0.031548 -0.032704 -0.012635 -0.047724 -0.011554 0.030281 0.037905 -0.002479 0.056148 0.016412 -0.0128 0.020151 0.003652 0.001043 0.031789 -0.000414 0.0293 -0.030813 0.015509 0.020983 0.007005 -0.031176 0.033389 -0.023961 0.009354 0.010647 0.001517 -0.004815 0.013508 0.005363 -0.029324 -0.064886 -0.018977 0.022538 0.055208 0.038429 0.043113 0.028064 -0.025039 0.010607 -0.002474 0.00838 0.015695 -0.005949 -0.000998 -0.029401 -0.018194 -0.019053 -0.006859 -0.016341 0.014685 0.017008 0.001023 -0.013818 0.052407 0.007311 -0.036263 -0.037216 -0.065337 -0.001519 0.023099 0.032508 0.025129 0.025261 -0.018463 -0.036678 -0.033198 -0.012112 -0.010488 0.013529 -0.02209 0.010875 0.016652 0.015195 -0.000191 0.029075 0.028522 -0.024218 0.031872 0.026128 -0.030264 -0.014848 0.014481 0.030847 -0.028589 -0.013495 -0.002783 0.017615 -0.00962 -0.013405 0.038224 -0.026414 -0.040495 -0.020026 -0.026636 -0.020932 -0.010713 0.00387 0.019402 -0.032753 0.015937 0.016634 -0.008969 -0.033923 -0.004882 0.042051 0.001821 0.012631 0.019036 0.02196 -0.024966 -0.015746 -0.028921 0.028221 -0.031326 -0.02655 0.020338 0.031338 -0.012926 -0.010907 -0.009764 -0.026722 -0.0331 -0.011927 -0.054222 -0.040295 -0.039747 0.005884 0.036047 -0.038351 -0.013976 -0.014094 -0.020392 -0.011532 0.024773 0.040083 -0.01346 0.01576 -0.016299 0.004413 0.040724 0.029661 -0.00088 -0.017272 0.026281 0.030725 -0.026237 0.032051 -0.024016 -0.033404 -0.03773 -0.048224 -0.011433 -0.048356 -0.019609 0.000799 0.043128 0.038312 0.03401 0.021573 -0.020092 0.014645 -0.025764 0.006808 -0.019768 0.037679 -0.004142 0.027075 -0.005019 -0.002034 0.00197 0.015143 -0.031319 -0.002733 0.010458 -0.001918 -0.022222 0.006843 -0.043259 -0.022313 -0.012423 -0.015307 -0.009165 0.030397 0.030828 0.029847 0.006524 0.017497 -0.007339 0.028202 -0.019213 -0.037507 0.016529 0.010267 0.029126 0.011952 -0.000539 -0.012922 0.031045 0.016168 -0.016954 -0.01457 0.021297 0.018754 -0.035444 -0.011842 -0.047031 -0.028809 -0.052059 0.014496 -0.002326 0.023453 0.026553 0.024179 0.004902 0.008666 -0.010079 -0.020153 0.004441 -0.001863 0.01956 0.013117 -0.023389 0.019077 0.031991 -0.03331 -0.023252 0.020544 -0.025227 -0.020723 -0.015633 0.018997 0.02071 -0.030636 -0.019891 0.004469 0.008393 0.017277 0.011371 0.009698 -0.031714 0.012878 -0.001703 0.03135 0.002775 0.032603 0.021167 0.033983 0.019615 -0.008449 0.048647 0.037088 0.006432 0.020096 0.066162 0.080924 0.062259 0.03873 -0.020042 -0.018552 -0.010873 0.017659 -0.003448 -0.02834 -0.012371 0.022768 -0.013846 -0.026595 -0.030672 0.031697 -0.025846 -0.017284 -0.022298 0.034821 0.026143 -0.003555 0.037171 0.061272 0.036778 0.040779 0.05911 0.044988 0.083817 0.051892 0.096384 0.055723 -0.006671 -0.013044 -0.038507 0.020851 0.018776 0.018257 0.027225 -0.032538 0.028926 -0.026696 0.005743 0.028971 0.012388 0.007351 -0.009441 -0.010016 -0.009171 0.034897 0.011545 0.017072 0.025754 0.040174 0.079801 0.080099 0.057884 0.027598 0.031669 0.025797 0.01355 0.01278 -0.028801 -0.04042 0.030161 -0.020001 0.019504 -0.000273 0.002122 -0.018828 -0.023153 0.02237 0.022252 -0.010584 -0.009015 -0.00424 -0.004479 0.008324 -0.003017 -0.017693 -0.008121 0.001006 0.002946 0.031559 -0.008527 -0.037194 0.002144 -0.028213 -0.029712 -0.014081 0.005646 -0.027879 0.003669 0.019074 -0.00337 -0.006898 -0.038239 -0.023647 0.028994 0.022852 -0.018785 0.029215 -0.006893 0.013348 -0.013962 0.01799 0.013526 0.026261 -0.011482 0.009405 0.001621 -0.012019 -0.027433 -0.004089 -0.029229 -0.018172 -0.003662 0.010689 -0.009826 -0.020325 -0.005719 0.003439 -0.030347 -0.011372 0.025857 -0.036686 0.001379 0.030916 0.023975 0.024959 -0.008608 -0.020138 -0.037256 8.5e-05 0.025014 -0.010672 0.029918 0.016559 -0.024661 -0.008565 0.027098 -0.020107 -0.02806 0.030678 0.00016 0.011298 -0.018963 0.017428 0.006962 0.030968 0.019694 -0.021806 0.031467 0.020557 0.036813 0.027468 -0.010498 0.031666 0.017502 0.009425 0.006137 -0.002812 0.004441 0.023072 -0.002173 0.019595 0.015628 -0.000897 -0.011321 -0.038046 0.02695 0.031009 0.01835 0.023778 0.003581 -0.012417 0.019412 0.021239 -0.022047 -0.003374 0.023503 -0.01147 -0.001965 -0.00704 0.030306 0.011714 -0.007819 0.010619 -0.016266 -0.02608 -0.011585 -0.023123 0.026538 -0.004062 -0.009558 -0.00571 -0.001241 0.008593 -0.02065 0.003388 -0.024174 0.002153 0.004639 -0.017373 0.025615 -0.006378 -0.003826 -0.025211 -0.021255 0.017735 0.032832 -0.010306 0.004856 -0.024931 0.026928 -0.002891 0.005993 0.012853 0.040781 0.026336 0.003913 0.01961 0.024244 -0.002886 0.014748 -0.010361 0.008269 -0.017392 0.013421 0.031055 0.02094 0.019845 -0.00923 -0.015078 -0.024752 -0.033875 -0.014556 -0.019108 0.001907 -0.021772 0.016355 -0.010385 -0.016804 0.003193 0.02487 -0.007032 -0.015769 -0.025022 -0.017915 -0.022376 0.037576 0.016466 0.002793 0.003265 0.006364 0.004703 0.001419 0.021599 0.04482 0.011956 0.050831 -0.003157 -0.007726 -0.024717 -0.020751 0.019242 -0.007991 0.03881 -0.021086 -0.004536 0.015562 -0.016632 0.006516 -0.024432 0.022817 0.033286 0.0119 -0.020171 0.013857 0.017603 0.037027 0.00164 0.040683 0.030838 0.01406 0.005748 0.063178 0.062081 0.036815 -0.017685 -0.018358 -0.039506 -0.029039 -0.008875 -0.01877 0.011445 0.033536 0.01335 -0.007639 0.031087 -0.019539 0.003969 -0.024636 -0.025767 0.018475 0.032919 -0.026932 0.001912 0.008903 -0.007572 -0.002228 0.0367 0.020835 0.025744 0.035386 -0.009448 0.028346 0.005439 -0.031861 -0.038054 -0.037084 0.032878 0.02919 -0.021355 -0.002215 -0.007118 0.005277 0.013506 0.009158 0.00144 0.03505 0.016793 -0.016643 0.006412 0.029001 0.005229 -0.004428 0.035342 0.006269 0.024695 -0.003292 0.012739 -0.034406 -0.03209 -0.03463 -0.034898 -0.02831 0.019061 0.02848 -0.031103 -0.00533 -0.003622 -0.033308 -0.028897 0.026568 0.003106 0.019087 0.005846 0.007135 -0.004852 -0.036574 0.018133 -0.028717 -0.010254 0.002647 -0.024842 -0.027196 -0.031847 0.000507 -0.02058 -0.025072 -0.018203 0.002241 -0.008491 -0.015132 0.023732 -0.007029 -0.017625 -0.027508 0.031361 0.032881 0.03693 0.035167 0.018394 -0.02483 -0.028215 0.020382 -0.022613 -0.017095 0.035971 0.00899 0.017541 -0.005322 -0.019194 -0.001317 -0.033052 0.00316 -0.022259 -0.015307 0.031056 -0.025214 0.018086 0.024237 -0.004089 -0.0102 -0.016652 -0.010754 0.022108 0.002675 -0.02284 0.007092 0.031035 -0.019949 -0.031705 0.020912 0.012056 0.030502 0.01107 -0.011067 0.01084 -0.044788 -0.003577 -0.021797 0.012532 0.007726 0.008971 -0.027276 -0.018919 -0.023553 -0.017068 0.022173 0.011764 -0.006559 -0.00899 -0.031582 -0.012991 -0.023397 0.034276 -0.029553 0.022412 0.0033 -0.006952 -0.004278 0.028198 -0.008575 -0.024744 -0.039089 0.012404 0.014304 0.014876 0.010665 0.010875 -0.005534 -0.033487 -0.020065 -0.030797 -0.024167 0.001556 0.000732 -0.002492 0.007247 -0.030825 -0.016318 0.027604 0.031695 0.020538 -0.03092 0.004576 0.005089 0.022547 0.001932 0.032054 0.031795 -0.016999 -0.022778 0.010094 -0.008954 -0.011622 0.000307 -0.033719 0.004012 -0.021375 0.000944 0.026173 -0.027496 0.033937 -0.02068 -0.000518 -0.008303 0.034599 -0.007385 0.009465 -4.6e-05 -0.03207 0.030598 -0.025547 -0.005985 0.011296 0.018904 0.006746 -0.035618 0.018849 0.026026 -0.009637 -0.023103 -0.006812 -0.018624 -0.013459 -0.02272 -0.020031 0.024766 0.03055 0.025304 -0.018199 -0.001363 0.031019 -0.032103 0.035365 0.030637 -0.017888 0.028847 -0.022295 -0.030932 0.025056 0.00511 -0.015641 -0.010641 0.003982 -0.017866 -0.014844 0.010376 0.005748 -0.020811 0.017703 0.034205 -0.026465 0.02294 -0.024895 -0.03469 -0.00022 -0.006128 -0.010737 -0.015819 0.024428 -0.023157 0.014618 -0.033304 0.0398 0.003691 -0.017186 0.041081 0.020672 0.000868 0.006033 0.0225 -0.00103 0.028797 0.007648 -0.003501 -0.009784 0.015081 -0.017632 -0.025161 -0.032855 -0.023719 0.026427 0.024863 0.019629 -0.017212 0.024978 -0.023638 -0.027028 -0.019211 0.029916 -0.011725 -0.010681 -0.017088 -0.016211 0.030753 0.034238 0.022231 0.024718 -0.003727 -0.021406 -0.001028 0.026867 -0.012229 0.024954 0.019786 -0.021132 -0.01951 -0.032863 -0.032939 -0.017338 -0.025165 -0.018995 -0.034106 0.016909 -0.012554 0.008538 -0.007248 0.028639 -0.033272 -0.02076 -0.013662 0.024543 -0.015472 -0.018239 -0.006384 0.028787 0.010412 -0.009415 -0.02287 -0.029435 -0.014546 0.01542 0.007653 0.001258 -0.033298 -0.004399 0.025695 0.022361 0.017459 -0.013862 0.026667 -0.025432 -0.010086 -0.027966 -0.021514 0.028617 0.001985 0.030784 -0.022714 0.006234 0.017437 0.012109 0.019933 0.026994 -0.012755 -0.010626 0.012565 0.020938 -0.019932 -0.016435 -0.006955 -0.025431 -0.004348 0.032218 -0.010099 -0.022446 -0.022078 -0.022032 0.012609 -0.008332 0.022054 0.01704 0.005582 0.001121 0.031594 0.00322 0.019306 -0.032695 -0.021325 -0.004875 -0.035229 -0.034901 0.011721 -0.015972 0.008904 -0.015453 0.015101 0.024917 0.01504 -0.01962 -0.00402 0.015525 -0.005391 0.039837 0.023501 -0.008088 0.008768 -0.005698 0.009604 0.024216 -0.030695 -0.023308 0.033451 -0.027498 -0.000435 0.020299 0.007545 0.011218 -0.00398 -0.029847 0.014168 -0.026529 0.034226 0.012457 0.017095 -0.005648 0.00719 0.006879 0.034698 0.00376 0.037832 -0.020237 0.027566 -0.016521 -0.006293 -0.028615 0.008765 -0.009052 -0.022503 -0.006914 0.026483 -0.014321 0.021703 -0.00226 -0.032877 0.002072 -0.005232 0.037006 0.017063 0.043973 0.041838 0.007019 -0.020797 -0.024432 0.022487 0.026559 0.00157 0.032052 0.018284 0.000905 -0.03445 0.004131 -0.004591 -0.020418 0.031813 -0.005157 0.01665 0.009125 0.021071 -0.005267 0.023997 0.033728 -0.012161 0.037221 0.016741 -0.021299 0.02331 0.034414 0.04348 -0.031124 0.025703 -0.005549 -0.015786 -0.020573 -0.005263 0.038223 0.038726 -0.006145 -0.002209 0.037668 0.009391 0.029153 0.002264 -0.026962 0.027624 0.009646 -0.007698 -0.020468 -0.045608 -0.030796 -0.040075 -0.033011 -0.004058 0.009705 0.027079 0.004856 0.010205 -0.023438 0.014199 -0.033349 0.020736 -0.033312 0.01015 -0.02239 0.023831 -0.032022 0.000301 -0.009899 0.013666 0.007416 -0.011323 8e-05 0.025246 0.021124 -0.045929 0.007326 -0.027027 -0.016431 -0.038181 -0.020537 0.03026 0.025086 -0.016071 -0.0139 -0.015167 0.005457 0.003048 -0.009621 -0.018731 -0.020285 -0.010189 0.018345 -0.019996 0.010881 0.036911 -0.021459 -0.008638 -0.015953 -0.00161 -0.018917 -0.037807 0.005184 -0.015683 0.00557 -0.024721 0.01873 0.023298 0.024209 -0.023238 0.020223 -0.025512 0.008689 -0.011717 -0.010038 0.023534 -0.002483 -0.029961 -0.032163 -0.025578 0.033347 0.001854 -0.005336 0.024574 0.009087 -0.000453 -0.008132 -0.022777 -0.046253 -0.038152 -0.028194 -0.031253 0.019254 -0.02414 -0.007382 -0.007519 -0.01765 0.027216 0.018256 0.009417 0.034553 -0.018066 0.027996 -0.009625 0.018436 0.013533 0.006982 -0.006561 0.023226 0.012357 -0.026398 0.029558 -0.008223 -0.025587 -0.035987 0.011662 0.003996 0.040549 -0.023813 0.021724 -0.018828 0.017494 0.001122 -0.034248 -0.001622 -0.02028 -0.000505 -0.008401 0.003312 0.033865 0.014181 0.037994 0.039402 0.00699 -0.027304 -0.023765 -0.033012 0.008393 -0.023989 -0.011188 0.01476 0.03305 -0.0156 -0.03047 -0.007287 -0.004223 0.001907 -0.005848 0.020112 -0.026285 -0.004619 -0.014321 -0.011059 -0.020273 0.033279 -0.022094 0.021221 -0.027918 -0.006128 -0.007898 -0.01785 0.033168 -0.009673 -0.033299 -0.021522 -0.010871 -0.010363 0.020599 0.018326 -0.024215 0.01977 -0.021102 -0.009844 0.03095 0.024937 0.024337 0.007869 -0.005256 0.008182 -0.033569 0.027562 0.032109 0.022577 -0.005515 0.019412 -0.014805 0.01925 -0.004678 -0.025014 0.032225 -0.005793 -0.001904 0.018959 0.006814 0.014688 0.031894 -0.01326 0.002575 0.01439 -0.006135 0.020826 -0.013052 -0.028436 -0.032049 0.023937 0.011986 -0.009151 -0.031491 -0.024715 0.018952 0.006401 0.019241 0.017622 -0.012274 -0.005511 0.031081 0.021549 -0.006137 -0.033729 -0.038231 -0.014554 -0.000292 -0.018459 -0.032877 -0.023799 -0.014218 0.037019 -0.032989 0.013083 0.003786 0.026339 0.016395 -0.009898 -0.014233 0.025024 0.00362 -0.019476 -0.020011 0.027206 0.030539 -0.018708 0.020337 0.016251 -0.005225 0.019987 -0.008264 -0.005947 -0.028043 0.009645 0.006527 -0.00798 -0.006926 -0.017798 0.019756 0.036267 0.017149 -0.007722 -0.000562 0.038523 0.00415 -0.018922 0.003194 0.022009 -0.031508 0.029743 0.024228 0.026367 -0.02367 0.002161 -0.010489 -0.006491 0.021689 -0.008268 0.037969 0.033392 0.030821 0.009906 -0.013732 0.029755 -0.006406 0.023349 -0.017141 0.008332 -0.008617 0.016685 0.024827 -0.008581 -0.027358 -0.0268 -0.026334 0.015402 -0.027977 -0.008396 -0.023881 -0.002297 -0.027578 -0.017094 -0.013261 -0.004467 0.008093 -0.012682 -0.003998 -0.008535 -0.000401 -0.001058 0.006356 0.0126 0.006753 -0.004871 -0.025709 0.019468 0.036935 0.035966 -0.002691 0.006001 -0.03851 -0.023595 -0.027477 -0.047266 -0.031369 -0.008404 0.017867 0.020882 0.033177 -0.006651 0.038759 -0.008008 -0.025405 -0.027765 0.00765 0.030032 0.026862 0.00471 -0.025993 -0.016987 0.006071 0.007319 -0.01893 -0.004373 -0.029569 -0.018953 -0.004092 -0.010218 -0.015302 -0.041054 -0.033063 -0.014245 0.001597 0.020302 0.033513 -0.020089 0.039026 0.040389 0.018089 0.02659 -0.02655 0.021135 0.014702 0.0057 0.012525 0.001673 0.003191 0.003537 -0.023451 -0.006887 -0.021963 -0.024661 -0.03277 0.026921 -0.02193 0.004271 -0.037205 -0.031991 -0.001934 0.003975 0.029091 0.006863 -0.031199 -0.008489 -0.012929 -0.014638 0.018015 -0.013804 -0.025973 0.003432 -0.034736 0.033986 0.000755 0.029222 0.02308 -0.03958 -0.010493 0.018435 -0.0214 0.008626 0.001685 -0.017392 0.029018 0.002972 -0.008284 0.031389 0.028964 0.017148 -0.035041 0.011323 -0.019792 -0.010904 0.016275 0.006858 -0.010842 -0.029975 -0.00383 -0.002486 -0.023609 -0.013435 0.005076 -0.007336 0.013257 -0.019801 -0.016788 0.015254 0.028975 0.025258 0.001048 0.017297 -0.02701 -0.027992 -0.015595 0.000654 -0.020005 -0.016556 0.030503 0.030345 -0.012396 -0.011407 0.029646 0.028095 -0.035128 0.033143 0.032338 -0.017922 -0.0286 -0.012154 0.016805 0.014372 -0.022414 -0.011425 -0.020982 0.003678 0.014107 0.02699 -0.017162 0.023981 0.035435 -0.005401 0.023251 -0.0026 -0.002711 0.008807 -0.016366 -0.033638 -0.006349 -0.021921 -0.007835 -0.032398 -0.03179 0.008698 0.032621 -0.00834 0.004002 0.009161 0.005011 0.01833 0.013319 0.000691 -0.018368 0.026142 -0.004505 0.013928 -0.01841 0.022273 0.023865 -0.032828 -0.023783 -0.004382 0.009182 0.001981 -0.025824 -0.024443 -0.021392 -0.008563 -0.003088 0.001574 -0.034706 0.004506 -0.009188 -0.003164 -0.006596 0.003043 -0.033028 -0.009427 -0.011501 0.026 0.03277 -0.001328 0.023461 -0.018189 -0.008304 0.021354 -0.029691 0.037733 0.002834 0.035105 -0.006842 0.004361 -0.013101 0.021738 0.011634 -0.026704 -0.017219 0.026108 0.0193 -0.010353 0.012943 0.018769 0.035536 0.031867 -0.021712 0.016162 -0.027182 0.010675 -0.014738 -0.003249 0.023867 0.018928 -0.008567 -0.026275 -0.006434 0.01163 -0.021353 0.027116 -0.033112 0.028549 -0.020971 -0.019837 0.03119 0.033703 0.000339 -0.034779 0.016762 -0.013933 -0.019271 -0.004798 -0.02468 -0.009678 0.019554 0.035645 -0.01239 0.016299 0.025544 -0.008135 -0.025932 -0.020123 0.016121 0.004168 -0.030728 -0.023643 0.040018 0.016347 -0.011917 0.022373 -0.019942 0.023253 -0.039365 -0.008369 -0.041972 -0.006879 -0.038923 0.024406 0.033103 0.029943 0.021348 0.020729 -0.009374 -0.007841 0.022198 0.006408 -0.020374 0.032886 -0.006337 -0.023695 0.024771 -0.01268 -0.021291 0.001248 -0.024899 -0.03222 -0.005527 -0.021155 -0.0107 0.001133 -0.029834 -0.051417 -0.017772 -0.01395 -0.003041 -0.019469 -0.004849 0.000315 -0.009866 0.006999 0.0295 -0.020534 0.01267 0.019787 -0.018827 0.023601 0.029193 -0.008016 -0.029976 0.001365 -0.033688 0.002444 -0.028667 0.001899 0.005542 -0.008921 0.011451 0.001429 -0.024615 -0.003231 0.013297 0.010474 0.023551 -0.0102 0.038141 0.034442 0.031921 0.013738 0.012977 -0.031221 0.013073 0.005119 -0.00403 -0.005415 -0.012353 0.034096 -0.018027 -0.010839 -0.011056 0.015428 -0.005636 -0.017608 -0.012474 0.034319 0.002583 -0.010598 0.019646 0.02628 0.014909 -0.022254 0.035407 0.030331 -0.020313 0.010089 -0.026656 -0.014613 0.017461 -0.04575 -0.036859 0.022516 -0.005228 -0.021917 -0.0153 -0.002856 0.00238 0.024272 0.007578 0.016347 0.008668 -0.026966 -0.019937 0.03337 -0.004568 -0.017785 -0.011511 -0.004577 0.001556 -0.023862 -0.02804 -0.004127 -0.027429 -0.019078 0.01053 -0.010587 3.8e-05 -0.020445 -0.031873 0.021827 -0.013132 -0.021651 0.034826 0.005448 0.027523 0.002234 0.030567 0.029483 0.025459 -0.004413 -0.033558 -0.001388 -0.005293 0.033056 0.017366 -0.011487 -0.007552 0.000738 -0.020657 -0.00891 -0.016167 -0.020479 0.01093 -0.00172 0.005869 -0.004973 -0.004979 0.002215 0.00234 0.025821 -0.014357 -0.019391 0.019238 0.014216 0.010359 -2.6e-05 0.003588 -0.021546 -0.029334 0.008509 -0.00934 -0.024879 0.031182 0.023644 0.025459 0.011965 0.024493 0.010514 -0.027309 0.008884 0.003695 0.023384 0.017778 -0.007656 -0.005774 0.025868 0.009738 0.02175 0.022536 0.03512 -0.024849 -0.033421 0.021518 0.015402 -0.016551 0.000604 -0.012761 0.000781 -0.013554 0.031364 -0.001412 -0.023843 0.024202 0.03168 -0.035278 -0.02196 0.030944 -0.003535 0.004123 -0.025652 -0.027981 -0.021691 0.030765 0.02936 0.000637 -0.001022 0.005783 -0.025595 0.018145 0.004981 0.029655 -0.032146 0.032616 0.011033 0.031523 0.031691 -0.008349 0.014567 0.019496 -0.023776 0.022169 0.00082 0.003645 -0.04543 -0.006 0.014001 0.024774 0.009054 0.0389 0.012017 0.026092 0.028338 0.026958 -0.010669 0.025761 0.024417 0.030853 -0.016613 -0.031663 -0.02315 -0.028084 -0.018488 0.022994 0.004708 -0.009212 0.000558 0.024985 0.027353 -0.003912 -0.016694 0.004289 -0.022078 -0.036101 0.006332 0.01071 0.006343 0.030422 -0.026312 0.000537 0.020602 -0.017233 0.010214 -0.009451 -0.022684 0.022575 0.006782 -0.008434 -0.01217 0.010239 0.017993 -0.034529 -0.020476 0.025209 -0.004731 -0.009691 -0.009256 0.025766 0.01302 0.022825 -0.010787 0.016612 0.010203 -0.017301 -0.028698 0.006777 0.00866 -0.010872 0.030869 -0.012112 0.004448 0.022548 0.009627 -0.035377 -0.023549 0.030852 -0.003592 -0.007658 -0.030047 0.007062 -0.024525 -0.025199 -0.010972 0.012775 0.027762 0.0026 0.015286 0.027131 -0.02175 -0.025156 -0.028682 -0.012985 0.006817 0.01562 -0.029667 0.031328 -0.003064 -0.030939 -0.005368 -0.037739 -0.023155 -0.008053 -0.032972 -0.05306 -0.046424 0.011989 -0.03207 -0.025987 0.029956 0.010786 -0.018165 0.017946 0.003488 0.020199 -0.01361 -0.033434 -0.016187 -0.035711 0.002156 0.003298 -0.001058 -0.019176 0.030549 -0.031489 -0.018207 -0.019195 -0.0518 -0.052053 -0.025071 -0.033398 -0.070285 -0.066656 -0.05367 -0.057776 -0.039874 0.023709 -0.019355 0.011798 -0.00097 0.030148 0.00907 0.011097 0.024776 0.009102 -0.003763 -0.017034 0.001324 -0.00385 -0.032653 0.002846 0.023857 -0.032355 0.018584 -0.047005 -0.007316 -0.024842 -0.049973 -0.004072 -0.054878 -0.031617 0.019523 0.024955 0.000227 0.02363 -0.028607 0.02463 0.03108 0.004446 0.011531 -0.017905 0.002066 0.023678 0.020298 -0.018787 -0.035584 0.013378 0.012336 -0.003843 -0.032712 0.026873 -0.042805 -0.034495 0.015968 -0.023056 -0.043504 -0.000953 -0.011717 -0.002081 0.05952 0.012293 0.019232 0.025787 0.028172 0.010461 0.002268 -0.041978 0.000697 0.020199 -0.02754 0.018398 -0.017129 0.000325 -0.027409 0.020236 -0.003586 0.007538 -0.014981 -0.004498 -0.007412 0.009021 0.018962 -0.005577 0.028297 -0.016789 0.046175 0.05371 0.043731 -0.000886 -0.008852 -0.019806 0.005557 0.014668 -0.0135 0.008885 0.038753 -0.001197 0.010745 0.012247 0.017933 0.016541 -0.040649 -0.039678 -0.001072 -0.011592 -0.004235 -0.017801 0.004852 -0.028703 0.022462 -0.003461 -0.031412 -0.024263 0.017565 0.013264 -0.03193 -0.023237 -0.012717 -0.031183 -0.025656 -0.026889 0.029808 -0.035778 -0.007394 0.033314 0.01079 0.010943 -0.001863 0.019422 -0.024863 -0.005559 -0.045299 0.006241 -0.002983 -0.001527 -0.006891 -0.00648 -0.009499 -0.014809 0.005144 -0.032061 0.002572 -0.046172 -0.034912 -0.001045 0.006946 0.000537 0.016101 -0.011398 0.000286 -0.013339 -0.015546 0.028556 -0.006362 -0.02807 0.015775 -0.03764 -0.00472 0.022413 0.020191 0.041962 0.043379 0.029917 -0.015988 0.004636 0.028437 0.023507 0.013925 -0.036756 0.018816 -0.017702 0.006445 0.010169 -0.005999 -0.000496 -0.0291 -0.009059 -0.035252 -0.00079 -0.009867 -0.018788 -0.031869 -0.013423 -0.006913 -0.043131 0.017249 -0.005016 0.040392 0.036717 0.019831 -0.000398 0.003892 -0.024751 -0.024402 -0.009765 -0.020958 -0.015015 0.022028 -0.018312 -0.024239 -0.014275 0.006068 0.011533 -0.028271 0.031221 -0.014936 0.028561 0.025051 -0.024657 0.021144 -0.029918 -0.023965 -0.041131 -0.023706 0.040962 0.01189 -0.02493 0.030362 -0.04331 -0.024281 -0.02952 0.009521 0.018385 -0.033594 -0.035549 -0.006307 -0.017692 -0.026091 -0.018448 0.012977 0.006958 -0.02689 -0.018083 0.02883 0.013674 -0.031629 -0.006634 -0.011866 -0.017729 -0.033396 -0.030277 0.015443 0.007719 -0.012339 0.004478 -0.011383 -0.006734 0.01702 -0.00843 -0.033937 0.018567 -0.030888 -0.009282 0.024006 0.006474 -0.017032 -0.036251 -0.020905 -0.021621 0.015582 0.008409 -0.005984 -0.02841 -0.010165 0.00648 -0.022512 0.003025 -0.020796 0.03104 -0.031619 -0.00445 0.015006 -0.021065 -0.002378 0.03186 -0.017431 -0.022378 -0.014176 0.003997 -0.006025 -0.022748 0.002053 0.005401 0.032462 -0.00125 -0.002953 -0.009608 0.002063 -0.023391 0.016996 0.019778 0.018427 -0.037973 0.016498 -0.006795 -0.001506 -0.033487 0.001672 -0.028805 -0.029102 -0.018781 -0.005905 0.015113 -0.003381 0.01187 0.008121 0.021736 -0.021338 0.009581 0.030749 0.00316 -0.009273 -0.011852 -0.007524 -0.034847 0.002386 0.001824 0.033931 -0.004049 0.028425 0.002177 -0.023586 0.035329 0.006818 0.018784 -0.001697 -0.010745 -0.0262 -0.021818 0.032832 -0.025855 -0.003282 0.007383 0.032066 -0.029186 0.001464 -0.019273 -0.009713 0.025967 -0.00392 -0.017571 0.000645 -0.023492 0.022676 0.012763 0.008291 -0.021872 -0.032113 -0.009193 0.016319 0.006623 0.014818 0.014791 -0.018048 -0.005581 -0.022538 0.026409 -0.022098 -0.021339 -0.031538 -0.003838 0.034383 0.003767 -0.017676 -0.032994 0.016726 -0.036594 -0.003742 0.002885 -0.031531 -0.013641 0.01197 -0.038311 -0.009684 0.02716 0.028031 0.030377 -0.001474 -0.028358 -0.006968 -0.006117 -0.012418 -0.03178 -0.015774 -0.036522 -0.025008 0.011033 0.002044 0.014644 -0.01295 0.026562 -0.047364 0.002281 0.011332 -0.017083 0.01967 0.006199 -0.039944 0.004787 0.018777 0.008706 -0.022702 0.004954 0.015101 0.026692 -0.014185 0.026012 0.000196 -0.002593 0.032502 -0.001412 -0.033599 -0.024724 -0.029133 -0.032153 -0.023028 0.028233 0.000222 0.001431 0.004753 -0.054761 0.003249 -0.014526 0.001073 0.022758 0.005832 -0.026548 -0.007095 -0.016858 0.016444 -0.008109 0.031508 0.020312 0.021884 0.00909 0.033926 0.025114 0.033683 0.021107 -0.022963 0.021468 0.026043 -0.003306 0.010608 0.033086 0.001942 0.024533 0.01074 -0.031569 -0.020359 0.033044 -0.001799 -0.025661 -0.029527 0.011873 0.019468 0.029821 -0.031612 -0.032142 0.028556 -0.005756 0.01723 0.011467 0.002103 -0.00828 -0.026689 -0.0046 0.005303 0.008806 -0.007461 -0.032677 0.02516 0.01541 0.026886 0.001964 0.022168 0.005454 -0.015293 -0.02216 -0.018592 0.001726 0.023215 0.013754 -0.013527 0.006808 0.008832 0.030461 -0.017817 -0.006315 -0.022046 -0.010095 0.000562 -0.034738 -0.032672 -0.013314 -0.02592 0.015839 -0.007091 -0.016172 0.00263 -0.010076 -0.017937 -0.005987 -0.034302 -0.009897 -0.011531 -0.015215 -0.018113 -0.00032 -0.001686 -0.039253 -0.021196 -0.028399 0.036521 0.018515 0.012495 0.022149 -0.014607 0.011347 0.015594 0.029716 0.030228 0.028655 0.000566 0.006697 0.021168 0.029298 0.034683 0.019268 -0.025889 -0.020426 -0.00016 -0.025066 -0.011434 -0.004408 0.023678 0.029423 -0.041808 -0.022244 0.030617 0.026196 0.024036 0.038851 -0.015961 0.010081 0.005913 -0.031786 -0.008483 0.023106 -0.024347 -0.013761 -0.003375 -0.001617 0.003982 -0.000681 -0.006148 -0.005782 -0.020943 0.002169 -0.011309 -0.006333 -0.006133 0.010253 0.008843 0.000947 0.023065 -0.026777 -0.033848 0.038299 0.011613 0.011817 -0.021022 0.014917 0.018251 -0.018077 0.033772 -0.02834 -0.009083 -0.005356 -0.035356 0.027089 0.023206 -0.016237 0.028186 -0.013948 -0.017716 0.033343 0.024286 -0.013503 -0.027929 -0.013801 -0.002856 0.013337 -0.04036 -0.030121 0.014231 -0.028953 -0.011383 0.019927 -0.008382 -0.006742 0.002448 -0.013743 0.016073 -0.020464 -0.005548 0.001679 0.032963 -0.032296 -0.032765 0.00376 0.034715 -0.003864 0.019165 -0.02664 -0.005268 0.015882 -0.020211 0.027177 -0.002926 -0.002526 0.009203 0.027052 -0.017938 0.000315 -0.029983 -0.027737 0.001181 0.003368 -0.016439 -0.018004 -0.020551 -0.026652 -0.007253 0.002075 -0.002807 -0.023433 0.032924 -0.000868 0.028397 0.032929 0.017512 -0.02746 0.022124 -0.014868 0.00549 0.003733 -0.000246 -0.028415 -0.008675 -0.035673 -0.018317 -0.001377 0.007206 -0.020572 -0.006911 -0.020364 0.034807 0.019244 0.0343 0.011355 0.00926 -0.028232 -0.026454 -0.01759 -0.000288 -0.005442 0.03534 -0.007978 0.023631 -0.027753 0.024763 -0.009538 -0.023563 0.006096 -0.011782 0.02567 0.017096 -0.022611 0.027986 0.02487 -0.006281 -0.026802 0.003444 -0.025474 -0.023953 0.034005 0.03168 0.011846 -0.005223 0.026395 -0.014118 0.020047 -0.028372 -0.003188 0.023056 -0.012349 0.022234 -0.021821 0.013534 0.000118 0.00483 -0.037084 0.026538 -0.012875 -0.025481 -0.027106 0.014742 0.020828 0.020996 -0.009783 0.024818 0.011345 -0.022792 -0.002258 -0.023705 0.012546 0.034642 -0.024177 0.033639 0.006005 -0.004406 0.02285 -0.009049 -0.010279 -0.003836 -0.030179 -0.004432 -0.025033 -0.02633 -0.037053 -0.023721 -0.031109 -0.042515 -0.031526 0.028494 0.031799 -0.003391 0.008126 0.030876 0.017819 -0.012362 0.02172 0.040345 0.030125 -0.019645 0.024752 -0.030515 0.027584 0.01834 0.007744 -0.012134 -0.019559 0.005952 0.026559 0.006301 -0.008445 -0.023942 -0.034393 0.008445 0.010319 0.014509 0.019961 -0.00091 0.005096 0.026534 0.004925 0.031284 0.022983 0.014749 -0.029879 0.025317 0.027641 0.016083 0.010775 -0.023788 0.009846 -0.024602 0.007106 0.026642 0.033825 -0.014519 0.027979 -0.002442 0.034828 0.031461 0.008829 -0.022141 0.014019 0.006068 0.007698 0.024219 -0.017088 0.000518 -0.014228 0.00153 0.018854 0.029812 0.012704 0.027574 -0.041238 -0.01701 0.008198 -0.016176 0.021839 -0.006029 -0.0273 -0.016655 0.024898 0.01442 -0.023325 -0.004825 -0.011483 -0.029164 -0.036845 -0.00982 -0.037527 0.032762 0.00897 0.010797 0.042433 0.023284 -0.015509 -0.00208 -0.002888 0.019045 -0.023232 -0.033179 -0.009175 -0.024118 -0.03701 0.020972 0.022167 -0.0025 -0.008185 0.001153 -0.023354 0.026653 0.006926 0.006605 0.032326 0.023565 0.020946 -0.013109 0.000956 -0.017308 -0.025568 0.02497 -0.018197 -0.014135 0.038281 -0.014758 0.033747 0.022253 0.031204 -0.01602 -7.1e-05 -0.025563 -0.001806 -0.023321 0.003931 0.018279 0.027994 0.013498 0.002086 0.011063 0.004172 0.013226 -0.023863 0.010311 0.001696 -0.019971 0.007975 -0.029691 -0.000652 -0.002176 0.014392 0.010638 0.000529 -0.007613 -0.026759 0.014506 0.010021 0.01404 0.030321 -0.010987 0.01046 0.016168 -0.019552 0.02306 -0.036114 0.034031 -0.024464 -0.029703 -0.001696 0.002079 0.001133 0.012545 -0.004541 0.02758 -0.039076 -0.048764 0.011155 0.019006 0.023255 -0.012652 -0.038461 -0.018582 -0.025213 -0.015261 -0.026616 0.005781 -0.005913 -0.01788 -0.018855 -0.01735 0.009438 -0.023975 -0.002609 0.029907 -0.014103 0.001698 0.018299 0.020485 0.030504 -0.004458 0.022909 0.024895 0.010262 0.020097 -0.018511 0.021331 0.00769 0.008977 -0.039512 -0.029266 0.019159 -0.000734 0.000396 -0.036509 0.024204 0.003146 0.013535 -0.005673 0.028595 -0.015103 -0.013245 -0.036322 -0.01936 -0.029664 0.031173 0.034781 -0.012844 0.00201 -0.015357 -0.033816 -0.036514 0.014167 0.010606 0.008653 0.024561 0.003026 0.006107 0.038759 0.018955 0.045862 0.013629 -0.012714 -0.014241 0.030925 0.010053 0.016233 -0.03068 0.020319 0.010661 0.01711 -0.005466 0.013607 0.032714 -0.019014 -0.017004 -0.022932 0.03182 0.009142 0.008392 0.00485 0.00068 0.027847 0.033771 -0.004262 0.002923 -0.04304 0.0026 0.006166 0.018072 0.034631 0.028809 0.012491 0.017371 -0.031608 -0.050125 -0.021972 0.042465 0.028261 0.026831 0.006434 -0.038005 -0.039272 -0.034837 -0.025104 -0.005922 -0.023851 0.035247 0.005307 0.004966 -0.023839 0.022925 -0.017212 0.017781 -0.004103 -0.000843 0.019012 -0.010722 -0.011393 0.020231 -0.009438 -0.007033 -0.000264 -0.03533 0.006738 -0.004789 -0.018611 -0.012031 -0.005739 -0.0307 0.020595 0.007781 -0.036492 -0.014458 -0.008634 0.009139 -0.027626 0.021317 -0.00213 0.01082 0.002695 0.03063 0.014365 0.006233 -0.002567 0.030839 -0.009647 0.060033 -0.008207 0.018783 0.020042 -0.022424 -0.028619 -0.000491 -0.015181 0.034808 0.015518 -0.020655 -0.029087 0.021049 0.025704 -0.018078 0.020298 0.026336 -0.004174 0.023784 0.031152 -0.003628 -0.009595 0.007467 0.009069 0.029606 -0.013322 0.017087 0.015177 -0.00081 -0.02674 -0.019922 0.016832 -0.008938 -0.033203 -0.013658 -0.012668 -0.022789 0.007411 -0.009175 0.019194 0.032488 0.006297 0.002326 -0.003393 -0.023742 0.007753 0.018802 -0.016001 -0.029167 0.012834 -0.005597 0.005941 -0.002949 0.007578 0.021213 0.045081 0.020256 0.032443 -0.015172 -0.029569 0.005404 -0.031983 -0.000743 0.014765 0.002743 0.020951 -0.021393 0.0244 0.015223 0.038124 0.037669 0.007802 -0.005001 -0.012521 -0.019561 -0.002935 -0.018621 -0.003276 -0.04283 -0.01436 0.041322 0.017798 -0.032629 0.00022 0.003646 -0.020747 0.01948 -0.029008 -0.031433 0.028525 0.023704 0.027468 0.018383 -0.00183 -0.009004 -0.006965 0.029073 0.043378 0.007698 -0.022723 -0.006456 0.0077 0.007709 0.024023 0.020351 0.004695 0.000893 -0.005647 0.036062 -0.03136 0.008724 0.028021 0.027638 -0.02317 0.013098 0.029148 -0.034584 0.013198 -0.028924 0.013961 -0.031243 -0.000985 -0.023896 0.002422 0.012058 0.03056 -0.001335 -0.002649 0.028394 0.010036 -0.019294 0.000597 -0.035571 0.006298 -0.030861 -0.019514 0.015768 -0.01934 0.021294 0.006464 -0.007531 -0.020828 0.028042 -0.018888 0.032507 0.029532 -0.036119 0.033613 -0.014913 -0.009024 0.011078 -0.000805 -0.027079 -0.018004 0.0029 0.001695 0.008963 -0.002264 0.00213 -0.027844 -0.023418 -0.005776 -0.009218 0.007265 0.033722 -0.021139 0.041351 -0.011557 0.024083 -0.023056 0.03932 -0.020577 0.03087 0.010346 0.003883 -0.025787 -0.026317 -0.006255 0.009948 -0.008996 -0.01141 -0.002329 -0.018169 -0.0217 -0.026573 0.01269 -0.015856 -0.00373 -0.000617 0.016449 0.014636 0.006049 -0.007914 0.009361 0.022278 -0.025534 0.028412 -0.003068 -0.002323 -0.007986 0.004473 -0.023097 0.004701 -0.008912 -0.011383 -0.033099 -0.009666 0.012834 0.01426 -0.024835 0.021742 0.014325 -0.005882 0.006834 -0.024334 0.008892 0.024099 -0.026733 -0.02396 0.014276 0.011797 0.023888 0.018317 -0.01309 -0.007355 0.017755 -0.001016 0.026539 0.004695 0.043818 0.034742 0.023589 0.01076 -0.047628 0.012632 0.024819 -0.021199 0.035755 -0.026526 0.019726 0.006451 -0.010062 -0.026891 -0.017832 0.026559 -0.031225 0.008124 0.010346 -0.032733 -0.029565 -0.016509 0.000749 0.024154 -0.026827 0.002994 -0.001207 0.027171 0.01875 0.024257 -0.022111 -0.008093 -0.047905 -0.030804 -0.035416 -0.006718 0.017538 0.032091 -0.037564 -0.001266 -0.033674 0.031208 -0.029905 -0.002471 -0.007688 -0.020617 -0.004616 -0.010925 0.032412 -0.024129 -0.037733 -0.023182 -0.032894 -0.002646 -0.003889 -0.022326 -0.016276 0.028921 0.016928 0.005025 0.027909 -0.009304 -0.000996 -0.000992 0.028339 -0.009426 0.000938 0.01314 -0.009326 0.006823 -0.021522 -0.001953 -0.001879 -0.0098 -0.031355 0.02372 -0.033236 -0.005948 -0.016524 -0.03109 -0.021471 -0.036667 -0.025759 -0.013283 0.003394 -0.012482 -0.014649 0.045583 0.006159 0.022544 -0.024369 -0.008753 -0.02753 0.013311 -0.013404 0.009838 0.033013 0.002907 -0.026729 -0.021888 -0.029376 -0.001539 0.019715 -0.002575 0.025464 0.01572 -0.025944 0.02368 -0.039558 0.024261 -0.005043 0.000735 0.002704 0.001317 -0.017051 -0.022617 -0.034978 -0.017617 0.007998 0.02161 -0.026943 0.008285 -0.019161 0.004391 0.030856 0.005851 0.014006 -0.012433 -0.000749 0.008094 0.021666 -0.004255 0.004465 0.0038 0.007411 -0.007388 0.013447 -0.015595 0.009027 0.025105 0.014223 -0.022647 -0.02089 -0.032104 -0.006654 -0.03422 0.002891 -0.025742 -0.035601 -0.033437 -0.026535 -0.016016 0.027283 0.006187 -0.015235 0.022042 0.023233 0.031 0.015566 0.030687 -0.019595 -0.008524 -0.007354 0.018633 -0.016265 -0.028222 -0.016642 -0.030275 0.004437 0.002287 0.011305 0.024589 0.01221 0.026019 -0.002469 0.008248 -0.027887 -0.029675 -0.031496 -0.0052 -0.019321 -0.015244 0.024272 -0.028472 -0.007188 -0.001689 0.000977 0.036759 -0.00814 0.018493 0.002564 0.027903 -0.026818 0.023135 -0.03265 -0.023647 0.010708 -0.015718 -0.005727 -0.027202 0.011697 -0.004864 -0.013743 0.030557 0.004827 -0.015288 -0.02 0.015428 0.000125 0.038722 0.019712 0.030498 0.037779 -0.022617 -0.029886 0.0246 -0.028874 0.00736 0.00601 0.03205 -0.033499 -0.008351 0.019392 -0.039462 -0.00268 -0.02993 -0.046997 -0.025185 -0.007683 -0.02411 -0.018008 0.055312 -0.013859 0.015408 -0.019335 0.003213 -0.028413 -0.022393 0.024499 -0.007096 0.001309 0.026166 -0.003875 -0.012256 -0.035984 -0.011776 0.023856 0.001103 -0.03589 -0.002074 0.018966 -0.002228 0.026797 0.028234 -0.031255 -0.011323 0.008789 -0.031071 -0.018084 0.025821 0.006998 0.032643 -0.035246 -0.023937 0.024013 0.020394 -0.006499 -0.026561 0.036682 0.025391 0.036308 0.025311 -0.018988 -0.012766 -0.019715 0.015144 0.005289 -0.030939 0.01691 -0.029941 -0.010611 -0.00337 0.006572 -0.008672 0.015458 0.024633 0.012851 0.011084 0.042168 -0.014111 0.00911 -0.023304 0.033191 0.036498 0.011558 0.022294 0.012175 0.025607 0.026852 -0.020321 0.000527 -0.010245 -0.007414 0.026789 0.002149 -0.021969 -0.013741 -0.022468 0.018355 0.025739 -0.012647 0.008171 -0.014687 0.018118 -0.006975 0.016428 0.025648 0.01194 -0.0256 0.01801 -0.001245 0.013723 0.017955 0.015088 0.023631 -0.011582 0.015847 -0.023626 0.028462 -0.030252 -0.023642 0.015325 0.032502 0.016093 -0.00858 0.002798 0.023259 -0.013718 -0.002688 -0.020333 0.00519 -0.003822 -0.014381 0.029586 -0.004215 -0.014832 0.001526 -0.012804 0.023403 0.013976 -0.013903 0.019164 -0.029234 -0.011509 -0.001735 0.007482 0.020797 0.033766 0.033766 -0.024848 -0.025606 -0.001699 -0.021609 0.016667 -0.021787 0.014082 -0.012143 0.027478 0.035948 0.007076 -0.014484 -0.004827 -0.018474 -0.008416 -0.026933 0.023075 -0.007845 -0.033811 0.017549 -0.009183 -0.008512 0.023891 -0.034896 -0.034265 0.035886 0.023818 0.042598 0.024003 -0.036292 -0.026891 -0.0226 0.026278 -0.011099 0.033281 0.002892 -0.016372 0.020177 -0.007322 -0.00462 0.009244 -0.001688 0.012468 0.015988 -0.028742 -0.011205 -0.016312 0.009398 0.001961 0.002893 -0.030862 0.005076 -0.016475 0.039912 0.014019 0.019986 0.020545 -0.04576 -0.017648 0.004542 -0.032521 0.002331 0.023433 0.026715 0.000512 0.025047 -0.003791 0.006189 -0.009395 0.020797 0.014597 0.017142 -0.035706 -0.007976 6.2e-05 0.008798 0.015465 0.025031 -0.031654 -0.024772 0.03879 0.051278 0.007931 0.046154 -0.017584 -0.053563 -0.04808 -0.03602 -0.000153 0.008442 -0.00876 0.00957 0.006081 -0.01752 -0.04015 -0.001024 0.029415 0.002894 -0.016913 0.019446 0.024481 -0.015839 0.029998 0.029235 -0.003449 0.038181 0.015209 0.029315 -0.013936 0.039019 -0.001173 0.004019 -0.024934 -0.020593 0.004062 -0.043452 -0.038268 -0.039447 -0.022774 -0.002919 -0.022087 -0.009665 -0.033113 -0.01535 0.027595 -0.029561 -0.013381 -0.022259 -0.005545 0.027691 0.009329 0.000502 0.020544 0.03051 -0.007915 0.020414 0.012493 -0.027514 -0.011911 0.023942 -0.028299 5e-06 0.01072 -0.013599 -0.029008 0.024097 0.02521 -0.006227 0.010698 -0.022499 -0.013708 -0.004849 -0.025849 -0.036291 -0.027626 -0.013346 -0.022037 0.013507 0.013781 -0.007106 0.03151 -0.010951 0.026603 0.016982 -0.02981 -0.011608 0.022052 0.014571 -0.017219 0.018149 0.034468 0.025012 -0.009909 0.034487 -0.001111 -0.005329 0.035214 -0.027696 -0.01589 -0.030997 0.012583 0.002268 -0.035516 -0.000502 -0.021181 -0.017217 0.0046 -0.006438 0.001463 -0.004964 0.010818 0.02702 0.001973 0.03607 0.001079 0.029478 -0.02718 0.010072 0.010332 0.018292 0.012763 0.019212 0.019639 0.017426 0.002162 0.011655 0.02201 -0.001085 0.025634 -0.024641 -0.017792 -0.022034 0.034979 0.008913 0.023235 0.026263 -0.007701 0.007774 -0.002224 -0.003624 0.004716 -0.019338 -0.022639 0.024643 0.012963 0.002617 -0.025251 -0.019584 -0.00454 0.022113 0.031233 0.014061 -0.020263 -0.011049 -0.036301 0.010107 0.014645 0.008591 0.024937 -0.001084 0.032693 0.005055 0.012236 -0.036836 -0.027853 -0.013807 0.013159 -0.029239 -0.010922 -0.038217 0.020359 -0.018853 -0.041001 -0.021924 -0.045188 -0.037975 -0.023082 -0.013955 0.005058 -0.020112 0.006386 0.02983 0.023647 0.03108 -0.007195 0.031719 -0.02488 -0.018496 0.007672 0.011716 -0.034179 0.015487 -0.021848 0.027648 0.029401 -0.007023 -0.01864 -0.003804 -0.040204 0.015972 -0.046533 0.026079 -0.001862 -0.025474 0.000185 -0.010157 -0.006383 0.005632 -0.018596 0.008131 -0.023687 0.027589 0.014601 0.029699 -0.02225 0.031484 -0.006738 -0.004124 0.026256 0.00427 -0.020715 0.00371 -0.019135 -0.022191 -0.015082 -0.02122 -0.008697 -0.011881 0.018816 -0.012917 0.0026 0.015015 0.035021 0.005471 0.01491 -0.014143 -0.02449 0.010836 -0.020324 -0.002474 0.002473 -0.003739 -0.023511 0.028133 -0.029777 -0.021385 0.017215 -4.5e-05 -0.011399 -0.011954 -0.005971 -0.010657 -0.00181 -0.01469 -0.018089 0.038585 0.000175 0.022406 0.047464 0.061416 -0.01495 0.018162 0.011121 0.038395 -0.003151 0.000582 0.027003 -0.016155 -0.021215 0.010098 -0.036212 0.01509 -0.001793 -0.007068 -0.016022 0.021543 -0.01015 0.000407 0.017773 -0.027757 -0.012101 -0.008346 0.029209 0.044279 0.046943 0.018518 -0.00983 -0.014625 0.033146 0.012126 -0.013297 0.013831 -0.002239 0.025448 -0.004273 -0.034004 -0.003231 0.024327 -0.021696 0.008729 -0.034562 -0.007869 -0.012867 -0.022653 0.000902 0.000178 -0.019779 -0.021084 -0.030873 -0.033207 0.021327 -0.021254 -0.011102 0.009297 -0.00939 -0.036479 -0.000523 0.032241 0.02712 -0.028058 -0.01203 0.000731 -0.030386 -0.030984 -0.007525 0.018911 0.009127 -0.00544 -0.049678 -0.010743 -0.043263 -0.010612 0.003343 0.023241 -0.023566 -0.040849 -0.031011 -0.026244 0.007418 -0.01855 0.032845 0.009566 -0.03047 -0.002971 0.017914 0.001664 0.034893 0.004628 0.015449 -0.019605 -0.023708 -0.021372 0.034923 -0.029907 -0.013797 0.012633 -0.048871 -0.031783 -0.00417 0.03641 0.026156 0.022819 -0.028671 -0.032823 0.013031 -0.005508 0.056036 0.018554 0.026706 -0.02844 -0.016983 0.005622 -0.02085 -8.4e-05 -0.02157 -0.017126 0.010118 0.033398 0.028074 -0.006554 -0.024511 -0.03818 -0.004483 0.022693 -0.053772 0.034054 0.011237 0.065774 0.042773 0.031843 -0.016537 0.006791 -0.027687 -0.000993 0.042717 0.029786 -0.038134 -0.034863 0.014335 -0.013409 -0.029933 0.014432 0.015752 -0.032543 0.033481 0.033 -0.010725 0.030582 -0.006884 0.024868 0.010658 -0.026648 0.007493 -0.017063 0.064523 0.060344 -0.001278 0.005652 0.016617 -0.027432 -0.023916 0.031817 0.002243 -0.020272 -0.027855 -0.030564 -0.010355 -0.033789 0.025614 0.004469 0.03069 -0.025856 0.040797 -0.019024 0.011552 -0.021028 -0.036875 -0.004023 0.002324 0.007358 0.027876 0.001663 -0.01592 0.01637 0.018141 -0.012087 0.004367 0.004634 -0.035933 -0.015508 0.01099 -0.004799 -0.005379 0.012166 -0.017902 0.000651 0.026064 0.032469 0.046426 0.02751 0.029253 -0.011119 0.007852 -0.010932 -0.015052 0.015335 0.027704 0.035875 0.019196 0.021785 0.025689 -0.026777 -0.00961 0.025354 0.0256 -0.03456 0.012294 0.035837 0.004479 0.021067 0.021545 0.026237 -0.000746 -0.008408 -0.002572 0.04965 0.034312 0.010176 0.035558 0.001129 0.031142 0.008303 -0.027987 -0.013634 0.000362 -0.0239 0.025268 0.020324 0.02249 0.004506 0.020356 -0.017597 -0.030021 -0.007309 -0.003001 -0.021112 0.031451 -0.002124 0.024491 -0.011929 0.029221 0.074461 0.051406 0.030068 -0.001102 0.003495 0.015946 -0.019346 -0.007729 -0.004188 0.039521 0.030136 -0.016311 -0.039625 0.002918 0.033708 0.002598 -0.008919 -0.017444 -0.016873 0.014863 -0.030106 0.030625 -0.028614 -0.005781 0.029092 0.018942 0.019461 0.001154 0.004456 -0.00389 0.022996 0.030476 0.021169 -0.02563 -0.028788 -0.031744 -0.027027 -0.000206 0.018545 -0.008058 -0.009982 0.026387 -0.015445 -0.004852 -0.016016 0.001397 -0.022004 0.039553 -0.045058 -0.013896 -0.051237 0.001898 -0.015404 0.040546 0.043178 -0.008518 -0.017036 -0.024277 0.020708 0.03619 -0.003995 0.017165 -0.015468 0.019515 -0.018682 0.02823 -0.031146 0.020923 0.023758 0.009427 -0.013921 -0.03217 0.017113 0.044786 0.010954 -0.01291 -0.005103 -0.042856 -0.003774 -0.017108 0.01856 0.003849 0.022598 -0.003838 -0.000593 0.00224 0.022602 -0.022509 0.029864 -0.014683 -0.002641 -0.029617 0.008156 0.011381 0.009558 -0.014948 0.010198 -0.005018 -0.025365 0.012581 0.029745 0.007935 0.019061 -0.000939 0.037459 -0.039377 -0.014232 0.020281 -0.027634 0.034544 -0.019541 -0.042675 -0.036148 0.022537 0.001931 0.027333 0.036822 0.026028 -0.037159 -0.014546 0.004706 -0.013329 0.021241 -0.018346 0.025965 -0.009614 -0.016963 0.023908 0.028719 0.009081 -0.031099 -0.016093 0.000971 0.010364 -0.045275 -0.038536 0.026836 0.022407 0.011946 -0.030943 0.028189 -0.01998 -0.01654 -0.004596 -0.021734 0.035025 0.030565 0.004792 -0.004783 -0.030825 -0.011427 -0.017036 0.017683 0.002411 -0.024816 -0.029062 -0.02742 0.029277 0.026921 -0.003646 -0.006416 0.011548 -0.029165 -0.037111 0.011038 -0.021559 -0.017677 -0.0035 0.004664 0.018953 -0.031744 -0.001779 0.011127 -0.041866 -0.007386 -0.054376 -0.062288 -0.004891 -0.016129 -0.021051 0.015875 0.050989 0.031938 0.010406 0.041195 0.034125 -0.00231 0.005755 0.008555 0.007843 0.010537 0.021878 -0.019828 -0.028219 0.035332 -0.005784 0.020451 -0.026959 0.0375 0.011184 -0.025839 -0.002606 -0.015118 -0.050343 -0.007306 0.00919 0.018207 0.032422 0.031575 -0.026103 0.002448 0.007761 0.022645 -0.032509 0.01336 0.018656 -0.004745 -0.023403 -0.003306 -0.006295 0.032683 0.026141 -0.020257 0.0252 -0.010244 0.01196 -0.034511 -0.000278 -0.038148 -0.016532 -0.019159 -0.0424 -0.015096 0.032999 -0.017741 -0.019647 -0.029642 -0.004393 -0.002502 -0.02289 -0.005773 -0.029026 0.02959 -0.009864 0.026375 0.027867 -0.005955 -0.025064 -0.000307 0.03591 -0.012119 0.01697 -0.011868 0.032862 0.01218 0.013115 -0.031236 0.006351 -0.052966 -0.004007 -0.00871 0.027784 0.055787 0.003567 0.014358 0.002717 -0.037011 -0.017783 0.010549 -0.023502 -0.035212 -0.002809 0.028608 -0.00779 0.006773 0.008004 -0.019382 0.025171 -0.006685 -0.023092 -0.003754 0.002893 -0.010588 0.012802 -0.003152 -0.032297 -0.030574 -0.040643 0.046014 -0.002984 0.024258 -0.015661 0.021391 0.016278 0.012855 -0.041163 0.028042 -0.024509 0.021449 0.01826 -0.023624 0.00622 0.031622 0.020785 -0.02749 0.020446 0.027491 0.015314 -0.004109 0.006424 0.033458 -0.00169 -0.033216 -0.001256 0.038544 -0.010945 0.023945 0.007534 0.026144 -0.023093 0.006083 -0.004697 -0.028312 0.03138 0.00793 -0.026589 -0.004422 -0.023339 -0.023278 0.016663 -0.007736 -0.020864 -0.018958 -0.009768 -0.03328 0.006747 0.025443 0.021201 -0.001603 0.016902 0.029801 0.03765 0.035986 -0.014833 -0.00434 -0.026171 -0.025287 0.027706 0.034264 -0.019322 -0.031081 -0.032785 -0.009588 0.015411 -0.03159 -0.004433 -0.001587 0.024552 -0.015412 0.002442 -0.021104 0.004523 -0.026574 -0.011858 -0.014461 -0.012948 0.01997 -0.002165 0.002456 0.040082 0.042936 0.037075 0.0074 0.006627 0.03301 0.00374 -0.030177 0.002917 -0.014284 0.016594 0.02735 -0.034712 0.023697 -0.024333 -0.035469 -0.003461 -0.0266 0.031321 -0.012675 -0.01711 0.004818 -0.020978 -0.006134 -0.023231 0.019105 -0.001576 0.044333 0.026899 -0.002961 -0.025331 0.018835 0.029013 0.03166 0.027543 0.01658 0.023151 -0.025288 0.023323 -0.009007 -0.034271 -0.009673 -0.023377 -0.022485 0.030486 0.008044 0.034533 -0.011864 -0.025664 -0.026798 0.000482 0.029447 -0.012502 0.034561 0.003579 0.0147 0.009304 0.019757 0.028235 0.013191 -0.021641 -0.023957 0.03151 -0.005542 0.020497 0.024342 0.024173 -0.028583 0.015742 0.000344 -0.042227 -0.027672 0.027404 -0.007572 0.003592 -0.037128 -0.000147 -0.00642 0.006817 -0.012642 -0.029994 -0.018581 0.018985 -0.012343 -0.013931 0.010702 0.01945 -0.018303 -0.007466 -0.029916 -0.019883 -0.018374 -0.020772 0.009644 0.006544 0.023353 0.029623 0.012164 0.023526 -0.025028 -0.013856 -0.025612 0.018225 0.022788 0.02497 0.026402 -0.033434 -0.000632 -0.016907 0.006867 -0.013202 0.017245 -0.029709 0.018484 -0.035927 0.013639 0.031079 -0.010384 0.009826 0.014484 -0.04077 0.029612 0.021423 0.019858 -0.012146 0.028379 -0.018952 -0.026374 0.001892 0.030438 -0.017761 -0.003332 -0.021971 0.025852 0.019491 0.009035 -0.008327 0.007103 -0.016838 0.000754 -0.019266 0.013179 0.010046 -0.028662 0.033395 0.000165 0.005659 0.020085 -0.008396 -0.004773 0.04033 0.012322 0.020359 0.001519 -0.015011 0.003548 -0.025884 0.00392 0.025517 -0.021034 -0.034348 0.025055 0.031837 -0.002998 0.030973 -0.021032 0.006953 -0.005885 -0.031941 0.009802 0.001329 0.031909 -0.015703 0.014516 -0.03685 -0.0273 -0.010467 -0.00073 0.033834 0.005191 0.02162 -0.029117 -0.030883 -0.003545 -0.006472 0.010105 0.028147 -0.024426 -0.023114 -0.028296 -0.027107 0.010376 -0.022333 0.003777 0.032377 -0.026749 0.025455 -0.02613 -0.004981 -0.023928 0.023879 0.015513 -0.022624 -0.020879 -0.020167 0.000941 4e-05 -0.006354 0.032035 0.025183 -0.014856 0.011386 0.018559 -0.027873 0.025304 -0.016016 -0.029197 0.023382 -0.0285 -0.001099 -0.011863 0.003306 0.031675 0.029429 -0.005896 0.016578 -0.014661 -0.03069 0.00248 -0.028039 -0.019634 -0.021646 0.012107 0.027218 0.008998 -0.025395 -0.030369 -0.033353 -0.028391 0.017109 -0.013186 -0.024826 0.020399 -0.035949 0.01195 0.023753 -0.01845 -0.033279 0.033667 -0.028328 -0.014989 -0.011078 -0.01534 -0.014957 -0.033896 -0.017289 0.018152 0.033569 0.005138 -0.013798 0.031526 -0.028391 -0.019849 0.03046 0.025186 0.020332 -0.002919 0.03544 -0.02938 0.015324 -0.005377 -0.015883 0.030855 0.024777 0.006299 -0.007967 -0.006298 0.030874 -0.016012 -0.005416 0.002735 0.015741 -0.002468 -0.008399 0.02383 -0.021882 -0.026436 -0.027192 0.033915 -0.018852 -0.008684 0.023313 0.027738 0.032186 0.021617 -0.000301 -0.024722 0.026836 0.00761 -0.011244 -0.017842 -0.007493 -0.0186 0.015769 -0.036006 0.031439 0.00222 -0.008332 -0.008025 0.024762 -0.017102 0.002389 0.020834 -0.023307 0.020562 -0.033927 0.018096 -0.022667 0.0033 -0.029066 0.021209 0.028736 0.016793 0.025105 0.040364 0.056815 0.007668 0.025109 -0.008632 0.010735 0.023993 0.015792 -0.007143 0.027399 0.005742 0.035216 0.010945 -0.01918 -0.024199 -0.003051 -0.023518 0.001382 -0.040002 -0.036898 0.013809 -0.015457 -0.001499 -0.020859 0.03589 -0.00198 0.008785 0.013044 0.00886 0.042045 -0.008053 -0.001569 0.008533 -0.030804 0.041361 0.041576 -0.010101 0.019611 0.017747 0.01865 -0.014018 -0.008908 -0.023131 -0.033548 0.032924 -0.028207 0.011239 -0.034912 -0.026487 -0.026161 0.011778 -0.008598 0.025115 -0.008633 -0.01052 -0.021093 -0.027409 0.003842 -0.041761 -0.020408 0.00212 -0.033672 0.02263 -0.022159 0.037881 -0.029675 -0.015154 -0.011587 0.030853 0.020765 0.035024 -0.037515 -0.025097 -0.012528 -0.03227 -0.009806 -0.022383 0.031798 0.006829 -0.014233 -0.015436 -0.051205 -0.030465 -0.057221 -0.025815 -0.026169 -0.056515 -0.0499 -0.0506 -0.042622 -0.009621 -0.03868 0.034474 0.002541 0.008168 0.01368 0.035827 0.001076 -0.013083 -0.009956 -0.030021 0.001893 -0.038103 -0.005528 0.005834 -0.012554 -0.015668 0.050269 0.015725 -0.011538 0.010148 -0.026156 0.030709 0.021945 -0.016903 -0.004787 0.013158 -0.008491 0.024519 -0.029811 -0.008953 0.002938 -0.011411 -0.010649 0.014355 -0.014799 -0.004881 0.005088 0.015065 0.032436 -0.015927 -0.026272 0.009237 -0.020087 -0.028593 -0.007925 0.000585 0.031973 -0.030695 -0.0147 -0.020968 0.013466 -0.0077 -0.019239 0.013985 -0.02656 -0.026622 -0.004091 -0.001087 0.008513 0.002704 0.028042 -0.01689 -0.03294 0.016724 -0.000568 -0.020145 -0.018793 -0.006966 0.018598 -0.028978 0.009984 -0.003151 0.024753 0.022718 0.002116 0.028143 -0.021165 -0.033093 -0.01565 0.033063 0.001228 -0.011513 0.016625 0.034568 0.024544 0.031616 -0.035577 0.006331 -0.001461 -0.037512 -0.03246 0.038195 0.044512 0.010345 0.017851 0.031489 0.020021 0.001118 0.019728 0.012029 -0.01674 0.026839 0.013149 -0.028049 -0.010561 0.005647 -0.025503 -0.0281 -0.02773 0.013769 -0.013511 0.023421 0.021422 -0.020876 0.003168 0.007508 -0.036931 -0.014269 -0.030323 -0.018662 0.0174 -0.013101 -0.01971 0.015472 -5e-05 0.008931 0.006258 0.011978 -0.007957 -0.012215 -0.034277 -0.016484 0.017431 -0.000254 0.001535 0.02675 -0.016312 -0.023135 0.036246 0.000461 -0.001135 -0.01195 -0.018056 -0.03272 -0.004502 0.026283 0.011026 0.014827 -0.019608 0.011906 -0.006024 0.027611 -0.022212 -0.003115 -0.008292 0.017673 -0.013329 -0.004178 -0.019339 -0.034832 -0.001724 0.001198 -0.003766 -0.022935 -0.03074 -0.021036 0.008095 -0.0132 -0.010865 -0.020885 -0.002486 -0.02962 0.016089 -0.019454 0.026002 -0.03651 0.010881 0.026154 -0.007727 0.017131 -0.012285 0.022833 -0.031532 0.027266 0.02958 0.022147 0.01493 -0.006331 0.032885 -0.008448 -0.019657 0.019026 -0.012636 -0.033402 -0.001292 -0.019925 -0.00115 0.008837 0.032567 -0.014847 0.02481 -0.005656 -0.023027 -0.007734 0.002073 -0.026222 0.033082 0.033852 0.003833 -0.028722 -0.022311 0.030405 -0.02598 -0.02788 -0.003076 -0.004187 -0.024609 0.023607 -0.023484 0.023212 0.006007 0.022129 0.003335 0.007409 0.01035 -0.021777 -0.029078 -0.014527 0.007947 -0.010681 0.001758 0.006065 0.005095 -0.020619 0.006487 -0.005232 0.018767 -0.017809 0.031095 -0.03361 0.014301 -0.038644 -0.005756 0.002751 0.035551 -0.019103 0.010427 -0.020238 0.001793 0.003984 -0.028467 -0.011119 -0.002061 -0.035834 0.022935 -0.022701 -0.019011 0.010156 -0.02527 -0.021974 0.009656 0.021557 -0.029792 -0.00038 0.016476 -0.021108 -0.01686 -0.011533 0.011361 0.018941 0.002886 0.014197 0.031502 -0.006316 -0.031098 0.003297 -0.04121 0.005779 -0.00166 -0.013448 0.025079 0.01064 -0.021132 -0.026389 -0.025424 -0.000786 0.013553 -0.00582 0.005873 0.033807 0.020805 0.019016 0.015927 -0.025374 -0.010094 0.019828 -0.026675 0.021526 -0.012062 -0.021569 -0.033391 -0.018395 -0.034105 0.014323 0.030483 0.013118 -0.027933 0.023739 0.020801 -0.022232 -0.032867 0.001989 0.014329 -0.020353 0.018593 -0.033015 0.028257 0.004635 0.008114 -0.026906 -0.0041 -0.020857 0.010757 -0.020765 -0.00446 -0.016365 -0.031301 -0.031724 0.035062 -0.030984 -0.022478 0.007692 0.028155 0.025145 0.023568 -0.027195 0.022771 -0.004866 0.012664 -0.029179 -0.032354 0.026305 0.008814 0.001576 0.026727 -0.006043 -0.030198 -0.006025 0.020989 -0.030959 0.021641 -0.042511 0.034727 0.001939 0.020969 0.032249 0.03091 -0.014755 0.009593 -0.013032 0.030305 0.023096 -2.2e-05 -0.024232 0.013883 -0.033827 -0.002052 -0.015095 0.004151 0.016876 -0.028758 0.00864 0.006318 0.025751 -0.026826 -0.028052 -0.031717 0.002122 -0.02489 0.013098 -0.021973 -0.024512 -0.01552 -0.013329 0.016479 -0.03023 0.011815 0.022517 -0.028089 0.001071 0.013651 0.011142 -0.030252 0.021982 -0.013362 -0.028664 -0.028889 0.001078 0.021088 -0.0346 -0.018276 0.00479 -0.027521 0.000726 -0.019807 -0.041139 -0.011841 -0.008679 -0.026381 -0.018539 0.024171 0.000499 0.020187 0.013255 0.005198 0.001286 -0.035525 -0.01162 0.019789 -0.007426 0.009354 0.047562 0.031716 0.012287 -0.009372 0.006965 -0.011658 -0.013037 -0.01618 0.01189 0.028162 -0.005524 0.019781 0.026786 -0.035038 0.001904 -0.010333 0.031463 -0.035607 0.01977 -9.3e-05 -0.001701 0.028645 -0.019039 0.017531 -0.022964 -0.008065 0.024501 -0.007714 0.006477 0.0325 0.022361 -0.02916 -0.01799 -0.033942 0.002978 -0.010918 -0.028375 0.029716 -0.001145 0.030695 0.018264 0.025507 0.031598 -0.036206 -0.02733 -0.012608 -0.009001 -0.021967 0.00445 0.021355 -0.003618 -0.028651 -0.036255 -0.011694 0.004664 0.017822 -0.007594 0.011186 -0.025836 0.002874 -0.005212 -0.025097 -0.009497 0.030215 0.020163 0.010026 -0.001158 -0.013896 0.013081 -0.030685 -0.002661 0.006341 -0.008132 -0.011709 0.034864 0.033971 -0.033879 0.008041 0.000855 -0.00891 0.011244 0.020392 -0.005561 0.019005 0.040179 -0.019187 0.010699 -0.02804 0.016402 0.032277 0.021031 -0.015759 -0.011813 -0.0122 -0.033667 0.004604 -0.000241 -0.012651 0.01852 -0.035669 -0.021877 0.031974 0.025992 -0.005697 -0.028474 0.019424 0.02725 -0.00239 -0.02245 0.033141 -0.017459 0.012188 0.018386 0.005451 -0.018666 0.034133 0.030126 0.013315 0.029331 -0.015786 0.015433 -0.018932 -0.010815 0.015308 -0.009487 -0.027912 -0.013527 -0.030191 -0.029691 0.035216 -0.033165 0.013827 -0.012761 -0.037003 -0.034914 -0.004391 -0.022914 -0.011301 0.00489 0.010572 0.01424 0.02781 -0.032748 0.013107 0.007911 0.025731 -0.035177 3.7e-05 -0.00497 0.003939 0.04074 0.026663 -0.008069 0.003681 0.029538 0.002708 0.029513 0.015607 -0.034245 -0.03547 0.03376 0.002661 -0.017373 -0.024681 -0.001152 0.031383 -0.02647 0.027499 -0.018471 -0.035202 0.015657 0.00607 0.002849 -0.029084 -0.020093 0.028598 0.021771 0.026642 0.013333 0.014975 -0.025652 -0.006866 -0.009187 0.026904 0.040849 -0.026134 -0.011641 -0.004185 0.016862 -0.027874 -0.017383 0.001826 0.034284 -0.00868 0.029077 0.024835 0.029958 0.016386 0.010492 -0.024062 0.01873 0.028213 -0.02497 0.005173 -0.022924 -0.028909 0.035229 -0.021499 -0.014399 0.031358 -0.011785 -0.026762 -0.022098 -0.007436 0.034142 0.0267 -0.005883 0.019862 -0.02346 0.021177 -0.016015 0.013518 -0.006755 -0.020573 0.004446 -0.030929 -0.018853 0.02509 -0.009962 0.000858 0.021581 0.011944 0.015529 0.02753 0.009489 0.015205 0.006735 -0.031444 -0.005449 0.003797 0.025004 0.018971 -0.025276 0.019982 -0.026946 0.024898 -0.023523 -0.019767 -0.023201 0.026497 0.047188 0.014365 0.023363 0.019154 -0.005482 0.00517 0.036492 0.005109 0.005173 0.023568 0.01636 -0.022854 0.024609 -0.03894 0.000573 0.007255 0.016261 0.02071 0.020838 -0.003847 0.021409 0.024895 0.001597 0.03174 0.00325 -0.009273 0.017148 -0.013446 0.023991 -0.022272 0.002372 -0.016247 -0.00179 0.03425 -0.017051 0.032423 -0.004972 -0.010112 -0.025542 0.003474 -0.024334 -0.021566 -0.013 0.003519 0.007449 0.027641 0.016343 0.018811 0.028579 -0.007229 0.0213 0.018178 0.029543 0.023379 -0.000881 -0.008359 -0.038658 0.006535 0.017672 0.000421 0.035294 0.0315 0.006564 0.029397 -0.001849 0.004954 -0.043177 -0.034837 -0.033902 -0.027842 0.001387 -0.021319 0.005795 0.009398 -0.023834 -0.025992 0.007904 -0.032381 -0.019226 -0.041073 -0.034714 -0.032111 -0.046584 -0.043132 -0.002958 -0.024289 -0.019741 0.026738 0.0053 0.024971 0.023486 0.003774 0.022376 -0.028205 -0.03214 0.01438 -0.03822 -0.016831 0.013839 -0.014113 -0.019995 -0.010534 -0.004359 -0.022452 -0.02981 -0.008841 0.010678 -0.034652 -0.021025 -0.018118 0.006833 -0.01995 -0.010047 0.011372 -0.011235 -0.007457 -0.020161 0.03817 0.025861 0.002763 -0.056781 -0.019194 -0.022357 0.011837 -0.01382 0.031967 -0.011807 0.033766 0.022098 -0.001451 -0.021287 0.011017 0.004523 0.005975 -0.003 0.025745 -0.008283 0.011748 -0.003727 0.00947 -0.020783 0.008213 -0.031882 -0.025965 -0.007432 -0.001522 -0.034438 0.0295 -0.034547 0.017844 0.004683 -0.010406 -0.020579 -0.018278 0.039844 0.027571 0.033153 0.012892 -0.030787 -0.006121 0.018662 -0.032322 -0.030681 0.008426 -0.014301 -0.009584 -0.005157 0.025599 0.030265 0.009995 -0.015339 0.012115 -0.030524 -0.000988 0.029713 -0.008935 0.009154 -0.034683 -0.039096 0.019465 0.005041 -0.022578 0.008105 0.034559 -0.005958 -0.022061 -0.003328 0.016367 0.016737 -0.019795 -0.011963 -0.019846 0.026468 -0.024645 0.023459 0.001234 -0.018523 0.029659 0.008243 -0.013998 0.002077 0.02485 0.019555 0.032589 -0.001684 -0.030634 -0.030877 -0.015301 -0.000964 -0.019151 0.040283 -0.020888 -0.003971 0.039923 -0.024275 -0.010829 -0.023844 0.025079 0.034744 -0.001625 -0.019593 -0.000572 -0.035411 0.016343 -0.018744 -0.013411 -0.007495 0.010263 -0.032361 -0.012064 0.02786 -0.011078 -0.022546 -0.005816 -0.037612 -0.00511 0.010222 0.034753 0.033943 -0.012046 -0.008734 0.016082 0.019048 -0.006349 -0.016959 -0.034642 -0.002741 -0.03681 0.03037 -0.032743 -0.027018 0.022225 -0.023877 -0.037204 -0.041803 -0.045942 -0.046841 -0.028029 -0.023441 -0.021408 -0.007419 0.041312 -0.014372 0.009801 -0.021342 0.045698 -0.007446 0.01518 0.019768 0.000213 0.006437 -0.000826 -0.001431 0.022017 -0.026733 0.020782 -0.022448 0.024044 -0.011529 -0.006253 -0.02711 0.007328 -0.000264 -0.002728 -0.030563 0.008451 -0.019172 0.016326 -0.001317 0.017743 0.013407 0.032212 -0.021639 0.013937 0.048777 -0.004303 0.018603 -0.011491 -0.019343 0.035001 -0.027811 0.004746 0.025893 0.011614 0.024936 0.017351 -0.034003 0.006784 -0.019804 0.014693 0.014201 0.007301 0.00687 0.014335 0.046707 0.032432 0.024664 -0.003699 -0.021594 -0.015643 0.012018 -0.009925 0.033206 -0.006564 -0.003488 0.008945 -0.003025 0.017608 0.010733 0.008242 0.005375 0.033203 0.001446 0.030864 0.02058 -0.026879 -0.014305 0.005764 0.022297 0.043695 -0.017595 -0.001456 0.007746 0.042553 -0.030546 -0.026846 0.028115 -0.021798 -0.006828 0.017245 0.013544 0.037327 -0.023567 -0.028671 -0.023373 -0.01656 0.030922 -0.032078 0.033676 0.011394 0.001938 -0.014824 -0.018434 0.01556 0.001305 -0.025422 0.023244 0.009675 -0.006103 0.039894 -0.003818 -0.001551 -0.038615 -0.001466 -0.017936 -0.003387 -0.025095 0.004783 0.012513 0.022083 0.013336 0.016954 -0.011566 0.010517 0.013618 0.012173 0.045365 -0.010671 0.0325 0.018394 -0.026585 -0.012166 -0.036678 0.009109 -0.03209 -0.001741 -0.024275 0.027319 -0.009116 0.027544 -0.017907 0.027579 -0.018609 0.030654 0.02255 -0.000291 -0.019959 0.02842 -0.009442 0.027797 0.036985 0.004601 0.026106 0.010824 0.016031 -0.018479 0.01525 0.029193 0.013814 -0.033412 -0.008726 -0.039089 -0.032093 0.002332 -0.027738 0.003011 -0.017568 0.019549 -0.031714 0.019434 0.026408 -0.009184 -0.019439 -0.024043 0.004148 -0.03207 0.034179 -0.013198 0.023588 0.014942 -0.005695 0.013033 -0.038473 -0.003561 0.012573 0.011716 -0.04683 -0.035174 -0.02692 -0.034647 -0.00472 -0.003971 0.022231 -0.011278 0.017202 -0.018818 -0.007872 -0.02746 0.025152 -0.026199 -0.030469 -0.030081 0.030333 -0.023359 -0.031017 0.006122 0.002495 -0.0422 -0.060279 -0.00275 0.031452 0.012398 0.045907 0.033903 -0.01374 0.018189 -0.000479 -0.035493 0.025905 0.006264 0.026884 0.029663 0.031957 -0.02246 0.038564 -0.022171 -0.018064 -0.026783 0.023618 0.024228 0.015301 -0.030209 -0.003225 0.016535 -0.021019 -0.029408 -0.009404 -0.002261 0.024831 -0.01894 0.00672 0.031273 0.037479 -0.01676 0.026605 -0.026592 0.034756 0.011933 -0.030737 0.003054 0.012095 -0.027244 0.008553 -0.003127 -0.020011 -0.010795 -0.023744 0.018056 -0.031026 0.005302 0.015909 0.002557 0.018437 0.010691 0.031851 0.003274 -0.000404 -0.028884 0.010789 -0.001991 0.000711 0.028412 0.004064 0.027142 0.025977 0.017638 -0.010351 0.021575 -0.018215 0.006828 0.026285 -0.01447 -0.002104 -0.034336 -0.021651 0.016486 -0.013459 0.02841 -0.000233 -0.032336 0.015577 0.000994 0.021227 -0.020948 0.029228 0.010284 -0.024655 0.01244 0.012889 -0.014038 -0.015088 0.032784 0.012329 -0.029057 -0.030551 -0.009608 0.007863 0.010321 -0.011178 0.04702 -0.017618 0.025517 -0.001453 0.016456 -0.016148 0.020761 0.011559 -0.031125 0.014366 -0.005901 0.013812 -0.006295 0.01321 0.008352 0.002129 -0.029705 -0.004189 -0.024939 0.004882 0.00018 -0.009863 -0.038598 -0.006115 -0.020719 -0.028491 0.003291 -0.024184 0.001336 0.019504 -0.010164 -0.010707 -0.033552 -0.003779 -0.029237 0.004499 0.001729 -0.014923 -0.02827 -0.002702 -0.029507 0.007601 0.022765 -0.035429 -0.013529 -0.026249 0.010252 -0.023485 -0.033429 0.015975 -0.022598 -0.025046 -0.005773 -0.011605 0.033732 0.027151 -0.001377 0.048245 0.013761 0.036421 0.013909 0.032458 0.015323 0.027728 0.020606 -0.023957 0.020026 -0.004566 -0.026726 0.027802 0.018736 0.018265 0.005886 0.022074 -0.013616 -0.026281 0.029062 0.020906 0.045247 0.016257 0.005468 0.028774 -0.036279 -0.014241 0.013903 0.002207 0.014685 -0.00079 0.014386 0.022169 -0.025638 0.036559 -0.02065 0.035328 0.034964 0.032927 0.010792 -0.001416 0.014115 -0.01189 -0.004436 0.023654 -0.023871 -0.014365 0.042162 0.028852 0.011855 -0.036099 0.01569 0.008312 0.03473 0.009631 0.023995 -0.011261 0.015736 -0.012416 0.001434 0.023434 -0.026233 0.016794 0.018106 0.014496 -0.023558 0.012138 -0.012548 -0.028043 0.013296 0.007091 0.027506 0.015956 -0.027562 0.0303 -0.040414 0.011203 0.017309 0.02769 -0.009436 -0.018825 0.010057 0.033034 -0.018127 0.018152 -0.020016 0.014459 -0.020457 0.006403 0.025812 -0.024505 0.002058 -0.007855 -0.002001 0.034122 -0.039629 -0.026985 -0.032916 -0.031826 0.006914 -0.018021 -0.001481 0.003035 -0.00557 -0.016864 -0.004255 0.019834 -0.022844 -0.013871 -0.01044 -0.017092 0.007998 0.028431 0.014991 0.019441 -0.021063 0.001189 0.021368 0.032061 0.020183 -0.010027 -0.026785 0.029575 -0.005646 0.002948 -0.005003 -0.006129 -0.032046 -0.031197 0.015054 0.003428 0.014716 -0.040408 -0.019256 0.025582 0.023533 0.012331 -0.020975 -0.024814 0.009951 -0.036568 0.010867 -0.003852 -0.015883 -0.01626 -0.014357 0.021844 0.017929 -0.00448 -0.022877 0.00993 -0.030822 0.02043 0.019166 0.037788 0.02323 -0.009118 -0.024321 -0.032686 0.005342 -0.005514 0.01707 0.010533 0.015345 0.030317 0.030848 0.016055 0.034061 -0.006422 -0.011624 -0.007327 -0.047626 -0.030701 -0.010517 -0.012024 0.015552 0.021845 0.007417 0.003275 0.022148 0.018627 0.032796 0.003524 0.009354 0.026234 0.030846 -0.007786 0.026762 -0.032759 0.019682 -0.022096 -0.032681 -0.008824 -0.020863 -0.013653 0.016385 -0.030696 -0.034499 0.003644 -0.004243 -0.02566 -0.008638 0.005701 0.00133 0.015861 0.005978 -0.002027 -0.00111 0.029363 -0.009336 0.023749 -0.01086 0.035236 -0.026845 0.031685 0.017849 0.025746 -0.015833 -0.013797 0.020811 0.019123 0.011093 0.033758 -0.014285 -0.02693 -0.020049 -0.015803 0.034549 0.040461 0.036293 0.020925 -0.013357 -0.004983 -0.016651 0.004528 0.029716 0.000101 0.029494 0.013113 0.006331 -0.032336 0.031298 -0.008707 0.027494 -0.011727 -0.000486 -0.001556 -0.033636 -0.036981 0.011826 -0.029302 -0.037365 -0.006221 0.028155 -0.03419 -0.032203 0.018911 -0.017701 0.036334 0.021608 0.037173 0.021474 0.004406 -0.009124 -0.025905 -0.026522 -0.00623 -0.015133 0.020245 0.023781 -0.030352 0.005297 -0.000379 -0.004445 0.011469 0.015439 -0.020606 -0.011406 -0.014878 -0.029001 0.003987 0.037116 0.025329 -0.008808 -0.026585 0.009549 0.001151 0.024445 0.016986 0.027732 0.009411 -0.005803 -0.020018 -0.009649 0.016391 0.002683 0.013573 0.017563 -0.027725 0.007402 0.001425 -0.012109 0.00099 -0.037756 -0.036345 0.02065 -0.008669 -0.025593 0.014431 -0.009596 0.013205 -0.022096 -0.004855 0.017141 0.030609 0.012494 0.026523 0.016273 -0.00392 0.015251 -0.019508 -0.012008 -0.004093 0.010815 -0.027486 0.021857 0.032745 0.017971 0.00367 0.000859 -0.016571 0.01354 0.015889 -0.008324 0.03512 0.015733 0.017921 0.003578 -0.020246 -0.009261 -0.023735 -0.030681 -0.000174 0.023125 0.015497 0.030287 0.020303 -0.000666 -0.000779 -0.0179 -0.000305 -0.006289 0.008207 -0.004579 0.033266 0.009979 -0.021417 -0.018656 0.010645 -0.039294 -0.007619 0.005625 0.007109 0.029624 0.029199 0.037941 0.024188 0.029609 0.004689 0.027869 0.021705 -0.002881 0.030024 0.022515 0.022892 -0.012437 0.007047 -0.010233 0.020097 -0.016088 -0.034195 -0.03894 -0.005246 0.017237 0.012213 -0.023291 -0.014016 -0.03716 -0.010633 0.009276 0.034278 0.029304 0.005581 0.006 -0.023096 0.020442 0.010813 -0.014765 -0.025844 -0.049166 -0.032616 0.019951 0.061568 0.075701 0.008075 -0.011486 -0.059858 -0.032038 -0.037856 -0.015342 -0.002648 0.016135 -0.016257 0.030996 0.02142 -0.027461 0.019309 -0.003021 0.012262 -0.026229 0.003391 -0.018648 0.019876 -0.008383 -0.012599 -0.03047 -0.025681 0.015664 0.011696 0.052769 0.075234 0.018904 -0.032939 -0.065965 -0.032432 -0.02722 0.017228 0.033433 -0.007079 0.028111 0.015102 0.032297 -0.008866 0.010508 0.018709 0.00613 -0.004148 0.032624 -0.010707 0.024868 -0.006703 -0.009436 -0.006547 0.01074 0.00058 -0.020287 0.010574 0.048506 0.028739 0.00545 -0.015269 -0.05109 -0.038078 0.02961 0.003723 -0.006429 -0.020701 -0.024214 0.015938 0.033682 0.025797 -0.013208 0.021633 0.020017 -0.00454 -0.004153 0.015877 -0.012916 -0.030955 0.022794 -0.021389 -0.019649 -0.034853 0.032096 0.034489 0.028926 0.039357 -0.002796 -0.048818 -0.051923 0.032192 0.005212 0.03729 -0.012412 0.016638 -0.02045 -0.011043 0.031325 -0.012644 -0.004075 0.004559 0.000149 0.006578 0.009675 0.014816 -0.029512 0.00494 -0.011784 -0.025594 -0.013985 0.016997 -0.01687 0.025192 0.006684 -0.014208 0.02152 0.01334 -0.003691 -0.001075 0.015742 0.026718 0.017668 0.011649 -0.011667 -0.015635 0.007918 -0.039846 -0.035212 0.008358 -0.039985 -0.003752 0.036873 0.030734 0.027483 -0.011355 0.043104 0.00648 0.024244 0.038296 0.03711 0.017314 0.012226 0.026862 -0.022911 -0.013448 -0.0181 -0.013208 0.022618 0.008504 -0.015652 -0.019053 -0.029304 0.00051 -0.026931 0.024475 0.001496 -0.030739 -0.002628 0.012459 0.022414 0.019334 -0.01548 0.008996 0.04234 0.011458 0.031671 0.028733 0.038217 -0.014085 0.012049 -0.018206 0.004311 -0.027967 -0.024922 0.035817 0.014755 -0.018577 -0.010938 0.01103 -0.030549 0.03032 -0.025858 0.038188 -0.01746 -0.027798 0.003026 -0.023848 -0.002904 0.011065 0.018868 0.011046 -0.005045 0.046241 -0.009294 0.03575 0.033863 0.036726 0.037531 -0.028709 -0.007014 0.012565 0.009089 -0.00319 0.02291 -0.038879 -0.003935 -0.001882 0.036851 -0.000886 0.029201 0.004645 -0.011727 -0.037187 -0.046666 -0.004961 0.011375 0.011054 0.014479 -0.03895 0.00989 0.000427 -0.007905 0.029633 0.000434 0.032585 0.026642 -0.002754 0.036849 -0.022749 0.002784 0.011578 -0.009866 0.024433 -0.001721 -0.009105 -0.000147 0.028101 0.026826 0.039881 -0.018403 -0.035001 0.025638 -0.009515 0.030166 0.023471 0.027714 -0.042725 -0.028099 -0.03128 0.028765 0.022889 0.017301 0.006126 -0.013444 -0.012391 0.021496 -0.009412 -0.007221 0.004242 0.02464 -0.003996 -0.015833 -0.025115 0.029166 -0.002711 -0.031135 -0.002943 0.021837 -0.038067 -0.015913 -0.015538 -0.018891 -0.021355 -0.005915 -0.028474 -0.005046 0.002934 0.019496 -0.029281 -0.000394 -0.006451 0.009925 0.025604 -0.030367 -0.034121 0.03015 0.029361 0.022274 -0.018444 0.004922 -0.025656 -0.034568 -0.018254 -0.000545 -0.014938 0.00702 -0.020022 0.027706 -0.020319 0.026124 0.011126 -0.019666 0.021456 -0.005326 -0.022851 -0.001731 0.03403 -0.014379 -0.027538 0.001316 -0.02074 -0.00272 -0.029635 -0.036858 -0.03618 0.015642 0.009765 -0.01191 0.010437 -0.008788 0.026948 0.027176 0.012665 -0.029917 -0.007493 -0.026773 0.012897 -0.006022 0.000422 0.03088 0.031553 -0.02822 0.014727 -0.036241 -0.020539 -0.015828 -0.019779 0.017349 -0.00596 0.008821 0.008125 0.019221 0.013003 0.019919 -0.034972 -0.014427 -0.007703 0.015668 0.000329 -0.026095 0.030504 0.000644 -0.025705 0.004153 0.013738 0.000575 -0.005809 -0.006606 0.029751 -0.016734 0.025223 0.005878 -0.007173 -0.038571 -0.006146 0.018325 -0.00441 -0.00063 0.01193 0.017772 -0.000331 -0.021552 0.014049 0.021923 -0.017237 -0.021882 0.022216 0.018043 -0.005294 -0.012344 0.042339 -0.013594 -0.003805 -0.011231 0.038898 0.031804 0.016642 0.025145 -0.017174 -0.011801 -0.024472 -0.001449 0.020775 0.006125 0.01135 -0.011294 0.013319 -0.01134 0.016654 0.016904 6.6e-05 0.029789 0.031267 0.00384 0.027325 0.018176 0.021906 0.000142 -0.008575 0.032723 0.025649 -0.004176 -0.023814 0.035938 -0.02399 -0.004719 -0.002705 -0.000657 0.003627 0.027638 -0.038692 0.027634 -0.019228 0.030713 0.017297 0.002786 0.011667 -0.010932 0.016154 0.028461 -0.002949 -0.010827 -0.000157 -0.008223 -0.000294 -0.0034 -0.001503 0.011154 -0.011594 0.023092 0.001047 -0.009482 -0.034375 0.031676 0.00221 -0.028689 -0.011732 0.020745 0.037509 -0.014123 0.002711 -0.020378 0.027121 -0.034381 0.007763 0.005769 0.020469 0.009025 0.008772 -0.031532 -0.027058 0.031432 0.02734 -0.000955 -0.003348 -0.032279 -0.028657 0.025514 -0.039667 -0.028074 -0.002348 -0.001463 0.043077 0.032997 -0.002598 -0.017654 0.006726 -0.028831 -0.006792 -0.009374 -0.013339 -0.030772 -0.000279 0.003546 -0.011765 -0.019956 0.014916 0.004719 0.000486 0.032364 0.006254 -0.012935 0.014663 -0.019762 -0.001292 -0.037251 0.026334 0.013972 0.024386 0.018199 0.034226 -0.014773 0.018145 -0.01913 0.001728 0.027596 -0.000461 -0.011567 -0.019108 -0.032842 -0.012162 -0.024142 0.020295 -0.016582 0.007852 -0.032194 -0.004361 0.007488 -0.021553 0.032309 -0.005292 -0.0038 -0.035186 -0.041171 0.032126 0.033241 -0.001379 0.032024 0.010151 -0.028111 -0.013045 0.01295 0.02888 0.029443 0.024769 0.041326 -0.003475 -0.025764 -0.03968 -0.001467 -0.000307 0.023253 -0.022033 0.015807 -0.003012 0.015647 -0.024513 0.008829 -0.014965 -0.034282 -0.031988 -0.025871 0.02324 -0.028343 -0.001121 0.004709 -0.000732 -0.012966 -0.02184 0.01749 -0.018636 -0.026947 0.025003 0.015674 0.012418 0.006546 0.026988 0.021614 0.017825 0.021571 0.030263 0.009024 0.019764 -0.010511 0.039608 0.000491 0.010599 0.013309 0.016229 -0.03553 -0.036334 0.022241 0.031052 -0.000186 -0.033069 0.006708 -0.010887 -0.018291 -0.02252 -0.022053 -0.000444 -0.005342 -0.005971 0.026255 -0.014518 0.028787 -0.024571 0.03133 -0.007391 -0.022969 -0.029991 0.031953 0.012038 0.015859 -0.010447 0.00326 0.02567 -0.017983 0.028653 -0.034806 0.003008 0.006707 0.018141 0.016479 0.025224 0.009654 -0.013144 -0.030602 0.016929 0.004361 -0.001744 -0.029934 0.009276 -0.031435 -0.013396 -0.000242 0.005505 0.019799 -0.012178 0.025733 -0.005721 7.3e-05 0.003106 -0.022111 0.009265 0.023446 0.01274 -0.053455 -0.008903 -0.022686 -0.002575 -0.019012 -0.032507 0.020734 0.042758 -0.022644 0.027149 0.002043 -0.007914 -0.034447 0.004136 0.011005 0.012247 0.022081 0.01233 0.020629 -0.002062 0.003292 -0.001251 0.027293 -0.004114 -0.010545 -0.02825 -0.037102 -0.048949 -0.049584 0.019101 0.002235 0.000705 -0.019206 -0.004368 0.038798 0.031136 -0.000642 0.020498 0.00679 -0.027451 -0.034194 -0.021284 0.010574 0.002537 0.030598 0.029767 -0.032976 0.014698 -0.030265 -0.032593 -0.00066 -0.034299 -0.049222 0.007378 -0.047853 0.020395 -0.010702 0.021091 0.027018 0.034134 -0.02314 0.027399 0.012081 -0.01501 0.033478 0.011592 -0.035474 -0.043801 -0.040685 -0.020283 0.026011 -0.01957 0.023315 -0.001203 0.034869 0.000863 0.010932 -0.026578 0.015294 0.012663 -0.002955 -0.009483 0.012375 -0.008187 0.001534 -0.012228 0.036979 -0.030817 -0.000342 0.001003 0.034973 0.007069 0.010641 -0.013748 -0.020225 0.007932 -0.026221 0.027553 0.028877 0.009955 0.035417 0.022974 0.00012 0.013589 -0.014254 -0.01809 0.017878 -0.012253 0.016105 -0.014867 -0.014408 -0.018233 0.031016 0.001761 0.035021 0.009939 0.036203 0.001916 -0.006527 -0.00955 0.031881 0.012542 0.016341 -0.018112 0.031743 -0.004399 0.042281 -0.009278 0.026214 0.052563 0.032776 0.021911 0.015194 0.001197 -0.001133 -0.007658 0.01717 -0.020343 0.032918 -0.004968 0.002733 -0.002538 0.000145 0.026698 0.007362 0.010099 0.022666 0.01686 -0.003775 0.035061 -0.007459 -0.033399 -0.025291 0.032664 0.037927 -0.020935 0.020767 0.007111 -0.014687 0.026401 -0.039937 -0.022507 -0.037377 0.001092 0.009901 0.030058 0.043377 0.035045 -0.017452 -0.000479 -0.020286 -0.021015 0.023189 0.025462 0.024011 -0.019166 0.027398 -0.020665 -0.035707 -0.036445 -0.005693 0.013988 0.03672 -0.031572 -0.030942 -0.032209 -0.01342 -0.010906 -0.015391 -0.011311 -0.038933 -0.003853 0.021185 0.014795 0.004982 0.014004 -0.025604 -0.021044 0.011502 -0.032344 -0.019279 0.00806 -0.014816 -0.017462 0.012953 -0.034801 0.012125 0.000995 -0.015233 -0.045249 -0.020376 -0.012299 -0.002454 -0.040175 -0.043175 -0.052805 0.01376 0.056361 0.002297 0.039424 0.044711 0.044504 -0.00451 -0.027959 0.012511 -0.006716 -0.023168 -0.005159 0.032197 0.01699 -0.020296 0.022971 0.01361 -0.029922 0.018804 -0.011817 -0.015792 -0.020375 -0.022775 -0.012586 -0.001748 -0.025613 0.015494 0.021946 -0.002714 -0.008317 -0.012562 0.04286 0.02894 0.011935 0.017121 -0.022975 -0.003143 -0.00332 0.012438 -0.017001 -0.011554 -0.028345 0.033812 -0.022262 -0.008314 0.003473 -0.013345 -0.043005 -0.000756 -0.017798 0.004759 0.00616 -0.03269 -0.022194 -0.019117 0.001631 0.006097 -0.013208 -0.014016 0.031858 -0.022308 0.011117 -0.033524 -0.014176 0.027742 -0.005884 -0.013748 0.028412 -0.044431 -0.027958 0.020331 0.002737 -0.015729 -0.057094 -0.045611 -0.04344 -0.040243 -0.035242 -0.057998 -0.049715 0.010947 -0.013675 0.012566 -0.012227 0.018432 -0.001341 -0.030769 0.013635 0.013231 0.021618 0.017942 -0.016213 -0.010427 -0.027304 -0.018137 -0.018061 -0.017433 0.029709 -0.003468 0.007555 0.007021 -0.001292 -0.019022 0.03101 -0.025244 -0.01383 -0.025515 -0.054302 -0.05714 -0.036484 -0.010854 -0.01657 0.026023 -0.016206 -0.034541 -0.020082 0.009773 0.014686 0.021749 0.018006 0.028477 0.002988 -0.019133 -0.000545 0.00511 0.03946 0.007316 -0.011119 -0.017514 0.003671 0.027091 9.1e-05 -0.01952 0.011617 -0.007371 -0.018078 -0.02526 0.001111 -0.002063 -0.024298 -0.01401 -0.026426 0.001322 -0.016859 -0.032113 -0.011113 0.023614 -0.018978 0.034232 -0.015125 -0.02784 -0.030275 0.012931 -0.007258 0.035039 -0.026225 -0.009064 -0.017907 0.014246 0.028323 0.018441 0.010259 -0.023219 -0.016592 -0.017733 0.02418 0.05104 0.019405 0.036709 -0.039759 -0.028714 0.006727 -0.0328 0.020582 0.052236 0.049178 0.033097 0.025174 -0.012319 -0.022768 0.010326 -0.016678 0.0048 0.0122 0.007929 -0.028331 -0.013146 0.018508 -0.019367 -0.000822 -0.024545 -0.017139 0.010062 -0.004808 -0.00546 -0.00357 0.032952 -0.024752 -0.051693 0.002149 -0.029971 -0.014639 0.002971 -0.004959 -0.033431 0.008617 0.034565 0.005351 -0.000143 -0.004431 -0.017337 -0.033458 0.014809 0.027868 -0.011317 -0.005397 0.028765 0.032305 -0.026148 -0.000582 0.033987 -0.00717 0.02184 0.037047 0.011496 0.017269 -0.009907 -0.015489 -0.018388 -0.009913 -0.002663 -0.014355 0.024273 -0.043217 -0.003404 -0.007471 0.010258 0.016594 -0.022324 0.030756 0.031978 0.001207 0.020668 0.030657 -0.013253 0.014771 -0.029184 0.037248 0.019992 0.018894 -0.016796 -0.005018 -0.033417 -0.006251 -0.036516 -0.024062 0.048675 0.024697 0.025403 0.01807 -0.014128 -0.006498 0.012583 0.021682 -0.003071 -0.02835 0.022739 -0.002598 -0.005675 -0.033192 0.003735 0.033133 0.027675 0.020741 0.033454 0.011555 0.015815 0.029493 0.040257 0.001361 -0.001063 -0.033223 0.006311 -0.010437 -0.020116 -0.018114 -0.005846 0.014722 -0.02358 0.001323 -0.031211 -0.033584 -0.02484 0.003749 -0.013074 0.001982 -0.024492 -0.02893 -0.024773 0.037957 -0.002056 0.013095 -0.004283 -0.010569 -0.026252 -0.028046 0.023709 0.007143 -0.019865 -0.01309 -0.017111 -0.000224 0.031308 -0.001141 0.012698 -0.001004 -0.002452 -0.01357 0.009922 0.017976 0.013663 -0.014191 -0.019295 -0.021091 0.016081 -0.002836 0.021996 -0.023697 0.019904 -0.02158 0.000344 0.025681 0.018919 -0.000165 0.013018 -0.018877 -0.021584 0.001247 -0.01513 -0.021774 -0.03491 0.007875 0.026124 0.033409 0.017597 -0.004203 -0.017693 -0.026949 -0.011899 -0.007541 0.02652 0.018146 -0.035642 0.007754 0.021662 0.022583 -0.027378 -0.015463 0.003346 -0.012566 0.001051 -0.004096 -0.027774 0.002199 0.007092 -0.023497 0.01594 0.001826 -0.036911 0.006267 0.015142 0.018294 0.028892 0.006511 0.00273 0.012997 0.023522 -0.014445 -0.001099 0.002188 -0.000589 -0.008209 0.011651 0.008527 0.036155 0.02083 0.029125 0.006418 0.022297 0.001202 -0.003712 0.009385 0.01855 -0.005949 0.010383 0.000671 0.031616 -0.002376 -0.025517 -0.007151 -0.027458 0.025658 0.009841 -0.029874 -0.01466 0.005915 -0.029749 -0.014531 -4.7e-05 -0.039841 -0.021138 -0.000137 0.003925 0.034597 0.014421 0.006313 0.034663 0.041333 -0.010175 -0.020225 -0.008223 0.027739 0.005134 -0.025219 0.011838 -0.039185 0.030608 0.023941 -0.014325 0.004139 -0.023008 -0.032645 -0.027909 -0.041897 0.005849 0.023257 0.001258 -0.014946 -0.002647 0.002413 -0.021848 -0.028167 -0.02585 0.030129 0.005086 0.024244 -0.002323 -0.028106 -0.030748 0.015307 0.033751 -0.006286 -0.005768 -0.043533 -0.023661 0.00198 0.019447 0.013808 -0.021917 0.026414 -0.012353 -0.035072 -0.00432 0.005525 0.021821 0.028346 0.007364 0.017855 0.030634 -0.029745 -0.035026 -0.035414 0.013677 -0.01522 -0.032869 -0.000254 -0.012714 -0.034262 -0.019567 -0.008179 -0.015644 0.010984 -0.004721 -0.048811 -0.001426 -0.004829 0.036221 0.013554 -0.000534 -0.008686 -0.020966 0.024547 -0.017923 0.03013 0.014266 0.022301 -0.007118 -0.034476 -0.009769 0.001195 0.007412 0.01084 -0.038108 -0.017807 0.01872 -0.026676 -0.032451 -0.007148 -0.01795 -0.00636 0.007096 -0.000395 0.005189 0.038545 -0.000137 -0.018329 -0.033215 0.023755 -0.006568 0.017613 -0.011316 -0.014479 0.019367 0.021239 -0.012362 -0.025428 -0.020989 -0.011294 0.015917 0.026379 -0.033527 -0.011532 -0.036948 -0.0007 0.032913 -0.008695 -0.000233 0.002615 -0.002698 -0.011838 -0.017621 0.014266 0.010149 -0.00511 -0.008855 -0.003844 -0.010233 -0.010619 0.021739 0.029776 0.029268 0.009516 0.028925 -0.019716 -0.035111 0.024586 -0.021701 -0.032586 0.020995 0.032614 0.023348 0.026949 0.03851 -0.013427 0.020538 0.015812 0.03793 0.026185 -0.026914 0.000661 0.017721 0.025916 0.013134 0.031274 0.03102 0.002474 0.007856 -0.022544 -0.021133 0.033981 -0.024976 0.002963 0.039495 -0.01517 0.025573 -0.012021 0.008437 -0.002629 0.008864 -0.01816 0.040432 0.038165 0.01317 0.018912 0.031359 0.005077 0.032917 -0.011219 -0.019017 0.015725 -0.025599 0.001064 0.0239 -0.029852 -0.035171 -0.025572 0.020447 -0.02172 -0.005015 0.023998 -0.017411 0.015645 0.008561 0.019574 -0.035614 -0.018169 -0.003697 -0.01674 -0.028572 0.0278 -0.032473 -0.02362 -0.017937 0.032819 -0.025515 0.006138 -0.009607 0.023217 -0.008351 -0.015359 0.017571 0.031365 -0.003484 -0.001915 -0.03988 -0.001739 -0.008064 0.044582 0.024582 0.003386 -0.00622 -0.020863 -0.022009 -0.019614 -0.032218 -0.016302 -0.015696 -0.042525 -0.036196 -0.025116 -0.021984 -0.021358 0.002883 0.01448 0.030334 0.023109 -0.010361 0.010925 0.008521 -0.012101 -0.000555 -0.003929 0.048173 0.011014 -0.011794 0.004871 0.028898 0.010844 0.040867 -0.007766 -0.034327 0.017102 -0.0205 -0.030147 -0.037636 0.029836 -0.006611 0.017178 -0.027278 0.002662 -0.013747 0.029779 0.035473 0.019052 -0.022464 0.014052 -0.015268 -0.018345 -0.002349 0.008805 -0.026625 -0.012736 -0.041565 -0.04564 -0.016509 -0.015014 -0.00753 -0.034959 0.013781 -0.009308 0.030241 -0.005157 -0.017819 0.031728 -0.036893 -0.025737 -0.032761 0.014695 0.01805 -0.018653 -0.024964 -0.007861 0.025892 -0.025603 -0.020141 0.023855 0.01923 -0.013813 -0.015666 -0.014131 -0.004637 -0.017506 -0.04517 -0.004988 0.015869 -0.004065 0.030577 0.007798 0.003181 -0.034223 -0.038767 -0.037191 -0.017354 0.028885 0.010222 0.004014 -0.019982 0.01178 -0.035787 0.02552 -0.027881 -0.033214 -0.027894 0.00897 -0.0312 -0.002196 0.000582 0.009468 -0.022651 -0.014027 0.003865 -0.028867 -0.021844 0.000431 -0.005053 -0.032551 0.007826 -0.031084 -0.005195 -0.000214 -0.031745 -0.001586 0.032958 0.030399 -0.019428 -0.001612 0.035379 -0.027809 0.012828 0.002824 -0.04355 -0.003283 0.010381 -0.007061 0.010399 0.031475 -0.013221 0.024372 -0.017489 -0.007785 -0.013575 -0.016532 -0.028925 0.026544 0.032624 -0.019878 0.017475 0.008238 -0.020225 0.012024 0.036248 -0.004706 0.009036 -0.02526 0.013856 -0.01045 -0.010952 -0.032246 0.015303 0.011236 -0.032009 0.030557 -0.024558 -0.029051 0.005973 -0.024386 -0.030966 -0.018629 -0.005583 -0.001582 -0.014684 0.031652 0.004691 -0.000435 -0.001039 -0.006446 0.011751 0.026547 0.024246 0.007442 0.03258 0.005874 -0.035449 0.003416 0.014957 -0.009668 0.015137 -0.005711 0.010792 -0.024294 0.033151 0.007426 -0.02684 -0.005712 0.032317 0.03466 0.018801 -0.000767 0.002917 -0.020115 0.007557 0.03585 -0.029526 0.009049 -0.013371 -7.2e-05 0.019266 -0.024717 -0.012404 0.024452 -0.036055 -0.031938 -0.012717 -0.013186 0.028036 0.031547 0.025594 -4.6e-05 -0.006114 0.016979 -0.012802 0.026456 -0.010066 -0.008604 0.03232 -0.034066 0.007924 0.008484 -0.021698 0.02949 -0.003019 0.016391 0.008297 -0.008197 -0.023334 -0.010992 -0.031097 0.02108 0.013455 0.008718 -0.018032 0.035495 0.028712 0.011672 0.021205 0.021626 -0.004588 0.033204 -0.013893 -0.004989 -0.029507 -0.029316 -0.006127 -0.010558 0.020765 -0.029213 0.0054 0.034028 -0.002354 -0.020542 0.016812 -0.00702 -0.00696 -0.013672 -0.01458 -0.004943 0.014341 0.021851 -0.021952 -0.018899 0.009493 -0.022444 0.003274 -0.005804 -0.025872 -0.015821 0.017432 0.009665 0.001006 0.006677 -0.01131 -0.015531 0.018205 0.020994 -0.022913 0.026703 0.031031 0.00785 0.036729 -0.005166 0.021596 0.004529 0.012029 -0.015986 -0.032546 0.012398 0.014105 0.028207 -0.021704 0.023322 -0.025174 -0.044929 0.008877 -0.000734 -0.007705 -0.014059 -0.006446 0.015541 -0.004181 -0.019886 -0.003721 -0.034246 0.001831 0.029475 0.00768 0.028277 -0.031913 -0.024767 -0.027264 -0.043691 -0.021631 -0.016785 -0.024354 0.025537 0.005328 -0.025094 -0.001937 0.004708 0.015632 0.013567 0.020573 -0.010159 0.008483 -0.021619 0.016236 -0.001817 0.008305 0.005173 -0.024378 0.030813 -0.027987 -0.02442 -0.016451 -0.025195 -0.032206 -0.031372 -0.009677 0.011684 -0.039586 0.022982 -0.006867 0.005105 -0.010978 0.009219 0.027776 0.000172 -0.001744 -0.036097 -0.028241 -0.011403 -0.016987 -0.013185 -0.022771 -0.013313 -0.035864 -0.012096 -0.003808 0.006539 -0.019829 -0.026515 0.031632 0.021482 0.033714 0.015241 -0.035542 -0.001587 -0.003704 0.003895 0.030318 0.03105 0.005085 -0.00209 -0.012762 0.001901 0.039042 -0.005109 -0.016142 0.003201 0.003904 -0.021966 -0.035838 0.024234 0.006853 0.033537 0.007502 0.017687 -0.025119 -0.015913 0.033685 -0.035101 -0.03023 -0.013142 0.013925 -0.036596 -0.001324 0.007133 -0.003824 0.020057 -0.005664 0.016344 0.015944 0.011755 -0.025256 0.037652 -0.030761 0.004448 0.040806 -0.01402 -0.013857 0.013523 0.028236 0.023055 0.010586 -0.022324 0.00134 -0.007389 -0.009023 -0.005908 -0.031795 -0.025545 0.030881 0.02432 -0.017822 -0.018783 0.034143 -0.015744 -0.033779 -0.017543 -0.037626 -0.010892 -0.032024 0.020771 0.018482 0.009055 0.034907 -0.018986 0.026912 -0.024091 0.015233 0.017433 0.00467 -0.025365 -0.031502 0.016103 -0.035679 0.012772 0.015758 -0.028459 -0.019005 -0.032719 0.019447 0.016245 -0.010676 -0.004873 0.027488 0.024883 -0.038705 0.010115 -0.012656 0.003965 -0.013791 -0.002935 0.022884 -0.025605 0.035057 -0.012844 0.006429 0.008848 0.020084 -0.02618 -0.030087 0.028192 -0.02538 0.031667 -0.004229 0.010991 0.024823 0.024782 0.009724 -0.00263 -0.011081 0.021655 0.015739 -0.014531 -0.000698 0.010187 0.01645 -0.018344 -0.022887 -0.013884 0.026306 -0.028089 0.019723 0.003563 0.009544 -0.026847 -0.005801 -0.025512 0.002808 0.019721 -0.019673 0.033063 -0.006879 -0.026389 0.004775 -0.021994 0.026387 0.008921 0.01599 0.013782 -0.020137 -0.03442 -0.017326 0.026455 -0.005248 -0.03475 0.000455 -0.027683 -0.001609 -0.010466 0.000121 -0.000126 0.004151 -0.002557 0.007558 -0.007367 0.031063 0.025271 0.003556 0.037124 -0.001086 -0.023956 0.01781 -0.008035 0.015392 -0.006612 -0.030224 0.021622 0.037516 0.031147 0.02626 0.012381 0.016468 0.035335 -0.012112 -0.016248 0.00574 -0.031915 -0.023043 -0.017467 -0.022518 -0.009119 -0.023919 0.01194 -0.027191 0.027612 -0.002082 -0.030663 -0.011997 -0.00538 0.004094 0.031789 -0.033277 -0.014733 -0.007868 0.011106 -0.009477 -0.026248 -0.030598 0.044567 0.019357 0.012761 -0.037001 -0.003724 -0.028826 -0.005712 0.028823 0.029073 -0.017631 -0.004715 0.02902 -0.0246 0.024134 0.01489 0.015713 0.021892 -0.001478 -0.010046 0.022666 0.015328 0.019955 -0.011607 0.002042 0.025465 0.02712 0.006004 -0.013335 0.038568 0.009245 0.025065 -0.032824 0.026623 -0.016979 -0.03112 0.001235 -0.024906 0.025583 0.022784 -0.028214 0.032222 -0.02056 -0.018895 0.019297 -0.037155 -0.013006 0.006533 -0.009925 -0.013643 0.007442 0.03108 0.012518 0.028786 -0.022243 0.032831 0.012359 0.015858 -0.029545 -0.023732 0.018835 0.029886 0.007389 0.005627 -0.017351 -0.033881 -0.014449 -0.030524 0.017165 0.022304 0.012868 0.016085 -0.023543 0.002068 -0.001793 -0.026025 -0.012137 0.014662 -0.001734 0.011412 0.029558 -0.017421 0.044731 0.030337 -0.016541 -0.007167 -0.013466 -0.01069 -0.039691 0.013063 -0.043199 -0.006589 0.034926 0.014571 0.018394 -0.010924 -0.016934 -0.030461 0.013819 -0.017534 -0.000155 -0.003372 -0.010574 -0.041461 -0.016231 -0.012831 -0.008974 -0.029485 -0.02916 -0.029113 -0.012459 0.008904 -0.010564 0.006087 0.008242 0.010885 -0.002741 -0.002434 0.022811 -0.013575 -0.035597 -0.026894 0.014749 0.003118 -0.018856 -0.032199 0.040455 0.005295 0.029155 -0.009507 -0.01689 -0.002708 -0.039226 -0.016487 -0.033643 -0.065533 -0.026592 -0.03523 0.019864 0.027004 -0.031866 -0.034671 -0.03147 -0.007032 0.016139 0.018072 -0.03487 -0.018224 0.019278 -0.03113 0.025412 -0.031161 -0.034704 -0.021364 -0.009717 -0.007228 -0.017164 -0.035008 -0.050697 -0.009601 -0.012385 -0.035217 -0.035477 -0.015426 -0.060436 0.002888 -0.02709 -0.029537 0.009225 -0.026044 0.00573 0.029576 -0.003529 -0.025646 -0.020356 0.033542 0.019954 -0.007608 0.027608 0.020642 0.016055 -0.031106 -0.004977 -0.029888 0.005309 0.007383 -0.041132 -0.05564 -0.009511 -0.039213 -0.051154 -0.005728 0.016889 0.033841 0.012671 0.025391 0.022895 0.014545 -0.002417 0.031709 -0.004678 -0.033835 -0.000184 -0.021461 -0.032868 -0.002157 0.015201 -0.001041 0.023812 -0.010418 0.009151 -0.025533 -0.015678 -0.011361 -0.030065 0.007691 -0.022183 -0.039683 -0.024751 0.00793 0.000475 0.008313 -0.037747 -0.013215 0.012864 -0.009216 0.027305 -0.009877 -0.010076 0.005521 0.039035 -0.011745 0.027011 -0.034725 0.017763 0.03707 0.02533 0.017743 0.038289 -0.018366 0.036184 0.009686 0.012364 0.011131 -0.00713 0.014789 -0.004448 0.019495 0.008105 0.019032 -0.035043 0.026061 0.011274 0.001069 -0.035916 -0.034299 0.004178 -0.025033 -0.017395 0.017965 0.016078 -0.046541 0.012162 0.011595 0.009518 -0.023732 -0.020273 0.000464 0.000351 -0.01095 -0.005482 0.021574 -0.02121 0.019564 -0.002554 0.028074 0.013789 0.031095 0.03 0.014211 0.017528 -0.023464 0.026483 -0.007815 0.023 -0.026979 0.010824 -0.012529 -0.00034 -0.044351 -0.029119 -0.011631 -0.014094 0.000929 -0.036308 0.004483 0.0029 0.00841 -0.019535 0.033708 -0.021033 0.011319 -0.001668 0.009563 0.03163 -0.012981 -0.034636 -0.005183 -0.034019 -0.02763 -0.017731 0.022907 0.022197 0.001783 -0.019765 -0.016895 0.011277 -0.018453 0.034892 0.008179 0.017794 0.011388 -0.010533 -0.017265 0.002637 -0.036325 -0.019101 -0.00094 0.002054 0.028626 -0.024144 -0.028961 0.016001 -0.017809 -0.024275 -0.02896 0.017446 0.017084 -0.039204 0.008267 -0.021146 -0.026796 -0.019163 0.00252 -0.001953 -0.004301 0.007444 0.023758 -0.014066 -0.006592 -0.027573 -0.031523 -0.00175 0.032105 0.024545 0.010912 0.031153 0.014966 0.002508 -0.037092 -0.020525 0.019323 -0.002995 -0.03293 -0.053852 -0.033093 -0.021734 -0.019127 0.008377 0.021818 -0.001987 0.025366 -0.026769 -0.032148 0.016967 0.015315 -0.020575 0.009372 0.032311 -0.022841 -0.019771 0.025728 0.02333 0.016069 0.014728 0.01839 -0.016015 -0.000219 0.015877 -0.007657 0.020317 -0.028722 -0.00413 -9.9e-05 -0.002874 -0.012954 -0.024717 0.014426 0.00347 -0.031929 0.027075 0.003236 0.009337 -0.010021 0.017573 -0.031577 -0.018015 -0.014578 -0.019168 -0.015105 -0.029548 -0.009441 -0.026958 0.024086 0.033068 -0.026901 0.01161 -0.004894 0.003727 -0.029993 0.00709 -0.033001 -0.015939 0.036212 -0.007138 -0.000987 -0.00424 -0.033873 0.006942 -0.013321 -0.026933 -0.030063 -0.009419 -0.027611 0.024967 -0.018471 -0.037942 0.009584 -0.026873 0.02769 -0.014748 -0.010473 -0.004593 -0.034071 -0.012992 0.024083 0.006212 0.012889 0.035986 -0.024265 0.031627 -0.005183 -0.015494 0.02677 -0.008229 -0.033135 0.0172 -0.030491 -0.016832 0.022088 0.023619 -0.029725 -0.011374 0.033933 0.014118 0.010974 0.008946 0.013919 0.032661 -0.014215 -0.001348 0.029819 0.015371 0.009713 0.008203 -0.000157 0.020201 0.01866 0.026984 0.039646 -0.002616 0.017148 -0.004868 -0.000892 -0.007843 -0.009215 -0.023707 0.027352 0.011687 0.021615 0.006281 -0.027334 0.034931 0.016572 -0.030424 0.018431 0.022606 0.020366 0.008789 0.002027 0.015803 0.026479 -0.000448 -0.009705 -0.010061 -0.019936 -0.000827 -0.025281 0.004892 -0.029336 -0.035576 0.005488 -0.034655 -0.016129 -0.019741 0.007049 -0.032577 0.026074 0.004864 -0.028808 -0.034115 0.032986 0.037149 -0.030899 -0.00031 0.008686 0.024874 -0.032565 -0.01383 0.002861 -0.030707 -0.028143 -0.029227 -0.013447 0.016338 0.004622 0.034718 0.02919 0.003822 0.013032 -0.030006 -0.023422 -0.0249 0.032798 -0.025873 0.012358 -0.001042 0.022048 0.028693 -0.008904 0.020529 0.00022 -0.022873 -0.02697 -0.032263 0.022232 -0.007448 -0.022523 -0.033424 -0.026089 0.016981 0.003518 0.02545 0.024934 -0.023515 0.017714 0.021856 -0.023803 -0.008085 0.018367 -0.028425 0.0299 -0.005233 -0.024583 -0.007847 -0.017906 -0.002477 -0.003833 0.002802 0.0272 -0.031605 -0.007104 5.4e-05 -0.016222 0.000602 -0.012037 0.027821 -0.033507 0.032051 -0.032818 0.010067 0.020354 0.006287 -0.009088 -0.029632 -0.019621 -0.024123 -4e-06 0.029643 0.013335 -0.0269 -0.021558 -0.020137 0.022887 -0.033575 -0.030934 0.027712 0.015786 -0.000936 -0.003683 -0.007718 -0.000747 0.011841 0.002251 0.027616 0.037922 0.038921 0.036591 0.031204 -0.023805 0.000236 -0.008357 -0.004798 0.022206 -0.04277 