0.015802 0.028222 0.012475 -0.005352 0.040162 -0.002306 -0.013573 0.017871 -0.023561 0.00518 0.000983 -0.006236 -0.026575 0.025541 0.036755 -0.003239 0.016134 -0.011073 0.018511 -0.033653 0.036095 0.02547 0.010868 -0.018515 -0.007913 0.00164 -0.030886 -0.002245 -0.004901 -0.014675 0.038955 -0.007746 0.030631 -0.01096 0.00133 -0.000283 0.029625 -0.01368 -0.030322 -0.012176 0.006822 0.024464 0.01121 0.024494 0.012806 -0.011625 -0.016471 0.018276 0.003022 0.022976 0.015352 -0.00134 0.032744 0.002108 -0.029871 0.020164 -0.015862 -0.027189 -0.022212 0.018275 0.022611 0.00112 -0.009821 -0.006096 -0.018115 -0.001039 0.009815 -0.014702 -0.013889 0.027719 -0.014693 0.006215 0.022335 -0.002854 -0.016803 -0.004776 0.034787 0.004646 -0.006517 -0.028905 -0.033772 0.014573 -0.009619 0.026489 -0.020727 0.009779 0.002663 -0.013782 -0.013087 -0.034025 -0.002104 -0.024591 0.022161 0.006589 -0.033157 -0.022112 0.022267 -0.020961 0.029872 0.00515 0.014258 -0.022021 0.025205 0.021734 -0.013293 0.012335 0.009647 -0.017244 -0.002591 -0.019939 0.006293 0.005845 0.030544 0.014204 -0.012364 0.004007 0.015943 -0.010999 -0.019069 0.012013 -0.001496 0.003762 0.027939 0.027099 -0.028363 -0.004655 -0.007778 0.01924 0.002771 0.026142 -0.000133 0.032306 0.004089 -0.00584 -0.022877 -0.010048 -0.013277 0.008239 0.029433 -0.000792 0.005829 -0.021804 -0.003627 -0.023089 0.010999 0.016214 -0.023153 -0.007604 -0.006561 -0.011042 -0.003861 -0.026815 0.001574 -0.010939 0.014242 0.002303 -0.020409 0.029399 0.01797 1.7e-05 -0.029277 0.015867 0.025406 -0.02057 0.027523 -0.021875 -0.023773 -0.012885 0.02336 0.009037 0.00031 -0.02922 0.012954 -0.018739 -0.034087 -0.019089 -0.002745 0.005523 -0.000439 0.019053 0.028642 -0.04089 -0.002304 0.000349 0.010072 -0.021028 -0.00343 -0.017377 0.016142 0.030873 -0.030539 0.021919 -0.021026 0.005855 0.008097 0.023356 0.027725 -0.004665 -0.010307 -0.023646 -0.014217 -0.02488 0.004672 0.007313 -0.016462 -0.003674 -0.001096 0.01092 0.020725 -0.000684 -0.024019 0.022983 -0.002143 0.006595 0.010831 -0.02322 -0.011434 0.024226 -0.005756 -0.023054 0.025734 0.026194 -0.007521 -0.021573 -0.004764 0.038391 0.00645 0.019575 0.028764 -0.003964 0.003733 -0.017335 0.011603 0.014481 -0.010642 0.007485 -0.009816 0.02916 -0.022864 -0.019069 0.016218 -0.023254 0.026008 0.00104 -0.007406 0.002236 -0.007789 -0.028713 -0.022222 0.030805 -0.01954 -0.011415 -0.02765 0.002648 -0.006131 -0.005008 0.007007 0.023842 -0.021699 0.031215 0.0039 0.01196 0.014716 -0.001403 -0.022176 0.024602 -0.029828 -0.012425 -0.0004 0.005837 0.028429 0.021641 -0.010828 -0.026821 0.000422 -0.011233 -0.01672 0.021482 -0.023399 -0.014328 -0.028563 -0.040172 -0.025876 -0.002896 -0.026528 0.027227 -0.005692 -0.011452 0.006569 -0.006289 0.028815 -0.017052 0.008714 0.019782 -0.014327 -0.024975 -0.002798 0.008466 -0.017498 -0.013739 0.00344 0.037946 -0.000698 -0.018163 -0.014383 0.00348 0.020144 0.031675 -0.012425 0.024184 -0.02163 0.006424 0.017097 0.016109 -0.017674 -0.018508 -0.018505 0.006418 -0.025326 0.010969 -0.014268 0.029658 0.006488 0.022992 0.003054 0.017786 -0.014719 0.031352 -0.02809 0.023531 0.008688 0.008933 0.010834 -0.029226 -0.004598 0.027863 0.024128 0.028914 0.009409 0.014754 0.026784 -0.013277 0.017997 0.032853 -0.005661 -0.009534 0.029352 0.030892 -0.011536 -0.005889 8.8e-05 -0.017501 0.030357 0.013396 -0.008378 -0.027624 0.025908 -0.031449 0.018017 0.009873 0.015137 0.022001 -0.008892 0.029272 0.03068 -0.038829 0.005872 0.000542 0.010017 0.027193 0.021182 -0.019946 -0.024434 -0.0021 0.014701 -0.035672 0.046991 -0.017306 0.023005 0.009185 0.014196 0.006943 -0.003516 -0.018952 -0.00234 -0.023359 -0.030463 0.015938 0.005221 -0.016316 0.012852 -0.004994 0.005142 -0.02101 0.028994 0.033275 0.017908 0.012139 -0.012985 -0.018932 -0.020164 -0.001979 0.01767 0.001882 -0.004392 0.005243 0.007539 -0.010678 -0.021008 -0.027229 -0.027902 0.024905 0.027058 0.025324 0.032049 -0.023602 -0.014325 0.005765 -0.023796 -0.023626 -0.004024 -0.031818 0.011121 0.005806 0.029313 -0.029908 0.00063 -0.015901 0.012391 0.027622 0.031608 0.032027 0.012807 -0.022418 -0.015074 0.01987 -0.010317 0.018889 0.018797 0.025861 -0.002465 0.007659 0.02798 0.007224 -0.021428 0.005811 -0.026478 0.0086 -0.031434 0.024776 0.019152 -0.024623 0.013543 -0.021718 0.023888 0.002439 0.000487 -0.011927 0.005545 -0.009505 -0.003716 -0.010636 0.015381 -0.015753 -0.01478 -0.01922 -0.027332 0.015531 -0.014919 -0.011256 -0.001402 0.009951 0.02393 -0.009041 0.006607 0.015794 -0.007937 -0.021242 -0.005273 -0.02633 0.015807 -0.009794 0.011828 0.023831 -0.001305 0.026977 -0.016894 -0.017614 0.026522 0.002689 -0.0321 0.029609 -0.020945 0.024133 -0.009484 -0.016017 0.012404 -0.023302 -0.021579 -0.030167 0.004453 0.029715 -0.010407 -0.002325 -0.007081 0.026109 -0.021696 0.031901 -0.010449 0.008604 0.027812 0.000531 0.019442 -0.005994 -0.00936 -0.026495 -0.029808 -0.016039 0.008965 -0.007677 0.031094 -0.006277 -0.015005 -0.029904 0.000767 -0.027305 -0.026943 0.008173 0.020452 0.008069 0.024805 0.00425 -0.007986 0.016177 -0.00718 -0.016066 -0.016732 0.027236 0.002061 -0.013072 -0.000328 0.026781 -0.029553 0.025344 0.005529 -0.023127 -0.007382 -0.011819 0.024113 0.000417 0.02314 -0.023991 -0.023476 -0.020716 0.001699 -0.022792 0.012012 -0.027312 -0.009727 -0.021436 -0.027186 0.007744 -0.022007 -0.01973 0.005044 -0.021006 -0.003497 0.027142 0.000671 -0.015981 -0.018958 0.030082 0.030486 -0.029464 0.011237 0.013711 0.012828 0.012626 -0.006567 -0.028265 0.028742 -0.010826 -0.020506 -0.006629 -0.024533 0.018937 0.014405 -0.014766 0.00152 0.020909 -0.001137 0.023228 0.025393 -0.017849 -0.014265 0.023515 -0.029048 -0.022603 0.029807 0.024213 0.026241 -0.016448 -0.02553 9.3e-05 0.013894 -0.019062 -0.003841 0.003686 -0.023188 0.012288 0.019208 0.018622 -0.012015 0.021967 0.011146 -0.027226 0.013438 0.025671 -0.004119 0.015493 -0.023979 -0.018158 -0.018919 -0.000269 0.022616 0.025538 0.006496 0.027775 0.00091 -0.016749 -0.01963 0.028308 -0.018315 -0.003645 -0.01273 0.026394 0.027757 -0.019114 0.013927 -0.023718 0.010956 -0.029609 -0.030437 0.02807 -0.012622 -0.002294 0.000329 -0.022799 -0.02596 0.012351 -0.014134 -0.018711 0.01602 -0.001377 0.019823 0.017808 -0.027947 -0.011201 -0.016763 0.026702 0.024905 0.038988 -0.00905 -0.028735 -2.7e-05 -0.013292 -0.005987 0.024519 0.016433 -0.023964 0.028415 -0.011485 0.030375 -0.01166 0.022349 0.018629 -0.021477 0.007493 -0.005012 0.007019 -0.020449 -0.004447 -0.035489 0.0093 -0.019421 0.025656 -0.004001 -0.001475 0.008544 -0.009782 0.006303 0.030788 -0.006565 -0.017754 0.003219 0.010998 0.034472 0.017678 -0.029743 0.018249 0.014979 0.008739 0.015458 -0.016717 -0.011674 0.006076 -0.01607 0.025247 -0.035485 0.004985 -0.026012 -0.009585 0.031429 0.00903 -0.023118 -0.015176 -0.013245 0.023916 -0.018072 0.021077 0.019502 -0.023353 -0.022837 0.012694 -0.015549 -0.004334 0.003864 -0.018922 -0.001172 0.021765 0.03016 -0.019113 0.026611 0.007862 0.015803 -0.011475 0.027332 0.036185 0.02726 -0.018022 -0.024256 -0.026929 0.00262 -0.000886 -0.01871 -0.021059 -0.01193 0.020163 -0.02155 0.021729 -0.011203 0.022886 -0.018404 0.022581 0.017504 0.005666 -0.034863 -0.016648 -0.002147 -0.002937 -0.004475 0.011403 0.017677 0.015601 0.00276 0.00581 -0.027147 0.012896 0.017463 0.002336 -0.016352 0.015967 -0.019311 0.015599 0.007467 -0.015407 -0.016659 -0.009862 0.027446 -0.019312 -0.013919 -0.001097 -0.01438 0.028281 0.028513 -0.006266 0.007454 0.003866 -0.013183 0.013932 0.029301 0.005439 0.001184 0.012889 -0.02794 0.022879 -0.017105 -0.020168 0.009502 -0.026814 0.012128 0.010715 -0.003981 -0.015243 0.026938 -0.005638 0.003065 -0.026351 -0.008554 -0.007419 -0.026662 0.007042 0.020786 -0.006248 -0.018563 -0.016114 0.025676 -0.018283 -0.008154 -0.027251 -0.009003 -0.004829 0.012703 -0.028066 -0.00135 0.013194 0.023922 0.005057 0.003173 -0.004089 0.020763 0.017517 -0.023614 -0.015798 -0.001857 0.025474 -0.022092 -0.011513 -0.021512 0.018677 0.009674 0.028384 0.028327 0.000243 0.004421 -0.006301 -0.015304 0.023255 -0.020177 -0.0077 -0.004352 -0.026119 -0.007218 -0.032129 0.017979 0.016993 0.005341 0.024915 -0.00039 0.02133 0.01991 0.012734 -0.029445 0.021929 -0.000531 0.022505 0.015988 0.02233 -0.024473 -0.018943 0.012809 -0.002446 0.025451 -0.005362 -0.017272 0.008797 0.004341 -0.023055 0.007081 0.019057 0.007121 -0.009024 0.024106 0.028547 0.023803 0.02627 -0.021829 -0.017306 0.010782 0.018758 0.019816 -0.002452 0.007843 -0.026234 -0.009469 -0.028213 0.021791 0.001339 -0.017503 -0.010343 -0.026716 -0.024073 0.011064 -0.006233 -0.01831 -0.019152 -0.015534 -0.025594 0.030829 -0.020788 0.025101 0.002425 0.009161 0.028461 -0.001857 0.020562 0.011414 -0.002608 0.005226 -0.017022 -0.007991 -0.003398 0.017759 -0.024187 0.034928 -0.024925 0.015876 -0.003047 0.031726 0.025498 0.011133 -0.005595 -0.002715 -0.002548 -0.021353 0.022798 0.027033 0.004742 -0.008132 0.006722 -0.003185 -0.004657 -0.018613 0.002301 0.008916 0.014487 -0.024293 0.000949 0.016126 0.023771 -0.003581 0.014518 -0.00793 -0.021316 -0.016278 0.004187 0.012799 0.000273 -0.03395 -0.010696 0.018876 0.00663 -0.012624 -0.028105 -0.024783 0.01574 -0.025215 -0.00318 -0.014787 0.003045 -0.016652 0.009051 0.013689 -0.027033 -0.011409 0.031547 -0.01699 -0.007088 0.003678 -0.018599 0.000517 0.002931 0.007737 0.0049 0.017332 0.012451 0.011828 0.031775 -0.015864 -0.015808 -0.021155 0.024988 -0.025251 0.033219 -0.014029 0.006878 0.012713 -0.006262 -0.002007 -0.021624 0.003777 0.006408 -0.019423 0.00969 -0.011611 0.028916 -0.029878 -0.002924 -0.013781 -0.027242 0.017308 -0.022042 -0.002365 -0.037905 0.007872 -0.024012 -0.025609 0.005016 -0.005281 0.032178 -0.021649 -0.030092 -0.001076 -0.017964 0.013527 -0.032466 0.030006 0.027144 0.015678 0.007204 0.018028 -0.027525 -0.021734 -0.006656 0.009508 0.029672 -0.005354 -0.016513 0.019251 0.019097 -0.007794 0.016965 -0.014354 0.014894 0.024682 -0.027532 -0.022173 0.018941 -0.022679 -0.01331 0.02443 0.030885 -0.02582 -0.018203 -0.026219 0.031667 0.021018 0.023103 -0.003187 0.018298 -0.021553 -0.006418 -0.010268 0.009169 0.021815 0.000189 -0.001474 -0.005106 0.011218 -0.026219 0.005106 -0.029143 -0.024958 -0.025184 0.010338 0.014485 0.000118 -0.021565 -0.003959 -0.024447 -0.002896 0.02753 0.005219 -0.005422 0.00211 -0.001238 -0.00225 -0.001508 0.019095 0.025955 0.014519 0.024563 -0.007195 -0.007953 0.0063 0.008941 0.00241 0.011833 -0.010904 -0.012649 -0.014926 0.018935 -0.009517 0.004609 -0.004268 -0.02291 -0.009335 0.001013 0.011918 -0.009682 0.009181 0.018961 0.010795 -0.010509 -0.01099 0.014777 0.025262 0.019216 0.010601 0.006896 0.011133 0.022459 0.008962 -0.001663 0.000642 0.002588 -0.028204 0.023933 -0.025199 -0.006991 0.01856 0.012753 0.018972 -0.029846 0.026805 -0.026225 0.02605 -0.003379 0.006025 -0.026232 0.00402 0.004946 0.005458 0.025314 -0.012681 0.008799 -0.000868 0.002974 -0.005527 -0.012293 0.009469 0.010545 0.017168 0.012604 0.009466 -0.018728 -0.021797 -0.024353 -0.00386 0.034597 -0.012248 -0.00231 -0.014599 0.017197 0.03556 0.013283 0.010488 0.02587 -0.016664 -0.020797 -0.024384 0.019795 0.025338 0.005223 0.015596 0.019642 0.007621 -0.012652 -0.024969 -0.018144 0.011436 -0.009712 0.013428 -0.030199 -0.003794 0.015955 0.027507 -0.001192 -0.009955 0.00305 -0.017883 0.009046 -0.015015 0.015627 0.040248 -0.022344 0.01357 -0.019732 0.009627 0.004801 -0.002446 0.02405 0.032492 -0.002265 0.007189 -0.026223 0.016786 -0.021139 -0.022925 -0.003518 -0.011149 0.035141 0.015788 0.025573 -0.025923 -0.028902 0.031909 -0.026437 -0.027558 0.020068 0.016964 0.02378 0.019029 -0.014836 -0.012468 -0.001607 0.009111 -0.011933 -0.002356 -0.004047 -0.022161 -0.010356 0.007141 0.009265 -0.013455 -0.00765 0.009852 0.011443 -0.022043 0.030713 0.011613 0.035443 0.020268 -0.028999 -0.008053 0.016614 -0.03038 0.002223 -0.012858 0.004759 -0.028225 -0.026637 -0.02622 0.003419 -0.007198 0.008371 0.004511 0.025594 -0.009606 0.034603 -0.018106 0.029534 0.019119 -0.028701 0.029478 -0.012035 0.016395 -0.015537 0.004233 -0.027845 0.009209 -0.000818 0.011531 0.032061 -0.020685 0.015645 0.01128 -0.025427 0.025164 -0.007586 -0.001179 -0.029659 -0.007025 0.026776 0.015906 -0.026318 0.016377 0.015383 -0.013482 -0.007309 0.012206 -0.017927 -0.032794 0.019902 -0.007447 0.016668 -0.015538 0.009581 0.023789 -0.019598 -0.005688 -0.002544 -0.01627 0.00192 -0.019996 0.00694 -0.030537 0.003663 -0.003508 0.000344 -0.019211 0.005964 -0.029643 0.006301 -0.009591 0.008491 0.030818 0.022353 -0.013076 -0.03799 0.020398 -0.015192 -0.023195 -0.026592 0.000395 -0.008684 0.022831 0.014695 -0.017742 -0.02501 -0.018531 0.019668 0.033817 0.026892 0.001734 0.022737 0.004643 -0.019107 0.008083 0.00681 0.01454 0.005578 -0.009324 -0.024884 -0.000948 -0.020303 0.004364 -0.010024 -0.024586 0.027143 0.015478 -0.031623 0.014996 -0.030711 -0.004959 0.011555 -0.026411 -0.001129 0.010409 0.014552 0.014523 -0.009906 -0.010424 0.027879 -0.016556 0.032617 0.001012 -0.012827 0.00418 -0.016553 -0.035294 -0.029403 -0.016404 0.02597 -0.022928 -0.000786 -0.030265 -0.017114 -0.005703 -0.005644 -0.024505 -0.025462 -0.00617 -0.02269 -0.031387 0.01248 0.018692 -0.013149 -0.004003 0.005624 0.010929 0.000527 -0.012408 -0.010464 0.021725 -0.023332 -0.001267 0.011892 0.009734 0.026011 0.007748 0.00474 0.030642 -0.018561 0.01978 0.032017 -0.0082 -0.01147 0.010434 0.003341 -0.025724 0.017505 0.015198 0.006681 0.016483 -0.013236 -0.021714 -0.012677 -0.001805 -0.022667 0.000684 0.033737 -0.011953 0.013646 -0.007301 -0.004494 -0.008005 0.01072 -0.004625 -0.031446 0.024902 0.023866 0.0288 -0.003323 -0.001182 0.005134 -0.000606 -0.027063 0.007322 -0.016645 0.011852 -0.019251 -0.018059 -0.020219 -0.026335 0.008654 0.012517 -0.023973 0.016071 0.022939 -0.030712 0.000317 -0.026551 0.016562 0.010914 -0.033208 -0.005265 -0.006156 -0.013628 0.033361 -0.015802 -0.014108 -0.018069 0.01419 0.020086 -0.016369 0.008118 0.010136 -0.009963 -0.018523 -0.010124 0.014305 0.005604 0.035199 0.008782 0.022912 0.027294 -0.029098 -0.005885 0.014543 0.003631 -0.011637 0.020425 -0.018451 0.02056 -0.012176 0.038311 -0.01844 0.029993 0.018294 -0.007684 -0.013713 0.030759 -0.0049 0.019355 -0.012713 0.017108 -0.011885 -0.023712 0.027305 0.001813 0.034355 0.011746 -0.007857 -0.003748 0.022834 0.001349 -0.011497 -0.004144 0.039559 -0.00785 -0.002196 -0.013583 -0.031151 -0.011028 0.007446 0.025844 -0.029668 -0.018247 0.042539 -0.009567 0.005405 0.014035 -0.02758 0.000547 0.022215 -0.017834 0.020752 -0.013589 0.00659 0.022741 0.013819 0.001935 -0.019959 -0.011534 0.032862 -0.025291 -0.0283 -0.006078 -0.030647 0.030889 -0.016106 0.000773 -0.024728 -0.007579 -0.019156 0.013015 0.012811 -0.015601 0.021957 0.027763 0.020691 -0.023535 0.022156 0.030137 0.021017 -0.020341 -0.011887 -0.002918 -0.012239 -0.01221 0.034051 -0.029066 0.029807 -0.010759 0.013106 0.005855 -0.030848 0.024112 0.003109 0.009658 0.022632 -0.00127 0.004836 -0.008605 -0.032657 0.019976 0.004299 0.012974 0.011768 0.015466 0.010494 -0.014733 4e-06 -0.028494 0.000872 0.024906 -0.025128 0.038832 0.007003 -0.022862 -0.016257 0.002958 -0.021454 -0.002933 -0.024513 -0.007133 -0.01551 -0.017027 0.008619 -0.028195 0.020247 0.018349 0.020192 -0.019698 -0.011492 0.011085 -0.030834 0.036338 0.024664 0.007853 0.019213 0.001975 0.033825 0.013121 -0.025931 -0.025473 -0.037552 -0.015403 0.01306 0.014666 0.021958 -0.012756 0.031712 0.000642 0.006126 0.026769 -0.016448 0.016281 -0.012454 -0.006878 -0.022865 -0.016033 0.028643 -0.008345 0.003914 -0.002013 0.010844 -0.028645 0.005327 -0.030793 0.013506 -0.012249 -0.021206 -0.018839 0.010194 0.022815 0.033799 0.000798 0.007809 -0.004135 -0.029647 -0.01138 -0.017062 0.005565 0.021423 0.032702 -0.012138 0.023578 0.026497 0.018003 -0.00407 0.031942 0.027725 0.016635 -0.009518 0.02885 0.006984 0.001091 -0.006723 -0.003998 -0.004152 -0.029947 0.013022 -0.000712 0.013415 -0.010801 0.018051 -0.006336 -0.028854 0.030689 -0.010492 0.026745 0.020147 -0.001957 0.037321 0.018901 0.021796 -0.005834 0.009261 -0.002807 0.019319 -0.024632 0.001243 0.014259 -0.019675 0.014973 -0.010597 -0.015969 -0.003641 -0.00875 0.031637 0.012241 0.024096 -0.006644 -0.029379 -0.019302 0.009096 -0.014176 -0.013137 0.022864 0.007628 0.029629 -0.01848 -0.009572 0.016419 0.018612 0.027996 -0.019537 -0.01125 0.037135 -0.002223 -0.002104 -0.027829 0.001345 -0.021257 0.013873 0.030469 -0.01106 0.029717 -0.011975 -0.019844 0.005192 0.004647 0.034109 -0.025649 0.018612 -0.005479 0.003946 -0.026335 0.025271 -0.007341 0.025509 0.024201 -0.004248 0.026155 0.021615 0.019598 -0.032836 -0.021833 -0.013843 0.000274 0.022095 0.01276 0.007772 -0.031638 0.031992 -0.018895 0.038357 -0.016538 -0.024842 0.000783 -0.016608 -0.018088 0.003282 -0.030044 0.008788 -0.001188 0.003124 -0.002469 -0.007555 0.007183 -0.018038 -0.015309 0.030502 0.020144 0.01334 0.000676 -0.028382 -0.006039 0.012134 -0.00127 -0.026163 -0.004548 0.010774 0.037131 0.049629 0.007497 0.020079 -0.009219 -0.028426 -0.016314 0.000859 0.026736 0.007627 0.022567 0.005854 0.027771 0.009169 0.045246 0.040239 -0.028176 0.005736 0.009847 -0.013829 -0.022353 -0.02152 0.007868 -0.01235 0.037804 -0.003893 -0.035208 -0.001208 -0.019151 0.019914 -0.039445 -0.034995 -0.021079 0.020038 -0.021511 0.006536 0.001226 0.018103 -0.018318 -0.017196 -0.022458 0.026315 -0.022133 -0.017586 0.003599 -0.010013 -0.029867 -0.026143 -0.016263 0.022768 0.019262 -0.002783 0.0156 -0.030784 0.003775 -0.019755 -0.001385 -0.013834 -0.020198 -0.032457 -0.0116 0.00181 0.013516 -0.007453 -0.002118 -0.018099 0.001649 0.024847 0.011059 0.00669 0.001925 -0.00238 -0.000134 0.003977 0.007447 0.003291 -0.027396 -0.030228 -0.002541 -0.021303 -0.035063 0.010482 0.013764 -0.031265 0.035791 -0.028117 -0.029219 0.028948 -0.001104 -0.0135 0.040837 0.011233 0.017785 0.018128 -0.006759 0.000829 -0.023172 0.037348 0.030085 0.025837 0.026438 0.008281 0.006247 -0.021416 -0.021531 0.036268 0.010302 0.024074 0.014845 0.024895 -0.003185 0.02831 0.036037 0.001563 0.007928 0.025581 0.022249 0.014884 0.012714 0.004362 0.032984 -0.008752 -0.026574 0.00759 0.017289 -0.005863 -0.024567 0.000567 -0.007468 -0.000902 -0.026675 -0.03148 0.028995 0.014844 0.01531 0.031008 0.032286 -0.007958 -0.007106 -0.00929 0.005613 0.025571 0.005808 0.014781 -0.035851 0.020122 0.01821 -0.019724 -0.000463 0.012988 -0.013531 0.029767 -0.022737 -0.023774 -0.014594 -0.016597 -0.013265 -0.008657 0.020325 -0.00847 -0.013401 0.018649 -0.006637 0.029001 0.00823 0.028281 0.015545 0.00464 -0.003491 -0.016347 -0.004869 0.03109 -0.00663 -0.019773 0.006869 -0.011088 -0.017038 -0.009118 -0.025874 -0.00024 -0.024964 0.006018 0.020886 -0.019568 -0.001274 0.01736 0.013474 0.007954 -0.011279 0.024686 -0.011263 -0.031111 -0.028764 -0.003403 -0.015294 -0.00982 0.02403 -0.014334 -0.016889 0.018228 0.020047 -0.017779 0.009848 -0.003407 -0.015322 0.015404 0.021239 -0.009916 -0.013333 0.005199 0.036982 0.015178 -0.020053 -0.034964 0.014159 0.001113 0.038863 -0.019202 -0.004187 -0.017324 4.6e-05 -0.001874 0.002348 0.003899 -0.022568 -0.007202 -0.005275 -0.021638 -0.033229 -0.009748 -0.02763 -0.010902 -0.010198 0.018363 -0.028307 0.023219 0.02472 0.026084 -0.011635 0.010511 0.017685 0.032785 0.008849 -0.008568 0.002605 -0.002886 -0.02312 -0.019293 -0.008447 0.007806 -0.010879 -0.008284 0.017498 0.002835 -0.038105 0.012137 0.010243 0.026098 -0.040544 0.010647 0.035469 0.021374 0.019381 -0.004977 -0.006854 0.012575 -0.033696 0.010369 0.027241 -0.010044 0.00062 0.002048 0.02131 -0.01325 0.025182 0.018775 0.003088 0.019094 -0.004895 0.018692 -0.03407 0.004237 0.001651 0.023184 -0.011404 -0.030529 0.003682 0.019332 0.003028 -0.014475 0.01358 -0.028486 0.00618 0.032721 -0.003803 0.015944 0.014714 -0.009747 0.030914 0.025014 -0.009191 -0.028052 0.038492 -0.016063 -0.001309 0.020328 0.013605 0.018725 -0.01407 0.004386 -0.02058 -0.017128 -0.022888 -0.003316 0.027182 -0.004489 -0.007272 0.005753 -0.013457 -0.024632 0.001576 -0.02396 0.034312 0.018934 0.000695 0.02893 -0.013833 -0.01842 0.015453 -0.019137 0.006168 0.023197 -0.007518 0.019309 0.013906 -0.014728 0.020045 -0.017738 -0.003841 0.014577 0.028223 -0.02721 0.022511 -0.00849 -0.024342 -0.035152 0.024251 -0.005214 0.012822 0.03284 0.003174 0.018027 0.012927 -0.026914 0.003887 -0.005344 0.029725 -0.016943 -0.003556 -0.018445 0.001725 0.012477 0.037196 0.001143 -0.009037 -0.003886 0.01799 -0.007818 0.028668 -0.001148 0.020174 -0.023235 -0.020456 0.035322 -0.018549 0.027089 0.014888 0.02102 0.022022 -0.018096 0.002211 -0.008498 0.017928 -0.01731 -0.010184 -0.006011 0.034225 -0.01719 -0.020312 0.011601 -0.031414 0.027507 0.01345 0.015112 0.027747 0.020119 0.034684 -0.016763 -0.020674 0.005228 0.013271 -0.017385 0.012374 -0.008345 0.030665 -0.019725 0.033277 -0.013373 -0.022885 -0.000323 -0.009811 0.024269 0.036419 -0.031931 0.003321 0.025378 0.012034 0.019975 0.03358 -0.010327 0.014366 0.005915 -0.013835 -0.017498 -0.011283 0.017152 0.036099 0.031652 0.032981 -0.011223 -0.015768 -0.002009 -0.028099 0.017879 0.020371 0.023038 -0.012287 -0.012327 0.016163 -0.022143 0.016127 0.019532 0.006247 0.017702 -0.003656 -0.018547 -0.027984 0.005202 -0.015585 -0.031819 -0.020119 0.021504 -0.009113 0.008684 -0.00407 0.005356 0.033329 -0.009539 0.008371 -2.6e-05 0.001222 -0.020438 0.006915 0.010862 -0.001886 0.013501 0.006516 0.018462 0.005308 -0.031357 0.005809 -0.025821 0.016982 0.000581 0.025655 0.009189 -0.018924 -0.007301 0.002884 0.012145 0.031982 -0.01779 0.009533 0.024907 0.033368 -0.007021 -0.003318 -0.013708 0.001177 0.020215 0.018578 -0.024696 0.004576 0.009812 0.01253 -0.020501 -0.007114 0.003233 0.01648 0.004912 0.010628 0.005753 -0.022489 0.021721 0.027362 -0.007718 -0.019574 -0.007716 0.006467 0.011837 -0.009474 0.03157 -0.023268 0.043262 -0.020296 -0.012885 0.000764 -0.031389 -0.000467 -0.026413 0.022956 0.022437 0.017613 0.011446 -0.020217 0.018049 0.002661 -0.02664 -0.002911 -0.006255 -0.026149 0.031218 0.04116 -0.021695 0.003806 0.029103 -0.030803 -0.013008 0.001138 0.001314 0.02661 -0.030187 0.000237 0.00355 0.000972 -0.016147 0.020775 0.001244 0.013542 -0.021813 -0.024547 -0.02845 0.029881 0.011853 -0.012345 -0.014241 0.000613 -0.005779 -0.018021 -0.009337 0.008817 -0.004591 -0.027921 0.029612 -0.013956 -0.005275 -0.01958 0.024549 -0.00632 0.009602 0.020184 -0.010836 -0.029 0.000962 0.020889 0.019753 0.00064 -0.026632 -0.019696 0.016175 -0.015759 -0.023398 -0.001596 0.003441 -0.024877 -0.016284 0.028924 0.005712 -0.00447 -0.011158 0.017506 -0.012082 0.039443 0.003919 -0.017507 -0.01643 -0.012202 0.005982 0.025854 0.021122 -0.002188 -0.02199 -0.004276 0.002889 0.011752 -0.004037 0.027798 0.005428 -0.012749 0.016573 -0.03157 -0.013931 0.024554 -0.013752 0.007408 -0.019713 0.009394 0.033369 0.001808 0.013815 0.027474 -0.02759 -0.024955 0.00591 0.016405 0.017363 -0.011143 0.032627 -0.007802 -0.008721 0.024228 0.021056 -0.00216 0.015412 0.009457 0.027422 0.006574 0.016736 0.005182 0.013183 0.01823 -0.019014 -0.007083 0.018529 -0.032844 -0.019221 -0.028343 -0.010588 0.004789 -0.019103 -0.015409 -0.026627 0.02778 0.026598 -0.014264 0.015677 -0.031492 -0.010866 -0.002199 -0.009319 -0.014677 -0.000257 0.012494 0.022198 0.012572 -0.026843 -0.003363 -0.010482 -0.032656 0.00622 0.007929 0.016938 0.008707 0.015309 -0.008417 0.028416 -0.003755 -0.031182 -0.022378 -0.012033 0.019795 -0.018705 0.024391 0.013727 -0.00364 -0.023871 0.002801 -0.010036 0.0161 -0.014601 -0.00014 -0.021432 -0.019447 -0.02249 -0.003337 0.027267 -0.030471 0.010432 0.012299 -0.009639 -0.006136 -0.007946 -0.034719 0.027887 0.00779 0.027881 0.004621 0.007315 0.020226 -0.031722 -0.026348 0.02442 0.017145 0.002676 -0.005878 0.0053 0.003293 -0.029355 0.011082 -0.017463 -0.014925 0.012734 -0.0055 0.036111 0.030236 -0.012019 0.031809 -0.02891 0.040973 -0.014507 0.038445 -0.020019 0.009541 -0.02333 0.007021 0.013364 -0.034447 -0.022448 -0.000698 0.008314 0.003624 0.036227 0.025484 0.005955 -0.032924 0.00681 0.013506 -0.009805 -0.009738 0.024743 0.015651 -0.002552 -0.021287 -0.018814 0.014736 -0.038507 0.023807 -0.024618 -0.023784 0.02907 0.020997 0.002801 -0.022444 -0.007391 -0.002572 0.003799 -0.011641 0.004081 0.028404 -0.010589 0.025182 -0.019214 0.00703 0.004177 0.021265 -0.023683 0.032916 -0.032655 -0.00465 -0.022437 -0.012653 0.026337 0.021476 -0.026124 0.007481 -0.019473 -0.007258 0.028653 -0.015185 -0.022361 -0.023957 0.019399 0.029813 -0.012637 0.001444 -0.021589 0.009396 -0.002304 0.015019 -0.014157 -0.022767 -0.025492 0.004576 -0.007244 0.026812 0.040148 0.012488 -0.0056 -0.027263 -0.023748 0.015863 -0.027237 0.030391 -0.021227 0.029002 -0.018912 0.011141 0.000112 -0.013353 -0.020065 -0.022759 0.001948 -0.02202 0.026203 0.008112 0.017938 -0.029168 -0.019997 -0.01785 -0.003914 -0.024749 -0.016292 -0.023352 -0.041306 0.031266 0.01384 0.031641 0.017923 -0.031374 0.007537 -0.010162 0.023889 0.007791 0.005321 -0.006672 -0.001151 0.028132 -0.011401 -0.012703 0.01292 0.024511 0.019355 0.018399 0.035659 0.023029 -0.033897 0.031623 0.025074 0.002657 0.023081 -0.025962 -0.014564 -0.00465 0.012211 0.037441 0.041493 0.012714 -0.026587 0.0254 -0.001418 -0.015314 0.014502 0.024201 0.014426 -0.015611 -0.034653 0.011252 -0.003745 0.019732 -0.019952 -0.000786 -0.010747 0.031294 -0.003671 0.020558 0.005416 0.003355 -0.010923 0.026741 -0.013778 0.022024 0.000528 -0.004716 0.027607 -0.015747 -0.015781 0.006376 -0.034162 -0.011737 0.020113 -0.015523 0.032112 0.033571 -0.02717 0.001595 -0.007155 0.018031 -0.009753 -0.011564 0.024561 0.0418 -0.003266 -0.034452 0.016199 -0.002841 0.012708 0.009433 -0.005943 -0.01811 -0.013343 -0.024076 -0.025248 -0.02719 0.014692 -0.030083 0.038002 -0.030897 -0.02165 -0.030929 0.001777 0.007693 0.009821 0.018354 0.032733 0.010965 0.007648 -0.001718 0.023643 0.005221 0.028649 -0.005959 0.024738 0.002007 0.0248 0.022184 0.029552 0.006174 0.022254 0.000377 -0.031188 0.022979 0.013651 0.021014 0.013414 0.004413 -0.007756 0.019414 0.023217 0.003145 0.012911 0.016933 -0.028931 -0.007972 0.021468 0.015957 -0.03027 -0.031655 -0.001987 0.012142 -0.000382 -0.013032 -0.006103 -0.024877 0.009951 -0.017809 -0.03086 0.032404 -0.005904 -0.037579 0.010765 0.033436 -0.028398 0.010177 -0.009666 0.019723 -0.018381 0.034184 -0.00708 0.024956 0.002132 0.014229 -0.004174 0.012779 -0.011424 0.025187 -0.008588 0.018644 0.013222 0.020649 -0.002187 0.026682 0.009171 0.022142 -0.019818 0.01087 0.010012 -0.025313 0.01859 0.02409 -0.02807 0.00322 0.007056 0.012227 0.007704 0.038869 -0.025591 -0.005729 0.020708 -0.001577 -0.005538 0.024806 0.013371 0.017445 0.003931 0.015268 0.016132 -0.027121 -0.023068 0.008941 0.032895 0.001423 0.021829 -0.025171 -0.019554 -0.009465 0.007494 0.014816 0.001371 0.022574 -0.007577 0.026214 -0.010859 0.017635 0.001829 -0.005712 0.011766 -0.020683 0.030129 0.024911 0.010989 0.02013 -0.025035 -0.008944 -0.029062 -0.02265 -0.001298 0.017177 0.032688 -0.011112 0.029984 -0.012766 -0.030763 0.011513 -0.000632 0.013586 0.015577 -0.001455 0.015046 0.034665 0.006195 -0.007018 0.016035 -0.009669 -0.006009 0.003916 -0.004587 -0.008773 0.027746 -0.025344 0.031209 0.010553 -0.014258 0.030527 0.029455 -0.028128 0.023102 -0.018919 -0.004516 -0.010198 -0.014338 -0.007335 0.005532 0.024359 -0.020728 -0.014612 0.012536 0.009218 0.036415 -0.027776 -0.025415 -0.00033 -0.012723 -0.027315 0.018593 -0.00254 0.023883 0.009061 0.022283 -0.01541 0.016501 -0.023168 0.03185 -0.011249 -0.008635 -0.008852 0.022822 -0.018069 -0.005306 -0.019368 -0.010325 0.016528 -0.013691 0.032137 0.002833 0.002492 0.03059 -0.006314 -0.023162 -0.025358 -0.028066 -0.002189 -0.017578 -0.000297 0.004556 0.016319 0.013497 0.000404 0.026235 -0.031404 -0.028236 0.027122 -0.011807 -0.001829 -0.032608 0.018507 -0.013371 0.005477 -0.02247 0.015517 -0.02036 0.00591 -0.004561 0.033473 0.005441 0.01829 -0.022768 -0.029168 -0.017314 -0.030577 0.024642 -0.004187 -0.020002 -0.010499 -0.002681 -0.023216 0.013518 0.031162 0.008633 0.003186 0.021781 0.008524 -0.010681 0.010288 0.017783 -0.022252 0.027862 -0.006515 -0.017548 -0.015506 -0.013251 0.012828 -0.010604 -0.028396 -0.011622 0.015275 -0.004233 -0.012795 -0.02413 0.01649 0.031427 0.031623 -0.021104 0.019218 -0.017533 -0.011026 0.021625 0.024986 0.031391 -0.00617 -0.02609 0.016145 -0.001934 -0.022592 -0.022447 0.028958 -0.017424 -0.012299 0.022261 -0.017335 0.006569 0.007304 -0.011428 0.026973 0.007366 0.011837 -0.020673 -0.019957 0.028832 -0.017505 -0.017004 0.023256 0.001846 0.003861 -0.00552 -0.017159 -0.001797 -0.032708 0.01631 -0.011329 -0.014447 0.00584 -0.023281 -0.01883 0.032621 0.00068 -0.022273 -0.037064 -0.011266 0.034606 0.008782 0.02094 -0.002882 0.019885 0.010343 -0.033586 0.024773 -0.020607 -0.004089 0.019298 -0.01545 -0.022722 0.00562 -0.028856 0.003538 0.005895 -0.020273 0.015263 -0.013851 0.022924 -0.031613 0.0038 -0.012766 -0.022703 0.009575 -0.020226 -0.038561 -0.012785 -0.007116 0.030783 0.001096 0.009449 -0.028424 -0.023796 0.016447 0.02325 -0.029861 -0.015526 -0.002259 -0.018004 -0.000467 -0.001908 0.034883 -0.003235 -0.027723 -0.028681 0.004277 -0.003806 -0.02201 0.00375 0.018646 0.01367 -0.016066 -0.002425 0.004467 0.020955 -0.013583 -0.021703 -0.002874 0.009478 -0.026848 0.030185 -0.018923 -0.018313 -0.02581 0.028196 -0.011874 -0.001041 0.011056 0.041486 0.015454 0.026319 -0.009719 -0.013662 0.019478 0.025607 0.014001 -0.01726 -0.025721 0.031353 -0.019918 0.005557 -0.029075 0.004596 -0.000564 -0.006907 0.019174 -0.027696 0.034804 0.028154 0.007854 0.022045 0.003859 -0.031783 -0.023476 -0.023163 -0.001096 -0.016795 -0.029602 0.004174 0.00236 -0.011243 -0.007943 0.034178 0.008428 0.0327 0.025653 -0.016189 0.02929 -0.005131 -0.010286 -0.017581 -0.022996 -0.003453 -0.023442 0.022283 -0.013168 -8.3e-05 0.017525 -0.013542 -0.013848 0.004758 -0.002127 -0.00333 -0.008496 -0.02947 0.032253 -0.005925 0.003766 0.003597 -0.023584 -0.031824 -0.024831 0.009937 -0.023031 0.003881 -0.016922 -0.008744 -0.01964 0.010414 0.001193 -0.000813 0.003249 -0.027829 -0.018593 -0.029368 -0.016564 0.027038 -0.008222 -0.000921 0.020282 0.014122 0.01004 0.012123 -0.003314 0.000773 0.015742 0.013806 0.020399 0.0065 -0.02552 0.003425 -0.00467 -0.006033 0.01612 0.032093 -0.02299 0.036944 0.044309 0.029191 0.042607 0.019326 -0.02706 -0.023633 0.006009 -0.020958 -0.005816 -0.037972 0.032449 0.031682 -0.004924 0.021198 0.016167 -0.026647 -0.013078 0.045799 -0.024444 0.006701 0.010962 0.021506 -0.00555 -0.01478 0.024954 0.008788 -0.028281 0.014858 0.045007 0.02017 -0.037371 0.027159 0.022614 -0.011081 -0.012193 -0.012855 0.026055 0.023503 -0.006982 -0.000782 0.002367 -0.017219 0.006096 -0.011244 0.003564 0.009049 -0.021039 0.02832 -0.018365 0.032074 -0.029918 0.019167 -0.017983 -0.000159 -0.011595 -0.020376 -0.024626 -0.029178 0.031003 0.018931 -0.00798 -0.009054 -0.015503 -0.009157 -0.014928 0.019466 -0.018693 0.006885 -0.00874 0.011001 -0.016215 -0.004201 0.005927 0.033318 -0.020251 -0.027141 -0.033763 -0.008578 0.023863 -0.006615 0.010837 0.016044 0.007609 -0.014645 0.021282 -0.028849 -0.026098 0.017626 0.008579 0.032039 0.013475 -0.020841 0.007859 0.011106 0.011102 0.015949 0.016749 0.016305 0.014589 -0.014852 -0.02043 -0.025222 0.026679 0.02207 -0.025827 -0.006054 0.016644 -0.003673 0.002694 0.001897 0.010363 0.023414 -0.005777 -0.009315 -0.041075 -0.027592 0.004108 0.018159 0.011036 -0.023884 -0.038411 -0.013934 -0.021584 0.012416 -0.003156 0.035353 0.00585 -0.019235 -0.005022 -0.001979 0.023067 0.026811 0.007281 0.018126 -0.015349 -0.005801 0.030215 0.019982 0.016543 0.027871 0.024879 0.000491 0.008106 -0.016064 0.01753 -0.011576 0.022904 -0.005748 0.002852 -0.012175 0.014944 -0.012512 0.022833 0.014802 0.013946 0.014606 -0.01082 -0.016752 -0.018193 0.008468 0.008044 -0.007011 0.008951 0.009789 0.003948 -0.004632 0.02396 -0.015343 0.021285 -0.028649 0.00195 -0.019512 -0.007068 -0.016686 -0.01324 -0.010864 0.010487 0.024396 -0.017661 -0.023544 0.014061 -0.0045 -0.011023 -0.007051 -0.012124 -0.023781 0.005144 -0.003592 -0.022903 -0.029337 -0.001424 0.005255 0.022648 -0.024564 -0.025235 0.028347 0.008789 -0.020005 0.022768 -0.023331 -0.027103 0.014038 -0.013564 0.019269 0.010336 0.025108 -0.00749 -0.023355 0.001405 -0.017214 -0.019122 0.027141 -0.020796 -0.000674 -0.021145 -0.02615 -0.025567 0.026103 0.006556 0.027515 -0.025 0.018468 0.027394 -0.013939 0.003768 -0.00367 0.030227 -0.021132 -0.002612 0.007829 -0.017487 -0.016265 0.002877 -0.003528 0.012802 0.026939 0.030386 -0.011152 -0.010153 0.016575 -0.009581 0.007606 -0.003814 -0.008124 -0.000923 -0.016409 -0.027931 -0.025784 0.021036 -0.014164 0.02979 -0.008084 -0.023152 0.016992 -0.004584 -0.024848 0.027676 0.00745 0.025422 0.022976 -0.014859 0.0242 -0.019694 -0.027717 0.006442 0.026775 -0.002645 -0.001377 -0.003746 0.019973 0.014968 -0.017606 0.013588 -0.020858 -0.000446 -0.017692 0.012647 0.013144 -0.031481 -0.007378 -0.002376 -0.010493 -0.011387 -0.017279 -0.005508 0.017061 -0.002494 -0.02127 0.028933 -0.018273 -0.022848 0.023242 -0.015582 -0.004684 -0.007032 1.7e-05 -0.005673 0.015706 0.030404 -0.024216 0.002556 -0.027745 0.008169 -0.024738 -0.009787 -0.003568 0.014508 0.002639 -0.012102 0.006155 0.003784 0.022496 0.00429 0.029111 0.027729 0.008403 0.030449 -0.003303 0.001568 0.020902 -0.01784 0.006408 0.01805 0.032224 -0.007563 0.031519 -0.018198 0.002798 -0.027787 -0.001795 -0.027702 -0.01869 -0.004951 0.011719 0.028556 0.001219 -0.006183 0.008844 0.005438 0.028485 0.026336 0.005114 0.025137 -0.030394 -0.00191 -0.034073 0.022964 0.00064 0.030871 0.005833 0.027993 -0.007045 0.030093 -0.022109 -0.006827 -0.008127 0.020311 -0.014029 -0.018378 0.01343 0.008876 0.024308 0.01296 -0.007445 0.016647 -0.030129 0.0115 0.025398 -0.000265 -0.004973 0.021699 -0.002843 -0.001002 -0.021368 0.009022 -0.027239 -0.000624 -0.000314 0.032994 -0.028819 -0.019188 -0.005759 -0.005068 -0.030179 -0.022913 0.023507 0.027066 -0.000286 -0.003237 -0.016322 -0.006063 0.000774 -0.012448 -0.022795 0.009743 0.002646 -0.026768 -0.030196 0.001228 -0.023288 0.005148 -0.002288 0.003909 0.014776 0.037301 0.003093 0.012371 0.020261 0.018717 0.021984 0.019896 0.007228 -0.021348 -0.000102 0.00825 0.019008 -0.025212 0.011968 -0.011539 -0.023065 -6.2e-05 0.017917 -0.000127 0.005662 -0.028139 -0.001412 0.006341 0.01786 -0.009249 0.011599 -0.009256 -0.01475 0.01909 -0.007298 0.010486 -0.016112 -0.014109 -6.6e-05 -0.020168 -0.007839 0.013022 0.013473 -0.026157 -0.009625 0.019138 0.015341 -0.006003 -0.016206 -0.027893 0.009615 -0.011956 0.030973 -0.001722 -0.014758 -0.001626 0.002901 -0.019904 -0.027085 -0.0282 0.022592 -0.021232 -4.8e-05 -0.027159 0.025937 0.004572 0.013695 0.018125 -0.001623 0.012363 -0.007972 -0.023712 0.002188 -0.014765 -0.020337 0.012689 0.038274 -0.026073 0.022614 0.01666 0.014855 0.0134 -0.025167 0.012791 -0.005853 0.001128 0.010753 0.006851 -0.026376 0.016547 0.015264 0.000486 -0.022538 0.017768 -0.005061 -0.006047 -0.008938 -0.029982 0.033705 0.013549 0.009149 0.015269 0.032903 -0.022033 0.022118 0.006758 0.023945 0.01186 0.010732 -0.014787 -0.019644 -0.02481 0.024009 0.018519 0.027087 -0.001074 -0.016342 -0.011194 -0.001963 0.027783 0.033238 0.01606 0.010208 -0.031325 -0.001434 0.028505 0.021557 -0.001995 -0.029403 -0.020476 0.012737 -0.022863 0.018815 -0.015699 0.024374 -0.002824 0.02162 0.007363 -0.012898 -0.020907 -0.017306 -0.019722 -0.004577 0.020108 0.017465 0.005265 -0.017903 0.013896 0.023444 -0.014454 0.028459 -0.006293 -0.005432 -0.013483 0.021382 0.018565 0.042404 -0.019026 -0.023569 -0.011009 -0.0007 -0.02789 0.009359 -0.033621 0.026696 0.012815 0.016991 -0.004552 -0.000615 0.011484 0.023292 0.008216 0.01882 0.018188 -0.002422 -0.024658 0.023072 -0.013965 0.031423 -0.030856 -0.018842 -0.02251 0.025311 -0.008222 3.5e-05 -0.032829 0.017016 -0.023486 0.026331 0.019629 -0.032001 -0.034769 0.002137 -0.014888 0.018799 0.005773 0.025545 -0.009678 0.032427 0.036422 -0.024252 0.008611 0.010475 0.011278 0.000877 -0.006462 -0.00707 -0.019736 -0.039162 0.007884 -0.012222 0.014012 0.031565 0.030478 0.031969 9.4e-05 0.006985 -0.008531 -0.007721 0.034718 0.007985 0.01003 0.00552 -0.023563 -0.014228 0.026904 -0.032196 0.019399 0.001046 0.025524 -0.001846 -0.005948 -0.0294 0.016782 0.0135 -0.003505 -0.028159 0.013456 -0.000457 -0.013168 0.030539 0.009151 -0.020758 -0.02318 -0.020648 0.016856 0.031553 0.007406 -0.028985 0.00066 0.00818 0.020884 -0.021614 0.013683 -0.027734 0.028894 -0.020232 -0.013187 0.021437 -0.004922 -0.003923 0.007162 0.021337 0.004035 0.000212 -0.000853 0.020624 0.026905 0.009479 -0.009963 0.014793 0.0199 -0.018036 0.027496 -0.01247 0.013523 -0.023096 -0.013956 0.005553 -0.006455 -0.017948 -0.01682 0.021633 -0.016913 0.020007 0.027757 -0.025687 0.014734 -0.009878 0.016255 0.010899 0.024436 0.025263 0.01583 -0.027189 0.00834 -0.007615 -0.013623 -0.025635 -0.007972 0.024578 -0.014044 0.015795 -0.012563 -0.026809 0.007386 0.011177 -0.007161 0.02995 0.018315 -0.020344 -0.016885 0.005712 -0.030968 -0.01405 0.015917 0.025237 -0.030369 0.01892 -0.013836 -0.003528 -0.009525 0.004054 0.024223 0.019804 0.013094 0.009575 0.014987 -0.029399 0.005548 0.018698 0.022699 -0.028434 0.016774 0.006319 0.015291 0.012627 0.002262 -0.011589 0.003959 0.012469 -0.031497 0.022784 0.023417 -0.030485 0.022615 0.004839 -0.012071 -0.026247 -0.004693 0.015648 0.003134 0.017412 0.009848 0.026808 -0.026256 -0.026718 -0.025488 -0.024329 -0.025493 0.009838 -0.024276 0.00987 -0.000345 0.012151 0.016572 0.014239 0.014742 0.009104 0.029816 0.030236 0.023407 0.018772 -0.016936 0.02841 -0.021753 0.016155 0.026908 0.028441 -0.011765 0.008774 -0.019394 -0.011778 0.007582 -0.015752 0.019101 -0.008627 -0.030118 -0.017896 -0.003017 0.006538 -0.031468 0.022452 0.014915 -0.007605 0.004542 0.029046 0.018555 0.034556 -0.008725 0.018462 0.012178 -0.030095 0.028922 -0.013044 0.028411 0.012815 0.006965 0.007839 0.015958 0.017805 -0.029241 0.013372 -0.019449 0.002976 -0.008375 0.007512 0.013606 -0.022281 -0.014723 -0.017365 -0.008171 -0.008359 -0.00201 0.001116 -0.026525 0.028167 0.024868 -0.033723 0.023379 -0.002358 -0.009535 0.019266 0.024219 0.006975 0.00303 0.007986 0.028587 -0.008458 -0.011178 0.009633 0.01709 -0.02142 0.022037 0.006016 -0.011346 -0.016014 0.006972 -0.015264 0.02289 0.013492 -0.029242 0.008772 -0.010575 0.01444 -0.006349 0.027858 -0.014474 0.025581 0.017332 0.014648 -0.008999 -0.031549 -0.012775 0.018207 0.029407 -0.019394 -0.015612 -0.014128 0.013158 -0.0193 -0.003508 -0.00661 0.023315 0.037038 -0.007459 0.030123 -0.020182 -0.014077 0.033604 -0.009524 0.016305 0.02205 0.018644 0.009216 -0.023174 0.00876 0.032428 0.02084 -0.002979 0.024196 -0.026769 0.023454 0.019366 0.005923 0.001946 -0.012062 0.024985 -0.023142 0.030115 0.006293 0.009998 0.029289 -0.003368 0.023329 -0.017329 0.021082 -0.0173 -0.001689 -0.016519 -0.022773 0.021032 0.013676 0.030276 -0.012148 -0.001708 -0.003376 0.036742 0.000441 -0.010614 0.005335 -0.022031 -0.018708 0.006147 -0.032836 -0.021397 -0.014711 0.015883 -0.000769 0.032109 -0.033222 0.021517 -0.019156 0.015342 0.012905 -0.024481 0.005085 0.041094 0.013494 -0.016139 -0.04072 -0.02834 -0.033732 0.014581 0.029314 -0.018703 0.028906 -0.002616 0.023271 0.015851 0.01086 -0.005419 0.029348 -0.01403 0.026229 -0.00852 0.03421 -0.037181 0.029347 -0.028977 0.010542 0.007274 0.031711 -0.009089 0.027092 -0.020911 0.021829 -0.032205 0.033567 0.008024 -0.020152 0.038602 -0.015693 -0.030573 -0.025254 0.024861 0.020047 0.014847 -0.01404 0.02516 0.010145 -0.027543 -0.020232 0.022498 0.010278 -0.023762 0.044578 -0.007104 0.013352 -0.016921 -0.01964 -0.005435 -0.007924 0.016922 -0.016417 0.002669 -0.00332 0.035945 0.012338 -0.002225 0.011899 -0.025522 -0.040706 -0.043111 -0.022411 -0.007785 -0.031619 0.037123 -0.006782 -0.016386 -0.02823 -0.015988 0.006191 0.018032 0.012792 -0.033244 0.005682 0.018709 -0.004497 0.012768 -0.029503 0.001103 0.019372 0.000891 0.027671 0.021793 -0.016652 -0.012732 0.01946 0.025918 -0.026786 0.020636 -0.021167 0.024185 -0.007102 -0.025281 -0.01655 0.003126 -0.007233 0.027582 0.008202 0.009353 0.017611 -0.007048 0.012568 0.00505 0.035054 0.028174 0.008353 0.016791 0.032285 -0.019703 0.001152 -0.033318 -0.032503 0.029127 0.013867 0.014095 0.021122 -0.008792 -0.023804 0.007587 0.016633 -0.017881 0.002011 0.005673 0.017346 -0.012191 0.008125 0.024385 0.006955 -0.010972 0.012369 0.002897 -0.009738 0.006939 0.024855 0.015641 0.008394 0.008988 0.000298 0.01854 -0.00532 -0.022635 0.009953 -0.032361 -0.021241 -0.026795 0.019816 -0.017553 0.016838 0.017494 0.011907 -0.01707 -0.008702 -0.007575 -0.002559 -0.009341 -0.001636 0.000434 0.012663 -0.002143 0.003759 0.026435 0.019167 0.013154 -0.019161 -0.010369 -0.013679 0.024995 0.020248 -0.018556 -0.023039 -0.02481 -0.014249 0.025685 0.03703 0.03243 0.034794 -0.007825 0.009853 0.047909 0.0121 -0.020342 -0.033896 0.021091 0.015471 -0.001209 -0.022089 0.017217 -0.019803 -0.012259 0.013074 0.032603 -0.021328 0.020114 0.02801 0.00197 -0.040778 -0.017386 0.012129 0.008541 -0.00435 0.001721 0.003636 0.037443 -0.004545 0.028787 0.028409 0.023666 -0.029814 -0.003866 0.011654 -0.010549 -0.025532 -0.0372 0.02364 0.026411 0.001597 -0.025225 0.020763 0.021795 0.019289 -0.01762 0.021792 -0.01648 -0.025819 0.014188 0.023709 -0.009416 -0.007595 0.022004 -0.00469 -0.035316 -0.010017 -0.030603 -0.029584 0.000218 0.030171 -0.01556 -0.007665 -0.020271 0.040465 0.014015 -0.032764 0.011185 0.015225 0.008504 -0.028304 -0.003532 0.027802 0.003511 0.025294 0.024527 0.030353 0.017605 -0.014868 0.019911 -0.002879 0.005846 0.003273 -0.031629 0.011798 -0.027434 0.009738 0.015561 -0.005166 0.00507 -0.007649 0.014901 -0.027038 0.030391 -0.001653 -0.034711 -0.001883 0.004324 -0.021742 0.028439 0.023095 -0.014714 -0.008641 -0.026392 0.004483 -0.016105 0.013036 0.036096 0.017643 -0.00477 -0.010402 0.013507 -0.001513 -0.012925 -0.018574 -0.044217 0.015338 -0.015387 0.038649 -0.021044 0.022418 0.016575 0.008876 0.031108 -2e-06 0.002754 0.014586 -0.018214 -0.012567 0.014319 -0.011293 -0.001353 0.029196 0.007778 -0.006526 0.020549 -0.026649 0.007682 0.010151 0.005737 0.033696 -0.001653 -0.008841 -0.037278 0.001094 0.023067 0.004483 -0.02214 0.015043 -0.024235 0.019483 0.035333 -0.00218 0.015658 0.033215 -0.034392 0.032375 -0.006405 0.010831 -0.02237 0.007515 -0.003763 -0.03511 -0.025878 0.026247 0.014042 0.018665 -0.010416 -0.023712 -0.024122 -0.000401 -0.030965 0.00638 0.01991 -0.038621 -0.017828 -0.028062 -0.020377 0.010522 -0.002949 -0.037096 -0.02921 -0.004305 -0.011099 0.012368 -0.029314 0.012874 -0.035969 0.011523 -0.020031 0.005214 -0.026716 -0.030882 5.4e-05 0.008283 0.0233 0.018105 0.024347 0.009541 -0.034327 0.03046 -0.010223 0.027854 0.031184 -0.003741 -0.006468 0.023854 0.004157 -0.039907 0.014301 0.002272 -0.003298 0.015189 0.042355 -0.008567 0.036463 0.015417 0.003394 -0.0046 0.005559 0.046928 -0.011188 0.006745 -0.019021 0.03169 0.015104 -0.015529 -0.007553 -0.013283 -0.02029 0.021509 0.028471 0.032512 0.005806 -0.009759 -0.014522 -0.021554 0.019957 0.019128 0.021336 0.009948 0.035578 0.018583 0.033591 0.024998 -0.017518 -0.024021 -0.046388 0.036411 -0.009914 -0.023503 0.007987 0.003314 0.030279 0.048819 0.010734 -0.003994 -0.029981 0.020152 -0.003825 0.012279 0.021141 0.015028 -0.00396 -0.019193 -0.03111 -0.019368 -0.017956 -0.041702 0.015916 -0.025229 0.010533 -0.029543 -0.002164 -0.02443 0.016005 0.027718 0.038655 -0.005567 0.04662 0.002937 0.000865 -0.024687 0.006881 -0.010076 -0.009326 0.006115 0.024519 0.028497 -0.008477 -0.020627 0.011576 -0.02342 0.007266 -0.032018 0.010029 0.043791 0.038083 0.033151 0.024875 -0.021611 0.020008 0.029411 0.034484 0.007849 0.008574 0.033656 -0.02214 0.002571 -0.014607 0.033664 -0.004152 -0.027352 -0.010261 -0.006346 -0.023755 0.022824 0.019241 -0.023801 0.014536 -0.03274 0.015582 -0.007488 -0.029037 0.004219 -0.012749 0.008037 -0.029384 -0.014127 -0.006727 -0.020703 -0.004882 -0.002028 0.021979 -0.01019 0.012308 -0.012527 -0.006719 -0.000824 -0.024273 -0.004573 -0.019275 -0.014866 -0.017707 0.03961 0.008408 -0.023097 0.014787 -0.015417 0.012636 -0.022164 -0.013981 -0.015577 0.026538 0.001339 -0.013921 -0.02263 0.024645 0.008615 -0.009254 0.029422 -0.0002 -0.009402 -0.005887 0.013851 0.015153 -0.007458 -0.008149 -0.017082 0.020634 -0.016208 0.028708 -0.016475 -0.002679 -0.027343 0.00433 -0.000545 0.032735 -0.032187 0.001683 0.002132 0.014797 0.002874 0.01887 -0.016827 -0.01964 -0.012799 0.030727 -0.003353 0.01837 0.014868 0.023256 -0.020105 0.014843 0.018731 -0.025729 -0.004114 0.027303 -0.025905 -0.032988 -0.016171 0.030998 -0.02046 -0.003269 -0.016757 -0.022735 0.01618 -0.006898 0.026871 0.005864 -0.033376 -0.007424 0.004895 -0.002601 0.019337 -0.01925 -0.002681 0.028404 0.008618 -0.022648 0.01427 0.029841 -0.027795 0.007329 -0.007309 -0.022168 0.028894 -0.017621 -0.005426 0.005891 -0.031915 -0.018676 -0.022498 -0.027364 -0.018414 9.7e-05 0.005182 -0.000464 -0.006098 0.035364 0.034322 0.019555 0.026826 -0.002041 0.019413 -0.024492 -0.02126 -0.035849 0.012139 -0.025389 0.008559 0.028228 0.03421 -0.011513 0.001325 0.003123 -0.011845 -0.031024 0.010057 0.004094 0.003666 0.032709 -0.002417 -0.009616 -0.007835 0.007899 0.021577 -0.02841 -0.01341 0.006462 0.008708 -0.004279 -0.014358 -0.011751 0.016731 -0.006452 -0.021159 0.009928 -0.008157 0.031644 -0.024491 -0.022076 0.018736 -0.005337 0.000309 -0.001685 0.010263 -0.004276 0.015374 0.009238 -0.01399 0.008357 0.000167 -0.006084 -0.025727 0.002904 0.022237 0.0353 -0.023202 0.006968 0.004592 0.002904 -0.022885 0.017547 0.011465 -0.011304 -0.030002 -0.006284 -0.016012 -0.021801 -0.006384 0.032625 0.004011 0.022303 -0.002394 0.006216 -0.023065 0.000128 0.004899 -0.005034 -0.015438 0.015055 -0.001493 -0.006968 0.004221 0.022666 0.024826 0.017369 -0.007717 -0.030267 0.00259 0.010604 -0.02799 -0.026159 -0.017022 -0.007986 -0.001972 0.004856 -0.007744 0.033051 0.019784 -0.012883 -0.020801 -0.018138 0.007882 -0.012363 -0.028531 0.019104 -0.018012 -0.022355 -0.018006 0.006224 -0.019592 0.026013 0.002105 0.015458 -0.002959 -0.010767 0.026444 -0.021594 -0.024898 -0.004317 0.015404 0.018377 0.002615 -0.00674 0.029196 0.040118 -0.018393 0.016672 0.02077 -0.005836 0.003931 0.022103 0.009183 0.030615 0.004158 0.016828 -0.017768 0.020392 0.015785 0.018177 0.041869 -0.015838 0.017885 -0.005791 0.028505 -0.028227 0.006081 0.000654 0.036402 0.022254 -0.023839 -0.009128 0.024027 -0.015247 -0.024934 -0.003796 -0.020931 0.02444 0.015758 0.021539 -0.023048 0.007149 -0.013891 0.020784 -0.031567 -0.01516 -0.036233 0.024533 0.024407 -0.011437 0.0238 0.018227 -0.012727 0.004644 -0.028865 0.003662 -0.014349 0.02366 -0.023315 0.020682 0.00341 0.032145 -0.030334 -0.03799 0.025245 0.020784 0.0286 0.019519 -0.009941 0.01329 -0.004439 -0.01989 0.015784 -0.001728 0.016844 -0.025268 -0.03397 0.029957 -0.003023 -0.001886 -0.006185 0.003892 0.005379 -0.037693 0.007178 -0.01188 -0.018785 0.006739 0.025076 -0.030611 0.049994 0.006545 -0.00845 -0.012559 -0.007801 0.017948 0.014686 -0.013026 0.006845 0.006656 0.02473 -0.022571 -0.025969 0.020263 0.003995 0.02437 -0.012679 0.016454 -0.015438 0.011231 -0.022467 -0.01387 0.002044 -0.001299 -0.008898 0.009902 -0.010644 0.020792 0.001654 -0.028148 -0.021237 -0.024153 0.021806 0.013745 0.010054 0.020848 -0.003039 0.025004 -0.002666 -0.021408 -0.008252 -0.001072 0.018637 0.000458 0.027095 0.000437 -0.006641 -0.012677 -0.005192 0.023411 -0.014554 -0.0085 0.025311 -0.031236 0.023998 0.026544 0.018165 0.030986 -0.026932 0.000247 -0.019737 0.00506 -0.020301 -0.01522 -0.030422 0.019087 0.028958 0.029221 -0.019368 -0.016826 0.020703 -0.003038 -0.02733 -0.003241 -0.003344 0.002095 -0.022244 0.001923 -0.028737 0.009138 -0.00831 -0.015636 -0.02609 -0.013329 0.020289 -0.006362 -0.014925 0.021077 -0.016352 -0.005436 -0.020467 -0.005068 0.025126 -0.004753 -0.008745 0.016543 -0.004 0.021287 0.008041 -0.022417 -0.014806 -0.023318 -0.001838 0.005029 -0.030585 0.030642 0.004287 -0.024733 0.016338 0.012315 -0.00595 -0.009856 0.005722 0.006993 -0.02478 -0.029423 0.012557 0.028245 0.02427 -0.024989 -0.021788 -0.008531 -0.011488 -0.000739 0.021223 -0.0057 0.018118 0.027452 -0.001271 0.02367 0.001266 0.003846 0.018705 0.00986 -0.00581 -0.00625 -0.008043 0.014801 -0.000681 -0.023845 0.012941 0.019447 0.004367 -0.026675 0.002307 -0.020174 0.027684 0.011034 -0.000109 0.001 0.023873 0.018827 0.01454 0.005896 -0.027711 -0.031089 0.020809 0.018835 0.029874 0.006012 -0.019552 -0.0118 0.013114 0.023212 -0.023946 -0.000716 0.019264 0.013065 -0.007792 0.028828 0.00489 0.007665 -0.016461 -0.002759 -0.000192 -0.021763 0.006489 -0.012622 0.013142 0.002352 0.016812 0.032448 0.029308 -0.014345 0.033061 0.026451 0.020805 -0.011992 -0.015589 0.01416 0.000586 -0.015294 -0.001549 0.016312 -0.001308 -0.021188 -0.03306 -0.022632 0.012911 -0.003025 0.01347 0.034663 -0.022388 -0.007742 -0.005245 -0.002178 0.015892 0.026875 0.001827 0.008448 -0.004243 0.001104 -0.01148 -0.022497 -0.013174 0.013815 -0.037152 0.006967 -0.025064 -0.015802 -0.017224 -0.007895 0.01675 0.008425 0.014442 0.019261 -0.021561 -0.02523 0.006597 0.023648 -0.001797 0.044804 -0.02499 0.012101 -0.019078 -0.007634 0.033053 -0.014303 -0.023684 0.025961 0.020628 0.017719 -0.026322 0.007651 0.002637 0.0211 -0.018521 0.038013 0.005785 0.009947 0.007339 0.026255 -0.016793 -0.015514 -0.010932 -0.005048 -0.022128 0.037295 -0.020362 0.008498 0.015086 0.008816 -0.011172 0.003007 -0.028194 -0.011719 -0.003729 0.000844 0.018598 -0.026088 -0.016335 0.003899 0.014171 0.026597 0.006176 -0.01826 -0.016055 0.003457 -0.008146 0.023184 0.018717 0.002269 -0.018786 -0.00532 0.029249 0.015957 0.027367 0.015675 0.016994 0.034793 0.0119 -0.008023 -0.010397 0.026844 -0.012356 -0.012696 0.009797 -0.014176 0.03123 0.015072 0.028095 0.011664 -0.008993 0.011999 -0.018616 -0.027549 -0.022283 0.003781 -0.009582 0.007979 0.007931 -0.014056 0.027143 0.015341 -0.028099 -0.006386 -0.021492 -0.017591 0.012599 -0.012508 0.015069 0.023277 0.02337 0.008868 -0.025229 -0.016072 0.003702 0.01615 0.012622 0.037794 -0.022466 0.032873 0.010535 -0.014024 -0.011029 -0.007609 0.01522 -0.00533 0.030721 -0.01618 0.009703 0.028405 0.020956 -0.02657 0.013132 0.015721 0.023 0.024169 -0.022148 0.005227 -0.008926 0.003492 0.006581 0.025889 -0.000418 -0.017981 -0.010109 -0.018174 0.01817 -0.021431 0.026205 0.000838 -0.006489 -0.026327 0.022803 -0.034046 0.032235 -0.00879 -0.019083 -0.038 -0.006677 -0.02284 0.002836 0.022943 0.028205 -0.016736 0.028016 0.000386 0.029727 0.009745 -0.00755 -0.018419 0.008731 0.020911 0.015177 -0.009188 0.012829 0.001189 -0.027794 -0.02206 0.002846 0.01398 0.014626 0.016314 -0.019227 0.01348 0.032188 -0.007655 0.028198 0.019341 -0.025022 -0.007146 0.020998 0.013739 -0.017155 -0.021359 0.018442 -0.000206 0.003845 -0.03071 -0.022934 -0.026744 0.011266 0.034501 0.032633 -0.015587 -0.02867 0.011483 -0.025301 -0.015859 -0.030167 0.017992 0.014944 0.013766 0.001515 0.011767 -0.001423 0.015627 -0.014379 -0.020915 -0.025714 -0.011717 0.003958 0.020416 0.001574 0.016706 0.010612 0.025887 -0.0093 0.005657 -0.003096 0.002671 0.02402 -0.025804 0.007068 0.004912 -0.010845 0.003529 0.026818 -0.016123 0.029521 -0.013799 0.029994 0.000162 -0.022031 0.011889 0.017234 -0.018704 0.02518 -0.023855 0.028878 -0.017853 0.030505 0.019595 -0.0231 0.00475 0.011529 0.002822 -0.01205 -0.019739 0.010431 -0.001023 -0.011353 -0.018906 -0.024863 -0.028414 -0.005485 0.021231 -0.021149 -0.003548 -0.013414 0.014855 -0.004819 -0.027783 0.01198 -0.018531 0.019175 -0.031693 -0.024636 0.012689 0.026831 0.005484 -0.030295 0.025078 -0.019185 0.021505 0.024962 0.028798 -0.025244 -0.02122 -0.0166 0.002304 0.019783 0.021608 -0.019594 -0.025149 0.017331 0.001967 -0.024119 -0.012377 0.023337 0.028702 0.007213 -0.000472 0.030928 0.028473 0.015815 0.024302 0.015855 0.016123 -0.017181 0.032068 -0.015734 0.013552 -0.01063 0.023658 0.002639 -0.024341 0.005232 0.014641 -0.025444 0.012377 0.019924 0.026132 0.002047 0.003817 -0.014265 -0.019614 -0.00707 0.014055 -0.005351 -0.019288 0.005274 -0.013605 0.028691 -0.002466 0.019291 0.008795 -0.031387 0.005302 -0.024904 0.00367 -0.020087 -0.010629 0.018803 0.005504 0.031843 0.018875 -0.01267 -0.028493 0.011925 -0.018029 0.014731 0.001575 0.030264 -0.004198 -0.012637 -0.025278 -0.004637 0.021713 -0.024013 0.008714 -0.02303 0.016146 -0.018298 -0.012934 0.013977 0.009503 -0.023613 0.020534 0.025815 -0.029032 0.004556 -0.006748 -0.031557 -0.022413 0.020356 -0.003104 0.000563 -0.013845 0.011929 0.008106 -0.005797 -0.007753 -0.030464 0.007195 0.007604 0.027015 -0.013628 0.015906 0.00039 -0.01135 -0.015008 -0.012119 -0.00622 -0.029584 0.007514 0.026993 -0.012292 -0.00057 0.029268 -0.005661 -0.028144 0.030773 0.024661 -5.3e-05 0.004851 -0.011373 0.000684 -0.004979 -0.000265 0.004328 0.021837 -0.005123 0.003259 -0.028042 0.021103 0.018901 0.026515 0.004961 -0.024382 0.036377 -0.013338 0.001209 0.026252 0.011878 0.003415 -0.029003 -0.030429 -0.026079 -0.014761 -0.01319 0.023132 -0.026934 0.00413 -0.009519 0.033488 0.009685 0.021805 -0.030835 0.0122 -0.014322 0.023916 -0.001333 -0.004423 0.013513 -0.011334 -0.011034 0.00537 -0.018585 -0.006698 -0.022074 0.017336 0.018149 -0.02433 0.00602 -0.018564 -0.000137 0.012315 0.027401 -0.019697 -0.032523 -0.006753 0.02128 -0.015837 -0.025878 -0.015701 -0.000527 0.023538 -0.006659 -0.005791 -0.020574 0.016917 -0.017103 0.036545 0.004284 -0.024998 -0.004787 -0.002024 0.003091 -0.000905 0.012524 -0.038275 -0.017161 -0.01617 -0.01301 -0.019157 -0.020331 0.025791 -0.03735 0.004852 -0.010352 0.003297 -0.010609 0.028479 -0.015777 0.006719 0.016483 0.017762 -0.019748 -0.03226 0.006863 0.00418 0.013346 0.031206 0.000328 -0.010254 0.009064 -0.0159 0.005826 0.012915 0.034448 0.009777 0.03217 0.026968 -0.008518 0.036315 0.021098 -0.034188 -0.012754 -0.001669 -0.021854 0.018087 -0.023614 -0.003254 -0.008426 -0.021889 0.013957 -0.006486 0.020958 -0.013907 0.018514 -0.022788 0.031301 -0.027607 0.017439 0.000402 0.024581 0.008069 0.028929 0.000571 0.005317 -0.035157 0.025536 0.040245 0.00185 -0.018082 -0.016601 -0.00759 0.034265 0.016766 0.001564 0.00094 -0.019574 0.036173 -0.02137 -0.02041 0.023298 -0.034151 -0.007957 -0.000383 0.033697 -0.010134 -0.034107 -0.021944 0.017522 -0.024473 0.040531 0.003186 -0.038444 -0.002697 0.014237 0.003762 0.008634 0.012341 -0.012458 -0.013 -0.017228 0.030332 -0.027591 0.006326 -0.005286 0.013435 -0.038783 0.009547 -0.02774 -0.0086 0.014604 0.014093 0.013716 -0.029857 0.02936 -0.002665 0.01244 -0.011886 0.005402 0.005346 0.006893 0.015483 0.001296 0.019083 0.012992 -0.000955 -0.015109 0.019874 -0.006481 0.004567 0.016357 -0.020936 -0.020487 -0.010208 -0.019786 0.021964 -0.024906 -0.006919 0.013416 -0.011908 0.002033 0.00716 -0.001396 0.002845 0.006046 0.009874 0.006918 0.008747 0.005562 -0.027309 -0.007926 -0.0255 0.014885 -0.020115 0.007032 -0.02403 -0.026137 -0.013247 0.024375 0.013556 -0.030379 -0.028827 -0.014459 0.027607 0.011526 -0.021721 0.020827 0.001559 -0.022357 -0.02931 0.015308 -0.009606 0.011833 -0.029952 -0.016774 -0.018244 -0.023489 -0.013104 -0.026463 0.003093 -0.017896 0.015542 -5.9e-05 -0.008669 0.014338 0.00928 -0.027899 -0.030175 -0.029015 -0.022936 -0.002741 -0.004353 -0.020218 -0.019403 -0.012064 0.017669 -0.011672 -0.019799 -0.003472 -0.001377 -0.000131 -0.019184 0.012429 -0.003587 0.012155 -0.002308 0.010561 -0.010005 0.030684 0.00521 0.013792 0.022457 0.005965 -0.008643 0.005409 -0.001687 -0.007981 -0.013091 0.019291 0.016539 -0.014062 0.02383 0.030456 -0.003375 -0.025645 -0.023802 -0.002636 0.023542 -0.018088 -0.009251 -0.017469 -0.005532 -0.00233 -0.00896 0.029225 -0.006496 -0.023425 -0.026148 -0.002821 -0.009153 -0.016862 -0.005371 -0.015644 -0.029045 -0.024574 -0.001833 -0.010965 -0.010118 0.023588 0.005661 0.022189 0.029943 0.017737 0.03118 -0.029347 0.011074 -0.030321 0.003702 -0.009088 0.010504 -0.028025 -0.0126 -0.010942 0.009801 0.007334 0.008753 0.015662 0.011429 -0.013657 0.02783 0.007493 -0.013322 0.029276 -0.02949 0.015188 -0.007564 0.007328 -0.013903 -0.018179 -0.013289 -0.002195 -0.02071 0.023308 -0.031547 0.019134 -0.028413 -0.010023 -0.004788 -0.030956 -0.024911 0.006567 0.002716 -0.008748 -0.032544 0.03192 -0.029246 0.004893 -0.025451 -0.00324 -0.023487 -0.01367 9e-06 -0.005272 0.004544 0.012501 -0.02073 -0.021006 0.031622 0.016502 0.006613 0.010117 -0.013683 0.011412 0.01175 0.026582 -0.011491 -0.00257 0.015156 -0.028306 -0.020437 -0.001663 -0.02167 0.013567 -0.030592 -0.015919 -0.005297 0.02043 -0.020368 0.01755 0.014102 -0.023703 0.014393 0.011115 0.031512 0.010666 0.021115 0.023449 0.000295 -0.020511 0.011627 0.009434 -0.007009 -0.000615 -0.006067 -0.023917 0.003843 0.021873 0.019597 -0.007317 -0.016728 -0.018772 0.017021 -0.02917 0.015585 0.011202 -0.023465 -0.013469 0.005902 0.009642 -0.009923 -0.034242 0.008017 0.002792 0.025831 -0.019143 0.021029 0.016596 -0.00312 -0.026129 -0.017267 -0.017249 -0.005777 0.010533 0.012189 -0.004891 -0.005922 -0.018656 0.018863 -0.010055 -0.0298 0.01883 0.020603 0.006393 -0.018238 -0.019349 0.012478 -0.018197 0.007294 -0.02622 -0.002848 0.027864 -0.004043 0.02157 -0.024843 -0.007146 -0.007042 -0.013112 0.032541 -0.025496 -0.028324 0.024865 -0.01984 -0.001159 0.014371 1.6e-05 0.023383 0.030545 -0.007103 -0.015595 -0.020811 -0.022215 -0.011408 -0.000706 0.010953 -0.001691 0.020582 0.028501 -0.020426 -0.025383 -0.010946 -0.020183 0.023988 0.014475 -0.004337 -0.006423 -0.002001 0.0091 -0.026491 0.000772 -0.028753 -0.012695 -0.020257 0.01644 0.032656 0.003934 0.007042 -0.010087 0.029644 0.014918 -0.023729 0.003238 -0.004106 -0.025185 0.012862 -0.008096 -0.023131 -0.026517 -0.013488 -0.010956 0.023773 0.004898 -0.023503 -0.002535 -0.029842 -0.026269 0.030479 0.018782 0.004798 -0.00281 0.016209 -0.026397 0.001338 -0.009617 0.025442 0.01695 0.016943 0.022607 -0.010664 0.002475 -0.01621 0.013702 0.024814 0.0075 -0.016655 -0.015398 0.026725 -0.026325 0.019792 -0.025685 -0.016158 0.027289 -0.009822 -0.027839 0.008061 0.009962 0.028672 0.00331 -0.028559 0.024527 -0.028891 -0.001357 0.021151 -0.028781 0.012922 -0.01015 -0.003084 -0.020269 0.006623 -0.001854 0.027736 0.034629 0.002668 -0.010374 0.040671 -0.017918 -0.021801 -0.002113 0.015835 0.018262 -0.021221 0.009486 -0.010361 0.024378 0.029875 0.011562 -0.027211 0.00442 0.003719 -0.009505 0.003405 0.032214 0.022081 -0.018836 -0.00834 0.008393 0.021318 0.016949 0.009232 0.025897 0.016392 0.011836 0.015128 -0.032068 0.007497 0.02856 0.035547 -0.026113 0.013468 0.027495 -0.020219 0.019731 -0.01509 -0.0178 0.029315 -0.026422 0.027304 0.031068 -0.023955 -0.010341 0.006173 -0.019928 0.015134 0.002096 -0.027336 0.005429 -0.015651 -0.015138 0.008837 -0.01694 -0.012985 0.004843 0.020562 0.023499 0.006306 -0.007425 0.009095 0.017546 0.036027 0.038168 -0.030073 0.025398 -0.017324 -0.01823 -0.029067 0.008763 0.024107 0.023617 0.010816 -0.022545 0.026921 -0.008684 0.029266 -0.004999 -0.015585 0.003813 0.034449 0.017206 0.002013 -0.030138 0.007192 -0.007801 0.018587 -0.011633 -6.4e-05 -0.007713 -0.035139 0.022524 -0.017295 0.020092 0.010406 0.018864 -0.015487 -0.016348 0.044802 -0.003103 0.028 -0.030043 -0.003529 -0.022481 -0.009269 -0.004286 -0.026358 0.020595 -0.008706 -0.01728 0.003911 0.003703 -0.028504 0.00241 0.030217 -0.031779 -0.015535 -0.002763 0.012658 -0.021611 0.034359 0.017636 0.010725 -0.008623 -0.021073 0.028137 -0.018863 0.007404 0.016416 -0.008593 -0.027531 0.01139 -0.016418 0.004799 -0.031014 0.021221 0.002283 0.004349 0.020079 -0.028792 0.020704 -0.007077 -0.032275 -0.012263 0.007276 -0.02018 0.019105 -0.008257 0.009453 0.012411 -0.018971 -0.022891 -0.026477 -0.013526 0.020166 -0.01048 -0.025934 0.006707 -0.004253 -0.001066 -0.014767 0.008249 0.001942 0.01609 -0.021391 -0.011989 -0.007239 -0.016188 0.004735 0.008948 -0.032414 -0.017384 0.023208 0.005653 0.024847 -0.015637 -0.00698 0.019049 0.008562 -0.024715 0.021714 -0.007746 0.012095 0.036707 -0.019208 0.015705 0.001305 -0.032908 0.027784 -0.011557 0.013716 0.020944 -0.016545 -0.002926 0.007858 0.005469 -0.008415 0.00731 -0.002017 0.017257 0.005304 0.003068 0.001243 -0.018188 -0.020462 0.012331 0.025258 -0.019573 0.022279 0.013707 0.015494 0.024707 0.006675 -0.003014 -0.011069 0.036867 -0.001676 0.041395 0.015994 -0.002772 0.011668 -0.009008 -0.010556 0.037247 0.00889 0.006077 0.022932 0.031992 0.001471 -0.012179 -0.018731 -0.004005 0.025078 -0.006415 0.034215 0.012164 0.020155 -0.005437 -0.032016 0.011629 0.019837 -0.008613 0.011184 -0.03136 0.010947 -0.024989 0.01204 -0.01697 0.029291 0.02208 0.002973 0.028344 -0.016476 0.029909 -0.023453 -0.021016 0.000168 0.00581 0.003934 -0.020997 0.016612 0.019514 -0.001077 -0.009735 0.023343 -0.010488 -0.00291 0.003263 -0.029446 0.020733 0.009084 -0.015912 -0.026773 0.025997 -0.026453 -0.01389 -0.026975 0.001815 0.013729 0.02305 -0.021619 -0.003079 -0.020114 -0.007106 -0.020002 0.017923 -0.025205 -0.026199 -0.025857 0.022602 0.018397 -0.020491 0.009563 -0.019634 -0.012428 0.02423 0.009404 -0.010028 -0.0055 -0.01748 -0.00595 -0.004564 0.01681 -0.000356 0.02943 0.007791 0.02381 0.01874 -0.001036 -0.003832 -0.009296 -0.003671 0.007326 0.021391 -0.011261 -0.00292 -0.026726 0.027026 0.010911 -0.017125 -0.029697 -0.022254 0.005743 0.007894 0.0128 0.030708 -0.021343 0.026073 0.011153 0.003142 -0.016903 0.02429 -0.020232 -0.019287 0.013958 -0.019124 -0.00475 -0.025156 -0.02353 0.000334 -0.02714 0.001686 -0.021947 -0.003413 -0.008702 0.014057 0.023136 -0.025596 0.014343 0.017052 0.007481 -0.01571 0.023715 0.024991 -0.016712 0.028202 -0.022778 0.028226 -0.02675 0.013073 0.021105 0.0222 0.030353 0.001863 0.024303 -0.030557 0.001652 0.01144 0.005762 -0.030702 -0.020425 -0.027111 -0.020286 -0.014594 -0.027532 0.029947 0.021909 -0.025989 -0.017502 0.0318 0.016833 0.011945 0.007385 -0.025936 0.001172 0.008991 0.020838 0.021218 0.027474 -0.019864 -0.025872 0.013047 0.006925 0.007299 -0.021086 -0.005653 0.008327 -0.015038 0.008565 0.031102 0.002793 -0.013006 -0.00771 -0.027261 0.010215 0.00284 -0.02512 -0.014113 0.030583 0.025433 -0.027017 0.007204 -0.015763 0.026897 0.0238 0.023393 0.01365 0.012613 -0.012502 -0.009114 -0.022617 0.031198 0.020455 -0.022233 -0.007861 0.019376 0.036103 0.001029 0.011616 0.013172 -0.028157 0.006406 0.010384 0.026729 -0.006772 0.009915 -0.006908 -0.02535 0.017925 -0.027495 0.029244 -0.025304 -0.013863 -0.011591 -0.009901 0.010299 0.001015 -0.023381 0.01385 -0.01259 0.029773 -0.010568 -0.003123 0.024434 -0.028418 -0.02012 0.014201 0.0281 -0.01985 -0.015207 0.025272 0.005614 0.016021 -0.014549 0.011195 0.0269 -0.006168 -0.011059 0.028463 0.020842 0.024093 0.014978 0.015291 -0.027629 0.023092 -0.002063 0.017839 0.026193 0.016065 -0.001886 -0.031607 -0.009645 0.025362 -0.022937 0.025293 0.006402 0.017852 -0.02088 0.013684 -0.015326 -0.025233 -0.001144 -0.000287 -0.029059 0.029247 0.027639 0.006891 0.017259 -0.017008 0.006376 0.003162 -0.000745 0.026088 -0.030156 0.011953 0.022845 0.013018 -0.001118 -0.017863 -0.018845 0.008518 0.009789 0.035236 -0.022755 0.023266 -0.005306 0.01166 -0.015885 0.002611 0.033762 0.00901 -0.014178 0.019986 -0.021094 0.002665 0.003597 -0.012923 0.012782 -0.014636 -0.026326 0.013854 -0.013963 -0.001465 0.03278 0.031396 0.022366 0.015688 -0.02206 -0.000493 0.011726 0.004258 -0.019445 -0.00385 0.031113 0.001418 -0.002006 0.004714 0.008743 0.016901 -0.018846 0.013375 0.007689 0.022748 -0.01964 0.010833 -0.010227 0.01683 0.023511 0.007737 0.013499 0.024684 0.015236 0.038695 0.00168 0.011288 -0.001383 0.003733 -0.022424 0.005239 0.004665 -0.010083 0.02285 0.001697 -0.018987 -0.002419 -0.030563 -0.004736 0.005028 0.022942 0.012534 -0.022083 -0.019061 0.019468 -0.028195 -0.008436 0.014732 0.024902 -0.012778 -0.024089 0.023215 -0.007289 -0.025471 -0.000658 0.024286 -0.011677 -0.028839 -0.001919 0.007254 0.015303 -0.012403 0.015149 0.005922 -0.025864 -0.027513 -0.031194 0.015313 0.011131 -0.014256 0.013318 -0.018933 -0.023806 -0.023272 -0.023067 -0.019929 -0.020087 -0.024046 0.009008 -0.006569 0.014376 -0.033324 -0.008555 0.021267 -0.007422 0.007766 -0.019413 0.013411 -0.023545 0.022482 0.02582 -0.029481 -0.028546 0.023579 0.004961 -0.019949 0.026214 -0.012883 0.000521 -0.005646 0.014553 0.015121 -0.006188 0.019788 -0.007247 -0.02755 -0.026857 -0.019826 0.007368 0.016782 -0.008837 -0.019614 -0.003826 0.007539 0.005449 -0.009985 -0.015183 0.028726 -0.030491 -0.003653 -0.02345 0.029481 -0.023105 0.025232 -0.021131 0.016132 -0.025149 0.00519 0.00392 0.021666 0.026952 -0.009672 0.004506 0.009703 0.014641 -0.005351 -0.016351 0.000186 0.029556 -0.021711 -0.021909 0.025522 -0.007645 -0.025888 -0.006873 0.010875 0.000137 -0.027309 -0.020104 0.028832 -0.02608 0.017251 0.00675 -0.020849 -0.026913 0.025071 -0.001758 -0.021242 0.016047 0.00197 -0.006196 0.020819 0.027027 0.013383 0.009628 -0.012514 0.024336 -0.022414 0.003083 0.013739 0.02119 0.011632 0.019903 -0.024338 0.008321 -0.020518 0.02788 0.029516 0.015594 -0.007677 -0.001372 0.020567 -0.018089 0.013531 0.028791 -0.015669 -0.011792 -0.008359 -0.020868 0.001721 0.000703 -0.003507 -0.019448 -0.02806 0.017393 0.010233 -0.010753 -0.015361 -0.024917 -0.015279 -0.017697 0.028897 -0.000489 -0.012773 -0.024543 0.005844 -0.00329 -0.007576 0.014048 0.025127 0.008187 0.005171 0.010334 0.02894 -0.019001 0.00176 0.019026 0.03094 0.008014 -0.023289 -0.008161 0.012606 0.023015 -0.003811 -0.005754 0.001623 0.000357 -0.001334 -0.014695 -0.013237 0.004829 0.025369 -0.032319 0.005516 0.011826 -0.027284 0.009732 -0.031699 -0.029157 -0.016273 -0.001788 -0.032339 0.016919 -0.025396 0.000277 0.005026 0.00382 -0.032587 0.037013 -0.001098 -0.014426 0.009704 -0.022718 0.00049 -0.016028 -0.003471 0.031254 -0.021549 -0.018634 -0.003904 -0.013697 0.003178 0.010311 0.013987 0.008489 -0.030802 0.021377 -0.02387 -0.009375 0.009254 -0.022981 -0.022767 0.019563 0.033487 0.014487 -0.024937 -0.023465 0.01007 -0.02959 -0.020362 0.007683 0.023808 -0.030766 -0.005308 -0.013707 -0.02365 -0.015372 -0.011137 0.00602 -0.007203 0.010021 -0.01989 0.006049 -0.004094 -0.016063 -0.008269 -0.003313 -0.022248 0.02052 0.022621 -0.028465 0.027508 0.02481 0.01471 -0.024657 -0.020578 -0.006463 -0.004671 -0.005581 0.003216 -0.023234 0.009389 0.003594 -0.004776 0.021074 0.020702 0.025124 -0.00401 0.011771 0.031746 0.025678 0.014319 0.01542 0.000298 0.019259 -0.014048 0.003819 0.033247 -0.013563 0.034241 -0.018533 0.002983 0.007926 0.018431 0.028574 -0.02106 -0.011967 0.028556 -0.005667 -0.00484 -0.012262 0.013143 0.033341 0.018186 -0.007644 0.022981 -0.020855 0.000509 -0.008295 0.005479 -0.013597 3e-05 0.00377 0.009453 0.009048 -0.009543 0.01418 -0.004478 0.034022 0.007907 -0.014221 -0.012793 -0.013257 0.022461 0.008745 -0.016399 0.005176 -0.013873 0.024527 0.021114 -0.024942 -0.026919 -0.029245 0.012163 -0.008831 0.030823 0.021735 0.02426 0.027175 0.005993 -0.001372 -0.025435 0.011443 -0.015818 0.028852 0.029022 0.047424 -0.023076 0.026455 -0.018641 -0.007861 0.02904 -0.021228 0.027966 -0.016696 -0.003402 0.010494 -0.021259 -0.013939 -0.002981 0.017896 0.013589 -0.036237 -0.029049 -0.01927 -0.011783 0.028917 0.017956 -0.020416 -0.003522 -0.012012 -0.022749 -0.029566 0.037555 0.013946 0.024871 0.02656 -0.018188 0.01869 -0.009716 -0.019274 -0.035322 0.009609 -0.013617 0.027657 -0.002557 0.010016 0.011191 0.027683 -0.029746 0.021319 0.008097 -0.002097 -0.024603 0.009796 -0.012714 -0.024186 -0.007427 -0.004084 0.029781 -0.006305 -0.016095 0.013714 -0.01474 7.8e-05 -0.020628 0.03522 -0.003937 -0.01343 0.006364 -0.004474 0.001144 0.018787 0.03309 0.034839 0.015762 -0.021077 -0.016336 -0.014083 0.011209 -0.024039 -0.002744 -0.002147 -0.004758 0.034959 0.001262 -0.038177 -0.01922 -0.025168 -0.006967 -0.006612 0.030752 -0.008875 0.024688 0.022995 0.013995 -0.017966 0.035904 -0.000476 0.006694 -0.024767 0.032035 -0.017 0.023632 -0.023069 0.016888 0.014864 0.018953 -0.02266 0.01051 0.012301 -0.012645 -0.021059 -0.022307 0.004276 -0.001384 -0.001965 -0.030587 -0.026914 -0.013795 0.018506 -0.021709 -0.005532 0.002139 -0.033893 -0.011221 -0.009139 0.020132 0.023594 -0.001683 -0.008116 -0.005972 -0.026978 -0.043175 -0.023372 -0.026824 0.008234 -0.007747 -0.026804 0.011147 -0.033621 -0.014448 -0.000773 0.016711 -0.016485 0.013359 -0.010234 0.017348 0.004908 -0.023359 0.019149 -0.020912 0.024767 -0.041688 -0.011545 0.048388 0.019799 0.014186 -0.017446 -0.003133 0.007219 -0.01686 -0.034571 0.046293 0.003953 -0.02102 -0.001826 -0.000874 -0.009538 -0.021772 -0.026807 0.029772 -0.021904 0.04402 -0.003816 -0.022323 0.014709 0.029793 0.019324 -0.011625 0.003222 0.000489 -0.000859 0.013338 0.022483 -0.007381 -0.015099 0.030899 -0.020591 -0.020019 -0.000757 -0.001255 -0.023454 -0.029367 -0.010892 -0.012504 0.027245 0.00386 -0.001468 -0.00993 -0.032739 -0.000934 -0.012735 -0.015996 -0.008688 -0.040803 0.027151 -0.02586 -0.017238 0.035852 -0.006211 0.018386 0.021491 -0.007518 0.005535 -0.018564 -0.009204 -0.041652 0.013633 0.013187 0.022247 0.005171 0.003681 -0.009763 -0.005929 -0.005385 -0.019544 0.018742 0.006795 0.021675 0.008065 -0.00849 -0.00266 -0.01399 0.00737 0.024864 0.029894 -0.018422 -0.013849 0.024902 0.017586 -0.010273 0.014379 0.004962 0.004438 -0.004132 0.02791 0.004166 -0.027992 -0.020615 -0.010192 0.010499 0.008936 0.006903 -0.025277 0.026501 0.015166 0.011203 0.002598 0.029962 -0.024552 6e-06 -0.028884 -0.004275 -0.027072 -0.029474 -0.008409 -0.005964 -0.028628 0.007788 -0.019403 -0.010164 -0.018191 0.028069 0.006691 0.020125 -0.010892 -0.010782 0.027791 0.021127 0.01417 -0.015614 -0.007092 0.015922 -0.009528 -0.019078 0.029454 -0.03249 -0.021062 0.013979 0.030333 -0.009528 -0.017877 0.028154 0.010362 -0.002825 0.013109 -0.022009 0.007681 0.028321 -0.004991 -0.027387 -0.007001 0.028731 0.019025 0.019234 -0.026134 0.026045 0.00075 0.015478 -0.024298 -0.006281 0.025432 -0.006441 0.003311 0.016405 -0.018174 0.012226 0.019695 0.010511 0.028543 -0.029342 0.023424 0.012262 0.000626 -0.01788 -0.024171 0.028181 -0.020199 -0.018984 -0.017323 -0.006571 -0.002437 0.020365 0.010477 -0.029154 0.013161 -0.003366 0.025558 0.004206 -0.006909 0.01533 0.005486 0.006471 -0.003659 0.023135 0.030278 -0.000158 -0.00718 -0.0054 0.015718 -0.01867 0.011031 -0.012341 -0.021133 0.007811 0.021104 -0.014623 0.010302 -0.024054 0.032296 0.018252 0.010987 -0.00189 0.002728 0.042625 -0.007438 -0.031052 -0.010026 0.03466 0.027128 0.010241 0.009458 0.021683 -0.010123 -0.000501 0.020977 0.014824 -0.018458 0.034495 0.025585 0.04 -0.002528 -0.018543 0.017893 0.021382 -0.029365 0.016271 0.029647 0.046773 0.012872 -0.000729 0.022629 0.005967 -3.2e-05 0.008003 -0.03876 -0.010274 -0.035365 -0.012767 0.005214 0.030608 -0.042678 0.006401 -0.038858 0.009704 -0.051517 0.025936 0.006462 0.009146 -0.007312 -0.036668 -0.030199 0.029395 0.012202 -0.011747 -0.002312 -0.023447 0.032834 0.006228 -0.004649 0.021298 0.013285 -0.021389 -0.012243 -0.010857 0.021946 -0.000894 0.016579 0.035159 0.031047 0.007573 0.020816 0.051563 0.026048 -0.008418 0.015383 -0.036612 0.015797 0.01972 -0.018011 -0.017567 0.039765 -0.008473 -0.015702 -0.00727 0.016282 0.032688 0.020761 -0.023073 0.04767 0.008554 0.017201 0.009618 0.042756 0.03097 0.028768 -0.021453 -0.036595 0.022404 -0.015681 -0.015353 0.008396 0.014053 0.033195 -0.049031 -0.009425 -0.027375 -0.029521 -0.020492 0.006404 -0.022517 0.010321 -0.061129 0.006684 0.001932 0.002985 0.028664 -0.006221 -0.035395 0.027438 -0.000737 -0.032581 0.035803 0.012703 0.028718 -0.016561 0.021933 -0.009046 -0.00116 0.030576 0.013973 0.03161 -0.002178 0.002924 0.00805 -0.02562 -0.024988 -0.004211 0.027133 -0.001862 -0.019964 0.020892 -0.027144 -0.017316 -0.024388 -0.000145 0.013781 0.020465 -0.015805 0.011365 -0.005688 0.031774 -0.01875 0.012862 0.001768 0.012276 0.027658 0.020452 -0.008998 -0.027188 0.03028 -0.031294 -0.033199 -0.008925 0.023617 -0.012919 -0.001564 -0.024114 0.012802 -0.018777 -0.016691 -0.027737 0.001629 0.026476 -0.023167 0.02211 0.023644 0.023817 0.023668 0.026873 0.007895 -0.016618 0.018174 -0.022948 0.031464 0.008177 -0.020796 -0.023229 -0.009616 0.013287 -0.003786 0.009711 0.021824 -0.005386 0.005619 0.004468 0.010565 0.009614 -0.003859 0.020911 0.007848 0.008795 -0.00652 0.005043 0.003896 -0.034595 -0.024478 0.031782 0.004697 -0.012709 -0.019438 0.035711 0.022886 0.027244 0.007316 -0.026146 0.020094 -0.003147 -0.003688 -0.019013 0.005937 -0.004781 0.019407 0.010635 -0.02115 0.026927 -0.012295 0.025368 0.014138 0.02401 0.022761 -0.004148 -0.011517 0.021689 0.007669 0.026697 -0.026782 0.001491 0.028677 -0.018722 0.0071 0.024307 0.018375 0.007483 -0.028265 -0.00206 0.016507 -0.002732 0.026558 0.016458 -0.016313 0.001655 -0.013845 -0.012738 0.02746 -0.004542 0.003774 0.01645 -0.010634 0.00414 0.003618 0.029219 -0.020038 -0.008681 -0.013966 0.023449 0.008691 0.025032 0.020198 -0.001501 0.028547 0.016483 -0.011699 0.028894 -0.022154 -0.024673 0.002924 0.023313 -0.007748 -0.018949 0.019158 0.017731 -0.006686 -0.002455 -0.00021 -0.007892 -0.029755 -0.037421 0.007399 0.008837 0.007815 -0.009182 0.020603 -0.022657 0.023465 -0.018032 0.024917 -0.013801 0.002556 0.018621 0.010382 0.016701 -0.027794 -0.004562 -0.011506 0.012517 0.027542 -0.014478 0.02751 0.010192 -0.020182 -0.028635 -0.011094 0.034915 0.031613 0.024329 -0.002504 0.000839 -0.027153 -0.034344 0.005545 -0.024225 -0.010266 -0.007747 -0.008565 -0.004683 -0.002541 -0.034281 -0.012358 0.019776 -0.016667 0.010872 0.029092 -0.008299 0.008149 0.015948 0.020762 -0.004165 0.024223 -0.014904 0.02689 0.013578 -0.017039 -0.005456 0.023017 -0.029933 -0.015199 0.015195 -0.018212 -0.010236 -0.012232 0.031174 -0.031727 0.01567 0.009268 -0.012199 -0.003103 -0.014176 -0.011032 0.034279 -0.01556 -0.016428 -0.015498 0.020785 0.026572 -0.028082 0.026567 0.027245 0.034927 0.017821 -0.023357 -0.016225 0.027309 0.021014 -0.009228 0.020193 -0.032603 0.031342 -0.000241 0.032925 0.025717 -0.017422 0.028568 0.046331 0.028498 -0.008015 0.004181 0.013898 0.020683 -0.02068 0.014054 0.005309 -0.010465 0.014927 -0.001261 0.01814 -0.021518 0.026307 0.009215 0.001526 0.001793 -0.022074 -0.007334 -0.015009 0.023854 0.029365 -0.025516 -0.013758 0.012972 0.008747 0.024207 -0.002186 0.005475 -0.003833 0.014601 -0.02978 0.000101 0.007816 0.035411 0.023219 -0.026191 0.027462 0.020201 0.00589 0.029996 0.021269 0.001694 0.008795 -0.005548 0.012929 -0.02455 0.00657 0.020803 0.011157 -0.015548 0.028142 -0.004327 0.011232 -0.040825 -0.039103 -0.016954 -0.019704 -0.005185 0.007844 -0.015889 0.023715 0.020377 -0.002063 -0.006085 -0.01171 0.011081 -0.012518 -0.005384 0.002459 0.018899 0.023919 0.008398 0.011348 0.009329 -0.014414 -0.008762 0.01254 0.026249 0.001805 0.036603 -0.026791 0.003229 0.015188 -0.023765 0.013953 -0.007423 0.012448 0.007083 -0.017203 0.015257 0.018218 -0.018257 0.018807 -0.004316 -0.019578 0.040314 0.021172 0.03094 0.016733 -0.032068 0.034361 0.016628 0.002422 -0.001384 0.021813 -0.010346 -0.00947 0.008298 0.011207 -0.014265 -0.035286 0.014455 -0.018072 0.026898 0.012268 0.022574 -0.008799 -0.023152 -0.01972 -0.02935 0.016646 -0.016753 -0.004844 -0.022173 0.029513 0.023733 -0.005753 0.001675 0.003303 -0.027281 0.028992 0.025503 -0.003265 -0.002172 -0.01135 0.027469 0.005053 -0.007533 -0.006891 -0.009027 0.007886 0.016726 -0.023895 -0.029723 -0.004828 -0.013439 -0.00617 0.013391 0.029843 0.009487 -0.021345 -0.000802 0.012101 0.009967 0.004306 0.004226 -0.021432 -0.017836 -0.016182 0.0208 -0.020195 -0.022397 -0.023478 0.002433 0.013878 -0.016799 -0.027045 -0.019151 -0.030132 -0.029984 -0.00291 -0.015867 -0.016091 0.015977 0.003028 0.016914 -0.001207 0.019553 0.037783 0.015029 0.002676 -0.002815 -0.025224 0.022086 -0.004575 0.028694 0.018081 0.006305 -0.005693 0.037696 0.028198 0.026583 -0.001298 -0.002217 -0.022562 -0.00631 0.020815 -0.017672 -0.021442 0.015442 -0.012561 -0.003053 -0.012564 -0.010041 0.029833 0.024157 0.016348 -0.025009 -0.028529 0.020457 0.014912 -0.023402 0.000614 0.028377 -0.007167 0.003126 0.019127 0.015755 0.030693 0.027162 0.01388 -0.02504 0.025373 -0.006512 -0.016255 -0.029082 -0.0004 0.032523 0.026002 -0.027382 -0.009548 0.0082 0.032232 -0.012881 0.025039 -0.019321 0.021328 0.028352 -0.00228 0.013094 -0.000171 -0.019314 0.023675 0.018698 -0.012337 -0.027194 0.018422 -0.025594 0.02686 -0.01475 0.018222 -0.009604 0.026891 -0.002962 0.023825 -0.011401 0.02475 0.003906 0.016952 0.005971 0.030074 0.02304 0.007748 0.025071 -0.010726 0.014043 0.027653 -0.025206 0.003899 -0.022954 0.019109 0.006619 0.032389 -0.01464 -0.008041 -0.029967 -0.002024 0.010979 -0.012479 -0.024566 -0.026177 -0.01874 -0.004019 0.002604 0.028411 0.004199 -0.000987 0.029541 0.031083 0.037511 -0.025909 0.032957 0.012106 -0.000339 -0.023056 0.020351 -0.002722 0.004795 0.009657 0.011653 0.017012 -0.005073 0.016289 0.022412 0.011266 0.003442 0.013362 -0.007171 -0.02774 -0.018963 0.018633 0.032476 0.00628 -0.007751 0.022372 0.018385 -0.006961 0.004244 -0.008052 -0.015453 -0.003541 -0.023841 -0.013932 0.009012 0.025508 -0.011089 0.027871 -0.028196 -0.030718 -0.015156 -0.003102 -0.01998 -0.017349 0.028166 -0.005255 0.023607 0.003335 0.01832 0.026377 0.016543 -0.027029 0.024003 0.01292 -0.009601 -0.02217 0.037283 0.023583 -0.014351 0.004534 -0.02262 0.004714 0.011365 0.016415 0.00904 0.004726 -0.006693 -0.014898 -0.023325 0.012536 0.032806 0.027319 -0.007856 -0.006106 -0.026183 -0.02541 -0.014102 0.026656 -0.012638 0.011239 0.000621 0.008624 -0.014393 0.029966 0.028386 -0.018571 0.025695 0.021559 0.015474 0.02139 -0.02297 -0.023507 -0.004661 -0.035787 0.021973 0.027721 0.031525 -0.000447 -0.025098 0.002122 0.029477 0.02149 0.023041 -0.007898 -0.030314 -0.020218 0.018386 0.014292 -0.024576 -0.023374 0.024504 0.011316 -0.017296 0.009837 -0.008483 0.003201 0.032347 -0.018342 0.02941 -0.014895 0.012212 0.024052 -0.00417 -0.00703 0.009131 0.003399 0.016618 -0.013305 0.02322 0.019813 -0.019162 0.01096 0.029299 0.007527 0.0073 -0.01148 -0.018556 -0.026785 -0.019767 0.021769 0.0281 -0.01795 -0.001268 -0.016274 -0.022971 0.028681 0.002306 -0.001156 0.024869 0.03573 -0.010537 -0.025074 -0.005083 0.007867 -0.008387 0.026362 0.028581 0.000905 -0.010113 -0.004296 0.021756 -0.024424 0.023411 0.019049 -0.003819 0.016108 0.021022 -0.016012 -0.02677 -0.022142 -0.010591 0.007542 -0.020973 0.01243 -0.021171 0.026469 -0.022574 0.014552 0.029282 0.012517 0.02129 -0.001851 -0.034894 0.000275 -0.032499 0.004844 -0.036343 -0.018792 0.019178 0.018695 -0.002976 0.02103 -0.033872 0.023551 0.029078 0.004105 0.017733 -0.006122 -0.018307 0.023029 -0.019454 -0.018295 -0.022769 -0.009908 -0.003697 0.014967 -0.007462 0.011721 0.037076 0.0185 0.02698 -0.012916 -0.022238 -0.026246 0.004686 -0.030494 -0.009474 0.031193 -0.030732 -0.020397 0.008403 -0.021856 -0.009432 0.015961 -0.022622 -0.009918 0.023646 0.010827 0.002856 -0.007939 0.037173 -0.033235 -0.009084 -0.019352 0.023601 0.032759 0.031212 -0.026169 -0.012657 0.009733 -0.010828 -0.024879 0.019266 -0.007919 0.019241 0.030102 0.003398 -0.016391 0.023753 -0.012121 -0.005552 0.01412 0.002649 0.037545 0.006367 0.01009 0.013304 -0.005005 0.022192 0.027675 0.033857 0.002823 -0.01849 0.030012 0.036091 -0.008815 0.038482 -0.018409 -0.02732 0.006905 0.025175 0.011525 0.013755 0.007136 -0.012046 -0.027913 0.02847 -0.026519 -0.026114 0.032326 -0.001829 -0.010799 0.034715 0.025557 0.031667 0.004877 0.007959 0.01987 0.028409 0.017847 0.020875 -0.002057 -0.019512 0.017783 0.028692 -0.012249 -0.007446 -0.021671 0.002118 0.003588 0.004792 0.014481 -0.027079 0.007327 0.005917 0.024142 0.017678 -0.021146 0.013609 -0.011646 -0.018005 -0.014085 0.02116 -0.020271 -0.006088 0.00619 -0.021248 0.010171 0.003766 0.014699 0.000668 -0.016999 -0.011689 0.026634 0.007526 0.032391 -0.022146 0.026037 0.010836 0.019831 0.015472 0.02739 0.006662 0.008941 0.011954 -0.034213 0.005457 0.036078 0.005745 -0.007212 0.000214 -0.013653 0.009732 -0.035893 0.023663 -0.013497 0.008297 -0.006871 -0.026056 -0.044376 -0.00319 0.015148 -0.017613 0.002677 -0.032204 -0.003581 0.000994 -0.026109 0.023823 0.005222 0.004029 0.011538 -0.025043 -0.01308 0.000122 0.04019 0.005055 -0.010569 -0.024413 0.005289 -0.013711 -0.021094 -0.006492 0.015634 0.017883 -0.024657 0.027732 0.010162 0.007252 -0.001431 0.002479 0.024928 0.014051 -0.024332 -0.017408 0.00589 0.002676 0.003925 0.02829 -0.013781 0.028767 -0.015546 -0.015937 -0.017293 0.023125 -0.017594 0.004654 0.002268 0.018153 0.026344 0.024869 -0.018469 0.010457 0.011706 -0.016204 0.037272 0.025023 -0.008315 -0.025869 0.029027 -0.004511 0.022943 -0.013978 0.000833 -0.00981 -0.025771 0.006005 -0.007504 -0.033659 -0.016136 0.027001 -0.008826 0.005817 -0.005392 -0.014257 -0.007606 -4e-05 0.000398 0.011925 -0.002655 0.043245 -0.020199 -0.034516 -0.029105 0.024389 -0.023519 0.038482 0.003436 -0.013925 -0.026851 -0.019037 -0.021733 -0.007566 -0.000298 0.038364 0.031781 0.003273 0.001618 -0.040606 -0.020078 -0.029934 -0.033087 0.007903 -0.017585 -0.026441 -0.003537 0.022614 0.009789 -0.027736 0.012459 -0.008645 0.039978 -0.033244 -0.009632 -0.004623 -0.004815 -0.003378 -0.003477 0.011351 -0.038329 -0.022965 0.01702 0.000499 0.029766 -0.029067 0.017655 -0.003433 -0.024483 -0.01391 0.014648 -0.021794 0.028023 -0.010172 0.032162 -0.018614 -0.001427 0.025689 -0.002103 0.013111 0.022538 0.018267 -0.008264 0.02575 -0.018531 -0.009414 0.012747 0.02744 -0.007932 -0.021896 -0.023036 -0.004394 0.014313 -0.018217 0.026249 0.004914 -0.014324 -0.023583 0.031196 -0.012855 0.015525 0.007745 0.025266 0.019971 0.000831 0.017905 0.000939 -0.021893 0.030264 0.012509 0.025083 -0.030342 -0.014098 0.030256 0.033303 0.013195 0.032842 -0.004746 -0.011034 0.018759 0.009725 0.027006 -0.027109 -0.004409 0.007142 0.030272 -0.016689 0.007211 -0.006317 -0.03009 0.025632 -0.024435 -0.002961 0.001874 -0.014384 -0.000382 0.00932 0.008884 -0.012451 -0.025205 -0.022875 0.018208 -0.031082 -0.014092 0.010561 -0.011351 -0.000339 -0.019662 0.01056 0.002529 -0.022902 -0.006459 -0.027737 -0.026691 -0.030941 0.002867 0.02111 -0.002131 -0.011858 0.026954 0.005979 -0.02429 -0.026802 0.013942 -0.017214 0.028897 0.017637 0.008582 -0.000396 0.032287 -0.014442 0.025857 -0.018118 0.010212 -0.018815 0.028772 0.004727 -0.009811 -0.012363 -0.005126 0.01905 0.027542 0.000935 0.012031 -0.017355 -0.029049 0.019576 -0.022322 0.03018 -0.007847 -0.015434 0.021099 0.012682 0.002076 -0.009993 0.00721 -0.014914 0.026609 -0.01088 0.031052 -0.015092 0.025251 0.011481 -0.019843 0.023248 -0.014438 0.014688 -0.022925 -0.027293 -0.017443 -0.002511 -0.014504 0.009183 0.014951 0.012999 0.005532 -0.020453 -0.033116 0.004477 0.032248 0.000515 0.006904 0.003179 0.012485 -0.026348 0.009645 -0.028479 -0.007562 -0.016828 -0.000688 -0.000628 0.005948 0.008286 0.006567 0.032013 0.009676 -0.028218 -0.013596 0.053489 -0.026137 0.005952 0.001827 0.02739 0.025995 0.020519 0.023186 0.003877 -0.005431 0.021506 0.023957 -0.006981 0.025332 -0.017162 -0.005075 0.025554 -0.033665 -0.014073 0.005987 0.021503 -0.005478 0.004545 0.024458 -0.019071 0.031503 7.6e-05 -0.005195 -0.028633 -0.00738 0.044119 0.011001 0.017571 -0.025084 -0.006869 -0.030741 0.018424 -0.022815 -0.010658 -0.011746 0.016786 0.009833 0.037825 -0.007353 0.038182 0.005579 -0.008457 -0.028904 -0.017952 -0.043524 0.016849 -0.024709 -0.022451 -0.02999 0.004602 -0.003163 -0.038398 0.02453 0.045714 -0.006598 0.02765 -0.03603 0.003319 0.036778 0.011032 0.022016 0.016644 -0.027242 0.001676 0.032228 0.004376 0.000538 0.00294 -0.024285 -0.01059 0.032124 -0.034085 0.035135 -0.01422 0.029375 -0.003122 -0.005395 -0.023275 -0.027968 0.009051 0.012133 0.006867 -0.025803 -0.032341 0.016704 -0.03047 0.011586 -7.2e-05 -0.02902 -0.00277 -0.001448 -0.023706 -0.010302 0.018517 -0.026735 -0.021403 0.028196 -0.011802 0.010543 0.010625 -0.026989 -0.005076 0.001033 0.009813 -0.019603 0.015553 0.011859 0.011956 -0.025757 -0.030416 0.026715 0.013136 -0.019352 -0.012837 -0.010773 0.01715 0.014042 0.005709 0.007932 -0.024765 0.02985 0.013055 0.007259 0.001411 -0.014693 -0.002061 -0.007098 0.021289 -0.003694 -0.016978 -0.008725 -0.03435 0.003342 0.012736 0.027062 -0.00604 0.023124 0.0109 0.019455 0.002653 0.021485 0.017322 0.028947 0.024252 -0.002497 0.033773 0.011083 -0.018669 -0.025785 -0.023743 -0.006422 -0.016729 -0.014237 -0.019331 0.025156 0.028993 0.023053 0.015845 -0.018773 -0.020522 -0.015215 0.00929 -0.017052 0.008368 -0.005075 -0.02611 0.009743 -0.017092 0.009953 -0.021269 0.028582 -0.02487 -0.016285 0.029642 0.011726 -0.026396 0.006459 -0.030367 0.004846 0.001808 0.021253 0.010699 -0.026913 -0.021284 -0.015654 0.018296 0.031368 -0.004503 -0.020399 0.010765 0.000568 0.020669 0.029658 0.023803 -0.011935 0.027139 0.018634 -0.014166 -0.00619 -0.012548 -0.011123 -0.020703 0.001708 -0.030088 0.019407 0.002556 0.002029 0.010699 -0.009173 -0.004002 -0.016768 -0.027299 0.01343 -0.029193 0.033225 0.018879 0.010656 0.031213 -0.015913 0.023733 -0.009683 -0.029218 -0.000879 0.007765 -0.015364 -0.000499 -0.016187 -0.026669 -0.02142 -0.015063 -0.030366 0.01887 -0.017913 0.028426 -0.030977 -0.008086 0.019454 0.00692 -0.002355 0.028665 -0.008852 -0.026981 0.01184 -0.019138 -0.014571 -0.027811 0.021081 0.034493 0.008059 -0.020142 -0.021085 -0.021019 -0.007962 0.023694 -0.008461 -0.002935 -0.014706 0.007011 -0.028449 -0.007135 0.005634 0.0152 -0.007839 0.008316 0.025937 0.006811 0.018815 0.008546 0.032432 -0.007357 0.010152 0.006069 -0.014374 -0.018174 0.007362 -0.03094 -0.007806 0.025433 0.025664 0.01012 0.016959 0.002721 0.023528 -0.009128 0.004683 -0.009508 0.01587 0.029397 -0.027618 -0.026118 0.01165 -0.027539 0.001144 0.027559 -0.027057 -0.00819 0.011109 -0.018933 -0.021962 -0.004897 -0.015756 0.011008 -0.029428 -0.012003 0.0276 -0.022947 0.011109 0.013014 0.017645 -0.023316 -0.026523 0.006872 -0.020279 0.025159 0.003528 -0.005929 0.023111 0.012261 -0.022154 -0.000896 -0.026235 0.00119 -0.020394 -0.014732 0.01907 0.014774 0.013565 0.01553 0.030017 0.014961 -0.020274 0.006405 -0.033944 0.01058 -0.007378 -0.002738 -0.012735 -0.00976 0.012893 -0.012448 -0.009447 -0.015524 0.027342 -0.004107 0.005556 -0.024714 -0.012029 -0.018572 0.021601 0.022429 0.032394 -0.004265 0.01873 0.029372 -0.027031 -0.007491 -0.021436 0.04665 0.002312 -0.017971 -0.005078 -0.009978 -0.015604 0.020793 0.032174 -0.016912 0.013306 0.016699 -0.008259 -0.007828 -0.023089 0.025764 -0.003567 -0.019827 0.003381 0.014968 0.005619 0.021682 -0.010243 -0.006797 -0.019207 0.008225 0.036618 0.020681 -0.013973 -0.022252 -0.012787 0.009078 0.024458 0.017997 0.026396 -0.000332 0.036153 0.023825 0.026411 -0.023169 0.013218 0.034528 -0.028594 -0.017671 0.00154 0.023362 0.015048 0.01966 -0.028231 -0.025569 0.016734 0.02667 0.02256 0.000562 -0.005952 -0.036459 0.032358 -0.033654 0.004549 0.01912 0.004951 -0.004305 -0.02611 0.028365 0.010251 0.01988 0.022681 -0.008872 -0.008346 -0.021307 0.02252 0.016638 0.050942 0.022246 0.009602 0.016523 -0.000256 -0.004931 0.01017 -0.024331 0.03765 -0.014518 0.012063 0.02586 -0.01988 -0.017069 -0.017756 0.009446 -0.018736 -0.012497 0.001316 -0.024827 -0.001049 0.026629 0.024149 0.01064 0.020939 0.025683 -0.022388 0.004046 0.023436 0.000566 -0.042071 -0.028637 0.021058 -0.013717 -0.003796 -0.022017 0.009274 -0.016918 -0.023848 0.023847 0.013304 0.005947 -0.018754 0.041572 -0.043709 0.010715 0.013041 -0.031963 0.021406 0.007349 -0.017366 -0.034321 -6e-06 -0.016132 0.0261 0.049879 0.016155 0.0445 0.021904 -0.016139 -0.023086 -0.00176 -0.009633 -0.003283 -0.007027 -0.007974 0.005682 0.028166 -0.034432 0.027907 0.004485 -0.022123 0.035043 -0.012775 0.035242 -0.022471 0.027307 -0.01607 -0.020986 0.034785 0.00833 0.006134 0.001561 0.006997 -0.005392 0.01398 -0.027229 -0.012229 0.023557 0.039143 -0.023076 -0.00088 -0.01455 -0.021641 0.00985 -0.01499 0.024653 -0.008468 -0.012902 0.008814 0.014862 -0.000608 0.016152 -0.000132 0.004965 0.020842 -0.000964 0.029386 0.021265 0.001285 0.004799 -0.044996 0.036271 0.038572 0.030369 -0.022653 0.010723 0.014153 0.018157 0.028676 -0.027666 0.003063 0.029716 -0.003421 0.012428 0.023273 0.018255 -0.018259 -0.001646 0.015016 0.027418 0.030183 -0.026093 0.027985 0.020671 -0.03806 -0.001282 0.022354 -0.004939 -0.007449 -0.009465 -0.010022 -0.005171 0.016928 0.008189 -0.022119 -0.010131 0.00519 -0.013259 -0.017942 0.007337 0.029973 0.009524 0.003188 0.021454 -0.00231 -0.006104 0.031806 0.013114 -0.028213 -0.007026 0.010412 -0.001574 0.01513 0.009588 0.001934 0.022291 0.022315 -0.009941 0.013423 -0.00948 0.014391 0.011593 0.016348 0.019667 0.019444 -0.006776 -0.021145 0.017309 -0.020505 -0.029532 -0.000456 0.025865 0.005648 -0.03113 -0.013886 -0.022531 0.025593 0.028464 0.01005 0.005616 0.006298 -0.012677 -0.017505 0.023029 -0.010947 0.001688 0.030721 0.01909 0.021879 0.011664 0.026645 0.017749 -0.007505 -0.01538 0.010238 -0.029662 0.017789 -0.015918 -0.014681 -0.023606 -0.009594 -0.005179 0.013856 -0.023317 -0.010761 -0.00841 -0.009275 0.021755 0.021173 0.023329 -0.013301 0.025596 -0.030194 -0.024073 0.030116 0.011871 -0.018282 0.005924 0.015181 -0.009749 0.009451 0.00228 0.005692 -0.018602 -0.006221 0.017305 0.003557 -0.00303 0.001911 -0.019335 -0.01094 0.009458 -0.011956 0.022014 0.003447 -0.010355 0.012091 0.024279 -0.000531 0.029941 0.031014 0.00075 0.002261 -0.013924 -0.008498 -0.003906 -0.027353 -0.008626 -0.026128 -0.01684 0.012 -0.020803 -0.026256 -0.001063 0.011176 0.011413 0.008843 0.030412 -0.016431 -0.023002 -0.028936 -0.011861 -0.025911 0.006571 -0.007333 -0.018984 0.031365 -0.015317 0.002312 -0.00778 -0.015074 -0.010924 0.012377 -0.004654 0.015056 0.00304 0.011327 -0.019376 -0.013666 0.023556 0.02275 -0.022849 -0.015008 0.007161 0.011534 0.022989 0.009439 -0.019792 -0.028199 0.003267 0.020865 -0.0073 0.02089 0.030956 0.002035 0.030473 0.020399 0.008515 -0.024953 -0.011089 -0.043857 0.018435 -0.024859 -0.018521 0.005409 0.018704 0.015083 0.01133 0.025048 -0.019679 -0.004643 -0.00672 0.029066 -0.02193 -0.00613 0.019439 -0.026949 -0.024787 0.046125 0.017086 0.003831 -0.009882 -0.002716 0.006421 0.003732 -0.013267 0.014017 -0.019793 0.018005 1.5e-05 0.007614 0.005889 2.7e-05 -0.019909 0.003382 -0.022919 0.003549 0.015836 0.011064 0.022456 -0.01737 -0.011461 -0.003535 -0.030203 -0.022702 -0.00434 0.033919 -0.031827 -0.014383 0.012936 0.024579 -0.020782 0.004168 -0.00334 0.00985 -0.012299 0.022102 0.024744 0.008025 -0.011044 -0.032746 0.011973 0.00067 -0.002241 -0.01772 -0.003854 0.000901 0.0078 0.011257 0.0189 -0.017326 0.024849 0.0116 0.007564 -0.019999 0.011674 -0.002017 0.018189 0.022357 0.03878 -0.008926 -0.001779 0.023932 0.020082 -0.031924 0.001726 0.016848 0.016543 0.011271 0.009487 0.012963 -0.031593 -0.007019 0.014422 -0.043174 0.008066 -0.001485 -0.013535 0.020746 0.025707 0.025434 -0.005231 -0.001877 0.007056 0.023782 -0.030191 0.006535 0.016825 -0.002103 -0.026372 -0.044459 0.000708 0.01847 -0.02521 -0.01227 0.03176 0.00762 -0.013818 -0.002313 -0.021409 -0.027049 -0.017003 0.028296 -0.026919 0.001577 -0.019469 -0.02253 -0.012914 0.05884 -0.027794 0.008247 -0.016443 0.017716 -0.024752 0.004007 -0.00093 -0.001916 -0.018614 -0.01528 -0.014615 0.021216 0.003747 -0.025147 0.009954 0.013588 -0.018487 -0.028742 -0.015681 -0.028357 -0.006606 0.001829 0.013669 0.001227 0.018634 -0.016122 0.011879 0.014187 0.022956 0.03604 0.01927 -0.019707 -0.00605 0.034502 -0.019633 -0.00556 0.022824 0.017424 -0.025163 -0.004241 -0.00102 0.014675 -0.008575 -0.020086 -0.000413 0.004248 0.023832 0.025373 -0.019929 0.023835 -0.004934 0.021777 0.028753 -0.002056 0.015977 -0.038485 -0.007734 -0.010092 0.01276 -0.010364 -0.001583 -0.019125 -0.014183 -0.017105 0.006973 -0.020279 -0.022187 0.009744 -0.000335 -0.016277 0.003233 0.023526 0.039216 0.02771 -0.003872 -0.024341 0.022695 0.006055 -0.012802 -0.032474 -0.024397 -0.007034 0.04639 -0.010702 0.020315 0.03287 -0.000396 -0.008153 -0.009501 -0.010852 0.034264 0.013105 0.016308 -0.012717 -0.000979 0.005343 0.012793 0.034763 -0.001312 -0.00774 0.004058 -0.012463 0.044115 -0.018515 -0.002816 0.006401 -0.031749 0.007735 0.000586 -0.012905 0.017457 0.033195 0.012235 0.021444 0.047508 -0.01204 -0.002857 -0.02727 0.023094 0.001626 0.009082 0.005752 0.03493 0.011939 -0.021066 0.025943 -0.009979 0.013593 0.006861 0.007588 -0.005072 -0.020113 0.012289 -0.001584 0.001814 -0.009645 -0.021054 -0.021183 -0.034054 -0.010685 0.028777 0.02103 0.001736 -0.016119 -0.007414 -0.028588 -0.017487 -0.019842 -0.031824 0.028111 0.019174 -0.014429 0.005304 -0.020658 -0.00317 0.014037 -0.015011 0.023836 -0.029993 -0.025213 0.00147 -0.014465 0.022437 -0.008469 0.004837 -0.016477 -0.022386 -0.004382 0.027873 0.008879 -0.035792 0.005535 0.014605 -0.010784 0.006924 -0.021887 0.000154 -0.015524 0.003738 0.024623 0.023701 -0.012945 0.007254 0.015834 0.002103 -0.019752 -0.005557 0.024937 -0.007946 0.017909 -0.040578 -0.03077 -0.003302 0.022861 0.000874 -0.023999 0.000194 0.000121 -0.015308 -0.019645 -0.006533 -0.012875 0.005965 -0.007171 -0.010312 0.029017 -0.00321 0.016223 -0.0257 0.004781 0.001615 0.017594 -0.029145 0.008066 -0.00928 0.016347 0.021901 0.001704 0.009701 0.002748 0.020046 0.020316 -0.022559 -0.01323 -0.014657 -0.014454 -0.014258 -0.019336 0.004026 0.009924 -0.03119 -0.017301 -0.003684 0.018475 0.029144 0.014495 -0.005893 0.019237 -0.027219 0.031797 -0.033741 -0.024173 0.022132 0.024335 -0.004948 0.025097 -0.006502 -0.023854 -0.006268 -0.026196 -0.034766 -0.020357 0.001215 -0.003708 -0.013382 -0.009951 -0.019158 -0.010397 -0.002319 0.027422 0.019828 0.001846 0.031254 0.011153 0.013305 -0.005159 0.002443 -0.007237 -0.003028 0.00145 0.00849 -0.031481 0.03425 -0.02756 -0.027032 -0.010722 0.024088 0.015346 -0.005895 0.013754 0.000962 -0.019551 0.004982 0.021413 0.009652 -0.01067 -0.004302 0.016546 0.016528 -0.013622 -0.024185 0.024401 -0.031363 -0.029708 0.002397 -0.018406 0.005046 -0.004509 -0.015941 0.000793 0.014316 0.034555 -0.006226 -0.008282 -0.016455 0.003078 -0.011293 0.012591 -0.023326 -0.016977 -0.024181 -0.014935 -0.026763 -0.016247 0.024846 0.023618 -0.007504 -0.015737 0.022655 0.035457 0.031348 -0.020584 -0.021719 0.024081 -0.002306 0.01605 -0.002036 -0.005038 -0.005421 0.02883 0.020744 -0.018574 0.00077 -0.007775 -0.023303 -0.001371 -0.023023 -0.008406 -0.005674 -0.004434 -0.005852 -0.026852 -0.019691 -0.005616 -0.012353 0.006137 0.016673 0.029553 -0.000518 0.007954 0.034788 -0.026456 0.018276 0.012876 0.03027 -0.022118 0.012025 0.001275 0.019952 -0.026908 0.002517 -0.009625 0.015717 0.017006 -0.020533 0.030875 0.013977 0.00542 -0.026174 -0.021648 0.019937 0.024215 0.023987 0.024172 -0.008003 0.014458 -0.02918 0.002281 0.027645 -0.008943 -0.00916 0.018204 -0.026031 -0.033786 0.026911 -0.022485 0.025816 0.010463 0.011228 0.007483 -0.003823 0.024423 0.024776 -0.017313 -0.015208 -0.016913 0.024989 -0.021972 0.012792 -8.8e-05 -0.028971 -0.000672 -0.022398 -0.000727 -0.027271 0.025198 0.009757 0.00604 -0.001909 -0.02571 -0.009877 0.011095 -0.031487 0.016922 -0.00377 0.005713 -0.006279 0.021184 -0.021232 -0.002807 0.006612 -0.021231 -0.01911 -0.031378 0.036817 0.004816 0.014842 -0.017113 -0.03523 0.009553 -0.014311 0.024663 -0.023132 -0.021024 -0.021568 0.012917 -0.013166 0.006823 -0.027258 0.004723 0.013991 -0.017645 0.025014 0.034785 0.029159 -0.0101 -0.026764 -0.024119 -0.00868 -0.004913 -0.03263 -0.015765 0.023263 -0.013121 -0.026081 0.006147 0.028898 0.013823 0.002196 0.028038 0.002103 -0.016511 0.035459 0.011363 0.018453 0.007016 -0.002038 0.031806 0.0205 0.011114 -0.00057 0.014266 -0.017403 -0.021683 -0.027882 -0.03314 0.008627 -0.032203 0.006234 0.021157 -0.009912 0.003588 0.0107 -0.003688 0.010371 0.003373 -0.008911 -0.012828 -0.027563 0.025744 -0.015638 0.006621 -0.024167 0.001442 -0.004028 -0.001292 0.004609 0.014811 -0.015311 -0.00203 0.009246 0.002026 0.007619 0.008802 -0.000243 -0.016503 -0.014238 0.010339 0.007902 0.017464 -0.028262 0.002182 0.039658 -0.011847 -0.025088 0.022516 -0.021214 0.020384 0.027733 -0.019299 0.000311 -0.016207 0.020488 -0.023575 0.02465 0.00206 0.010302 -0.000182 -0.021244 -0.024071 0.028943 -0.036792 -0.008124 -0.000959 0.021553 -0.005986 0.007531 0.013988 -0.021752 -0.017545 -0.008267 -0.009222 -0.024581 0.003168 0.010079 -0.010136 0.016114 -0.022822 0.043497 -0.018826 -0.030288 -0.003791 0.0033 -0.015725 -0.005446 -0.016597 -0.01612 0.01303 0.030321 -0.018829 -0.020363 -0.035432 -0.022362 -0.014823 -0.020578 -0.019574 0.012135 0.011942 0.037762 0.003465 -0.008755 -0.020634 0.005684 -0.005769 0.028973 -0.01298 0.010718 0.031617 -0.021315 0.018074 0.004778 0.027889 0.003456 -0.005353 -0.013015 0.003142 0.024963 0.012486 -0.027424 0.02157 0.001915 -0.016187 0.034974 0.011094 0.002836 -0.019876 0.008558 0.000254 -0.033677 -0.009604 -0.000188 -0.005043 -0.007264 -0.001999 -0.006721 0.027013 -0.00188 0.014318 -0.019772 -0.007171 -0.020241 0.023078 -0.0427 0.020744 -0.005945 0.017233 0.024024 -0.022276 0.008367 -0.004924 0.019183 0.0086 0.013789 -0.025921 -0.025339 -0.019246 0.007186 0.005234 0.022912 -0.002588 0.000117 -0.016605 -0.016424 0.010736 -0.001974 -0.027562 -0.027515 -0.009333 0.004081 0.033013 0.028689 -0.003855 0.00715 -0.004041 0.010048 -0.003988 0.010864 -0.029653 -0.026439 -0.034228 -0.012402 0.02145 -0.016387 -0.020555 0.029142 0.004493 0.02396 0.017135 -0.003146 -0.006613 0.004696 -0.001485 0.004651 -0.013766 0.006404 0.020533 -0.0028 -0.011505 -0.022363 -0.01055 0.02592 -0.029305 0.024958 0.025211 0.013453 0.028718 0.019678 0.007812 0.008402 0.027727 -0.013854 0.017505 0.01337 0.001523 0.026131 -0.02632 0.029798 -0.033448 0.021878 0.026791 -0.005713 -0.028203 -0.010621 -0.002111 0.025562 -0.022084 -0.00029 -0.002201 -0.011126 -0.007898 0.000601 0.013884 0.035458 0.009552 0.009092 -0.017706 0.005572 -0.028083 -0.004286 0.013762 -0.001952 -0.010726 -0.000559 -0.003487 0.011676 0.031908 0.027134 0.018678 -0.007356 0.027044 -0.029837 0.002545 -0.017818 -0.011504 -0.024236 -0.015381 -0.021184 0.016229 0.026201 -0.016025 0.023034 0.023503 0.002071 0.010605 -0.023455 -0.031807 -0.013909 -0.016892 0.030352 0.017368 -0.011439 0.014739 -0.003418 0.006716 0.02104 -0.012281 -0.016886 0.022094 -0.005588 0.002175 -0.022428 -0.035022 0.009137 0.023679 0.028605 -0.01837 -0.029033 0.037181 0.007611 0.028783 0.016021 -0.006548 0.024994 -0.031506 0.040528 0.002498 0.038212 -0.030404 -0.003535 -0.031342 -0.006812 0.018051 -0.03175 0.000577 0.037642 -0.007292 0.003579 -0.001495 -0.018636 -0.001066 -0.024782 0.005464 0.007711 -0.010663 0.022867 0.008652 -0.003409 0.015245 0.011033 -0.033231 -0.01868 0.007196 -0.030586 -0.013299 -0.030536 0.041309 0.018294 -0.004949 0.061452 0.032327 0.002656 0.002287 -0.025129 -0.007756 0.010617 0.009792 0.005215 -0.027162 0.028432 -0.023878 0.005801 0.026455 0.02914 -0.006859 -0.038623 0.016212 -0.010137 -0.023717 -0.01301 0.015267 0.031895 0.005105 -0.006275 0.023037 0.018495 0.027561 0.026092 -0.012874 0.000403 -0.002328 -0.015361 -0.037556 -0.019832 0.009004 0.01093 0.028671 -0.005071 0.005524 -0.007937 -0.039627 -0.03619 0.030026 0.00602 -0.034748 0.015248 0.023205 -0.003357 0.020528 -0.032601 0.028271 -0.030807 -0.032676 -0.031116 0.030457 -0.022484 0.021615 -0.009249 -0.020118 0.039347 0.000481 0.032524 -0.02105 -0.015308 0.001675 -0.002263 -0.018069 0.032504 0.018632 0.015519 0.031513 0.014071 -0.002772 0.025812 0.030214 -0.026136 0.000935 -0.002111 0.000326 -0.014951 -0.028227 0.029367 0.022065 0.007833 0.003061 0.019375 -0.003518 -0.015651 -0.006111 0.028593 0.021825 0.018368 -0.024387 0.022253 -0.027022 -0.018134 -0.010604 0.010874 0.004938 0.024103 -0.017742 0.001 -0.004985 -0.028798 0.011371 0.027443 -0.012178 0.026266 0.011941 -0.023929 -0.007947 -0.000513 -0.025816 0.002748 -0.002912 -0.020265 -0.016383 0.031974 0.003368 0.00244 0.031136 0.020166 0.021388 0.006222 0.008884 -0.02343 0.013255 0.002991 0.024416 0.000857 -0.0018 -0.017754 -0.017595 0.018816 0.01366 0.004447 -0.012783 0.030407 -0.029349 -0.014421 0.016251 0.027732 -0.031757 0.03047 -0.023911 0.02927 -0.023432 0.002111 0.005817 -0.001363 -0.027155 0.003604 -0.022902 0.018865 0.030925 -0.015546 0.023586 0.007658 -0.028853 0.003637 -0.023605 0.031739 -0.012018 -0.000882 0.010772 0.011683 0.029302 -0.016322 -0.013537 0.006044 -0.003029 0.001352 0.006016 -0.025318 -0.022321 0.021132 -0.030699 -0.028479 -0.017565 0.020818 -0.008174 0.018533 -0.014762 0.023352 -0.003029 0.015011 -0.002421 0.033814 0.015682 -0.003382 -0.006063 -0.030717 0.010141 0.024883 0.016563 -0.010562 0.020748 0.017588 -0.020858 0.012418 0.020308 0.019566 0.002581 0.007053 -0.016383 9e-06 0.010049 0.012009 -0.01666 -0.002813 0.010578 0.033571 -0.004262 0.005125 0.02332 0.007315 0.026 -0.03041 0.025307 0.01239 0.032784 -0.00963 -0.010203 -0.024551 0.025681 -0.021613 0.01627 -0.025975 0.008809 -0.018015 -0.000454 0.022644 -0.014982 0.023007 -0.020835 -0.006984 0.035365 -0.016613 -0.00873 -0.029129 0.016197 -0.029549 