0.034573 -0.011058 0.026612 0.005826 0.033316 -0.022923 -0.003772 0.035724 0.001447 -0.026325 0.017489 0.017905 0.021248 -0.01479 -0.017685 0.00223 0.012677 0.034746 0.013431 -0.00646 -0.020248 -0.032372 -0.020023 -0.002951 0.048272 -0.034489 -0.015861 0.02309 0.025483 -0.035421 0.028349 0.023531 0.027858 -0.040612 0.026708 0.033281 0.042177 0.015591 0.031335 0.018931 -0.029168 0.011419 0.027076 0.009258 0.044243 -0.019125 -0.014515 0.029441 0.002715 -0.009525 -0.018448 -0.028728 -0.012826 -0.00627 -0.043296 0.015224 0.012584 0.007189 0.020514 0.027793 -0.020492 -0.01549 0.020483 0.013471 0.014813 -0.013272 -0.029319 -0.013613 -0.019162 0.014868 0.005799 0.017464 -0.001814 -0.013439 -9e-05 -0.008474 -0.010383 -0.006906 0.010622 -0.016313 -0.034978 0.003504 -0.029005 0.014257 -0.018781 0.031153 -0.011012 0.009887 -0.004901 -0.006945 0.015847 0.01693 0.010972 -0.013848 -0.02705 0.016584 -0.001247 0.001992 -0.002391 0.01457 0.016109 -0.034991 -0.004196 -0.012406 -0.02465 0.016399 -0.017877 -0.023316 0.020973 0.031701 -0.008187 0.014164 -0.040114 -0.020267 -0.020687 0.034085 0.021498 -0.006225 -0.024364 -0.011064 -0.007267 -0.019262 0.006896 -0.014819 -0.016132 -0.005619 -0.009182 0.007354 -0.042635 0.006564 0.001249 -0.029285 -0.014712 -0.032252 -0.016639 0.000298 -0.019022 0.031685 0.00144 0.004524 0.015497 0.031754 0.004965 -0.007098 0.035948 -0.025789 -0.024337 -0.028982 -0.021766 0.009428 -0.005128 -0.035094 0.008948 -0.00165 0.015068 -0.003649 0.011784 -0.029975 -0.030638 -0.010512 -0.016753 -0.039361 0.031708 -0.028359 -0.011331 0.003827 0.025027 0.015543 0.019954 0.021737 -0.020515 -0.048244 0.042053 0.052665 0.029289 -0.002605 -0.013929 0.018191 0.04231 0.042568 0.030861 0.035049 0.043949 0.006547 -0.018334 0.016031 -0.011927 0.050278 0.018038 -0.012759 0.010207 0.025836 0.03092 0.032525 0.038544 0.041905 -0.018682 0.039123 -0.004492 0.023487 0.012006 -0.023234 0.029125 -0.013156 -0.006892 0.05057 0.002534 -0.023156 0.012399 0.034319 0.018659 0.024808 0.00267 -0.028946 -0.002847 0.008852 0.007095 -0.001045 0.027762 -0.00751 -0.046532 0.001781 0.024344 -0.021812 0.019157 0.005123 -0.000689 0.001529 0.00962 0.019762 0.016279 -0.008825 -0.008936 0.022841 -0.007889 0.010434 -0.016801 0.022891 -0.009173 0.004989 -0.012439 0.021435 -0.004935 -0.021379 -0.035908 0.023009 -0.003791 -0.020781 0.017394 0.043387 0.011249 0.000909 -0.017209 -0.028385 0.031732 -0.014303 0.031303 -0.000213 0.016165 0.01491 0.009263 -0.004094 0.013119 -0.024779 0.020779 0.006076 0.025859 0.008123 0.019836 -0.006092 0.025291 -0.009211 0.016649 0.008546 -0.02902 -0.00298 -0.02933 0.020286 0.018205 0.039812 0.014048 -0.02797 -0.013901 -0.011598 -0.006703 -0.004612 -0.023908 -0.024976 0.009826 -0.001267 -0.007502 0.003215 0.016162 -0.025955 0.018443 -0.012345 -0.004471 0.000844 0.008198 0.001478 -0.000737 0.025685 0.008827 -0.014048 -0.007318 0.012554 0.003849 -0.022571 0.033857 -0.043229 -0.017365 0.03249 0.005782 -0.003357 0.024845 0.02402 0.017968 -0.01699 0.011321 -0.005978 -6.5e-05 0.021381 -0.00482 0.001399 0.005231 -0.02169 -0.0211 -0.012446 0.030068 0.000619 0.025843 -0.014216 -0.01217 -0.034221 0.024113 0.009174 -0.009107 -0.008622 0.004384 -0.034615 0.014218 -0.016494 0.008898 0.010652 0.013123 0.031698 0.007157 -0.002641 0.026887 0.032269 0.022548 -0.006147 -0.020327 -0.015753 -0.024865 0.008529 0.016168 -0.00779 -0.031156 -0.029479 -0.012682 -0.015828 0.02282 0.00847 -0.02845 -8e-05 0.021473 -0.025584 0.01308 -0.017741 -0.027552 0.030522 -0.028271 -0.026465 -0.005867 0.007727 -0.039059 -0.021661 0.017651 0.004443 0.009032 0.016375 0.01185 -0.032593 0.026448 0.024708 0.032713 -0.031502 0.013551 -0.031198 -0.032118 -0.000835 -0.006692 0.010808 0.001312 0.021006 0.023981 0.012475 0.031057 -0.017835 -0.022831 -0.010431 0.016438 -0.015795 0.032225 0.030352 -0.013603 0.016868 -0.031464 -0.025836 0.010279 -0.005091 0.018907 0.002193 -0.015365 -0.018677 0.034826 -0.000419 0.027281 0.017418 0.015148 0.002432 0.022851 -0.022345 0.011049 0.006596 -0.018969 0.005369 0.022038 0.000952 0.029012 0.022368 0.015644 0.024686 -0.021701 0.017238 -0.00935 0.019063 -0.010839 0.01186 -0.01296 -0.007011 -0.033072 0.039751 -0.002672 -0.02375 0.021456 -0.020235 -0.008459 0.019436 0.006795 -0.003188 0.017203 -0.02392 -0.017815 0.019092 0.007387 -0.009298 -0.018116 -0.029019 -0.01803 0.029523 -0.021272 -0.007916 -0.008931 0.037494 -0.010214 0.016987 -0.017531 -0.011122 -0.002939 -0.029496 0.014221 -0.032896 -0.010935 0.026128 -0.012659 0.018315 0.012506 0.007449 -0.01893 -0.029131 0.018294 -0.01788 0.020556 -0.010467 -0.017052 0.009789 -0.017433 -0.028213 0.003282 -0.00951 0.020224 -0.016921 -0.013676 0.005063 -0.015501 0.02087 0.01483 0.02428 0.019079 0.008986 0.023956 -0.006032 -0.000737 0.002711 0.028851 0.019545 0.024161 0.004769 -0.011323 0.034249 -0.012527 -0.014808 -0.006513 -0.011679 -0.010654 -0.004562 0.019255 0.012641 -0.015602 -0.015623 -0.022679 0.03399 -0.005442 -0.023576 0.017636 -0.015812 0.023367 -0.016429 -0.000321 -0.021537 -0.031978 -0.02294 -0.009629 0.014701 -0.018142 0.033682 -0.028234 -0.004858 0.024469 -0.008721 0.013746 0.035594 0.025992 0.013487 -0.011907 0.015668 -0.040954 -0.012426 0.024821 0.019626 -0.015822 0.018529 -0.012536 0.007773 -0.012225 0.015029 0.002768 0.041462 -0.024392 -0.01829 -0.008929 0.023627 -0.030494 -0.003409 -0.005896 0.019822 0.002209 -0.018404 -0.000389 0.024011 0.009653 0.000377 -0.006788 -0.013773 0.017995 -0.008967 0.006576 0.021808 -0.024875 -0.017729 -0.021895 0.022666 0.022949 0.025426 -0.001768 0.029747 -0.016948 -0.03005 -0.016175 0.025742 -0.03162 -0.004965 -0.024903 0.019543 -0.000607 0.012325 0.000489 -0.020849 0.013684 0.025848 0.003178 0.001847 -0.020062 -0.007097 -0.020808 0.02675 -0.012398 0.02663 0.012399 -0.008547 -0.010389 0.019848 0.012789 0.024064 0.017419 0.001072 0.020609 0.020449 0.01841 -0.016449 0.030756 -0.030805 0.005017 0.007011 0.000333 -0.023082 0.000995 -0.017149 -0.026029 -0.017774 -0.017608 0.026598 -0.025634 0.022468 0.002066 -0.016584 -0.01644 0.007042 -0.02918 -0.018896 0.008799 0.023692 -0.026135 0.028262 0.026206 -0.008144 -0.02359 -0.008531 0.025343 0.012709 0.028576 -0.004936 0.029491 0.023666 0.014647 0.021552 0.024661 0.010386 0.008544 -0.008082 -0.020749 -0.014402 -0.012886 -0.005832 -0.002546 -0.029771 -0.006448 -0.014098 0.029542 0.017529 -0.00577 -0.012997 0.014239 0.005707 -0.008191 0.010455 -0.023838 0.017269 0.025145 -0.006005 -0.010838 -0.024545 0.00059 0.011009 -0.03058 0.016791 -0.000818 0.029417 -0.023777 0.019494 -0.014947 -0.028332 0.013744 -0.029715 0.02022 -0.014093 0.013848 -0.00389 -0.005477 0.0228 0.011605 -0.023721 -0.020869 0.005693 0.021436 0.018158 -0.024129 -0.021161 -0.019457 -0.004894 -0.016203 0.016488 0.030116 0.014235 0.02209 0.005228 -0.001451 -0.00983 -0.005582 0.007092 -0.031161 0.011939 0.002064 -0.005143 -0.002924 -0.022813 -0.02569 0.025753 -0.007741 0.02224 -0.00239 -0.023454 0.018154 -0.028535 -0.01444 0.002444 0.021023 0.02219 0.023267 -0.01679 0.017835 0.026583 -0.008111 0.007528 0.0269 -0.025288 0.029088 -0.003659 0.01353 -0.007722 -0.022562 -0.011053 -0.013654 -0.021248 -0.029682 0.000598 0.009519 -0.028596 -0.006988 -0.031432 0.022943 0.023293 0.018626 -0.005168 -0.022661 0.014339 0.02402 -0.001834 0.004716 -0.00544 -0.002497 0.026442 -0.004913 -0.021306 -0.001623 -0.001415 0.013094 -0.011228 0.007029 -0.021735 0.001566 -0.030863 0.02315 0.009158 -0.009151 0.005107 0.006901 0.017206 -0.007389 -0.013926 -0.026956 0.02184 0.004314 -0.005505 0.012766 0.010233 0.029946 -0.013571 -0.023382 -0.022251 0.003805 -0.005239 0.028359 0.025067 0.007505 -0.034652 -0.020696 -0.022599 0.032201 0.020018 0.006257 0.010637 0.016334 0.015737 -0.013239 -0.032131 0.004976 -0.007173 -0.023305 0.027499 0.017384 0.038739 0.031502 0.031687 -0.010207 0.009201 0.007681 -0.022421 0.006056 -0.022042 -0.022273 -0.017079 0.010311 0.013865 0.030843 -0.019349 0.026747 0.018957 0.000625 0.011073 -0.00991 -0.001256 0.023467 -3e-06 0.028572 -0.026219 0.011114 0.012708 0.024486 -0.010638 -0.023768 0.001478 0.024345 -0.005386 -0.018823 0.007368 -0.032383 0.032921 0.010009 -0.023526 0.022047 0.024426 0.01086 0.027293 -0.000488 0.025123 -0.017604 -0.016605 -0.020765 -0.026165 -0.004874 0.020192 0.009553 0.033628 -0.030639 0.012996 -0.012537 0.012597 -0.019915 0.017372 0.027604 0.025027 0.004644 0.0201 0.022744 0.003936 -0.001587 -0.005408 -0.018355 0.008258 -0.013258 -0.012816 -0.029425 0.001801 0.020896 0.013863 0.003923 0.034564 -0.032939 -0.008255 -0.016723 -0.018617 0.017111 0.01525 -0.01905 -0.034872 -0.005763 -0.02071 -0.003366 0.02469 0.021562 -0.005911 0.030768 0.00423 -0.024114 0.032748 0.023349 -0.007485 0.004577 0.013342 0.020092 0.008239 0.020596 0.035396 0.018489 0.023766 0.016345 -0.029963 -0.020472 -0.007404 -0.050014 -0.024984 -0.003681 0.010378 0.019011 -0.029523 -0.034804 0.018332 0.034476 -0.011282 0.011128 0.023711 0.019436 0.032257 0.00259 -0.006501 0.015785 0.01554 -0.023069 0.003362 -0.001187 -0.005017 -0.039903 0.019677 -0.00016 0.027262 -0.007661 -0.003151 0.0088 -0.005914 0.007324 0.01212 -0.033613 0.039366 0.002044 0.01747 0.036546 0.016496 0.01322 0.005742 0.02717 -0.02189 0.014313 0.005483 -0.029784 0.03672 -0.010802 0.026014 0.000179 -0.009206 0.018556 0.022085 0.032019 0.016083 0.001951 -0.023097 0.006558 -0.034305 -0.019254 -0.003865 0.007542 0.020457 -0.009678 0.017925 0.01191 0.021315 0.031406 0.020152 -0.036147 -0.001435 -0.012578 -0.005015 -0.020368 -0.034294 0.015488 0.023554 0.020484 0.018819 0.014435 -0.028358 0.011384 -0.025534 -0.000492 -0.010745 0.01808 -0.012422 0.016553 -0.006783 0.032026 -0.002116 0.038232 0.034004 0.018394 -0.010039 0.03199 -0.020197 0.016036 -0.019318 -0.014692 -0.001182 0.012706 -0.012513 -0.00904 -0.008709 0.025901 0.00563 -0.020619 -0.000969 -0.006523 0.003453 0.027346 -0.012701 0.006674 0.006807 0.005813 -0.004015 0.025676 -0.010017 -0.028984 0.004881 -0.018372 -0.02545 -0.013752 0.016064 -0.018841 -0.013317 -0.012191 0.004358 0.012879 0.010925 0.02562 -0.029016 -0.01858 0.02848 0.005069 -0.002744 -0.005519 0.021339 -0.013506 -0.021388 0.006622 0.014922 0.027788 0.003044 -0.008261 0.01468 -0.025541 -0.009372 -0.018955 0.012809 0.0194 0.030822 0.02607 -0.010379 0.008681 0.016924 0.009764 0.000396 0.030519 0.002763 -0.01634 -0.017761 -0.028148 0.013112 0.011894 -0.024005 -0.032089 -0.024104 -0.012397 0.00099 -0.03602 -0.015087 0.00768 0.022059 -0.039645 -0.00741 -0.020372 0.007897 0.027522 0.035945 0.031895 0.008086 0.014346 0.031408 0.008455 0.012119 0.005475 0.029448 -0.027021 0.005568 0.030691 -0.008338 -0.000152 0.004973 0.035657 0.02264 -0.009888 -0.016515 0.00478 -0.037051 0.003775 0.028731 0.024962 -0.013137 -0.031139 0.007539 -0.01789 0.015495 0.036488 -0.025825 0.012823 -0.012077 0.006441 0.012869 0.025101 -0.021158 0.014042 0.025198 -0.012275 -0.007364 0.016785 -0.00454 -0.01765 0.029297 -0.007411 -0.024346 0.021985 -0.007672 0.005167 -0.00363 0.010096 -0.024089 0.012309 -0.031462 0.024778 -0.024339 -0.015174 -0.028286 0.015704 0.029953 0.011576 0.016732 -0.024841 -0.025586 -0.032118 0.036192 0.003927 -0.007222 0.001071 -0.012152 0.012212 -0.016047 0.039504 0.016279 0.022168 0.020255 -0.03411 -0.001885 -0.012377 0.002201 0.036444 -0.00241 -0.036874 -0.010282 -0.002447 0.024711 0.000375 -0.010849 0.027726 -0.01707 -0.005076 0.009091 -0.00052 -0.002361 -0.014007 0.009284 -0.010363 -0.005902 -0.025448 0.04166 -0.011598 -0.016151 -0.019194 -0.003169 0.002356 0.007593 -0.026591 -0.015331 -0.020107 0.007694 -0.00062 -0.030353 0.031075 0.016911 -0.025014 0.008512 -0.012906 0.035513 -0.027672 -0.010774 0.025734 0.037876 0.000528 0.000207 0.029524 -0.013205 -0.020109 -0.034103 0.008708 0.009227 -0.013508 0.002683 -0.032471 -0.015337 -0.017425 0.028499 0.008184 -0.000921 -0.02794 0.022905 -0.00963 0.024538 -0.006583 -0.002729 -0.007021 -0.015076 -0.006998 -0.019419 0.025872 -0.009519 0.015214 0.025091 -0.012229 -0.005795 -0.009871 0.022682 0.030589 0.002258 -0.000188 0.034105 0.03088 0.009637 0.015134 -0.00127 0.031894 0.030216 0.015124 0.020307 -0.02469 0.010334 -0.02047 -0.006132 0.017124 0.017859 -0.013447 0.016416 0.006746 0.023125 -0.000479 0.021069 0.009437 -0.023628 0.032385 0.007722 0.012473 0.027786 0.006403 -0.023122 -0.027574 -0.009715 0.008816 -0.023277 -0.005997 -0.005577 0.007834 -0.020021 0.034118 -0.010238 -0.026981 -0.021941 0.01029 -0.00847 -0.010863 -0.015983 0.01286 -0.015769 -0.020876 0.006388 0.037636 0.033096 -0.018525 0.026258 0.030389 0.02661 -0.00125 0.017136 -0.028265 0.015341 0.034772 0.025104 -0.011803 0.045893 -0.01909 -0.019698 -0.013361 0.012353 -0.019467 -0.004415 0.019382 0.025013 0.005698 -0.007377 -0.01447 0.019127 0.027877 0.021368 0.022589 0.037137 -0.017836 -0.02843 -0.03036 -0.020889 0.017072 -0.021203 0.028476 -0.005566 0.015531 -0.001797 -0.018785 -0.009082 -0.020827 -0.004679 0.000895 0.02133 0.029365 -0.003459 -0.029826 -0.031663 -0.007593 -0.012124 -0.001801 0.02132 0.010093 0.037579 -0.003292 -0.032738 -0.026418 0.024064 -0.007219 -0.019817 -0.021428 0.026367 -0.010322 -0.031434 0.005944 0.004161 -0.028107 0.012328 0.009469 -0.032115 0.026233 -0.018769 0.012805 0.010899 0.026014 0.004274 -0.012009 0.000676 -0.02152 -0.023759 0.041337 -0.035096 -0.007481 0.008997 -0.032084 0.034958 -0.022965 0.029157 0.019155 0.012435 0.004812 0.028112 -0.03196 -0.030517 0.018311 0.007656 0.013407 -0.001409 -0.034648 -0.023709 0.028471 -0.026451 0.009655 -0.038754 -0.013709 -0.016271 -0.014844 -0.013883 -0.026436 0.008317 -0.012101 -0.020124 0.003644 -0.021304 0.024171 0.019791 -0.035719 0.03055 -0.023569 -0.015954 0.01543 0.00603 -0.011523 -0.009247 -0.005396 -0.019135 -0.013699 -0.004583 0.014022 -0.001355 0.033516 0.013392 0.014688 -0.020246 -0.029012 -0.010681 0.0292 0.012293 0.008706 -0.029889 0.019552 -0.018544 0.018015 0.022874 0.015613 0.031379 -0.004493 -0.020461 -0.015188 0.006372 0.007119 0.008293 -0.005059 -0.012353 0.023023 0.010435 2.8e-05 -0.027664 0.023489 -0.002199 -0.015289 -0.009904 -0.010482 0.047444 -0.01642 -0.003633 -0.008179 -0.01081 0.02688 0.009993 0.011569 0.007789 -0.024358 -0.025404 0.003628 -0.027257 0.002118 -0.00303 -0.032669 -0.029522 -0.018793 -0.015183 -0.028882 0.0043 0.025015 0.013564 -0.002006 -0.028551 -0.004237 -0.028839 -0.032338 -0.002712 -0.019377 -0.005013 0.024011 0.007486 0.013592 0.031619 0.032886 0.0256 0.006616 -0.021688 -0.015889 -0.019101 -0.011596 -0.02165 0.006415 0.018835 0.03111 0.028517 -0.017613 0.005926 0.000221 0.031082 -0.018014 -0.027362 0.011581 -0.004271 0.026052 0.020483 -0.000524 0.019903 -0.008466 -0.011489 -0.024355 0.020058 0.022779 -0.000217 0.010161 -0.021417 0.018396 0.011734 -0.003704 0.008214 -0.017091 -0.027292 -0.029181 0.012458 0.011769 0.003125 -0.021406 0.003978 0.014354 0.00186 0.015944 -0.010999 -0.006486 -0.00982 -0.014512 0.013709 0.00396 0.006077 0.0152 0.008054 -0.019963 -0.001954 0.019301 0.00846 -0.029475 -0.026878 -5.3e-05 -0.028385 -0.018407 -0.010636 0.003159 -0.034999 -0.000513 -0.021176 -0.007479 -0.011614 0.009404 0.00353 0.00737 -0.017967 -0.014321 0.001322 0.015199 -0.006279 -0.021338 0.036731 0.017667 -0.004916 -0.011032 -0.001277 -0.018995 0.012751 0.021967 -0.027507 0.027533 0.016969 -0.004204 -0.008377 0.024152 0.009993 -0.028706 -0.030677 0.01584 -0.007055 0.002499 0.0087 -0.004066 0.030679 -0.01479 -0.026531 0.027544 -0.009804 -0.023468 0.02698 0.003524 0.010353 0.022459 0.021518 0.009988 0.005367 0.023841 -0.017961 -0.012982 -0.002191 -0.01073 -0.010464 -0.011374 0.015407 -0.029204 -0.023131 -0.013382 0.020956 -0.003844 -0.024057 0.006943 0.005336 0.02779 -0.030114 -0.033723 -0.005566 -0.015564 -0.001277 0.004776 0.003363 0.026357 -0.016767 0.001153 -0.017207 0.020619 0.01508 -0.010333 0.009152 0.020799 -0.022163 -0.006272 0.012231 -0.014718 -0.012852 0.006668 0.02456 0.020726 0.025151 0.028095 -0.004665 -0.020719 0.037494 0.035159 -0.015399 -0.002651 -0.019446 -0.016863 0.002779 -0.017259 -0.018084 -0.02412 0.01938 0.021749 0.009613 -0.004109 -0.00823 -0.012143 -0.018226 -0.014669 -0.000104 0.016966 -0.008261 -0.002182 0.018227 -0.011 -0.006887 -0.02087 -0.029573 0.000372 0.020181 0.028886 -0.005908 0.01166 0.017945 0.025415 0.029692 -0.036382 0.018476 -0.036278 0.03175 -0.02221 0.028806 -0.028415 0.032194 0.02882 -0.0143 0.024977 -0.004827 0.026343 0.000757 0.011417 0.026538 -0.002833 -0.013561 0.028803 -0.009505 -0.021283 -0.021006 -0.017825 0.002005 0.001452 -0.016146 0.015832 0.026632 -0.030242 0.027131 0.016124 0.021485 0.01185 0.026835 0.011639 -0.00233 -0.008872 0.015479 0.018336 -0.013188 -0.015467 0.019855 0.027076 0.035927 0.007495 0.022086 -0.001037 0.004749 -0.017491 -0.021565 -0.016084 -0.017955 0.001172 -0.008255 -0.029417 -0.016493 0.000893 0.026436 0.002447 -0.005771 -0.01488 0.003811 -0.036314 -0.027625 -0.014755 0.003829 0.001776 -0.029119 0.003968 -0.004372 0.035885 -0.010092 -0.002447 -0.003333 -0.011199 -0.026604 0.016754 -0.004574 -0.014726 0.034768 0.022211 -0.006095 5e-05 -0.00197 0.006078 0.018523 -0.001343 0.018912 -0.01755 -0.012172 -0.018977 0.015763 -5.2e-05 -0.006877 0.020485 -0.006704 0.025281 -0.030976 0.015608 -0.02024 -0.039449 -0.023346 -0.003868 0.020513 0.039878 -0.019089 -0.027914 0.025947 0.019238 -0.017105 0.021906 -0.019489 -0.046833 0.020364 -0.031132 -0.003256 -0.00256 0.01931 0.017626 0.023085 0.016127 0.001804 0.022946 0.00075 0.005684 -0.012839 0.004025 0.018412 0.021275 -0.02319 -0.003092 0.015054 -0.037492 0.01684 -0.037902 0.028266 -0.02774 -0.010799 0.024372 0.012451 0.015089 -0.0112 -0.005645 -0.004854 0.012485 0.007351 0.028642 0.022804 -0.001716 0.015139 -0.002419 -0.00233 0.01402 -0.017081 0.002477 -0.012503 0.016094 0.006711 -0.034487 0.00256 -0.022947 -0.002837 0.033013 0.018321 0.003789 0.002601 -0.003047 -0.022282 -0.027014 -0.01092 0.00248 0.020449 -0.034641 -0.005517 0.020564 0.028591 0.022973 0.01044 0.007113 -0.00916 -0.00872 -0.020407 0.00525 0.015044 -0.02382 0.014086 -0.001797 0.008683 0.035843 0.032886 0.029517 0.01655 0.022091 -0.028756 -0.040407 -0.014337 0.012523 -0.013507 0.015983 0.026278 0.02324 0.006564 -0.007386 0.022879 -0.015392 0.025822 0.025315 0.003925 0.01768 0.007483 -0.024983 0.010989 0.012788 0.030138 0.032049 -0.017279 -0.018303 0.008029 0.031939 -0.031981 -0.025968 0.00225 -0.027928 -0.003838 -0.028767 0.023902 0.021308 0.00229 -0.007556 0.031376 0.00747 0.024805 0.03354 0.029613 -0.011294 -0.019551 0.008025 -0.009502 -0.005257 0.031194 0.014894 -0.028242 0.016849 0.039719 0.035067 0.020671 -0.023782 -0.018092 0.036508 0.035219 0.004648 -0.022439 0.004957 0.013774 0.022207 0.023545 0.022177 0.00024 0.028299 0.027028 0.016364 0.006499 -0.004727 -0.005468 0.023923 -0.014267 0.011049 -0.024448 -0.026925 -0.004569 0.004203 0.01391 -0.006406 0.003213 0.021556 0.002384 0.020763 0.016175 -0.0178 -0.005743 -0.019523 0.014868 0.020773 0.002437 -0.013422 0.040549 0.012801 0.007005 -0.016085 0.023845 -0.023179 -0.036449 0.030887 -0.016808 0.02035 -0.001333 -0.031111 -0.014714 -0.006845 -0.025486 0.034519 0.010663 -0.014729 0.013176 0.006001 0.03086 0.022024 0.032492 0.009768 -0.00166 -0.025185 0.025157 0.018537 0.017157 0.025289 -0.02434 -0.02344 -0.017546 -0.008511 0.002967 0.002565 0.012107 -0.015998 -0.013504 -0.006124 -0.021067 -0.010078 -0.027833 0.03152 0.008966 -0.019211 0.01866 -0.014435 0.013088 0.009225 0.011409 -0.009455 0.020072 -0.012374 0.010683 0.02461 -0.022763 -0.000908 0.027923 -0.032163 -0.030044 -0.026394 -0.001232 0.004685 -0.032463 -0.003175 -0.001928 -0.030829 0.004455 -0.00526 -0.001275 0.0048 0.022149 0.009221 0.013615 -0.014314 0.0118 -0.0104 0.010149 -0.002257 -0.012126 0.013648 -0.021606 -0.019425 -9.8e-05 -0.006572 -0.007492 0.006706 0.006897 0.003169 0.026439 0.010486 -0.029243 -0.030684 0.006083 -0.000595 0.015478 0.009762 0.006732 0.019553 -0.018514 0.006151 0.019424 0.022301 0.035028 -0.003181 -0.022725 -0.031786 -0.015278 -0.000989 -0.005111 0.024939 -0.00977 -0.00145 -0.006055 -0.010648 0.01669 -0.003172 -0.02845 0.015371 0.007337 0.019655 0.014385 -0.030991 -0.00343 -0.013402 0.00644 0.026793 0.020338 0.010128 4.6e-05 0.012439 0.004381 -0.01538 -0.008299 -0.016338 0.018851 0.024602 0.009734 0.021637 0.008269 0.01337 -0.007054 0.003672 0.015721 -0.001745 0.023065 -0.001458 -0.017242 -0.02963 -0.02814 -0.030341 -0.00015 -0.024862 0.017339 0.022492 -0.011553 0.006313 0.019936 -0.010382 -0.006531 -0.001322 -0.023224 0.017137 0.003323 -0.031703 0.001661 0.027598 -0.014473 0.028819 -0.015741 -0.016211 -0.00586 -0.010353 -0.025109 0.00158 -0.00201 0.004437 -0.019519 0.016782 0.009214 -0.011254 -0.025458 -0.002959 -0.005392 0.015222 -0.018037 0.007695 -0.008913 0.028732 -0.004695 0.003548 -0.007134 0.00343 0.018088 -0.009731 -0.013772 0.002563 -0.023157 -0.032384 0.024164 0.0229 -0.003429 -0.021124 -0.004643 0.020285 0.019727 0.001237 -0.010661 -0.021484 0.003366 0.004237 -0.012709 -0.016841 -0.017172 0.019122 0.036684 0.02692 -0.004555 0.033625 0.013428 0.032051 -0.011813 -0.008753 -0.0084 0.001149 0.022344 -0.011005 0.022578 0.002234 -0.011211 0.007034 0.026462 0.011184 -0.028394 0.013518 -0.016421 0.005485 0.003263 0.020861 0.032993 -0.026681 -0.004721 -0.008022 -0.009976 -0.008151 -0.001724 -0.009658 0.021686 -0.005815 0.013857 -0.013865 0.013341 -0.001911 -0.001799 -0.016614 0.033271 -0.004915 -0.01717 -0.019044 -0.022079 -0.00478 0.034491 0.028104 0.023732 -0.01853 -0.018406 -0.002946 -0.008794 -0.004099 -0.005522 0.007009 0.001234 0.014388 -0.014038 0.009616 -0.002212 0.00472 0.006508 0.01061 0.011284 -0.022886 -0.029468 -0.011443 -0.019661 0.022155 -0.011179 -0.021143 -0.013438 0.007798 -0.024059 -0.009481 0.000117 -0.012983 0.033143 -0.009692 -0.009701 0.001279 -0.024785 0.028041 -0.024622 0.001462 -0.02112 0.012302 0.021571 0.012967 0.030775 0.01185 0.010109 0.026327 0.001934 -0.014618 -0.00991 -0.03133 -0.022704 -0.005846 0.020404 -0.006977 0.003487 -0.016392 0.012538 -0.026361 -0.018842 0.011832 -0.021852 0.032354 0.000696 0.022172 -0.015177 -0.031822 0.011537 0.005622 -0.014587 0.028109 -0.000885 0.023105 0.023347 -0.011603 0.030238 0.027767 0.001364 -0.025684 -0.025563 -0.010811 -0.006745 -0.010408 0.035517 0.004507 -0.012706 0.015671 -0.028271 0.016984 0.00748 -0.001757 0.013799 0.000496 -0.020804 0.012138 0.009371 0.023625 0.024576 -0.020362 0.013546 -0.00579 -0.026897 0.004435 -0.016502 0.028051 0.001173 -0.036841 0.014828 -0.019097 -0.011642 0.029291 -0.010851 -0.013091 -0.007497 -0.025781 0.004222 0.024844 -0.022531 0.02069 -0.028852 -0.011872 0.012863 0.015166 0.004104 -0.005133 -0.00451 0.034914 0.028289 0.006049 -0.015136 -0.006924 0.019141 0.005126 0.028167 0.008205 0.002911 -0.033906 0.009926 0.001217 0.003549 0.024913 -0.005276 0.002506 0.014619 -0.025493 0.020656 -0.010151 0.006834 -0.015766 -0.01775 0.008438 0.00575 -0.004762 -0.021457 0.00055 -0.022052 0.035531 0.007785 -0.011133 -0.028797 0.006585 -0.017837 -0.02043 -0.03211 -0.015743 0.020182 -0.025552 -0.002692 0.020325 -0.01403 -0.001008 0.009405 0.013752 0.012418 -0.025515 0.014544 0.017032 0.024184 0.00075 0.00566 -0.023591 0.003045 -0.00284 -0.006079 -0.010335 -0.024427 -0.010374 -0.02359 -0.03479 -0.006536 0.008866 -0.004695 -0.020195 0.012845 0.027354 0.019926 -0.02297 0.006992 -0.023092 -0.005283 -0.021622 0.017945 -0.026987 -0.02359 -0.00938 0.006451 -0.017108 -0.001113 0.011692 -0.008889 -0.007558 -0.012962 0.009206 -0.020129 0.018951 0.026056 0.010117 0.023181 -0.007956 0.021029 -0.023731 0.001311 0.009175 -0.006809 0.026699 0.007495 -0.012063 -0.026024 -0.017231 0.016605 -0.009475 -0.013831 -0.03343 -0.026459 0.008596 -0.00892 0.01858 0.00582 0.003077 0.014731 0.02252 -0.027129 0.025808 -0.007875 0.018958 0.010837 -0.02355 0.013558 -0.01621 -0.01875 0.011194 0.03068 0.003634 -0.019418 -0.026174 -0.003979 -0.010162 -0.009161 0.006406 0.024124 0.02919 0.00275 0.002227 0.016971 0.010189 0.008655 0.023341 -0.002809 0.009159 -0.026961 -0.020934 -0.001119 -0.00393 -0.01109 0.019975 0.02796 0.025435 0.035692 -0.008899 0.029887 -0.020712 -0.020202 -0.030546 -0.007537 -0.007121 0.003088 0.002005 0.000618 0.004967 -0.006123 -0.030151 0.031961 0.009895 -0.02748 0.03981 0.000568 -0.002599 0.008792 -0.029116 0.007833 -0.01495 -0.018421 0.017979 -0.003906 -0.018928 0.021285 0.005953 -0.009134 -0.018755 0.018554 -0.014306 0.022594 0.028482 0.020794 0.006141 -0.018323 0.005404 0.009888 -0.011663 0.004656 0.003247 -0.012752 0.026452 -0.005808 0.01381 0.020707 0.012898 -0.005584 -0.016131 0.00226 -0.00915 0.016336 0.020218 0.00388 -0.022009 -0.025522 0.022694 0.029574 0.025715 -0.019805 0.019878 -0.000432 0.021218 0.030692 0.029783 -0.000264 0.01411 -0.010988 -0.019487 -0.013933 0.006048 -0.00955 -0.015062 0.00193 -0.027342 -0.004236 -0.024741 -0.001576 -0.005323 0.009037 0.028732 0.018202 0.031893 0.016383 -0.025842 0.02553 -0.008256 0.029729 0.008768 -0.008584 -0.019736 -0.02197 0.018039 0.018628 0.017147 0.017095 0.021146 -0.010826 -0.008126 0.011779 -0.017063 -0.018358 0.016316 0.006472 -0.028536 -0.000164 -0.008544 -0.010151 0.004416 -0.014855 0.008297 -0.0096 -0.029181 -0.013796 0.004746 -0.005436 -0.018412 0.014064 0.028032 0.010001 -0.016017 -0.009323 0.010666 0.008226 0.015778 0.017999 -0.030747 0.01962 0.022923 0.007499 0.030391 0.001906 0.005914 -0.018016 -0.018165 -0.011049 -0.028193 -0.001336 -0.029375 -0.022233 -0.010219 -0.025697 0.002072 -0.015171 0.016799 0.032103 -0.013052 -0.023345 -0.016072 -0.002266 0.02347 -8.3e-05 -0.003433 0.0303 -0.017692 0.002943 -0.002983 -0.006168 0.033872 -0.025511 -0.02127 0.013934 -0.00514 0.030927 0.029459 0.018767 -0.020244 0.004049 -0.016204 0.014048 0.034467 0.013307 0.015107 -0.008677 0.022969 -0.012494 0.012911 0.028219 0.02437 -0.002282 -0.003301 -0.020702 0.028032 -0.030421 -0.003358 0.016205 -0.008363 -0.017221 0.024621 -0.019844 -0.023418 -0.028486 0.016156 -0.00993 -0.012607 -0.007016 0.019136 -0.022421 0.009037 -0.032936 -0.014519 -0.002198 0.017608 0.001011 0.005742 0.015605 0.004592 -0.017498 -0.012752 -0.022154 -0.005753 0.001258 -0.027657 0.020025 0.025251 -0.008716 0.014518 0.014671 -0.004895 -0.024726 -0.022624 0.007965 0.027201 0.026889 -0.008688 -0.013463 0.019379 0.013518 0.024905 0.005001 0.006583 -0.011502 -0.022404 0.008635 -0.008659 -0.023546 -0.002931 0.014483 -0.005608 0.007456 0.006344 -0.003463 -0.006765 -0.017983 -0.002224 -0.012693 0.016051 0.031195 -0.016411 -0.017302 -0.026004 0.018723 -0.015548 -0.002934 -0.009273 0.011398 -0.026774 0.005935 0.005852 -0.013906 0.022475 0.027564 0.007735 -0.002585 0.022026 -0.019519 0.021142 -0.014837 0.00709 -0.006515 -0.031585 0.01889 -0.019251 -0.023011 0.016799 -0.025835 -0.009646 -0.016425 -0.020327 0.024934 -0.007804 -0.012971 0.010839 0.020836 0.002897 -0.007671 -0.017035 -0.011687 -0.019548 -0.02134 -0.017965 -0.009759 -0.032594 0.00179 -0.007825 -0.033924 0.013731 0.021067 0.043057 -0.016197 -0.001308 -0.014461 0.013614 -0.017394 -0.025427 -0.008979 0.038825 -0.02008 0.03143 -0.016254 0.026147 0.026571 0.041764 -0.022544 -0.006787 -0.001269 0.040577 0.054562 0.040288 -0.006515 0.003623 -0.001308 0.017703 0.031285 -0.019737 0.028229 -0.014153 -0.002583 -0.002672 0.032701 -0.028728 0.028706 0.019949 -0.001142 0.018472 0.02248 0.014831 0.001402 0.017621 0.036015 0.022783 0.005781 0.000954 0.015795 0.010183 -0.020058 0.013604 0.033207 -0.015294 0.06751 -0.013842 -0.011785 -0.009754 0.03191 0.018989 0.017336 0.001912 -0.019369 -0.035779 -0.004384 0.017371 -0.011027 0.051006 0.016999 -0.019195 -0.005384 0.013665 0.00202 -0.012377 -0.019576 -0.018266 -0.018165 0.006661 -0.005477 -0.017905 0.012822 -0.033033 -0.00268 -0.011798 0.000563 0.005399 -0.018781 0.015695 -0.015313 0.011085 0.026753 -0.022387 0.014902 0.003403 -0.016045 -0.025631 -0.018038 -0.002067 0.028294 0.00646 0.01241 -0.013937 -0.001194 -0.002801 -0.005942 0.037183 0.025525 -0.024948 -0.033412 -0.013502 -0.007586 0.010251 -0.027856 0.002636 -0.004942 0.010933 -0.007315 0.008507 -0.012393 -0.015032 -0.028609 0.033807 -0.026119 -0.027399 -0.011405 0.024947 -0.031012 0.013475 -0.019109 -0.028754 -0.023375 0.007366 0.026939 -0.017244 0.02493 0.028655 0.032991 -0.025781 -0.025977 0.017504 0.0208 -0.003901 0.018544 -0.025522 -0.000206 -0.028652 -0.021495 0.032175 0.018045 0.044227 -0.03589 0.022028 -8.8e-05 0.013833 -0.037746 -0.023303 0.025574 -0.008187 0.011793 -0.02338 0.046809 -0.01454 0.030414 0.017245 -0.005278 0.029951 -0.009564 0.010874 -0.006952 0.034363 0.008691 -0.002073 -0.017683 0.03026 0.003908 0.037482 -0.01552 -0.029294 0.046375 -0.015908 -0.017451 0.031774 -0.00659 0.021001 0.028186 0.01283 0.022506 -0.017274 -0.006945 -0.025514 -0.005562 0.013551 -0.007366 -0.031431 0.003286 -0.026085 0.007414 -0.0039 0.027292 0.031082 0.028731 -0.000709 -0.041663 -0.000349 0.000672 0.007712 0.023228 -0.020765 -0.025481 -0.003987 -0.015876 0.019554 -0.027464 -0.020792 0.029555 0.00797 0.02466 -0.007963 -0.021605 -0.02669 -0.01474 0.017133 -0.020501 0.015313 0.001824 -0.010206 0.019024 0.040115 0.01724 0.033037 0.011423 0.003857 -0.020976 0.016929 -0.029632 -0.025332 -0.028582 0.028135 -0.030767 -0.001269 0.023294 -0.020328 -0.025074 -0.018673 0.006711 -0.011386 0.020464 -0.016278 0.016472 -0.001095 -0.014208 0.029357 -0.016706 0.01342 0.030987 -0.024427 0.019432 0.008154 0.005967 0.026577 0.021251 -0.006751 -0.021063 0.008269 0.006277 0.00618 0.015116 0.021788 0.005827 -0.012438 -0.022704 -0.030592 -0.016116 0.029034 -0.015648 -0.031401 0.027296 -0.002446 0.019927 -0.02296 0.021254 0.007239 0.013905 0.02764 0.005023 0.017672 0.007645 -0.019406 0.029769 -0.016212 0.028017 0.007237 0.016164 -0.015326 0.026646 0.026087 -0.026915 0.001004 -0.024351 -0.028933 0.023045 -0.010623 0.000459 0.004679 -0.006333 0.028172 -0.016293 -0.006276 -0.002006 0.030188 -0.009717 0.0176 -0.028844 -0.007833 -0.002034 -0.015552 0.010656 -0.023261 0.015611 0.028702 0.011011 -0.024787 0.02639 -0.028689 -0.00972 -0.027531 0.01946 -0.024466 -0.021012 -0.015681 -0.022992 -0.020872 0.013714 0.029572 -0.014518 -0.024337 0.019825 0.00783 -0.001134 0.016063 -0.020956 -0.021059 -0.01995 -0.007467 0.024388 -0.02625 0.013886 0.027571 0.026245 0.012849 -0.007022 0.002346 -0.013005 0.025949 -0.015891 -0.02469 0.029138 -0.005205 0.002065 -0.02048 -0.000748 -0.009808 0.012026 -0.011942 0.015946 -0.024984 0.026391 -0.018408 -0.010789 0.004317 -0.029116 -0.023817 -0.025671 0.002183 -0.008976 0.013417 -0.032004 0.021789 -0.026671 0.025384 0.012804 0.018539 0.024259 0.016914 -0.00841 -0.028304 0.010277 -0.019827 0.012196 -0.028973 -0.002261 -0.003547 -0.015767 0.006402 -0.026089 -0.015444 -0.00915 -0.000566 -0.01493 0.010606 0.024302 0.016318 0.021212 -0.029771 -0.003633 -0.025334 -0.032139 -0.019348 0.015766 -0.027412 -0.024604 0.017758 -0.00556 0.010242 -0.010456 0.029369 -0.02662 -0.031505 0.013613 -0.007809 -0.022857 0.01225 -0.002699 -0.030643 -0.016483 -0.026122 -0.030868 0.019357 0.002022 -0.007194 -0.012579 -0.016924 0.028582 0.012113 -0.01778 0.028235 -0.014873 0.024983 -0.018735 -0.014019 -0.006594 -0.004637 -0.016364 -0.023861 0.003204 -0.009718 -0.006194 -0.017212 0.013929 -0.011992 -0.004165 0.011952 0.020738 0.015093 0.004248 0.001128 -0.010787 -0.010468 0.025016 -0.004639 0.00772 -0.022018 -0.005093 0.019219 -0.02587 -0.007637 2.8e-05 0.002993 0.028751 0.026318 -0.005976 0.007956 -0.030507 0.011634 -0.027373 -0.028563 0.029665 -0.026765 -0.008204 -0.019715 0.018479 0.013004 -0.006488 0.015704 -5.3e-05 0.003433 0.027923 0.008693 -0.01892 0.024377 -0.021027 -0.006921 0.005853 -0.011938 -0.022171 -0.004788 -0.020209 -0.026191 0.028438 -0.005568 0.005495 -0.023138 -0.01204 -0.018856 0.009034 -0.011992 0.029276 -0.025323 -0.011347 -0.026712 -0.019815 0.031979 0.021265 -0.030764 0.024092 0.015495 0.020636 -0.025655 0.032078 -0.026478 -0.018689 -0.026431 -0.00017 0.007973 -0.017723 -0.025676 0.011086 0.02821 -0.002702 0.031791 0.014713 0.001306 -0.005199 0.033254 -0.003492 0.026997 -0.00867 0.031116 0.014717 -0.005405 -0.007153 0.001238 0.010944 0.015127 0.029902 0.019419 0.028968 0.009087 -0.009707 0.029727 0.006178 -0.005768 0.013867 0.001981 -0.01292 -0.027623 -0.013241 -0.032566 0.033307 0.029809 -0.000999 -0.008232 0.027376 -0.032532 -0.008069 0.010694 0.034902 -0.010588 -0.001021 0.006456 0.032129 0.012002 0.002461 -0.013106 0.029171 0.01065 -0.012718 -0.021893 0.008076 0.004473 -0.002202 0.000751 -0.012383 -0.005094 0.005764 0.001164 0.015154 -0.013184 0.006208 0.013996 -0.013461 -0.007697 -0.005955 -0.025681 0.005889 0.029434 0.005709 0.013734 0.012652 0.029049 0.021129 0.001429 0.016206 0.006793 -0.001879 0.005306 0.017872 -0.002624 -0.021882 0.018933 -0.010099 -0.00358 -0.017736 0.006619 0.023859 -0.014443 -0.014575 0.030469 0.008903 0.013908 -0.010025 -0.009799 -0.036783 0.010619 -0.034969 0.016501 -0.020593 0.023102 0.021786 0.02151 -0.003961 -0.024233 0.025175 -0.012531 -0.007933 1.6e-05 0.012507 0.012486 0.019644 0.00013 0.027934 0.030233 -0.043419 0.018422 -0.017006 -0.002856 0.001654 0.029909 0.0451 -0.023443 0.003346 -0.044217 0.010048 0.008676 0.009983 0.020459 0.021362 -0.004631 0.010852 -0.005628 0.03138 0.021665 -0.019827 0.011094 -0.004851 -0.016368 -0.016411 -0.030016 0.00876 0.023911 -0.028473 0.004469 -0.00369 -0.001208 -0.031759 0.035595 -0.015952 -0.03779 -0.022621 -0.016121 0.005811 -0.032691 0.003027 0.028756 -0.026971 0.010299 -0.038934 0.033154 0.001463 -0.020535 -0.024848 -0.031175 -0.014862 -0.033653 0.001802 -0.009434 -0.010234 0.023522 -0.010918 0.029259 -0.022672 0.02507 -0.011122 -0.006729 -0.013399 0.002093 0.021032 -0.008949 0.01657 0.026147 0.025432 -0.017848 0.010366 0.036025 0.001999 -0.021274 0.008085 0.028303 0.031561 0.006338 0.004255 -0.001938 -0.014821 -0.023075 -0.014802 -0.015 0.030397 -0.022075 0.01673 -0.02547 0.019576 0.011916 0.005237 -0.00703 -0.003766 -0.024161 -0.020059 -0.012414 0.031587 -0.001098 -0.015824 -0.004584 -0.024431 -0.003275 -0.026926 0.008613 -0.004928 -0.001129 -0.009246 -0.021783 0.014199 0.021725 0.010042 -0.011848 -0.013162 0.014717 0.02676 0.01759 -0.025687 -0.002281 0.023859 -0.032606 -0.01269 0.002238 -0.01289 0.003335 -0.02866 -0.001938 0.021838 0.035379 0.000528 -0.042833 -0.031375 -0.034724 -0.027653 -0.019836 0.030254 0.033223 -0.026074 -0.018573 -0.007839 0.010677 -0.002 0.000314 -0.024979 0.012945 -0.013101 0.034481 0.023818 0.018677 0.00766 -0.004452 -0.012429 0.010321 -0.015276 0.041346 -0.037087 0.017111 0.011443 -0.016667 0.007061 -0.021858 0.022819 -0.033954 0.01755 0.022952 -0.013152 -0.028943 -0.007161 -0.019511 -0.020136 0.004385 -0.009467 0.033911 -0.026002 0.011587 -0.007555 -0.022622 -0.007231 -0.0331 0.005322 -0.028138 0.01202 -0.022134 -0.027404 -0.013354 -0.0127 0.020115 0.010427 -0.006929 -0.003461 0.047284 0.04406 -0.012811 -0.002914 -0.02503 0.034777 -0.018834 -0.02326 -0.010386 -0.004612 0.017565 0.015067 -0.014407 -0.015222 -0.010915 -0.017579 -0.010815 -0.015443 0.004447 -0.021852 0.02408 0.017337 -0.029225 0.010255 -0.010942 -0.001733 0.018052 0.031175 0.022999 0.022636 -0.002782 0.017913 0.013314 -0.02158 -0.004745 -0.023173 -0.015305 -0.011285 0.025294 0.010193 -0.032285 0.019107 0.011072 -0.021948 -0.003614 -0.023772 0.028547 -0.017408 0.024687 0.018062 -0.025954 0.018649 0.031057 -0.014222 0.024608 -0.030246 -0.021128 -0.005985 -0.021661 0.01287 0.02278 0.012352 -0.004342 -0.006942 0.027054 -0.017729 -0.018314 -0.031163 -0.010799 -0.031581 -0.024213 -0.030879 -0.000209 0.009911 0.013387 -0.021337 -0.001183 -0.021198 -0.021186 0.006611 -0.006143 -0.024884 0.019579 -0.022247 0.015171 0.026322 -0.010784 0.029159 0.022432 0.027026 -0.020227 0.00368 -0.013842 0.007476 -0.008952 -0.008837 -0.01512 0.012473 -0.026658 0.008197 0.028618 -0.025848 0.024027 0.024767 -0.009469 0.026877 -0.027598 -0.025593 -0.017006 -0.016357 -0.026708 0.016511 -0.02323 -0.030172 -0.009359 -0.027991 -0.008017 -0.019629 0.02242 -0.018082 -0.020959 -0.016128 0.030195 0.000695 -0.015164 -0.008333 -0.008216 0.001569 -0.026032 8.1e-05 -0.010261 0.003974 0.008722 -0.01542 -0.029544 0.015218 -0.028845 0.027176 0.00411 0.00056 -0.017224 0.011835 -0.00195 -0.027567 -0.029878 -0.031181 -0.014047 -0.010174 0.025358 -0.02822 -0.00749 0.000814 0.02029 -0.02961 -0.016985 -0.009467 0.027653 -0.019891 0.029471 -0.017049 -0.022948 0.005006 -0.022724 0.018178 -0.021315 0.004225 -0.011219 0.011905 0.02617 -7.9e-05 -0.022544 -0.005008 -0.011217 -0.001149 0.003035 0.024945 0.000499 0.011342 0.038418 -0.02424 -0.018251 -0.021504 -0.000969 0.003483 -0.00342 0.020692 -0.012743 -0.003394 0.030689 0.007847 0.012635 -0.008174 0.018544 0.010474 -0.003703 0.016777 0.028279 0.026914 0.017848 0.013496 -0.025286 0.017497 -0.013384 -0.007179 0.031828 -0.028191 -0.029141 0.02169 -0.000689 -0.010403 -0.012476 0.037354 -0.011738 -0.004217 0.034543 0.037515 0.027253 0.025367 -0.014212 0.003953 -0.017527 -0.005557 0.003253 0.02592 -0.026005 0.017083 0.009931 -0.026507 0.011155 -0.025105 0.006303 -0.018156 0.007867 -0.002881 0.037986 -0.042989 0.028341 0.03196 0.009882 -0.023265 4.7e-05 0.018354 -0.025436 0.023935 -0.016787 -0.014956 -0.005885 0.005945 -0.023003 0.008441 0.007884 0.040967 -0.015411 -0.024196 0.015179 0.007948 0.006421 -0.013716 0.02709 -0.01457 -0.020406 -0.012592 0.022249 -0.027617 -0.013407 -0.00876 0.013866 -0.003607 0.028031 -0.013908 -0.018751 0.020714 -0.003877 -0.027181 0.01893 -0.003968 0.001921 -0.024797 0.008955 -0.024242 -0.031245 0.000991 0.022518 0.008337 -0.002448 0.023912 -0.026243 -0.018432 -0.009193 -0.013545 -0.009614 0.034563 0.019036 0.024287 -0.018563 0.002534 -0.001553 0.037798 -0.025796 0.026413 0.004376 -0.018683 -0.011656 0.010731 -0.038913 0.006337 0.008141 -0.027673 0.029364 -0.026317 -0.0234 0.002338 -0.011596 0.024685 0.022154 0.016601 -0.025561 -0.011931 -0.001939 -0.014549 0.014542 0.004841 -0.010999 0.031161 0.030845 0.003711 0.004976 0.005608 -0.012087 0.044088 -0.018621 -0.026172 -0.030325 -0.014068 -0.007318 0.030631 0.020352 0.011198 -0.031275 0.015764 0.016683 0.025757 0.028778 0.017089 0.001461 0.023282 0.012223 -0.017194 -0.039692 -0.010926 -0.027675 -0.041755 0.010691 0.014633 -0.030906 -0.002591 0.017742 -0.012802 -0.026909 -0.01939 0.013655 0.036609 0.033733 -0.016243 -0.020586 0.035272 0.006592 -0.02236 0.001982 -0.010468 -0.019079 0.027456 -0.020976 0.00789 -0.01321 -0.032653 0.026865 0.018673 -0.01761 -0.003279 0.020887 0.010237 -0.030181 0.024179 -0.029487 0.012351 -0.026675 -0.004691 0.02026 0.001959 0.039301 -0.013951 -0.029167 0.008185 0.029303 0.010479 -0.025971 -0.014448 0.015856 0.033782 0.00021 0.025668 -0.007962 -0.025813 -0.007003 0.028601 0.033576 -0.005701 0.028512 0.008219 0.035206 -0.01327 0.041818 -0.009384 -0.027109 -0.009973 0.012637 -0.011203 0.000697 -0.017836 -0.009899 -0.024807 0.025734 -0.022009 -0.00792 0.023234 0.03845 0.007153 0.023126 0.01794 -0.035183 0.02833 0.020792 0.01926 -0.00718 0.024387 0.020712 -0.019617 -0.02326 0.004312 0.020441 0.027986 -0.006604 -0.025962 0.023168 0.021869 -0.002112 -0.01663 0.017903 0.040444 0.006063 -0.033104 0.022084 0.01654 -0.034578 0.001139 0.029507 0.005948 0.004066 0.030473 -0.027401 -0.023636 -0.030476 0.027941 -0.023983 0.014576 -0.025034 0.009126 0.031739 0.022918 0.030612 0.018569 0.005673 -0.024371 0.007956 -0.020501 -0.033282 0.024373 0.015971 -0.000171 -0.00537 0.009611 -0.003577 -0.027334 0.003545 0.004997 -0.033322 -0.019287 0.022312 0.02828 -0.005514 0.013027 0.019749 0.000792 -0.014901 -0.018841 0.024403 0.00631 0.010452 -0.006019 -0.00571 0.026884 0.025079 0.025704 -0.009717 -0.002089 -0.025084 -0.014517 0.044177 -0.032242 -0.009724 -0.024563 -0.015352 -0.030359 -0.016826 -0.031092 0.008138 -0.02216 0.004012 0.033063 0.013484 0.013037 0.009347 0.000919 -0.031673 0.024544 0.013507 0.036567 -0.015663 0.01853 -0.005437 0.014881 -0.020909 0.004629 -0.028983 0.005158 -0.009345 0.034281 0.037265 0.006521 0.008522 -0.008323 0.01581 -0.009877 0.005965 0.008659 -0.024551 -0.010743 -0.004378 -0.011038 0.008237 0.010982 -0.009792 -0.035932 0.012591 0.038122 0.0053 0.00192 0.006856 -0.032286 -0.023947 0.003926 0.028376 0.015299 0.025006 -0.005859 0.028534 0.021608 -0.027094 -0.044607 -0.019806 -0.004605 -0.012059 -0.023557 0.025666 0.008508 0.015378 -0.019796 -0.009912 0.002305 -0.001528 -0.029277 -0.038636 0.014852 0.035643 -0.006581 -0.026344 -0.016307 0.023142 0.035117 0.001343 -0.015643 0.011312 -0.029904 -0.004295 -0.025939 0.03429 0.03049 0.028314 0.016897 -0.022654 -0.007312 0.006462 -0.006796 0.026052 0.017103 -0.009753 0.029075 -0.018969 0.037607 0.016323 0.010139 0.012018 0.021501 0.004484 -0.006702 0.036854 0.012856 0.002004 0.00267 -0.027327 0.020128 -0.015327 0.004709 0.037527 0.021619 0.018235 0.002913 0.022313 -0.015818 0.016565 -0.019477 0.004858 0.006514 0.004653 -0.025043 -0.025548 0.03059 -0.024049 0.015724 -0.000513 0.015543 0.024535 -0.021328 -0.007547 -0.006562 -0.021161 0.042249 0.008217 0.004676 -0.017797 0.001919 -0.027423 0.007827 0.020253 -0.021673 0.015054 -0.037339 0.027728 -0.005867 0.012093 -0.031018 0.010301 0.036905 0.02634 -0.011016 0.004308 0.026359 -0.024375 -0.005539 0.022379 0.000585 -0.006232 -0.015976 0.00827 -0.023507 -0.009451 -0.013807 -0.023287 -0.017997 -0.017944 0.025463 -0.004273 -0.01107 0.015447 -0.003794 -0.011438 0.030019 0.004936 -0.020389 -0.009913 0.026858 -0.009509 0.038836 -0.01333 0.020283 -0.02936 0.019179 -0.010738 -0.029235 -0.008423 0.018447 -0.007786 -0.015603 -0.020232 0.028515 0.025483 0.012686 0.040982 -0.025376 0.002545 -0.028702 -0.024008 0.01023 0.017846 -0.018116 0.002075 0.019175 -0.031767 0.028428 -0.029711 -0.006271 0.01155 -0.005386 -0.014705 0.010179 0.032344 0.032861 0.026843 -0.029009 -0.011632 0.018671 -0.016246 -0.013457 -0.006168 -0.029102 0.029692 0.007246 -0.024296 0.005795 0.042638 0.02876 -0.017853 0.022596 0.005466 0.013304 -0.020315 0.032054 0.03769 -0.031582 -0.021982 -0.013072 -0.032486 -0.032463 -0.005367 -0.019428 -0.022207 -0.015068 -0.029695 0.030967 -0.000872 -0.001075 0.019067 0.007814 0.038459 0.016175 -0.017555 0.022553 -0.022178 -0.001247 -0.023846 -0.029394 0.021017 -0.018476 -0.000119 -0.007972 -0.001622 -0.019387 -0.021256 -0.010493 0.024513 0.014405 -0.003129 -0.022851 0.02431 0.031389 0.03807 0.045031 -0.025113 0.009543 -0.000361 0.013096 -0.019894 -7.8e-05 -0.010698 0.019413 0.007733 0.031067 0.010293 0.024227 0.005153 -0.012192 -0.013655 0.026306 -0.008064 -0.002744 0.025665 0.013229 0.039382 -0.022995 -0.009028 -0.000937 0.015417 0.015742 0.003643 0.014177 -0.003249 -0.027245 -0.01897 0.026852 -0.017015 0.016807 0.00831 -0.030833 -0.012192 0.009302 0.021268 0.023337 -0.018882 -0.001055 0.023418 0.01711 0.006172 -0.026709 0.029299 -0.026737 -0.021845 0.011467 -0.020876 -0.002924 0.0251 0.023999 0.014368 0.031877 0.009194 -0.030354 0.008812 -0.028169 -0.010789 0.02843 -0.025372 0.004284 0.001545 -0.014788 -0.029503 0.029183 0.030125 -0.009537 0.01702 -0.003014 0.006482 -0.025128 0.012061 -0.028129 0.002523 -0.019023 0.006413 -0.003084 0.023202 -0.009618 -0.01746 0.000518 0.020367 -0.002983 0.027281 -0.011309 -0.000527 -0.021311 -0.02683 -0.022641 0.015197 0.02501 -0.010449 -0.012009 -0.011749 -0.023546 -0.027453 -0.020841 -0.001896 -0.011713 0.006004 0.001081 -0.019409 0.008125 -0.025428 0.007685 -8.4e-05 -0.029256 0.013463 -0.005875 -0.012201 -0.001139 0.007603 0.024737 -0.00687 0.000757 0.015143 0.024642 -0.012007 -0.02439 0.024957 0.010779 0.00986 -0.025645 -0.027918 -0.028282 -0.028971 0.016554 -0.016483 0.005435 0.013357 0.027164 -0.012606 0.006563 0.017777 0.025308 0.021962 0.008072 0.021043 -0.003082 0.023846 0.025417 -0.004319 -0.003817 0.002423 -0.013593 -0.010734 -0.020874 -0.035342 0.011438 -0.022716 0.004633 0.019221 -0.020468 0.024021 -0.026717 -0.037829 0.01175 0.004198 -0.00741 0.013752 0.014747 -0.002899 0.040801 0.005995 0.029132 0.028525 0.016785 -0.001605 0.00093 0.04112 -0.005228 0.0143 -0.010662 0.012924 -0.034164 -0.023756 0.012951 0.014475 0.008075 0.027451 0.034026 -0.025772 0.017846 -0.005982 -0.002831 0.021099 0.016301 0.037932 -0.023614 -0.015671 -0.028502 0.027147 0.010874 2.8e-05 -0.008623 -0.007998 0.025882 0.016608 0.020411 -0.003932 -0.005581 0.002767 -0.0085 0.017593 0.002585 -0.00845 0.012709 0.025186 0.025379 0.023067 0.021083 -0.000538 0.001118 -0.036605 -0.014598 -0.001098 0.011689 0.008393 -0.029229 0.003132 -0.020853 -0.009002 -0.022127 -0.019884 0.013612 0.029673 0.025619 0.010492 0.000126 -0.012314 -0.026128 -0.027947 -0.018085 -0.014055 0.016961 -0.020175 -0.001949 -0.00312 -0.011926 0.018362 -0.021116 -0.032029 -0.00038 0.041218 0.002634 0.007964 -0.016474 -0.026507 0.015774 -0.011544 -0.019468 0.004875 0.003893 -0.022575 0.044516 -0.010683 -0.038274 0.000129 -0.000616 -0.00528 0.003558 0.034901 0.00362 -0.015939 -0.018846 0.000772 0.028865 0.025365 0.019965 -0.028482 -0.01605 0.026222 -0.006465 -0.000676 0.030712 0.006366 -0.022258 0.012271 -0.007918 0.003492 -0.025812 0.003758 0.002176 0.023544 -0.007425 -0.015018 0.024297 -0.012319 -0.004315 0.032688 -0.010976 0.016673 -0.001428 -0.029125 0.021739 0.015442 -0.001179 -0.009267 0.012555 0.014129 0.000398 0.018671 0.015639 0.025053 0.009424 -0.03685 -0.016078 0.027058 -0.021247 0.032419 0.025013 -0.027327 0.003405 -0.016791 0.011524 0.010446 0.037694 -0.024838 0.018953 -0.006987 0.03628 0.025028 -0.016683 -0.028052 0.00289 -0.016262 0.042209 -0.001693 -0.02645 0.035811 0.000101 -0.012255 0.000558 -0.00737 0.022304 -0.034145 0.022559 0.016904 0.001704 -0.006128 -0.03229 0.013732 -0.001184 -0.01253 0.034343 -0.029267 0.002745 -0.003463 0.003147 -0.005861 -0.031073 0.016141 0.019785 -0.022511 -0.030086 0.012268 0.012357 0.037128 0.034217 -0.020888 0.002566 0.004319 -0.000429 0.01309 -0.016051 0.023263 0.010682 0.015823 -0.04077 0.004733 -0.010577 -0.012121 0.028775 0.023243 0.006063 -0.020721 -0.000251 0.007204 0.015235 -0.033033 -0.006875 -0.004774 -0.010834 -0.00143 0.019065 0.002958 -0.030203 -0.003805 -0.023943 -0.024502 -0.005254 -0.040935 0.022481 -0.023961 0.010297 0.042779 -0.012586 -0.016785 -0.00385 0.024836 0.003154 -0.004016 0.031285 0.003436 -0.018351 0.018508 0.004921 -0.009319 0.020137 0.02572 -0.023586 -0.020917 0.021494 0.003292 -0.017096 0.015476 -0.000774 0.002428 0.027589 0.018372 0.01932 -0.011072 0.006541 -0.011279 0.001818 -0.003778 -0.016126 0.005533 -0.008743 0.01309 0.016878 -0.029488 -0.02686 0.019822 0.039027 0.020948 -0.00099 0.025201 0.003759 0.002892 -0.028085 -0.025031 0.001524 -0.021989 -0.004931 0.00128 0.0317 -0.015247 -0.011639 0.005181 0.011247 0.022327 0.023383 -0.005156 0.012658 -0.007844 -0.026112 -0.018801 -0.026128 -0.033766 -0.021025 0.027109 -0.036454 -0.035294 0.020123 0.003009 0.008211 -0.007738 -0.019733 0.034471 -0.019257 -0.020439 -0.010953 -0.019591 0.014189 0.002085 -0.02871 6.5e-05 0.016288 -0.022009 -0.003831 0.031782 -0.021823 0.014048 0.021555 -0.023624 0.007438 -0.017794 -0.0002 0.035934 0.036279 -0.013055 -0.024768 -0.003212 -0.031254 0.012178 -0.018286 -0.024411 0.028822 -0.006269 0.038778 -0.023931 0.00718 -0.02329 0.019967 0.032935 0.002669 -0.027914 -0.01611 -0.02685 0.024391 -0.025039 -0.009696 -0.018597 -0.008268 -0.0196 0.018065 0.006152 0.002129 -0.016467 0.011654 -0.000981 0.013762 -0.003274 0.005322 0.014174 -0.026337 -0.003004 0.029857 0.018104 0.026477 0.001401 0.004629 -0.000602 0.010068 0.011094 0.021271 0.010744 0.007624 0.002724 0.03137 -0.028464 0.014697 -0.019982 0.004406 -0.012373 -0.019687 0.006618 -0.005291 -0.00531 0.009887 0.013319 0.04001 -0.008889 0.02342 0.010684 0.018736 -0.028356 -0.003935 0.022894 -0.02344 -0.021391 0.026802 -0.037978 0.009257 0.013945 0.005738 0.020458 -0.023356 -0.020053 -0.008914 -0.009661 0.012964 0.021795 0.005771 -0.001314 0.008379 0.02337 0.028557 -0.005362 0.021476 0.026139 -0.013828 -0.027021 0.012671 0.032769 -0.012275 -0.01811 -0.03766 0.004938 0.018737 0.005485 -0.006729 -0.00844 0.024205 0.020262 -0.010511 0.024241 -0.018388 0.004783 -0.012769 -0.004871 0.000918 0.020709 0.011824 -0.003367 -0.008543 0.007436 -0.002088 -0.005411 0.014932 -0.00875 0.014936 0.006288 0.023774 0.004569 -0.021574 0.006007 -0.012676 0.035861 0.002827 0.014609 -0.028138 -0.025631 -0.010791 0.016858 0.021904 0.001612 0.016319 -0.024173 -0.021388 0.035843 0.001775 0.009149 0.003207 0.004916 -0.009822 0.001351 -0.009671 -0.019148 0.001444 -0.035534 0.001147 -0.034248 0.027149 0.001347 -0.015396 0.025983 -0.00345 0.00235 -0.009796 0.007559 -0.004429 0.027299 -0.015055 0.001687 -0.022443 0.002897 0.033027 -0.000885 -0.004724 -0.007542 -0.019065 0.00251 -0.020687 -0.008951 -0.012706 0.018759 0.031402 0.02184 0.033027 0.007339 -0.029763 -0.003701 0.026887 -0.000296 -0.016798 0.016742 -0.024268 -0.025677 0.002147 -0.026577 -0.023223 -0.022316 -0.003639 -0.004254 0.004937 -0.00197 0.013883 -0.001563 -0.022822 0.031802 -0.004625 0.037908 -0.023736 -0.024461 0.017628 0.019092 0.021903 0.035271 -0.026789 -0.036864 0.0009 0.025271 -0.007389 -0.010124 0.019202 0.016472 -0.022005 -0.017909 -0.004241 -0.000326 0.020809 0.016554 0.022534 -0.013958 -0.019718 0.016363 -0.012118 -0.016139 -0.011688 0.010109 0.029747 -0.015713 0.003831 0.002777 0.005717 -0.028278 0.003463 -0.015366 -0.025336 0.019866 0.029279 -0.01787 -0.001185 -0.001789 0.023408 0.024556 -0.001085 -0.033727 -0.021633 0.029416 0.024431 -0.021886 0.007541 -0.01087 -0.017707 -0.012077 0.003872 -0.030152 -0.000337 -0.025608 -0.02511 0.016002 -0.004302 0.029021 0.009477 -0.023947 0.017029 -0.03091 -0.001991 0.028321 0.022091 0.000665 0.007279 0.007818 0.020971 0.021624 0.0007 0.014453 -0.0256 0.008914 0.025609 0.003291 0.014654 0.012167 -0.006209 0.02807 0.00168 0.008274 0.002173 0.023229 -0.025898 0.003547 0.010066 -0.023501 0.000484 -0.021201 0.034856 -0.022202 0.022577 0.022198 -0.01403 0.02421 0.014382 0.009652 -0.018339 0.024482 -0.012918 0.00831 0.032463 -0.02618 -0.02076 -0.012439 -0.02467 0.010223 0.007661 0.002221 0.011215 0.02152 -0.000927 0.02793 -0.011291 0.013792 -0.011968 -0.014952 0.005944 0.025269 0.030162 0.018228 0.01847 0.004702 0.026941 0.005383 0.004583 -0.000253 0.031822 -0.006513 -0.003911 0.042644 -0.023661 -0.004439 -0.03384 0.026974 -0.013915 0.012813 0.007058 0.014056 0.016998 -0.039283 0.015851 0.015538 -0.024388 0.054143 0.017075 0.00438 0.007192 -0.019696 0.009622 0.020076 -0.004703 -0.018174 0.005831 -0.029737 0.006214 0.032174 -0.000829 0.024222 0.026649 0.015141 0.007292 -0.004898 0.025852 -0.011112 0.009657 -0.008493 -0.004543 -0.005071 0.014549 -0.018858 0.023588 -0.031482 0.026731 -0.021193 -0.027941 0.007219 -0.029079 -0.015545 -0.02389 0.003699 0.000892 0.024114 0.01419 -0.027444 0.022524 -0.028368 0.018265 0.010521 0.021524 -0.010371 0.02017 0.04408 0.036211 0.007213 0.00243 -0.013611 0.050501 -0.035046 -0.017864 -0.039516 0.014776 -0.009903 -0.031371 0.021692 0.018605 0.009229 -0.016174 0.028469 -0.03811 0.013359 0.02026 0.008538 0.014218 -0.010171 -0.013566 0.003502 0.03821 -0.026365 0.009271 -0.026877 0.002654 -0.017925 0.021316 0.023254 0.009671 -0.015721 0.029493 0.02936 0.028642 0.025624 0.016288 -0.019506 -0.010641 -0.012326 0.015175 0.028781 0.022541 0.013103 0.022465 -0.031752 -0.003385 -0.017075 -0.008007 0.005255 -0.017433 0.026723 0.028338 0.013787 -0.026139 -0.003165 0.019215 -0.042776 0.018693 -0.014875 -0.012528 -0.023714 -0.006769 0.03764 0.030694 -0.015511 -0.020184 0.022611 0.026189 -0.009877 -0.013429 -0.01625 0.02381 -0.004611 0.006428 -0.025905 0.001383 -0.006241 0.032569 0.031328 -0.010109 -0.007527 -0.018686 -0.026472 -0.003667 0.015533 0.021102 -0.005149 0.029452 0.010343 0.010594 0.018748 0.028074 -0.026514 0.021513 -0.002323 0.028821 0.018249 0.015578 0.005224 0.006063 -0.025169 0.023101 -0.003879 0.016882 0.016494 0.001124 -0.018913 0.023219 0.025236 0.009565 0.022286 0.013625 -0.017622 -0.004995 -0.019992 0.026934 0.00209 0.021314 0.012761 0.024552 0.010005 0.014788 -0.024232 -0.02491 -0.01425 0.014713 -0.013722 -0.019014 0.023727 -0.007796 0.008042 0.026747 0.027364 -0.033098 0.003744 0.033371 -0.030346 0.012811 -0.012571 0.012706 0.025281 -0.010064 -0.007646 0.011404 -0.009295 0.035518 -0.030175 0.028126 -0.031438 -0.000618 0.050114 -0.005032 -0.014304 0.014303 -0.008041 0.007976 -0.021976 0.01204 0.036058 0.026951 -0.004294 0.00784 0.008118 0.011647 -0.011951 0.01701 0.010976 -0.016938 0.037462 -0.024908 -0.001954 -0.006906 0.006982 0.027828 -0.017737 -0.034738 0.00058 0.011527 0.004668 0.022333 0.052085 -0.02092 -0.04002 -0.022038 -0.024464 0.000664 0.005565 -0.024596 0.053242 -0.035338 0.000941 -0.032214 -0.012741 0.01351 0.003642 -0.004551 -0.012119 -0.016214 0.007932 0.006996 0.013708 0.027868 -0.0252 0.011706 0.021461 0.029203 -0.014012 0.004002 0.013884 0.007289 -0.03895 0.015915 -0.002829 -0.000402 0.01262 -0.004347 -0.011594 0.008572 0.01046 -0.029447 -0.03584 -0.034655 -0.013175 -0.023599 0.022255 -0.001629 0.020221 0.001574 -0.001159 0.021245 -0.005458 -0.022109 0.013738 -0.015201 0.011845 0.030457 -0.020672 0.017858 -0.014584 -0.019379 -0.008028 0.000198 -0.007023 0.021981 -0.008518 0.017132 0.028678 -0.000992 -0.018693 0.011269 0.017246 -0.03337 -0.023485 -0.001122 0.028157 0.026963 -0.00975 -0.007775 0.001361 0.000407 0.028145 -0.011843 0.006161 0.027582 -0.011881 0.027113 0.024545 0.005828 -0.002694 -0.036251 0.018584 0.02768 -0.001856 0.035728 0.005314 0.032233 0.008597 -0.019927 0.002608 0.031033 0.037525 0.018517 0.029037 0.016126 -0.032579 0.015208 -0.013971 0.008407 0.021433 -0.00526 -0.013928 -0.004947 -0.004052 -0.022984 -0.003306 0.000704 0.010813 0.003042 0.03377 0.01941 0.044946 0.018414 -0.023692 -0.030475 -0.005993 -0.01557 0.007433 0.019435 0.013067 0.024604 -0.008676 0.020914 -0.002836 0.022085 -0.01642 0.003125 0.003104 -0.005726 0.02621 0.010297 0.036696 0.024344 0.007971 0.013737 0.002923 -0.005694 0.038156 0.016064 0.020793 0.023408 0.008033 0.017121 0.041742 -0.036053 0.005801 -0.006525 -0.009267 -0.026261 -0.025902 -0.007644 -0.023915 0.017247 -0.022525 -0.033561 -0.019174 0.025115 0.015025 -0.026957 0.029633 -0.035605 0.037574 0.005126 -0.005934 0.039493 0.033512 0.008735 -0.008176 0.036658 0.003293 -0.018478 0.029915 -0.009619 0.020669 0.016423 -0.004039 -0.026393 -0.011021 -0.007921 -0.030398 0.026275 0.009321 0.0124 0.038927 -0.012483 0.008361 -0.001234 0.001166 -0.011001 -0.006153 0.022378 -0.00796 0.029517 -0.020556 0.027818 -0.001461 0.006025 0.017888 0.009509 -0.016194 -0.033105 -0.015414 0.014231 -0.015181 -0.000146 -0.002963 -0.024243 0.015068 0.006833 -0.034219 -0.026786 -0.030797 0.011347 0.027572 -0.018762 -0.01938 0.027079 0.008819 0.001671 -0.009821 -0.008803 0.02405 -0.003473 -0.013931 -0.006709 0.020559 0.017073 -0.011317 0.029612 -0.017212 -0.013027 0.0247 -0.004056 -0.011388 -0.010032 -0.017611 -0.01345 -0.003125 0.013558 -0.014733 -0.01294 0.006255 0.030148 0.02987 -0.017255 -0.01382 0.024627 0.0112 -0.023685 -0.025108 0.009761 0.023027 0.031983 0.019581 0.01937 0.002542 0.002059 0.032969 -0.027135 0.010814 0.01664 -0.009764 0.02936 0.023851 -0.00424 -0.003434 -0.001299 0.010446 0.015463 -0.030164 0.007828 0.008322 0.004795 -0.013871 -0.003862 0.032467 -0.009631 -0.025879 -0.016066 -0.022601 -0.001189 -0.015045 0.024549 -0.009983 -0.022352 0.019171 0.011403 0.028531 0.024079 -0.004143 0.029206 -0.002825 -0.035431 0.001197 0.01813 0.008271 -0.008271 -0.017399 -0.015821 0.019572 -0.019765 0.006885 0.001613 0.007761 -0.003464 -0.019937 0.025746 -0.008271 -0.015184 -0.021167 -0.01636 0.03112 0.015451 -0.007443 -0.025932 0.009767 -0.002661 0.002304 -0.027068 0.010052 0.034156 -0.029029 0.017361 -0.022708 0.00249 -0.001832 -0.003843 0.011638 0.031307 0.00556 0.003469 0.027206 0.019373 -0.022276 0.026702 0.018804 0.02612 -0.00465 0.025187 -0.015877 -0.030145 0.031386 0.018537 -0.022066 -0.016281 -0.014524 0.007645 -0.021771 0.032911 -0.027905 0.0246 0.003904 0.015484 -0.024374 -0.006604 -0.019102 0.014953 -0.02656 -0.012409 -0.021142 0.022984 -0.029024 0.030063 -0.010261 0.016909 -0.023687 -0.027283 -0.029705 -0.00677 0.008917 0.028667 0.009824 -0.012837 -0.01045 -0.002755 -0.009792 -0.027002 0.018058 0.005976 -0.023558 -0.006227 0.022944 0.018069 -0.019708 -0.014794 -0.018018 0.005627 0.015216 -0.011964 0.00123 -0.011848 -0.01477 0.006637 -0.007976 -0.00014 0.014889 0.009864 -0.002592 0.0342 0.025049 0.005891 -0.002723 0.022653 -0.004521 0.026302 -0.00846 -0.0271 -0.029518 -0.012125 0.02647 -0.012629 0.028017 -0.018877 -0.027117 -0.017744 0.021547 8.2e-05 0.014016 -0.000692 0.018368 0.021894 0.022342 -0.012551 0.016749 -0.017599 -0.014041 -0.007907 0.023258 0.005036 0.023159 0.004941 0.004697 -0.012037 -0.021311 -0.006691 -0.006574 0.003802 0.028183 0.007404 -0.009154 -0.015395 -0.028128 -0.024455 -0.009351 -0.025697 -0.021658 0.02155 -0.025708 0.004154 -0.001764 -0.017492 -0.012283 -0.005426 -0.006332 0.025747 0.011299 -0.006583 -0.027472 0.014549 -0.026996 0.012926 0.00648 -0.00967 0.018844 0.020327 -0.010409 -0.000967 -0.019246 0.020928 0.024097 -0.014448 -0.008893 0.025256 -0.010561 0.017161 0.002406 0.011649 -0.019343 0.027077 -0.003643 0.015391 0.031311 -0.00872 0.024204 0.013087 -0.029264 -0.006475 -0.017991 0.017631 -0.01813 0.014977 -0.009427 -0.022709 0.001743 0.018211 0.01049 0.015978 0.017873 0.00038 -0.017311 -0.030935 0.035331 -0.026232 0.010078 -0.027325 0.006644 -0.009525 0.05156 -0.024987 -0.021561 -0.028583 -0.016496 0.037106 0.009842 -0.026859 -0.00471 -0.021558 -0.001699 0.021625 -0.003298 0.021574 0.024965 0.004467 -0.020945 0.037762 0.020633 0.003779 -0.012718 -0.00657 -0.023329 -0.008622 -0.00099 0.006083 0.017124 -0.008624 -0.007864 0.013669 -0.020764 0.022047 -0.001104 0.005813 -0.03077 -0.02154 -0.012752 -0.035849 0.02955 -0.011859 -0.0207 -0.003397 -0.018703 -0.018247 -0.026911 0.011541 0.014869 0.021697 0.025274 -0.017532 0.032347 -0.026544 0.017465 -0.017752 -0.0169 0.005182 0.029642 -0.009097 0.024174 0.023725 0.003361 -0.007581 0.023512 -0.016956 0.00625 -0.015639 0.002346 0.020434 0.017639 0.030792 -0.030426 -0.035242 0.016242 -0.011862 -0.022161 0.010816 -0.022862 0.006705 0.015745 -0.03232 0.016688 -0.011283 0.022153 0.02394 -0.020027 -0.032023 0.019395 0.024323 0.027523 -0.008771 -0.016113 0.001372 -0.035231 0.013816 -0.028874 -0.018093 -0.025443 0.020751 0.003879 0.029862 -0.020399 0.014858 -0.02215 -0.00158 0.037659 -0.032999 -0.009056 0.00029 0.005912 0.002048 -0.014016 0.026066 -0.021503 -0.034163 0.020852 -0.01488 -0.003305 0.024693 -0.006091 0.039754 -0.018663 -0.011031 0.002698 0.016164 0.001299 0.008167 0.028642 -0.027675 0.001702 0.024682 -0.007256 0.042757 -0.001499 -0.005964 -0.008333 0.035078 -0.02439 0.040493 0.020063 -0.008641 -0.003173 -0.009654 -0.035418 0.000934 -0.024681 0.001811 -0.011813 0.017252 -0.009497 0.007951 0.029856 -0.018162 0.028036 -0.020969 -0.016001 0.01739 0.020895 0.001022 0.031163 0.017372 -0.021508 0.037085 -0.018344 0.013093 -0.011905 0.009282 -0.008575 0.036707 0.027279 -0.000479 -0.016896 0.025774 0.029521 0.021915 0.001536 -0.02111 -0.007969 -0.018406 -0.015913 -0.027198 0.009432 0.034629 0.041255 -0.02907 0.015906 -0.020445 0.005217 -0.005825 -0.025111 -0.022022 -0.019573 -0.027762 -0.025997 0.007969 -0.013383 -0.010342 -0.013635 0.000485 -0.012927 0.031551 -0.008505 0.018039 0.019916 -0.018766 -0.025706 -0.016583 0.034508 0.003031 -0.000603 0.001447 0.02328 0.015365 0.031012 0.012831 -0.019768 0.013052 0.016761 0.006859 0.026591 -0.009342 -0.026366 -0.015241 -0.002259 -0.022012 -0.023577 0.013367 -0.030378 0.021143 -0.013269 0.018836 -0.005268 -0.000431 0.005708 0.008974 -0.000322 0.016735 0.028216 0.019424 -0.02802 -0.012254 0.010587 0.025007 0.008935 -0.024799 -0.018803 -0.009262 -0.025478 0.00172 0.024368 0.028629 -0.028123 -0.024024 0.001197 -0.029183 0.017057 0.028011 -0.004391 -0.013451 -0.013147 0.029594 -0.013515 -0.013667 0.02211 0.024581 -0.012403 -0.029817 0.005346 0.015137 -0.025027 -0.028344 -0.01691 0.007282 0.00995 0.011061 0.00681 -0.022448 0.016846 0.006483 -0.006502 -0.022536 0.007531 0.014978 -0.017194 -0.00421 0.000765 -0.007718 0.017331 -0.024225 -0.02298 -0.020434 -0.000782 0.022754 0.018589 0.014608 0.029139 0.014925 -0.001165 -0.021406 -0.001792 0.001502 0.011773 -0.000704 0.02898 -0.013746 0.000945 -0.025948 0.018497 0.009878 0.016866 -0.004673 0.009887 -0.030849 -0.004897 0.016375 -0.027137 -0.029133 -0.012907 0.030251 0.003704 -0.016395 0.013539 -0.00363 0.024678 0.018936 0.021766 0.007801 0.025969 -0.010679 -0.011121 -0.025161 -0.031548 0.006929 -0.000837 -0.014157 -0.005969 0.025794 0.01165 0.015313 -0.013286 0.008498 0.004077 -0.025539 -0.008037 -0.00506 -0.024869 -0.008772 -0.027927 0.002829 -0.025301 -0.017321 0.0097 0.007563 -0.0156 -0.007268 -0.018397 -0.015059 0.02497 -0.023117 0.014757 -0.007273 0.001142 0.005605 -0.014702 0.011078 0.025065 -0.006289 -0.010091 -0.018703 0.001289 0.020994 0.003497 0.023416 0.032166 -0.016786 -0.031701 0.029622 -0.023287 -0.005538 0.016727 0.032217 0.016849 -0.031338 -0.030639 0.026657 0.022178 0.022916 0.017813 0.032553 -0.001875 -0.001407 0.016985 -0.011712 0.032441 0.000128 0.008431 0.020115 -0.028685 -0.012455 -0.020378 -0.001925 0.020924 -0.026941 0.006278 -0.012872 0.002463 0.010761 -0.008319 -0.019397 -0.012621 0.005945 -0.018843 -0.01016 -0.024982 -0.004743 -0.013975 0.006703 0.005786 -0.012733 -0.004785 0.011445 -0.016117 -0.004872 0.03748 0.021361 -0.007767 -0.027542 -0.000767 -0.013032 0.018325 -0.022599 -0.018215 -0.001324 0.001515 0.030347 -0.025147 0.025264 0.026616 -0.016584 0.024282 -0.03014 -0.008884 -0.015533 0.015473 -0.021058 0.0354 -0.00982 0.020936 0.020673 0.027983 -0.028717 -0.018888 -0.010079 -0.007609 -0.003462 -0.019264 -0.004734 -0.007005 -0.029522 -0.004581 0.004513 -0.030769 0.008542 -0.028441 0.012633 0.006632 -0.018116 0.027471 -0.028598 -0.006124 -0.031177 -0.031815 -0.007765 0.007524 0.003006 -0.02987 -0.018091 0.02706 0.015581 -0.002095 -0.017847 -0.031534 0.004598 0.022103 -0.023267 0.012656 0.029959 -0.017954 0.008551 -0.008939 0.014242 0.024818 -0.012666 -0.01573 -0.019528 0.008085 -0.033998 0.001173 -0.034908 -0.004854 0.005051 -0.009872 -0.002782 0.005888 -0.01108 0.024002 -0.013153 -0.013678 -0.018675 -0.028741 0.031319 0.027046 0.002171 -0.020034 -0.028147 0.020616 -0.023747 -0.01552 -0.00152 -0.025653 0.030435 0.02133 0.020398 0.021432 -0.021499 -0.020069 0.010969 -0.028279 0.032424 -0.025157 0.031611 -0.020012 0.020303 0.0072 -0.003195 0.019446 0.007491 -0.03361 -0.018178 0.016034 -0.001117 0.014228 -0.030452 0.015864 -0.003765 0.002925 0.003544 0.024191 0.000205 0.00096 0.024393 -0.016373 0.005977 0.008651 0.02586 -0.013328 -0.018906 0.026073 -0.016611 0.022468 -0.004232 0.019216 0.034032 0.004934 -0.028771 -0.0087 0.001317 0.01375 0.00913 -0.019681 -0.002597 0.015779 0.012265 -0.009772 0.026336 -0.024982 0.011024 0.013937 -0.006881 -0.007225 -0.017961 -0.019725 0.025927 0.005333 0.021006 0.030078 0.035138 0.026383 -0.027492 -0.010118 0.003638 0.008278 -0.02064 0.003621 0.027786 -0.020305 -0.008491 0.005082 0.016761 0.03173 0.017796 -0.011191 -0.008445 0.001157 0.014259 0.002096 -0.0158 -0.000543 -0.026736 -0.025937 -0.025586 -0.032027 -0.008672 -0.02273 0.000875 0.023363 0.014052 0.016292 -0.016494 -0.030908 0.017665 0.015492 -0.010822 -0.002601 -0.024454 0.021087 -0.010832 5.5e-05 -0.008301 -0.013943 -0.018628 -0.012144 0.024658 0.016506 0.027984 -0.025781 0.020044 0.027513 0.020729 -0.016037 -0.020556 -0.010758 0.028498 -0.001907 -0.002224 0.003335 -0.0168 -0.027579 0.002253 0.022217 0.000986 -0.004612 -0.023858 0.011269 0.01272 -0.012999 0.015659 -0.014571 -0.007028 -0.026135 -0.027359 -0.004432 -0.010338 0.000689 0.017117 0.035293 -0.01592 0.012243 7.3e-05 -0.010632 -0.004678 0.018148 0.012997 0.028298 0.036255 0.023459 -0.020279 -0.007691 -0.012654 -0.011435 0.023134 -0.020261 -0.008287 0.005558 -0.036884 -0.005937 0.019598 -0.017594 -0.01634 0.026428 0.003626 0.007346 0.006651 -0.011349 0.024118 0.016875 0.013565 -0.00318 -0.021568 0.017353 -0.02818 -0.009938 -0.009188 0.034097 -0.019402 0.024938 0.013321 0.01397 -0.030244 -0.013446 0.028319 -0.016822 0.029332 0.018093 -0.03047 0.018427 0.010812 -0.0195 -0.001856 -0.025263 -0.013505 -0.018415 0.000466 0.010487 -0.006156 -0.023393 -0.021401 0.007018 -0.023229 0.02416 0.019293 -0.02967 0.023618 0.001036 -0.031745 -0.000866 0.019295 0.003306 0.018933 -0.012961 -0.017916 -0.005946 0.001516 0.001561 -0.02847 0.039634 0.041681 -0.003704 0.028498 -0.003552 0.023074 0.015727 -0.013011 0.00678 0.024501 -0.030265 0.013519 0.036048 -0.019539 0.008526 -0.032726 0.023799 -0.030674 -0.020084 -0.002879 -0.025144 0.003858 -0.01938 -0.021443 0.031989 0.000447 -0.001345 0.012617 0.019199 0.004753 -0.017577 0.031544 -0.013223 0.006659 -0.0236 0.009675 -0.006266 -0.006997 0.033173 0.004458 0.023689 -0.023918 -0.003489 0.018986 -0.014519 -0.005969 -0.007743 0.028998 0.026931 0.027159 0.000921 -0.010485 -0.00583 -0.006127 0.025364 -0.033405 0.021334 -0.007542 -0.006448 0.018576 -0.010884 0.020221 0.019139 -0.011663 -0.007761 0.022356 -0.012859 0.022168 -0.018592 0.007694 -0.014953 0.021568 0.001772 0.000687 -0.00161 -0.012213 -0.029534 -0.025156 -0.028585 0.018714 -0.003495 0.024057 0.021261 -0.009872 0.009404 0.014929 0.00326 0.003533 -0.018573 -0.006232 -0.025299 0.026995 0.030941 -0.013642 -0.000207 0.000845 -0.013431 -0.020946 0.020368 -0.004277 -0.011903 0.024029 0.010697 0.032583 -0.011023 0.015021 0.029071 0.024701 -0.025335 0.019232 0.005964 -0.004666 -0.039665 -0.031758 0.019678 -0.024361 0.024604 -0.022682 -0.031082 -0.030477 -0.017974 0.009276 -0.020537 0.027754 -0.005611 -0.018747 -0.015904 -0.016544 -0.02354 0.003264 0.00256 -0.005501 -0.020018 0.025895 0.018513 -0.018859 -0.012156 -0.012184 0.014065 0.021211 0.020334 0.001681 -0.034094 0.003026 -0.011638 -0.020813 -0.015091 0.030868 -0.029513 0.010208 -0.019242 0.014922 0.016378 -0.025277 0.01676 0.020382 -0.011134 0.01161 0.032286 0.013251 -0.001869 -0.008971 0.020523 -0.015842 0.00809 -0.007718 0.019643 -0.000623 -0.000167 0.010924 -0.010224 -0.008186 0.031044 -0.006457 -0.022528 -0.018754 -0.018587 -0.00975 -0.013459 0.015417 -0.014718 0.031199 0.014323 0.001689 0.01043 -0.004183 0.022575 0.005393 -0.011043 -0.007445 0.014997 -0.001968 0.001805 0.012861 0.022062 -0.028013 -0.022328 0.004423 0.022026 -0.016033 -0.011443 0.002688 0.002218 -0.020101 0.002268 0.017943 0.02805 0.001467 -0.008883 0.005957 -0.00537 0.023992 0.035892 -0.010682 0.016315 0.007713 -0.019097 -0.02067 -0.021523 -0.01693 -0.005882 -0.004013 0.017483 0.002104 0.024035 -0.002747 0.01949 -0.024474 0.016042 -0.015197 0.03028 -0.009015 0.030857 -0.003115 -0.005751 0.025518 -0.020978 -0.025753 -0.031018 0.023644 0.005064 0.021631 -0.00728 0.005403 -0.031201 0.00419 0.008599 0.008128 0.010947 -0.018676 -0.012157 0.0194 -0.008514 0.005495 -0.000923 -0.012592 -0.009486 -0.004243 -0.035863 -0.00963 -0.026802 0.009912 -0.021243 -0.026108 -0.028725 -0.030114 -0.029143 0.012699 -0.010923 -0.011135 -0.024062 -0.011817 -0.028074 -0.018952 0.013177 -0.014198 0.024049 0.012933 -0.003316 -0.013489 0.054734 -0.000495 0.019528 0.017396 0.006034 0.002268 0.018065 -0.017817 0.011566 -0.004466 -0.006909 0.003128 0.027011 0.01672 0.031632 -0.019547 -0.030882 0.027279 -0.022086 -0.025204 0.008397 0.009823 0.001095 -0.010329 0.029559 -0.004314 0.047356 -0.006509 -0.033763 -0.003593 0.016642 0.021068 -0.026334 -0.01152 -0.024139 -0.004255 0.004231 -0.001386 -0.023516 0.00447 0.007421 0.049456 -0.033103 0.001679 -0.014326 0.014544 0.030704 0.011168 0.000391 0.00209 0.00591 0.000767 0.017944 -0.014253 0.053982 0.01052 0.011385 0.039666 0.005985 -0.028889 0.013202 0.012676 0.033175 -0.010639 0.015501 -0.029584 0.008186 -0.032989 -0.013273 -0.01083 -0.020361 0.011783 0.000696 -0.005772 -0.012755 0.018178 0.040495 -0.004688 0.003958 -0.022691 0.022262 0.022962 -0.004395 0.022651 0.012151 -0.014742 -0.002933 -0.006089 0.019183 0.015564 -0.000369 0.002287 -0.038624 0.023802 0.031169 -0.039662 0.005897 0.000174 -0.020431 0.02997 -0.002614 -0.003067 0.014867 0.021634 -0.035806 0.020578 0.022191 0.015553 0.013404 -0.022401 -0.025875 0.001671 0.023818 -0.006811 0.024381 0.000562 0.000766 0.014565 0.020507 0.014305 -0.014404 -0.005654 0.014079 0.000871 0.04176 -0.032795 -0.001533 0.014129 0.013672 0.028946 0.022521 0.007347 0.020349 -0.015883 0.014548 -0.001527 0.006252 -0.018025 0.02244 0.009385 0.023022 -0.00665 0.049224 0.008967 0.01267 0.001913 0.01116 -0.033901 0.040352 -0.016768 0.025162 0.034252 0.00793 -0.008783 -0.036348 0.012278 0.02969 -0.016026 0.019803 0.026358 0.021607 -0.015874 0.001588 0.016115 -0.019113 -0.038585 0.032198 0.017152 -0.004871 0.015378 0.012123 0.009082 -0.010888 0.024044 -0.022108 0.00658 0.029985 0.019745 0.015795 0.021993 0.005028 -0.027761 -0.025679 0.021422 -0.007875 -0.012802 0.019558 0.017523 0.030187 -0.007323 0.001455 0.009955 -0.022748 -0.020319 0.031409 -0.022491 -0.024223 0.025051 0.025962 0.011693 0.025933 -0.022345 0.003625 -0.011026 -0.001729 0.020731 0.001553 -0.009207 0.027002 0.014853 0.025414 0.021787 0.027643 -0.008099 -0.01651 0.027607 -0.006818 -0.001157 0.033203 -0.001566 -0.039406 -0.011554 -0.006122 0.00733 0.012918 -0.017351 0.020421 -0.008574 0.020295 -0.005402 0.026622 0.014439 -0.018116 -0.036797 0.005064 -0.030109 0.012852 0.011345 -0.02276 -0.013868 0.011111 -0.028126 -0.028346 -0.02246 0.007352 0.040183 0.021275 0.017623 0.046164 0.018028 0.0153 0.034216 -0.016975 -0.028948 0.024434 -0.001741 -0.011511 0.009801 0.007109 0.020625 0.012092 0.004003 -0.018047 -0.010152 0.018775 0.026154 -0.006276 0.017139 0.00034 -0.025057 -0.027306 0.035833 -0.006103 0.010702 0.011742 0.009552 -0.005261 0.040979 0.010081 0.02972 -0.010952 0.013812 -0.010641 -0.022884 0.023301 0.030421 0.01549 0.030747 -0.02659 0.041478 -0.008189 0.014383 -0.012738 0.011628 -0.024429 0.030316 -0.005369 0.0203 0.03149 -0.01814 -0.025713 0.018935 0.002224 0.01763 -0.020807 -0.011643 -0.006959 -0.038213 -0.012995 -0.016466 0.040684 0.009543 0.025753 -0.014832 -0.011398 -0.002498 0.004001 -0.001248 0.023416 0.017752 0.003104 0.022971 -0.024187 0.018041 -0.003454 0.01552 0.004246 0.037049 0.000768 -0.022966 0.022772 0.003516 0.010952 0.022617 -0.014364 0.002028 -0.023731 0.024813 0.015162 0.016145 0.031404 -0.026514 0.033362 -0.004169 0.026036 0.017577 -0.012849 0.015062 -0.024654 -0.010197 -0.016563 -0.017926 0.016226 -0.015049 0.010254 -0.022782 0.009312 -0.016251 -0.020285 0.028383 -0.024207 -0.015436 -0.013053 0.012583 0.011969 0.001276 0.011802 -0.018927 -0.026804 0.001554 -0.024439 -0.015514 -0.014717 -0.025821 -0.020654 -0.031951 0.02597 -0.00129 -0.014426 -0.011545 -0.023626 0.00069 -0.029967 -2.3e-05 0.013796 -0.00389 -0.00661 -0.015593 0.007033 -0.025621 0.014394 0.020651 -0.017962 0.032488 -0.025163 -0.000848 0.0242 0.004661 -0.00636 -0.012331 0.004186 -0.019375 -0.012933 0.027232 0.029282 0.024115 0.018524 0.012509 -0.025671 0.025183 0.018473 0.012997 -0.002577 0.022769 0.029252 -0.024671 0.020327 0.003592 0.013607 -0.012575 -0.024412 -0.007646 0.023246 -0.034262 0.002291 -0.008319 -0.020565 0.001072 0.017418 -0.011233 -0.010163 -0.006264 0.010995 -0.019663 -0.007765 -0.021942 0.004081 -0.013347 0.015132 0.002383 -0.028553 0.026132 0.015286 0.011429 -0.018533 -0.019149 0.020183 0.006917 0.002779 -0.019896 0.020396 0.025384 -0.024551 -0.009879 0.015518 -0.014658 0.011798 -0.022299 -0.030509 -0.001464 -0.002415 0.004656 -0.008252 0.021759 -0.007182 0.030909 0.007063 0.00609 -0.002353 0.029198 -0.017408 0.009543 0.024453 -0.006038 0.002407 -0.000608 0.026141 -0.019387 0.000284 -0.011318 -0.02539 0.005699 0.003924 -0.024133 -0.031858 0.008254 -0.029612 0.022271 -0.015252 0.029558 0.010476 0.023608 0.024295 -0.006418 0.012218 -0.016986 -0.021828 0.00932 -0.00758 0.013908 0.001967 -0.001698 -0.027744 0.015793 0.000423 0.01608 -0.021066 1.3e-05 0.024803 0.014627 -0.009317 0.017164 -0.019714 0.008897 0.008368 -0.006705 0.01597 -0.023788 -0.027983 0.008203 -0.017534 -0.020729 -0.005976 -0.017324 -0.008185 -0.00247 0.015366 -0.027882 -0.014466 0.001486 -0.019692 0.025432 -0.003345 0.005244 0.013666 -0.017985 0.005674 0.02921 0.002363 0.005807 -0.023939 -0.019189 0.026104 -0.018009 0.010296 -0.026391 0.012599 -0.006953 -0.018666 0.013586 0.013512 -0.024636 -0.023533 0.000211 0.018126 0.01469 -0.007332 -0.025879 0.016156 0.008567 0.030578 -0.02526 -0.010365 -0.015253 0.019042 0.020728 -0.015795 -0.021839 0.024768 0.004202 0.025775 0.01724 -0.015271 0.005649 0.006552 -0.002768 -0.028941 -0.027595 0.027326 0.019525 0.003676 -0.023845 0.025521 -0.022182 0.014514 0.024071 0.00642 -0.031775 -0.024224 -0.009635 -0.016023 -0.009204 -0.012431 0.016877 -0.026664 0.0208 -0.022109 0.002139 -0.026204 0.007137 0.030469 -0.011818 0.00297 -0.013374 0.021899 0.004762 0.037579 -0.000744 -0.015941 0.011781 -0.000269 0.014828 -0.015665 -0.017509 0.038719 0.005459 -0.007683 -0.017432 -0.007849 0.014295 -0.008994 0.005213 0.013562 0.005026 -0.004901 0.0062 0.027111 0.011143 -0.024981 0.051505 0.037034 -0.001357 0.018573 0.018162 -0.012612 -0.019875 0.035096 0.021238 0.004756 0.012964 -0.036808 -0.024942 0.021448 -0.034204 0.04836 0.018588 -0.029449 -0.036794 -0.017655 0.012612 -0.009541 0.030603 -0.003304 -0.013669 0.036484 0.005937 0.003657 -0.000874 0.012072 0.003484 -0.000508 0.015422 -0.015207 -0.007955 0.028868 0.005999 0.027299 0.00097 0.046521 0.019998 -0.006321 0.029958 -0.007396 0.024927 0.01472 0.028601 0.036357 -0.005418 -0.025142 0.00876 0.008396 0.018632 -0.019377 -0.005328 -0.030101 8e-05 0.019449 0.031217 0.037015 0.020789 -0.020038 -0.009797 0.027278 -0.024459 0.008833 0.010592 -0.010061 -0.033331 -0.019899 0.013187 0.005156 0.029798 0.011968 0.027242 -0.036848 -0.006777 -0.006095 -0.028786 -0.043713 0.013448 -0.026726 -0.00051 0.03144 -0.018256 0.023505 -0.02545 -0.009327 -0.017745 0.005412 -0.018583 -0.011266 0.025453 0.018439 -0.016122 0.01114 0.006672 0.000437 -0.029517 0.009423 -0.023083 0.020971 0.001662 0.038682 -0.000381 -0.030215 -0.01914 0.022152 -0.025842 0.010274 0.031663 0.010203 -0.000487 0.011776 -0.025876 0.014146 0.004701 0.021547 0.003578 0.002381 0.001023 -0.028579 -0.022408 0.001344 0.03443 0.025142 -0.027333 -0.00583 -0.013532 -0.024167 0.024209 -0.024169 0.011386 0.023817 0.011419 0.013361 0.006979 -0.015785 -0.014443 -0.000755 -0.003944 0.019309 -0.002561 -0.00916 0.00265 0.005479 0.006277 0.002339 -0.025546 0.013186 -0.00091 -0.023812 0.019321 0.023085 0.017484 0.008139 -0.007158 -0.027 0.006797 -0.011995 -0.022062 0.006441 -0.009156 -0.025022 -0.008512 -0.017403 -0.011635 -0.012358 0.029955 0.007249 -0.009879 0.002871 0.019339 -0.02079 0.019651 0.009182 0.02014 0.006167 0.01802 0.01339 -0.028649 0.023007 0.006938 0.012424 -0.011815 -0.011333 0.031464 -0.013193 -0.01241 0.004204 0.00051 0.01509 0.027731 -0.033419 -0.0236 -0.0041 0.030519 -0.002689 -0.007828 0.014775 -0.011185 0.023812 0.003484 -0.025886 0.026868 0.028871 0.005751 0.006913 -0.008208 -0.017463 -0.01424 0.013402 -0.026399 -0.010716 -0.001137 0.025329 0.013296 -0.024583 0.008867 0.028447 0.020079 0.009244 0.021825 0.018956 0.025007 0.018907 -0.022431 -0.002203 -0.026493 -0.022603 0.016562 -0.020734 -0.000441 0.029558 -0.018416 0.015198 -0.004217 -0.003633 -0.01439 0.030422 0.005157 -0.0223 0.027428 0.017155 0.019025 0.010474 0.002687 -0.015417 -0.042723 0.018853 -0.021815 -0.004718 0.025264 0.034473 0.001534 -0.004075 0.010839 0.009302 0.004742 0.003276 0.004849 -0.006187 0.00165 -0.019201 -0.002154 -0.023006 0.0089 -0.047678 0.028326 -0.019229 0.020581 0.015802 0.008472 0.000868 0.013033 0.012323 0.030693 -0.016579 0.029335 0.016214 0.010365 -0.014042 0.040439 -0.020991 -0.005887 0.040265 0.036165 0.021837 0.017639 0.015338 -0.006909 0.016539 -0.00791 0.036865 0.028383 0.01304 -0.020146 -0.022026 -0.005062 0.030204 0.021762 -0.006296 -0.024312 0.000348 0.004975 -0.023552 0.024436 -0.013465 0.031397 -0.023762 0.010937 -0.026454 -0.01154 0.016042 0.01807 0.019342 0.025338 -0.005475 0.007317 -0.023164 -0.020394 -0.027404 0.033301 -0.034857 -0.024361 -0.018868 0.023092 -0.024386 -0.002737 -0.031884 0.024875 -0.019933 -0.012317 -0.000571 -0.034486 0.012607 -0.028178 0.012858 -0.014316 0.0188 0.004718 0.017349 -0.003952 0.021745 0.017645 0.031841 0.007694 0.019859 -0.01251 -0.015393 0.022221 -0.008977 0.015088 -0.028481 -0.023442 0.003222 -0.013826 0.049622 0.012091 0.026881 -0.00548 -0.033353 -0.018116 -0.018405 -0.019427 -0.007579 0.0148 0.018501 -0.002594 -0.002208 -0.006833 -0.022996 0.03433 0.007766 0.023267 -0.018549 0.020461 -0.012159 0.012746 -0.005499 0.000241 -0.022919 -0.021941 -0.025083 0.025157 0.017039 0.007032 -0.020806 0.012523 -0.006292 -0.012319 0.003625 0.028393 0.0258 0.008327 0.032149 0.018275 0.012433 0.039764 0.031139 0.015068 0.033773 -0.01434 0.020108 -0.021681 -0.015358 0.00545 0.024933 -0.020211 -0.009315 0.002229 0.00987 0.021196 0.020948 -0.021458 0.011072 -0.031545 0.008456 0.026638 0.03193 0.016097 -0.010965 -0.02697 0.028148 -0.010974 -0.032771 -0.009027 0.004891 -0.020047 0.029075 0.002868 -0.023695 -0.011527 -0.004096 0.007814 -0.007509 -0.010606 0.016026 0.000996 -0.013068 -0.027092 0.004455 0.001011 -0.025296 0.015442 -0.017651 -0.034057 -0.009543 0.02929 0.019752 0.031197 -0.011468 0.021537 0.010861 -0.025471 0.031956 0.023659 0.008735 -0.010519 0.021001 0.008047 0.019423 -0.01376 -0.011267 0.027178 0.01262 0.009413 -0.024222 0.020066 -0.019311 0.018269 0.012328 -0.02505 -0.011756 0.020658 -0.006761 0.027628 -0.004287 -0.033679 -0.009442 0.023914 0.000218 0.005568 0.020936 0.005333 0.011004 0.011248 -0.005067 0.012469 0.011527 -0.00942 0.025478 -0.023982 -0.024877 -0.00924 0.006396 0.00928 -0.006761 0.043297 0.026051 0.001011 -0.013893 0.00859 0.019595 -0.024189 0.02504 -0.001642 0.023995 -0.024742 0.026896 -0.010985 -0.001994 0.005965 0.002336 -0.019391 0.013915 -0.035236 -0.020646 0.03817 0.006916 0.018195 0.02087 -0.02767 -0.02211 -0.022666 0.018442 -0.00242 -0.011937 -0.024131 0.029815 -0.031302 0.021847 0.0087 0.016986 -0.024399 -0.001392 0.026776 0.041144 0.015294 0.035546 0.013188 0.024943 -0.000142 -0.005513 -0.002922 0.023043 0.003183 0.013809 0.038545 0.021071 0.004519 0.007331 0.008001 0.018505 0.018247 0.039715 0.018496 -0.001407 0.00891 0.0026 -0.009972 0.013849 -0.020962 0.013048 0.0251 0.001254 0.013368 0.025641 0.03012 0.01046 0.004858 0.025762 -0.033614 -0.036596 0.006265 -0.009858 -0.012931 0.028759 -0.021748 0.0082 -0.007498 0.029678 0.016938 -0.009249 0.0035 -0.008156 -0.012685 -0.004248 0.016519 -0.024673 -0.008725 0.008123 -0.006155 0.027621 0.019883 0.018304 0.000242 0.001728 0.012745 0.000623 -0.031818 -0.011778 0.008306 -0.028909 0.005523 0.01241 0.030733 0.042845 0.007887 0.016654 -0.013294 -0.021117 -0.019413 0.026803 0.021929 -0.006408 -0.027337 0.017814 -0.004072 0.025304 -0.013517 0.009874 -0.003281 -0.012482 0.016047 0.028175 0.031516 -0.029582 0.017826 0.0241 0.024466 -0.023283 0.002935 -0.023298 0.023913 0.006323 0.015089 0.002507 -0.025543 0.030917 -0.0175 0.000278 0.019662 -0.014587 0.013632 0.021128 0.008887 0.013277 -0.010939 -0.003549 -0.006237 0.024517 -0.025425 -0.019624 -0.003933 -0.014724 0.028308 0.006283 0.004961 -0.003159 -0.006104 -0.015529 0.00652 -0.005488 -0.00267 0.031195 -0.02261 -0.00433 -0.020171 -0.022836 -0.016487 0.016642 0.01685 -0.003549 0.005594 -0.006651 -0.022079 -0.022749 0.031611 0.01529 -0.026541 0.023888 -0.012758 -0.008188 0.031596 -0.032227 0.027838 -0.016704 0.026114 0.016883 0.025375 0.013486 -0.002315 -0.018224 0.001372 0.016595 -0.018709 -0.001449 -0.002597 -0.004048 0.005043 0.01416 -0.017262 0.005866 -0.030061 0.013675 -0.018001 -0.02479 0.013456 -0.023248 0.029355 0.009456 -0.015767 0.005299 0.008659 0.020756 -0.011388 0.014324 0.031597 -0.029833 0.024171 0.019943 0.022409 -0.004286 -0.023376 -0.016882 -0.006674 -0.0203 -0.000729 0.001286 -0.017479 0.013545 -0.015917 0.028575 -0.024347 0.02867 0.002393 0.018954 -0.027023 0.017859 -0.00531 0.015411 -0.006353 -0.036156 -0.007195 0.00309 -0.015055 -0.002462 -0.00033 -0.023881 0.031317 0.010451 0.004413 -0.000572 0.001911 -0.011274 -0.0349 -0.017316 -0.019037 -0.016206 -0.005128 0.024221 0.022901 0.011264 -0.000832 0.02964 0.003527 0.016109 0.034551 0.023863 0.000615 0.005636 -0.02589 0.008088 -0.017039 0.015856 0.001072 -0.00513 0.000796 0.014303 -0.001353 -0.008842 0.031719 0.026464 -0.023695 0.011088 0.023665 0.002469 0.01101 0.02681 -0.022271 0.008073 0.010826 -0.013183 0.038573 -0.00773 -0.001586 -0.008779 0.001739 -0.012859 0.024276 0.032414 0.03027 -0.010289 0.023631 0.03172 -0.005511 -0.002511 0.033057 -0.001128 -0.015936 0.028516 -0.021423 -0.015362 -0.004601 0.026447 -0.011971 -0.014075 0.029968 0.014193 -0.000567 -0.009844 -0.011939 -0.011181 0.011607 0.009753 0.017017 0.018549 0.008627 0.004089 -0.034103 0.005559 0.022448 0.027871 0.034885 -0.01902 -0.015769 0.000772 0.019926 -0.020365 0.023605 0.016206 0.001055 -0.007514 -0.024916 -0.006391 0.005134 -0.030241 0.02999 -0.005311 0.036458 0.008442 0.028681 -0.003811 0.028778 0.01774 -0.006392 -0.0316 0.012918 -0.012416 0.007344 -0.003822 -0.001733 -0.001584 -0.005733 -0.026175 0.021925 0.004093 -0.016316 0.000678 -0.021176 -0.02289 -0.019198 -0.028695 0.020127 -0.025292 -0.013051 -0.021774 0.013361 0.021117 0.002356 0.006096 0.021862 0.001844 0.001708 0.030726 0.027334 -0.005397 -0.023926 -0.023412 0.018124 0.022612 -0.030231 -0.021825 -0.016611 0.025498 0.002351 -0.000409 0.003024 -0.012041 -0.024696 -0.003028 0.003163 -0.028228 0.022418 0.002242 -0.002921 0.02742 -0.006312 0.012265 0.024901 -0.018066 0.023975 0.030907 -0.02279 0.025346 0.004537 -0.005412 0.023311 0.022048 -0.028817 0.004243 -0.025545 0.002662 -0.018306 0.017344 0.006206 -0.006733 -0.026444 0.015764 0.014509 -0.002262 0.000591 0.024981 0.014597 0.020008 0.006057 -0.031178 -0.01158 -0.023988 -0.01176 0.011732 0.000728 -0.014128 0.026786 0.023961 0.015754 0.010046 -0.029223 -0.021059 -0.029604 -0.020372 -0.02206 -0.016027 0.003748 -0.000385 0.017773 -0.029728 0.014415 -0.024022 -0.024625 -0.002237 -0.001012 -0.002133 -0.021616 -0.000452 0.008674 0.024944 0.004915 0.001469 -0.000353 0.000505 -0.005052 0.015716 0.0203 0.003875 -0.029044 0.030251 -8.5e-05 0.026201 -0.004763 -0.027446 0.010567 -0.022028 -0.001906 -0.028986 -0.003967 -0.026358 -0.00407 0.003818 -0.030935 0.013833 -0.00135 0.024015 -0.013933 -0.011558 0.004191 0.021347 0.018733 -0.013275 -0.022518 0.025198 -0.016004 -0.004893 -0.006111 -0.009886 0.01955 -0.00766 -0.02027 0.011494 -0.017622 -0.010105 0.020231 0.030352 -0.002174 -0.000535 -0.027085 -0.007076 -0.010543 -0.01406 0.001472 0.025345 0.02503 -0.025623 -0.013538 0.031544 -0.000123 -0.026891 -0.010645 0.009082 -0.003123 0.026935 -0.026923 0.015064 0.02066 -0.014364 -0.010591 -0.021006 -0.02442 -0.022442 -0.010978 -0.013242 0.001436 0.020003 -0.02904 -0.008087 0.022458 0.003918 -0.001178 0.010202 0.004172 0.00326 -0.013789 0.011182 -0.006944 0.017572 -0.004366 0.004743 -0.003844 -0.014562 0.014967 -0.021579 -0.030596 -0.016231 -0.007834 0.018401 0.016718 -0.010212 0.026441 -0.023054 -0.000888 0.024534 0.006628 -0.019727 -0.000454 0.000519 -0.024365 -0.02724 0.024115 0.004062 -0.001298 -0.027937 0.025643 0.029176 -0.000953 0.02227 -0.003199 0.029155 -0.016579 -0.013564 -0.008681 0.020861 -0.023763 -0.029975 -0.020273 0.015608 0.02445 0.013245 0.023157 0.002005 0.023397 0.023149 -0.022699 0.00716 -0.000487 -0.018789 -0.015805 0.006069 -0.029572 0.025431 0.026192 0.005298 0.027995 -0.018453 -0.003337 -0.008881 -0.022897 -0.00891 -0.021905 0.013714 -0.02475 0.030087 -0.021708 0.025144 0.025852 -0.003576 -0.002168 0.032689 -0.020087 0.013108 -0.021154 0.029335 -0.0076 0.030052 -0.029368 -0.020854 -0.021022 -0.029099 -0.021453 -0.026779 -0.024708 0.013097 0.010265 0.011131 0.001721 0.008472 -0.020676 0.016639 -0.021795 -0.020297 -0.018388 -0.016035 0.00791 0.010804 -0.030678 0.005285 0.022982 -0.009171 -0.031315 -0.006691 0.005519 -0.019579 0.012436 0.011124 0.013003 0.017123 -0.019492 0.032033 0.029843 -0.007658 0.007922 -0.029096 -0.006326 0.030155 0.011919 0.030522 -0.024004 0.001372 0.01677 -0.029627 0.002195 0.013152 -0.02582 0.006943 -0.017904 -0.01748 -0.003659 0.03349 0.013889 0.008379 -0.00904 -0.005753 0.011747 -0.011853 -0.023455 0.01352 0.000278 -0.002424 -0.029124 0.025807 -0.009172 -0.017747 0.019616 0.027654 -0.008906 0.014971 -0.035912 0.013474 -0.009563 0.018933 -0.02403 -0.008956 0.002488 -0.024255 -0.005383 -0.022725 0.005577 -0.02395 0.021811 -0.010201 0.031509 0.017712 -0.005576 0.011182 0.002114 0.029085 -0.014396 -0.012873 0.018959 0.014318 -0.011071 0.027512 -0.016574 0.019185 -0.022516 0.01664 -0.000885 0.002119 0.017155 0.037831 -0.000833 0.00081 -0.012383 0.014203 0.015305 0.012523 0.027891 0.005952 0.031561 -0.016695 0.005672 0.010825 -0.003497 0.021845 -0.019941 -0.012449 -0.012501 0.019913 0.002554 0.013369 -0.00459 0.006109 -0.020697 -0.018136 -0.011671 0.009316 -0.013869 -0.027119 -0.012867 -0.010018 -0.0038 0.011339 0.034428 0.018139 -0.029847 0.034944 0.002147 0.015515 0.01461 -0.019731 -0.012337 -0.000558 0.001336 0.000789 0.012652 0.019771 -0.007063 0.022369 0.034109 -0.022905 0.003734 -0.008374 0.016985 0.010657 0.005596 0.01691 -0.023008 0.001149 -0.019611 0.036505 0.00265 0.011189 -0.035428 0.020544 -0.017844 0.036209 0.040834 -0.020981 0.003055 -0.024474 -0.010781 0.010652 0.021405 0.01692 -0.01495 -0.030164 -0.025645 0.00607 -0.023602 0.021713 -0.026827 0.019035 0.028692 0.024119 -0.013351 0.009222 -0.004185 -0.008056 -0.014393 0.019637 -0.003327 0.004106 0.01633 -0.003741 0.021625 -0.035701 0.019906 -0.00775 0.008163 -0.025671 0.00386 0.010388 0.015707 -0.000549 0.003597 0.024269 0.017007 -0.020009 0.00475 -0.005825 -0.027054 -0.027634 0.005495 0.026552 -0.004129 -0.015365 -0.013098 -0.031823 0.011388 0.01595 -0.009814 -0.013068 0.003462 -0.000457 0.037002 -0.014184 -0.02779 -0.028097 0.000184 0.005176 0.004457 0.02519 -0.00374 -0.025276 0.001196 0.000288 -0.013198 0.028832 -0.037505 -0.001733 0.00933 -0.017719 0.008463 0.027251 0.010331 -0.010431 0.031333 -0.020393 0.027563 0.023847 -0.003467 0.005657 0.011242 -0.005201 0.024227 -0.02585 0.031748 0.030512 -0.028788 -0.020165 0.004056 -0.017877 0.014425 0.014014 0.036029 -0.000646 -0.01911 0.009054 0.031121 0.027525 -0.020243 -0.008604 0.026587 0.002494 0.028441 -0.001776 0.006757 0.027417 0.010343 -0.015004 0.007126 0.024822 0.014799 -0.024826 0.003383 -0.0101 0.013602 -0.001008 -0.002453 -0.017288 -0.003867 -0.004772 -0.027064 0.005532 0.011597 0.023128 -0.020094 -0.019714 0.004257 -0.007245 0.019144 0.020507 0.005585 -0.024739 0.022567 -0.034686 -0.010815 -0.012681 0.002107 0.001277 -0.014825 0.002875 0.007231 0.014207 0.025038 -0.006831 -0.027308 0.005519 0.026206 -0.021033 0.019915 0.013757 -0.001956 0.014219 0.030682 -0.007895 0.031458 0.030676 0.01752 -0.025181 0.022093 0.014363 -0.003647 0.025094 0.013749 -0.025678 -0.032824 0.018267 -0.001861 0.030951 0.015617 0.013155 -0.011742 -0.022599 0.000652 0.010509 -0.015095 0.025401 -0.017179 -0.031696 -0.009825 0.014018 -0.018128 0.006365 0.025877 -0.012569 0.025813 -0.003359 0.003759 -0.02484 0.019407 -0.008564 -0.007671 -0.006964 -0.017178 0.021223 -0.020519 0.031856 0.004047 -0.00193 0.011954 -0.000275 0.020411 0.005458 0.007958 -0.017806 -0.024291 -0.030696 0.00551 0.020099 -0.030904 -0.011302 0.040466 -0.018512 -0.018723 0.014145 0.003317 0.013153 2.4e-05 0.023912 0.013606 0.024729 0.011936 0.010876 0.020823 -0.002719 -0.011377 0.030335 -0.013685 -0.020422 -0.005484 0.033137 -0.019708 0.010937 -0.026214 0.025911 -0.015728 -0.038129 -0.004615 -0.022268 0.015647 -0.005473 0.030067 0.029406 0.034707 -0.022614 -0.018789 0.026965 0.024287 0.004068 -0.028449 -0.020245 -0.000509 -0.014457 0.018581 0.015364 0.038947 -0.033139 0.028089 -0.028343 0.001827 -0.010112 0.000717 0.021978 -0.01918 0.000476 -0.04338 -0.024234 -0.000196 -0.026389 0.022045 -0.011543 -0.009678 0.030905 0.038284 0.01531 0.016644 0.003882 -0.013074 0.012898 -0.010706 0.003698 0.021614 -0.002595 0.017893 -0.005203 0.010971 -0.013811 0.021294 0.001282 0.031463 -0.01507 -0.025058 -0.022454 -0.015463 -0.030738 0.017093 0.006492 -0.031651 -0.015397 0.012753 0.023552 0.027513 0.002431 0.000394 0.024595 -0.02205 0.008665 -0.008579 0.007952 0.021255 0.010908 0.021721 -0.001971 0.034151 -0.004458 -0.005573 -0.035587 -0.022119 0.018891 -0.010812 -0.036132 0.028765 -0.022216 0.014197 0.029974 0.028872 0.014254 0.007583 0.028008 0.026202 -0.019807 0.000372 0.001377 -0.01479 -0.021869 0.011715 -0.026964 -0.00279 -0.002046 -0.006579 -0.027577 0.022615 -0.002715 0.011293 0.001192 0.026755 0.029646 0.009729 -0.000981 -0.016764 0.007054 -0.030095 0.024971 0.030789 0.011641 -0.012017 0.004627 -0.014099 0.003729 0.005576 0.00727 0.010853 -0.026712 -0.010642 0.019784 -0.010455 -0.005132 0.030426 -0.006835 0.005705 0.008492 -0.005108 -0.02247 -0.023439 0.026641 0.017174 -0.014315 0.025601 -0.001284 0.026606 0.00794 -0.027215 0.015828 -0.007332 -0.028539 -0.0057 0.004276 -0.00169 0.026412 0.015649 -0.020429 -0.020624 -0.017375 0.001211 0.011448 -0.028065 0.022822 -0.0293 0.01358 -0.005032 -0.008196 0.004811 -0.005289 -0.001362 -0.018689 -0.022446 0.003233 -0.00342 0.014478 0.026772 -0.019876 -0.023379 -0.028409 0.001656 -0.009124 0.022272 -0.018806 -0.023813 -0.027892 -0.022802 -0.022398 -0.005562 -0.00392 0.015063 0.015102 -0.008691 0.022153 0.0076 0.01145 0.013509 -0.022216 0.010274 -0.017814 -0.022162 -0.030551 0.029173 -0.01873 -0.0183 -0.000428 0.029529 -0.001903 -0.013144 0.030243 -0.022114 0.019435 -0.016293 0.005603 -0.002334 -0.016655 -0.015007 -0.027086 0.031051 -0.016494 -0.025835 -0.016721 -0.026532 -0.022545 -0.02812 0.015191 0.001912 -0.014369 -0.018148 -0.018483 -0.01127 -0.034366 -0.028812 0.001777 -0.001262 -0.031024 0.009933 -0.02011 0.019954 0.004955 0.025357 -0.025312 0.011002 -6.6e-05 -0.023245 -0.010965 0.012654 -0.00814 0.028509 0.001304 -0.033623 0.006651 -0.002647 -0.033094 0.023181 0.01862 -0.000223 0.006785 0.004216 0.017726 -0.005696 0.005483 0.025443 0.000468 -0.008853 -0.00287 0.020788 -0.001021 0.031429 -0.00903 0.025863 0.025959 0.046032 -0.007814 0.016347 0.01442 -0.015661 0.037501 0.007442 0.007772 0.018735 0.029541 0.004566 0.031971 0.011457 -0.004023 0.014228 0.016366 0.04974 0.02605 -0.016378 0.002519 -0.011338 -0.031798 -0.001088 0.043218 -0.005532 0.039846 -0.017517 -0.033069 0.005042 0.03135 -0.026009 0.03645 -0.003299 0.0309 -0.037713 0.023251 -0.034442 0.023087 -0.024167 0.033185 0.000914 0.020679 -0.031105 -0.025445 0.010317 0.006482 -0.029322 -0.007095 0.040637 0.025385 0.009128 -0.000491 0.019034 0.044946 0.007456 0.003409 0.020756 -0.007392 0.031603 -0.000352 -0.009721 0.000186 0.0276 0.033913 0.010357 0.004548 0.008953 0.004751 0.003938 0.010055 -0.001609 0.015266 0.034521 -0.04234 -0.010613 -0.002403 0.005059 0.001191 -0.020397 -0.008862 0.006915 0.007208 -0.018897 0.02871 -0.018972 -0.009132 0.02747 0.01662 -0.000665 0.035252 -0.022626 -0.003099 -0.030285 0.029225 -0.032569 -0.020645 0.01092 0.01847 -0.009784 0.003165 0.010356 0.020795 0.008874 -0.007374 -0.006726 0.009671 0.012853 0.020297 -0.005503 0.02793 0.026425 -0.012547 -0.011631 -0.011098 0.00834 0.007122 0.003416 0.010641 0.029552 -0.020411 -0.030278 0.028442 -0.005689 0.015937 0.02433 -0.02236 -0.006575 -0.029086 0.006356 0.031247 0.025932 0.029592 0.023557 0.006667 -0.010797 0.026534 0.005156 0.019913 -0.01768 0.017218 -0.023389 -2.8e-05 -0.015494 -0.017334 -0.020766 0.009805 -0.006471 0.009049 0.019439 -0.010506 0.022633 -0.030144 -0.01533 0.002609 -0.010758 -0.03071 -0.032296 -0.013652 -0.011529 -0.022057 -0.010287 0.005891 0.005664 0.022256 0.019694 0.003045 0.019973 0.007115 0.011606 -0.002967 0.006501 0.013222 0.026728 0.022423 -0.004603 0.037396 0.021233 -0.01252 0.005996 0.006413 -0.028272 -0.009156 0.004316 -0.025088 -0.009916 -0.021375 -0.007028 0.015222 0.020179 0.01565 0.018333 -0.000648 0.021024 0.026315 -0.022822 -0.025361 0.018818 0.031853 -0.013255 -0.016765 0.021908 0.005145 -0.018562 0.008451 -0.025568 0.011997 0.017367 0.043716 0.022546 0.010602 0.005648 0.013231 0.003396 0.033961 -0.017807 0.007329 0.007234 -0.028054 -0.020561 0.029491 -0.022278 0.025162 0.01142 -0.022639 0.001584 -0.022078 -0.025676 -0.016944 0.016975 0.027985 -0.025033 0.004094 -0.001992 0.014829 0.031429 0.007658 0.023428 0.019348 0.025372 0.023248 -0.009973 0.019168 0.027334 -0.007054 0.021208 0.022695 -0.002459 -0.007178 0.014505 -0.022104 0.007056 0.042671 -0.00668 0.028289 -0.002396 0.020108 0.001442 -0.013028 -0.009844 -0.022575 0.027795 0.022606 -0.016849 0.001913 -0.002694 -0.010738 -0.000617 -0.015994 0.024953 0.031128 -0.020492 0.02783 0.022521 -0.020848 -0.021926 -0.000404 0.014699 0.000144 -0.000474 0.026706 0.02925 0.007918 0.012924 -0.014543 0.019529 0.028115 -0.009669 -0.006187 -0.013451 0.00363 0.019732 0.001029 -0.001236 -0.014335 -0.010438 0.012567 0.025472 -0.000855 -0.028585 -0.003754 0.030398 0.015026 -0.009755 -0.002725 0.026103 0.030078 -0.013678 -0.015814 0.00108 0.02688 -0.004385 0.011181 0.013806 0.020862 0.027729 -0.00074 -0.022029 0.017122 -0.002 -0.007631 -0.00961 -0.024008 0.017589 0.01992 -0.022001 -0.035881 -0.015943 -0.011889 -0.00086 0.024796 -0.012177 0.018311 -0.013899 -0.00293 0.013033 0.012237 -0.016133 -0.012723 0.026239 -0.004257 0.017716 0.022389 -0.016214 -0.01445 -0.011862 -0.014451 -0.020143 -0.001332 0.007331 0.032003 -0.026458 -0.0213 -0.026532 -0.025671 0.029148 0.020649 -0.02566 0.007998 0.024312 0.010805 -0.006662 -0.021954 0.00921 0.032795 -0.020147 -0.006658 0.014905 0.015028 -0.012646 0.021104 -0.020596 0.007783 -0.004984 -0.030898 -0.001018 0.026145 -0.026278 0.006633 0.016551 -0.014406 0.042361 -0.010247 -0.024467 0.002469 -0.024623 0.020726 0.034318 0.019843 0.011628 0.033008 -0.01037 -0.000509 0.010292 0.014483 0.015356 0.033853 0.016707 0.00703 -0.005914 -0.025679 -0.014789 -0.022308 0.004973 0.025216 0.027362 0.01901 0.013091 -0.009094 0.001395 -0.019593 -0.012885 0.011962 0.017708 0.009123 -0.027746 0.008225 -0.022163 -0.00225 -0.001239 0.00336 0.025798 0.024187 0.016312 -0.016201 0.007458 -0.013368 0.004725 0.014553 0.029196 -0.019908 0.028913 -0.022969 0.035103 -0.018617 -0.000296 0.029146 0.0206 0.01701 0.00405 -0.002676 0.020654 0.00588 0.022478 -0.004196 -0.024451 0.036808 -0.000943 0.009506 0.007064 -0.014736 -0.031064 0.021932 -0.020356 -0.00267 0.025231 -0.022909 0.022786 0.028465 0.026667 0.019847 0.027459 0.033603 -0.007592 0.038936 0.019794 0.027919 -0.007825 0.013333 0.001527 0.030567 0.001188 0.020751 -0.029926 -0.011784 -0.019686 -0.003362 -0.013966 -0.018962 -0.024148 0.004141 0.011 0.030487 0.029206 -0.01516 -0.011051 0.028238 -0.006669 -0.031274 -0.00676 -0.009485 -0.00071 -0.030484 -0.008465 0.020157 -0.017127 -0.01411 0.017887 -0.023866 -0.025736 -0.02808 0.012137 0.018285 -0.028452 -0.007606 0.009117 -0.00273 0.013814 -0.019609 0.005532 -0.02217 -0.017261 -0.026335 0.023059 -0.023471 -0.017149 -0.018409 0.030751 -0.017155 -0.00496 0.020701 -0.014351 -0.018766 0.021173 -0.022408 0.02241 0.023914 -0.001764 -0.018986 -0.018617 -0.028294 0.019467 -0.024996 -0.02293 -0.02407 0.029101 0.016228 0.015379 0.000313 -0.01724 -0.020871 0.026013 0.00248 0.004718 -0.002037 -0.010379 0.031756 0.012887 -0.02063 -0.000938 0.03094 0.000451 -0.018816 0.032318 -0.031934 -0.028577 0.018072 0.009738 -0.017682 0.021593 0.01132 -0.019454 -0.010516 0.000587 0.028021 -0.019617 -0.026603 0.012448 -0.013381 -0.030433 0.013333 -0.005299 -0.011875 -0.01346 0.008941 -0.007768 0.01932 -0.021437 -0.026889 -0.026857 -0.020698 -0.021029 0.027386 -0.016387 -0.029075 -0.007861 -0.019575 -0.023014 0.024029 0.007665 -8.3e-05 0.03279 -0.000204 -0.025568 -0.0022 -0.013736 -0.016171 0.022049 -0.012096 -0.019825 -0.010063 -0.014259 0.009574 -0.028651 -0.015182 -0.008092 -0.010792 -0.018929 0.009913 -0.019618 0.011022 -0.007081 -0.018299 0.005264 0.005145 -0.015197 0.003797 0.0278 -0.030206 -0.030676 0.025019 -0.018194 0.027298 0.007784 -0.016015 0.027379 0.022614 0.007515 0.036198 -0.015504 -0.030411 -0.001842 -0.029494 0.007335 -0.020188 -0.024773 -0.021302 -0.005473 0.001535 0.011838 0.024237 -0.010707 0.028759 -0.023141 0.02504 -0.01288 0.020468 0.009855 -0.020239 0.023418 -0.021364 -0.032805 0.02539 -0.013219 0.015575 -0.02216 -0.013472 -0.004059 0.028874 -0.032358 -0.021214 0.020688 0.017027 0.012158 0.011689 -0.003461 0.00145 -0.006573 -0.032155 -0.03839 0.008535 -0.008441 0.029521 -0.008547 -0.020699 0.015865 0.022508 0.025622 0.023012 0.0287 -0.020652 -0.02524 0.016077 0.000878 -0.007623 0.01622 -0.030184 0.029157 -0.024157 0.010108 -0.008878 -0.003551 0.018827 -0.024182 0.018693 -0.006518 -0.003611 -0.014839 0.008192 -0.033812 0.029245 0.020637 -0.014308 -0.011377 0.030617 0.026861 -0.012195 -0.007344 -0.000519 0.008005 0.009068 0.003655 -0.028519 0.018611 0.026397 0.03094 -0.007886 0.018257 0.007973 0.017755 0.0182 -0.028767 0.002852 -0.02376 -0.025107 -0.008782 -0.034657 0.030088 -0.003994 -0.018546 -0.009239 -0.030265 0.004361 0.01721 -0.008222 -0.030477 0.000897 0.038616 0.009109 0.030506 -0.01436 0.005803 0.03133 0.023417 0.00061 -0.014534 -0.008934 -0.027516 -0.014284 0.027709 -0.019476 0.018539 -0.024203 -0.010219 0.000251 -0.024077 -0.019747 0.011227 -0.000717 0.028127 -0.011563 -0.003983 -0.022747 -0.025831 -0.005141 -0.026194 0.013212 0.031815 -0.007243 -0.009354 0.009783 -0.019976 0.016406 0.014485 0.011226 0.024553 0.029929 0.021385 -0.008484 -0.024181 0.011355 0.018176 0.00588 0.018405 -0.001335 0.010673 0.022396 -0.018119 -0.016208 -0.00402 0.024272 0.008388 0.02445 0.030996 0.022712 -0.022762 0.023051 0.027259 -0.020505 0.021834 0.0107 0.028265 0.00108 -0.028564 0.020649 -0.021189 0.005688 -0.022238 0.028243 -0.032058 -0.013188 0.022855 -0.030932 0.018154 -0.018348 -0.009833 0.02866 0.010702 0.003628 0.032224 0.005398 0.02287 0.003939 -0.001297 -0.028755 0.022912 -0.022089 0.011058 0.013267 -0.009535 -0.024119 0.00084 0.009912 -0.002655 0.028494 -0.007191 -0.033782 0.010442 0.009879 0.009356 0.009714 -0.028716 0.012415 -0.012036 0.015403 -0.020653 -0.008826 -0.031197 0.011959 -0.012328 0.001421 0.005888 0.000483 -0.014238 -0.022896 -0.000671 0.025272 0.002908 -0.005889 0.008761 0.008011 -0.000275 -0.020296 0.003424 0.034066 -0.021813 0.0273 0.026857 -0.007087 0.001189 0.019031 -0.008421 -0.005868 -0.003535 0.021495 0.024084 -0.008146 -0.032448 0.032522 -0.01613 0.023732 -0.030514 -0.024909 -6.2e-05 -0.034588 0.022307 -0.025286 -0.021925 0.002963 0.01312 0.031514 0.027904 -2.2e-05 0.014166 0.014577 -0.002106 -0.026686 -0.031127 0.012482 0.007994 0.018453 -0.03041 0.032554 0.01797 -0.01538 0.041686 0.026566 -0.033326 -0.025942 -0.01903 -0.014308 0.020926 -0.017945 0.005232 0.019269 -0.002485 -0.018394 -0.020564 0.029864 0.002624 0.009033 0.001627 -0.033114 -0.00168 0.018108 -0.005405 0.003779 0.029683 0.014711 -0.009183 -0.001735 0.003918 0.027075 -0.001446 -0.01989 0.013477 -0.006775 0.030405 0.01996 0.006525 0.029174 0.000615 0.005675 0.015113 0.006831 -0.001443 -0.005262 -0.00575 -0.019274 0.006974 -0.002176 -0.017746 -0.005433 -0.018172 1.7e-05 -0.0287 0.027728 0.003634 -0.00477 0.019894 -0.018788 0.024203 0.027038 -0.010506 -0.029405 -0.024356 0.016745 -0.029497 -0.000977 -0.017435 0.019108 0.018118 -0.028222 0.016689 0.006007 -0.002222 0.018626 0.007172 0.019602 0.014051 -0.020356 -0.03514 -0.022884 0.012095 0.025665 -0.009399 -0.003608 0.001586 0.020294 -0.011018 -4.8e-05 -0.00315 0.024024 0.024412 0.003212 -0.008325 0.022105 0.009599 0.020542 0.002653 -0.001314 -0.040217 -0.032776 0.016491 -0.032404 -0.02427 0.016484 0.018883 0.001302 -0.003118 0.009045 0.015863 -0.007196 -0.029035 -0.01929 0.017447 -0.029156 0.002696 -0.012629 0.013446 0.001623 -0.024404 -0.034954 0.031081 -0.006449 0.027703 0.033861 -0.006169 -0.007344 -0.003356 0.01182 0.022633 -0.011108 -0.031611 -0.01157 -0.000219 0.027976 -0.030518 0.005876 -0.025785 0.014417 0.027451 -0.019461 -0.00206 -0.02773 -0.006464 -0.021184 -0.002873 0.015038 0.023708 -0.005307 0.004478 0.030314 -0.02836 -0.020821 0.016893 0.014546 0.03394 -0.03241 0.011133 -0.009694 -0.016118 -0.008305 0.002807 -0.023941 0.006098 -0.036988 0.009623 -0.02465 0.012488 0.010645 0.026213 -0.012921 0.023833 -0.02217 -0.02289 -0.02937 0.014131 0.021073 0.021444 0.03179 -0.010139 -0.02409 0.004263 -0.008635 0.021661 0.020506 -0.019222 -0.005177 -0.026843 0.017081 0.007134 0.037917 0.028301 0.032477 -0.008408 -0.001423 -0.031823 -0.016003 0.021421 0.002909 -0.004901 -0.018526 0.012349 -0.008677 0.008825 -0.034524 0.001684 0.014368 -0.01496 -0.015583 0.019156 0.025884 0.029779 0.018159 -0.007158 -0.021812 -0.021157 -0.001238 0.01485 -0.007153 0.004799 -0.013699 0.019726 -0.004379 -0.00075 -0.007993 -0.000256 -0.006908 0.019737 0.012809 -0.014074 0.022368 0.017045 0.021607 -0.016554 0.026031 0.009169 0.037211 -0.002937 0.00612 -0.004096 -0.022274 -0.010275 0.026721 0.025673 -0.014545 -0.021952 0.04064 0.033952 