-0.0093 -0.024462 -0.017876 -0.038039 -0.047487 0.021661 -0.000335 -0.005807 -0.035739 0.027116 -0.032279 -0.019199 -0.01416 -0.014087 0.021852 0.023643 0.017843 0.01148 0.021573 -0.01161 0.020732 -0.029921 0.000549 0.024046 0.027867 -0.026051 -0.017146 -0.022583 -0.041178 -0.031431 0.011192 0.017118 -0.002339 -0.005994 -0.037751 -0.012303 0.00255 0.025461 0.031461 0.006151 -0.014713 -0.024869 0.013788 0.000367 -0.019006 0.022232 -0.003252 0.013773 0.019189 0.027988 0.012277 -0.027015 -0.017317 0.021033 -0.02835 -0.02421 0.009842 -0.033486 0.022801 -0.03967 -0.001951 -0.010825 0.004021 -0.009705 0.023874 -0.007604 -0.002184 0.010622 0.031655 -0.013664 -0.017509 0.016769 -0.026593 0.033851 0.031295 0.007694 0.012983 0.031304 -0.00159 -0.010986 -0.008048 -0.014537 -0.022793 0.008463 -0.033426 -0.002838 0.030505 0.028913 -0.032546 -0.003261 0.015571 -0.004929 0.020774 -0.035056 -0.015237 -0.014677 0.023277 0.022594 -0.03293 0.02241 -0.033025 0.028281 0.027531 0.023203 0.014341 -0.023502 -0.009438 -0.001616 -0.034797 -0.013929 0.02007 0.030243 0.035846 -0.018967 0.016484 -0.032243 0.031773 0.018594 -0.023492 0.014273 0.011905 -0.000131 -0.033502 0.009873 -0.023791 -0.001449 0.006006 -0.009813 0.020982 -0.019351 -0.029578 -0.047954 -0.063708 0.018394 -0.016841 0.006606 0.043464 0.013281 -0.01606 0.005516 -0.009143 -0.028769 0.000199 0.014967 -0.02695 0.02239 -0.016712 0.032055 0.030896 0.011729 0.013015 -0.024171 0.009846 0.017738 -0.02649 -0.02128 -0.027858 0.001612 -0.049572 -0.020919 -0.066046 -0.026626 -0.020166 -0.005801 0.045268 0.006619 0.010827 -0.027447 -0.023775 0.011095 -0.047089 -0.023043 0.029048 -0.010922 0.029782 -0.01458 -0.017309 0.001479 -0.030575 0.000724 -0.008131 -0.024103 -0.016939 -0.028803 -0.039312 -0.038971 -0.035556 0.022889 0.008238 -0.05714 -0.030962 0.040496 0.026511 -0.010839 0.02163 -0.027515 0.009785 -0.031695 -0.007672 -0.013466 0.00169 -0.005233 -0.02074 0.012561 -0.034201 -0.013697 -0.005664 0.013975 0.014881 -0.021944 -0.024487 0.009777 -0.025595 -0.012285 -0.002489 0.022547 -0.011507 -0.002427 -0.026204 -0.000758 -0.000379 0.03476 -0.013646 -0.038514 -0.038515 -0.011225 0.024965 0.033431 -0.008389 0.021179 0.001383 -0.030797 0.03213 -0.034433 0.033888 0.013586 -0.012929 0.027038 -0.043025 0.018621 -0.006258 0.005244 0.004086 0.022069 -0.005769 -0.026792 -0.011405 0.037015 0.031182 0.036639 0.010829 -0.032086 0.007762 -0.038452 0.017192 0.013396 -0.038224 0.023025 -0.016427 -0.008721 0.000102 -0.001607 -0.023847 -0.031261 -0.00736 -0.000202 0.000577 -0.002043 -0.011547 -0.022016 0.03263 -0.020653 -0.023042 -0.028756 -0.009469 -0.024172 0.012801 -0.022519 0.018378 -0.003149 0.017321 0.004864 0.026982 0.006793 -0.002964 -0.005486 0.010252 -0.002892 0.013579 0.011699 0.028566 -0.014466 0.003114 -0.005907 0.032417 -0.010012 0.012271 -0.00867 0.017053 -0.009142 -0.030873 -0.017192 -0.028095 -0.008199 -8e-05 -0.030461 -0.00276 0.001806 0.032331 -0.014065 -0.02514 -0.030454 -0.016935 -0.005808 0.006769 -0.025431 -0.046716 -0.012275 0.008709 -0.024916 0.031381 -0.002286 0.010256 0.035574 -0.014712 0.027406 0.015325 -0.028322 -0.029925 -0.033495 0.009508 -0.010973 0.003212 -0.012633 0.021392 -0.028305 -0.008248 0.00486 0.000986 0.036974 0.020003 0.003328 0.023664 0.014195 -0.017871 0.030638 0.030367 -0.01553 0.040393 -0.031923 0.01537 0.033812 0.010292 0.016312 -0.001275 0.001746 0.002975 -0.024689 0.014241 0.009337 -0.026141 -3e-06 0.030688 -0.029791 -0.018542 0.005543 0.037663 -0.010232 0.020756 0.014412 0.005776 -0.002861 -0.020047 0.002962 0.002107 0.031182 0.001195 -0.019959 -0.02461 -0.033498 -0.008789 -0.026039 0.033502 -0.010274 0.002609 -0.014045 0.002544 -0.01963 -0.021986 -0.027888 0.006906 -0.015863 0.013281 0.030487 0.019328 -0.009223 -0.005634 -0.006017 0.030839 0.012013 -0.037657 -0.017735 0.009386 -0.02387 0.023761 -0.013466 0.009885 -0.007234 -0.001485 -0.02873 0.026826 -0.005761 0.02617 0.029708 -0.003843 -0.014606 -0.006861 0.006657 0.005199 -0.022672 -0.001658 0.018183 0.017221 -0.023276 0.001109 0.017948 -0.010876 -0.000287 0.018308 -0.022467 0.003159 0.009049 -0.003641 0.011433 0.026635 0.033085 0.033599 0.007455 0.002185 -0.001162 0.001492 -0.007294 -0.020656 0.003278 -0.027227 -0.014153 -0.000399 -0.02982 -0.019792 0.040478 -0.020364 0.02332 0.027901 0.016572 -0.025321 0.009478 0.01774 0.00634 -0.001822 0.019959 -0.034714 -0.021014 -0.002117 -0.005448 0.020297 0.021365 0.024816 0.021852 0.031564 0.027135 0.010282 -0.005962 0.013999 -0.020896 0.032367 -0.005122 0.015631 0.028622 0.022322 0.018172 0.000604 -0.005613 0.008768 0.011645 -0.027637 0.018262 -0.021805 -0.003936 0.023284 0.030998 0.028008 -0.001288 0.006747 0.015619 -0.024224 0.034832 0.035409 -0.013887 0.00518 -0.002994 0.035629 0.016878 -0.01169 0.010654 0.023446 0.029393 0.02855 -0.023165 0.005735 -0.022492 -0.011336 -0.03143 0.032319 0.039868 0.045647 0.020237 -0.002508 -0.00929 -0.017397 -0.032589 -0.05819 -0.028444 -0.025338 -0.043704 -0.034983 0.017825 -0.017856 0.032413 -0.007808 0.011082 0.020814 -0.015848 -0.011806 0.034309 -0.026826 0.018516 0.030882 -0.035699 -0.040237 -0.006682 0.024955 -0.013294 -0.00056 -0.038775 -0.03028 0.026404 0.003813 -0.02465 -0.046376 0.013521 -0.04532 -0.038813 -0.008453 0.026625 0.003288 0.008736 0.019455 -0.018663 -0.007037 0.021903 -0.028105 -0.002502 -0.0137 -0.000454 -0.014904 0.003112 -0.027383 0.021611 0.034365 -0.019298 -0.006257 0.00325 0.016389 -0.011946 -0.042482 -0.032208 0.018025 -0.02605 -0.006198 -0.036192 0.002938 -0.001577 0.029629 -0.002018 -0.026981 0.011137 0.023873 -0.022363 -0.012416 -0.027362 0.032854 -0.009897 -0.000931 0.009963 -0.017182 -0.014472 -0.011452 -0.019085 -0.004709 -0.033272 0.012013 -0.045363 -0.001698 -0.012909 -0.024091 0.006768 0.015999 0.000633 -0.036602 -0.017984 -0.011971 0.025719 0.017379 -0.027206 -0.019314 -0.027952 0.018931 -0.0325 0.027334 -0.003801 -0.030094 -0.017967 -0.026638 0.017404 0.035242 -0.009043 0.009023 0.015978 -0.005689 -0.013572 0.005251 0.040128 -0.023545 0.007013 0.031958 0.012507 -0.024529 0.017701 -0.027115 -0.0044 -0.020928 0.021012 0.001949 -0.00374 -0.039603 0.027814 0.011833 -0.023044 -0.010281 0.009778 0.006258 0.025829 0.035353 -0.008922 -0.030746 0.001214 -0.010219 0.023413 0.008407 0.013296 0.003874 -0.012333 0.012585 0.008657 -0.012144 0.026769 0.012164 0.022577 -0.002292 -0.020426 -0.022842 -0.01973 0.010868 0.022353 -0.038806 -0.023136 0.010697 0.013403 0.0202 0.026207 -0.020515 0.02759 -0.011372 0.010118 0.007222 -0.004959 0.033812 0.023986 -0.016984 0.034881 0.028813 -0.006774 0.022306 -0.032904 0.019871 0.011144 0.018642 -0.035103 0.01565 -0.013306 -0.028109 -0.00791 -0.024819 -0.036612 -0.019288 -0.010759 0.011491 0.013558 0.022231 -0.034059 0.031942 -0.032471 0.013682 0.027511 -0.001957 -0.033602 0.020691 0.021856 0.001099 0.033154 -0.030769 0.015992 -0.012983 -0.004099 0.003238 -0.017769 0.029153 0.030046 0.003792 -0.035815 -0.030141 -0.021906 -0.027329 0.01492 0.02741 0.025084 -0.007393 0.007907 -0.019795 -0.020543 0.009582 -0.000869 -0.013867 0.017311 0.034156 -0.009474 0.004849 -0.035372 0.029503 -0.010237 -0.009077 0.017478 -0.026901 -0.018303 0.032211 0.020818 0.033949 0.017943 -0.02394 0.022352 0.000602 0.004974 0.034443 0.008593 0.032759 0.017866 -0.027484 0.026116 -0.003796 0.017813 0.031931 0.032837 0.022642 -0.013883 -0.042921 -0.035295 0.038289 0.013767 -0.003283 -0.014159 -0.024627 0.009235 -0.030421 0.020149 -0.022401 -0.015744 0.018988 0.004005 0.030913 0.01243 -0.007412 -0.025988 -0.016771 -0.028782 -0.011972 0.012892 -0.006325 -0.002121 0.044059 0.047894 0.003569 0.000832 -0.042045 0.031289 -0.000299 0.01366 0.01995 -0.010552 -0.003604 0.006691 -0.006909 -0.034744 0.034272 -0.037397 0.022524 0.029877 0.014526 -0.001553 -0.000755 -0.0054 -0.007573 -0.024601 0.024897 -0.028591 0.009331 0.013548 -0.021086 -0.00611 -0.008605 -0.033457 -0.001747 -0.001364 0.039976 0.051567 0.036749 -0.003663 -0.015167 -0.035479 0.032437 0.036587 0.016118 0.004627 -0.022156 -0.026 0.032082 -0.029092 0.007162 0.026816 -0.021688 -0.014903 -0.011102 0.018961 0.016772 0.039826 -0.017677 -0.002686 0.00411 -0.040567 -0.020259 0.001456 0.032267 0.003073 -0.011756 -0.006661 -0.003395 -0.009271 0.009931 -0.025987 0.02875 0.018995 0.004341 0.01502 -0.012621 -0.021317 -0.015004 0.015859 -0.016314 -0.018406 0.013905 0.011926 8.5e-05 -0.02711 -0.005456 -0.008337 0.002929 -0.041705 -0.0015 0.011439 0.037586 0.050945 -0.001915 0.020859 0.02379 -0.007988 -0.015662 0.0139 0.02586 -0.015217 -0.040194 -0.010836 -0.035036 -0.016328 0.010341 -0.012613 -0.018546 -0.015805 -0.039994 -0.009481 0.009862 0.017602 0.013528 -0.040116 0.008327 -0.028408 -0.035585 0.033446 0.018819 0.013207 0.013782 0.032299 0.002682 0.024733 0.017874 0.022668 -0.029364 -0.02906 -0.03261 -0.004276 0.025578 0.040442 0.004468 -0.030313 -0.006118 -0.047034 0.009238 -0.030728 0.013548 0.024276 0.000402 0.021901 -0.028692 0.024517 -0.010805 0.014349 0.02077 -0.029297 -0.033086 -0.015017 -0.030098 -0.030873 0.024603 -0.014539 0.004326 -0.011538 0.005937 -0.013571 0.026752 0.009069 0.020521 -0.01095 0.004357 -0.001963 -0.02713 -0.019281 -0.012033 -0.000339 -0.001186 0.016057 -0.027684 -0.020558 -0.017381 0.003995 0.031315 -0.028094 0.007905 -0.022642 -0.023909 -0.003791 0.034825 0.035829 -0.026404 0.035622 0.013891 0.03135 -0.001872 0.035537 -0.013909 -0.014488 0.011177 -0.030607 -0.031589 0.003244 -0.015722 -0.019345 0.029176 -0.03543 0.012355 0.005219 -0.026076 -0.032647 0.024562 0.011367 0.015221 -0.015764 -0.009087 -0.00757 -0.009738 -0.008491 -0.022533 -0.025619 0.032336 0.010328 0.021888 -0.001912 -0.003387 0.03469 -0.024877 -0.002169 -0.033542 -0.007286 0.031865 -0.012302 -0.038119 0.019958 -0.019012 0.025004 -0.01265 0.033005 -0.020419 0.021368 0.01487 0.013896 -0.023261 0.004777 0.006283 0.003445 -0.029309 -0.042417 0.023021 0.002541 0.027036 -0.021653 0.016927 0.007684 -0.034444 -0.01308 0.011807 0.02378 -0.027073 -0.022187 0.020072 -0.006063 -0.015968 0.020043 0.036545 -0.005046 0.034799 0.00892 0.012963 -0.011851 -0.034979 0.004619 0.016637 0.013728 0.002907 -0.036736 -0.03146 0.039386 -0.021527 -0.029054 0.031622 -0.013141 -0.010611 -0.016594 0.011502 -0.022947 0.010365 -0.00771 0.008039 0.044057 0.029483 0.003579 0.040751 0.001675 0.00562 -0.026499 -0.023925 -0.02918 0.015554 0.014485 -0.014415 -0.000192 -0.04522 -0.020264 -0.009074 0.023193 0.012882 -0.027452 -0.034297 -0.032178 -0.003071 0.018414 -0.00231 0.010595 -0.026674 -0.021709 -0.003757 -0.004835 0.02719 -0.027339 0.002163 -0.002632 0.001361 0.005472 -0.020634 0.032956 -0.013846 -0.005074 0.03436 0.023376 -0.013021 -0.013159 0.020597 -0.020327 -0.032469 -0.024137 0.016047 0.020209 -0.001544 0.016794 -0.006726 0.004485 -0.028424 -0.025752 0.013055 -0.005613 0.000386 0.003753 -0.03762 0.030551 -0.013435 0.011591 -0.01744 0.015259 -0.014804 0.00087 0.035197 0.001704 0.029606 -0.029234 -0.016884 0.010572 -0.023541 -0.009109 0.051055 0.027241 -0.022054 0.024277 0.02728 -0.010821 0.002977 0.031773 -0.016915 -0.002192 -0.028037 -0.021607 -0.020565 -0.033907 0.015948 0.013101 -0.027892 -0.013956 0.022203 0.026241 0.034823 -0.014786 0.014749 0.018002 -0.040154 -0.030586 0.038931 0.022939 0.045678 0.013758 0.037418 0.003413 -0.021779 0.017813 -0.015515 0.030615 -0.017481 -0.004551 0.00911 -0.003311 0.023784 0.010309 -0.028134 -0.002678 0.017827 0.024732 0.006947 -0.000446 0.033333 -0.005553 -0.037295 0.022598 0.001328 -0.0321 0.010305 0.012901 0.035115 0.012589 0.003951 -0.031073 -0.041675 -0.009102 -0.002776 0.032259 -0.014689 0.02404 -0.006958 -0.030872 -0.039073 0.03246 0.005909 -0.021523 -0.004835 0.002758 0.033437 0.015998 0.02399 -0.007017 -0.029067 -0.044213 -0.038373 0.014765 0.013338 -0.040097 0.004576 -0.030273 0.012408 0.015777 -0.012278 0.030509 0.022194 0.01499 0.02109 0.00627 0.00023 -0.032043 -0.004647 -0.004948 -0.026075 -0.025338 0.016959 0.023684 0.034578 -0.026539 0.017003 0.012679 -0.00452 -0.021082 -0.006179 -0.016857 -0.038605 0.024499 -0.022283 0.011666 0.004699 -0.025054 -0.015686 -0.019145 -0.015428 -0.009208 0.001631 -0.001634 -0.007765 0.005906 -0.007299 -0.035492 -0.034883 -0.063337 -0.031353 -0.059716 -0.0513 -0.033831 -0.039631 -0.04556 0.016729 -0.037046 -0.011857 0.006428 0.034221 0.03122 -0.013017 -0.011145 0.03457 0.006237 0.014545 -0.018621 -0.016747 -0.022018 0.036101 0.002543 -0.005787 -0.026114 -0.038156 0.005497 -0.022418 -0.048319 0.001913 0.011497 -0.020569 -0.033453 -0.032765 0.002413 0.011209 -0.026197 0.009259 0.014225 0.001771 0.039614 -0.007969 0.007562 0.027313 0.028576 0.027981 0.029681 -0.011615 -0.007242 -0.029001 0.02677 0.023097 -0.007658 0.015842 -0.043742 -0.002694 0.014677 0.000836 0.006811 -0.039193 -0.014704 -0.024703 0.000667 -0.013348 0.046532 0.024129 -0.007808 0.015199 -0.025065 -0.01384 0.016678 -0.000261 0.001246 0.020958 -0.031517 0.003661 -0.012505 -0.003003 -0.01523 0.032995 0.012008 0.023317 0.013694 -0.027197 -0.031024 0.021019 -0.00868 0.003036 0.027955 0.017351 0.010552 0.02888 0.042052 -0.021911 0.024037 -0.017275 -0.02395 0.007322 -0.002288 -0.032432 -0.010133 0.019287 -0.015134 0.005246 0.005743 -0.006417 -0.022103 0.013671 0.018541 -0.028517 -0.033876 -0.043267 -0.054388 -0.043869 -0.020922 -0.017944 -0.018703 0.014518 0.006653 0.030918 0.014255 0.003922 0.017617 0.007016 -0.026718 -0.031578 0.021996 0.006759 0.035961 0.0155 -0.020793 0.001677 0.02517 -0.016964 -0.012656 0.003178 -0.009667 -0.001232 -0.003936 -0.015664 -0.013125 0.016082 -0.03204 -0.002562 -0.026653 0.036903 -0.011782 0.001603 -0.028375 0.021901 -0.026448 -0.034606 0.028762 0.020067 0.008589 0.02467 -0.023418 -0.000308 0.015219 0.009475 -0.03868 -0.007106 0.032997 0.022077 0.003768 0.033426 0.000315 0.00056 0.01031 0.009434 -0.020337 -0.001304 0.006071 0.000862 -0.013763 0.033982 -0.010127 -0.009814 0.024346 0.013612 0.012975 0.009856 0.007098 -0.020535 -0.010888 -0.001006 -0.03398 -0.020854 0.00843 -0.007382 -0.029451 -0.031543 0.028366 -0.026368 -0.019975 -0.035451 -0.0119 -0.027729 0.00037 0.003622 -0.014606 -0.002678 0.036549 0.026496 -0.0298 0.019805 0.003557 -0.023044 -0.026505 -0.028049 -0.041047 0.005382 -0.023998 -0.023413 0.010459 0.019149 -0.001708 0.02299 0.026929 0.012376 -0.007807 0.015177 -0.006178 -0.002576 0.028968 -0.007744 0.034011 -0.018536 -0.003699 -0.014469 0.033335 0.003429 -0.015503 0.027563 -0.006454 0.015912 0.01327 0.030498 0.018289 -0.035842 0.007756 -0.026035 -0.036279 -0.002079 -0.026848 -0.012597 -0.02805 -0.005401 -0.039313 0.010771 0.024132 -0.017607 -0.022251 -0.005751 -0.010875 -0.010171 0.006219 0.007594 0.000308 0.000606 -0.028147 0.020786 -0.030789 -0.035058 0.007521 -0.012883 0.014748 0.036839 -0.037181 -0.034909 -0.022884 -0.004425 0.02038 -0.017145 0.016299 0.022417 -0.029434 -0.001797 -0.03012 -0.029298 0.011236 -0.025679 -0.034233 0.005595 -0.036209 0.013385 0.014512 -0.011276 0.027359 -0.03212 -0.041469 -0.019532 0.018307 0.013251 -0.009905 0.025675 0.0177 -0.003484 0.029769 0.017864 -0.008332 0.017326 -0.023646 0.00669 -0.037223 -0.020532 0.006477 -0.041018 0.022003 -0.021032 0.009002 0.019007 -0.002801 0.004577 0.006328 0.029299 -0.032017 -0.023821 -0.000915 0.010238 0.0089 -0.035318 0.01418 -0.015715 -0.015971 0.028378 -0.012341 -0.026185 -0.010426 0.027174 0.009589 -0.028438 -0.021518 0.008079 -0.037626 0.026143 0.006189 0.004699 0.020377 0.014624 0.022375 0.021638 -0.031076 0.000661 -0.016875 0.008952 -0.03587 0.022473 -0.004763 0.014637 -0.034395 -0.023544 0.026549 0.003385 -0.00693 -0.013825 0.011098 -0.030258 0.014504 -0.019055 -0.013263 -0.035825 -4.8e-05 -0.028081 0.006726 0.034244 0.003401 0.015136 -0.01741 0.000144 0.036083 0.024901 -0.034397 -0.000923 0.005579 0.022171 -0.018013 0.003536 -0.038481 -0.037649 0.022947 0.024094 0.018011 -0.017656 -0.012738 -0.040233 -0.008802 -0.017999 0.01783 -0.025496 -0.006912 0.025778 -0.005964 -0.029303 -0.008773 -0.03308 0.031817 0.028979 -0.004178 -0.030824 -0.011836 0.01624 0.017602 -0.015751 0.000884 -0.012209 0.00431 0.026314 -0.004939 -0.010324 -0.00752 0.032701 0.002542 -0.029466 0.012902 0.02021 -0.031897 -0.038242 -0.041922 -0.035951 0.011545 -0.02125 0.003121 -0.02806 -0.005158 0.024354 -0.003284 0.003521 -0.017098 0.022449 -0.008435 0.031128 -0.036233 0.03431 -0.006402 0.0121 0.030928 -0.014152 0.001945 -0.020262 0.011976 0.021981 -0.009613 0.018066 0.011754 -0.027311 -0.026432 0.015946 0.029553 -0.011097 -0.02223 0.029477 0.008878 -0.022559 -0.004942 -0.018952 -0.02804 -0.029833 0.005103 0.027072 0.018399 0.004033 -0.032217 -0.015236 0.019941 -0.013193 0.011719 0.008266 0.007041 -0.031938 -0.009564 0.012722 0.032623 -0.034185 -0.018593 -0.003611 0.001334 -0.00618 0.029693 0.012879 -0.031105 -0.008783 0.008583 -0.030325 0.02285 -0.035239 -0.011746 0.02168 -0.02976 0.029591 0.018113 -0.018747 -0.02979 -0.014938 -0.008669 -0.029306 -0.001466 -0.025082 0.019974 -0.019897 -0.030887 0.018856 0.015367 -0.022034 -0.016489 0.001221 -0.012992 -0.037339 -0.00353 -0.033822 -0.025604 -0.015054 0.000285 -0.023443 -0.007926 0.031543 -0.033716 0.023267 0.013545 0.034688 0.004524 -0.028444 -0.016428 -0.02823 0.001557 0.012148 -0.00548 0.021015 -0.016435 0.034526 -0.017445 0.025666 0.028326 -0.012439 -0.035708 -0.005554 -0.028565 -0.034392 -0.007826 0.018615 -0.022265 -0.006732 0.022883 0.020572 0.022556 -0.026317 0.017919 0.005434 0.000958 -0.024853 -0.025477 -0.031234 -0.008211 -0.029612 -0.018633 0.004888 0.01186 -0.009373 0.008758 0.026751 -0.02163 0.020266 -0.025592 -0.020426 -0.034858 0.001575 -0.013913 -0.007905 -0.030254 0.025413 -0.032839 -0.018739 -0.015589 0.015644 0.016822 0.026405 -0.009512 -0.013777 0.027154 -0.017834 0.006893 -0.019736 -0.004007 0.019221 0.029869 0.005132 0.010333 -0.017856 -0.023352 -0.017905 -0.03038 0.008464 0.032392 -0.016699 0.036292 -0.00642 -0.026559 -0.013453 -8.5e-05 -0.022996 -0.039413 -0.015414 0.007875 -0.029416 0.014977 -0.005246 -0.022358 -0.013413 -0.014838 0.008333 0.010029 0.033608 -0.03374 -0.035332 -0.031008 0.007453 -0.007267 -0.034893 -0.002719 0.017433 -0.012913 -0.022191 -0.030143 0.018817 -0.026099 -0.010609 -0.01046 -0.000262 -0.000313 0.017089 -0.033953 0.011676 0.007513 0.001686 0.025172 -0.035428 -0.012579 0.032153 0.028246 0.011573 -0.020224 0.006033 -0.024461 0.015536 -0.008712 -0.026162 -0.014809 -0.033025 0.025615 -0.033351 0.007896 0.023253 0.023448 0.015654 -0.027662 0.012292 0.018545 -0.007621 -0.026257 0.008335 -0.012726 -0.014211 -0.036056 -0.031473 0.014189 0.027551 0.008121 0.021166 0.027683 0.003463 -0.026758 -0.011901 -0.014363 -0.022793 0.009333 -0.036701 0.018546 -0.01457 0.013952 0.030759 0.004342 -0.027368 0.01683 0.008331 0.014926 -0.012426 -0.025209 -0.014931 0.032792 0.013406 0.026902 0.026367 0.014777 0.033918 -0.009378 0.014198 0.019753 -0.027961 0.019065 -0.031525 -0.020139 0.029614 0.012059 -0.0085 0.030323 -0.004514 -0.008315 -0.010653 -0.001504 -0.00389 -0.036691 -0.003903 -0.010578 -0.036492 0.023556 0.00608 0.032648 0.02181 0.000371 -0.007374 0.030084 -0.023958 -0.011531 0.025233 -0.033969 -0.007911 -0.020527 -0.01354 -0.036144 -0.024524 -0.015389 0.005109 0.012096 0.03361 -0.015783 0.02609 0.002825 -0.012623 0.014957 0.030754 -0.005467 0.012813 -0.000924 0.003468 0.02622 0.014932 9e-06 -0.033295 -0.026548 -0.023834 0.014757 0.009784 -0.028341 0.004947 -0.004956 -0.033457 -0.0313 -0.026394 0.011321 -0.029251 -0.023356 0.01196 0.032183 -0.024499 0.016615 0.011623 0.022233 0.025835 -0.010996 0.008097 -0.008414 0.032543 0.042796 0.023712 0.034074 0.007374 -0.011161 0.019861 0.024727 0.0376 -0.026241 -0.018473 -0.001957 -0.001785 0.006487 -0.028558 0.000586 0.011459 0.005202 -0.026084 -0.017565 0.011668 0.019776 0.016074 0.034647 0.02184 -0.015545 -0.024649 0.004761 0.016833 0.020256 0.013963 0.008887 -0.024819 0.009072 -0.020524 -0.00293 -0.000185 0.014983 -0.001062 -0.021295 -0.023685 0.023506 0.010602 -0.000649 0.033341 0.025937 0.026804 -0.02515 -0.0172 0.012706 -0.018897 -0.017531 -0.021766 -0.037822 -0.006717 0.017763 0.050359 0.010949 0.039398 0.029969 0.014107 -0.038743 -0.028678 -0.005312 0.013301 0.027108 0.026231 0.014269 0.028531 -0.00624 0.010075 -0.014097 0.023931 0.004846 0.029268 0.024725 -0.018928 0.032686 -0.021955 -0.000537 0.022196 0.005918 -0.017679 -0.009851 -0.00906 0.037314 -0.011064 0.028933 -0.024141 -0.001826 -0.039695 -0.02676 0.035147 0.012663 0.004917 0.032001 0.040587 -0.005963 0.000406 -0.014629 0.025223 0.014427 0.026431 -0.019908 -0.023189 0.006092 -0.010759 -0.012229 0.008068 0.012669 -0.013 0.025658 -0.031526 0.030433 -0.024665 -0.035413 0.004953 0.015097 0.013969 0.011345 0.012957 0.037525 0.010982 -0.025676 0.034438 -0.024507 -0.023238 0.009955 -0.041835 -0.017607 0.029067 -0.008346 -0.015953 0.033065 -0.022176 0.0255 -0.025969 -0.008059 -0.014903 -0.016632 0.013422 -0.00597 0.012268 0.031573 0.008221 0.007902 0.0257 -0.013988 -0.014219 -0.004875 0.01855 0.041634 0.047106 0.014322 0.023847 0.028557 -0.01187 0.022418 -0.023238 -0.01677 0.006209 -0.031117 0.006544 0.021659 0.004868 -0.010705 0.024265 -0.01435 -0.034203 0.022801 -0.010968 0.002194 0.024082 0.030965 0.002606 -0.012829 0.014171 0.052195 0.022712 -0.023379 0.036885 -0.00655 0.022176 0.014762 0.038862 -0.015556 -0.030838 0.009099 -0.020977 -0.004087 -0.012648 -0.016597 -0.00948 0.007042 -0.025608 -5.5e-05 0.003902 0.006 -0.005743 -0.032832 0.026589 -0.033342 -0.011243 0.019688 -0.029277 -0.00887 0.006588 -0.0109 0.040605 0.041963 0.0124 0.023584 0.042603 0.018481 0.006842 0.024246 -0.006244 -0.003292 -0.0166 0.007224 -0.028198 -0.019905 -0.021602 0.024604 0.005 0.000422 0.012985 -0.005818 -0.018269 0.025777 0.009356 0.025406 -0.005167 0.000361 -0.018226 -0.002972 -0.017644 -0.000506 -0.025997 0.028263 0.018877 0.02367 -0.000635 -0.017376 0.019658 -0.007114 0.019355 0.005272 -0.009191 0.007731 0.032746 -0.034375 -0.024211 0.01266 0.02042 0.017289 -0.021747 0.028111 0.029452 0.001633 -0.00131 -0.02086 0.004382 -0.03564 -0.019694 0.008193 0.019173 -0.019363 0.018276 -0.009699 -0.003914 0.014951 -0.006728 -0.023241 -0.013863 0.019692 -0.03375 0.004765 0.019484 0.009797 -0.005563 -0.007549 -0.028656 -0.005395 -0.013204 -0.015474 -0.002125 0.011374 0.014676 0.008728 -0.008155 -0.005595 0.005524 0.016885 -0.002368 -0.017341 0.014658 -0.030948 -0.02835 0.000962 -0.005096 0.0004 0.01748 -0.000474 0.022841 0.01935 -0.007061 0.027987 0.011793 0.008277 0.018975 -0.020034 0.008644 -0.009325 -0.008778 -0.011532 -0.022233 -0.002427 -0.002828 0.027897 0.016356 0.03783 -0.010033 0.012588 0.029527 0.030888 -0.020657 -0.011968 0.015951 -0.022754 0.020653 0.007778 0.026069 -0.006388 0.020523 0.015786 -0.018517 -0.015571 -0.027244 0.007793 0.006112 -0.035504 -0.013942 -0.029116 0.028547 -0.026607 -0.040032 0.030196 -0.018348 0.012805 -0.025905 0.01748 0.001647 0.002348 -0.003891 0.033821 0.0258 -0.031798 0.017308 0.01015 -0.02932 0.000879 0.005724 0.030511 0.0241 -0.001598 -0.022824 -0.009507 0.005142 0.023293 0.013413 -0.008823 0.026257 -0.029156 -0.024806 0.030104 -0.014886 -0.01481 -0.035327 -0.008631 0.00547 -0.005198 -0.038812 -0.010318 0.016588 0.049294 0.032812 -0.013356 0.026963 0.017706 0.020127 0.020087 0.00401 -0.017969 -0.009763 -0.033598 -0.011596 -0.016404 0.016622 0.006715 -0.018509 0.033059 -0.001936 0.019219 -0.016938 0.025311 -0.017968 0.00983 -0.05352 -0.028822 -0.02251 -0.008315 0.030449 0.034888 0.02633 0.033943 0.007612 -0.003116 -0.022314 -0.029277 -0.010007 -0.01636 0.033925 0.033491 -0.017585 -0.009768 0.03561 -0.013165 -0.034187 -0.025975 0.028252 -0.030419 -0.028509 0.016609 0.008206 -0.023992 0.006596 -0.013866 -0.033136 0.0223 -0.012362 0.04235 0.046725 0.029529 0.038384 0.018525 0.030099 0.036794 0.029133 0.000569 0.036696 0.017766 0.004909 -0.021564 0.015326 0.007715 0.006179 0.011177 0.007744 -0.02443 -0.019511 0.016063 -0.00815 -0.001243 -0.025869 -0.022697 0.026491 0.004532 0.029424 -0.014873 0.008591 0.010125 0.023404 0.018366 0.025952 0.028663 0.01004 -0.014411 -0.01877 -0.030266 -0.028442 0.031863 0.036204 -0.026163 0.035069 -0.034511 -0.009558 -0.017145 0.023261 0.034172 0.017881 -0.023903 0.020716 0.027237 -0.015511 -0.020561 0.019229 0.041082 -0.016353 -0.016316 0.010533 0.029214 0.039237 -0.01645 0.023906 -0.001306 0.018349 -0.023398 0.042382 -0.023824 0.011729 -0.008967 -0.028958 0.030181 0.026978 0.013202 -0.027833 -0.024201 0.014923 -0.007434 0.012032 -0.005905 -0.012927 -0.013041 -0.010551 0.005864 -0.027166 0.012449 0.005984 0.019982 0.001723 -0.005537 0.024439 0.017157 -0.028391 0.001383 0.027476 0.007058 -0.017314 0.01756 -0.029057 0.013481 -0.000697 0.002586 0.026656 -0.015207 0.026861 -0.018386 -0.006013 0.028515 -0.006172 0.03541 -0.018498 -0.015862 0.019227 0.030235 0.016762 0.004362 0.027222 -0.008344 -0.023558 -0.003891 0.001387 -0.021041 0.009323 -0.024921 0.007148 -0.006043 0.02976 0.010581 0.024539 0.036079 -0.031045 -0.001969 -0.000158 -0.028404 -0.005694 0.038839 0.019913 0.02902 -0.015893 0.016761 0.033989 -0.027574 -0.018596 -0.027706 0.022997 -0.020038 0.020938 0.017737 0.024831 -0.034965 0.029707 0.002775 0.013086 0.00363 -0.005233 -0.031488 0.003879 -0.001274 0.025148 -0.019774 0.009422 0.02839 0.001301 0.002769 -0.028479 -0.024363 0.004335 -0.005899 -0.005749 0.032294 -0.008434 -0.013934 0.027276 0.032475 0.025919 0.02863 0.01717 -0.013381 0.019547 0.015171 -0.043103 -0.024087 0.006836 -0.037941 0.028728 -0.027559 -0.012225 -0.010007 -0.019278 -0.006528 0.002893 -0.025485 0.001525 0.023888 -0.032106 -0.03593 -0.035185 0.011436 0.015829 -0.030234 -0.00747 -0.021789 0.04658 -0.000169 -0.010656 0.009432 -0.005844 -0.00515 -0.011665 -0.020824 0.029559 -0.005518 0.019635 -0.008975 -0.027811 0.006769 0.005631 0.020867 -0.009191 0.015858 -0.020869 0.025438 0.001614 -0.020483 0.025766 -0.000447 -0.024863 0.045893 0.020801 0.015414 0.027202 0.0108 -0.0186 0.018189 -0.010203 -0.026725 0.002311 0.001111 0.031262 -0.02135 -0.006808 -0.019408 0.004134 0.01108 -0.005433 -0.020247 -0.025558 -0.002299 0.03723 0.044182 0.042997 0.02945 -0.001501 0.038668 0.037982 0.050569 0.001866 0.031043 0.002605 0.021182 0.016564 -0.023534 -0.032226 -0.025893 0.004113 -0.029265 -0.01832 -0.029156 0.035364 0.022018 0.027886 -0.007324 -0.002592 0.001705 0.012031 -0.034716 -0.002648 0.038706 0.027956 0.03402 0.04025 -0.006725 0.026203 0.030545 0.023883 0.005702 0.018202 0.042442 -0.020167 0.021347 -0.019481 -0.004812 0.01707 0.016318 0.011541 -0.010477 -0.026614 -0.006089 -0.021941 -0.001966 -0.007421 0.037959 0.030372 -0.024908 -0.000322 0.038462 -0.004601 -0.005721 0.003792 0.005372 0.042938 0.005741 0.015201 0.018914 0.030099 -0.005378 0.003567 -0.015212 0.012171 -0.022661 -0.025054 -0.005334 -0.024747 0.003302 -0.02327 0.012119 -0.031417 0.011535 0.035055 -0.011031 -0.010182 -0.001784 0.010572 -0.029669 0.013215 0.000576 -0.045848 0.015324 -0.012496 0.027083 -0.018491 -0.02537 -0.016685 0.032365 0.001825 -0.021407 0.028716 -0.045308 -0.005345 -0.016379 -0.047989 0.009455 -0.020954 -0.035403 0.0195 0.008783 0.008595 0.016014 -0.005521 0.001336 -0.031023 -0.022425 -0.021982 -0.01189 0.010903 0.001721 0.002134 -0.026233 -0.019539 0.027355 -0.026682 -0.019748 -0.022664 -0.026385 0.019315 0.011481 0.029588 0.015865 -0.01477 0.005288 -0.051334 -0.020802 0.010139 0.009983 0.010568 0.028447 0.008653 -0.054741 -0.006742 -0.033484 -0.009991 0.007688 -0.033655 -0.037347 -0.034651 0.023701 -0.025246 -0.000111 -0.02073 -0.021044 -0.035018 -0.003382 0.024771 -0.022382 0.001785 -0.000563 -0.027233 0.013365 0.020831 -0.004655 0.035804 0.028841 0.01664 0.005269 -0.002959 -0.041523 -0.027482 -0.018207 -0.040011 -0.027637 -0.029203 0.02209 -0.027036 -0.029771 -0.003412 -0.021025 -0.030458 -0.011439 0.02405 0.02551 0.011156 -0.024549 0.010198 0.024276 -0.020402 -0.035566 -0.012887 0.032864 0.00681 0.008992 0.033568 0.033941 0.015902 0.00922 -0.046191 0.021825 -0.036748 -0.005533 -0.027885 -0.019871 -0.004093 -0.003236 0.030024 0.021481 0.015864 -0.02637 0.03502 0.031453 0.039885 0.039578 0.009465 -0.018155 -0.020267 -0.032785 0.031644 0.021825 0.010243 -0.027454 -0.016468 -0.005354 0.028788 -0.015078 0.019819 0.012874 0.027097 -0.033622 0.010651 -0.030909 -0.000987 -0.000991 -0.005186 -0.000518 0.025343 -0.008648 -0.01435 -0.002321 -0.001163 0.029217 -0.031944 -0.031883 -0.000366 -0.002501 -0.035627 -0.013369 -0.00312 0.006749 -0.016181 0.031029 0.009269 -0.033503 0.013779 0.030572 -0.02193 -0.028399 0.031631 0.005558 -0.018501 -0.009963 0.00481 -0.028262 0.013103 0.03628 0.006826 0.03695 -0.003138 0.016922 0.026404 0.00734 0.017322 0.021746 -0.008289 0.031998 0.032021 0.014462 0.000697 -0.018406 0.024505 0.033172 0.010298 0.01929 0.014899 -0.023393 -0.027757 0.017673 0.009322 -0.002639 -0.026816 0.008046 -0.005056 0.029459 -0.010546 0.034881 0.034364 0.005957 0.017664 -0.033344 -0.031544 0.002508 -0.031131 0.018364 -0.02944 -0.016771 -0.032379 0.01607 -0.008136 -0.018207 -0.030812 -0.00626 0.013076 -0.032719 -0.005138 0.019209 0.000576 -0.00462 0.017442 -0.017351 -0.013407 -0.02278 0.027856 -0.018742 -0.02741 0.01563 0.015229 -0.022536 -0.036945 0.011258 -0.02805 0.007006 0.006116 0.0212 0.011287 -0.00556 0.036379 0.009828 0.030221 0.024855 0.003964 -0.034281 0.002539 0.010477 -0.010392 0.025366 -0.037528 0.003754 0.009448 -0.027946 0.000961 0.001479 0.023821 -0.006149 0.028191 -0.005772 0.029358 -0.016281 -0.03404 -0.02215 -0.003972 0.012883 0.004831 -0.014443 -0.023225 0.034532 -0.004048 0.020586 -0.028939 -0.001312 0.015399 -0.039519 0.00824 -0.019824 0.004755 0.005922 0.032095 -0.018919 -0.004674 -0.014458 0.009531 0.016701 -0.031608 -0.036457 -0.021204 -0.000768 -0.041894 -0.024294 0.012792 0.013419 0.025474 0.016619 0.000618 0.007984 -0.018812 0.009154 -0.033292 0.020603 0.00369 0.010938 -0.023915 -0.012598 0.010769 -0.016144 0.018782 0.004444 0.00593 -0.029506 0.001108 -0.017975 -0.016146 -0.022977 -0.019284 -0.035027 -0.010758 0.016792 -0.009982 -0.019275 -0.026263 0.011277 0.029521 0.024837 0.031441 0.015476 -0.01012 0.003686 -0.02618 0.011032 -0.013124 0.003629 0.001727 0.025544 0.011902 -0.018083 0.005425 -0.023188 0.016767 0.024919 0.024388 0.021504 0.02182 -0.031186 -0.041453 0.027047 -0.028767 -0.01312 -0.000766 0.020013 0.003459 0.014702 0.01525 -0.003535 -0.0097 0.002029 -0.031965 -0.009724 -0.018829 0.024606 0.012206 0.022657 -0.014973 -0.00484 -0.009123 -0.005886 -0.011731 -0.055698 0.010893 0.051026 0.036521 0.020731 0.003179 0.011566 0.021987 -0.006764 0.033451 0.011224 0.018821 0.00313 0.029647 -0.005078 -0.028412 0.022331 -0.026278 -0.004355 -0.002885 0.027617 0.023244 0.001938 -0.029583 0.004063 -0.003 -0.067678 -0.051599 -0.021793 0.012931 0.012698 0.023531 -0.021722 0.028384 -0.036331 0.026815 -0.027466 -0.0033 0.00696 -0.030408 -0.024027 0.018903 0.030762 0.02493 -0.028325 0.018576 -0.00819 0.030697 -0.002625 0.015157 -0.027373 0.028659 -0.01168 -0.001664 -0.019099 -0.026329 0.017357 0.044486 0.044443 0.020124 -0.011079 0.016904 0.013593 0.020032 0.009952 -0.001994 0.019404 -0.010893 -0.016962 0.002969 -0.01316 -0.023732 -0.024734 -0.030729 -0.025844 0.003924 0.029837 -0.01001 -0.029551 -0.022881 -0.032614 -0.038934 -0.031643 -0.007993 0.016521 0.027093 0.006204 0.020558 0.008762 0.004718 0.014126 -0.021069 0.002818 0.022583 -0.004743 -0.009939 0.004898 0.022166 -0.005272 0.01413 0.007088 -0.00854 -0.028131 0.031158 0.006286 -0.036799 0.002789 -0.026796 -0.017743 -0.026297 -0.015135 0.013629 -0.014029 -0.017872 0.04783 -0.019885 -0.010212 0.020142 -0.02454 0.023467 0.020518 0.008965 -0.035884 0.017906 -0.038529 0.029401 -0.014244 -0.017412 0.022492 0.002507 0.031492 0.006928 -0.00737 0.019741 -0.006843 -0.041847 -0.009895 0.017836 -0.018637 0.026505 -0.020103 -0.010306 -0.002286 -0.005039 0.034327 -0.024815 0.011348 -0.019099 -0.017721 0.032859 0.031965 -0.011728 0.006688 0.010931 -0.01735 0.036028 0.002469 -0.030588 -0.015726 -0.010859 0.011678 0.020605 -0.014245 -0.021069 0.018967 0.013854 0.000641 -0.005755 0.030248 0.009385 -0.015852 0.03212 -0.006 -0.025206 0.011119 0.025916 0.017547 0.03442 0.016727 0.023707 -0.025936 0.029445 -0.002722 0.004844 -0.012476 -0.033379 0.008706 -0.024315 0.006658 0.005308 -0.003867 0.021293 -0.039614 0.010664 -0.004165 0.03036 -0.018529 0.028589 -0.035388 -0.035267 -0.014444 0.013763 0.028416 0.026641 -0.025539 0.015301 0.009343 -0.02403 -0.011348 0.019782 -0.014616 0.025328 0.01616 0.009172 -0.016975 -0.024561 -0.015774 0.025475 0.002185 0.007593 0.01204 -0.001365 -0.033176 0.028247 0.009209 -0.017671 -0.027322 -0.001466 -0.006307 0.029189 -0.010347 0.024298 -0.003896 -0.024824 -0.004027 -0.016448 -0.012392 0.004452 -0.013329 0.01417 -0.011022 0.021301 -0.025272 -0.026456 0.044142 -0.02912 0.017834 -0.034364 0.018228 0.024475 0.02548 0.016954 -0.028743 0.00037 -0.019537 0.035148 0.020865 -0.011245 -0.033712 0.02034 -0.004144 0.010018 0.021331 -0.012226 0.001779 -0.021442 0.000422 -0.027793 0.006202 -0.001744 -0.03196 -0.011083 0.027971 -0.010595 -0.021769 -0.000413 -0.003217 -0.028495 0.014853 0.022997 0.007097 0.01648 0.018403 -0.005166 0.012788 -0.032066 0.017422 -0.008158 -0.030043 -0.003534 0.022664 0.014134 0.011059 -0.009977 -0.003276 -0.005684 -0.029355 -0.033689 -0.033999 -0.019943 0.027012 0.025639 0.004834 0.004811 0.026103 -0.012586 0.028708 0.012751 0.008087 -0.006246 -7.7e-05 0.02228 -0.01657 -0.029115 -0.017609 -0.011294 -0.013631 -0.012898 0.028301 -0.00624 0.008772 -0.023712 0.029721 0.027761 -0.028233 0.020351 0.02662 -0.002375 -0.023897 0.014022 -0.015326 0.016424 -0.009335 0.021367 0.002568 0.031924 -0.030328 0.002104 0.01129 -0.01049 -0.036075 -0.005748 -0.019227 0.00586 0.037628 0.011408 0.006208 0.033297 0.022259 -0.019494 -0.001263 -0.027637 -0.008618 0.021677 -0.027744 -0.034825 0.013025 -0.031291 0.009572 0.00064 -0.000456 0.001637 -0.031579 0.009958 -0.024285 0.009621 -0.031918 -0.016563 -0.006634 -0.019055 0.004705 -0.011074 0.010967 0.032565 -0.019839 -0.00439 -0.025904 -0.02322 0.018638 0.007863 -0.020517 -0.004817 0.021701 -0.021643 -0.013994 0.004489 -0.016503 -0.014636 -0.015491 0.028004 -0.017156 0.015193 -0.029618 -0.025241 0.015529 -0.010128 0.018679 -0.019373 0.001466 0.031856 -0.031745 -0.02471 -0.02549 -0.017085 0.031182 -0.013197 -0.0106 -0.001233 -0.002608 -0.002274 -0.021965 -0.036183 0.015413 -0.007027 -0.041057 0.029834 -0.007985 0.020893 0.020429 0.019702 0.040008 0.025351 0.008675 -0.014408 -0.026705 -0.022605 0.007414 0.015306 -0.018919 -0.025956 -0.012911 -0.025947 -0.005728 0.006291 -0.030301 0.010287 -0.0315 0.00577 0.037224 0.029077 0.00308 0.00505 0.00399 -0.011649 -0.010566 -0.007004 0.023857 -0.016742 -0.013751 -0.016168 -0.02594 0.011382 -0.032641 0.005782 -0.016582 -0.019026 0.025155 0.00226 0.030004 0.03295 0.040683 -0.001042 0.013534 -0.023202 0.002785 -0.000313 0.010339 -0.004779 0.00441 0.012893 0.007767 0.048984 0.040726 -0.018118 0.022591 -0.008443 -0.016382 0.000386 0.000279 0.014677 -0.003846 -0.019282 -0.012167 -0.032244 0.031724 0.024805 -0.005332 0.037693 -0.01703 0.007563 -0.011147 0.036585 0.047786 0.039945 -0.02148 0.027445 0.039241 -0.005989 0.034967 0.00244 0.013312 -0.019344 -0.026006 -0.00197 -0.011195 -0.024909 -0.002939 0.025768 -0.008018 0.00218 0.009161 0.004063 -0.039297 -0.038613 -0.027869 0.000424 -0.031099 0.021554 0.005242 0.026878 0.013465 -0.004105 -0.023854 -0.028988 0.031315 0.001823 -0.011661 0.03352 0.028767 -0.00069 -0.03789 -0.036752 0.001947 -0.010338 0.024513 -0.029459 0.013073 0.00587 -0.026855 -0.033892 -0.003565 -0.036701 -0.009916 0.005401 0.00557 -0.032445 -0.001749 0.014393 -0.001903 -0.03297 0.014742 0.005249 0.025167 0.023333 0.034649 -0.00127 0.006956 0.010747 0.005481 -0.023883 -0.034699 0.007758 -0.013271 0.001567 -0.007681 -0.017002 -0.01401 -0.033412 0.01247 -0.008232 -0.008577 -0.01145 -0.033766 -0.01873 0.020273 -0.036468 0.012965 -0.031418 -0.038128 -0.030484 0.003615 0.031519 0.00148 -0.006948 0.03224 -0.010909 -0.033481 -0.033068 0.038027 -0.012061 -0.020653 0.011805 0.035538 -0.030477 0.003218 0.03455 0.026974 -0.020085 -0.021029 0.012937 -0.02431 -0.003202 -0.024785 -0.01047 0.030972 0.001344 0.009858 -0.034145 -0.024848 -0.020853 0.007347 -0.009086 -0.028465 -0.006281 0.024946 -0.018901 -0.002396 0.042439 0.012107 -0.002584 0.033635 -0.020994 -0.00131 -0.00082 -0.041112 -0.03389 0.018682 0.028373 -0.018535 0.026831 0.016556 -0.026966 -0.024017 -0.035295 0.015135 -0.005081 -0.031285 0.000844 0.042417 0.002571 -0.027552 -0.035698 0.006438 0.000626 -0.05231 0.000935 -0.029593 -0.052445 0.014723 -0.042643 -0.03238 -0.024717 -0.000177 0.00169 -0.035834 -0.034576 0.027534 0.01601 -0.036592 0.03116 -0.003997 0.024489 -0.013563 -0.026674 0.033404 0.044286 -0.009229 0.031816 -0.004736 -0.035854 0.005153 -0.028955 -0.029153 0.010209 0.016287 -0.021451 -0.029613 0.019001 0.025344 -0.001608 0.034507 0.013118 -0.019941 0.008418 -0.015215 0.032119 0.026115 -0.023308 0.003669 -0.007688 0.015754 -0.012452 -0.026933 0.030835 0.0358 0.05928 -0.014187 0.019611 -0.00881 0.007508 -0.033826 0.02471 0.012383 -0.003253 0.019854 0.025246 -0.019906 -0.018379 -0.027906 0.020263 0.009484 -0.013946 -0.01163 -0.009764 0.03685 -0.020742 0.017571 -0.015392 -0.029469 0.016933 -0.034319 0.021809 0.003015 0.033411 -0.01063 -0.000138 0.013573 0.001738 0.015494 0.008195 0.033424 -0.033371 0.017621 -0.006286 0.021422 0.025876 -0.006629 -0.009949 0.029436 -0.029678 0.029066 -0.006375 -0.016068 -0.019869 0.031806 0.018312 -0.01525 0.004467 0.03124 -0.006711 -0.017183 0.021504 0.032591 0.019103 -0.001039 0.03812 0.039811 -0.006466 0.008971 -0.014958 -0.015029 0.016727 -0.029901 0.013807 -0.017587 0.050628 0.042142 0.042352 -0.002363 -0.008371 -0.025978 0.000338 0.013713 -0.01998 0.024567 -0.029302 0.004472 -0.012714 -0.005972 0.01669 0.032118 0.000661 -0.010318 -0.031135 -0.015576 -0.018906 0.022595 -0.004851 0.007634 0.029126 0.004007 -0.006841 -0.028908 -0.006788 0.028169 -0.026779 0.033292 -0.034381 0.007216 0.018587 0.017082 0.031565 0.006236 -0.009714 -0.036559 0.007571 -0.011339 0.018207 -0.015636 -0.000261 0.028124 -0.020495 -0.027888 0.003724 0.018236 -0.004355 0.034332 0.020295 0.016877 -0.016152 0.011659 0.017774 0.0148 -0.005333 -0.015251 -0.010998 -0.006503 0.00774 0.008682 0.033781 0.038417 -0.009489 -0.03088 0.001698 0.019831 0.030552 0.005448 0.029936 -0.028303 0.016395 -0.031151 -0.013862 -0.028546 0.032609 -0.004164 -0.013531 0.011022 0.011565 -0.013572 -0.013217 -0.012939 -0.027989 0.008978 -0.001787 -0.013996 0.010217 0.03935 0.036079 -0.017154 0.029446 0.042128 -0.00303 0.026816 0.023135 0.002748 0.032379 -0.016515 -0.006688 -0.009733 -0.026531 -0.022054 0.034331 0.010573 -0.01752 0.013796 0.003613 -0.001177 0.006084 0.016121 7.8e-05 -0.00376 0.019342 0.000612 0.022612 -0.010379 0.042302 0.016357 0.011384 0.019548 0.04304 0.039204 0.009479 -0.006935 0.016615 -0.001267 0.04288 -0.0229 -0.009799 -0.04102 -0.010919 -0.033387 -0.049125 0.004609 -0.015824 -0.01256 0.016569 0.001837 -0.028853 0.036088 -0.009576 -0.014663 -0.022174 -0.019806 0.005601 -0.022423 0.000714 -0.039024 -0.002807 -0.01042 -0.038217 0.017497 0.017828 0.018656 0.035588 -0.004656 -0.042473 -0.02633 0.025481 -0.021952 0.020776 -0.005305 0.030437 0.027416 0.039599 0.026035 0.014782 0.008388 0.034808 -0.003847 0.021197 -0.001956 -0.023289 -0.01445 -0.011544 -0.021837 -0.013804 0.000108 0.019315 -0.007666 0.015578 0.028661 -0.004494 0.00531 -0.033435 -0.016151 0.00881 0.00699 0.009464 0.015268 0.014225 -0.02542 -0.001942 -0.003529 0.017369 -0.009839 0.025794 -0.025594 0.035972 -0.022681 -0.015533 0.02919 0.002233 0.017434 0.017625 0.008524 -0.041544 0.005693 -0.012146 0.013689 -0.000774 0.056147 0.05154 0.047102 -0.020499 0.017012 -0.002269 0.035411 0.014187 -0.010746 -0.001256 0.022706 0.033588 -0.032864 -0.027587 0.036636 -0.032416 0.030606 -0.019029 0.002953 -0.017923 0.026414 -0.039398 0.027331 -0.027442 -0.0334 -0.023373 -0.030465 -0.007948 0.011831 0.035092 -0.004572 0.04018 -0.023073 -0.00938 0.00602 -0.018929 0.030478 0.025592 0.02499 0.000376 0.027786 0.008716 0.027535 0.01802 -0.035302 -0.016964 -0.004336 0.004531 -0.00776 0.030094 -0.016343 0.003893 0.00298 -0.033305 -0.028346 -0.011745 0.020685 0.021106 0.014139 -0.00504 0.008297 0.024961 0.015651 0.034447 -0.020537 0.036419 0.02967 -7.6e-05 -0.016104 -0.038432 -0.017324 -0.022323 -0.020563 -0.004543 -0.03092 -0.012831 0.01807 0.020967 0.032674 -0.019846 -0.030777 0.033137 -0.010508 0.014049 -0.020723 0.031707 0.029231 0.027715 0.027375 -0.029806 0.006993 0.036816 -0.020537 0.034812 0.008668 0.000139 -0.03978 -0.019376 0.003584 0.022068 0.021807 0.01975 -0.006511 0.023555 0.010433 0.018611 0.013709 0.031222 -0.010046 -0.030239 0.000194 0.020102 0.016695 -0.012951 0.03089 -0.032083 -0.025483 -0.027053 -0.006876 -0.021378 -0.011604 0.008331 -0.033157 -0.026191 0.032061 0.012172 -0.011806 0.028756 0.023959 0.016854 0.019102 0.027897 -0.009392 -0.000301 0.027449 0.023217 -0.020518 0.015662 -0.001441 0.022536 -0.028221 0.015834 0.009454 -0.010857 0.033213 -0.032574 -0.016159 0.00239 0.032604 -0.017708 0.030836 0.017186 0.017368 0.028823 0.028513 -0.020486 -0.013135 -0.01605 0.015621 0.015512 -0.022379 -0.016303 0.022844 0.007316 -0.032057 0.002426 0.025017 -0.007975 -0.018526 0.000231 -0.023774 0.009694 0.034769 -0.001198 -0.019284 0.001936 -0.007716 0.01261 0.019914 0.022336 0.007198 -0.016419 -0.004734 0.021428 -0.008423 0.033457 0.010323 -0.004331 -0.004859 -0.023565 0.033185 0.022985 0.013039 -0.032877 -0.029271 -0.012877 -0.014778 -0.044939 -0.00302 0.026662 0.036108 0.013008 -0.043051 -0.02576 0.017747 0.014438 -0.041447 -0.027056 0.022445 0.016282 0.019565 0.025165 -0.005596 -0.010782 -0.020112 0.023411 -0.006536 0.027242 -0.020257 0.032695 -0.022191 0.006898 0.024212 -0.001845 -0.023853 0.009488 0.010706 -0.002789 0.013065 -0.010155 -0.021743 -0.003618 -0.044259 -0.022211 -0.017216 0.002964 -0.029509 -0.02662 0.000365 -0.031344 0.008254 -0.017507 -0.000694 0.032675 -0.033754 -0.013741 -0.023243 -0.023367 0.000754 0.010576 -0.008874 0.003554 -0.030287 -0.044576 -0.017489 0.008981 0.029325 -0.030173 0.028487 -0.028026 -0.043268 -0.04463 -0.028529 -0.036253 0.01747 -0.024621 -0.010236 0.004419 0.022022 -0.026185 -0.019039 0.009841 0.026324 -0.010903 0.016823 -0.020052 -0.002647 -0.006312 -0.038831 -0.036496 -0.046337 -0.01878 -0.039474 -0.016278 0.007911 0.026699 0.016237 0.035506 0.018702 0.034405 0.015074 0.021872 -0.003925 -0.020177 -0.010411 0.016602 -0.027899 -0.033028 0.020907 -0.000687 -0.011607 -0.026444 0.014279 -0.023778 0.015541 -0.034709 -0.034085 -0.019574 -0.034887 0.016362 0.028736 0.029824 0.006848 -0.036232 -0.016169 0.021812 -0.02778 0.033418 -0.000164 -0.025909 0.004378 -0.00722 -0.017436 0.007995 0.004206 0.008953 0.004515 0.030848 -0.009316 -0.003916 0.028832 -0.015222 0.011674 0.031745 0.003401 0.018913 0.014699 -0.038127 -0.031758 -0.021612 -0.030245 -0.021921 -0.035564 -0.022692 0.003007 0.005976 0.002878 -0.00354 -0.021317 0.017898 -0.000612 -0.010954 0.029989 -0.009166 0.018243 -0.009255 0.044508 0.022846 -0.011798 -0.001144 0.025301 0.005655 -0.028158 0.030482 -0.02408 -0.03919 -0.025605 -0.027862 -0.008279 0.019403 -0.022718 0.027187 -0.013415 -0.017034 0.013616 -0.023394 -0.006087 -0.006796 0.022508 0.017293 -0.029832 -0.001735 -0.009841 0.026085 0.013784 0.011821 -0.010792 0.004577 0.023897 -0.011569 -0.03337 0.024309 -0.038976 -0.025304 -0.007432 -0.010492 0.003039 0.015557 -0.03467 -0.018793 0.006792 0.026258 0.018199 -0.023695 0.032721 -0.01577 -0.022815 0.040087 -0.007335 0.0102 -0.003506 0.014649 0.002736 0.020222 0.014556 -0.019169 -0.018819 -0.02572 -0.012391 -0.019474 0.016553 0.016869 0.027147 -0.013617 -0.003032 0.011958 0.012816 -0.026143 0.015125 -0.012641 0.004566 -0.016244 -0.03321 -0.010756 -0.042661 -0.039114 0.016078 -0.012656 -0.007948 0.012185 -0.023368 -0.004187 -0.00155 -0.009639 0.016332 -0.012917 0.032226 -0.01559 0.028741 0.020991 0.009744 -0.038635 0.023393 -0.024024 0.027355 -0.037553 -0.00792 0.023491 0.004697 0.000108 0.0066 -0.00903 0.020455 0.015239 -0.010129 0.024167 0.031033 -0.034973 -0.015032 -0.028572 -0.03326 0.015385 -0.01176 -0.035815 -0.018353 -0.00979 -0.018532 -0.000613 -0.027246 -0.00464 -0.018659 -0.0088 -0.032325 -0.022632 -0.009476 0.022591 0.021186 0.01266 -0.006149 0.028291 -0.004446 0.020308 -0.003355 -0.016347 -0.033195 -0.004504 0.02908 0.003094 -0.008208 0.032456 -0.031562 -0.010965 0.026793 -0.027849 0.017211 -0.020552 -0.028182 0.002459 0.004736 -0.007218 -0.023799 0.017224 -0.004841 0.014944 0.003881 -0.005443 -0.036434 -0.011441 -0.00568 0.007847 0.018946 0.004937 0.002479 0.01341 -0.016327 0.007314 -0.027954 -0.001636 0.002528 0.01493 -0.006916 0.006569 0.002542 -0.035375 0.023772 0.009962 -0.002601 0.015223 0.007654 0.011572 0.023881 0.029207 -0.028042 0.001952 -0.029577 -0.007058 -0.015568 -0.025931 -0.007744 -0.009053 -0.003667 -0.038941 -0.077835 -0.028524 0.008397 -0.028607 -0.015698 0.024332 0.005375 -0.014581 -0.057863 -0.011828 -0.011503 0.010907 -0.034543 -0.025099 0.013051 -0.028125 -0.019344 0.011292 -0.001977 -0.030321 -0.005762 0.023031 -0.022599 -0.014361 -0.036762 0.010431 -0.002982 0.011607 -0.014673 -0.014077 -0.031848 -0.047279 0.008929 0.033504 -0.023454 0.01791 -0.03675 0.024107 0.011494 -0.018717 -0.05095 -0.015874 0.018473 -0.038988 -0.033427 -0.036763 0.013799 -0.003405 0.01113 -0.016919 0.018497 0.006879 -0.007885 -0.027678 0.037781 -0.012229 -0.005348 0.003927 0.0257 -0.039557 -0.011773 -0.007383 0.018764 -0.009882 -0.037886 0.022066 0.011135 -0.050576 0.016719 -0.04134 -0.016344 0.012696 0.017258 0.027561 -0.033776 0.029084 -0.002523 0.023634 0.029498 0.019209 0.038549 0.046315 0.012311 0.029956 -0.03062 -0.031652 -0.031395 -0.015792 0.00745 0.023812 -0.003351 -0.004198 -0.010011 0.018815 -0.010669 -0.016561 -0.006645 -0.041293 0.002876 -0.02631 0.00642 0.022651 -0.032009 0.019804 0.013964 -0.006709 0.02589 -0.0089 0.014341 -0.008183 0.002344 0.022064 0.015399 0.035614 0.013863 0.008997 0.008082 0.023982 0.00732 -0.048365 0.001207 -0.022295 -0.031746 -0.01897 0.011916 0.022392 -0.035151 -0.00512 0.019836 0.012925 -0.02753 0.022382 0.014579 -0.009097 -0.002562 -0.022798 0.000139 -0.018768 -0.001124 -0.004209 -0.007763 0.010265 -0.015913 0.034382 0.036081 0.026417 0.017398 0.006111 -0.034717 -0.000436 0.028262 -0.034925 -0.004974 -0.010418 0.020016 -0.014261 -0.025408 -0.013789 -0.032071 0.017913 -0.017172 -0.008019 -0.022522 -0.046677 -0.013239 -0.046168 0.009432 0.003467 0.014632 0.033679 -0.01531 -0.008313 -0.002443 0.015603 0.00537 0.032618 0.018634 0.00233 -0.021002 -0.009963 0.037679 0.025865 0.00436 -0.003462 -0.008874 0.0068 0.034936 -0.002916 -0.003596 -0.011047 0.033168 -0.024896 -0.015982 -0.000326 -0.017161 0.016633 -0.023334 0.01542 0.008491 0.000468 0.002557 -0.013895 0.02017 -0.009862 0.03125 8.4e-05 0.020166 -0.003681 0.018781 0.030688 -0.041641 0.014023 0.019338 0.024307 0.013669 0.039674 -0.014896 0.051121 0.048707 -0.005721 0.027048 0.027312 0.031123 -0.013718 0.004688 0.010355 0.004848 0.001772 0.001687 -0.014807 0.020243 0.015144 -0.013648 0.01022 -0.010249 -0.02014 0.024769 0.037334 -0.029903 0.03772 -0.00538 0.023846 -0.021346 -0.016368 0.018181 0.013127 0.003368 0.029731 -0.020204 -0.022723 0.018117 -0.007811 -0.020421 -0.020042 -0.030155 0.028579 -0.012821 -0.034401 -0.014606 -0.024971 -0.015701 -0.033185 0.038053 0.030771 0.018698 0.022458 -8.2e-05 -0.008896 -0.015922 -0.037004 -0.008815 -0.037804 -0.013106 0.026486 0.018068 -0.017978 -0.01722 -0.029574 -0.013771 0.013885 0.020142 0.009533 0.025426 0.00554 0.006004 0.007038 -0.034984 -0.037364 0.007149 -0.019512 -0.006782 0.002527 0.031088 0.002547 -0.028021 -0.008746 0.000881 -0.024961 -0.031412 0.026763 -0.022547 0.014988 -0.021893 -0.014341 0.018966 0.008686 -0.011402 0.029682 -0.019081 0.012853 0.00458 0.014364 -0.027096 -0.018643 0.00358 0.019321 -0.024831 0.00512 0.030443 0.020178 0.044112 0.025711 -0.026696 -0.014546 0.017513 -0.007412 -0.037051 0.001483 -0.014091 -0.035422 -0.026229 -0.006195 -0.009403 0.008868 0.020328 -0.021628 -0.023968 0.01132 0.038494 0.033996 -0.003091 -0.000648 0.023225 -0.017011 0.020703 0.035714 0.049159 -4.1e-05 0.030813 -0.019322 0.007752 -0.00585 -0.010718 -0.038409 -0.022049 -0.023118 0.034689 0.032931 -0.019992 0.012004 0.000953 -0.00388 0.026894 0.030151 0.009876 0.007604 0.024184 0.005741 0.024868 0.032819 0.027211 0.045391 -0.020225 0.00084 -0.01721 -0.00623 0.025206 -0.031229 -0.028056 -0.019195 0.01109 -0.013651 -0.031115 -0.023354 0.007316 -0.026895 0.014987 -0.023977 0.020745 -0.024254 0.033932 0.011298 0.033667 0.011006 -0.014416 -0.010153 0.023886 0.009381 -0.004511 0.004636 0.003305 0.015025 0.014296 -0.025731 0.020953 -0.027948 -0.029265 0.031288 0.023649 -0.027392 -0.032634 0.00389 -0.002001 -0.001499 -0.006998 -0.003065 0.014407 -0.009519 0.000526 -0.017845 -0.011984 -0.019144 -0.028296 0.030947 -0.018785 0.01759 0.009854 -0.006496 -0.010359 -0.026088 -0.024651 0.015125 -0.008592 -0.024674 0.000109 -0.025604 -0.001591 -0.020468 -0.018424 -0.023049 -0.021805 -0.016001 -0.033082 0.004991 -0.021321 0.012948 0.031228 -0.024147 0.005089 0.003197 -0.031237 -0.033467 0.019012 -0.005951 -0.030351 0.010026 -0.034506 0.023322 -0.016707 -0.024552 0.030049 0.024724 0.018291 -0.031792 0.029288 0.018762 0.0334 -0.026113 -0.010141 0.03055 -0.032674 -0.018932 -0.019942 -0.018147 0.008453 0.028517 -0.021563 -0.023401 -0.004471 0.012974 0.024567 -0.008915 0.020485 0.031723 -0.023336 0.006424 -0.004484 0.02225 0.026967 -0.029531 -0.021011 -0.017331 -0.01158 -0.005012 -0.014457 0.037216 -0.021503 -0.034509 0.0275 0.026182 -0.008574 0.037503 0.000633 0.021804 0.014934 -0.004736 -0.023518 0.035436 0.006926 -0.012354 -0.026999 -0.0065 -0.039648 -0.034957 -0.051219 0.003277 0.024686 0.009938 0.006315 0.041139 0.025547 0.028806 -0.02465 0.037295 0.001626 0.043026 0.004603 -0.000874 -0.027507 0.028304 0.001653 -0.033916 -0.032813 0.030616 -0.028631 0.012038 0.009606 -0.008837 -0.026809 0.004714 -0.02042 -0.029955 0.002041 -0.0159 -0.01986 0.011047 -0.011388 -0.002542 -0.012901 0.031906 0.000678 -0.030699 0.012088 -0.024696 -0.029909 -0.002971 0.026777 -0.019442 0.007455 -0.000717 -0.004765 0.025094 -0.004202 -0.027649 -0.005873 0.021268 0.010031 -0.00467 0.03031 -0.022412 -0.031164 -0.016579 -0.046247 0.008472 -0.032005 0.001838 -0.024064 0.013348 0.013428 -0.01592 -0.035638 -0.012422 0.015277 0.007083 -0.011515 -0.000995 0.015929 0.031337 0.012908 -0.02371 -0.016963 0.023601 0.009095 0.023877 -0.027825 0.033669 -0.0183 -0.030374 0.004397 0.0292 -0.035293 0.029179 -0.019169 -0.016938 0.027517 0.017181 -0.017207 0.025713 -0.033281 0.014808 0.017005 0.01054 -0.023723 -0.008826 0.029299 0.013297 -0.014946 -0.027013 -0.024289 -0.025941 -0.021151 0.003179 -0.030287 -0.007513 0.02723 0.032236 -0.001223 0.024681 -0.016422 0.00887 0.019009 0.004357 -0.038005 2e-06 -0.018286 0.027793 0.00436 -0.008349 0.010159 0.033022 0.022107 0.01601 -0.023994 -0.033135 -0.027192 0.03485 0.026377 0.005338 0.002858 -0.003029 0.022475 0.027944 0.025207 -0.001316 -0.006924 0.030886 -0.02377 -0.019809 -0.014054 0.017674 0.013376 0.006567 0.015928 0.034623 -0.023087 0.03105 0.031626 5.2e-05 0.044117 -0.027686 0.026552 -0.028627 0.001941 -0.024007 0.030461 0.004071 -0.029919 -0.029892 0.01998 0.035148 0.028579 0.032065 0.019216 0.000472 -0.012163 -0.004695 0.010673 -0.013358 0.025565 0.012194 0.013106 0.006814 0.018047 0.019989 -0.007886 0.006825 -0.026205 0.024522 0.029936 -0.032461 0.001242 -0.023427 0.010136 -0.000665 0.012316 -0.008743 -0.024463 -0.023537 -0.044867 -0.030476 -0.016242 0.023036 -0.02923 0.011897 0.017311 0.029931 0.006301 0.024279 -0.005417 -0.02858 0.026933 -0.002174 -0.026093 0.012994 -0.015506 -0.019001 0.006531 -0.018986 0.003507 -0.037027 0.022182 -0.016415 0.004566 -0.023417 -0.023278 0.023405 -0.023821 -0.019562 0.009864 -0.029247 -0.016069 0.034958 0.035434 -0.022675 -0.016959 -0.032063 -0.024822 0.007707 0.019159 0.002205 0.002208 0.014843 0.010813 -0.007177 0.009258 -0.018679 0.001811 -0.000433 0.025642 -0.022689 -0.036865 -0.022508 -0.038687 -0.038694 0.02244 0.020859 -0.016559 0.012528 -0.006982 -0.009622 0.022667 0.027567 0.024282 -0.018432 0.01038 0.012863 0.005903 0.03061 0.004106 -0.02472 0.034139 0.029024 -0.0238 0.028472 0.007882 -0.033626 0.033894 -0.015965 -0.011765 -0.017499 0.023963 -0.030692 -0.014812 0.036326 -0.017361 -0.018713 -0.001714 0.012075 -0.002034 0.015239 0.014485 0.03655 -0.013169 0.007826 0.009276 0.032963 0.026956 -0.005503 0.003828 0.003421 -0.013959 -0.003326 -0.014603 -0.034077 0.018142 -0.026518 -0.021839 -0.01637 0.016197 -0.008623 0.008526 0.01842 0.02498 -0.036919 -0.028927 -0.0065 -0.015735 -0.017879 -0.014807 -0.028287 0.026403 -0.025461 -0.017251 0.02199 0.00788 0.034675 -0.003878 -0.004834 0.028377 -0.010884 -0.019695 -0.026562 0.012496 0.003143 0.023581 0.008022 -0.001301 -0.005913 -0.009963 -0.013385 0.03138 0.010058 0.031796 -0.001571 -0.027565 -0.021749 0.018761 -0.009219 0.032727 0.019649 0.039619 -0.02252 0.003267 0.001819 -0.010118 -0.024163 -0.000625 -0.022059 0.022323 0.023033 -0.02584 -0.015236 0.002426 0.020256 -0.005621 0.017891 0.030808 -0.030488 -0.005109 -0.036125 -0.015536 -0.000411 0.016377 -0.021358 -0.010922 -0.034742 -0.018396 -0.021316 0.019432 -0.02783 0.032226 -0.021234 -0.012311 0.018175 -0.018745 -0.026933 0.025426 -0.024005 0.008854 -0.043335 -0.029148 -0.000208 -0.040622 0.021462 -0.001606 0.037735 -0.008881 0.009396 -0.003084 0.028346 0.030353 0.033695 0.014258 0.032603 -0.031276 0.017734 -0.020053 -0.031917 0.007573 -0.026452 -0.025253 0.007164 0.002579 0.016726 0.014213 -0.009664 -0.038349 0.007503 0.007502 -0.007216 -0.035368 -0.01601 0.039765 -0.014531 -0.0062 0.00855 0.013049 -0.016474 0.007989 -0.007464 0.004314 0.023391 -0.009777 0.025561 -0.036092 0.012419 0.021776 0.00941 -0.031806 0.006318 0.015356 0.017539 -0.004522 0.032199 0.007446 -0.015008 -0.003212 0.027766 -0.012861 0.015414 -0.01338 0.019051 0.004227 0.027269 0.030506 -0.026159 -0.007251 0.026137 -0.010488 -0.012902 0.023059 -0.000528 -0.016981 0.032928 0.026624 -0.004247 0.006451 0.018455 -0.028722 -0.034852 -0.013218 0.002654 -0.039509 0.010045 0.030131 0.025014 0.003944 0.005773 0.008944 -0.005622 0.017269 0.017986 0.009786 0.000798 -0.018433 -0.027053 0.008912 -0.006599 -0.03325 0.034166 -0.026878 -0.024603 0.025114 -0.022095 0.004261 -0.014461 0.004388 -0.030541 -0.013065 -0.00366 -0.022724 0.005877 0.018463 -0.016234 -0.01683 -0.008136 0.027909 0.027478 0.026637 0.013694 0.005407 -0.01644 0.001161 0.034733 -0.022224 -0.009235 0.015618 0.02092 -0.035398 -0.025143 -0.020163 -0.024084 -0.010613 -0.033901 0.034205 0.016205 0.015653 0.021417 -0.008973 -0.011312 0.014616 0.029442 0.006752 0.022229 -0.018279 0.026248 -0.003764 -0.025364 8.2e-05 -0.030225 -0.033779 -0.032909 -0.011207 -0.018114 0.001538 -0.031786 -0.035591 -0.001717 -0.015992 -0.035387 -0.018304 0.012511 -0.004123 0.01075 -0.010594 0.013053 0.014757 -0.029988 0.012962 0.007592 0.031866 0.03445 -0.016662 0.006247 0.000397 -0.019522 0.0104 -0.035054 -0.014753 0.024668 0.004562 0.017936 0.006212 -0.008242 -0.032339 -0.02459 -0.011579 0.015212 -0.005507 -0.03404 -0.022163 -0.032657 0.00076 -0.010753 -0.010358 -0.023866 -0.004271 -0.019724 0.005705 0.01818 0.012794 -0.008967 -0.035125 -0.026066 -0.013005 0.022076 0.036245 0.024719 -0.023471 0.009109 -0.022353 -0.00411 0.02603 0.028852 0.011648 0.003156 0.023296 -0.011469 -0.010559 -0.006465 0.029959 -0.039092 0.003531 -0.027175 -0.002393 0.021241 -0.010256 -0.032477 0.021807 -0.02134 0.006898 -0.024591 -0.004031 0.027335 0.028956 -0.011744 -0.019422 0.008613 0.010852 0.009933 0.017502 0.026761 0.027695 0.004005 0.024618 0.01128 -0.012726 -0.02669 0.001243 -0.011794 -0.008535 0.012871 -0.017397 0.021425 -0.007385 -0.030407 0.032261 -0.003461 -0.018061 -0.008507 -0.009184 -0.012031 0.018539 0.01457 -0.021843 -0.013292 -0.030849 0.023282 -0.015313 -0.023718 0.004641 -0.021039 -0.002975 0.007678 0.003671 0.023665 0.021403 0.006083 0.01504 0.030303 0.013042 -0.039292 -0.037484 0.017988 -0.00609 -0.01199 0.025321 0.001912 0.024216 -0.025223 0.015117 -0.015013 -0.024445 -0.027727 0.008581 0.004241 -0.025562 -0.016798 0.022121 -0.012762 0.017536 0.031142 0.030812 0.005176 -0.026132 0.014473 0.024406 -0.039353 -0.029202 0.01697 0.00098 0.016376 -0.022187 0.007234 -0.027829 0.00315 0.034096 -0.018299 -0.014081 0.004342 -0.010836 0.009052 0.008658 -0.032958 -0.033763 0.005109 -0.015339 0.017491 0.021329 0.024365 -0.02668 0.014093 0.007286 -0.019192 -0.02971 -0.022152 0.007048 -0.018663 0.021656 -0.02986 0.0201 -0.025382 0.00388 -0.003675 0.02788 -0.034734 -0.00709 0.010013 -0.001197 -0.004072 -0.017215 -0.017514 -0.01203 -0.009567 -0.005706 0.035516 0.027915 -0.025691 -0.026524 -0.03583 -0.035456 -0.034591 -0.021207 -0.005733 -0.036199 -0.011148 -0.026216 -0.018077 -0.021036 0.011659 -0.034441 -0.027084 -0.020068 -0.032815 0.010981 -0.033984 -0.025192 0.017195 0.032163 0.016001 0.042177 0.039204 0.003686 -0.000661 0.018511 -0.039579 -0.0233 0.028837 0.000905 0.032823 0.030083 0.004984 0.013014 0.001898 0.038094 0.01519 -0.023727 -0.008607 0.02728 -0.034796 0.0295 -0.007575 0.028118 0.004723 -0.024554 0.001017 -0.007826 0.007299 0.048399 0.033598 0.01064 0.008329 -0.018035 -0.007721 0.008787 0.031261 -0.014976 0.003291 -0.015639 -0.006394 -0.029639 0.010823 0.025265 0.043411 -0.011709 -0.013183 0.013959 0.02178 -0.023959 -0.0263 0.011743 0.037461 -0.015182 0.005484 0.031473 -0.007067 0.027768 0.01223 0.037713 0.017061 -0.003982 -0.017172 -0.02036 0.002018 0.040321 0.020969 -0.008769 0.02849 -0.016081 -0.021191 0.026082 -0.02194 0.019925 -0.014743 0.010707 -0.021857 0.012997 -0.00277 0.005826 -0.012831 -0.021135 0.004623 0.028772 0.026751 0.007864 0.006598 -0.026159 0.008504 0.009614 -0.016021 -0.045796 -0.032688 0.010889 0.034986 -0.02187 0.028962 0.00636 -0.014443 -0.023681 -0.011378 0.028118 0.031256 -0.022229 -0.010174 0.004807 0.025243 -0.017445 0.027841 -0.000757 0.033306 0.02032 -0.006011 -0.060368 -0.064257 -0.044558 -0.047244 -0.034026 -0.039718 -0.038124 -0.041552 0.017503 -0.014352 -0.010165 0.021634 -0.00022 0.005965 -0.003891 0.005638 0.001056 0.014157 0.021259 0.033867 0.015254 -0.027532 0.007238 -2.9e-05 0.031476 0.033052 -0.009751 0.007783 -0.015267 0.016127 -0.007838 -0.017717 0.022651 0.008967 0.00063 0.016607 -0.026422 0.018508 -0.0291 -0.041455 -0.046337 -0.041082 -0.036057 -0.047912 -0.016391 -0.028886 -0.024154 -0.036376 0.006936 0.022862 -0.009409 -0.01252 -0.007043 0.010828 0.023775 0.024325 -0.027176 -0.016713 0.007975 0.027919 -0.025734 -0.000602 0.018882 -0.016779 -0.015493 0.013878 0.026567 -0.030259 0.005123 -0.026782 -0.001873 -0.045603 -0.047004 -0.021202 -0.032398 -0.048191 0.013434 -0.033739 -0.006596 0.023567 0.030819 -0.003911 0.018657 0.021998 -0.034132 0.017856 -0.024049 0.008559 -0.011001 -0.003288 -0.014557 0.000265 -0.028737 -0.011494 0.002269 0.021092 -0.003891 -0.032053 0.028585 -0.019729 0.008435 -0.047623 0.009906 -0.006829 0.011856 0.009638 0.018044 0.015559 -0.01941 -0.013902 -0.017951 -0.006986 0.019913 -0.006315 -0.011038 -0.006752 -0.022158 0.013347 0.020689 0.030927 0.013148 0.02261 0.00368 -0.003541 0.028867 -0.015264 -0.02535 0.007078 0.022337 0.007894 -0.023153 0.02786 0.001364 -0.035968 -0.00455 0.030479 0.001553 -0.042262 0.024854 -0.032089 -0.024165 0.023554 0.029006 0.006131 -0.028716 0.020727 -0.00052 -0.020282 0.024261 -0.016362 0.019191 0.002132 0.004069 0.009332 -0.006071 -0.020863 0.020184 -0.014887 0.014815 0.013879 0.021254 -0.002257 -0.021771 0.015705 -0.032055 0.013616 0.018954 -0.029858 0.015449 0.016801 -0.02855 0.011414 0.019562 0.0161 0.011966 0.009158 -0.011824 0.031083 -0.025957 -0.048718 0.018558 -0.034569 -0.006726 -0.001356 -0.015738 -0.001027 -0.021834 0.009328 0.000933 0.004082 0.032669 0.011148 0.030818 0.005817 0.027031 0.012249 0.023839 0.019778 -0.016749 0.026314 -0.022422 -0.003698 0.027129 -0.002679 -0.01908 -0.031389 -0.022169 0.01652 -0.041668 -0.00358 -0.027125 -0.019805 -0.031314 -0.014154 0.033001 -0.034096 -0.022834 -0.015554 -0.029285 0.02784 0.017066 0.02958 0.002235 0.028371 0.032173 0.005649 -0.011037 -0.019787 -0.022674 0.007997 -0.010532 0.003641 -0.003886 0.027588 -0.019535 0.004144 -0.03308 -0.028692 0.001752 -0.020177 0.00383 -0.003879 0.010674 -0.034718 -0.024097 0.001952 -0.035957 -0.035125 0.028057 -0.02172 -0.023862 -0.030841 -0.00711 -0.001914 -0.020854 -0.003132 -0.005503 -0.000806 0.004478 -0.019963 -0.001507 0.029054 -0.022942 0.029926 0.024449 -0.00466 0.027831 -0.028471 0.025697 0.024286 -0.026896 -0.013078 -0.018187 0.041129 0.015842 0.030253 -0.019401 0.011145 -0.01311 -0.021553 -0.012283 -0.011685 -0.04468 0.024003 -0.031476 -0.039061 0.025331 -0.019249 -0.006301 -0.025493 0.022495 0.004759 0.022842 -0.021095 0.001772 0.00627 0.01848 -0.012855 -0.032968 -0.028131 0.032623 -0.015679 0.038868 0.025182 -0.009619 -0.022511 0.014727 -0.009776 0.012443 0.022082 0.00396 0.002976 0.008346 -0.033722 -0.004343 -0.022687 -0.005345 -0.014747 -0.007514 -0.001081 -0.020248 0.034067 -0.026617 -0.01558 -0.004556 -0.034045 0.023126 0.028627 -0.010774 0.033484 0.030027 0.037418 0.003777 0.016241 -0.016985 -0.03679 -0.004937 0.029007 0.02342 0.016811 0.034256 0.031734 0.011353 -0.017521 0.021383 0.022062 -0.010565 -0.026385 0.000438 -0.020667 0.004594 0.00436 -0.006087 -0.011879 -0.010753 0.035859 0.023449 0.034152 -0.035114 -0.037139 -0.0258 0.020894 0.027683 -0.02341 0.000969 0.036875 -0.008891 0.003644 -0.01516 -0.010783 0.00466 -0.015581 -0.034484 -0.035242 0.025006 0.026653 0.032734 0.032765 0.029136 0.001026 -0.026596 -0.022226 -0.01249 0.005922 0.03474 0.015093 0.007822 0.025607 0.00706 0.016707 -0.027395 -0.025831 -0.030482 -0.003439 -0.030504 0.028175 -0.016957 0.018788 0.005737 0.002278 -0.020443 -0.000176 -0.0316 0.007329 -0.006129 -0.017528 0.028712 0.020649 0.015458 0.037233 -0.036749 0.027445 0.016848 -0.012666 -0.031655 -0.018954 -0.030349 0.030441 -0.019332 -0.003173 -0.035652 -0.011935 0.01153 -0.015596 0.037932 0.019047 -0.006239 0.01794 0.002519 -0.003835 0.024354 -0.029311 -0.010069 0.014016 0.041221 0.036801 -0.019269 0.032811 -0.013508 2.5e-05 -0.021485 -0.003579 0.030496 -0.02391 -0.031952 0.035325 -0.025944 0.003191 -0.026899 0.025165 0.035126 0.013 -0.027739 -0.027996 0.008242 0.00879 0.015126 -0.005598 -0.007994 0.008669 -0.029367 0.027029 0.012578 -0.002537 -0.005199 -0.0214 -0.015723 0.023743 0.028145 -0.014207 0.028145 0.022081 0.018845 -0.003329 -0.006172 -0.009501 0.003619 -0.019388 -0.02756 0.005225 -0.004848 -0.02613 0.025016 -0.009301 0.008281 -0.018819 0.021573 -0.035748 -0.000498 -0.034616 -0.01379 0.006779 0.010448 0.028624 0.010043 -0.028221 0.027774 -0.007805 -0.00866 0.032299 0.001363 0.005653 0.024829 0.016275 0.011503 0.010154 0.025966 0.021083 -0.007418 0.003762 0.00501 0.009802 0.023707 0.03591 0.000868 -0.002417 0.022183 -0.037736 -0.006587 -0.013248 0.006781 -0.029021 0.025759 0.025708 0.032494 0.008782 -0.023217 0.056085 0.050838 0.066158 0.061018 0.013264 0.026089 0.031133 0.027615 -0.005267 0.039461 0.022852 -0.008356 -0.020301 -0.013852 0.001595 0.012737 0.016499 0.004554 -0.032524 -0.033534 -0.016029 -0.030187 -0.01389 0.022981 0.016381 0.010848 0.041959 0.048274 0.051318 0.078877 0.03505 0.069739 0.063667 0.030792 0.011577 0.000819 -0.008189 0.024898 -0.002204 -0.01871 0.006071 0.014569 0.004709 0.032994 0.040141 0.001906 0.009761 -0.034119 -0.021876 0.002422 -0.019724 0.030986 -0.032396 -0.021012 -0.024254 0.036082 0.031689 0.044985 0.02505 0.008555 -0.017632 0.006347 0.021049 -0.014317 0.029007 -0.008922 0.02424 -0.000344 0.025757 -0.019377 0.022442 -0.026548 0.022726 0.020035 0.017028 -0.008109 0.009506 -0.027975 0.023687 -0.02507 -0.02291 0.003096 -0.021629 -0.017433 -0.024458 -0.015896 -0.024609 -0.029814 -0.007035 0.01709 -0.031946 -0.026504 -0.004506 -0.021741 -0.018191 0.015828 -0.026849 0.007974 0.027749 -0.014749 0.034833 0.031141 -0.026848 -0.017935 0.019578 0.012933 0.001176 0.010614 -0.01905 -0.006491 -0.025305 -0.01023 -0.026584 -0.01903 -0.010505 0.000978 -0.034072 -0.017171 -0.002444 0.001284 0.013661 0.016737 0.027175 -0.004293 -0.02143 0.024182 -0.016772 -0.02889 0.001032 -0.004211 -0.021683 0.001443 -0.00329 0.018066 -0.019845 -0.012347 -0.028003 0.026349 -0.036194 -0.006502 0.001388 -0.020036 -0.034568 -0.029427 -0.026345 0.023358 -0.035947 -0.019313 0.018277 0.00403 -0.005539 -0.01782 -0.007794 0.024083 -0.02704 -0.011192 0.032387 0.044853 -0.00923 0.040937 0.036963 0.023986 -0.01596 -0.017948 0.001991 0.010611 0.016004 0.002333 -0.0396 -0.011784 0.023978 -0.037866 0.009109 -0.023252 0.009619 0.025108 0.009124 -0.017469 -0.031644 -0.031693 0.011913 0.021868 -0.011929 0.000625 0.002724 -0.009258 0.024684 -0.026186 0.021338 0.015026 -0.016423 0.039476 -0.013668 0.048858 0.013611 0.00829 0.026085 0.020357 0.030997 0.034128 0.012335 0.005754 0.004366 -0.003071 0.008291 0.016465 -0.005721 0.037357 -0.008976 -0.00478 -0.00404 0.018414 -0.025797 -0.018754 -0.021871 0.007536 0.034189 0.008233 -0.013098 -0.026595 0.036751 0.001339 0.018367 0.02753 -0.040759 -0.009175 -0.014847 0.038216 -0.001649 0.00105 -0.021824 0.013375 -0.011056 -0.022511 0.018893 -0.021149 -0.02162 -0.034464 0.017068 -0.026898 0.031501 0.035942 -0.030837 -0.002034 0.030601 -0.034546 0.032122 0.012345 0.034132 -0.001533 -0.021401 0.030075 -0.013541 0.005137 0.012144 0.03867 -0.008546 0.022529 0.013393 0.019684 0.007243 -0.023768 0.021472 0.038071 0.032557 0.024008 0.00684 0.025904 -0.011597 0.022816 -0.024743 -0.014676 -0.013953 0.035715 -0.032054 -0.01133 0.017536 0.004153 0.032473 0.036124 0.001866 -0.036412 -0.021075 -0.017952 0.018195 -0.024175 0.003845 -0.012624 0.002945 0.037417 -0.021163 0.006404 -0.009677 -1.7e-05 0.027438 0.009617 0.030349 -0.006246 -0.002185 0.042042 -0.023533 0.037905 -0.010293 -0.01129 0.00454 0.029565 0.01459 0.025144 -0.000345 -0.00192 -0.013593 -0.025171 0.024973 0.040826 -0.01327 0.001933 0.028814 -0.011616 0.051457 -0.007153 0.044903 0.044303 -0.007295 0.024695 0.041267 0.0369 0.0261 -0.00915 -0.018135 0.030922 -0.019736 -0.025061 0.023861 -0.027624 -0.001237 0.041761 0.038561 0.012953 0.009505 -0.016726 -0.014414 0.012721 0.038268 0.009104 0.043519 0.027237 0.001527 0.049434 -0.000385 -0.02397 0.04303 0.000487 -0.011227 0.004895 0.03437 -0.004162 0.00705 0.025602 0.023199 -0.012365 0.025081 -0.024295 -0.024973 0.012715 -0.022681 -0.000597 0.032433 -0.008307 0.020386 0.019693 -0.002759 0.004368 -0.026717 0.021182 0.022146 0.010017 0.010486 0.009452 0.033586 0.035554 -0.000111 -0.028875 0.011081 0.002034 -0.017812 -0.038822 -0.009571 0.002003 -0.056636 0.003627 -0.048852 -0.027058 -0.00125 -0.025677 -0.030811 -0.025684 0.027694 0.027556 -0.026105 0.017064 -0.01242 0.01413 -0.003862 0.008551 -0.004895 0.029716 -0.000366 0.012506 -0.000375 0.001395 -0.020581 -0.027613 -0.032474 -0.010318 -0.037923 -0.014845 -0.023487 -0.004768 -0.032348 -0.016971 -0.029792 -0.010268 -0.011408 0.006532 -0.009223 -0.004098 0.002942 0.001477 0.032042 -0.027174 -0.027237 -0.013503 -0.005095 -0.0007 0.02265 -0.032285 0.030058 0.016281 -0.014469 -0.023541 -0.058 -0.069872 -0.048848 -0.057837 -0.052532 0.003214 -0.014712 -0.02463 0.022847 -0.003363 0.007382 0.0105 0.022705 0.030805 0.022354 -0.007456 -0.03464 0.034661 0.020643 -0.011383 0.024972 -0.024799 0.013608 -0.007751 -0.020394 -0.027898 -0.020002 0.010399 0.018471 -0.014779 2.3e-05 -0.021865 -0.039093 -0.029461 -0.020408 0.005134 0.035943 -0.017975 0.028283 0.012027 -0.028642 -0.005174 -0.035803 -0.008075 -0.008157 -0.001741 0.005064 0.022509 0.035259 0.011769 0.010373 -0.01871 0.025825 0.03003 0.020515 -0.010247 -0.007545 0.017439 0.008918 0.017798 -0.021312 -0.039603 -0.002029 -0.03459 0.012536 0.017337 -0.00778 -0.026845 0.03439 0.020313 -0.029289 0.006056 0.008256 0.000374 -0.015743 -0.003322 0.003671 0.008296 0.00976 -0.025761 -0.01115 0.011445 -0.019046 -0.017662 0.019992 -0.037948 -0.018252 -0.034482 0.016057 0.017459 -0.022695 0.033755 -0.024744 0.008751 0.015199 -0.022575 0.003236 -0.032321 -0.006258 0.014308 0.018381 0.008383 -0.010468 0.030499 0.041312 0.005339 -0.011876 0.001164 0.030048 0.035841 0.028456 -0.018994 0.005379 -0.014868 0.009508 -0.021373 0.015527 -0.008602 -0.004959 -0.016663 -0.031904 -0.017283 -0.033492 -0.012018 0.026587 -0.038781 -0.001683 0.008917 -0.011452 -0.013965 -0.031772 0.017652 -0.005728 0.038485 -0.021543 0.021736 0.02851 0.014177 -0.02705 -0.022482 0.030454 -0.012141 -0.014552 -0.005912 0.000629 -0.008262 -0.020766 -0.016107 0.002981 -0.010871 -0.035198 0.004666 -0.0264 -0.018738 -0.005831 -0.018838 -0.020722 0.012413 0.030693 0.045125 -0.010597 -0.005799 0.019253 -0.008679 -0.021796 0.017315 0.03344 -0.028751 -0.032 -0.021602 -0.033 -0.008994 -0.015814 0.005188 0.016652 0.035952 0.000895 -0.016895 -0.008373 0.007797 0.006116 0.00769 -0.038964 0.005855 -0.035408 -0.011109 0.033609 0.021966 -0.003506 -0.016454 0.013295 0.001014 -0.012321 -0.00478 -0.026172 -0.005884 0.016692 -0.037181 -0.000675 -0.009736 -0.022526 0.003582 0.019049 -0.022323 -0.002933 7.4e-05 -0.053743 0.016783 0.027931 -0.017435 -0.000353 -0.01828 0.029419 -0.014759 -0.026062 0.001408 0.002356 -0.01468 -0.012864 -0.034671 0.022858 -0.011466 0.014666 -0.035505 0.010265 -0.027016 0.02143 -0.008734 -0.013642 -0.003621 -0.00151 -0.03646 -0.007666 -0.02107 -0.045126 -0.037912 0.031362 -0.002233 0.006059 0.024419 -0.030235 0.01622 -0.000632 0.023821 -0.006708 0.029377 0.01574 -0.02015 0.015515 0.011389 0.004498 0.01359 -0.036093 0.008239 0.016567 0.011097 0.029013 -0.016861 -0.042379 0.008536 0.013225 -0.03337 -0.046311 -0.00957 0.008938 0.036283 -0.021277 0.020401 -0.005369 0.032697 -0.00736 -0.020184 -0.029887 -0.02022 -0.020753 0.01811 -0.026875 0.014273 -0.005479 0.001443 0.003962 0.005203 -0.003456 0.030472 -0.009539 -0.044508 0.009973 -0.028699 -0.03146 0.019226 -0.015245 0.00477 -0.011939 -0.01161 -0.005098 -0.029018 0.000412 -0.012789 -0.00012 -0.008523 -0.000897 -0.007567 -0.036602 0.004927 0.031679 0.016467 0.023519 0.001805 0.013497 -0.028165 -0.012645 0.007307 -0.021862 -0.018106 0.004297 0.014979 0.004054 -0.013023 0.018579 -0.001602 -0.013317 0.018332 0.009538 0.013116 -0.039877 0.024754 0.02918 0.030938 -0.028815 0.015759 0.036087 0.017735 0.003822 -0.00076 -0.003195 -0.001546 -0.022641 -0.005439 0.014778 -0.022143 -0.043899 -0.006647 0.015763 0.009615 -0.022646 0.012801 -0.013986 0.017358 -0.034201 0.022774 -0.034973 0.009012 -0.03198 -0.021151 0.019085 0.015478 0.027791 -0.019289 0.022598 0.054977 0.046452 -0.000736 0.006709 0.02357 0.010932 0.004051 -0.013284 -0.045085 -0.021158 0.015522 -0.00397 0.017697 0.01717 0.006303 -0.021893 0.031453 0.019373 -0.015114 0.034071 0.008662 0.001166 0.015346 -0.006701 -0.007202 0.021255 -0.009244 0.058222 0.036031 0.034977 -0.019639 -0.012204 0.000278 0.022006 0.010773 -0.00329 0.009262 -0.039442 -0.038758 0.024379 -0.042828 0.019628 -0.003594 -0.020169 0.025659 -0.03266 0.016637 -0.025592 -0.011642 -0.038002 -0.027691 0.001796 -0.026875 -0.011585 -0.021733 0.001715 0.050317 0.047025 0.02096 -0.020309 0.027804 0.001672 0.012506 -0.029226 -0.005839 0.003331 -0.034976 -0.018637 -0.02364 0.014972 0.004222 -0.001533 -0.03047 -0.0145 0.020338 -0.026024 0.002536 -0.015944 0.030195 -0.029769 0.000337 0.023449 -0.009715 -0.023495 0.03724 0.046665 -0.009046 0.035734 0.010593 -0.018242 -0.024715 -0.011458 0.023038 -0.035357 -0.004179 0.00114 -0.031021 0.039475 -0.031911 -0.030719 0.010515 -0.019776 0.004684 -0.02574 0.028189 0.014996 -0.010823 0.012781 0.018526 0.011985 -0.027185 0.016272 -0.02082 -0.010276 0.025504 0.033481 0.025668 -0.004777 -0.023692 0.022934 0.00017 0.027373 0.016184 0.040219 -0.012914 0.001266 -0.015531 0.013755 -0.006456 -0.031857 -0.0263 0.004639 -0.005449 -0.02866 0.004471 -0.047734 -0.007589 0.006074 0.023715 -0.007673 0.015701 -0.014029 -0.033485 -0.008226 -0.013877 0.00518 0.02806 -0.003359 -0.030254 -0.004375 -0.010336 -0.020838 0.023602 0.006308 0.03033 -0.016424 0.020873 0.01209 -0.012218 -0.007863 -0.027052 -0.026347 -0.003754 -0.02625 -0.000803 -0.036347 0.022616 0.017241 -0.03551 0.031857 -0.014481 -0.029594 -0.005957 0.01111 -0.025903 -0.030054 0.016642 0.026478 0.033666 -0.013508 0.041255 0.003076 0.033062 0.001378 0.041296 -0.008869 0.006722 0.010519 0.020315 -0.018954 0.028306 -0.038859 0.010141 -0.001135 -0.032491 -0.017881 -0.026222 0.032978 0.017865 0.011721 0.032614 -0.005668 -0.020875 -0.008604 -0.006683 0.005991 -0.003921 0.021989 -0.005742 0.033516 -0.022903 -0.024926 -0.013396 0.020675 -0.007405 0.003111 -0.004202 -0.017433 -0.034544 -0.015539 0.024529 -0.018111 0.024844 -0.009937 0.015175 -0.019739 -0.016059 -0.019417 0.007004 -0.033082 -0.011904 0.027117 0.00695 0.011733 0.025306 -0.015651 0.007068 0.030549 -0.034674 0.001146 -0.02653 -0.004456 -0.02774 0.02483 0.016935 0.031868 0.013996 0.038058 0.019515 -0.009707 0.024263 0.012929 -0.010336 -0.010969 0.013121 -0.034841 -0.043972 -0.016169 0.025747 0.050825 0.018717 0.013716 0.030012 -0.003669 -0.001407 0.004574 -0.018105 0.011826 -0.026421 -0.021154 0.02339 0.002463 -0.013611 -0.001525 0.025553 -0.01514 -0.020074 0.015455 -0.031269 -0.012131 -0.005535 -0.016207 -0.015027 -0.023159 -0.028557 0.012005 0.004842 0.052107 0.032198 0.00362 -0.034043 -0.019594 -0.000968 -0.022967 0.007485 0.020707 0.013825 0.025372 -0.017752 0.038781 0.036002 0.037768 -0.006294 0.010075 -0.001299 -0.007683 -0.018968 -0.030622 -0.022293 0.000235 -0.028632 0.039374 0.043783 0.025533 -0.003047 0.044933 0.041616 0.004614 0.021929 -0.012106 0.01878 0.0142 0.015997 0.002629 0.015924 0.026915 0.026144 0.033349 -0.024253 -0.01811 0.022564 0.001066 0.005432 -0.026318 0.014096 0.024736 0.009978 0.018996 0.023011 0.012314 -0.003345 0.034669 0.012179 0.043905 -0.005526 0.046626 0.013379 -0.02263 0.001319 0.006653 -0.037285 0.008433 0.028995 0.029842 0.030001 0.004645 0.000284 0.031786 -0.011472 -0.037998 0.007492 -0.023657 0.016516 0.029118 -0.008913 0.009575 0.031341 -0.017369 -0.015778 0.01816 -0.003519 -0.025211 -0.018439 0.002346 -0.015488 -0.034812 0.010137 -0.008996 0.028297 -0.00876 0.042151 0.026509 -0.02476 0.024773 -0.008646 0.000649 -0.008812 0.020409 0.015203 0.02163 -0.015472 -0.015701 0.040062 -0.006846 -1.4e-05 -0.000378 -0.024653 0.007135 0.003111 0.014035 0.012072 0.013586 -0.033587 0.035382 0.017156 -0.009374 0.031489 -0.005631 -0.030187 0.013328 0.031992 -0.011792 -0.038956 -0.02167 -0.018811 0.02874 0.022239 0.001623 0.003077 -0.021851 -0.000954 0.034324 0.029189 0.001843 0.007607 0.029129 -0.001038 0.008562 0.004053 -0.021296 -0.007215 -0.026652 -0.029042 -0.014021 0.005986 -0.027629 0.006842 0.010241 -0.034228 -0.011219 -0.030858 -0.038461 0.007652 -0.024588 -0.006214 -0.015629 -0.038978 -0.022082 0.019342 -0.010734 -0.018192 0.025 -0.017624 -0.027958 0.004854 -0.001208 0.027946 -0.022911 -0.02103 0.02255 0.025502 0.034119 -0.028837 -0.003355 0.010486 0.009109 -0.026889 -0.018682 -0.002002 -0.012449 0.01184 0.000939 -0.028567 -0.023567 -0.009102 -0.006826 -0.000994 -0.007279 0.039937 0.0091 -0.029708 0.007339 0.02656 0.003923 -0.014376 -0.040948 -0.018494 -0.047382 0.008849 0.025967 0.033599 0.008965 -0.001559 -0.009792 0.005839 -0.010753 0.014613 0.015739 -0.002564 0.01583 -0.012398 -0.030058 0.031583 -0.025629 -0.031516 0.034378 0.012257 0.031475 -0.034111 -0.030188 -0.030158 0.00729 -0.066945 -0.017817 -0.010766 0.011685 0.028212 0.030923 0.054743 0.041032 0.009608 0.013301 0.009114 -0.012851 -0.025671 -0.013383 0.032726 -0.0124 -0.032031 0.017015 -0.012672 0.032353 0.030948 0.007614 -0.01468 -0.021335 0.003661 0.009794 -0.010827 0.0212 -0.001688 0.000256 0.001062 -0.001026 0.043491 0.031355 0.005129 0.03548 -0.022769 0.0155 -0.037343 -0.02492 -0.038678 -0.039786 -0.025944 0.010889 -0.021589 0.015805 0.006596 0.026557 0.029212 0.035961 0.015898 0.021053 0.014752 0.00972 0.031954 0.000709 0.011103 -0.002565 0.027835 0.032278 -0.019947 -0.003638 -0.023147 0.007645 -0.014232 0.025515 -0.009962 0.008164 -0.028487 0.00841 -0.031596 0.015662 0.022329 -0.005718 -0.004922 0.017297 -0.004397 0.008661 0.024878 0.007276 0.040676 0.004203 0.025468 0.017713 0.053182 0.017095 -0.015654 0.00826 0.002845 -0.021056 0.022784 -0.002582 -0.01529 0.001698 -0.038229 -0.004409 -0.001268 0.027703 -0.019212 0.036604 0.022606 0.026383 -0.008192 0.01688 0.025472 0.022281 -0.028197 -0.012326 -0.001532 0.016073 0.035812 -0.033307 -0.037989 0.019514 -0.010737 0.016567 -0.020732 -0.008468 -0.03112 0.034776 0.019437 0.037811 0.000804 0.035119 0.019616 0.039192 0.003607 0.030829 0.009118 -0.016328 0.022183 0.010455 -0.026953 -0.025212 0.014303 0.02073 -0.027907 0.015393 -0.011832 -0.035735 -0.014225 -0.017345 0.023592 0.024581 0.00174 -0.018488 0.008852 0.012347 -0.014931 -0.017122 0.01927 -0.003602 -0.018852 -0.032611 -0.01181 -0.016393 -0.004261 0.007501 0.035357 0.019454 0.004371 -0.007992 0.011372 0.01 0.008446 0.018901 -0.017116 -0.02547 0.006849 -0.032022 -0.016844 -0.01969 -0.003309 -0.028157 0.004644 -0.013005 0.003173 0.010206 -0.035959 -0.011273 -0.03714 -0.037041 -0.024801 0.006687 0.018922 0.033639 -0.031816 -0.017068 0.015591 0.007769 -0.035119 0.009732 0.025107 -0.010032 -0.011256 0.018602 -0.006653 0.01005 -0.017805 -0.029607 0.006276 0.027097 0.033136 0.024137 0.012042 -0.023211 0.018109 -0.044974 -0.026263 -0.013648 -0.003206 -0.020175 0.00911 0.005041 0.016989 0.012489 -0.00423 -0.023919 -0.023572 -0.033823 0.018032 0.011827 0.033876 -0.013933 -0.033251 0.012533 0.008789 -0.002387 -0.020275 0.026127 0.018253 -0.030938 0.027507 -0.025504 -0.014129 0.008146 0.016332 -0.014079 0.028795 -0.028472 0.021628 0.032307 -0.010691 -0.025267 -0.000208 0.024694 0.020009 -0.008669 -0.021938 0.002431 0.020332 0.006287 0.005257 0.006231 0.011791 0.016369 0.00569 0.014727 -0.016448 0.00085 -0.029719 -0.002673 0.031191 -0.028483 0.025278 0.036336 -0.005515 0.039368 -0.004227 0.000398 -0.022333 0.032229 0.009473 0.018761 0.005493 -0.029351 0.001551 0.021065 -0.012917 0.022655 0.008035 -0.0301 -0.019653 0.023526 -0.025462 0.020087 0.004283 -0.035131 0.030334 0.023578 -0.006312 -0.031204 0.017782 0.018168 0.018685 0.035132 -0.002508 -0.002549 0.000439 0.034246 -0.019979 -0.014875 -0.018594 -0.01125 -0.021209 -0.005711 0.022557 0.013362 0.035425 0.011983 0.028047 -0.005738 0.029473 -0.005268 -0.015509 -0.009052 -0.01887 -0.042114 -0.021554 -0.04273 -0.041434 -0.023832 0.013864 -0.005206 -0.025635 0.028782 -0.02838 0.002453 -0.030371 -0.031297 0.014368 0.010903 0.001864 0.011446 0.022091 0.013137 0.009826 0.018418 0.013455 -0.017536 0.023341 -0.025302 0.010701 0.008576 -0.000577 0.023572 0.005579 -0.032637 -0.002587 -0.015932 -0.033439 0.005602 0.016606 -0.02359 -0.005236 -0.003773 -0.017375 0.001214 0.025891 0.01908 0.003126 -0.006862 0.014399 -0.030333 -0.011582 0.033514 -0.01936 -0.014998 0.016307 -0.015836 -0.00296 -0.025107 -0.034833 -0.02575 -0.017534 -0.013837 -0.023367 -0.025764 0.033231 0.003707 -0.003739 -0.002124 -0.016004 0.028869 0.011426 -0.018903 -0.011786 -0.004275 -0.003749 0.029674 0.022654 0.007978 -0.005258 0.033005 -0.020837 -0.03369 -0.02345 -0.006028 0.03175 0.004201 0.011325 -0.01894 0.009999 -0.004349 -0.036417 0.021205 0.023785 -0.00396 0.00354 -0.005591 0.013356 0.010782 -0.012651 -0.014558 -0.010692 0.012631 0.03487 -0.031854 0.006043 0.022914 0.033806 0.030377 -0.003572 -0.009729 -0.028009 0.035181 0.016473 -0.028708 -0.008721 0.011868 -0.017799 -0.010013 0.001265 -0.025196 0.033492 0.013694 -0.0154 0.004153 -0.013665 0.009606 -0.000297 0.010077 -0.001371 0.001644 -0.004775 -0.024382 -0.025248 -0.007119 -0.019165 -0.024974 -0.005323 0.036801 0.036572 0.030722 0.004787 0.021967 -0.032521 0.034927 -0.00696 -0.014554 -0.008415 0.033191 -0.021723 -0.027258 0.010193 -0.036781 -0.035859 0.008148 0.023951 0.001212 -0.029672 0.014309 -0.01595 0.002602 -0.009939 -0.007021 0.018034 0.019609 0.012918 -0.003713 -0.025915 0.026174 -0.026263 -0.018973 0.01062 -0.016639 0.004783 -0.016688 -0.02808 0.015323 -0.008132 -0.000574 -0.010177 0.03693 -0.028417 -0.018919 -0.002387 0.004565 -0.0095 -0.02346 -0.019004 0.020855 0.008718 0.026097 0.021788 -0.032801 -0.011862 0.014672 0.004435 -0.034161 0.03328 -0.006186 0.01739 0.001898 0.006801 0.029496 0.013458 -0.028508 0.033919 -0.009425 0.029752 -0.007133 0.005673 -0.00903 0.010686 0.027271 -0.01973 -0.030908 0.036314 -0.025255 -0.020505 0.009654 -0.010352 0.007038 0.015883 -0.00118 -0.037613 -0.021259 -0.012142 -0.024705 -0.039997 -0.002125 -0.00665 -0.0357 -0.00648 0.024357 -0.010337 0.032609 -0.012226 -0.02932 -0.030912 -0.022523 -0.01536 -0.024785 0.018325 0.010871 -0.032201 -0.00473 -0.019361 -0.028778 0.013374 0.018162 0.019441 -0.026675 -0.012604 -0.002884 -0.010631 0.015026 -0.022406 -0.025439 -0.046829 -0.017399 0.017324 0.023243 0.001263 0.021103 -0.022874 0.018255 -0.014277 -0.020148 0.018885 -0.012246 -0.030398 -0.02042 -0.032835 -0.005196 -0.018981 0.02529 0.012891 -0.027354 0.025692 -0.010979 0.026696 -0.02233 0.009906 -0.039867 -0.012659 0.000857 -0.036292 0.010567 0.020559 -0.028364 0.031665 -0.03386 -0.014947 -0.030758 0.012954 -0.016025 -0.019198 0.040506 0.052755 -0.019027 -0.006088 0.001126 -0.015483 -0.00059 -0.024914 0.038218 -0.028978 0.001031 -0.01795 -0.010947 -0.002185 0.006814 0.018689 -0.02109 0.000562 0.002022 0.020976 -0.023047 -0.014275 0.013859 0.030368 0.032266 0.003695 -0.032232 0.027734 0.029284 -0.00524 0.005802 -0.001949 0.012301 -0.013948 -0.034397 0.022136 0.003602 0.018008 -0.004953 0.025457 -0.033321 0.019135 -0.000281 0.024564 0.021682 0.000187 0.003138 0.035234 0.023269 -0.001054 0.022919 0.017669 -0.010735 -0.026186 -0.021416 -0.004491 0.021807 -0.021801 0.031876 0.034026 0.021229 -0.040029 -0.015947 0.008877 0.000531 0.023494 -0.033212 -0.011558 -0.00151 0.010631 0.01013 0.000675 0.003386 0.018021 0.025987 -0.012086 0.025069 0.001288 0.022149 0.013386 -0.016575 -0.02713 0.004423 0.00053 -0.004987 -0.01221 0.017399 0.014173 -0.000933 0.022696 -0.045664 0.013038 0.006988 -0.001326 -0.006211 0.022269 0.011386 0.011714 -0.018252 -0.011477 -0.015906 -0.011809 0.034039 0.009996 -0.008995 0.003238 0.028825 0.007768 0.029099 -0.022612 0.023653 -0.002834 0.021788 0.017433 0.014796 -0.0004 -0.002331 0.020731 -0.030767 -0.031159 -0.015342 0.002282 -0.028662 0.023278 -0.038469 -0.00802 -0.00697 0.014661 0.013525 -0.038446 -0.04525 -0.04698 -0.021648 0.044837 0.039498 0.05357 0.004429 -0.001611 0.012231 0.003283 0.009842 0.016179 -0.021618 0.015418 0.037409 0.002155 0.02505 0.020811 0.028513 -0.002128 0.011228 0.016456 -0.034879 -0.02994 0.026329 -0.007913 0.027155 0.000716 -0.035117 0.002641 -0.02178 -0.009416 0.0337 0.031209 0.050857 0.007465 0.017926 0.039272 0.017778 -0.01062 0.014678 0.013176 0.017016 0.017583 -0.009706 -0.033723 -0.002702 -0.008587 -0.010146 -0.019266 -0.0135 -0.0304 0.033313 -0.018935 0.014257 0.035307 -0.013257 0.021662 -0.01334 -0.017317 0.000283 0.041861 0.046824 0.028636 0.010091 0.007637 0.043116 0.042434 0.009807 -0.018808 -0.022564 -0.010758 -0.024872 0.006556 -0.036155 -0.030795 0.033701 0.007089 0.002766 -0.028074 0.013933 -0.002728 -0.014082 0.017453 0.016182 0.032504 -0.039213 0.011257 -0.017275 -0.007384 0.032881 -0.00869 0.047901 0.035698 0.039075 0.008437 -0.015813 -0.029662 0.033646 0.001102 0.009929 -0.035718 0.031617 -0.014481 0.002119 -0.019935 -0.003763 0.011789 -0.014714 -0.013321 -0.010035 0.012217 -0.029294 -0.012402 -0.003676 -0.019838 0.020496 -0.026929 0.010478 0.026015 0.005923 0.029515 -0.030915 -0.025106 0.011976 -0.026786 0.037143 0.008268 -0.018771 0.027743 0.003914 -0.039692 -0.041985 0.004016 -0.031092 0.014543 0.030444 -0.03117 0.031663 0.016334 -0.021726 -0.026223 -0.007514 -0.030674 0.016473 -0.018069 -0.000689 -0.019171 -0.014871 -0.02936 0.025071 -0.029179 0.012455 -0.026952 -0.018571 -0.019173 0.018821 -0.016624 0.048916 0.024968 0.025136 -0.031047 -0.006374 0.025014 0.020821 -0.009862 -0.008589 0.01334 -0.009138 -0.018758 0.024565 0.010002 0.024698 -0.021082 0.013189 -0.021062 0.02925 -0.030463 -0.007831 0.018783 0.024961 -0.025237 -0.000443 0.015622 0.042022 0.040015 0.028093 0.034314 0.020504 -0.013311 -0.021231 0.019872 -0.014512 0.004871 -0.016645 -0.035253 -0.009627 -0.025647 0.008364 -0.018789 -0.023837 0.002251 -0.028598 0.031261 -0.037319 -0.005411 -0.012918 -0.033855 -0.01112 0.026615 -0.030522 -0.021787 -0.018982 0.021842 0.026173 -0.02647 0.034633 0.039378 -0.024695 0.001494 -0.014171 0.016703 -0.030396 -0.030975 0.001856 -0.025882 -0.032364 -0.010664 -0.027341 0.006112 -0.026254 0.028603 0.025379 -0.035748 0.018409 0.023722 0.030272 0.020769 0.011207 0.017924 0.02529 -0.018666 0.028861 0.018458 0.000128 0.007623 0.03721 -0.012438 -0.026556 -0.002569 0.005645 -0.019694 0.020258 -0.012911 0.021573 0.035255 0.029382 0.037174 0.033612 -0.00953 0.009608 -0.005267 0.029147 0.025073 0.012225 0.018965 -0.016719 -0.02125 -0.030252 0.024789 -0.018705 0.024433 0.020597 -0.022975 -0.028409 -0.000966 -0.019704 -0.035587 -0.000862 -0.019655 0.013437 -0.023354 0.00784 0.013212 0.023383 -0.023536 0.03144 0.019783 0.012259 -0.039502 0.028722 -0.020078 0.017302 0.020543 0.018784 0.005285 -0.017014 -0.006451 0.002341 0.001397 -0.014705 0.026097 -0.001605 0.035126 0.024283 -0.015432 -0.023171 9.6e-05 -0.031464 -0.007548 -0.005916 -0.014147 0.046308 -0.006028 0.008809 0.037386 -0.041916 -0.031861 0.006926 -0.040322 -0.023693 -0.033868 -0.030147 -0.018457 -0.021997 0.009036 -0.016407 0.021546 0.035006 0.015799 -0.003011 0.002807 -0.001194 -0.03445 -0.008894 -0.031531 0.001653 0.015204 0.01744 0.006474 -0.027522 0.0303 -0.014221 -0.024506 0.016801 0.018738 -0.023545 0.024319 0.028711 -0.003863 -0.039363 0.027496 0.017859 0.024943 0.020354 -0.003043 0.024641 -0.029576 -0.006354 -0.014564 -0.017453 -0.013195 0.020202 -0.024124 0.001322 0.028242 -0.034705 0.034318 -0.031696 0.022563 0.009509 0.029955 -0.011507 -0.015802 0.021177 -0.02995 0.016865 0.019347 -0.017602 0.026994 -0.032602 0.0252 -0.015447 0.002419 -0.000148 -0.025559 0.0118 -0.026444 -0.033946 0.030464 0.016389 0.003775 0.038846 0.027424 -0.00687 0.029297 -0.025956 0.016626 0.011794 -0.032548 0.020225 -0.027414 -0.011788 -0.014476 0.014126 -0.015852 -0.021378 0.029944 0.004064 -0.036224 0.018156 -0.040021 -0.017491 -0.026689 0.009164 -0.031876 -0.02569 -0.020506 -0.001547 0.021462 -0.009071 -0.018879 -0.017433 -0.020242 0.004437 -0.032775 -0.004051 0.008688 0.016821 0.015337 -0.003485 0.01144 0.012453 0.014949 -0.035945 0.035216 0.001612 -0.004531 0.006767 -0.010854 0.016828 0.00953 -0.015191 0.008018 0.020317 0.019846 0.010627 0.035914 0.013906 0.000243 0.011009 -0.002562 -0.031435 0.028398 -0.008616 0.007916 -0.026954 0.016589 0.018441 -0.031443 -0.01933 0.026579 -0.010913 -0.032564 0.028828 0.033019 0.006792 -0.018227 -0.006833 -0.020745 0.032752 0.017 -0.026594 -0.005883 -0.00759 0.028652 -0.015346 0.010846 0.013397 -0.01703 -0.006258 -0.031603 -0.000102 0.000568 -0.009749 0.004762 0.016855 0.000776 0.013908 0.034687 -0.009494 0.005164 -0.017598 -0.001115 0.018352 0.028967 0.019463 0.033801 0.034955 0.031804 0.011616 0.015648 0.038792 -0.00164 0.014624 -0.01593 0.017592 0.026663 -0.018137 -0.003082 -0.029109 0.029766 -0.036417 -0.002921 0.018848 -0.018196 0.012322 0.021707 0.003927 0.033761 0.032168 0.01259 -0.012248 0.010881 -0.028186 0.003468 -0.014319 -0.019434 -0.021176 -0.020557 -0.025983 0.034166 0.004913 -0.006426 -0.025361 -0.015916 -0.015175 -0.029256 0.032765 0.008086 -0.007038 -0.030098 0.002566 -0.019503 -0.022997 0.023829 -0.032897 0.01523 -0.016189 0.013157 0.005562 0.02863 -0.026815 -0.027627 -0.035017 -0.017626 0.021877 0.02862 0.025302 -0.017248 0.001744 -0.006708 -0.010196 -0.035611 0.013014 0.008113 0.019632 -0.035475 0.027063 -0.024027 0.022723 0.007474 -0.028786 -0.028631 -0.003728 0.007251 0.032997 -0.019122 0.033595 0.027159 -0.03713 0.024169 0.031688 0.010305 -0.022207 -0.003298 -0.025041 -0.004906 0.011809 -0.02997 0.000505 0.016819 0.031059 -0.025299 0.032192 -0.035175 -0.014286 0.034691 0.007849 -0.020417 -0.028151 -0.005469 0.023286 -0.032667 -0.002665 0.029296 -0.007597 -0.037614 -0.021769 -0.002141 -0.021589 -0.020977 0.029448 0.031318 -0.019316 0.033723 0.017492 -0.029557 0.005598 -0.002041 0.024771 0.021411 0.003015 -0.036841 0.006933 -0.022129 -0.009331 0.020006 0.014944 0.028759 0.022904 -0.019726 0.029498 0.0069 0.023678 0.024757 0.017541 0.017449 -0.010013 0.011827 -0.030147 0.017046 0.022139 -0.006154 0.036159 0.019994 0.015958 0.016148 0.030108 -0.007241 0.013882 -0.029373 -0.039168 -0.013506 0.027212 -0.03118 -0.034378 -0.008811 -0.004307 -0.00238 0.009509 0.001284 -0.024555 -0.026831 0.002457 0.028558 -0.004761 0.0296 0.036688 0.024882 -0.003491 0.004744 0.032468 0.035509 0.018114 -0.023515 0.023879 0.0186 -0.017767 0.016358 0.020336 -0.029356 0.015807 -0.016236 0.029853 -0.002264 -0.012396 0.024003 0.014119 -0.018864 -0.012122 0.025946 0.018328 -0.02209 -0.008988 -0.014303 0.037016 0.026464 -0.020018 0.009987 -0.002187 0.028493 0.007994 0.005724 0.011001 0.01978 0.008243 -0.017805 0.014826 -0.02106 -0.018305 0.011958 -0.008309 0.005469 -0.005363 -0.017318 0.012377 0.001633 -0.013074 0.022073 0.008133 -0.009203 -0.020239 -0.007678 0.0028 0.00502 0.003884 -0.003301 0.0429 0.001676 -0.012765 -0.021483 -0.013495 0.009046 -0.030965 -0.017751 0.012469 0.025543 0.022433 0.013342 0.024494 0.002652 -0.014774 -0.008036 0.031831 -0.026285 0.016949 0.010723 0.000413 -0.018038 -0.026345 0.020507 -0.016102 0.023914 -0.00967 0.030473 0.038349 0.030262 0.020918 0.014122 -0.036017 -0.041964 -0.033399 -0.033082 -0.033261 -0.034076 -0.027449 0.036888 -0.034003 0.010664 -0.011704 -0.029226 -0.001454 -0.025213 -0.045716 0.02496 -0.018221 -0.0191 0.034712 -0.007844 0.016197 -0.015255 0.014256 -0.002386 0.020076 -0.004748 -0.01008 0.031059 0.001611 0.017012 0.033027 -0.001372 -0.003411 -0.007315 -0.008434 0.026844 0.026812 0.008997 0.004351 0.021013 -0.032731 0.007199 0.009441 -0.000872 0.015998 0.016531 0.014431 -0.008418 -0.013168 0.011883 0.033576 -0.030604 0.000403 0.03525 -0.02915 -0.022017 -0.005247 -0.017079 0.011714 -0.005035 -0.026565 -0.029468 0.020863 -0.021164 0.013412 0.041108 -0.006819 -0.01404 -0.018899 -0.009943 0.013533 -0.011213 -0.001043 0.023801 -0.005593 -0.009625 0.007702 0.007252 -0.028431 -0.000342 0.016379 -0.009065 0.026195 -0.024303 -0.010636 -0.014962 -0.002557 0.009254 -0.03669 -0.025117 -0.029705 0.014473 0.019702 0.00327 -0.008606 0.020036 0.004433 0.023627 0.001842 0.029243 -0.009006 -0.029701 0.017012 -0.019974 0.032968 0.014509 -0.029694 0.02098 0.003955 0.003595 -0.014919 -0.026932 0.007516 -0.030021 -0.030617 -0.011973 -0.04725 0.015933 -0.002065 0.021916 0.006692 -0.016871 -0.003203 0.008836 0.002531 -0.016681 -0.026651 0.01132 -0.02041 -0.011359 -0.02374 0.019726 -0.022259 -0.034201 0.019845 -0.001034 0.039305 0.046739 -0.018179 -0.023907 0.021867 -0.027803 0.021858 0.029511 -0.012718 -0.012251 0.023828 0.030017 0.007768 0.029472 0.019616 -0.021204 -0.019505 -0.005874 0.016674 -0.018856 0.00361 0.021134 0.0227 -0.021135 0.027106 -0.009431 -0.004981 0.014159 0.005364 -0.008877 0.01779 -0.020394 0.031313 -0.004679 0.022605 0.016369 -0.026668 -0.007389 0.036269 -0.002429 0.006614 0.00421 -0.002343 -0.024723 -0.002823 0.027383 -0.012821 -0.01767 0.033726 0.030308 0.03017 0.022688 0.021959 -0.012148 -0.034272 -0.021443 0.020359 0.026038 0.007338 0.008674 -0.012248 -0.025757 -0.036301 0.004736 0.012671 -0.016306 0.036295 -0.002598 0.025329 -0.027413 -0.008694 0.00632 0.0148 0.003063 -0.035361 0.007612 -0.001668 -0.02054 0.032441 0.017672 -0.00547 -0.011764 -0.030103 -0.027795 0.029474 -0.004173 0.006546 0.016221 0.005411 0.022564 -0.017066 0.021379 -0.002778 0.044208 -0.034353 -0.013277 0.011932 0.003542 0.003146 0.018137 0.035123 -0.03069 0.013509 -0.01294 0.022682 -0.029192 -0.017029 -0.025641 -0.024202 0.023823 -0.037908 -0.027219 -0.024834 0.012799 0.014784 0.037462 0.036609 0.024774 -0.003949 -0.005597 -0.002018 0.005607 -0.033266 0.010714 -0.00813 0.000249 -0.028267 0.008414 -0.013753 -0.022757 0.020658 -0.011255 -0.037113 -0.021775 -0.017606 -0.017281 0.000793 0.040694 0.031173 0.018241 0.019617 0.024725 0.010381 0.021029 -0.034433 -0.021238 0.013543 -0.007092 0.009646 -0.016976 -0.014934 -0.003949 -0.026947 -0.018626 -0.013136 0.025768 -0.021779 0.019564 -0.020157 0.009459 0.020247 0.020467 0.023753 0.002683 0.013163 0.02181 -0.024986 0.009288 0.038361 0.006538 -0.003317 -0.013409 0.003032 -0.014312 0.011804 -0.010881 -0.011015 0.026264 -0.029097 0.002129 0.013983 0.022671 0.004588 -0.024266 -0.039364 -0.04534 -0.024063 -0.02674 -0.023946 -0.008841 -0.023776 0.020917 -0.015159 0.024564 -0.005358 -0.010172 0.034073 -0.017932 -0.032153 0.007454 0.004912 -0.01723 -0.0306 -0.015709 0.034649 -0.009785 -0.015751 -0.01586 0.00706 -0.021239 -0.018957 -0.008015 0.015743 -0.015639 -0.027174 -0.039029 0.032317 -0.020918 0.018804 0.018401 -0.007069 0.02022 -0.034334 0.028233 -0.003122 -0.035379 -0.012959 -0.01372 -0.021983 0.022381 0.002561 -0.022936 0.015459 0.027277 0.031611 0.00733 -0.016529 -0.027597 -0.018601 0.012355 -0.036538 0.008744 0.017713 -0.031166 0.024628 0.02482 -0.00493 -0.00057 0.008166 -0.032068 0.029902 0.016222 -0.029361 0.006002 0.045189 0.032333 0.029702 0.018199 -0.01831 -0.022991 1.1e-05 -0.042619 0.010041 0.018458 0.013455 0.007733 0.029287 0.017594 -0.010949 -0.017596 -0.002233 -0.016444 -0.022188 -0.011254 -0.00494 -0.034709 -0.003837 -0.015804 0.024899 0.026751 0.039052 -0.016484 0.035462 -0.028318 -0.026199 -0.005006 -0.025848 0.023728 -0.017303 -0.037404 -0.041612 0.012095 0.027281 0.039319 -0.034773 -0.011644 -0.019039 -0.016377 0.016867 -0.012211 -0.022397 0.00196 0.027075 0.025411 0.021798 -0.017517 0.018367 -0.021908 -0.013 -0.014367 0.017076 -0.027331 -0.032253 -0.032119 0.020648 0.034421 0.028959 -0.021704 0.015238 0.026016 0.026187 -0.000324 0.018907 -0.008504 -0.007634 0.011071 0.003375 0.032531 0.02625 0.030145 -0.008201 -0.006416 0.021119 0.001446 0.026465 -0.015772 0.03497 0.013323 0.040384 0.010538 0.035701 -0.030435 0.000746 -0.03147 -0.039607 -0.021912 0.015501 -0.010112 0.029007 0.023125 -0.02369 -0.025943 0.004164 -0.012605 0.030035 0.026972 0.027032 -0.023228 -0.010614 0.025681 -0.001632 -0.020987 0.004742 0.021884 -0.010058 0.022566 0.016017 0.005007 0.001732 0.002769 -0.040323 -0.033742 -0.036336 -0.030772 -0.01627 -0.006038 0.007767 0.01711 -0.034593 0.004585 -0.001496 -0.020742 -0.010458 -0.052226 -0.055418 -0.045579 -0.048881 -0.004363 0.017093 0.005664 0.002997 -0.013646 -0.010183 0.004879 -0.030984 0.032934 0.04238 0.041685 -0.00424 -0.015743 -0.006819 -0.031576 0.012671 0.010075 0.01814 -0.011458 0.008599 -0.015404 -0.012505 -0.010121 -0.047557 0.009867 -0.011963 -0.009751 -0.00348 0.033108 0.020656 -0.017547 -0.000268 -0.013901 -0.02925 -0.038355 0.018864 0.032111 -0.0205 -0.00279 0.032116 -0.032534 -0.011714 0.014157 -0.015537 0.01154 -0.018151 0.032471 -0.023123 0.010581 -0.02443 0.009205 -0.014939 -0.016327 -0.004099 -0.031687 0.037272 0.037645 0.038213 0.036219 -0.026855 0.013947 0.025147 -0.00948 -0.009066 0.001946 -0.00483 0.016544 -0.0224 0.029941 -0.012602 0.009013 -0.005 -0.001945 -0.024663 0.012632 0.029982 0.008539 -0.003896 -0.016584 -0.002179 0.007269 0.024658 0.029677 0.03883 0.02585 0.022545 0.038996 0.000923 -0.020368 0.027978 0.003261 0.006278 -0.027024 -0.018746 -0.018034 0.019025 -0.002011 -0.027847 -0.035887 -0.031125 -0.030221 -0.014811 -0.00742 -0.020963 0.00076 -0.022489 -0.010748 0.028009 -0.008603 -0.004627 0.022461 -0.005366 0.034774 -0.006296 -0.019135 -0.031282 -0.027329 0.012486 0.015965 0.009087 -0.025717 -0.021484 -0.020241 -0.005788 0.023747 0.037218 0.023802 -0.035181 0.015846 -0.028197 -0.018488 -0.009286 0.011851 0.001342 -0.022958 -0.031085 -0.018032 -0.01523 0.022342 -0.028878 -0.003638 0.025954 -0.026141 -0.013303 0.02752 -0.002917 0.010294 -0.012737 0.017966 -0.009996 0.024483 0.008244 -0.02098 0.015471 -0.015119 0.014166 -0.004809 0.016925 0.000598 -0.022053 0.019635 -0.01118 -0.022265 -0.031734 -0.029951 -0.024039 -0.037785 -0.033894 -0.006585 -0.020976 0.010875 0.025972 -0.012003 0.021106 -0.001792 -0.013124 -0.034442 0.013426 0.016457 -0.006022 -0.027151 -0.027435 0.036028 0.046199 0.021031 0.009426 -0.028447 -0.032917 0.010184 -0.007732 0.023047 -0.015052 -0.026624 -0.036124 -0.045994 0.011341 -0.014634 0.006658 -0.007746 -0.000327 0.009331 -0.00399 -0.01975 0.023305 0.011282 0.003809 0.017892 -0.000785 0.018322 -0.004128 -0.003743 0.03158 -0.00992 0.009613 -0.019561 0.020259 -0.020032 -0.034587 0.000766 -0.006484 0.00448 -0.015871 0.006002 -0.027506 0.025343 -0.017133 -0.004313 -0.032343 -0.022232 0.001182 -0.006314 -0.037296 -0.004024 0.024595 -0.027797 0.02117 0.003735 0.001857 -0.002054 0.019609 0.002495 0.019378 0.007551 -0.012047 0.029171 -0.025173 -0.014546 0.018235 0.023912 0.013051 -0.018198 -0.018781 0.009593 0.002779 0.036155 -0.00418 -0.01007 -0.005478 -0.025866 -0.006064 -0.04545 0.009964 -0.03237 -0.007453 -0.024093 -0.010202 -0.037637 -0.030135 0.010743 0.014878 -0.028945 0.033819 -0.016132 -0.008307 0.000344 -0.038856 -0.012794 -0.01123 -0.024771 0.021494 0.026804 -0.006348 0.048949 0.002699 -0.034822 0.018172 -0.015311 0.008769 0.035307 -0.015977 0.000771 -0.023205 -0.025453 -0.009757 0.030393 -0.033008 -0.015078 0.035995 -0.025004 0.014058 -0.001888 0.014356 -0.001157 0.003505 -0.030502 -0.023922 -0.017594 0.021211 -0.03372 0.017656 0.018468 0.042854 -0.018464 0.029671 0.028638 -0.017875 0.014917 -0.028772 -0.004632 -0.004179 0.0154 0.034391 -0.020592 -0.002063 -0.025693 -0.03168 0.03411 0.017099 0.026188 -0.00322 -0.022088 -0.037833 -0.00117 0.012617 0.025067 -0.01889 -0.021652 0.022014 0.006682 -0.005212 0.034561 0.03953 -0.006227 0.031553 0.026532 0.00215 2.9e-05 0.027846 0.031768 -0.024208 -0.026958 0.003108 0.024407 -0.032346 0.018125 0.002213 -0.031282 -0.029572 0.010838 -0.002109 0.022165 0.01543 0.009989 0.013781 0.009136 -0.017966 0.026079 -0.021345 0.000405 0.008732 0.002623 0.0185 -0.018132 0.012589 0.042357 0.02975 0.018147 -0.025209 0.018498 0.006885 0.006568 -0.040223 -0.044156 -0.035048 0.013365 -0.002681 0.041494 0.028166 -0.014336 -0.024895 0.011264 -0.029324 -0.014979 -0.035569 0.008983 0.003394 -0.019593 0.03341 0.034578 -0.025962 0.024684 0.030454 0.014335 0.027823 -0.014102 -0.004084 0.019667 0.037258 0.015267 -0.052876 -0.034505 -0.014464 -0.016578 0.016198 0.016351 -0.005145 0.018925 0.009636 -0.020234 -0.026819 -0.024748 -0.022693 -0.033325 0.025392 0.022316 0.004302 -0.00526 -0.018622 0.014737 -0.029517 -0.027983 0.023371 -0.011531 0.031847 0.025342 -0.034339 -0.045973 -0.030942 -0.045138 -0.003292 0.011139 0.03394 0.019776 -0.011359 0.016958 0.007151 -0.005517 -0.007843 -0.022792 -0.025407 -0.017566 0.004647 -0.0078 -0.014013 -0.021887 0.017305 -0.031051 -0.028736 0.006987 0.011147 -0.012966 -0.006819 0.00983 0.010143 -0.009591 -0.036974 -0.014195 0.019123 0.006722 0.031241 0.030206 -0.015703 0.014117 0.013708 0.025248 0.004523 0.014426 0.028157 0.023368 -0.020138 -0.000305 -0.022321 0.013127 0.000953 0.035436 -0.020628 -0.026134 -0.026389 -0.007152 -0.016531 0.014389 -0.017515 0.029202 -0.037371 -0.014715 0.030715 0.038973 0.024747 0.026241 -0.022397 -0.0133 -0.013494 0.004769 0.033472 0.027532 -0.027095 -0.000982 -0.016263 -0.015738 0.010955 0.008763 0.028338 0.019785 0.010469 -0.013105 -0.015769 0.03465 -0.01282 -0.035598 -0.029013 0.000799 0.021955 -0.018487 -0.013162 0.015604 0.014387 -0.008143 0.009213 -0.023362 -0.025906 -0.007794 0.017405 0.019405 -0.020866 0.000953 -0.023628 -0.034946 -0.006837 0.019194 -0.007462 0.027442 0.031503 -0.006334 0.01066 -0.036672 -0.000535 -0.033005 -0.000993 -0.015792 -0.005909 0.012689 0.017856 -0.034381 -0.017522 0.002194 -0.000862 -0.023477 0.017812 -0.031655 -0.008275 0.02499 -0.015394 -0.037118 0.01576 -0.006635 0.005939 0.024154 0.001703 0.008861 0.007541 -0.044719 -0.02004 0.014603 -0.004766 0.01994 -0.033954 0.019778 -0.000381 -0.025138 0.037638 -0.016593 -0.019207 0.009473 -0.001842 -0.010078 -0.005756 0.006449 0.004363 -0.023258 -0.036188 -0.021541 -0.000685 -0.035416 -0.022356 0.0094 -0.000268 -0.031202 -0.00856 -0.035636 -0.011796 -0.005463 -0.012504 -0.005022 -0.01763 -0.00629 -0.03599 0.014961 0.0293 0.000204 -0.016258 0.017663 -0.015371 0.020095 -0.022236 0.034207 0.018345 0.00729 0.012042 0.004879 0.000163 -0.01876 0.029676 0.012666 0.006711 0.018407 0.002602 -0.008203 0.011326 0.00979 0.024422 -0.038152 -0.002806 0.017926 -0.001823 0.008188 -0.023577 0.031489 0.023713 -0.012594 -0.024143 -0.001177 -0.007488 -0.034603 0.005879 -0.002869 0.013234 -0.026247 -0.011611 0.028832 -0.009066 -0.006224 -0.004463 -0.027766 0.026598 -0.007432 -0.023382 -0.013919 0.023607 -0.021828 