0.011557 0.002661 0.00485 0.029829 -0.001715 -0.029499 0.034281 -0.005122 -0.012799 -0.031409 0.010719 0.005375 0.012055 0.005411 -0.032165 -0.008746 0.009528 0.0157 0.019926 -0.02496 -0.014787 0.005945 -0.034584 0.025046 0.007364 0.0068 0.016149 -0.026643 0.030578 0.022201 0.01363 0.017254 0.030504 -0.012742 -0.030214 0.007105 -0.029592 -0.014459 -0.027731 -0.008941 0.032212 0.02852 -0.035156 0.00677 0.01485 0.004545 0.010405 -0.010379 -0.00525 0.035065 -0.000693 -0.026546 -0.001398 -0.006094 -0.006394 -0.004487 -0.015579 -0.008249 0.024091 -0.008611 0.005883 -0.003307 0.012831 -0.030595 -0.007395 -0.02899 -0.027758 -0.018012 0.000666 -0.016008 -0.027981 -0.035558 -0.030877 0.029065 -0.016349 0.006314 0.008416 0.030066 0.021599 0.002825 -0.033571 -0.000379 0.005205 0.024796 0.014816 -0.029749 0.031747 -0.017851 -0.01633 0.018734 0.011002 -0.01376 0.021588 -0.013015 -0.027256 0.007763 -0.000435 0.032136 -0.033854 0.027489 -0.024913 0.032117 0.028046 0.00149 -0.000714 0.014677 -0.010402 0.02479 0.023385 0.007666 0.019985 -0.027325 -0.012745 0.023159 -0.019408 0.002881 0.010698 -0.01593 -0.012832 0.024272 0.002037 0.025649 -0.004691 -0.011313 0.00298 -0.004383 0.02516 -0.002012 -0.016135 0.012306 -0.00218 -0.018773 0.020412 0.012215 -0.014813 0.001952 0.011171 0.021396 0.025408 0.033158 0.047006 -0.023304 0.021831 0.01838 0.028257 -0.00709 -0.005899 0.035011 0.00345 0.00092 0.011749 -0.009048 -0.005873 -0.03177 -0.007176 -0.013977 -0.023448 -0.023865 -0.030383 0.008054 -0.012268 0.032284 -0.015842 -0.016529 -0.008259 0.067269 0.037212 0.026651 0.035848 0.017535 0.039019 0.041773 -0.020189 -0.008353 0.017431 -0.03038 0.027818 0.01106 0.03201 -0.006644 0.032098 0.005235 0.007695 -0.021279 0.035981 0.007415 -0.014229 0.012031 -0.027804 -0.014362 -0.016766 0.011119 0.003483 0.006202 0.004401 0.008052 -0.001517 -0.009739 0.002795 -0.013007 -0.016983 0.013189 0.030052 -0.020967 -0.021117 0.002734 0.013657 -0.014478 -0.003478 0.031821 0.018922 0.015707 -0.018706 -0.025007 0.023909 0.032965 -0.023067 0.006262 0.001491 -0.007785 0.016239 -0.035087 0.018768 -0.03247 -0.049228 -0.027209 0.013141 -0.033435 0.017258 -0.023435 0.004347 0.023518 -0.027423 -0.012524 -0.014026 0.020372 0.003285 0.029595 0.036693 0.011681 -0.028048 -0.009126 -0.006985 -0.021588 -0.002716 0.011842 -0.010329 0.031269 -0.004133 -0.013885 -0.047646 -0.02536 -0.024362 -0.015266 0.018102 0.014634 -0.021648 0.03085 -0.021469 0.020483 -0.011642 0.021111 0.030307 -0.040212 -0.037108 0.007423 -0.020235 -0.019233 -0.037087 -0.001654 -0.014233 -0.010991 -0.017394 -0.022404 -0.042124 -0.041515 0.008816 -0.009746 0.006633 -0.017787 0.027186 -0.00956 -0.032672 0.026544 -0.026577 0.003092 -0.019979 -0.028747 0.040851 -0.011304 -0.023136 -0.01653 -0.011969 -0.001365 -0.021303 0.022647 -0.024155 -0.030096 0.00484 0.018315 -0.041832 0.003534 0.006193 0.012287 -0.007205 0.008533 -0.014071 0.028479 0.016332 -0.01315 -0.024854 -0.03238 0.022586 -0.004027 -0.024947 0.033295 -0.001231 0.006004 0.005549 0.012753 0.002431 0.029399 -0.024754 0.017841 -0.017694 -0.025108 0.021695 0.006083 0.02913 -0.013984 -0.012816 -0.004427 0.015364 -0.009598 -0.007454 -0.026355 -0.021382 0.028746 -0.012652 -0.029546 0.020631 -0.009183 0.007375 0.037918 -0.00261 0.022388 0.02659 -0.035453 0.017704 -0.038362 -0.035655 -0.000692 -0.030947 -0.045321 -0.041548 -0.013512 -0.000478 0.038297 0.003546 -0.00371 -0.014023 0.016908 0.016547 0.00949 -0.011769 -0.019194 -0.008553 0.025354 0.00136 -0.012418 0.019561 -0.02297 -0.023598 -0.012686 0.024876 -0.003237 -0.007585 -0.014241 0.01734 0.002005 0.022087 0.016762 -0.004724 0.037111 -0.011277 -0.013481 0.005388 -0.000426 -0.0212 -0.01928 -0.002347 0.024859 0.011106 -0.010467 -0.031113 0.016882 -0.007793 -0.026234 0.013207 0.027356 0.030252 -0.020697 -0.002084 0.012785 -0.025786 0.025921 -0.01585 -0.029561 0.021944 -0.012642 -0.012978 0.027453 0.002787 -0.002938 0.013553 0.010557 -0.006596 0.011611 -0.023941 -0.000881 -0.032546 -0.033039 -0.009163 0.029963 -0.016524 -0.017298 -0.01402 -0.016994 -0.037889 -0.041813 -0.006557 -0.041734 0.005504 0.006752 -0.029405 -0.019901 0.030098 -0.011067 -0.018703 -0.028164 0.021242 -0.018639 -0.034973 -0.039042 0.024474 -0.011251 0.004912 0.007156 0.032711 -0.01685 0.041917 0.032865 0.005165 -0.036999 0.010409 -0.011155 -0.012192 0.019978 -0.013428 0.002756 0.014892 -0.040937 0.002558 -0.020908 -0.013466 0.012363 -0.027351 -0.005744 -0.011432 0.0096 -0.007392 -0.034774 -0.024556 0.012807 -0.024973 -0.046692 -0.028473 -0.021461 5.8e-05 0.031436 0.026092 0.021731 0.018653 0.018198 -0.020954 -0.002232 -0.015148 -0.009411 -0.027364 -0.024618 -0.011102 -0.019893 -0.002801 -0.001854 -0.004426 0.005632 -0.012311 -0.022759 -0.014928 0.013548 0.000896 -0.043661 -0.014975 -0.039324 0.003034 0.043075 0.003048 0.055031 0.040086 0.033893 -0.007291 0.025331 0.021112 0.031359 -0.030415 -0.010149 -0.000762 0.031026 -0.027911 -0.027111 -0.021326 0.010632 0.004706 -0.021397 -0.03203 0.02733 -0.03189 0.017197 -0.004438 -0.038257 0.026411 -0.03635 -0.016153 -0.026304 -0.000385 0.033613 0.018577 -0.030584 0.034324 -0.01354 0.001602 0.016238 -0.026868 -0.018033 -0.010809 -0.020228 -0.043158 -0.040519 -0.004751 0.028709 0.001203 -0.018396 0.030576 -0.021841 0.005623 0.038393 -0.030248 -0.03448 0.027789 -0.04596 0.006555 0.001384 -0.012063 0.018266 -0.007086 0.035053 0.022638 -0.00325 -0.005391 -0.036072 0.018325 0.016281 -0.026883 0.012138 0.029682 0.006593 0.029202 -0.035313 0.022073 -0.02541 0.021477 0.034019 -0.015944 0.007821 0.018352 -0.023637 -0.009577 -0.011815 -0.018167 0.028612 0.010726 -0.021118 -0.033048 0.01576 0.016909 -0.008755 0.006123 0.024304 -0.005153 -0.033779 0.022358 0.034331 -0.001615 0.020711 0.020218 -0.006935 0.001998 0.0136 -0.010576 -0.021636 0.024573 0.004415 0.040491 0.006078 0.025596 -0.032817 -0.020906 0.032327 -0.034412 0.00304 0.013564 0.008554 0.004678 -0.007102 0.006216 0.032164 -0.000259 0.027188 0.006491 0.002222 0.017195 0.044679 -0.014323 -0.015014 0.020885 0.018473 0.013984 0.006738 0.049095 -0.019786 -0.004737 0.015069 -0.035136 -0.00823 -0.017993 0.009419 0.040613 0.038291 0.033058 -0.00995 -0.057881 -0.028002 0.052819 0.031597 -0.01314 -0.005138 0.030583 -0.015566 0.021751 0.03222 0.031326 -0.005939 0.016822 0.033411 0.010202 -0.028908 0.010526 -0.013733 0.023961 -0.00708 0.024816 -0.028263 0.017107 0.002136 0.043379 0.037588 0.011023 -0.012575 -0.042943 -0.02669 0.003747 -0.022559 -0.0292 0.032296 -0.028906 -0.014022 0.00213 -0.032078 -0.007177 0.001123 0.016235 -0.00628 0.001209 0.018121 -0.001132 -0.029499 -0.039069 -0.033064 -0.031234 -0.009359 -0.023002 0.044188 -0.013412 -0.012372 -0.01898 -0.012891 -0.00676 0.00443 0.036123 0.015887 -0.034124 0.03218 -0.02023 -0.004267 -0.003766 0.002227 0.021472 -0.002989 -0.032583 0.017715 -0.022712 -0.012166 0.019053 -0.000173 -0.000616 0.006254 0.022781 0.026429 0.003519 0.03247 0.013936 -0.016403 -0.02033 -0.048095 -0.034241 -0.021104 0.030235 -0.034792 -0.003713 -0.009557 0.025227 0.035131 0.033547 -0.020546 0.001783 -0.037721 0.030773 -0.013899 0.003146 0.011115 -0.019654 0.00256 -0.01758 0.005716 0.041805 0.013145 -0.023505 -0.002584 0.012573 -0.006497 -0.011886 -0.015313 0.01204 -0.016479 -0.038658 0.022663 -0.015195 -0.007175 -0.006901 0.028242 0.002506 0.007858 -0.017109 -0.004779 -0.008399 -0.014391 0.010531 -0.009163 0.003679 0.024955 0.014387 0.009124 -0.01765 0.011847 0.040859 0.026197 0.030571 0.005003 -0.010628 -0.016361 0.035099 0.003336 -0.031307 0.03538 0.003754 0.033447 0.011946 -0.015216 0.000417 -0.006833 0.003129 -0.009327 0.00126 0.033151 -0.013283 0.003707 0.019764 -0.014038 0.019759 -0.010378 -0.018022 0.04121 0.009471 0.020238 0.011605 0.018607 0.029745 -0.006038 -0.007157 -0.011156 0.03053 0.011792 0.020788 0.020717 0.016952 -0.029203 0.010848 0.021557 -0.021544 0.03948 -0.00192 0.016858 -0.025347 0.008693 -0.027928 -0.005857 -0.031918 -0.003132 0.004092 0.00232 0.032154 0.005379 -0.021673 0.025785 0.0026 -0.020706 -0.007006 0.024996 -0.025269 0.014479 0.003364 0.020172 0.004736 -0.028105 0.018313 -0.025007 0.031469 -0.020538 0.003559 -0.019025 -0.012134 0.000864 -0.017028 -0.016553 -0.037975 0.036747 0.038951 -0.005666 0.027741 -0.027018 0.007145 0.021947 -0.034288 -0.02087 0.009351 0.005456 -0.019615 0.000491 -0.020162 -0.017805 -0.018394 0.018775 0.014062 0.018795 -0.025355 0.026207 -0.017712 -0.0016 -0.038326 -0.044592 -0.042439 -0.020147 0.010719 3.7e-05 0.019276 0.006636 -0.023341 0.020255 -0.010112 -0.029641 -0.005995 -0.027958 0.01837 -0.011961 -0.000124 0.003685 -0.003381 0.003186 -0.001276 0.020934 0.025335 -0.011841 -7.6e-05 0.005786 0.004235 -0.002996 0.016634 -0.015832 0.021479 0.032055 0.024987 -0.024705 -0.009952 -0.018215 0.004728 -0.02298 -0.025709 -0.032936 -0.020481 0.013608 -0.024627 -0.005016 0.025676 0.009081 0.035874 -0.013458 0.022052 0.008998 0.016318 -0.028213 -0.036098 -0.016107 -0.031668 0.007968 -0.010407 -0.0161 0.005582 -0.026703 -0.014849 -0.019874 0.029931 -0.013497 0.031001 -0.021756 0.018863 -0.035281 0.023169 0.008897 0.034803 -0.009019 -0.023481 0.039397 0.001957 -0.007477 0.044832 0.004784 0.040715 -0.034594 -0.010014 -0.008764 -0.027048 0.027313 -0.016729 0.02618 -0.005839 -0.02805 0.015928 -0.002301 -0.034195 -0.014595 -0.019221 -0.023787 -0.006509 0.005002 -0.019625 0.03307 -0.02455 -0.015118 0.002364 -0.007408 0.05379 0.05049 0.034039 0.003851 -0.004054 0.019215 -0.024955 0.016667 -0.003063 -0.027814 0.009035 0.019874 0.016113 0.000711 -0.018205 0.008348 0.022822 0.004358 0.003632 -0.009575 0.02516 0.019646 -0.026328 -0.003861 -0.012113 -0.02606 0.01163 0.032619 0.035292 0.028799 0.020249 -0.027532 0.023421 -0.049222 -0.029603 -0.031478 -0.022186 -0.028424 -0.010801 0.00502 -0.004225 0.020335 -0.034919 -0.020645 -7.1e-05 0.009115 0.014956 -0.00465 0.021194 0.019752 0.022659 0.021376 0.042346 0.020873 0.032302 0.01108 -0.000258 0.031435 -0.021162 0.012299 0.023368 -0.030095 -0.015843 0.005448 -0.010464 -0.014941 -0.018203 -0.0078 -0.013719 -0.002499 -0.026699 0.026067 -0.012446 -0.030762 0.017196 0.030193 0.005596 -0.024372 -0.020731 -0.012568 0.039904 0.033739 0.014289 0.023205 -0.002239 0.026896 -0.010948 -0.016184 -0.032493 -0.009093 0.004221 0.000778 -0.034586 0.020398 -0.018258 0.01002 0.026422 -0.0345 0.003465 -0.036048 -0.010682 0.014549 0.036556 0.027835 0.04152 0.017007 0.017428 -0.022996 0.029246 0.008455 0.015746 0.036027 0.005183 -0.001434 -0.036008 0.029409 0.003641 0.001856 0.030262 0.013031 0.023381 -0.008408 -0.02426 0.007956 -0.011588 0.02041 0.02377 -0.009347 0.002089 0.015699 -0.016838 -0.016399 0.006259 0.024315 -0.00306 -0.009284 0.022266 -0.01386 0.019597 0.017973 0.008639 -0.026555 0.019102 -0.022953 -0.029554 -0.006753 0.0267 0.010045 -0.004968 0.003473 -0.018213 0.019832 -0.00913 -0.002021 -0.00473 0.041821 0.009792 -0.003649 -0.003445 0.011336 0.010277 0.021307 -0.010715 0.033832 0.045795 0.026759 0.026186 -0.003171 0.051169 0.041569 0.008265 0.047932 0.04991 0.010609 0.016226 0.02642 -0.042086 -0.002467 -0.02148 -0.013265 0.003017 0.026822 -0.014127 0.00139 -0.033557 -0.013544 -0.031338 0.004101 -0.002748 0.033194 -0.020604 0.00896 0.018863 0.04287 0.03708 0.009021 0.045484 0.062302 0.014834 0.048905 -0.006664 0.01453 -0.02815 0.006468 -0.007715 -0.011125 0.013767 -0.038552 0.031624 0.014114 -0.005239 0.010239 -0.007265 0.027823 0.012754 -0.01127 0.023564 -0.00786 -0.000269 0.029116 -0.018651 0.024123 -0.009029 -0.001524 0.004457 0.012109 -0.034742 -0.038772 0.007611 -0.006375 -0.033548 -0.0246 0.025824 0.003466 -0.024413 -0.015508 0.021066 -0.009121 -0.002737 -0.023733 -0.001012 0.036041 0.030781 0.004004 -0.032872 -0.016865 0.014747 -0.014702 0.032977 0.03655 -0.000509 0.010175 0.008027 -0.040805 -0.006982 -0.018285 -0.057878 -0.010092 -0.019836 0.012537 -0.013328 0.007823 -0.021683 -0.031788 -0.028445 0.001266 -0.030708 -0.021645 -0.016884 -0.005068 -0.010314 0.013393 0.004317 0.01197 0.003689 -0.024835 -0.032152 -0.046868 -0.038751 -0.032428 -0.038478 -0.049064 -0.069473 -0.014293 0.014704 -0.044191 -0.009886 -0.00759 0.001006 -0.012221 0.025279 -0.017577 0.008926 -0.01725 -0.018459 0.016602 0.024721 -0.003574 -0.002236 0.02948 -0.015794 -0.00745 -0.034565 -0.03101 -0.010831 -0.021735 0.010688 0.034862 0.031947 -0.029784 0.001875 -0.02733 0.002193 0.025971 0.025642 0.033371 -0.020231 -0.009137 -0.009274 -0.012599 -0.02687 -0.030574 0.014178 0.026183 0.028801 -0.004206 -0.015629 0.015089 0.036389 -0.009574 0.007378 -0.006016 0.025072 0.007554 -0.014622 -0.004241 0.031438 -0.031996 0.032744 0.017983 0.010757 0.004204 0.005391 0.019568 0.015829 -0.002103 -0.013073 0.029908 0.016821 0.019584 -0.013908 0.007829 -0.019719 -0.01438 0.024162 0.040769 -0.02335 0.033375 0.019912 -0.009721 -0.005762 -0.020415 -0.021614 0.022534 -0.005104 -0.023308 -0.013425 -0.013857 -0.016443 -0.017052 -0.016485 -0.016394 -0.018173 -0.014404 0.009362 0.025316 0.003475 0.002166 -0.036135 -0.024016 0.031624 0.000377 0.011123 0.022047 -0.03381 0.001772 0.027681 -0.027867 -0.007055 -0.035907 0.007012 -0.010894 -0.023328 0.026887 0.004159 -0.019104 -0.016623 -0.01239 0.021789 -0.019168 0.027281 -0.010201 -0.016288 0.016755 -0.015968 -0.014822 0.022484 0.02365 -0.013344 0.007185 0.004945 -0.019713 -0.022293 -0.012569 0.013573 -0.007349 -0.03819 -0.031762 -0.005245 0.007116 -0.023946 -0.028702 0.021936 -0.031821 -0.02677 -0.010403 0.023446 -0.030359 0.028622 -0.020637 -0.013958 -0.025727 0.017481 0.000862 -0.028953 -0.004757 0.009231 -0.025235 0.011449 0.015598 0.006529 0.033368 -0.032607 0.017122 -0.007964 -0.004299 -0.018069 0.005651 -0.024743 -0.013702 0.028742 -0.032653 -0.049465 0.019165 0.023964 0.011243 0.008833 0.006085 -0.022009 0.025583 -0.018686 -0.016521 -0.042374 -0.031579 -0.000396 -0.026184 0.003545 0.006525 0.013482 0.002928 -0.02423 -0.005372 0.037524 -0.01656 -0.005139 0.023514 -0.001074 0.021957 0.012757 -0.05841 -0.042717 0.020216 -0.001521 0.02992 -0.024349 -0.026206 -0.023106 0.038947 0.002471 -0.040795 -0.025702 -0.03657 0.006949 0.023873 0.018654 0.028553 -0.020698 -0.029875 0.013213 -0.001044 0.01049 -0.008484 -0.023505 -0.002053 -0.011268 -0.022994 -0.000618 0.013929 -0.03812 0.024225 0.028978 0.000262 -0.001597 0.013435 0.010622 0.018975 -0.017075 -0.015917 -0.03114 -0.018003 -0.021481 -0.037078 -0.031189 -0.002165 -0.020789 0.017811 -0.021198 0.03624 -0.030929 -0.025669 0.025135 0.027881 -0.040207 -0.020274 -0.041317 -0.024703 -0.004608 0.023185 0.014092 -0.038908 -0.013825 -0.013275 -0.016463 -0.031392 0.020153 0.001133 0.020017 0.02398 0.002929 0.033402 -0.02941 0.023164 0.014325 -0.002302 -0.035582 0.015346 0.004698 0.029189 0.021583 0.003687 0.021777 -0.008863 -0.017238 -0.026206 -0.040037 0.016702 -0.007685 0.007796 -0.034297 0.00298 0.023618 -0.025441 -0.005083 0.022014 0.029605 0.001195 -0.012171 -0.01507 -0.010835 -0.017969 0.015608 -0.014143 -0.011656 0.026939 -0.01117 0.001971 0.00415 -0.013975 0.019482 -0.012736 -0.011391 -0.017409 -0.008353 -0.018082 0.006265 0.014743 0.018519 0.025991 -0.002794 -0.025733 -0.019263 0.017644 0.028335 -0.022744 -0.012441 -0.009207 -0.028276 0.012219 0.023259 0.002257 0.01503 -0.006093 0.053901 0.045492 -0.020587 0.026524 -0.013806 -0.00095 -0.012102 -0.009387 0.026402 -0.016699 0.004234 0.030909 -0.016092 -0.035293 -0.017126 -0.02541 -0.007723 -0.011232 0.01212 -0.018133 0.011406 0.029648 0.016199 -0.012759 -0.025462 0.009638 -0.01543 0.022228 0.04256 0.045989 0.03613 0.01684 0.030772 0.001015 -0.025373 0.014041 0.018902 0.03832 -0.018965 -0.031425 -0.028639 -0.01161 0.034303 -0.009446 0.007967 0.02241 0.016912 0.021621 0.023178 -0.014928 0.031549 0.021222 0.005764 -0.017318 -0.03804 0.00366 0.0258 0.030982 -0.003027 -0.013134 -0.013404 0.001382 0.016157 -0.00505 -0.032831 -0.035934 -0.034784 -0.005569 -0.032979 -0.01241 0.01718 0.029239 -0.024838 -0.008186 0.032972 -0.032006 0.011851 0.008417 0.001525 0.028876 -0.021493 0.008651 0.02585 0.01627 0.002731 0.011265 -0.006297 0.007066 0.024625 0.011245 0.009341 -0.03691 0.007616 0.006419 0.016161 -0.037136 0.026523 -0.003148 0.030104 -0.012827 -0.018863 0.025482 0.031623 -0.021924 -0.027528 0.00885 -0.031258 -0.024493 0.019804 0.002475 0.001464 0.026719 0.003007 -0.002161 -0.016408 0.011492 -0.023587 0.033764 -0.024917 -0.019252 -0.004635 -0.003452 0.011988 0.036771 0.037983 -0.001073 -0.001506 -0.030753 0.035764 0.005217 -0.008006 -0.02674 -0.005511 -0.021412 -0.023347 -0.011385 -0.038007 0.030227 0.026473 -0.022005 -0.009773 0.032554 0.004453 0.034809 0.028919 -0.022015 0.014526 0.005162 -0.001171 -0.034325 -0.020085 0.016946 -0.023724 -0.003741 0.003525 0.015733 0.007973 0.008176 -0.033691 0.001374 -0.031113 -0.013801 -0.022104 -0.001812 -0.034403 0.026434 0.015619 -0.007653 -0.02555 -0.022641 -0.027769 0.022904 0.021687 0.015987 -0.002674 -0.010853 -0.027072 0.040699 0.021689 0.037021 -0.011077 -0.003404 -0.004356 0.045783 0.014537 0.009857 0.001705 0.035958 0.033787 -0.004163 0.023505 0.01663 -0.000262 -0.014205 0.031947 0.019214 -0.041033 -0.002476 0.02938 0.024964 0.020105 -0.035727 -0.012566 0.01823 0.026231 0.023628 0.016877 0.029341 0.007692 -0.001371 0.024298 0.020446 0.011255 0.0162 -0.033888 -0.031078 -0.034831 -0.019517 -0.002795 -0.027343 0.019193 -0.038632 -0.011602 0.021998 0.022661 0.021675 0.024898 -0.01085 0.005392 -0.04298 -0.046708 0.019571 -0.005213 -0.015255 -0.028679 0.01326 0.032007 0.03829 0.041455 -0.031613 0.026821 -0.026982 -0.023136 0.011314 0.032905 -0.009436 0.016535 -0.029752 -0.005437 -0.035227 -0.020245 -0.032645 -0.032425 0.03154 0.046045 0.036745 0.026351 -0.025988 0.000385 0.031955 0.008531 0.028127 0.033885 0.039521 0.028514 -0.00236 -0.021445 0.019335 -0.032698 -0.022316 0.007638 -0.007783 -0.029772 -0.003049 -0.043977 -0.024043 -0.000258 0.030036 0.021006 -0.016774 -0.01226 0.004335 0.045555 0.040135 -0.000776 -0.012958 -0.021168 0.040207 -0.005651 -0.026752 -0.000501 0.027476 -0.021233 0.032564 0.017596 0.00759 0.019102 0.022586 -0.021119 -0.017192 0.00541 0.025743 0.02557 -0.034268 -0.024048 -0.041742 0.019877 0.030658 0.035983 -0.010964 0.026264 0.01736 0.017598 -0.012534 -0.017884 -0.006925 0.024985 0.038509 0.010727 -0.007805 0.020951 0.027692 0.014701 0.013242 -0.001041 -0.024388 -0.014911 -0.021068 -0.002438 0.007043 0.032757 -0.012582 0.01952 -0.028016 -0.038713 0.001819 0.03045 0.031257 0.003545 0.00634 -0.028932 0.034164 0.031617 0.027455 0.009899 -0.017841 -0.008494 0.021507 -0.020549 0.037924 -0.004014 -0.007339 0.023138 0.003345 -0.003863 0.006766 0.024265 -0.00632 0.041777 -0.010433 0.017824 -0.01524 -0.017147 0.023001 -0.00631 -0.007362 0.016705 -0.005804 -0.017449 0.033197 -0.018125 -0.005337 -0.022892 -0.023132 0.000297 -0.021378 0.006921 -0.021908 0.016248 0.018076 0.037304 -0.000607 -0.018467 0.016521 0.001055 -0.018614 0.042482 -0.030968 0.001185 -0.030427 -0.015655 -0.017215 0.039325 -0.002931 -0.019688 0.002286 -0.002525 0.031469 0.03106 -0.02462 0.020572 0.023416 -0.022091 0.00337 -0.024274 0.012409 0.00806 -0.005591 0.008342 -0.008024 -0.01863 -0.020601 -0.001352 -0.007331 0.017119 0.030827 0.028066 -0.048805 -0.034666 -0.037606 0.030609 0.015716 0.015442 0.016263 0.032755 0.025867 0.025593 0.035054 -0.030052 -0.013562 0.005156 -0.026527 0.027755 0.018436 0.020964 -0.018854 -0.010688 -0.035218 0.024525 -0.035748 -0.011503 -0.003298 0.011733 -0.023731 -0.038732 -0.049733 -0.025089 -0.001855 -0.009038 -0.013626 0.002706 -0.0408 -0.025067 -0.013534 0.025219 0.007619 0.029325 0.013788 -0.010113 0.027409 -0.022771 -0.011202 -0.028659 0.005452 -0.007456 -0.016482 -0.019113 -0.012901 0.030929 0.025678 -0.001142 -0.011093 0.007929 -0.030414 -0.034902 -0.03454 -0.011354 -0.026214 -0.020642 0.02573 -0.018492 0.03776 -0.005844 -0.027166 -0.021968 -0.015042 -0.016085 0.022787 0.019759 0.021814 0.008278 -0.033079 0.023697 0.029621 0.016052 -0.024361 0.017142 0.032881 0.010864 0.006718 0.020556 0.002275 -0.004813 0.020945 -0.028791 0.033673 -0.003271 0.0072 -4.5e-05 0.030367 0.012162 0.041175 -0.026759 0.017488 0.031465 0.001392 0.004817 0.019838 0.016263 0.017631 -0.042446 0.009853 -0.005298 0.030768 -0.029417 7.2e-05 0.023823 -0.015812 0.017499 0.023528 0.012957 0.019737 0.027221 0.003566 0.033213 -0.004432 0.012126 0.035931 0.00314 0.023789 -0.015789 0.015504 0.019753 0.010159 -0.002161 0.015996 0.024331 0.011324 -0.033192 0.023917 -0.022243 -0.027537 -0.024247 0.034247 -0.013116 -0.028867 0.032217 0.011146 0.010988 0.01674 0.03473 0.025863 0.030128 0.006264 0.020775 0.000181 0.037277 -0.010707 0.004163 -0.018985 -0.025882 0.022313 0.004927 0.004413 0.008994 -0.036449 -0.005137 0.000495 -0.009225 -0.014082 0.011232 0.004915 0.011952 -0.033509 0.014602 -0.038941 -0.02524 0.007076 0.018812 -0.002339 -0.008697 -0.045173 0.000306 -0.043288 0.003906 -0.013474 -0.019964 -0.021989 0.015409 0.029059 -0.007403 -0.021387 0.012894 -0.021421 0.02128 -0.014563 0.011839 -0.004145 -0.02336 -0.022511 -0.013263 -0.046671 -0.016134 -0.057646 -0.039696 -0.043505 0.015691 0.012533 0.013434 -0.035762 -0.035592 -0.012598 0.033123 0.034246 0.031583 -0.018997 0.003492 0.001237 0.011416 0.000533 -0.006588 0.00186 0.016246 -0.009637 0.029298 0.015936 -0.018716 -0.029611 -0.049454 -0.030757 -0.049823 -0.044774 -0.024754 0.017356 0.027768 0.021292 0.022506 0.017667 -0.008364 -0.029915 -0.008034 -0.019454 -0.034656 -0.017015 0.016206 0.033044 0.00038 0.019629 -0.017201 -0.012491 0.014721 -0.027467 0.005186 -0.045717 -0.037186 -0.036672 -0.003711 -0.049743 0.014048 -0.030046 -0.009026 -0.022883 -0.032268 -0.005258 -0.023344 -0.021938 -0.018015 0.00919 0.012478 -0.027544 0.003291 0.032457 -0.024966 0.024146 -0.012403 -0.018582 -0.026165 -0.037991 0.002952 0.017076 -0.013411 -0.009348 0.031931 -0.024734 0.030784 -0.022191 -0.007663 -0.026906 -0.04159 -0.048414 -0.03353 -0.005353 -0.011768 -0.013667 0.014549 0.030613 0.017368 -0.021575 -0.013118 0.029911 1.9e-05 0.010891 -0.010675 0.006103 0.00258 0.000831 0.01272 -0.013917 0.006619 0.018442 0.02608 -0.002606 -0.017282 -0.021102 -0.017842 0.001819 -0.03446 0.005011 -0.016322 0.00545 0.030258 0.018287 0.00331 0.004814 -0.017437 0.008834 0.019274 0.001933 0.015218 -0.022958 0.00078 0.030674 0.020703 0.00302 0.015229 0.001799 0.01048 0.002452 0.025462 0.028451 -0.004603 -0.019754 0.03369 0.003566 0.02415 -0.018949 0.014517 0.021411 0.008828 0.018959 0.045861 0.010639 0.048351 0.004926 0.022532 -0.019793 -0.030392 -0.012603 -0.046077 -0.046565 -0.022093 -0.026897 0.002024 -0.037463 -0.028973 -0.028678 0.026607 -0.025215 0.028198 0.002236 0.014175 -0.014173 -0.004191 -0.026133 -0.009627 0.011433 -0.003133 -0.008758 -0.003389 0.005113 0.03308 -0.009859 0.001121 -0.019465 -0.011133 -0.035678 -0.024477 -0.014782 -0.029854 -0.014893 -0.039219 0.008038 0.032669 0.004617 0.021138 0.028379 -0.030551 0.009899 -0.006588 0.031095 -0.018256 0.021368 0.011192 0.008582 0.002821 -0.038338 -0.037298 -0.012755 -0.003417 -0.025559 -0.010275 -0.007754 -0.000609 -0.012526 -0.018864 -0.001045 0.013674 0.034547 -0.030187 -0.02938 0.010882 -0.029053 -0.019349 0.023211 0.019722 -0.040096 -0.026647 0.001642 -0.02995 0.023302 -0.001436 0.010864 0.027443 0.014755 0.018814 0.01936 -0.014839 -0.025921 -0.017171 -0.006173 -0.000362 -0.028765 0.032012 -0.025689 0.024925 0.028311 0.013401 0.032127 0.02455 -0.025018 0.006367 -0.010857 0.026284 0.002356 -0.025092 -0.012474 -0.013696 0.014055 -0.018045 -0.012891 0.004833 0.01445 -0.018269 0.036398 -0.033324 -0.029402 -0.04355 -0.011409 -0.0357 -0.0104 0.030306 0.020268 -0.026162 0.014069 -0.024415 -0.022959 -0.010359 -0.031215 -0.03503 -0.031519 -0.01331 0.023083 0.014165 -0.013211 0.00647 0.02014 0.029965 0.016923 0.04068 0.04508 0.007869 -0.003154 -0.025302 0.016875 -0.027336 -0.028397 -0.041461 -0.028819 0.011469 -0.029881 -0.03464 0.009304 -0.010245 -0.014956 0.028649 0.005592 0.029079 0.016657 0.005507 -0.043128 0.03153 0.020257 -0.024507 0.024869 0.040881 0.037489 0.033864 0.017916 -0.010788 -0.03148 0.005051 -0.030291 -0.018894 -0.014669 0.014318 0.032143 0.016576 -0.027993 -0.005871 0.004199 -0.029112 0.016142 -0.019613 0.019115 -0.030007 -0.029887 0.006722 -0.003238 -0.021379 -0.033807 -0.012382 0.038245 0.040856 0.01682 0.040143 -0.003719 0.01609 0.001793 0.010357 -0.002627 -0.009971 -0.01015 -0.005915 -0.003074 -0.021542 0.035291 0.01205 -0.015372 0.004388 0.000803 -0.005454 -0.007072 0.034947 -0.019871 -0.032229 -0.021229 -0.012094 0.019761 -0.000207 -0.03554 0.025145 0.02866 0.028514 0.021439 -0.030835 0.000284 0.002294 0.000418 -0.019879 0.032333 -0.008319 -0.004022 0.022566 0.012404 0.028704 -0.014927 0.016398 -0.014079 -0.035259 -0.039436 0.027352 -0.010752 -0.025249 0.021322 0.029754 0.015205 0.013605 -0.006538 -0.03177 -0.023804 -0.030815 -0.024397 0.021253 -0.02408 0.025203 -0.021256 -0.008483 0.010561 -0.018684 -0.023462 -0.038082 -0.040532 -0.001982 0.03723 -0.001076 0.029867 0.010819 -0.010601 -0.025883 0.001748 -0.006325 0.02607 -0.007272 3.3e-05 -0.005971 -0.031286 0.017933 0.025436 -0.035576 0.033717 -0.005781 0.001288 -0.013588 -0.027467 0.006869 -0.02781 -0.024439 -0.023254 -0.018831 0.022452 0.02075 -0.002896 0.030031 0.008463 0.019275 0.033414 0.006371 -0.032082 -0.017475 -0.034325 0.010099 -0.023887 0.007923 -0.008528 -0.031574 -0.033644 -0.00443 -0.011643 -0.021549 -0.020215 -0.036652 -0.009776 -0.00892 -0.018061 0.023231 -0.014924 -0.02102 0.026357 -0.040444 0.014085 0.026483 0.018448 -0.009203 -0.014076 0.012219 0.008246 -0.018395 0.020305 0.026132 0.010964 0.032409 -0.027204 0.028397 0.024534 -0.032256 -0.009076 0.033694 -0.006796 -0.006225 0.042492 0.004101 -0.014926 0.035972 0.005213 0.036802 0.017145 0.024481 0.009032 0.027945 -0.022943 0.002054 0.032015 -0.026257 0.010947 -0.018858 0.033237 -0.028668 0.012844 -0.024087 0.016172 -0.010901 0.004621 -0.000636 0.019637 0.000431 0.012723 0.039466 0.025796 0.029256 0.013412 -0.001074 -0.014864 -0.020886 -0.011323 0.03177 0.038498 0.016272 0.008894 -0.002214 -0.015621 0.024996 -0.012339 -0.003486 0.005292 -0.040277 -0.034923 0.028739 -0.000622 -0.025639 -0.03024 0.001681 -0.0066 0.033933 0.030703 -0.018464 0.028196 -0.001152 0.012554 0.000182 0.027636 0.025403 0.027223 -0.017731 -0.021356 0.03374 -0.033132 -0.018077 -0.010338 -0.028484 0.011979 -0.0214 0.007852 -0.009705 -0.008235 -0.007737 -0.024107 0.006296 -0.036348 0.025319 -0.001053 -0.041936 0.002582 -0.035882 -0.015738 0.026794 0.03646 0.007025 -0.010743 -0.013236 -0.013862 -0.013536 0.007412 -0.025743 -0.03326 -0.025895 -0.026586 0.003082 0.005554 -0.023625 -0.008531 0.0207 -0.002187 0.027537 0.032148 0.008327 -0.003383 -0.005345 -0.00985 -0.040426 -0.003816 0.012467 0.003615 -0.024931 -0.02097 0.006969 0.013853 0.019948 -0.028263 0.017722 -0.036807 0.018787 -0.001724 0.016972 0.051643 0.053006 0.017119 0.024533 0.024908 0.002651 0.001045 0.015286 0.009597 0.014473 0.031001 0.001279 -0.025316 -0.008022 0.00053 0.013724 -0.003571 -0.022544 0.029493 -0.007019 0.022373 -0.012646 0.004262 0.023859 -0.005901 0.025966 0.03559 0.027718 0.035129 0.027232 0.049766 0.032462 0.042368 -0.014423 0.020646 -0.025999 0.012668 -0.032654 -0.006412 0.040721 -0.001479 0.038685 0.033089 -0.0212 -0.02995 0.031524 0.022531 0.013218 0.0165 -0.031731 0.005978 0.00269 -0.010615 0.052362 0.033526 0.050736 0.023895 0.052942 0.046262 0.034261 0.033692 0.038138 0.015532 0.003663 0.026544 -0.006362 0.033593 -0.020507 -0.004613 -0.016283 -0.015265 -0.015262 -0.024716 0.012124 -0.000105 0.005543 0.014433 -0.028508 0.016616 -0.011271 0.006484 -0.015951 0.002465 -0.012065 -0.025025 0.03981 -0.029624 0.014135 -0.006052 0.017868 0.00778 0.002664 0.014754 -0.021157 -0.006822 -0.006599 0.016155 -0.011002 -0.035401 -0.028864 -0.006901 -0.014885 -0.036194 -0.008696 0.010341 -0.004918 0.006062 0.036637 -0.024292 -0.035126 0.008924 0.003275 0.009906 0.012276 -0.049516 -0.006981 -0.040287 -0.014369 -0.028517 -0.018474 0.028661 0.025772 -0.013756 0.002658 0.019752 0.019644 -0.025199 -0.014967 0.025978 -0.013257 -0.016963 -0.004362 -0.011027 0.010105 -0.018586 -0.012622 0.022007 0.029468 0.013274 0.004993 -0.000631 -0.020577 0.029546 0.024367 0.027366 0.01666 0.001639 0.019184 -0.004208 0.00602 -0.017555 0.010035 0.014614 -0.019145 0.010148 0.011502 0.009829 -0.011288 -0.025604 -0.022505 -0.018576 0.011391 0.035414 -0.01644 0.014033 0.007576 -0.040224 -0.017297 0.018539 -0.022033 -0.011153 -0.017847 0.005255 -0.004005 0.009145 -0.025539 -0.020683 0.034999 0.031831 -0.023219 -0.037303 -0.026606 0.006697 -0.026722 0.013151 -0.018843 -0.008821 -0.000981 0.040239 0.012863 -0.007687 -0.049195 -0.010565 0.00845 -0.031133 0.021954 -0.019805 0.032812 0.025597 0.00367 -0.022 0.011781 -0.004174 -0.033409 0.038997 0.007919 -0.000212 -0.03055 -0.001937 -0.039825 -0.01244 -0.021971 0.01508 -0.015031 0.041605 0.011353 -0.019838 -0.028423 0.015619 -0.006106 -0.03491 -0.017531 0.024542 0.004479 0.017361 0.031943 -0.028674 0.020487 -0.00854 0.027247 0.013978 0.008309 0.001479 -0.020924 0.02585 0.000987 -0.040113 0.007158 -0.026928 0.006945 -0.026091 -0.029659 2.4e-05 -0.004811 -0.022778 -0.035124 -0.041272 -0.026166 0.034691 -0.030758 0.025811 -0.015418 0.001245 -0.014901 -0.040363 -0.052042 -0.03524 -0.010084 -0.00257 0.021557 0.040598 -0.003889 0.021784 -0.042191 -0.007864 -0.024566 -0.006169 0.005668 -0.034914 -0.033573 0.015659 0.027176 -0.012406 0.016636 -0.026462 -0.01301 0.013551 0.027073 0.01281 0.000138 -0.017557 -0.049039 -0.013119 -0.029611 -0.032683 -0.018414 0.019006 0.046371 0.010004 0.024923 -0.008206 -0.0239 -0.034703 -0.038334 -0.023469 0.015309 0.001847 -0.031643 0.030207 0.005811 0.006411 -0.003814 0.028796 0.015173 0.005015 0.030541 0.028163 -0.018184 0.027363 -0.000934 -0.01207 0.018456 0.008292 0.0128 0.039961 -0.01892 0.010184 -0.014896 -0.019569 0.008383 -0.039415 0.021469 0.027707 0.029179 -0.00057 -0.027159 0.017553 0.002044 -0.011205 -0.018015 0.010578 0.011148 0.014297 -0.00662 0.012959 -0.037361 -0.034994 0.003196 -0.019757 -0.015725 0.01967 -0.050835 -0.036638 0.011022 -0.012173 -0.033012 -0.04565 -0.015331 -0.01731 -0.038282 0.020862 0.027765 -0.02683 0.017522 -0.002914 -0.019133 0.022626 0.014516 0.023548 -0.024749 -0.002423 -0.011668 -0.02536 0.019976 -0.006042 0.000968 3.7e-05 0.00934 -0.016248 -0.048918 0.002927 0.029585 0.004686 -0.022749 -0.001916 0.029124 -0.023509 0.004234 -0.012543 -0.022962 0.004239 0.026607 -0.00229 -0.000199 -0.018611 0.026542 0.024015 -0.015309 -0.004165 -0.017477 0.007253 0.027478 -0.017645 -0.026322 -0.023411 -0.023326 -0.005715 -0.005701 -0.003882 0.029238 -0.028061 -0.016718 0.007595 0.026078 -0.021878 0.010708 -0.026064 -0.022556 -0.012492 -0.003959 0.014503 -0.006022 -0.029282 0.025989 0.011009 0.008224 0.037482 0.017329 0.013535 0.002538 -0.008795 0.0219 -0.031882 -0.03499 -0.000369 0.026533 -0.025432 0.022243 -0.022419 -0.024141 0.016645 -0.016467 -0.005146 -0.00993 -0.039814 -0.039139 0.002494 -0.024819 0.01723 -0.002317 -0.047636 -0.00871 0.006996 0.038335 0.043046 0.029433 0.026905 -0.038001 0.020239 0.007605 -0.044866 0.022508 -0.016437 -0.027519 -0.03035 0.027877 0.023363 0.023151 -0.032181 -0.006278 -0.005176 0.012937 -0.014664 -0.010579 -0.022918 0.017314 -0.000926 0.020093 0.004452 0.0081 0.057222 0.046793 0.029203 0.039286 -0.031983 -0.041347 0.016497 -0.046921 -0.019296 -0.000403 0.012934 0.035364 -0.00392 0.001694 0.01751 -0.030296 0.035677 0.006102 -0.002117 0.019875 0.01359 0.021482 0.005318 0.007949 0.000392 0.009952 0.042715 0.022521 0.011344 0.010268 -0.002141 -0.011105 -0.03554 -0.016058 -0.007046 0.026638 0.025097 -0.00338 -0.025297 0.018828 -0.033542 -0.0501 -0.03412 -0.01393 0.029436 0.044284 0.031845 0.017273 0.010551 -0.014888 -0.033407 -0.014938 -0.039551 0.012414 0.022011 0.01307 0.014204 0.021445 0.020215 -0.020168 0.001778 -0.013687 -0.000828 -0.005034 -0.01508 0.00224 -0.032416 -0.002068 -0.04803 -0.024488 -0.035109 0.010144 0.030138 -0.000176 0.007205 0.004077 -0.011118 0.000449 0.036559 0.029079 -0.001726 0.033173 -0.016457 0.001684 -0.000115 -0.018249 0.009201 0.01644 0.001079 0.023344 -0.04079 0.001508 -0.033246 0.003492 0.00075 -0.035563 -0.000361 -0.048549 0.012403 0.030929 0.038709 0.008078 0.03166 0.026231 -0.001866 -0.010695 -0.00858 0.023874 -0.032214 0.006087 -0.012725 0.004241 -0.023747 0.029206 -0.032534 -0.027181 0.028803 -0.004284 -0.00599 -0.040545 -0.031191 -0.002366 -0.031968 0.013027 0.010157 -0.002791 0.029397 0.032132 0.025922 -0.029453 0.009358 -0.033456 -0.037686 -0.027665 -0.015317 0.022929 -0.017362 -0.014091 0.040977 0.032463 -0.010525 0.019806 0.010436 0.007184 0.011762 -0.024937 -0.002564 0.000103 -0.017954 0.024771 -0.02372 0.024011 0.023057 -0.014293 0.034554 -0.022747 -0.036295 -0.022422 0.038093 0.020184 -0.036668 0.019587 0.004489 0.012896 0.00508 -0.019722 -0.004541 -0.029549 0.025459 0.015613 -0.023562 -0.003971 -0.027435 -0.019321 -0.005571 0.001731 0.011416 -0.013698 -0.028293 -0.030331 -0.026563 0.020537 0.027998 -0.018158 0.022284 -0.028286 -0.019001 -0.03273 -0.027611 0.023476 0.035613 0.006606 0.030815 0.008907 -0.017449 -0.028976 -0.020486 0.013651 -0.022962 0.019322 -0.010524 -0.035881 -0.026455 0.024696 0.020486 0.038275 0.014156 -0.003454 -0.011485 -0.006448 0.03152 0.008979 0.018435 -0.013366 0.028647 -0.014118 0.021751 0.002923 -0.029488 0.00131 -0.024934 0.013793 -0.021199 0.007988 0.016952 -0.033827 0.01389 0.025487 -0.015607 -0.024284 0.03382 0.004282 0.000629 0.033934 0.029243 0.002551 -0.014708 -0.017366 -0.009228 -0.015688 0.016652 0.0064 0.020894 -0.022175 0.001143 -0.009475 0.030908 0.011179 -0.016885 0.037895 -0.025208 -0.006499 -0.032738 -0.030862 -0.044258 0.024018 -0.015873 -0.018323 -0.020983 0.017667 0.039475 0.004547 0.035932 0.006917 -0.029489 0.015967 -0.026558 0.028001 0.005526 -0.028279 -0.030635 -0.005583 -0.000114 0.022385 0.016985 0.013555 -0.01364 -0.005897 0.016053 0.002225 -0.033462 -0.031389 0.010735 -0.038093 -0.024775 -0.004118 -0.036063 0.012113 0.01889 0.024493 -0.00181 0.014532 -0.015126 0.006411 -0.005777 0.040246 -0.018926 -0.03509 -0.03898 -0.001363 0.022462 0.022147 0.019381 0.030613 0.03201 -0.009264 -0.011009 -0.031372 0.018168 -0.013461 -0.023233 -0.007164 -0.017011 -0.014437 0.007713 0.008534 -0.010828 0.031755 0.020239 -0.004087 -0.014769 0.017031 0.001109 0.03257 0.018357 -0.023047 0.02096 -0.038702 0.001765 -0.01657 0.044819 0.01325 0.001165 0.000108 0.018359 -0.00407 -0.01557 -0.000279 -0.027097 0.011076 -0.021568 -0.021466 -0.029782 -0.012413 0.023031 0.02711 -0.030821 -0.001032 0.0049 -0.028749 -0.014142 0.036988 0.005196 -0.034718 -0.033844 0.006448 -0.006658 0.03514 0.000326 -0.019241 -0.009265 -0.027174 -0.03618 0.014006 -0.018914 0.023348 0.03357 -0.009682 0.003209 -0.026937 -0.016377 0.031134 -0.005146 -0.01421 -0.033107 0.026596 -0.014457 0.027752 0.002357 0.011545 0.001756 0.014423 0.003428 -0.024677 0.012898 -0.030292 0.010635 0.019403 -0.01103 0.015379 -0.013721 0.023082 0.009132 0.004033 0.034019 0.025579 -0.003439 0.016939 -0.014801 -0.018878 0.016094 -0.011292 -0.035325 0.006651 0.013952 0.027016 -0.029109 0.033541 0.039318 0.012938 0.002651 0.025528 -0.029718 0.013086 -0.018943 -0.009621 0.029307 -0.001172 0.020101 -0.009607 0.022977 -0.005986 0.002441 0.020254 -0.030128 -0.042362 -0.048201 -0.025029 -0.019037 -0.010322 -0.005188 -0.02831 -0.029642 0.033615 -0.021965 0.002568 -0.023051 0.012263 0.025318 -0.00092 -0.010534 -0.022871 -0.034467 -0.029479 -0.00755 -0.015845 0.001633 0.001669 -0.014123 -0.007579 -0.031861 -0.029448 0.012294 0.015878 0.021384 -0.017637 0.009569 0.015835 -0.017705 0.017352 0.026428 0.013651 0.027622 -0.00496 -0.026181 -0.019632 0.006654 -0.027061 0.022628 0.014497 -0.001705 -0.027895 0.003827 0.012587 0.005356 0.029293 -0.003207 -0.000946 -0.032145 -0.024153 -0.015535 -0.033676 -0.019887 -0.003206 0.006732 -0.010031 -0.0344 -0.000977 -0.027377 -0.035921 -0.014552 -0.024728 -0.023119 -0.016835 0.004649 -0.008096 -0.018626 0.024153 -0.005613 0.019516 -0.032613 0.025898 0.015015 0.0089 -0.024922 0.041718 -0.003227 0.021241 0.010176 0.016901 -0.012455 -0.005264 -0.006126 -0.010887 0.021476 -0.026404 0.030698 0.01959 -0.009456 0.031509 -0.035234 0.005683 0.016784 0.034274 0.009342 -0.008476 0.010439 -0.00524 -0.029322 -0.008147 -0.007231 -0.01493 -0.005782 -0.027887 -0.023542 0.021996 0.009087 -0.002656 0.018178 0.025599 -0.017085 0.022209 0.019664 0.007218 -0.025499 -0.006746 0.006657 0.002149 0.026357 -0.032008 -0.01949 -0.005955 -0.000675 -0.000924 0.016709 0.011274 0.019299 -0.052543 -0.014774 0.024713 0.033542 0.004078 -0.005791 0.040976 0.007599 -0.00917 -0.019893 -0.029934 -0.021157 0.009992 -0.017134 -0.025541 0.013863 0.017962 0.005132 -0.033207 0.031402 0.02963 -0.000348 0.010414 -0.024177 0.037077 0.035255 -0.034715 -0.022511 -0.031299 -0.028019 -0.031213 0.034786 0.012812 0.004042 0.022865 0.013677 0.004129 -0.007744 7.3e-05 0.023567 -0.008051 0.01525 -0.001669 -0.020883 -0.01696 -0.034395 -0.01537 0.009127 -0.020293 0.021939 -0.009749 -0.006639 0.037114 -0.027362 -0.000723 -0.024331 -0.020309 -0.02656 0.020365 0.038965 0.039811 0.004143 0.017008 -0.025502 -0.013487 -0.010194 -0.028069 -0.006279 0.028304 0.006501 0.014402 -0.024162 -0.023376 -0.016995 0.034846 -0.024829 0.036758 -0.018907 -0.00021 0.017452 0.029817 0.0202 0.019655 -0.026783 0.004519 0.014219 0.000245 0.043369 0.014788 -0.013489 -0.0388 -0.028094 0.001457 -0.034812 -0.021933 -0.006519 -0.01198 -0.032719 -0.019996 0.018147 -0.00842 0.026 0.000835 0.02685 0.009646 0.011985 -0.029535 -0.012037 -0.031858 -0.007841 -0.010403 -0.036897 -0.019419 0.006625 0.012335 -0.011613 -0.023334 0.02586 -0.029208 0.037975 -0.025646 -0.005494 0.021388 0.010749 0.042471 -0.01214 -0.009388 0.031567 0.01051 0.0306 -0.028083 0.023826 -0.027097 -0.02769 0.042691 0.025995 -0.022528 -0.01958 0.014301 0.001966 -0.001125 0.024678 0.011673 -0.00951 -0.032737 0.031228 0.025153 0.034491 0.040117 0.01599 0.018134 0.008758 0.011306 -0.015311 0.031355 0.02476 0.022874 0.019367 0.029593 -0.039342 0.006718 -0.01964 -0.016749 0.012079 0.004158 -0.016664 -0.019606 0.023921 -0.032504 -0.025613 0.010057 0.030853 0.004623 -0.034734 0.011966 0.021956 0.016198 0.028296 -0.010794 -0.017329 -0.029511 0.022525 0.021466 -0.015158 0.030479 0.038928 0.011393 -0.032841 -0.039808 -0.007293 -0.008372 0.003071 -0.025841 0.015163 -0.001438 0.02041 0.032604 0.00353 -0.000993 -0.01796 0.013988 -0.021652 0.011901 -0.003798 -0.031428 -0.005565 0.013453 -0.033396 -0.014787 -0.003414 0.027146 -0.023814 0.010339 -0.019702 0.025584 0.021293 -0.034395 -0.010302 0.016688 0.034581 -0.023671 -0.002276 0.027661 -0.004567 0.008635 0.027299 -0.016014 0.010167 0.033726 0.031378 -0.013306 -0.00632 -0.006236 -0.027715 -0.023985 0.007964 -0.015122 -0.025456 -0.036496 0.0049 0.004767 0.01283 -0.003898 -0.01143 0.029884 -0.030415 0.03559 -0.02976 0.019205 0.035661 -0.018928 0.029 0.006942 0.019726 -0.005983 0.008174 -0.000898 0.010791 0.007554 0.03156 0.011866 -0.028322 -0.029618 0.016881 -0.017802 -0.028572 0.032436 -0.033217 0.00671 -0.023254 -0.013607 -0.005506 0.02744 -0.027118 -0.025919 -0.019415 -0.020783 0.032997 0.040917 -0.023431 0.013251 0.014647 -0.018786 -0.020573 0.025271 -0.00675 0.016588 -0.012697 0.014586 -0.004564 -0.030118 -0.034471 0.02469 0.029446 -0.001026 -0.011367 -0.023826 -0.018797 0.015663 -0.022494 -0.015027 -0.010688 -0.031175 -0.04243 -0.011885 0.024635 -0.01979 0.005051 0.031966 -0.00119 -0.012648 -0.001723 -0.014111 -0.018545 0.018873 0.021259 0.005457 0.010512 -0.015159 -0.010981 -0.019172 0.026368 -0.033711 0.003581 -0.019633 0.002163 0.031432 0.014974 -0.022071 -0.01916 0.037293 0.025222 0.024509 -0.012698 -0.002898 0.0245 0.015642 -0.006145 -0.012725 -0.009998 0.026471 0.017809 -0.015217 -0.009835 -0.02435 -0.034564 0.002015 -0.041177 -0.010308 -0.036594 -0.00541 -0.016693 -0.003944 -0.027962 0.014017 0.002525 0.002434 0.022949 -0.021046 0.01012 0.020137 -0.013535 0.027002 -0.019239 -0.02707 0.016095 0.028636 0.017777 0.03963 0.029437 -0.003082 -0.0199 -0.028864 0.016296 0.013283 -0.011061 0.015287 0.03476 -0.028073 0.032894 -0.027485 -0.015767 0.011326 -0.012124 -0.012164 -0.038948 -0.038005 0.020493 0.014236 -0.014169 -0.036078 -0.03751 0.007304 -0.021388 -0.003808 -0.004362 -0.0021 -0.015767 -0.031958 -0.004849 -0.023045 0.013367 -0.009627 0.021514 0.024105 0.016238 -0.012677 0.037268 -0.008947 -0.015484 -0.012303 -0.036992 -0.040338 -0.031989 -0.027029 0.001938 -0.015199 -0.007752 -0.017267 0.006757 -0.032543 0.009764 -0.003429 -0.027176 -0.011161 0.014481 0.023599 -0.022122 0.021133 -0.022122 0.012178 0.023273 0.013549 0.011589 -0.015172 -0.010438 -0.021748 -0.020523 -0.042558 -0.020123 0.016713 0.020929 0.014302 -0.019657 0.010973 0.014528 -0.00604 -0.004556 0.024535 0.008681 0.02779 -0.034626 -0.001435 -0.002377 -0.025096 0.010226 -0.002921 -0.013308 -0.022195 -0.00543 0.017118 0.009704 -0.035332 0.012585 0.019901 0.015648 0.002728 -0.039498 0.017516 -0.003029 -0.001934 -0.020706 -0.024715 -0.006121 0.035453 -0.014069 -0.027665 0.030348 -0.035217 0.012293 -0.024339 -0.021971 -0.03584 0.024261 0.019478 0.014486 -0.005898 -0.007183 -0.031319 -0.001951 -0.035336 0.004964 0.01963 -0.037834 -0.035487 0.009934 -0.03332 0.016179 -0.033426 0.00477 -0.030744 0.030054 0.031802 0.026853 0.026902 -0.012116 -0.030073 0.004573 -0.027163 -0.045826 -0.053223 -0.054385 -0.035202 -0.042991 -0.058106 -0.031562 -0.021884 -0.0273 -0.024482 -0.012152 0.030506 -0.023477 -0.014998 -0.030466 -0.005107 -0.009894 0.021194 0.014484 0.028563 0.025702 -0.02341 -0.018027 0.030951 0.001655 -0.025036 -0.025142 -0.021392 0.02052 -0.025216 -0.020288 -0.04769 -0.058869 -0.025389 -0.012745 -0.035649 -0.013332 -0.038857 0.010259 0.002951 0.027769 -0.021048 -0.014355 0.003404 -0.005253 -0.007823 0.02656 0.003278 -0.032411 -0.018389 0.017149 -0.008249 -0.023143 0.006978 -0.005361 -0.042191 0.015459 -0.037489 0.014392 0.001387 0.042514 0.015689 -0.041235 -0.040939 -0.044218 -0.034176 -0.044679 -0.007533 0.029365 -0.022637 -0.031823 -0.000782 0.000852 0.004511 -0.03375 -0.02903 -0.019069 0.004278 -0.002797 0.022065 -0.036665 -0.035559 0.019404 -0.007244 -0.032752 0.008104 0.019471 0.029409 -0.010536 0.002441 -0.003668 0.022608 0.018959 -0.040365 -0.047544 -0.008069 -0.010136 -0.014 -0.01604 -0.026159 0.004883 0.011518 0.026473 0.004699 0.007595 0.016168 0.007733 -0.033237 0.014107 -0.052319 -0.005579 -0.028047 0.012459 -0.005114 0.018652 0.039053 0.023523 0.04061 0.00103 -0.025407 0.035281 -0.009387 0.016915 -0.030956 -0.003112 -0.024843 -0.005648 0.005181 -0.035237 -0.014456 0.044151 0.056329 0.021384 -0.027694 0.000459 -0.047923 -0.006165 -0.043132 0.016517 -0.019052 -0.026959 0.017512 -0.014632 0.01979 0.004755 0.000259 -0.030502 -0.001705 -0.033913 -0.010407 0.009864 0.024512 0.017821 -0.01519 0.005525 0.003686 0.021257 0.008194 0.060113 -0.015865 -0.02323 0.027373 0.013582 -0.024799 -0.027501 -0.027749 -0.032566 -0.006208 0.024003 0.019325 -0.030632 -0.023749 -0.018228 0.023102 -0.022929 0.017134 -0.007472 -0.027248 -0.013477 0.00113 -0.033026 -0.029824 -0.007754 0.025047 0.041493 0.027847 0.046517 -0.009668 0.00829 0.016998 -0.042533 -0.037095 0.017181 -0.015681 -0.019288 -0.00173 0.027689 0.004671 0.015111 0.029429 -0.02743 0.031763 0.011212 0.030193 0.028655 -0.012458 -0.01672 -0.021203 -0.045953 0.004688 0.027197 0.002684 0.00828 -0.010099 0.003913 0.013378 0.027164 0.024319 0.006898 -0.02094 -0.021241 -0.020062 -0.016304 0.007118 0.003275 0.021915 -0.010144 -0.022359 0.028036 -0.019028 0.001739 0.004901 -0.018695 0.001797 -0.01624 0.00885 -0.021117 -0.027105 0.021557 0.01847 0.019441 0.044418 -0.003452 0.019164 0.043466 -0.022017 -0.034626 -0.031014 -0.000236 0.00993 0.023719 -0.037222 -0.020072 0.001815 -0.020762 0.015177 -0.013838 -0.00232 -0.015185 -0.003444 -0.02011 -0.013957 -0.020496 0.02164 0.004693 -0.016504 0.00155 0.040902 -0.001458 0.021279 -0.003492 -0.02221 0.001944 -0.026545 -0.031168 0.003851 -0.023082 0.025128 0.014819 0.022252 -0.000529 -0.037327 -0.035834 -0.007288 -0.009668 0.036878 -0.002591 -0.041478 0.007738 0.025292 0.007858 -0.021744 -0.023488 0.01089 0.006576 -0.023195 -0.027763 -0.016718 0.008687 -0.00691 -0.001254 0.008128 -0.033226 0.00449 0.012963 0.003598 0.027691 0.014214 0.020032 0.023911 -0.004752 0.025816 0.02172 0.028639 0.002118 -0.041726 -0.004133 0.009156 0.021164 0.016963 0.019951 -0.014978 0.019675 -0.017143 0.004041 0.002594 0.03099 0.00432 0.002756 0.01554 0.021775 -0.007355 -0.023505 0.024289 0.01874 0.000201 0.040011 -0.041817 -0.000531 -0.028464 0.049829 -0.00784 0.002335 0.009268 0.02981 0.000918 -0.017677 0.042005 -0.011452 -0.019594 -0.019722 0.029434 0.023026 -0.014628 -0.013831 0.001471 0.00338 0.02843 0.01313 -0.030434 0.020354 -0.02486 0.021943 -0.026596 0.047653 -0.017119 0.004557 -0.003352 -0.011206 0.021644 -0.00116 -0.013972 -0.025763 -0.017833 -0.034427 0.023567 -0.023832 -0.005864 -0.036449 -0.016473 -0.00815 -0.014121 0.008576 -0.023961 -0.012512 -0.022881 -0.004142 -0.006529 -0.010147 -0.021976 0.002867 0.028777 0.008045 -0.005483 0.024692 -0.002288 0.015017 -0.001874 -0.00107 -0.024072 -0.017939 -0.00851 0.011003 0.032886 0.002603 0.026671 -0.021086 0.012766 0.001619 -0.008616 0.036967 0.028395 -0.042248 0.017771 0.008196 -0.008982 -0.033387 -0.019275 0.008035 -0.00028 0.025053 0.007371 -0.002506 0.027722 0.023939 0.003301 -0.006716 0.011316 0.001148 0.021953 -0.009511 -0.007452 0.01276 -0.018861 -0.037983 0.004348 -0.028152 0.020424 0.011864 -0.014116 0.001009 0.024404 -0.021158 -0.017054 -0.032294 0.00098 -0.019829 0.027862 -0.014728 -0.036437 -0.011723 -0.009546 0.020472 -0.023891 0.003253 -0.00318 0.029519 -0.016585 -0.014888 0.025654 -0.036233 -0.010586 0.006534 -0.026784 -0.024225 0.019514 0.006081 0.014304 -0.000224 0.005027 0.020644 -0.000708 0.014858 -0.024955 -0.013419 0.005918 0.008363 -0.024282 -0.009297 0.006152 0.03374 -0.013255 0.012931 0.010808 0.012873 0.01639 0.032867 0.022596 -0.018993 -0.019707 -0.023901 -0.02265 -0.029012 -0.003151 -0.0054 0.001947 -0.019968 0.022583 0.00052 0.023353 0.032445 0.003159 0.018328 0.02729 -0.020453 0.013504 0.006505 -0.002238 -0.003158 -0.026498 -0.03953 -0.032243 0.000262 0.004124 -0.001148 0.044478 -0.002309 0.009286 0.007185 -0.016997 0.009648 -0.031212 -0.01506 0.016212 -0.004232 0.016997 -0.00796 0.019681 -0.028978 -0.014563 0.012426 -0.016322 0.010371 0.008659 0.030023 -0.008335 0.012132 0.01303 0.005444 -0.03544 -0.001815 -0.021792 0.023883 -0.002199 0.014722 -0.01451 -0.010658 0.01907 -0.035807 0.029243 0.030335 -0.012181 0.015514 0.010967 0.023744 0.00906 0.019787 0.018726 -0.024097 0.029264 -0.024404 0.019377 0.020611 0.035422 0.008195 -0.029694 0.001555 0.013154 0.024181 -0.028181 0.013723 -0.023997 0.021078 -0.034059 -0.03357 -0.036735 -0.00678 -0.03288 -0.014359 -0.002611 0.010231 0.009562 0.018771 0.028562 0.013333 -0.02829 0.029726 -0.026181 -0.007481 0.035433 0.014263 0.009067 0.005666 -0.026799 -0.004041 0.034327 0.022462 -0.036554 -0.02315 -0.013571 0.023268 0.010419 0.005455 -0.000539 0.014399 -0.009087 0.000619 -0.024779 -0.019931 0.033651 -0.001159 0.016357 -0.002074 -0.025317 0.025577 -0.018664 -0.012825 0.032275 0.017612 0.025966 -0.033966 -0.029514 0.019482 -0.018327 -0.023606 0.035669 -0.00667 -0.026952 -0.024962 -0.005928 -0.002679 0.004642 0.020526 -0.008162 -0.00815 0.025549 0.030191 -0.016424 -0.008643 0.026288 -0.02023 0.026917 0.009463 0.050472 0.031065 0.016636 0.001769 0.023964 0.039767 -0.011804 -0.013488 -0.005629 -0.036855 0.006352 -0.01227 0.020812 -0.005157 0.026393 -0.018062 -0.032165 -0.025036 -0.007139 -0.00958 -0.026691 -0.004341 -0.013338 -0.024379 -0.039342 0.008956 0.013162 0.034312 0.041849 0.028956 0.000901 -0.016909 0.018984 -0.013234 -0.027331 -0.011874 0.008238 0.007325 0.028472 0.025187 0.013644 -0.030451 0.022322 -0.006759 0.024019 -0.010417 -0.022462 -0.029375 0.021269 0.009342 -0.021656 -0.035854 -0.020236 0.01749 -0.016154 0.015751 0.021122 -0.00061 0.011617 -0.030688 -0.027477 -0.029982 0.015795 -0.020743 -0.013049 0.02942 0.027397 0.01537 0.018227 0.017615 0.005137 -0.025102 -0.017394 0.026268 0.027698 -0.020494 0.004598 -0.033071 -0.030298 0.026361 0.031727 0.04357 0.020585 -0.033829 -0.017374 -0.011974 -0.037611 0.006349 0.035437 -0.007806 0.026276 -0.022192 -0.010305 0.010827 -0.021134 0.005575 -0.025593 -0.028331 -0.028932 -0.037562 0.028686 0.020449 -0.011431 -0.032214 0.016777 0.004554 -0.004538 0.011596 0.004996 0.03901 0.014196 0.004419 -0.017172 -0.004311 -0.020013 0.022402 -0.002918 -0.038017 -0.005075 -0.023135 -0.046392 -0.036879 -0.020151 0.027568 -0.012707 0.000879 -0.037976 -0.051517 -0.032181 -0.017098 -0.031643 -0.039699 0.002267 -0.038192 0.021342 -0.027977 -0.009402 0.026604 0.028985 -0.02872 0.020236 -0.010507 0.002506 -0.018927 -0.020485 -0.006541 0.021688 -0.039677 -0.028356 -0.005903 -0.001655 0.024632 0.043181 0.005958 0.011437 0.007533 -0.038487 -0.017016 0.027442 -0.035521 -0.047888 -0.047949 -0.028692 -0.002024 -0.030467 0.021447 0.018324 0.023798 -0.012293 0.02015 0.009037 -0.017275 0.009304 -0.028142 -0.027771 -0.004891 -0.033863 -0.019413 0.029673 0.012521 0.013479 0.026055 0.017864 0.028317 0.014248 -0.001323 -0.031461 -0.042191 -0.008005 0.000971 0.001491 -0.01627 -0.005928 0.002683 -0.029156 0.021119 -0.009425 -0.016795 0.03443 0.00284 0.027674 0.023338 0.006281 -0.026994 -0.029352 -0.007242 0.010671 0.032224 0.011197 0.014731 0.039298 0.034779 0.019145 0.003259 0.000339 -0.014952 0.005367 -0.015743 -0.006501 0.014099 -0.035689 -0.023647 0.026421 -0.00693 0.02857 -0.029055 -0.031771 -0.007155 -0.038159 -0.017491 -0.03725 -0.036057 -0.045521 -0.022472 0.031169 -0.001213 -0.007803 -0.013739 -0.01169 -0.023899 -0.025234 0.028029 0.046073 0.004044 0.026461 -0.028159 0.022423 -0.006153 0.010529 0.020754 0.030994 -0.023974 0.015721 -0.024321 -0.027585 0.010536 -0.035608 0.011488 -0.019005 -0.009917 0.013646 -0.030186 0.005727 -0.029633 -0.002358 0.024813 0.01798 -0.02711 -0.004197 -0.009242 0.002551 -0.017309 -0.035978 0.034766 -0.002503 0.011421 -0.016434 0.009281 -0.014132 0.001428 -0.037535 -0.048477 -0.04615 -0.042114 -0.045008 -0.026519 -0.027319 -0.028999 -0.023701 -0.032239 0.002015 -0.025036 0.020588 -0.028706 0.018067 0.008116 0.018981 -0.003287 0.007641 0.012421 -0.036288 -0.026195 -0.03867 -0.004832 -0.015615 0.001059 -0.060615 -0.043364 -0.052009 -0.031884 -0.021109 -0.054056 -0.046109 0.014224 -0.020812 -0.046585 0.00167 -0.037771 0.015503 -0.030169 0.000879 -0.02235 0.027305 0.031943 -0.026537 -0.015741 -0.017635 -0.021834 0.027856 -0.02187 -0.019401 -0.030544 -0.047501 -0.055963 -0.024058 -0.040768 -0.033381 0.007238 -0.006216 -0.001173 -0.032596 -0.0006 -0.021977 -0.054653 -0.04516 -0.034736 -0.042133 -0.039083 0.004373 0.002522 0.004638 0.015707 0.017143 0.029919 -0.011139 -0.033633 -0.009876 -0.014256 -0.046212 -0.027022 -0.06017 -0.0675 -0.031027 0.006925 -0.029768 -0.022806 0.004343 -0.03304 -0.016303 -0.018247 -0.018312 0.012717 -0.033203 -0.026242 -0.019593 0.009767 -0.035607 -0.031692 -0.001056 -0.011108 -0.028316 0.015334 -0.03718 0.01658 -0.005332 -0.042049 -0.025588 -0.008293 0.012349 0.007344 -0.017435 -0.019964 -0.033137 0.006119 0.007274 0.033848 0.028132 0.028537 0.022974 0.007405 -0.01177 0.022435 -0.012946 0.030513 -0.019023 0.007439 0.013454 -0.039307 0.012102 -0.04503 0.004583 0.005691 0.014286 0.002818 0.022186 0.006697 -0.02473 0.026578 0.001694 -0.025369 -0.007486 -0.041187 0.017437 -0.026715 0.007691 -0.035769 0.029659 -0.021997 -0.011876 -0.02557 0.005853 -0.006597 0.024642 0.022757 0.000926 0.031522 -0.015456 -0.016708 -0.010448 -0.010181 -0.019888 0.026987 -0.015548 -0.015703 0.01133 0.019929 -0.030687 -0.014588 -0.005603 0.024569 0.027477 0.028322 0.025787 -0.003334 0.018326 0.00957 0.012876 -0.00471 0.015147 -0.020466 -0.003892 -0.036627 -0.014035 0.010425 -0.010926 0.027496 -0.010358 0.04751 0.022285 0.03804 0.002879 0.031171 0.005239 0.023755 -0.030394 0.032508 -0.010715 0.017857 0.003816 -0.014891 -0.001152 0.00023 -0.023976 -0.027813 -0.020722 -0.000709 0.000979 -0.034519 -0.030148 -0.025215 -0.018503 -0.022119 -0.015421 0.008127 0.01567 0.037015 0.033618 -0.015371 0.000924 0.006933 0.036482 0.032791 -0.03389 0.000472 0.011377 0.02294 0.036216 0.003251 0.02612 -0.041951 -0.054873 -0.011232 0.037099 0.037088 0.079324 0.03827 -0.008466 -0.032226 -0.042526 -0.044815 -0.010192 0.017828 0.031254 -0.026007 0.022417 0.010706 0.011633 -0.026794 0.027384 -0.032478 -0.032426 -0.028405 0.040024 -0.004447 -0.009082 -0.006317 -0.031066 -0.04774 -0.022527 -0.026025 0.030953 0.047825 0.041506 0.006572 -0.042972 -0.025713 -0.038093 0.000401 -0.044895 0.027605 -0.02027 0.011726 -0.008435 -0.006605 -0.007364 0.034205 0.019625 0.001572 0.000855 0.004282 0.033208 0.011679 0.036872 0.004678 0.006429 0.004621 -0.057473 -0.011083 0.037655 0.066104 0.027984 -0.03129 0.006811 -0.035129 -0.027468 0.005775 -0.011703 0.006477 0.006237 -0.027053 0.019597 0.032479 0.037129 0.032899 -0.034704 -0.020159 -0.016154 -0.033557 -0.008418 0.007911 -0.020453 -0.00727 0.020611 -0.002148 -0.012585 0.02242 0.042742 0.017446 -0.001144 -0.018785 0.006717 -0.003164 -0.029837 -0.01315 -0.011852 -0.014393 -0.015354 0.027087 -0.000425 0.005592 -0.001927 -0.031552 -0.009649 0.003137 -0.031243 -0.025479 0.022729 -0.003926 0.040219 -0.016796 0.02909 -0.038202 -0.03997 -0.000724 0.024136 0.009093 0.003533 -0.036497 -0.017637 0.020812 -0.02624 -0.011483 -0.022909 -0.003871 -0.025841 -0.029451 -0.040617 0.023262 0.01754 0.005396 -0.042344 0.024641 -0.005521 -0.005828 0.017283 -0.009706 0.01901 0.004352 -0.006249 0.001104 0.003727 -0.00854 0.004048 0.009924 0.020219 -0.019164 -0.007812 0.014188 0.012382 -0.036497 0.009306 -0.029691 -0.009145 -0.012191 0.00352 -0.03705 -0.036448 -0.031376 -0.042558 0.001515 0.002251 0.012553 0.00278 -0.007987 0.0144 -0.008565 -0.032831 0.016562 -0.000879 -0.029866 -0.006281 -0.004975 -0.001622 -0.029601 -0.033486 -0.012254 0.006163 -0.019893 -0.03579 -0.016571 0.010795 -0.04267 -0.020837 -0.007098 -0.047985 -0.038824 -0.011948 -0.005827 -0.003415 0.039516 -0.030808 0.00755 0.037523 0.011394 0.028491 0.036943 -0.032486 0.015776 -0.003249 0.006032 -0.029758 0.015396 -0.006495 -0.005477 0.003087 0.011061 -0.017509 -0.038486 -0.02425 -0.002591 -0.045904 -0.045098 0.010615 0.025926 0.005334 -0.009607 0.009668 0.02759 0.038461 -0.018302 -0.02126 0.022699 -0.025494 -0.01385 -0.025439 0.016436 0.019011 -0.026829 -0.019612 0.008691 -0.007459 0.016104 -0.030569 -0.040327 -0.013994 0.016398 -0.008976 -0.047663 -0.044503 -0.004596 0.044417 0.035254 -0.002349 0.008703 0.015302 0.021177 -0.035856 0.031949 -0.017812 -0.002771 -0.012449 0.024457 -0.025622 -0.009472 -0.016116 0.024412 0.025891 -0.028731 -0.017734 -0.001299 -0.04284 -0.010439 -0.005298 -0.042122 -0.008718 0.015329 0.017286 -0.036125 0.029955 0.034961 -0.008874 -0.008628 0.02643 0.013723 0.031214 0.000795 -0.03822 0.01909 -0.023207 0.032386 0.000276 -0.001046 -7.2e-05 0.033366 0.017922 0.014194 -0.005322 -0.032328 0.002697 -0.01953 0.028591 0.008106 -0.031815 -0.008705 0.024585 0.011212 -0.020918 -0.02892 -0.012219 0.018254 0.032223 0.011868 -0.008522 -0.034371 0.011806 -0.024924 -0.022493 0.020085 0.040378 0.029681 -0.000433 -0.014499 0.026318 0.000636 -0.029791 -0.04357 0.023263 -0.001924 -0.00716 0.027787 -0.027896 -0.011071 -0.022546 0.032951 0.031296 -0.024612 -0.018174 -0.002747 0.031081 0.025551 0.017718 0.000684 -0.013164 -0.025402 0.006473 0.022754 0.000751 -0.022105 -0.029195 0.018777 0.042287 0.029441 -0.023296 -0.003417 -0.010484 -0.003427 0.029106 -0.009809 -0.003548 -0.028293 0.003895 0.022073 0.023319 0.006762 0.021239 0.00703 -0.035204 -0.015548 0.007619 -0.0168 0.029801 -0.028445 0.018584 0.030836 -0.01957 -0.004027 0.027985 0.00231 0.010791 0.026951 0.022699 0.00227 0.011549 0.008711 -0.018799 -0.031314 -0.001492 0.010918 0.000432 0.003726 0.020928 -0.026817 -0.004707 -0.003317 0.025172 -0.009564 -0.030718 0.01142 0.022212 -0.002947 0.028165 -0.004763 0.004412 -0.020377 0.036427 0.020992 -0.015143 -0.033556 -0.012906 -0.015359 -0.016302 -0.017953 -0.028229 -0.032839 -0.034094 -0.006704 -0.030989 -0.028197 -0.016093 -0.007325 0.005513 0.024381 -0.003576 -0.006971 -0.03455 -0.001613 0.004723 -0.028959 -0.031968 0.011166 0.028005 -0.018958 -0.002472 0.013254 2.8e-05 0.033168 9.7e-05 -0.023267 0.016281 -0.007872 0.002904 0.017543 -0.03016 -0.004045 -0.021281 -0.025048 -0.003173 -0.007678 -0.031877 -0.000161 0.01868 0.008513 -0.031803 -0.004701 -0.010247 -0.032775 -0.002727 -0.030941 -0.02507 0.027168 -0.00045 -0.003127 0.024263 0.007708 -0.019402 0.00389 -0.018388 -0.010266 0.020418 -0.022739 0.017669 -0.023473 -0.03146 -0.025301 -0.027572 0.025375 -0.033219 0.027073 0.008577 -0.018951 0.013916 -0.009163 -0.019852 -0.007791 -0.011598 -0.013176 -0.017065 0.018984 -0.012434 -0.029483 -0.029316 0.033903 0.018355 -0.035359 0.02827 -0.018253 -0.016589 0.022307 -0.012808 0.00669 -0.00086 0.003653 0.009341 -0.02494 -0.034368 0.024719 0.014723 -0.015288 0.037814 0.011365 -0.01234 -0.001881 -0.005016 -0.022182 0.000523 0.001772 0.00314 -0.008762 0.015719 -0.025579 -0.035551 0.009472 0.023407 -0.02167 -0.026765 -0.005012 0.01186 0.023959 0.007962 0.020976 0.03379 -0.034386 -0.030931 0.001729 0.014919 -0.013129 -0.03405 0.016452 -0.017204 0.029107 -0.006738 -0.000562 -0.00257 0.045556 0.038003 -0.02703 0.031055 -0.039402 -0.017071 -0.037082 0.019539 -0.029925 -0.00266 0.024754 -0.022376 -0.009854 -0.010395 -0.014391 0.01814 0.02142 0.021756 0.009275 -0.03718 0.033223 -0.008752 0.033488 -0.019336 0.015655 -0.030344 -0.01193 0.014626 0.000826 0.04475 0.003854 -0.010636 -0.026831 0.027572 -0.009994 0.009435 -0.00081 -0.001825 -0.003132 -0.027799 0.011347 -0.037356 -0.001879 -0.011051 -0.01141 -0.010118 0.003621 -0.036502 -0.000892 -0.031411 0.022005 -0.010758 0.005457 -0.002706 0.032126 -0.004073 0.047977 -0.01102 0.008791 0.023595 -0.031455 -0.018352 -0.007277 -0.013624 -0.02599 0.032144 -0.027551 -0.03222 -0.024019 -0.012982 -0.002506 -0.000384 0.007022 0.03317 0.031645 0.008124 -0.036255 0.027759 0.001944 0.006682 -0.002041 -0.011907 -0.023954 0.003955 0.025707 -0.005166 -0.029277 0.029843 0.008719 -0.031497 -0.001036 -0.032577 -0.026432 0.024196 0.021072 -0.035241 0.023712 -0.006139 -0.013438 0.024283 0.015646 0.031797 -0.012723 -0.01353 -0.016004 -0.024172 0.027956 -0.026875 -0.012106 0.016181 -0.025308 0.037445 0.01139 0.015513 0.017649 -0.020401 -0.005597 -0.035432 0.015417 -0.026368 -0.031012 -0.001184 -0.00357 -0.017779 -0.02531 0.028949 0.003567 -0.006833 0.038629 -0.018502 -0.01124 -0.017873 -0.035777 -0.013416 -0.011626 -0.018184 0.012476 0.01493 -0.018255 0.028001 0.042678 -0.017103 0.029806 0.003143 -0.019926 0.024392 -0.028995 0.015607 -0.021855 0.021823 0.033613 -0.019473 -0.009918 0.025536 0.009954 0.013736 -0.003613 0.01284 0.01571 0.0313 -0.007058 -0.003912 0.006453 -0.050647 -0.024403 0.008903 0.038968 -0.010602 0.004424 0.040444 -0.021032 -0.005317 0.020143 0.019429 0.028319 0.027918 -0.022006 0.004606 0.028801 -0.027832 0.031927 -0.022911 0.030112 0.040912 -0.02806 0.018737 0.00233 0.008575 -0.039947 -0.010464 0.002242 -0.049211 -0.028188 -0.040861 0.012774 -0.003281 0.035253 -0.006065 0.003082 0.032676 0.031885 0.007479 -0.017175 -0.004717 -0.025021 -0.032169 -0.015029 -0.023156 0.001686 0.039893 0.025786 -0.009633 -0.004603 0.02906 -0.020396 0.023372 -0.039665 -0.024958 -0.038089 -0.056445 -0.008591 0.004213 0.04167 0.008695 -0.028319 -0.01253 -0.029069 -0.000647 -0.031522 -0.015163 0.005439 -0.019974 -0.045195 0.011777 0.003724 -0.019238 -0.014652 -0.023094 0.003253 -0.003777 -0.005594 0.00512 -0.014146 0.02309 0.008742 0.005582 0.015403 0.009944 0.012751 0.023053 -0.006376 -0.00294 0.020616 -0.005142 0.004974 0.023547 -0.003908 -0.036774 -0.013985 -0.037044 0.020251 -0.038045 0.002234 0.00592 0.015894 0.021861 -0.006795 0.005265 -0.013962 0.02345 -0.027809 -0.016377 0.006305 -0.017637 0.039164 0.013747 -0.015887 -0.013492 0.001579 0.027414 0.031596 -0.015091 0.009119 -0.02179 -0.038837 -0.042257 -0.010924 0.009335 0.021865 0.025646 0.027166 0.004686 -0.015369 0.012165 -0.012778 0.040486 -0.004516 0.038105 0.009417 0.01505 0.008893 0.00915 0.036752 0.034492 0.012065 -0.025287 -0.029961 -0.011544 0.011139 -0.020744 -0.001347 -0.015247 0.000742 0.020328 -0.006663 0.019465 -0.030165 0.016742 -0.016078 -0.005918 0.042088 0.014506 -0.014575 0.026401 0.049849 0.013833 -0.016371 0.003966 0.027443 0.005972 -0.007578 0.035572 0.018406 -0.014861 -0.023059 -0.010567 -0.003312 -0.026239 0.02778 0.007985 -0.019994 -0.023567 0.026437 -0.012581 0.003699 -0.02619 0.018786 -0.007694 -0.030991 0.010004 0.019927 -0.014736 -0.027818 0.027287 0.020531 -0.015282 0.02564 0.062864 0.049691 0.025189 -0.019863 -0.004047 0.005933 0.002974 0.002849 -0.007102 0.022008 -0.015813 -0.007032 0.029191 -0.002929 -0.023677 -0.023268 -0.041936 -0.028251 0.001119 0.014381 -0.023808 0.011105 -0.028408 -0.024688 0.017151 0.030311 0.009711 0.025465 0.015933 -0.023415 -0.016065 -0.040323 -0.006216 0.011411 0.011818 0.023117 0.039739 0.026423 0.024644 -0.004852 0.003844 -0.006604 -0.014789 -0.004699 -0.037929 -0.010854 0.011919 0.013561 0.026626 -0.007356 0.004326 0.014415 -0.020714 -0.032346 0.013167 -0.020748 0.00297 -0.034792 -0.020916 -0.024355 -0.071608 -0.058825 -0.016264 -0.031419 -0.01482 -0.02188 -0.005093 0.015708 0.009787 0.019916 -0.007291 0.011405 -0.006433 0.023388 0.010857 0.012789 -0.016904 0.001942 -0.016895 0.013068 -0.011587 -0.051558 -0.012152 -0.042453 -0.042997 -0.025953 -0.056032 -0.005624 -0.045128 -0.040296 0.007199 -0.01338 -0.009989 -0.002594 -0.019886 0.005082 0.020142 -0.023868 -0.028307 -0.023884 -0.023176 0.027082 0.034331 0.005079 -0.012215 0.014506 0.022807 -0.011003 -0.044851 -0.056921 0.004417 -0.024589 -0.042438 -0.040919 0.007128 -0.030417 -0.026581 0.03081 0.036699 -0.005895 -0.00591 0.041318 0.029631 -0.024876 -0.009026 0.03267 -0.025151 -0.011534 -0.015752 0.04333 -0.00322 -0.00113 -0.011642 0.055281 0.033684 0.039619 0.03636 0.028668 -0.008814 0.032907 0.020831 0.02407 0.021219 -0.02749 0.020487 -0.004203 0.011022 -0.031487 0.008955 -0.034988 0.025571 0.023188 -0.006737 -0.006471 0.008945 -0.014529 0.031863 -0.001312 0.019363 0.016697 0.03664 -0.001361 -0.017848 0.004022 0.006165 0.025603 0.015814 -0.014372 0.007331 -0.012995 0.016681 0.023541 -0.028566 0.018672 0.028968 0.008834 -0.023104 -0.020672 0.02964 0.024028 -0.01496 -0.030671 -0.005623 0.029809 0.001945 0.030715 -0.015938 0.01423 -0.014718 -0.030514 -0.050041 -0.044106 -0.020803 -0.038382 -0.041668 -0.030879 0.016437 0.009069 0.034952 0.011074 0.009639 -0.009548 -0.011043 0.031784 0.016739 -0.008369 -0.032128 0.009558 -0.030214 -0.019279 -0.018397 -0.01605 0.026793 -0.00889 -0.013745 -0.033701 -0.015518 -0.02594 0.015605 -0.007172 0.005754 -0.028025 0.017879 0.001914 -0.036375 -0.019032 -0.018236 0.016723 0.030101 0.019928 0.000887 -0.020661 0.002457 0.022542 0.026386 -0.018642 0.00288 0.018834 -0.023137 0.006536 -0.043648 0.009616 0.000757 -0.029483 -0.019606 0.006193 -0.014448 0.001531 -0.036401 -0.014616 -0.007103 0.002676 -0.012341 0.020941 0.033789 0.003901 -0.035442 -0.006369 -0.005903 -0.008403 -0.023537 0.015237 -0.014824 -0.010775 -0.015339 -0.030126 0.0182 -0.012573 -0.02218 0.025361 0.019831 0.0106 -0.001053 -0.023046 -0.028169 -0.014261 -0.03326 0.018645 0.002392 0.014728 0.010209 0.018943 0.008725 0.015 -0.037055 -0.002228 -0.00784 0.04147 0.002008 0.032316 -0.001831 -0.019613 -0.031704 0.020435 -0.032192 0.007971 0.004154 -0.004957 0.021798 -0.031176 -0.027133 -0.021266 -0.010277 -0.025207 0.002246 -0.028965 -0.020957 0.021326 0.010573 -0.014093 -0.009713 0.025947 0.012609 0.007876 0.040999 -0.006827 -0.026816 0.016624 0.009504 -0.032717 0.001496 0.007132 -0.030321 -0.011645 0.040423 -0.014305 0.002136 -0.02788 -0.034102 -0.006353 0.004936 0.035378 0.026205 0.009588 -0.005607 0.028906 -0.01365 0.02752 0.008432 0.013376 0.013305 0.005145 0.016049 0.003583 0.003443 0.000791 -0.00758 0.00297 0.032685 0.014395 0.009115 0.033842 -0.016116 -0.006571 0.019358 0.016594 -0.012142 0.032142 -0.025515 -0.011324 0.002061 0.002882 0.032497 -0.00303 0.03524 0.01303 0.026914 0.028523 0.00985 0.02707 0.024549 -0.000967 -0.02245 0.012551 -0.0176 0.017085 -0.030001 -0.0256 0.00704 0.033518 0.027831 -0.006191 0.012087 -0.003645 -0.019365 -0.020091 -0.032561 -0.039908 0.000576 -0.025221 -0.00588 0.013026 0.044914 0.017899 0.031582 0.008256 -0.008494 -0.015993 -0.001901 -0.020631 0.007059 -0.015725 -0.009336 -0.007959 -0.012993 -0.009421 -0.030232 -0.004675 0.035798 0.018426 -0.025103 -0.021637 0.026671 -0.001487 0.023718 -0.008395 -0.023899 0.032979 0.03038 0.027428 0.035991 0.018527 -0.018734 0.036146 0.008825 0.030706 0.026873 -0.019806 -0.04037 -0.000196 -0.003092 0.001643 -0.021233 -0.011887 -0.022799 0.013956 0.035067 -0.028172 -0.008499 -0.032457 -0.005604 -0.021126 0.00232 -0.017395 -0.034134 0.027329 0.002813 0.045491 0.022273 -0.025076 -0.023095 0.006742 0.02574 0.016694 0.025324 0.035485 0.030557 0.013729 0.019768 -0.011184 -0.000489 0.01257 -0.003315 0.002352 0.011342 0.029434 -0.013778 -0.02896 0.004725 -0.013681 -0.037731 -0.005427 0.002071 0.009668 0.033484 -0.016415 0.000154 -0.002628 -0.007969 0.034143 -0.020988 0.011594 0.01658 -0.023469 0.022057 -0.015026 0.027039 0.012411 0.000614 -0.002732 0.005576 0.009923 -0.006633 -0.029626 0.028057 -0.004717 0.027831 -0.01979 0.022811 0.030685 -0.019372 0.030951 0.027955 -0.028112 0.024441 -0.013317 0.011455 0.018745 -0.026932 -0.03217 -0.015479 -0.005044 -0.03108 0.018273 0.022384 0.034529 -0.012606 -0.013823 -0.032053 -0.042977 -0.028452 -0.010329 0.017978 -0.02287 0.008193 -0.003595 -0.021685 -0.036565 -0.025883 0.025198 -0.033879 -0.012585 0.018375 -0.010277 -0.016866 -0.014883 -0.034898 0.031523 -0.013969 -0.015751 0.018031 -0.003042 -0.012982 4.6e-05 -0.003279 -0.019441 -0.045071 -0.014853 -0.036579 0.044475 0.007351 0.047368 0.003645 0.01383 -0.007844 0.021016 -0.006232 0.030357 -0.025175 -0.016947 -0.028812 0.03187 0.00553 -0.017104 -0.002614 -0.02806 -0.011223 -0.01815 -0.004057 -9.8e-05 0.006924 0.012285 -0.012999 -0.01992 -0.02322 -0.014704 0.001637 0.016007 0.010697 0.017909 -0.024153 0.026561 0.00755 0.000554 -0.023288 0.016966 0.024798 -0.019836 0.023643 -0.014146 -0.009101 -0.018794 0.015442 -0.026011 0.018391 -0.01381 0.010223 -0.004798 -0.03208 0.020678 -0.015858 0.038295 0.010363 -0.014064 -0.030389 0.002267 -0.027954 -0.027311 -0.013706 -0.029051 0.006961 -0.044089 0.025388 -0.030397 -0.017822 -0.022005 0.010744 0.009901 0.00036 0.026883 -0.028698 0.031515 0.022328 -0.016644 -0.022277 0.016888 -0.033924 0.026155 0.020542 -0.030464 0.013193 0.030015 -0.02233 0.006376 0.01362 -0.017391 0.021973 0.018343 -0.048848 -0.035279 -0.042752 -0.048315 -0.028004 -0.044927 -0.029919 -0.008708 -0.005473 0.036077 0.016436 0.023371 0.031248 -0.03801 -0.036633 -0.025716 0.015157 -0.009567 -0.017621 0.031477 -0.029202 -0.009564 -0.019376 0.005285 -0.026554 -0.016689 0.026417 -0.018967 -0.043963 -0.060744 0.007724 0.017126 -0.041843 0.012548 -0.048809 -0.01225 -0.024028 -0.021181 -0.00026 -0.024391 -0.029305 0.014364 0.008719 -0.001836 -0.031637 -0.031545 -0.022503 -0.013363 0.024716 0.033026 0.032848 0.028668 0.009148 -0.002479 0.030087 -0.048783 -0.02954 -0.049711 -0.00167 -0.012055 -0.006902 0.008696 -0.005837 0.012089 0.008557 -0.017942 0.024912 -0.014602 -0.015735 -0.031811 -0.030096 -0.000422 -0.041782 -0.021088 0.029713 0.01714 0.004688 0.004459 0.016846 -0.032122 -0.0244 -0.014132 -0.004201 0.004706 0.018593 0.012677 -0.002522 -0.023176 -0.010164 -0.013158 0.012858 0.006816 0.031135 0.037616 0.020259 0.04131 -0.015711 -0.002439 0.03122 -0.031141 -0.001871 0.015405 0.006975 -0.014361 0.025321 -0.030693 -0.018177 0.021426 -0.022667 0.006519 0.006201 -0.02356 -0.030189 -0.029405 -0.008008 -0.021334 -0.010177 -0.003287 0.000292 -0.000153 -0.001238 -0.019539 -0.019624 -0.019385 0.004004 -0.008232 1.4e-05 0.008371 -0.017904 -0.032797 0.007655 5.5e-05 0.037823 0.004924 -0.031295 -0.021021 0.010666 -0.011671 0.017014 -0.001686 -0.045404 -0.010442 0.007516 0.021211 -0.009091 0.0095 0.036529 -0.006862 -0.03479 -0.027779 0.002478 0.004022 0.034925 0.018596 -0.003687 -0.032546 0.002975 0.027536 -0.028263 0.049087 0.001281 -0.036165 -0.043661 -0.044055 0.005176 0.004583 0.020263 -0.010619 -0.017721 0.015357 -0.015158 0.012834 -0.002106 0.008904 0.010328 0.020532 0.01414 -0.025174 0.023046 0.033593 -0.021868 -0.023755 0.015214 -0.022704 -0.032118 -0.010663 0.039139 -0.006483 0.006158 0.031809 0.035224 -0.008261 -0.012841 -0.012908 -0.028098 0.029373 -0.013905 0.015668 -0.008182 0.023368 0.001325 -0.022518 0.018071 -0.011945 0.028563 -0.006144 0.016571 -0.00324 -0.006731 0.025517 -0.040087 -0.010635 0.00025 0.008644 0.029633 0.03752 0.015225 0.015044 -0.016834 0.023508 -0.01394 0.011214 -0.008932 0.019537 3e-05 -0.011585 -0.018545 0.001294 0.032329 -0.018259 0.013552 -0.02805 -0.010982 -0.034656 -0.008054 0.026959 -0.027173 -0.024452 0.020047 -0.010755 -0.03553 -0.030124 0.020812 -0.021129 0.045541 0.038047 0.049657 0.03546 -0.003294 0.034471 0.022544 0.021779 -0.027523 -0.019391 0.016836 0.011067 0.00837 0.02067 -0.017965 -0.043119 0.028327 -0.021492 0.032015 0.007629 0.032117 0.011454 0.005591 0.020837 0.023713 0.007574 0.018081 -0.031745 -0.006653 0.010977 0.004764 -0.009789 -0.031355 -0.030801 -0.02144 0.002838 -0.009743 0.002652 -0.03781 0.016454 -0.029382 0.003381 -0.023608 -0.001935 -0.019576 0.025506 -0.002331 0.00014 0.031284 -0.035747 -0.014726 0.019308 0.040125 0.032421 -0.015736 0.02973 0.016435 -0.005718 -0.018002 -0.019198 -0.01884 -0.020349 -0.030597 0.011557 0.008588 -0.032204 -0.015576 -0.016112 -0.004405 -0.025256 -0.016917 0.025952 0.013729 0.023637 -0.003761 -0.042633 0.004886 -0.043737 0.009715 0.007938 0.004698 0.01094 0.014233 0.014718 0.033801 -0.016377 -0.03485 0.000675 -0.031453 0.025062 0.016899 0.032134 -0.033571 -0.000704 0.0251 -0.044389 -0.02065 0.025378 -0.003151 0.015163 0.033246 0.008558 -0.043694 -0.046945 -0.045251 -0.014353 -0.019866 -0.014461 0.006485 0.021594 0.025755 0.008183 -0.02611 0.011185 0.027558 -0.006849 0.025757 0.009498 0.025112 -0.034481 -0.015701 0.012407 -0.018244 0.025406 0.025685 -0.015711 -0.03295 0.005076 -0.01828 0.012182 -0.03531 -0.011833 -0.031793 -0.005535 -0.0293 -0.032645 0.017007 -0.028142 -0.008189 -0.023456 0.03157 -0.019743 0.023556 0.007778 -0.023073 0.027951 0.019859 -0.023434 -0.039163 0.011692 -0.01739 -0.04972 -0.000627 0.036887 0.04965 0.019041 -0.010716 -0.013512 -0.039535 0.003402 -0.014549 -0.02685 -0.032166 0.020301 -0.026344 0.027074 0.014388 0.000462 -0.026327 -0.022513 -0.00842 -0.038945 0.025531 0.030905 -0.007562 0.022248 -0.0356 -0.050442 -0.01481 0.001923 0.016651 -0.009611 0.003964 0.025774 0.028211 0.02278 -0.020956 0.017868 0.016284 0.015342 -0.005048 -0.022925 0.021054 -0.009916 -0.025794 -0.026746 0.015788 -0.020602 0.002097 -0.026261 -0.021373 -0.016642 0.025146 -0.008345 0.03162 -0.038334 0.000887 0.004979 -0.008866 0.021639 0.006536 0.000617 0.013253 -0.032907 -0.017365 -0.005179 -0.026946 0.008179 -0.021079 -0.030401 0.006391 0.029031 -0.01846 -0.010838 0.009986 0.019379 0.006316 0.00058 0.03727 0.032288 0.014074 0.02048 0.024361 0.016626 -0.021821 -0.041448 -0.016539 0.017923 0.009816 0.009989 0.027339 0.027787 -0.025781 -0.03484 0.011433 0.022019 0.023399 -0.022445 -0.010959 -0.006548 -0.029768 -0.03038 0.018726 -0.0375 0.002465 -0.009886 0.031882 0.006613 0.028789 -0.033496 -0.012585 -0.011281 0.01811 -0.002691 0.009405 0.035054 0.026573 0.032702 -0.006916 -0.012542 0.030851 -0.017527 0.000396 -0.027182 -0.024138 -0.042821 0.000374 -0.008308 0.054814 0.029788 0.000451 -0.048704 -0.031175 0.027299 0.03465 0.004617 0.009112 -0.0096 -0.01576 -0.026721 -0.014097 0.01838 -0.009228 -0.022721 0.002284 -0.018562 -0.044409 0.001537 -0.016763 0.023557 -0.006281 -0.000546 -0.026311 0.014738 0.001216 0.042053 -0.005633 -0.015424 -0.047052 -0.000324 0.002636 -0.000809 -0.014897 0.027176 0.00984 0.011913 -0.000353 -0.005309 -0.024872 0.011464 0.03142 -0.023503 0.023075 0.02945 0.016424 0.013339 -0.011084 -0.01053 -0.006771 0.005564 0.001732 0.000903 -0.023555 0.025937 0.019732 0.025566 -0.009535 -0.039531 -0.024988 -0.023768 0.013343 -0.020698 -0.013181 -0.012721 0.027424 0.025844 -0.005698 -0.018138 0.020368 0.027475 0.002487 0.022602 -0.036219 0.020677 0.011857 -0.009538 0.012076 -0.002795 0.033128 0.018632 -0.010728 0.041013 -0.006642 0.020638 -0.026849 -0.028005 0.003263 -0.026063 -0.027152 0.002822 0.018129 0.032706 -0.000771 0.015732 -0.0186 -0.021199 0.002982 0.000745 0.013762 0.014505 -0.02616 0.005906 0.039886 -0.023418 0.027699 -0.007805 -0.034558 -0.004252 -0.016059 -0.025403 0.023855 -6.8e-05 -0.022334 -0.010087 -0.035151 -0.024483 -0.001912 -0.010936 -0.016995 0.014649 -0.000157 0.000323 -0.006855 -0.006737 0.010369 -0.004018 -0.036493 0.005762 -0.037539 0.000684 0.027596 -0.021962 -0.017445 0.031867 -0.033505 -0.022566 -0.025003 0.019831 0.035812 -0.005463 0.020868 -0.007225 -0.000236 -0.036223 0.015033 -0.027524 0.001355 -0.02465 -0.037415 0.021396 0.025475 0.003705 -0.012157 0.012216 -0.034029 -0.001472 0.026829 0.016962 0.039736 -0.013176 0.005688 -0.005912 -0.037135 -0.020958 -0.035099 0.016684 -0.02507 -0.010409 -0.029763 -0.015802 0.00153 -0.015938 0.026295 0.024117 0.023875 0.002379 -0.011963 0.040665 -0.018472 -0.030548 0.019555 -0.031933 -0.013513 -0.002228 0.006379 -0.010337 0.040859 -0.002838 0.022947 0.033571 0.035714 -0.02399 0.026658 0.028695 0.013788 0.03458 0.013861 -0.033158 -0.030634 -0.026778 -0.007263 0.007981 0.039639 0.022782 -0.028589 -0.019305 0.006807 0.017642 0.005621 -0.008595 -0.045439 -0.012922 0.037802 -0.025651 -0.020267 0.035484 0.013749 0.021125 0.00889 -0.009037 -0.000272 0.012532 0.033616 -0.012702 0.023001 -0.000808 -0.018658 -0.018793 0.033128 0.029385 0.024352 0.024271 -0.018327 -0.005806 0.00844 0.022305 -0.01723 -0.002707 -0.028603 0.024843 0.031015 0.030522 0.021912 -0.030362 0.035161 0.036247 0.010877 0.003724 -0.005628 -0.012305 -0.020531 0.016229 -0.014645 0.030052 0.051319 0.003715 0.046564 -0.00388 -0.01327 -0.025066 -0.028353 -0.010456 -0.040057 -0.03196 -0.03665 -0.017988 -0.008885 0.003686 -0.017413 -0.007821 -0.017246 -0.000163 -0.000204 -0.015381 -0.024207 -0.037726 0.019743 -0.004012 -0.032762 0.031261 0.030541 0.024542 0.032356 -0.009143 0.01939 -0.033714 -0.021342 0.015782 -0.020843 0.004073 0.023322 -0.028251 -0.021105 0.033504 -0.019751 -0.027699 0.029189 -0.008365 0.009751 -0.037465 -0.024223 -0.032839 -0.030721 -0.036306 0.023619 -0.004652 -0.012254 0.023193 0.008811 0.027801 0.030324 0.026235 0.026974 0.014086 -0.027886 0.011693 0.002105 -0.033727 -0.032577 0.005089 -0.016578 0.007018 0.030974 -0.028354 0.005668 0.028469 -0.000705 0.030467 0.031238 0.019327 0.02503 -0.036417 -0.041472 -0.026946 0.009056 0.049921 0.030347 0.021776 -0.006726 0.017036 0.022146 -0.019515 -0.009673 0.009675 -0.024323 -0.016913 -0.003485 -0.011403 -0.007982 -0.023231 0.014762 -0.021612 -0.010629 0.013671 0.031269 0.023461 0.009896 0.014376 -0.020737 0.010173 0.008943 -0.026484 -0.020489 -0.02072 -0.034494 0.018479 -0.008752 -0.002441 -0.003325 -0.002128 0.01241 0.00304 0.008225 -0.003662 0.029491 0.019949 -0.02126 0.015021 -0.008626 0.008916 0.008468 0.011184 -0.031117 -0.018389 0.036693 0.025138 -0.000381 0.040345 -0.007943 0.010779 0.035068 -0.012018 0.011062 -0.000599 -0.023688 0.020105 0.003253 0.029731 0.014036 0.006984 -0.01292 0.020755 -0.010348 0.042973 0.001815 -0.006435 0.002693 0.025025 -0.019386 -0.005845 3.3e-05 0.033681 -0.03235 0.01596 0.039102 -0.028917 0.008446 -0.018418 -0.025866 0.002467 -0.008485 0.019362 0.031547 0.003235 0.013111 -0.030205 -0.019711 0.002209 0.020606 -0.012908 0.027981 -0.014214 0.002526 0.021822 -0.012379 -0.021752 -0.03527 0.005763 0.018394 0.020983 0.021882 -0.001558 -0.009391 -0.027838 0.023036 -0.012683 0.028683 -0.025472 -0.03174 -0.008431 0.006855 0.025359 -0.017231 -0.009831 -0.009091 0.024608 -0.004943 -0.025234 -0.007365 0.032714 0.019119 0.047035 0.047434 0.021281 -0.053712 0.000251 -0.005176 -0.024864 0.028867 -0.031522 0.029116 -0.016143 -0.029225 0.03691 -0.020798 -0.013286 0.004171 -0.028072 -0.01602 -0.034128 -0.02949 0.020705 -0.02924 0.031143 0.000722 0.032606 0.028904 -0.003454 -0.002181 0.03173 -0.014589 0.01965 -0.04656 0.014412 -0.010146 0.011201 0.003823 -0.019248 -0.016005 0.013491 0.023409 0.013253 -0.007883 -0.012058 0.033089 -0.027299 0.017729 0.01777 0.018015 -0.019072 0.018395 0.016241 0.027245 0.01758 0.024871 -0.023972 0.027236 -0.025434 -0.021624 0.031093 -0.024157 -0.001577 0.012743 -0.011402 0.02458 -0.020756 -0.021091 -0.012729 -0.022344 -0.007671 -0.000603 -0.021248 -0.005246 0.024426 0.00411 0.025831 -0.020625 -0.00817 -0.02136 -0.020261 -0.006208 -0.020379 0.018812 0.003109 0.008449 0.026424 0.030639 0.031048 0.027166 -0.014767 0.028723 -0.024054 0.020663 -0.002068 0.025689 -0.015851 0.023798 -0.022305 0.026377 0.014323 0.007144 0.027443 0.009271 0.0221 0.012504 -0.009015 -0.028055 0.008787 0.002119 -0.015723 0.0303 0.037464 0.016312 -0.012774 -0.001239 -0.025998 -0.026372 0.004771 -0.014172 0.024652 -0.002453 0.014247 -0.004336 0.022702 -0.013717 -0.010069 -0.01705 0.032858 0.001665 0.009456 0.005113 0.021538 0.003772 -0.01948 0.013027 -0.005574 0.030517 -0.004394 -0.004623 -0.004491 -0.025886 0.032957 0.02742 -0.026173 -0.030679 -0.020391 -0.015196 0.028436 -0.028474 0.031065 -0.020807 0.029242 0.012393 -0.03542 0.018126 -0.014688 -0.010524 0.021982 0.035525 0.019264 0.025125 0.0201 0.015232 -0.011435 -0.009636 0.030401 0.019759 0.029022 0.00088 -0.012956 0.021462 -0.020157 -0.00534 -0.028319 -0.029575 -0.009623 -8.8e-05 0.05191 0.01394 -0.001228 -0.072957 -0.038494 -0.01424 -0.022024 0.028656 0.003654 0.002849 -0.014087 -0.032075 -0.013043 0.011438 0.007882 -0.013444 -0.021809 -0.003587 -0.007403 -0.013515 -0.026079 -0.006268 -0.023338 -0.021629 -0.014323 -0.040881 0.005181 -0.018541 0.036475 0.024273 0.002306 -0.002296 -0.012797 0.021724 0.011779 0.024965 -0.028575 0.005098 0.030904 -0.008238 -0.012348 -0.003133 -0.016546 0.017641 -0.025415 -0.006691 0.026682 -0.021758 0.023629 -0.014567 0.021589 0.002939 0.004137 -0.009297 0.016686 0.02697 -0.003747 -0.031492 -0.039991 -0.054539 0.010561 0.024725 -0.029197 -0.014391 0.017813 0.00453 -0.025733 -0.02151 -0.006873 -0.03047 0.01849 -0.026814 0.012272 0.013385 -0.002347 -0.027439 0.00861 -0.006649 0.022976 -0.006708 0.012567 -0.01847 0.026015 0.029051 0.025773 -0.011467 -0.021964 -0.024971 -0.037393 0.027783 -0.030636 0.008603 -0.033172 -0.018852 0.026202 -0.031727 0.021871 0.024177 0.0021 -0.014216 -0.010395 -0.001883 -0.02444 -0.031672 -0.018175 -0.030657 -0.023297 -0.014614 -0.038287 -0.013609 0.005132 0.012157 0.005713 0.020507 0.002441 0.002355 -0.023627 0.00892 -0.000107 0.019996 0.005786 -0.018275 -0.017965 0.029861 0.008913 -0.01386 0.029746 -0.040127 0.004373 -0.000682 0.022333 0.002918 0.023983 0.040991 0.017957 0.01244 0.021817 -0.000998 0.021781 -0.015186 -0.021911 0.007021 0.032507 0.011948 -0.022908 0.026472 -0.002102 0.013637 0.021804 0.011819 0.00042 -0.01129 -0.016181 0.033672 -0.000284 -0.009521 -0.034723 -0.038523 -0.023356 -0.036684 0.00508 0.023253 0.011453 -0.007875 -0.003269 0.008021 0.004828 -0.019245 0.001288 -0.008845 0.001816 -0.02957 0.01815 -0.009587 -0.006178 0.027422 0.032982 -0.010884 0.002608 0.001224 -0.005253 0.017775 0.010428 -0.046336 0.009243 -0.011959 -0.038684 0.012591 -0.034144 -0.013016 0.026775 -0.006381 0.042967 0.042081 0.036448 0.004292 0.032034 -0.018034 0.026701 -0.001045 0.002147 -0.020238 -0.024809 -0.007957 0.022101 0.029811 -0.013661 0.012556 0.003182 -0.024678 0.032668 0.02145 -0.019744 -0.030424 0.016677 0.013745 0.003336 -0.01819 -0.012129 0.041894 -0.014151 -0.011473 -0.001579 -0.005176 -0.002037 0.003875 0.017034 -0.003217 0.024929 0.016361 -0.020054 0.004605 0.034985 -0.00066 0.006856 0.025941 0.022835 0.057748 0.034974 0.020001 0.03014 0.016311 -0.027741 -0.029409 0.009198 0.036982 0.023346 0.023835 0.007156 0.007825 0.001096 -0.017942 -0.033401 0.018293 0.009415 0.005302 -0.022129 -0.037936 0.000927 -0.001547 0.003327 -0.022177 -0.017905 -0.011607 -0.020696 -0.029063 0.012396 -0.025325 0.00631 -0.007001 0.018234 -0.017668 0.028272 0.012151 -0.024983 0.026588 -0.026252 -0.008725 -0.019577 -0.008533 -0.03187 0.005014 -0.009502 -0.044728 -0.006035 0.016294 -0.029891 0.013057 -0.007129 -0.008153 0.025927 0.017604 0.006581 0.003769 0.028777 -0.008702 0.027736 0.00018 0.015144 0.009631 -0.024458 0.013358 0.017422 -0.029309 -0.005083 -0.019834 0.033123 0.042963 0.018981 -0.003629 0.011448 0.031241 0.0101 0.015772 0.002714 0.019802 0.002817 -0.003196 0.01885 -0.010145 0.019108 1.5e-05 0.008217 -0.034649 0.034689 0.026733 -0.019335 0.031431 -0.024949 0.018101 -0.013332 0.001383 0.018047 0.022448 0.010723 -0.006072 -0.003497 0.037185 -0.001391 0.022726 -0.003411 0.041256 0.0105 -0.010494 -0.012039 -0.019465 0.029704 0.034566 -0.023287 0.004065 0.015423 0.005548 0.016529 0.020028 -0.029418 -0.00133 0.018314 0.004078 -0.00243 0.023609 -0.018905 -0.004216 0.026062 0.016676 0.019389 -0.03542 0.003718 0.021822 0.039182 0.019352 -0.003907 0.004631 -0.010662 -0.003628 0.005477 -0.038629 -0.020532 -0.022044 -0.004972 0.014352 -0.047668 -0.009409 -0.017899 -0.003027 -0.009676 -0.006699 0.012232 0.00443 -0.015746 -0.03218 -0.004552 -0.016571 -0.018195 -0.014164 0.011964 -0.017994 0.00523 -0.019747 0.034658 0.02562 -0.005159 0.005811 -0.023988 0.011821 0.018931 -0.04623 -0.054307 -0.044457 -0.028186 -0.022821 0.01233 0.01942 -0.014809 -0.016143 0.017443 0.017641 -0.003071 -0.028325 -0.008747 -0.009927 -0.039803 0.018782 -0.028919 -0.029935 -0.004769 -0.008663 0.026543 0.001544 0.000823 0.001712 -0.032062 -0.028972 -0.041199 -0.025988 0.010741 0.038967 0.000328 0.0303 -0.012931 -0.006151 -0.011273 0.003946 0.008511 -0.001852 -0.040399 0.024065 -0.026056 0.022381 -0.000856 -0.005953 -0.024725 0.008446 -0.02619 -0.028944 0.014199 -0.000392 0.007097 -0.038616 0.000196 0.00088 0.03409 0.04197 0.008664 0.042466 0.032006 0.041617 0.019234 0.043778 0.03518 0.019171 0.017786 -0.044925 0.003 -0.029837 -0.029601 -0.036782 0.014758 -0.032958 -0.003477 -0.020467 0.025288 0.022004 0.004399 0.012394 0.001426 -0.008125 0.001051 -0.023389 -0.02728 0.032148 0.020696 0.006712 0.008391 0.013189 0.01791 0.032179 -0.026003 0.023324 -0.024457 0.003329 -0.034355 -0.014648 0.003193 -0.011367 0.01471 -0.010444 -0.007978 0.018484 0.013411 -0.042013 0.026044 -0.004566 -0.004667 -0.004916 -0.028078 -0.01804 -0.01818 -0.002866 -0.018668 0.029593 0.031462 0.009352 0.017394 -0.015042 -0.031923 -0.009617 0.023161 -0.017982 0.004423 -0.007492 0.003478 0.027595 0.027102 -0.03048 -0.013191 -0.014197 0.022963 -0.024111 0.020405 -0.000118 0.008975 -0.025442 -0.040229 -0.01994 0.011079 -0.015319 0.01261 -0.024683 -0.024846 0.029034 0.013564 -0.000292 -0.000695 0.023357 -0.032386 0.03406 0.022418 -0.014993 -0.029952 0.027091 -0.004845 0.025217 -0.00355 0.001968 0.00776 -0.03236 -0.019822 0.005098 -0.02376 -0.000398 0.007634 0.001712 0.002516 0.004368 -0.009284 -0.012165 -0.02141 -0.0223 0.033711 0.02721 0.007371 0.005107 -0.023815 0.025287 0.018169 -0.03146 0.003353 -0.014614 0.018416 0.005979 0.014981 -0.019149 -0.01187 0.009129 -0.026634 0.020835 -0.005319 -0.001279 -0.037398 -0.008543 -0.001843 0.001881 -0.012112 -0.032067 0.004819 0.00758 -0.030247 -0.005356 -0.001029 -0.032914 -0.034399 -0.005378 0.022271 0.033908 -0.037743 0.018648 0.006981 -0.00668 -0.01595 0.027298 -0.019894 -0.022491 0.025813 0.029173 -0.003564 0.018221 -0.012867 -0.021445 -0.005659 0.030354 0.036689 0.042172 0.008353 -0.004492 0.035503 0.018749 0.02438 0.025741 -0.004129 0.025484 0.011609 0.018406 -0.028185 -0.01403 0.011061 -0.002061 -0.006099 0.037086 0.003961 0.020014 -0.018215 0.037979 -0.012918 -0.023651 -0.016099 -0.01895 0.038107 0.001203 -0.029862 0.023334 0.040029 -0.008057 0.022553 0.025523 0.026658 -0.013796 0.03763 0.012746 0.003055 0.039738 0.022045 -0.000843 0.011121 -0.023796 0.014909 -0.025303 -0.012746 0.008938 0.01423 -0.029157 -0.012395 0.007838 0.002565 -0.005385 0.010736 -0.021231 0.013663 0.021142 -0.025593 -0.02672 0.011379 0.01755 -0.022623 -0.02395 -0.035239 0.00708 -0.012799 0.003506 -0.055596 -0.022524 0.022932 -0.010519 -0.026593 0.020686 0.017419 -0.020444 0.023552 -0.005641 0.033283 0.003889 -0.016206 0.001589 0.020205 -0.038262 0.022202 -0.036615 -0.009761 -0.029688 -0.02982 -0.023569 -0.021656 -0.01221 -0.002011 0.032072 0.015518 -0.025369 -0.03881 0.031097 0.008675 0.00478 0.028895 0.024743 -0.02961 -0.020371 -0.020443 -0.019904 -0.030501 -0.002552 0.037203 0.021358 0.032986 -0.0276 -0.032629 -0.029895 -0.015652 -0.032182 -0.002327 0.007917 -0.027014 -0.002762 0.020934 0.003534 -0.029745 0.009389 0.030501 -0.027174 -0.025096 -0.004625 0.030983 0.034519 0.01222 -0.000631 0.008228 -0.00691 -0.034897 0.009723 -0.00106 0.028568 0.007242 -0.027165 -0.015365 -0.012265 -0.017171 0.028152 -0.0035 0.015479 -0.023094 -0.007333 -0.032512 -0.026855 -0.003185 -0.014289 -0.011829 -0.003941 0.035855 0.003283 0.008563 0.028547 -0.017565 -0.007406 -0.027014 -0.018807 0.020459 0.009399 0.042867 0.031421 -0.014255 0.01735 -0.001282 -0.038708 -0.023943 -0.032644 -0.027634 -0.007136 0.00871 0.010991 0.020818 -0.006412 0.023308 0.014273 -0.013002 0.011616 -0.013814 0.020817 -0.013568 -0.024089 -0.014069 -0.021319 0.034125 -0.012562 0.006154 -0.017486 -0.008942 -0.028906 -0.019843 -0.010032 0.026824 0.00976 -0.014759 0.030909 0.015911 0.029589 -0.019902 0.021112 -0.026807 0.034858 0.024561 0.025843 -0.001721 -0.034303 -0.028843 0.020614 0.003662 -0.010288 -0.00326 -0.008684 0.035282 0.013543 -0.020996 0.026323 0.012752 0.007969 0.019412 0.010944 -0.003371 -0.004646 -0.038601 -0.031121 0.023176 -0.020826 -0.001572 -0.011899 0.017634 0.021455 -0.023459 0.01339 0.013083 0.02688 -0.032548 0.011792 0.007175 0.01894 0.028186 -0.01252 0.022999 0.016864 0.018959 0.012859 -0.016311 -0.013355 -0.021471 0.017911 -0.01537 0.016368 -0.006114 -0.018033 0.035103 0.000525 -0.013208 0.022433 0.006476 -0.024399 0.005559 -0.023136 0.02749 0.011284 0.019293 -0.009885 0.01789 0.025106 -0.032259 -0.031911 -0.007957 0.007181 -0.02244 0.000918 -0.010948 0.018204 0.021772 -0.021442 0.0279 -0.02056 -0.023574 -0.001051 -0.033211 0.006217 0.001793 -0.02814 -0.006818 -0.023268 0.034342 -0.006542 -0.014726 -0.007181 -0.031479 0.003001 -0.029561 0.005157 -0.018899 0.021831 -0.035112 0.00694 0.016859 0.010203 -0.019209 -0.009062 -0.012164 0.023509 -0.02735 -0.02671 -0.02763 -0.002849 -0.032079 0.011805 0.026897 0.003029 -0.004774 0.008965 -0.005127 -0.028165 0.012335 0.022584 -0.015582 -0.011123 0.004644 -0.021147 -0.033569 0.004548 0.01873 -0.005594 -0.026046 -0.030087 -0.015075 0.01879 0.012734 0.014573 -0.009255 -0.008935 -0.000869 -0.033375 0.030803 -0.000828 0.02976 -0.020042 0.015933 0.005776 0.022179 -0.021903 -0.002129 0.010893 -0.00556 -0.010339 -0.019361 -0.020205 0.006806 0.025296 0.000621 -0.000922 0.021331 0.020576 0.025646 0.007756 0.027935 0.021943 -0.006212 -0.01651 0.011348 0.008186 0.013384 0.03235 0.031484 -0.033142 0.01628 0.023464 -0.014638 0.007697 0.001772 -0.014691 0.010795 -0.037677 -0.025222 0.011225 -0.023406 -0.02753 0.0154 0.005559 -0.035341 -0.002314 0.014837 -0.024808 -0.033008 -0.042469 0.008287 -0.012455 0.011641 0.027679 0.013182 0.015394 -0.007019 -0.012762 0.010517 -0.011243 -0.006951 0.038993 -0.004757 -0.018377 -0.0045 -0.027301 0.008305 0.023143 0.024595 -0.029321 0.005805 -0.01138 -0.002227 0.002989 -0.006271 -0.018234 0.015688 -0.00771 0.022076 -0.000298 -0.021564 -0.002952 0.013589 -0.007431 0.029349 -0.014506 0.02853 0.001073 0.009524 0.030558 -0.017016 0.019211 -0.023985 -0.023976 0.002283 0.019152 0.033045 -0.026068 0.030603 -0.006328 0.023439 -0.0396 -0.007519 -0.001816 0.024267 -0.023915 -0.001079 -0.018299 -0.050941 -0.018195 0.011331 -0.002763 0.01271 0.011476 0.035607 0.038079 0.035345 0.035169 0.039141 -0.023223 -0.010266 -0.031806 0.030858 0.004293 -0.02574 0.027099 -0.021907 0.023309 -0.035858 0.019219 0.010894 -0.032778 0.00227 -0.021248 -0.024236 -0.018552 -0.015735 -0.032071 -0.019854 -0.035547 -0.016717 -0.01947 -0.036856 0.025136 -0.03005 0.035666 -0.019444 0.011575 -0.014037 0.032415 0.011551 -0.029933 -0.002595 -0.032939 0.001976 -0.013638 -0.000844 -4.2e-05 0.018102 -0.012471 0.024329 0.010744 0.020734 -0.028662 -0.003141 -0.02984 -0.004307 -0.041328 -0.034278 -0.029584 -0.029721 -0.012915 0.022976 -0.026417 -0.040976 -0.036757 0.025618 0.042432 0.012967 0.024923 -0.031623 -0.034089 -0.0309 -0.012343 -0.038637 0.016374 -0.013531 -0.017524 0.031352 0.034306 -0.02772 -0.003919 0.024079 0.002536 -0.012919 -0.024052 0.021942 -0.007846 0.034937 -0.036051 -0.008903 -0.028221 -0.047249 -0.016903 -0.020654 -0.012178 0.045141 0.048101 0.001052 -0.028622 0.03308 -0.027909 -0.007671 -0.013595 -0.034963 0.035737 0.003101 0.030166 0.007076 0.031143 -0.015662 0.011696 0.004897 0.024171 0.033883 -0.024085 0.000362 -0.012998 0.026137 -0.015018 -0.040114 -0.037257 -0.032211 0.037666 -0.002741 0.04764 0.009564 0.048879 0.019363 0.005698 -0.003232 0.019229 -0.000415 0.011142 -0.022728 -0.008 0.015321 0.004046 -0.013984 -0.018559 -0.010278 -0.011562 0.005444 0.0056 0.006626 -0.011799 -0.025129 0.013951 -0.00789 -0.042918 0.006946 -0.037577 -0.009349 0.021501 0.034672 -0.00737 0.02686 -0.019379 -0.014578 0.005068 -0.004838 -0.01063 0.019977 -0.015252 -0.028276 -0.006974 0.005994 -0.027961 0.000367 0.019956 0.03344 -0.00973 -0.019924 0.021675 -0.029757 0.02099 -0.042244 -0.035598 -0.040623 -0.030338 -0.018682 0.03373 0.025933 0.011236 0.019432 -0.010232 0.028762 -0.001337 -0.030023 -0.029182 -0.034204 0.013759 0.014442 -0.031836 -0.040154 -0.003584 -0.010599 -0.031267 0.004162 0.0197 0.046015 0.027297 0.001928 0.018332 -0.003328 -0.010869 0.016005 -0.038915 0.024018 0.028109 -0.020631 0.005345 -0.014357 0.012267 -0.011529 0.005206 0.035404 -0.007814 0.000661 -0.018662 0.010012 -0.018455 0.01727 -0.01431 -0.024411 -0.016575 0.042984 -0.006725 0.039008 -0.00167 0.037026 0.022947 0.016743 -0.029423 -0.011666 0.024077 -0.040133 -0.00547 0.007844 0.02713 -0.011694 -0.016225 0.004911 -0.029285 -0.029499 0.013232 -0.021182 0.033754 -0.002181 0.024729 -0.036888 -0.030474 -0.022263 0.021101 0.025498 0.010728 0.019673 -0.012735 0.003303 0.001567 0.011533 -0.022102 0.01875 -0.036864 0.005829 0.018294 -0.033784 0.005156 -0.007708 -0.03129 0.001835 0.00699 0.007048 -0.025951 0.014376 0.031246 -0.027833 0.009151 -0.000397 0.012501 0.02768 -0.013583 0.027857 -0.020837 0.034841 -0.011068 -0.006831 0.004879 0.010263 -0.007011 0.001271 0.030522 0.015326 0.032681 -0.014817 0.019488 0.004048 0.01179 0.034372 0.005531 -0.027654 0.026106 -0.00656 0.024034 0.002078 0.012216 0.00689 -0.007985 -0.00163 -0.016084 -0.007657 -0.024258 0.031938 -0.003164 -0.031077 -0.027257 -0.013299 -0.027888 -0.034681 -0.016341 -0.005597 -0.00381 -5e-06 0.014882 0.005794 -0.048312 -0.004868 0.020739 -0.011219 0.022059 0.020363 0.02434 0.025948 -0.006825 0.025335 -0.005374 0.019442 0.018036 -0.021758 0.033395 -0.027317 0.019136 0.017146 0.012218 -0.024105 0.013579 -0.036373 -0.005347 0.018376 -0.019391 0.019601 0.001014 0.010807 -0.037334 0.016698 0.036713 0.02059 -0.040836 -0.041455 0.011773 -0.029066 -0.006417 -0.010342 -0.005881 0.00758 0.017125 -0.028636 -0.025158 -0.003639 0.001278 -0.017646 0.012614 -0.007382 0.015828 0.019705 -0.02868 0.013322 0.017698 -0.010156 0.006386 -0.012163 0.027258 -0.007115 0.006385 0.034761 0.011942 -0.039126 -0.008072 0.017984 0.019963 -0.019897 0.010803 -0.026453 -0.020509 -0.029959 0.02065 -0.030589 0.028034 0.005477 -0.033005 0.005309 0.000356 -0.023375 0.028826 -0.042691 -0.013878 -0.011738 -0.037477 0.009245 0.023096 -0.002261 0.006944 -0.027875 0.036269 -0.014803 -0.032116 -0.002544 -0.024272 0.016469 -0.025971 0.019089 0.020889 -0.029999 0.03485 -0.002272 -0.02257 0.023631 0.02562 0.035349 -0.022379 -0.033957 -0.030915 -0.004984 0.001134 -0.014218 -0.001006 -0.023045 -0.022774 -0.030515 -0.013847 0.043493 -0.020011 0.004797 0.02527 0.032243 0.032253 -0.028512 -0.005371 0.007902 0.035232 0.003481 0.013914 0.016109 0.006671 -0.001532 -0.025919 -0.031385 -0.00757 0.021779 0.014436 0.031736 -0.016903 -0.009287 0.004875 0.014591 0.005033 0.025319 0.006218 0.031132 -0.031556 -0.011194 0.016394 0.007744 -0.034728 0.004383 -0.025902 0.040053 0.026266 0.024556 -0.0023 -0.013935 -0.022535 0.004389 0.003829 -0.003926 -0.024852 -0.036506 -0.003012 0.044166 0.028021 0.035271 0.034585 0.010016 0.009736 0.034811 -0.026423 0.020688 -0.029921 0.02126 0.007295 0.008228 0.006002 -0.000572 0.031217 -0.017382 -0.011898 0.032917 0.012438 0.007857 0.035975 -0.009286 0.004014 -0.02065 -0.037376 -0.035173 -0.026761 0.011427 0.027547 -0.0163 0.032654 -0.021722 -0.026907 0.016629 -0.018233 0.006019 -0.034307 -0.009579 -0.022428 -0.007528 -0.011675 -0.011602 -0.012827 0.00025 0.022018 0.019066 0.012656 0.02503 0.023234 -0.025043 0.008239 0.015036 -0.021713 -0.002885 0.018617 0.004194 0.036505 0.007144 0.01147 -0.02388 -0.008971 -0.033832 -0.032398 0.033717 -0.013558 -0.012978 -0.004702 0.018969 -0.003101 -0.023257 0.038967 -0.030651 0.018194 0.006252 0.000765 0.022973 -0.004781 -0.029733 0.002935 -0.047959 -0.00328 -0.012355 -0.026661 -0.030216 0.011246 0.017473 -0.026247 0.000216 -0.016274 -0.030529 -0.015344 -0.03887 -0.024315 -0.042937 0.001844 -0.007306 0.007842 -0.026115 0.021303 0.004328 -0.002281 -0.013901 0.025223 -0.020332 -0.021443 0.010989 0.011977 -0.028084 0.00336 0.006906 -0.030767 0.037709 0.026117 -0.033792 -0.012599 -0.01846 0.019654 -0.007545 0.011604 0.000148 0.008945 0.015446 0.023074 0.021252 0.011403 -0.022696 -0.036942 0.00876 -0.006575 -0.032147 -0.023308 -0.018119 -0.024332 0.022244 0.00109 0.009523 0.033436 0.020651 -0.01463 -0.008379 -0.008259 0.026854 -0.026546 0.034254 -0.029822 0.019211 -0.035381 -0.033448 -0.033712 -0.014306 -0.01554 -0.004082 0.036156 -0.017388 -0.004346 -0.02061 -0.036347 -0.034962 0.007056 -0.021455 -0.017225 -0.008314 -0.02643 -0.005824 0.013967 0.024479 0.023879 0.021163 0.027205 0.02337 0.038817 -0.02204 -0.041997 -0.004257 -0.006374 -0.015372 0.021674 -0.00937 0.030104 0.030148 -0.0297 -0.028819 0.004581 -0.030387 -0.017457 0.027197 0.033238 -0.003062 -0.030565 -0.030619 0.002059 -0.034979 -0.020772 0.019265 -0.021874 0.006125 0.02139 -0.00592 -0.002389 0.037572 0.021099 -0.023516 0.017161 0.000587 -0.00448 0.015443 0.026964 -0.039656 0.011227 -0.025599 -0.004175 -0.032136 -0.025022 0.004455 -0.02966 0.031924 -0.005219 0.043667 -0.022067 0.035294 0.027868 -0.040584 -0.027449 -0.009167 -0.007829 -0.024772 -0.02057 0.028469 -0.006446 0.033949 0.032542 0.009462 -0.002658 0.003163 -0.005643 0.033786 0.025061 -0.012232 0.007911 0.02701 0.013549 -0.027807 -0.012452 -0.028077 0.044015 0.011206 0.027526 0.023109 0.039348 0.006829 0.032891 0.019529 0.022786 -0.008838 -0.027799 0.022546 -0.007893 0.016944 -0.000662 0.01769 0.034121 0.009523 0.004228 0.030191 0.027328 -0.007301 0.030987 0.003261 0.032621 0.036899 0.008579 0.025128 0.03569 0.016705 0.017316 0.032217 0.028638 0.024785 -0.034919 0.021159 0.019353 -0.020543 -0.020218 -0.031941 0.02326 -0.021852 -0.033014 -0.005328 -0.028491 -0.02053 -0.005101 0.005032 0.034588 0.005056 0.042039 0.025067 -0.015927 0.020855 0.02036 0.032081 -0.028126 -0.040054 0.021966 0.011499 0.00587 0.028704 0.028365 0.026196 0.02634 -0.034612 -0.001635 -0.011283 -0.032668 -0.001337 0.025437 -0.014699 -0.01016 0.021128 -0.028754 0.03426 -0.028495 -0.017147 -0.015464 -0.032908 0.024768 -0.036403 0.011401 -0.018162 -0.020906 0.000214 0.007513 -0.029696 0.025002 0.027317 -0.021571 -0.018987 -0.001812 -0.033909 0.028409 0.016505 0.014738 0.009065 -0.01884 -0.002587 -0.005373 0.032211 0.032129 0.022273 0.00981 -0.031433 -0.020798 -0.015002 0.008351 -0.038872 0.026947 0.008106 -0.031551 -0.029846 -0.015916 0.005239 0.026507 0.010907 0.019033 -0.005046 -0.009168 -0.019999 -0.02447 -0.012748 0.02796 0.032327 -0.00647 0.009708 0.02137 -0.007863 0.031276 -0.024152 -0.005039 0.034468 0.006875 0.029067 0.000567 0.008946 0.026086 -0.03471 -0.013832 -0.033986 0.00049 -0.014495 0.031891 -0.029914 -0.000111 -0.010153 0.007952 0.019443 -0.003741 -0.0321 0.004381 0.012727 0.015278 -0.027707 -0.015097 0.037204 -0.028588 0.020001 0.040435 -0.000487 0.039667 -0.023905 0.030552 -0.037393 -0.020719 0.001511 0.023022 -0.005514 -0.001433 0.035588 0.028226 -0.014824 -0.023314 0.00669 0.00638 -0.007345 0.019558 0.02557 -0.030557 0.015626 -0.008949 -0.008708 -0.032284 -0.002808 0.016832 0.029663 -0.001444 0.023975 0.015291 0.005156 -0.023212 0.029524 0.00975 -0.036164 -0.006442 -0.020749 0.034602 0.022476 -0.021019 -0.014518 -0.033409 0.015535 -0.003395 0.006998 -0.030812 0.017698 -0.005228 -0.016478 -0.004819 -0.023393 0.032332 -0.0152 -0.002567 0.023479 -0.006958 -0.042117 -0.021287 -0.000862 -0.023751 -0.003138 -0.007652 -0.016036 -0.010934 0.016838 0.021287 -0.002849 0.008504 0.019196 -0.025582 -0.02115 -0.003823 0.005301 0.023068 0.015979 0.005919 -0.01711 -0.000393 -0.02098 0.018838 -0.01887 -0.004182 0.00664 0.02683 -0.021292 -0.027195 0.005324 0.0223 0.005787 0.025073 -0.036033 0.011282 -0.032525 -0.01592 0.011395 -0.002082 -0.006349 -0.039046 0.022875 0.031075 0.031024 -0.032716 -0.041434 -0.032985 -0.003047 -0.045845 0.015829 -0.03756 0.004092 -0.018489 -0.029242 0.001854 0.004729 -0.015426 0.023462 0.029244 0.029546 0.005167 -0.009804 -0.039136 0.019316 -0.024025 -0.017021 0.005991 -0.001626 -0.007771 -0.042007 0.029075 0.008547 0.028482 -0.022791 0.012807 -0.023492 -0.028245 0.01248 -0.012325 -0.001326 -0.00877 -0.035108 -0.013399 -0.03222 0.013414 0.029229 0.00231 0.014146 -0.028601 0.004388 -0.033491 0.013798 0.00986 -0.008227 -0.030141 -0.040585 -0.013287 -0.028054 0.015153 -0.017753 -0.032236 -0.024838 -0.010835 -0.022154 -0.020478 -0.038325 -0.012699 -0.026764 -0.007088 0.02774 0.019594 -0.001373 -0.019211 -0.027376 -0.013683 -0.003331 0.014875 0.010913 0.028187 0.008816 -0.030895 0.028423 -0.030563 0.010952 -0.038281 -0.023575 -0.00474 -0.009399 0.0451 0.003787 0.020666 -0.023738 -0.025883 0.017486 0.019883 0.010417 0.02396 -0.014235 0.037446 0.022254 0.037402 -0.010564 0.001268 -0.003804 -0.024683 0.003324 0.014677 -0.005228 0.029882 -0.030462 -0.00108 0.000723 0.007869 -0.005405 -0.006676 0.01174 0.012905 0.011215 0.023996 0.003036 -0.020881 -0.000554 0.019293 0.032102 0.030538 -0.027306 0.02526 0.040184 -0.025783 -0.040483 0.001462 0.01015 -0.00541 0.017764 0.043417 0.031934 0.006465 -0.037527 -0.013217 0.019989 0.01525 -0.017965 -0.02208 0.013222 -0.010397 0.002561 0.004671 0.026682 0.028359 -0.027893 -0.032471 0.025061 -0.009176 -0.02369 -0.010574 0.017608 0.023527 0.001993 0.037241 0.017525 0.012215 -0.008089 -0.03183 -0.003084 0.024431 -0.033076 -0.023545 0.012916 -0.016846 -0.035023 0.031838 0.030963 -0.003176 0.025737 -0.028541 -0.008376 -0.006526 0.025072 0.00806 -0.035895 0.019981 0.004115 -0.019954 -0.001376 0.01007 0.032092 -0.010407 0.036746 0.028186 0.009263 0.009113 -0.001295 0.02693 -0.029299 -0.004491 0.011615 0.000835 -0.004985 -0.031447 -0.018918 -0.002072 -0.003506 -0.002739 0.00383 0.036233 -0.012614 -0.005922 -0.00737 0.030061 0.019787 -0.018834 0.006454 0.01465 -0.000482 0.034079 -0.012885 0.006056 -0.036036 -0.0126 0.032886 0.000996 -0.012067 0.027845 0.007083 0.000365 0.030644 0.002452 0.015231 -0.022218 0.014038 0.005692 -0.009725 -0.041064 0.02428 -0.038012 0.019929 -0.002608 -0.032331 0.017163 -0.016247 -0.007316 -0.006489 -0.032083 0.004735 -0.03116 -0.025696 0.023555 0.03554 -0.0163 0.028652 -0.005882 0.041512 0.021426 0.035752 0.0147 -0.018119 -0.000419 0.003345 -0.030647 -0.045877 -0.00975 0.008255 0.021467 0.02023 0.035929 0.011832 0.015589 -0.021668 -0.000316 0.023917 -0.006098 -0.027496 0.033882 0.016075 -0.004201 -0.015212 0.002071 -0.016377 0.007419 -0.01785 0.001646 0.001217 0.009788 -0.014845 -0.003179 -0.015389 0.011449 -0.018991 0.002824 0.048478 0.010798 0.015576 -0.007569 0.003102 -0.008955 -0.023456 -0.006259 0.005436 0.015352 -0.028451 0.029776 -0.02435 -0.018851 0.01925 0.029741 -0.017566 0.016936 0.02008 0.036266 0.008072 0.03423 0.018198 0.03902 0.046432 0.050403 0.03286 0.001763 -0.018112 0.013606 -0.036249 -0.016888 0.018636 0.00444 -0.027717 -0.031894 0.003023 -0.018619 0.031458 0.035871 0.031109 -0.031895 -0.032022 0.007388 -0.004448 -0.035291 -0.011878 0.036236 -0.002227 0.026491 0.012105 0.039415 0.045631 0.016602 0.02634 0.036447 -0.005963 -0.036214 0.014463 -0.026384 0.028831 -0.003713 -0.034108 0.008015 -0.008131 -0.0362 -0.046979 -0.036906 -0.030555 0.01001 -0.053497 -0.023183 